0.00215901
0.000927382
0.00138984
-0.00118131
0.000937019
-0.00164848
0.0036383
-0.000122004
0.000108738
0.000189309
0.00041861
0.00345601
-0.00133716
0.00433083
0.00234419
0.00158693
0.00136788
-0.000388328
0.00234698
0.00424126
0.00722945
-0.00333445
0.00507038
-0.0090899
-0.00042811
0.00119751
-0.000368536
0.0017483
0.000188741
0.00402031
-2.07467e-05
-0.00293431
-0.000872653
0.00145402
-0.000386578
0.00199905
-0.00219242
0.00054608
0.0142185
0.00620451
-0.000593591
-0.00305277
-0.000699574
0.00125808
-0.00415106
0.00166671
-0.0033237
-0.000163152
0.0127144
0.00406331
0.000321952
-0.000411999
0.00763347
0.00270244
0.00136546
0.000452982
-0.00270386
0.000548111
-0.00391511
0.000616306
0.00135677
6.35836e-05
0.00456763
0.00216254
0.000209203
-0.00169008
0.00205227
-0.00107665
0.00218217
0.000435802
0.00305409
-0.00312914
-0.00130709
0.000738333
0.000383998
-0.00563367
-0.00415831
-0.000285966
0.00102102
0.00566392
-0.00202949
0.0124044
-0.00449127
0.00418321
0.00290985
0.0109641
0.00420304
0.000790695
0.00339769
-0.00350331
0.00197056
-9.43616e-05
0.00867468
0.0020918
0.0010475
-0.00173719
0.00229424
0.00400461
-0.00148207
0.00151422
0.0012854
0.00211213
-0.00265309
0.00570584
0.000323995
-0.000228245
0.00421789
0.00338145
-0.00187122
0.000344382
-0.0025952
0.000426375
0.000537066
0.00175991
0.00564076
-0.00215014
-0.000700581
0.00225648
-0.000474219
-0.00106814
0.000202706
0.00692229
-0.000725639
0.000112781
0.00209639
0.00814044
-0.00148685
0.0027708
0.00110015
0.000666525
-0.00376118
-0.00152992
0.000941922
0.00375217
-0.00198481
0.00228944
-0.0023403
-0.00251493
-0.00469512
-0.000832695
-0.00112055
0.000573616
0.000319144
-0.000679355
0.00294545
-0.000298169
0.000637357
0.00186961
0.00112061
0.00902418
-2.36633e-05
0.0150682
0.0140995
0.00265693
0.000956835
0.00909849
-0.000906288
0.00732121
0.00228774
-0.00596057
0.000902232
-0.00451064
0.00025752
-0.000583389
0.00263885
-0.0050264
0.0019529
-0.00808258
-6.57427e-05
-0.00143303
0.00987978
-0.000830744
-0.0091427
0.00310978
0.000146235
-0.00138576
0.00572797
0.00438891
0.00105798
0.00202828
0.00399235
0.000703566
0.00312678
-0.00170192
0.000745171
0.00119166
0.00046602
0.00288618
-5.31688e-05
-0.000614368
0.00927517
-0.0030689
-0.00655652
0.00422925
0.00519139
0.000497647
-0.00788589
0.00327371
0.000759455
-0.00250437
0.0014306
0.0142271
-0.00359924
0.00115716
-0.00503878
-0.000564141
0.00120631
0.00104853
-0.00313412
0.000130288
-0.00448041
0.00267931
0.00905042
-0.00247747
0.000856495
0.000130935
-0.00111457
0.00121394
0.00249361
1.86654e-05
0.00332201
0.00286296
-0.00358018
0.000618075
-0.00354903
0.00921261
-0.0018938
-0.00347685
0.00848225
-0.00213903
0.00359253
-0.00305377
-0.000453035
-0.00029708
-0.00406558
-0.00265955
0.00267407
0.00296258
0.000500051
0.00223036
0.00202346
0.00129902
0.00132228
-0.000175185
-0.00149533
0.00199097
-0.000719935
0.00087343
0.00456417
-0.000804522
0.00135076
0.00958372
0.00714553
0.000282322
-0.00119522
-0.000173407
0.000435566
-0.00124817
0.00509388
0.00158739
0.00279752
0.000877491
-0.00426185
0.000937281
0.00106666
0.00125521
0.0006495
-0.0014049
-0.0010404
0.000301141
0.000294121
0.00159195
-0.000695643
3.62722e-05
0.000573741
0.00555349
-0.00101842
0.00214839
0.00294319
-0.000294885
0.00112397
0.00566663
0.000331409
-0.000642378
0.000922826
-0.0010801
-0.00236994
0.000510958
0.000906225
0.0123872
0.000759625
-0.00312385
0.00385856
0.0103896
-0.000765219
0.00149126
-0.00139951
0.000532956
-0.00133504
0.00125299
0.00159076
0.00159147
-0.000705244
0.000685105
-0.000708871
-0.00488091
0.00464687
-0.00131236
-0.00409535
0.00215867
0.000924038
-7.08497e-06
-0.00325043
0.00313735
-0.00107251
-6.19277e-05
-0.00209826
0.00652834
0.00548052
-0.00188745
0.00136862
-0.00470266
-0.00135873
0.000105209
-0.00582739
5.48938e-05
-0.00189092
-0.00144198
0.000251865
0.000308807
-0.000630353
0.00421067
-0.00360039
-0.00131862
-0.00250031
0.00131129
0.000136023
-0.000853365
-0.00197594
0.00315972
-0.000526793
0.00539865
-0.00215073
-0.00204852
-0.000660937
-0.000600189
0.0014163
-1.96748e-06
-0.000791823
0.000114135
-0.00300789
-0.000714636
0.00201996
-0.000757384
0.00096427
-0.00060376
-0.0019903
0.00198522
-0.00105872
0.00144801
-0.000691007
-0.00430777
-0.0012229
-0.00328453
0.010013
-0.00151922
-0.000484273
0.000317348
-0.00132344
-0.00167057
0.00111715
-0.000130782
-0.00089551
0.000433915
-0.00394557
0.00105783
-0.00501528
-0.000311176
0.000932142
0.00416736
0.00365355
5.82479e-05
-0.000608455
0.00408517
0.00213447
-0.00561124
-0.000690098
0.00325016
-0.00270707
0.00103582
-0.00012777
-0.000198314
-0.000139272
0.00262914
0.00256278
-0.000923535
-0.000265024
-0.00047612
0.0021929
0.00226066
-0.00191878
-0.00321039
0.00167895
-0.000402052
-0.00104134
-0.00332609
-0.00292339
-0.00180759
0.00232316
-0.00130787
-0.00346991
-0.000614938
0.000969587
0.0031645
-0.000572561
-0.00733255
0.000358234
-0.0003184
0.00341032
-0.000301703
-0.00142085
-0.000699614
-0.000426906
-0.00249064
0.00123237
-0.00261516
0.000686735
-0.000714681
0.000197662
0.000144568
-0.000152874
-0.00123356
-0.00112192
0.000340127
-0.00197992
0.00141539
0.000969586
0.000243081
0.00156758
-0.00155534
-0.00675273
0.00227392
0.00187348
0.00170913
0.00283948
-0.00145853
-0.000717149
-0.00333036
0.00122743
0.00111516
-0.00178667
6.8933e-05
-0.00187423
0.000659284
0.000680081
0.000394342
0.0034214
-0.0012713
0.00384948
0.00254095
0.000651302
0.00141222
-0.000463223
-0.00374601
0.00206795
-0.00119307
-0.000883879
-0.00203075
-0.00064772
-0.000802838
0.000490467
0.00242534
0.0029756
0.000873556
6.39883e-05
-0.00107366
0.000295389
-0.000242665
-0.0045449
-0.00145701
0.00191112
-0.00185809
0.000883661
-0.00261298
-0.00185142
0.000632952
0.000797442
-0.000930984
-0.00138896
-0.00151392
0.000674425
0.00195777
-0.00140729
0.00130058
-0.000636107
0.000601908
-0.000509404
-0.00292822
0.000911106
-0.00350793
0.000327292
-0.000413622
-0.00153831
0.00182526
-0.000412831
-0.00469532
-0.000990404
0.000447889
0.00513061
-0.00114358
-0.00205029
-0.00181929
-0.00135677
-0.000258708
-0.000747367
-0.00128992
0.00409854
0.00174602
0.000497116
-0.00239579
0.00073552
0.00128414
-0.000687329
0.00152156
0.00241089
-0.00380521
-0.00154355
-0.00162998
-0.000183588
-0.00389779
4.50731e-05
0.000723863
-0.000868915
0.000499669
0.000981518
0.00041644
-0.00348303
-0.000622268
-0.00109825
-0.00352525
0.00246721
-0.00453404
-0.00137265
0.000840769
0.00183601
-0.000343221
0.00190297
0.000382626
0.00213724
0.00160598
0.000254064
0.00152965
0.000324478
0.00523843
0.000375256
-0.000500735
0.00232184
-0.00225751
-0.00295907
-0.000639378
-0.00393019
-0.000129966
-0.00395126
-0.000997911
0.00190516
0.000241337
-0.00101132
0.00674325
0.000537001
-0.000623368
0.000485571
0.00117869
0.000398973
0.00251949
-0.00159241
-0.0028779
-0.000897905
-0.00492753
0.000793118
-0.00224076
0.00075057
0.000398986
-0.0033615
-0.00163233
-0.002422
0.00259818
-0.00185283
-0.00257066
0.000794701
-0.000184397
0.000505966
-0.000707282
-0.00342638
0.00492271
-0.000166831
-3.18866e-05
0.00168257
0.00120072
-0.000936921
2.13642e-05
0.000626138
0.00369616
0.00119864
-2.54712e-05
-0.000175237
0.000661947
-0.00031681
0.00261321
-0.0020578
0.000202943
0.000346294
0.000467034
-0.00290301
-0.00144467
-0.00231029
0.000612127
0.0013128
-0.00275185
0.00528345
-0.00317309
0.000113488
0.00287336
-0.00267601
0.0006759
0.000701886
-0.00177439
0.000820823
-0.00102461
-0.000395416
0.000899502
-0.0015126
0.00041563
-0.00060587
0.00505432
-0.00348757
0.00079627
-0.000527043
0.000314704
0.000306539
-0.000794697
0.00162092
0.000346935
-0.00169409
-0.00171146
0.00175551
-0.00203736
0.00209595
0.00231938
0.00221224
-0.000113744
0.00140463
-0.00039575
-0.000113855
-0.000324562
-0.00192833
-0.000101712
0.004852
0.00026311
0.00156564
-0.00112847
0.000285234
0.0035284
0.000668903
0.00181209
-0.0016416
-0.000415
-0.000652369
-0.000252012
-0.00194545
-0.000197285
-0.000131016
-0.000987213
-0.000326072
-0.00111236
-0.000697737
-0.000962764
-0.00070318
-0.000717721
-0.00135184
0.000350229
0.00109355
0.00209415
-0.00274234
-0.000973859
-0.00303446
-0.000825359
-0.00191455
-0.000200831
-0.00641694
-0.000720927
0.00216551
0.00355885
-0.000859244
-0.000294337
-0.0014531
-0.00132554
0.000792758
0.000275256
-0.00159894
0.00327158
-0.00155617
0.0013078
-0.00120899
-0.00146132
-0.00366386
-0.00098565
-6.57678e-06
-0.00365608
0.0010672
-0.00110118
0.000592101
-7.01102e-05
-0.00201029
0.00375387
-0.0022563
-0.00252317
-0.00462585
-0.000463276
0.00293353
0.000443947
0.000524995
-4.79941e-05
0.00172272
-4.69471e-05
0.00143032
-0.00154889
-0.0041214
0.00378841
-0.0012004
-0.00433271
-0.000674057
0.000302841
0.000729384
0.000209701
-0.000999191
-0.00172696
0.00458307
-0.000361623
-0.000471782
0.000768436
-0.00221826
-0.00273062
0.000680994
2.87016e-05
0.00244185
-0.00305909
0.000596996
0.00212471
0.000302339
-0.00165946
-0.00102548
-0.00366119
-0.00199069
0.0034634
-0.0031766
-0.000998028
0.000254052
0.00235297
-0.000880229
-0.00102186
0.000370334
-0.00239436
0.00138203
-0.000937097
0.00222447
0.00156004
-0.00118675
-0.000853037
-0.000651103
0.00172089
0.000391507
0.00312184
-0.000208157
-0.0038722
0.000386783
-0.000140631
0.00409753
-0.001597
0.0020913
0.000427627
-0.00093675
0.00162116
-0.00343877
0.000607906
0.00287103
-0.00282038
-0.00282314
0.000125452
-0.00194892
-0.000431121
-0.00223804
0.000115923
-0.00147371
-0.00307816
5.16427e-05
0.00343585
-0.000278174
0.00163946
0.00015651
0.00109678
-0.00310696
-0.00103635
0.00134369
-0.00389143
-0.00168904
-0.00179069
-0.000440525
-0.0016628
0.00181786
-0.00321365
-0.00272029
0.00307199
-0.000138716
5.98097e-05
-0.00124751
0.000790204
0.00276659
-0.000199365
-0.00211304
-0.00360633
0.000553521
0.00152201
-0.00133614
0.000174554
0.000481013
-0.00114095
0.00134234
0.000715401
-0.000538614
0.000491085
0.0012996
0.00196088
-0.00236403
0.000745168
0.000112388
0.00169939
-0.00158072
0.000408416
-0.00939206
0.00311935
-0.00223392
-0.000453985
0.00101475
-0.000381888
0.00220498
0.000461524
0.0009932
-0.000191699
0.00010405
-0.00376693
0.000924866
-0.00239767
-0.00253829
-0.00357327
0.000271958
-0.00477464
-0.000950947
-0.00140174
-0.00102741
-0.00385979
-0.00174827
0.000964805
-0.000555608
-0.00196067
0.000771382
-0.00189811
-0.000921555
-0.00235953
0.0047652
0.00288114
-0.00422208
0.00154824
0.00196366
0.000212394
-0.00254666
-0.00348401
-0.00436293
-0.000486488
-0.0017334
0.0020442
-0.000639874
-0.000809358
-0.00293497
0.00114771
-0.000674218
-0.0018633
-0.000277164
0.00263306
-0.000867742
0.000444817
0.00107867
-0.00139545
0.000530868
0.00115168
-0.000572081
-0.00163035
-0.00064583
0.000764009
0.00979925
-0.00377991
-0.000863244
-7.63477e-05
-0.00346312
-0.00116215
-0.00414271
-0.0010893
0.00132801
0.000699672
0.00120044
-0.00305758
-0.00219591
-0.00195487
-0.00215462
0.00115044
0.000274007
-0.000563768
-0.00430336
0.000117386
0.000477316
-0.00244307
0.00331602
-0.000916341
0.000231936
-0.00107076
0.000234072
0.0011956
-0.00155069
-0.00169658
-0.00169504
0.00495778
-0.00109602
-0.00376248
0.00247219
-0.000612373
-0.00474249
0.0006721
-0.00034125
-0.0029588
-0.0033702
0.00177278
5.21345e-05
-0.00219916
0.00292267
-0.00186506
0.00147402
0.00100322
-0.000353637
-0.00378683
-0.000236543
-0.00162528
0.000292336
0.00871613
0.000823545
-0.00234016
-0.00120541
-0.00176116
-0.00152149
-0.000609714
0.00590198
-0.000356251
-0.00137039
-0.00422991
-0.000892944
0.00044247
-0.00090012
0.000635205
-0.00185729
-0.0027128
-0.000504221
0.00439465
-0.000115578
0.000787344
-0.000175589
-0.00138925
-0.000436052
0.00272207
-0.00124187
0.000200059
0.00218563
-0.000670791
0.000749284
-0.00133243
-0.000801813
0.000885041
0.00014796
-0.00048031
-0.000751172
-0.000169208
0.000886695
-0.000638006
-0.00551365
0.000796335
-0.0017697
-0.000631609
0.000626914
-0.000286241
-0.00225495
0.00174685
0.00287697
-0.00141322
-0.00320543
4.81227e-05
-0.00103356
0.00127476
-0.00301526
0.000411503
-0.000451294
0.000124524
0.00225754
-0.00138139
-0.00139308
-0.000257871
0.000441397
0.00108925
-0.00073873
0.000281625
-0.000832282
-0.00127295
0.00177706
0.000108901
0.00120056
-0.000679574
-0.00383732
-0.00170756
0.00244583
0.00133929
0.000448595
-0.000705461
-0.000883712
0.002681
0.000629447
-0.00659171
-0.00255299
0.00143103
-1.68941e-05
0.00075877
0.00199987
-0.00103121
-4.53966e-05
-0.00506861
-0.000568833
-0.0011085
-0.00170539
0.00086121
-0.00121809
0.00159791
-0.000427228
0.000156673
0.000627017
0.000406127
0.00190425
0.00174968
-0.00099864
0.000433167
0.00457643
-0.000586291
-0.002319
-0.000717719
0.00111677
-0.00244129
-5.18602e-05
0.000764965
0.000182288
-0.000310735
-0.002526
-0.0018047
-0.00443104
0.00237227
0.00076381
0.00111805
-0.00636604
0.000301326
0.00196962
-0.00204221
0.00112304
-0.000249434
0.00315545
5.48539e-05
-0.000444688
-0.00132838
-0.000154604
-0.00109644
-0.0075945
-0.00130587
0.000138584
-0.000482088
-0.00139888
-0.00332676
-0.00140829
-0.00073987
0.000302529
-0.000239172
0.00139305
0.00531541
-0.00159243
-0.000688706
-0.000195641
0.000792139
-0.00398704
-0.00589252
0.00138102
0.00148085
0.000713288
0.000358161
-0.00236588
-0.00305149
-0.000581238
-0.00102315
0.000229778
-0.00632885
5.2451e-05
0.0015885
-0.00230036
-0.00232702
0.000750737
0.00133975
-0.00278068
-0.00307638
0.00213483
0.000774544
0.000414512
0.00227768
-0.000777769
-0.000531084
-0.00188765
-0.000523245
-0.000419764
-7.02365e-05
-0.00143374
-0.00323169
-0.00118363
0.00271756
0.000447816
0.00114085
-0.0037802
-0.000889237
-0.00455058
0.00256098
-0.000784128
-0.00107789
0.000309478
0.00133465
-2.92297e-05
-0.00192086
-0.000353649
-0.00116585
0.001814
0.00139965
-0.00127161
-0.0011405
-0.00190283
-0.00239068
0.000390064
-0.000845533
-0.00227597
0.00103213
0.00334361
0.00209976
-0.000390541
-0.00153149
-0.000624
-0.000200399
0.00613162
-0.00221426
-0.00391129
-0.00322155
-0.00249441
2.12021e-05
-0.000782917
-0.000127623
-0.000126866
0.000701304
-0.000603233
-0.000166775
-0.00252323
-0.000176075
0.000349541
0.00255152
-0.00158408
0.00168055
0.00568477
0.00768302
-0.00114493
-0.00359597
0.000891032
-0.00380447
-0.000430401
-0.00511087
-0.000301103
-0.00037023
-0.00276512
-0.00415499
-0.00183041
0.00808246
-8.95295e-05
-0.00262162
-0.00725412
0.00056907
0.000826905
0.00051776
-0.0010173
-0.00662068
0.000711494
-0.00115119
-0.00209442
-7.1626e-05
0.0012806
0.0017022
-3.40957e-05
0.000555523
-0.00289346
-0.000988117
-0.00220738
0.003718
0.000647692
-0.000508451
-0.000274794
-0.00159666
0.000151868
-0.00211455
0.00019113
0.00135062
-0.000988609
0.00282088
-0.00520775
0.00050283
0.00156767
0.000415311
-0.00204964
0.000457252
0.000143085
0.00222884
0.00303631
0.00187401
0.00133949
0.00114683
-0.00126662
-0.00015443
-0.00499756
-0.00224316
-0.00214939
-0.000776596
-0.00184438
0.000501148
-0.00126913
0.00072785
0.00174212
0.000405374
0.000138339
-0.000105599
0.00101538
-0.00202825
0.00105868
0.000939745
0.00150032
0.00277084
0.000596303
-5.39574e-05
-0.00110832
0.000474137
0.00123411
0.000209706
0.000243982
0.00270535
-0.000919232
-0.00360338
0.00213606
-0.000260069
-0.00193436
-0.000559458
0.000526998
-4.11127e-05
-0.000498803
-0.000354503
-0.00300344
-0.000911635
2.07074e-05
-0.00229139
0.00170557
-0.00250558
-0.00151434
0.000621142
-0.00211878
0.00334189
-0.00190487
0.000243873
-0.00145448
0.00100987
5.15284e-05
-0.000130044
-0.0027573
-0.000482866
0.00249122
-0.000269323
-0.000366786
-0.00240321
0.000842832
-0.000714278
-0.000877315
-0.00161616
-8.17075e-05
0.000181177
0.00125189
0.000772851
-0.00129478
0.000509408
0.00313282
0.000324486
-7.02467e-06
-0.00338198
0.000153153
-0.000140883
-0.00217205
0.00395526
-0.00050271
0.000224927
-0.00109657
-0.0024678
-0.000549005
-3.70695e-05
0.00188917
-0.00456288
0.00317223
-0.00218019
-0.00113017
0.000493749
0.000968371
0.000839574
0.000117688
0.00131904
0.000348597
0.00133355
-0.000618679
-0.0013941
-0.000876013
-0.00282699
0.00164761
0.00477679
-0.000878064
-0.00154201
0.00057499
0.00137814
0.00517852
-0.000601946
-0.00137917
-0.00127333
0.000580621
0.000422718
-0.000701314
-0.000208258
0.0014401
-0.00212807
-0.00134939
-0.00767296
0.00171898
-0.00259232
-0.00536886
0.00111081
-0.000281807
0.0013973
-0.00591959
0.0005014
-0.00122403
-0.00331396
-0.00365531
0.00156535
0.000793894
-5.58138e-05
-0.00466466
0.00391967
0.000263077
-0.001205
0.0017657
-0.00159233
-0.0027367
-0.000600081
-0.000937169
-0.00113189
-0.00105805
0.00287864
-0.000944595
-0.00191583
-0.00423152
0.00136712
0.00419065
-0.00170586
0.00163443
-0.00132286
-0.00251204
-0.00173714
0.00171848
-0.00246158
0.00122733
-0.00090373
-0.00198798
-0.00363875
0.000719987
-0.00464227
-0.00272388
0.000126486
0.00101951
-0.000446549
-0.00670259
0.00077075
-0.00191381
-7.68186e-05
-0.00382151
3.37167e-05
0.000630703
0.000628712
-0.00928805
0.00171641
0.00472569
-0.00033019
-0.00345801
0.00231837
-0.000160512
-0.00144183
-0.000837461
-0.00835747
0.000421787
0.000100565
-0.00031134
0.000303706
0.00157676
0.000245739
-0.00137532
-0.000311973
-0.000412948
0.000504359
6.84678e-05
0.00319611
-0.000490013
-0.000361551
0.00354655
-0.00410741
-0.000138611
0.00128106
-0.000222558
-0.00258213
0.000538269
-0.00102174
0.00341496
0.00215709
0.000536935
-0.0053797
-0.00253651
-0.00177144
-0.00153576
-0.000886403
0.000298729
-0.000451674
-0.00101178
0.00108017
0.00342463
-0.000873818
-0.0011879
0.00109368
0.000571825
0.00160238
0.00201894
0.00184158
-0.000285405
-0.000592628
-0.0026117
-0.00145004
0.000192615
0.00020612
-0.000304814
-0.00127105
-0.002649
-0.00298039
-0.00069327
-0.00161363
-0.00203601
-0.000715672
-0.000391544
0.00064446
-0.0011693
-0.00143097
0.00149295
-0.000416228
-0.00229592
-0.001123
-0.000122317
-0.00205006
-0.00181659
-0.00298393
0.000895288
-0.00208543
-7.95337e-05
-0.00196665
-0.00169816
0.000764685
0.000569684
0.00200354
3.30096e-06
-0.000248968
0.00046902
-0.000539398
0.00130824
-0.000534875
-0.000635552
-0.000332509
0.00051644
-0.00103684
0.0032426
0.000214187
-0.000635836
0.00152682
0.000692024
-0.00073189
-0.000873573
-0.00270316
0.00249125
0.00124059
-0.00193139
-0.00099086
0.000646975
-0.00211762
-0.00220739
0.00281897
-0.00142106
0.00169304
0.000109661
0.00160987
-0.00111914
-0.00089444
0.00188635
0.00107788
0.000737432
0.00478658
0.0038657
-0.000241309
-0.00254015
-0.00238554
0.000478215
-0.00290276
-0.000394633
0.00354801
-0.000537375
-0.000584436
-0.000261951
-0.00314732
0.00125032
0.000284215
-0.000927323
-0.00274291
0.00124841
-0.00469036
0.000668546
-0.00214275
0.00073194
0.000282525
0.000422995
4.4606e-05
-0.0016163
-0.00122652
0.000117275
0.000368076
7.34286e-05
-0.00128017
-0.000349409
0.00182295
0.00205329
0.00141926
-0.00280359
0.00441062
-0.00252991
0.000551723
0.00138835
-0.00286543
0.000627422
-0.000218214
-0.000402182
0.000465637
-9.06365e-05
0.000541942
-0.00269766
-0.00161275
-0.00225997
-0.000936802
0.000562219
0.000161899
-0.00230505
-0.00145047
-0.000116392
4.05138e-05
4.72038e-05
-0.00323957
0.00355003
0.000628961
2.90123e-05
0.00203525
-0.00829293
0.00166035
-0.000183685
-0.00327303
0.00163825
0.00216444
0.000102952
0.00136426
0.000533612
-0.000889093
-0.00288883
-0.00302738
-0.00342366
-0.00193134
7.58037e-05
-0.00427643
-0.00222799
0.00266173
-0.000667299
-0.00250075
0.00369983
0.00418021
-0.00107583
0.00433432
-0.000960247
0.00368386
0.000878761
-0.000224559
-0.00221142
-0.00180413
0.000431113
-0.00708234
-0.000199301
-0.000857298
5.48306e-05
-0.0039657
0.000549968
0.000272221
0.000697568
-0.00532811
-0.00266759
-0.00356543
-0.00088223
-0.000250911
-0.000846828
-0.000522117
-0.00132758
0.00138289
-0.00235737
0.000767447
-0.00012408
-0.000863272
0.000241042
-0.00078771
-0.000469707
6.96136e-05
0.00103807
-0.00107215
0.000897625
0.000691215
0.000388646
0.00157653
0.0031595
0.00317642
-0.00108145
-0.00125184
0.00120446
0.00197592
-0.00406582
-0.000529491
-0.00275164
-0.000411191
-0.00271634
-0.00131071
-0.000892079
-0.000859265
-0.000942284
0.000556685
-0.000299508
0.000241771
-0.00162887
-0.00115539
0.000159776
0.00361578
-0.00160985
0.000350887
0.00059641
-0.000904858
0.00233919
-0.000468644
0.00206572
0.000313913
-0.000504103
-0.001383
0.00408806
-0.00136433
-6.01816e-05
-0.00637275
0.00200578
0.00014881
-0.00142284
-0.000196963
6.76673e-05
-0.0026306
-0.000472885
-0.000937779
-0.00273143
-0.00739969
0.00133441
-0.00146435
-4.01029e-05
-0.00234482
-0.00262723
0.00420615
-0.000151808
0.00249509
0.00265692
-0.0004865
0.00195187
-0.000241706
-0.00114861
0.00153133
-0.000665131
-0.00257041
-0.000697208
0.0002418
-0.00599926
0.00141476
0.000875198
0.000787193
-0.000686143
0.000218982
-0.00177524
0.0028118
0.000828564
-0.00213899
-0.00223658
-0.00019124
0.00130545
0.00147256
-0.00548696
-0.000194931
-0.000678962
0.00067671
0.000758409
-0.000161135
0.000582612
-0.00010286
-0.000136706
-3.22787e-05
0.00341892
0.000749213
-0.000425408
-0.000627656
-0.00207849
-0.00137489
-0.00137716
0.00485132
-0.00104033
0.000417076
-0.00528283
-2.91137e-06
-0.00101984
0.000349187
-0.000193862
-0.00323088
-0.00289676
-0.000212087
0.0013073
-0.00166538
0.000788678
0.000132329
-0.000989244
-0.00105431
0.0010067
-0.00623128
-0.00189757
-0.00185852
-8.13662e-05
-0.00312799
-0.00268628
-0.002213
-9.43121e-05
0.000674541
0.00109294
0.00105158
3.69881e-05
0.00349202
-0.000367587
-0.000619329
9.25439e-06
0.00141148
-0.00474213
0.000125186
-0.0030371
-0.000372899
0.000234801
-0.00252579
0.00017196
-0.00140875
-0.00232991
-0.0011541
0.00055324
0.000228568
0.00031222
0.00230384
0.000191231
0.000242626
0.00184284
-0.000590089
0.00118806
-0.000533313
0.000743374
-0.000392135
-0.00195247
-0.00118856
0.00190975
-0.0040644
0.000794373
0.00847386
-0.000466477
0.001114
0.00176932
-0.0014981
0.000987489
0.00205798
-0.00133023
-0.000636433
0.00267535
-0.00251012
0.00232794
-0.00307401
-0.00355677
0.00122389
-0.00161341
-0.0066419
-0.00165024
0.00244662
-0.000153508
0.000214912
0.000764663
-0.00311072
0.00460652
0.000789576
-0.000537249
0.00327777
-0.000881625
-0.000296716
-0.000711333
-0.000982443
-0.000175838
-0.00160282
-0.00090849
0.0023973
-0.000416165
-0.000864269
0.00118366
0.00163136
-0.00242777
-0.000140959
-0.0021188
0.00233257
0.0159436
0.00338736
-0.000975516
0.00151845
-0.00158436
0.000980218
-0.00224569
0.00311733
0.00209298
0.0014297
-0.0026215
-0.00247888
-0.00477694
0.00222198
0.000617188
0.000615853
0.0036233
0.00059441
0.000160873
-0.000198307
0.000981485
-0.00243622
-0.000459655
-0.00166444
-0.000664113
0.0026451
-0.000351825
-0.00454577
-0.00142711
-5.19011e-05
0.000264843
0.00185533
-0.00137171
1.32836e-05
-0.000174495
-0.00449149
-0.00113142
0.00397792
-0.00287594
-0.00472117
-0.00112433
-0.00137642
-0.00105847
7.99744e-05
0.000867774
0.00121535
-0.00103819
-0.00111553
-0.000827909
-1.94904e-05
0.000791311
0.000458529
0.00195714
0.00101421
0.00208433
-0.00203812
-0.00164111
-0.00274211
-0.000680123
-0.00196379
-0.00198319
-0.00237007
-0.00347451
-0.00562412
0.00096789
-0.00181888
0.00102321
0.000617697
0.000395791
0.000508324
0.000939959
-0.00166014
-0.00266319
0.00143229
-0.00144015
-0.00281875
-0.000405258
-0.00327137
-0.000172943
-0.00136642
0.000975819
0.00141968
0.00344142
0.000131359
0.00344928
-0.00115559
0.00136772
0.00445559
0.00182415
-0.00104304
-0.0013415
-0.00291941
0.00307727
0.00358837
0.000287144
-0.00296349
-0.00437708
0.00129769
-0.00138466
-0.00168249
0.000764854
0.000280956
0.000347873
0.00037517
0.00214112
3.95438e-05
-0.000394206
-0.00149481
-0.000745355
-0.00129701
-0.00128203
0.00349558
-0.000771908
0.00130932
-0.000630414
-0.000583583
0.000314937
-2.41402e-05
-0.00322068
0.000162317
0.000270388
0.0017692
0.000255147
-0.00064634
0.000308024
-0.00558341
0.000100524
0.00258314
0.00231716
-0.00281225
-0.00222799
0.00232482
-0.00251355
-0.00110299
0.00455619
-0.00114107
-0.00324725
-0.000796143
0.00806915
0.00189782
-0.0009414
0.00202222
-0.000378166
-0.000267496
0.00534093
0.000191419
0.00562261
-0.0037094
7.96619e-05
0.00346875
-0.00200141
-0.00295467
0.000129022
9.92493e-05
-0.000397399
-0.00431711
0.00131596
-0.00219322
-0.000592312
-0.00273374
-0.0010419
-0.00415836
0.000417205
0.00102913
0.00281718
0.000782514
-0.00109039
0.000267559
0.00182124
-0.00310027
-0.000227263
0.000402502
-0.00377644
-0.000492267
0.00146861
-0.000411343
0.00105479
0.00522836
0.00928697
0.000307648
0.00150796
-0.00076764
-0.00117974
0.00370156
0.00128695
-0.00147534
-0.00120179
-0.000481714
0.000525618
0.000954092
-0.00143791
0.000178818
0.0011007
-0.00279047
-0.000475002
-0.00211066
-0.00102397
-0.00487315
0.00161575
-0.00132094
0.0026521
-0.00292289
0.00514865
-0.00534778
0.000698254
-0.000918755
-0.00621648
-0.00547044
0.00273451
-0.00126973
0.0020482
-0.0001971
-0.000477128
0.000886746
-0.00081194
0.00384946
0.00150115
-0.00443923
-0.00165933
0.00128892
-0.000453631
0.00337406
0.00424593
-0.00195937
-0.00253433
-0.00050479
0.000152319
0.00131033
-0.00224329
0.00210062
0.00366338
-0.00180815
0.000163787
0.00111872
0.000907883
-0.00247967
4.43896e-05
0.00340422
0.00239666
-0.00151178
-0.000340742
-0.000650916
-0.000353136
-0.00036934
0.00123485
0.00427359
-0.00120523
-0.000791209
-0.00026628
0.00459663
0.00207897
0.00012974
0.000818279
0.00384701
0.00300805
-0.00301861
0.00321932
-0.00147084
-0.000741467
9.74235e-05
0.000664333
-0.00129344
8.23028e-05
-0.00182627
-0.000742022
0.0043485
0.000417537
-0.000483465
0.00366567
-0.00191239
0.00143978
-0.000987458
-0.00011144
0.00172601
0.00175934
-0.000717298
0.00116971
0.00072255
0.000325877
-0.000839095
-0.000926402
0.000208465
0.000178758
-0.00198762
0.000896524
-0.0017771
0.00130514
-0.00375365
-0.000630621
-0.000675985
-0.000845045
0.00186394
-0.00136441
-0.00186507
0.00052125
-0.00130323
-0.00210267
0.000768351
0.000299706
0.00192968
-0.00196531
-0.00303847
0.0056295
-0.0060904
0.00193954
0.00123545
0.00179056
0.000720531
-0.000944302
-0.00441558
0.00225258
-0.00142451
-0.00197137
-0.00191842
-0.000824724
-0.00040515
-0.00376002
-0.000813455
-0.000463596
0.000232016
0.00578748
0.00278837
-0.000262742
-0.00158769
-0.0020369
0.00124994
0.000574151
-0.000271455
-0.00227406
0.00143977
-0.000630066
0.00194518
-0.00100057
0.00200569
-0.00191641
-0.00467426
-0.00865672
-0.000980053
-0.000613747
-0.0029983
0.0021218
-0.00200233
0.00408021
-0.000516959
0.00255294
-0.00067835
0.000699312
0.0018104
0.000253627
0.00256954
0.00102692
0.00103729
0.00112778
-0.000544465
-0.00169976
-0.00107223
-0.00132577
-0.00281004
-0.00128304
-0.000805479
-0.00261678
-0.000508232
0.00203836
-7.55615e-05
-0.000888706
0.00131416
0.00160982
-0.00160781
-0.0032897
0.00396383
-0.00188131
0.000360171
-0.000793646
-0.00228444
0.000574832
0.0107129
0.000944177
0.00296581
0.000615259
0.00239236
-0.00116575
0.00614998
-0.00168886
0.00695876
-0.00168522
0.00121965
-0.000433252
0.000241825
-2.55365e-05
0.00364622
-0.00146925
-0.00091226
0.00581837
-0.00221109
-0.000406754
0.000716029
0.000110923
-0.002639
-0.00221089
-0.00415167
0.00622047
0.00139815
-0.0056639
0.000573384
-0.00208938
0.0017455
0.000376732
-0.000618034
0.00115915
0.000750916
-0.000305512
-0.0057265
-0.000732663
-0.00260287
-0.000672213
-0.000137226
-0.00242807
-0.00375141
-0.000828297
7.78571e-05
0.000966204
-0.00219007
0.00107478
-0.000594808
-0.00239099
-0.00189011
0.000340259
0.00222555
0.00428069
-0.000425824
0.00193461
0.00156785
-0.0017493
0.00228574
0.00124597
-0.00135037
0.00282427
-0.00196493
-0.00197316
0.00140507
0.00410475
0.00030715
4.62687e-05
0.00262327
0.00221009
-0.000182448
0.000108354
-0.00507113
0.00122332
-0.00377104
0.00280081
0.00113233
0.000209219
0.0176697
0.000121007
0.000228146
0.00559499
-0.000404664
0.000827053
-0.00325916
0.0017062
0.00116565
-0.00042588
0.00198755
-0.00053805
-0.000396649
-0.000761509
0.000333926
0.0039941
-0.00161629
0.000351149
7.45645e-05
0.00145154
-0.000246199
0.00156445
-0.00392127
-0.000883151
0.0010498
0.00649268
0.000594498
0.00193202
0.00197952
0.000778628
0.00110021
-0.00136152
0.00130649
-0.000931121
-0.00162794
-0.000692455
0.00169104
-0.00224247
-0.0014702
0.000244957
0.000265687
-0.00017142
-0.00325432
0.00349153
-0.000643548
-0.00169823
-0.000959789
0.00424431
-0.00123174
-0.00191663
0.00281901
0.00108653
0.0016803
-0.000127684
2.67075e-05
0.000433808
-0.00629572
0.00116201
0.000406532
-0.00236237
-0.00207768
-0.000636563
-0.000502363
0.00286578
-0.00228657
-0.00189019
0.00154606
-0.0015853
-0.000451579
-0.000368833
0.00241063
-0.000711055
0.00251761
0.00327821
-0.00202277
-0.00153034
-0.00110255
0.00294503
-0.00223985
-0.00160023
0.00180928
0.000224533
0.00162998
-0.000816812
-0.00343081
-0.00202275
-2.5618e-05
0.000176062
-0.00301005
0.00334218
-0.000338998
-0.0003646
-0.000382991
-0.00102458
-0.000110175
-0.000195217
0.000637504
0.000360803
-0.00405616
-2.89795e-05
-0.00118196
0.000252965
-0.000249924
-0.000595295
-0.00120809
-0.000189236
0.00189543
0.00120186
-0.00227957
0.00153223
-0.00044168
-0.00104421
-0.00211339
-0.000879375
0.00369272
0.0038756
0.00149855
-0.000334372
-0.0031326
-0.000710569
0.00707586
0.00108853
-0.000458643
-0.00268567
0.002431
0.000107622
0.00305118
0.00320421
0.00150937
-0.00181831
-0.0102722
0.00736193
-0.00085286
4.95046e-05
0.00104072
0.00112493
0.00508136
0.000239748
3.97809e-05
0.000736309
-0.00198215
-0.00149243
-0.000890929
0.00023039
-0.000552355
-0.000448668
-0.00191089
-8.21742e-05
-0.00686816
9.86194e-05
0.00077588
0.000199129
0.00263107
-0.000150038
-0.00396863
0.00446491
0.00104058
-0.000312388
0.00369806
-0.000355779
-0.00279501
-0.00281781
-0.000492424
-0.00208222
0.00100729
-0.00112674
-0.000748507
-0.000149191
-0.00061583
-5.96942e-05
-0.00132937
0.000110723
-0.000584802
-0.000250772
-0.000355866
-0.00250211
0.0060935
-0.00136651
-0.00170769
-0.000333014
-0.000902983
0.00110693
-0.000622046
0.00369312
-0.000729878
0.000758444
-0.00558783
-0.000319131
0.0029266
-0.00381628
0.0009249
-0.00128131
-0.000390544
-0.00388994
-0.00304994
-0.00170307
-0.000914629
0.000189075
0.000399749
-0.00105274
-7.15888e-05
-0.00128564
0.0012945
-0.00308407
-0.00341448
-0.000256074
0.00115201
-0.0036718
0.00234663
-0.000320742
-0.00121919
0.0015306
-0.00613532
-0.00377483
-0.00177029
0.00284523
0.00324096
-0.000708846
0.00275724
-0.000832502
-0.000833266
-0.00212176
0.00254781
0.00104669
-0.00105702
0.00130326
-0.000585107
-0.000545219
0.00185473
-0.000901201
0.00264165
-0.00139267
0.000157487
0.000415731
-0.00256611
-0.00115143
-0.000261848
-0.00439689
-0.000548261
0.00232046
-0.000574192
0.000143685
-0.000816013
-0.00298598
-0.00103044
-0.00436706
-0.00230681
0.00142257
-0.00023461
0.00340274
-0.000463728
-0.00248054
-0.000771185
-0.00199412
-0.00132282
-0.000108674
-0.00563279
-0.000639926
-3.47662e-05
-0.00154992
-0.00105811
0.000643713
0.00289575
-0.00145662
-0.000183068
0.0013048
-0.000816607
-0.00056317
-8.87812e-05
0.00145682
0.000961124
-0.000955602
-0.00369004
-0.00036786
0.000766823
0.0029892
0.000873349
-6.4737e-05
0.00111651
0.000450266
0.00231882
0.00418188
-0.00108877
-0.000135729
0.00156576
-0.00162543
0.00189249
6.15868e-05
0.00219919
-0.000716963
0.000809366
0.000632948
-0.00147374
0.000885691
5.65416e-05
-0.000495549
0.00277849
0.00337684
-0.00152624
0.000398915
0.000765952
-0.0020276
-0.000922705
-0.00206885
-0.00153436
-0.000128935
0.000117457
0.00138376
0.00178124
0.00320094
0.00309801
-0.000237589
0.00515647
-0.00222837
-0.00256777
0.0102767
0.00114633
5.25264e-06
-0.000212359
0.000678647
0.000803681
-0.000503159
-0.00137572
0.000359415
0.000227257
0.00117934
-0.0010531
-0.00170723
0.00207982
-0.00410727
-0.00143835
-0.00185614
-0.00048348
0.001165
0.000943858
-0.000459699
-0.00183821
0.000411624
9.06441e-05
-0.000339886
-0.00205617
-0.000988069
-0.00285604
0.00270792
-0.00431373
-0.000901299
0.00643898
0.00135174
-0.00394069
-0.000437332
0.000419959
-0.000839028
-0.00042754
9.5629e-06
-0.00435977
-0.0001481
-0.00253906
0.00022689
0.00138996
0.000385193
0.00133805
-0.00192398
-0.00275717
-0.00191063
0.00424318
-0.000274945
-0.00234647
0.00226026
0.00191712
-0.000854207
0.0017877
-0.00142661
-0.000459406
-0.00120812
0.000800409
-0.00109728
0.000327141
0.00361145
-0.0028301
-0.00154109
0.00223049
-0.0012366
-0.00187912
0.00195564
-0.00192845
-0.000179149
0.000730105
0.000342997
0.000370428
-0.000128903
0.000584579
0.00592574
-0.000500591
-0.00302596
0.00296306
0.00159042
-0.00186348
0.00122543
-0.000499875
-0.0034039
-0.0016572
-0.000143278
0.00130029
-0.00248268
-0.000849285
-0.000966842
-0.00339488
0.000340977
-0.00658492
-0.00171276
0.000111584
-0.000922538
-0.00120418
0.000590859
-0.000885409
-0.00381101
-0.0013649
-0.00215459
-0.00152711
0.00123851
-0.00351474
0.0025206
-0.00257315
-0.00231855
0.00166588
0.000725033
0.000306941
-0.00644811
-0.000551682
-0.00525509
0.000624414
-0.00288548
0.00388856
-0.00300824
-3.63028e-05
0.000156562
-0.0019675
-0.0017523
-1.41182e-05
-0.00144766
-0.000206584
-0.0024985
0.00248061
0.00142502
0.00103469
-0.00408897
-0.00163948
0.00367377
0.000372751
0.00325762
0.00277254
-0.0013907
0.00121099
0.00112125
0.00154677
-0.000498516
-0.00537992
-0.000676022
-0.00185916
0.00153847
-0.00244223
-7.88156e-05
-0.000224688
0.00146617
-0.000240886
0.000374594
0.000172597
-0.00116575
-0.00051703
-0.00588438
-0.00178075
-0.00066377
0.00239353
-0.000539449
0.00359906
-0.00169186
-0.00200883
-0.00241188
-0.00360981
-0.0012667
0.00403812
0.00667758
0.00208292
0.001535
-0.00187908
-0.00165878
0.00109402
-0.00155069
-0.00150636
-0.00277196
-0.00639387
-0.00282027
-0.00104511
0.000640319
-0.000298926
0.00019933
-0.00225826
0.00404946
-0.00351261
-0.00520622
-0.0021386
0.00130554
-0.00293426
0.000343053
-0.00227941
0.00128614
-0.000513773
0.00139067
-0.00202366
-0.00223694
-0.00284016
-0.00273732
-0.000544659
0.00317284
-0.000589834
0.00172221
-4.25397e-05
-0.00541768
0.00141655
-0.00325386
-0.00104635
-0.00362865
0.00078216
-0.000303094
-0.000236164
-6.99525e-06
8.25676e-05
1.95332e-05
-0.00100187
0.00389094
-0.00168324
-0.000560549
-0.00114613
-0.000421179
0.000615823
0.000442463
-0.000432643
0.0059027
0.00113363
-0.00348368
0.000862399
-0.00165425
-0.00206489
-0.00135393
-0.000931223
-0.000514603
-0.000707543
-0.00230629
-0.00115935
-0.00191718
-6.68775e-05
0.00144858
0.000967645
-0.0003666
0.00305335
0.00241254
-0.00119058
-0.0011735
-0.00323184
-0.000177068
-0.00192367
-0.0035824
-0.000100849
-0.00327751
-3.98617e-05
0.000559625
-0.000291409
0.00127823
0.00609031
-0.00197583
-0.000605015
-0.00273228
-0.00123985
-0.000757362
-0.00011418
-0.00392449
-0.00168518
-0.00102269
-0.000263775
5.94465e-05
-0.00421428
-0.0011247
-0.000531366
-0.000461483
0.000110497
0.00231708
0.000362165
-0.000274788
-0.00363858
-8.14195e-05
0.00259222
-0.00652363
-0.00200656
0.000670606
-0.000900223
-0.000206876
0.000161332
-0.00106711
-0.000166979
-0.00149291
-0.00213483
-0.00237387
-0.00131808
-0.00144756
-0.00100213
5.27588e-05
-0.0013867
-0.00234376
0.00344941
0.000125214
0.000319756
-0.000917445
-0.000892136
-0.00156115
-0.000406325
0.000971053
-0.000839955
-0.00385866
0.00188482
-0.000810432
0.0011862
-0.00165963
0.00260429
-0.00399518
0.00102082
0.00108529
0.000568368
-0.000767602
-0.00065645
0.00311248
-0.00369127
-0.00340321
-0.00209055
0.00552996
0.00159604
-0.00255228
0.000151653
0.0016397
-0.00089695
-0.000481272
-0.000491
0.00309317
-0.00274843
-0.00218972
0.0015878
0.00190902
-0.000243009
0.00327545
0.00526655
0.00282691
0.000517104
-0.00116707
0.00313563
-0.000351682
-0.00321987
-0.0020671
-0.000379827
-0.0018158
-0.00134315
0.00055343
0.00171588
0.000635898
0.000274185
-0.00142161
-0.000582442
-0.00269941
0.00240379
0.000295922
0.00442007
0.000225423
-0.00367445
-0.000130152
0.00236984
-0.00203491
-0.00078186
0.000580302
0.00158745
-0.00146003
0.00264622
-0.00218867
0.00140357
0.00097973
-0.00266192
0.00212471
-1.34654e-05
-0.000887584
0.00047541
0.000645064
-0.00397279
-0.000741441
0.000608342
