-0.00720857
0.000686208
0.0206222
-0.000207695
-0.0118334
-0.000635334
0.0264067
0.027678
0.00200901
0.014304
0.00715355
-0.00562784
0.00920746
0.0136993
0.00250419
-0.0054758
-0.00576898
-0.00311145
0.00861994
-0.0101279
0.0215418
0.0173358
-0.00233057
-0.00120188
-0.00226579
-0.00291532
-0.00562469
0.00114886
-0.00553005
-0.0106833
-0.000141553
0.0090609
0.00406774
-0.0029384
0.0114077
0.00176683
0.00208677
-0.0137209
0.00548378
-0.0019921
0.00140775
0.00326101
-0.00601909
0.0115145
0.00875419
0.006486
-0.00992525
-0.00200258
-0.0198529
0.00103222
0.0043341
0.00268378
0.0069732
0.014629
0.00252484
-0.0222389
-0.0168278
0.00944822
-0.0101718
0.00241735
-0.0317997
0.00778138
-0.00548381
-0.00665817
-0.00368816
-0.00200753
0.000805044
0.00203223
-0.0204961
0.00327083
-0.0102204
0.0182918
-0.00088554
-0.00598975
-0.000604011
-0.00854422
0.0169087
-0.00615274
-0.0075044
0.0241931
-0.0046344
0.0116435
0.00898969
0.00883172
0.0121579
0.0105295
0.0039612
0.00441045
-0.00819081
0.00539994
0.000793139
0.00789839
0.00358013
-0.0109367
-0.00122335
0.0027556
0.00801338
-0.00788229
0.00432531
0.00414839
0.00679714
0.00756183
-0.00602804
0.0176103
0.00541776
-0.0143251
-0.0150946
-0.00199826
-0.00863772
-0.00190876
7.35128e-05
-0.00485661
0.00496254
0.000650776
-0.0111296
0.00344667
-0.0175133
-0.0014462
0.00389405
0.00862337
0.0252838
-0.00163459
0.000605243
0.00899463
-0.0130101
0.00757654
-0.0159563
0.00039898
-0.00562912
-0.00245709
-0.0077174
-0.00307207
0.000205458
-0.00121418
0.00447791
-0.0124659
-0.00231216
0.000165026
0.00665388
-0.00457783
-0.0011438
0.0116698
0.00789897
-0.00547397
-0.0160923
-0.00604211
-0.00557038
-0.0123437
-0.00811417
0.0164565
0.00253972
0.00469317
0.00608795
0.00866322
-0.00731151
0.00697265
0.00358318
0.000357693
0.00173051
-0.00639484
-0.00565627
0.0100681
0.00225831
-0.0171238
-0.00458666
-0.00161346
-0.000157106
-0.00153526
0.00835887
-0.0280447
0.00142079
-0.00515821
0.00273382
-0.00229452
0.00181299
0.00299708
0.00603571
-0.0103871
0.00366445
-0.00128407
-0.0029249
-0.00862047
-0.013452
-0.000122965
-0.00238663
-0.00910214
-0.00222316
-0.000206802
-0.00290959
0.0017221
0.00920411
-0.0235187
-0.00865902
0.0145406
1.43244e-05
-0.0184382
0.0155398
0.00341127
0.00601889
0.000173961
-0.00111022
0.000663362
-0.00295119
0.000245591
-0.0193986
0.00153646
-0.00271705
-0.0103057
-0.0121244
0.00600163
8.54278e-05
-0.0118227
0.0128243
0.00135879
-0.00201018
-0.00233651
0.0136915
-0.00276368
-0.0238718
0.000934141
-0.0111365
-0.00487203
0.0187493
-0.0088722
0.00131464
-0.00153207
0.00620074
0.00681361
-0.0102875
0.000585803
-0.010789
0.0108922
0.00129791
0.00358606
-0.00103259
0.00800498
0.00837424
-0.00196085
0.0115646
0.00733925
-0.00209821
-0.00550562
-0.00989192
0.0156813
0.00205897
-0.00496137
0.00112748
-0.00411007
-0.00197661
0.00644395
-0.000808452
0.00562482
0.00492097
0.00207281
-0.00151062
0.000281449
0.00224213
-0.000823573
0.0034808
-0.00139711
0.0107636
0.00554796
-0.00629682
0.00246825
0.000859776
0.0082801
-0.0175934
0.00835355
-0.004106
-0.0107453
-0.00656355
-0.000889475
-0.000164571
-0.017923
-0.00569643
0.0187541
0.000954058
0.0118644
0.01608
-0.00898727
-0.00293753
-0.00756815
-0.00552175
-0.000184818
0.00279838
-0.00460526
-0.000488468
2.64992e-05
0.000419311
0.00775818
0.0164796
-0.00790331
0.0256716
-0.00518645
-0.00518896
0.00793441
0.00167104
0.00988426
-0.0058459
0.0117943
0.00418838
-0.00304841
-0.00616696
-0.000628785
-0.0113058
0.003694
0.011225
0.00233508
-0.012934
0.0181204
-0.00151923
-0.00244431
-0.011093
0.00953892
-0.00325897
-0.0118664
-0.017501
-0.0166302
-0.000219689
-0.00506707
0.0113333
-0.00121426
-0.00142562
0.00242417
0.00969478
0.0148402
-0.000588819
-0.0216231
-0.010316
-0.00817521
0.0042734
-0.0168819
-0.00294355
0.00897453
0.00325139
0.0103345
-0.0287797
-0.0131205
-0.00318522
-0.0292479
0.0103578
0.00347474
-0.0203121
0.000701433
-0.00702935
0.00787005
0.00369683
-0.00184462
0.00539665
-0.0175385
-0.00906478
0.0208154
0.0110465
-0.0145172
0.00282156
-0.0203215
-0.00222537
-0.00549771
-0.0019938
0.000945757
-0.0292851
-0.0163076
-0.0130905
0.00438296
-0.0103731
-0.00352243
0.00358302
-0.00204268
0.00503115
-0.0117182
-0.000979442
-0.0133961
-0.0032227
-0.00975615
0.00320236
0.00935567
-0.0122698
0.000211316
-0.0205294
-0.0118586
0.0107645
0.00111069
0.0191697
0.0127711
4.35296e-05
-0.0459592
-0.00388831
-0.00335732
0.0187944
0.00462644
0.0108777
0.000953936
-0.00686033
0.00488713
0.00494508
-0.00115265
0.00824782
-0.00920349
0.0138388
-0.0113856
-0.0045207
-0.00242315
0.0171962
0.00941643
0.000224816
0.00716374
0.0241203
0.00613504
-0.00782022
0.0261612
0.00368366
0.00230531
-0.00478236
0.00776583
-0.0130981
-0.000359248
0.0253855
0.00396871
-0.00593922
0.00217022
0.00320839
0.00582839
-0.00750361
-0.0209763
0.00479507
0.00747852
-0.000850542
-0.00125887
-0.00269717
-0.000927953
0.000231032
-0.0199264
-0.00420133
0.000534891
-0.00622658
0.00604536
-0.0024264
0.00541231
0.0066897
0.00146533
-0.0142417
0.00577708
-0.000321048
-0.00113012
0.000516556
-0.00646241
0.00855176
-0.000514718
0.0102754
0.0165958
0.00412518
0.0128779
0.00589785
0.00177134
0.0173202
0.00144389
0.00688046
0.0159426
0.0107265
0.012166
0.00835364
-0.0147296
-0.0214637
0.0080594
0.000981349
-0.00223128
0.0075895
-0.00260436
0.00615137
-0.0176442
-0.00128995
0.0112417
-0.00257744
0.00055865
0.0141943
-0.00233333
0.0103763
-0.0126845
-0.0228746
-0.0008234
-0.00111608
0.00198723
-0.0134399
-0.000710979
-0.00630083
-0.00724298
-0.00345519
0.000556036
-0.0106421
0.0199602
0.0218682
0.0059228
0.00337603
0.000301224
0.00356543
0.00572767
0.00490424
0.017659
-0.0185971
-0.00363936
0.0149677
0.00126248
0.00352907
0.0155172
0.0143746
0.00606041
0.0186504
0.0085869
-0.000524267
0.0087357
-0.00339
0.00174013
-0.00419002
-0.000756348
-0.00664818
-0.00369943
0.00209852
0.00108646
0.00590967
-0.00928196
-0.0111888
2.72228e-05
0.0114234
-0.0285659
0.00697866
0.0163882
0.00130889
0.000597129
0.0024937
-0.00546949
-0.00372966
-0.0184967
0.000792782
0.00949186
0.000286616
-0.0115343
-0.00637891
-0.0012622
-0.000544175
0.00138162
0.0044124
-0.0076629
-0.0179647
0.00577948
0.0100766
-0.0132827
-0.00447107
0.00725263
0.00937039
0.00853773
-0.0108197
-0.00347016
0.000208077
0.0127085
-0.00265527
0.00942457
0.00245398
-0.0153043
-0.00829959
0.0164697
0.010436
0.000639498
0.00454664
-0.00441083
-0.00130425
0.012053
0.00062158
0.025007
-0.00376096
-0.000718068
0.00319124
-0.00379611
0.00848228
0.00172863
-0.00156973
0.0058652
0.00301024
-0.00556782
-0.0014093
-0.0133344
-0.000769979
0.01159
-0.00482032
0.00650409
-0.00389697
0.0109548
-0.00234184
0.0180627
-0.00703778
0.00294652
0.00176003
-0.0067718
-0.0139644
-0.0161145
4.3108e-05
0.0109556
0.00362145
0.00423644
-0.00191288
0.0103197
0.00117955
0.00590315
0.00536844
-0.00286449
0.00635799
0.00110267
0.00735043
0.0120869
0.011537
0.0108185
-0.0011836
0.000432744
0.0260747
-0.00221209
-0.0168383
0.00481464
-0.00709875
-0.000549839
-0.00100234
-0.00998334
0.00391917
0.00475743
-0.00265492
-0.00425301
0.00187468
-0.00899616
0.00193955
-0.00144995
-0.00175744
-0.0115866
0.0203083
0.00182873
0.00922925
0.00275118
-0.00849379
0.00696923
-0.00627573
0.00033904
-0.0166716
0.0049662
-0.00747362
-0.0105955
0.00724355
-0.00638192
-0.00636729
0.00895905
0.00753972
0.00534604
0.0037811
0.024078
0.0120338
-0.000764664
-0.0127805
-0.00747761
-0.0324612
0.0147066
-0.00033468
0.00179797
-0.00804186
0.0178382
0.00039224
0.0113924
-0.00104258
0.00931293
0.00713601
-0.000138266
0.000933762
-0.00285694
-0.0191297
-0.00923159
0.0112844
-0.00860709
0.00162611
-0.0155406
-0.0104131
0.0111571
-0.00294383
-0.0173473
0.00659209
-0.00316004
0.000300643
0.00784063
0.012193
0.00735888
-0.0102689
-0.00634076
0.000112133
0.0146868
0.0130178
-0.0162516
0.00041211
-0.0176115
-0.00439597
0.00371532
0.00751721
0.00100959
-0.00448218
-0.00672805
-0.0169292
-0.00691498
0.00541484
0.0199835
-0.00501718
0.0125457
0.00604348
-0.00407825
0.00179151
-0.0171281
0.00422276
0.0267709
0.0107223
-0.0024891
-0.000490474
-0.0271546
-0.0160689
0.00219602
0.00580495
-0.00588866
0.00502892
0.00899597
-0.00175309
-0.0018566
0.00638066
-0.011953
0.00454852
-0.0138554
-0.0197687
0.0157316
0.00420786
-0.00229915
-0.00939854
-0.00157418
0.0100154
0.00463937
0.00325769
0.00283586
0.0278474
-0.0115095
0.0188875
-0.0061609
-0.00577776
-0.00526223
-0.000874481
0.0148389
0.0076655
-0.000852015
-0.0124747
0.00550923
0.00500001
0.00113774
0.0093113
-0.0108936
-0.0260854
0.00749816
0.00322178
-0.00223853
0.0129688
-0.00826261
0.00107536
0.00192326
-0.00635841
-0.000234061
-0.00201096
-0.00396373
-0.00209246
0.00439455
-0.00225495
0.00708389
-0.00673274
0.00801732
-0.000596662
0.00357986
-0.00137951
0.00179334
-0.00333236
-0.00439933
0.00775491
0.0168047
-0.00715413
-0.000911796
-0.00783779
0.0139866
0.00174453
-0.0112269
0.0100085
0.000850231
-0.011465
-0.0136675
0.0157882
-0.003728
-0.0112813
0.00111974
-0.00243187
-0.0041504
0.0102686
0.0195072
-0.0213993
0.00259943
-0.00464223
-0.00891158
0.00167885
0.00435821
0.00462987
-0.00180604
0.016793
-0.00499632
-0.00984407
-0.00634105
0.00286063
0.00154127
0.0119681
-0.00305341
0.0086565
-0.00412846
0.0142022
0.00355418
-0.00478476
0.00773113
-0.000128157
-0.00440543
-0.00104567
-0.00153493
-7.90572e-06
0.00341765
-0.000343675
-0.00284817
0.0109865
-0.0109179
-0.00130378
0.00125575
0.0206913
0.00198171
-0.00331857
-0.0017521
-0.00784109
0.00113002
0.00778364
-0.00739915
0.00996683
0.000149517
0.00606016
0.00146538
-0.0117277
-0.0178887
0.0129635
0.00530747
-0.00438747
-0.00625002
-0.0037868
-0.0144857
0.00121241
0.00482729
0.0168005
0.0175264
0.0158769
-0.0238708
-0.0129481
-0.0105383
-0.0232113
-0.00379428
0.0166662
-0.0154742
-0.000712924
0.00332322
0.00595132
-0.0113154
-0.00325154
-0.00928222
-0.0183971
-0.00299972
-0.00230557
0.0026192
-0.00283432
0.00123823
-0.00779721
-0.00942447
0.0024215
-0.00177577
-0.0115917
0.00280616
0.00563547
0.00347491
-0.013317
0.00462088
0.000979801
-0.00397061
0.000693898
-0.000252834
-0.00782334
0.0037078
-0.000814047
0.00196327
0.0138392
0.00353596
-0.010708
-0.0133965
0.00205966
-0.00515248
0.0206351
-0.0211884
-0.0116639
-0.00346445
0.00535305
0.00209949
-0.0176994
-0.00321548
-0.00967218
-2.28638e-05
-0.00832933
-0.00741209
-0.00125713
-0.000182878
0.00289823
0.00602018
-0.00314753
0.0106853
-0.011129
0.00898991
-0.000493612
0.00537743
0.00187245
-0.0100216
0.000499635
0.00393805
0.00896236
0.00187299
0.00714523
0.00579879
0.00454313
0.0348586
-0.00227935
0.0239326
0.00299671
-0.000231035
0.0156725
-0.0220232
-0.00765398
-0.00231576
-0.008241
-0.00264131
-0.00801763
-0.00604884
0.0147078
-0.011838
0.00534639
0.00553765
-0.0158854
-0.0168707
0.00921661
-0.00810095
0.00619348
0.0219081
0.00286583
-0.00501996
-0.00915416
-0.00113806
-0.00131262
-0.00177103
0.00168534
-0.00263542
-0.00673262
-0.000585067
-0.0142759
-0.0303132
-0.00420481
-0.00470991
0.00865984
-0.00707414
0.00751972
0.0235098
-0.00370139
-0.00122722
-0.00690337
0.00353083
-0.00458996
0.000872367
-0.00349963
-0.000655041
0.00164757
-0.0289473
0.00824184
-0.0141009
-0.00464212
-0.00647458
0.00337031
0.00391818
-0.00548828
3.37908e-05
-0.0191374
0.00473747
-0.00844207
0.000893616
-0.0177734
0.00383331
0.0130837
0.00715098
-0.00300032
-0.000894629
-0.00232318
0.00571778
0.0123486
0.00396995
-0.00203344
-0.00600701
-0.00214757
0.00496612
-0.000507264
-0.0101786
-0.00675822
-0.000864378
0.00509099
0.00174167
-0.00980298
0.0088188
-0.0142454
-0.000416514
-0.00413917
0.00201453
0.010375
0.00942522
0.00350608
0.00872784
0.00390591
-0.00678734
0.00211766
-0.00326963
0.0170286
-0.00246075
0.0078946
-0.0131417
-0.000418975
-0.0127555
0.00153978
-0.00281175
0.00750791
-0.000557733
0.000286448
-0.016842
-0.00754349
0.00830805
-0.000670256
-0.0176423
0.000215576
-0.00146902
-0.000373575
-0.00301529
0.00305847
0.00682123
0.00263131
-0.0106259
-0.00845938
-0.000954412
5.6031e-05
-0.00381892
-0.00891389
-0.00169633
0.00554574
0.00950326
0.0132362
-0.00952023
-0.00171916
0.00398409
0.000396284
-0.000766181
0.00738482
-0.00472158
-0.0135225
-0.0060903
-0.000109299
-0.00478105
-0.0196332
0.00157074
-0.0149109
0.00718554
0.00181778
-0.00246804
-0.000655658
0.00897241
-0.000257411
0.0185061
-0.00952498
-0.00207472
0.00179652
-0.00648526
0.013643
-0.0207598
0.000656378
-0.00265457
-0.00588614
-0.0154553
-0.00100258
0.0038098
0.00617319
-0.00921377
0.00634714
-0.0126347
-0.00335009
0.0235013
-0.00470657
-0.0079593
0.00148746
0.0103624
0.00333517
0.00456996
-0.00236527
-0.020414
0.012392
0.000355649
-0.00943773
-0.0128145
-0.00434646
-0.0124289
0.00284887
0.0131059
0.0021161
-0.0107495
0.000389909
0.00851854
0.00101392
0.0098519
0.00823008
0.00303984
0.00577047
0.00161188
-0.00141849
-0.00155244
-0.00224001
0.00229438
-0.00477894
0.00968322
-0.00142787
-0.00518645
0.00402848
-0.00395483
0.00540725
0.00959966
-0.000224189
-0.00428135
0.0020219
0.00073611
0.00432571
-0.00141989
0.00788092
-0.00187467
-0.00801089
0.00102027
-0.00877606
0.00626667
0.00716765
0.00266437
0.0153721
0.00167092
-0.00856061
-0.00201689
-0.00912191
0.00545676
-0.0199362
-0.00675798
0.00447555
-0.00360073
-0.00103534
0.00470001
-0.00047274
-0.00267062
0.00534297
0.00189299
0.0188315
0.00355767
0.0128247
-0.00857365
0.00645402
-0.0159126
-0.00142864
0.00119825
0.00435971
0.00876569
-0.0061759
-0.0043486
0.00811148
-0.00413538
0.00372235
0.0212534
-0.00121391
0.00337734
-0.00356761
-0.00117261
0.00528862
0.00663457
-0.00823793
-0.000504216
0.00541286
-0.012171
-0.00455934
0.0191405
0.00102009
-0.0024968
-0.0175344
0.00648519
0.000334558
-0.00557588
0.00693944
-0.0102134
0.000303859
0.00610277
-0.00140184
0.0030489
-0.00588626
0.0146238
-0.00166458
-0.00021434
-0.00643623
-0.00918903
0.00853289
0.00230122
-0.0105929
-0.00393578
-0.003331
0.00321768
0.000253013
-0.0118807
0.00644558
0.00609402
-0.00106508
0.00492947
-0.00620319
0.0076249
-0.00117173
0.00325538
0.000632573
0.00369001
-0.00928111
0.00920173
0.00024316
-0.0204351
0.0159107
-0.0053446
0.00368141
0.0054534
0.00762259
0.0138596
-0.00236423
-0.000149301
0.00202333
2.83385e-05
-0.00653859
0.00158111
-0.00443284
-0.00370194
0.0058535
0.00394944
0.00288767
0.00712637
-0.00203635
0.00616561
-0.00268055
0.00390267
-0.000244521
-0.00799104
-0.00191767
0.00984334
-0.00620242
-0.000234563
-0.0011825
-0.00214296
-0.00107042
-0.00100683
0.0141595
0.000197135
-0.00256571
0.00201216
-0.00942417
0.0120758
-0.00951037
0.00147331
0.00115619
-0.0143896
-0.000242895
0.00236996
-0.00279849
-0.000355403
-0.0025801
0.00187051
-0.00738736
-0.00642431
-0.00737889
-0.00334519
0.00211893
-0.000442713
-0.000669444
-0.00311463
-0.00352345
0.012317
-0.00619108
-0.00911582
-2.4882e-05
-0.00511778
-0.00815165
-0.00389558
0.00630474
-0.00152591
0.00303897
0.00368921
-0.0054878
-0.00460805
-0.00792258
0.00306879
0.00289243
0.0112186
-0.0144941
-0.000383353
0.00278213
-0.0172971
0.001333
0.0217574
-0.00290488
-0.00431074
-0.00630261
-0.00763641
-0.00364433
0.00480278
-0.000267047
-0.00367413
-0.0110549
0.0165835
0.00883269
-0.00292213
0.00185949
0.00208491
-0.0100869
-0.00491958
0.000555881
-0.00465184
-0.00982958
-0.00425784
-0.00134201
-0.00767271
0.0156638
0.00231101
-0.00149507
-0.000478083
0.00423442
-0.00485666
0.0110261
0.00369924
-0.00603509
-0.000972075
-0.00402594
-0.00227094
0.000480353
-0.00742497
0.00716498
-0.00981106
0.00423747
-0.00963166
0.00136563
0.00451114
0.00332215
-0.0041211
0.00238147
-0.00496815
-0.00243612
-0.0069932
-0.00738462
-0.00410828
-0.0257742
0.00894938
-0.00471098
-0.000403114
-0.00977502
-0.0125279
0.00662887
-0.00780718
0.00902438
-0.00149483
0.00200834
0.00258614
0.00145357
-0.00620465
0.000105764
0.0137041
-0.00529716
-0.00139335
0.00558513
-0.00847357
0.0056861
-0.00408239
-8.5598e-05
0.00264729
-0.000177428
-0.00447973
0.00624462
-0.00246709
0.00571952
0.00205556
-0.000394805
0.00241078
0.0182947
0.00373859
0.00607864
-0.00387898
0.00397279
-0.0139679
-0.0106725
-0.0025065
-0.00286212
0.00245094
-0.0128677
-0.00369982
-0.00213908
-0.0120225
0.00735569
-0.00366643
-0.0114082
0.00438482
-0.00265721
-0.0116647
-0.010276
-0.0017383
-0.000204481
0.0136982
-0.00206598
-0.000418538
-0.0202226
0.0015004
-0.00649174
0.00134948
-0.0078066
-0.00812474
0.00315071
0.00624668
-0.000926399
0.00568399
-0.00618576
-0.00847555
-0.00138336
-0.00348705
-0.00274059
-0.00671037
0.00238798
-0.000776572
-0.0152389
0.00693465
0.000243227
-0.000977351
-0.0046187
-0.0113833
-0.0275214
-0.00893004
0.0129534
-0.000719369
0.00193713
-0.00110185
0.000115766
0.000130448
0.00640691
-0.00221005
-0.000305778
-0.0139052
7.42779e-05
0.00739353
0.00880533
0.0126697
0.00795271
-8.94552e-06
-0.00824181
0.0129787
-0.0024998
-0.00326662
0.00595463
-0.00792601
-0.0108473
-0.00486996
0.00118848
0.00212379
0.0169083
0.00239905
-0.00152379
-0.00702966
0.00506049
-0.00838632
0.00572108
-0.000255708
-0.00627393
-0.00179292
-0.00683721
-0.0032136
-0.00873933
0.0028922
-0.00641555
-0.00788271
-0.0104033
0.00550084
-0.00266221
-0.00218918
-0.016096
-0.0030437
0.00484375
-0.00493823
-0.00661058
-0.00602644
0.00490512
0.000173355
0.00231933
0.0144033
0.00134985
0.00565748
0.00427127
-0.00354058
-0.00255965
0.00894394
0.000757707
-0.00139714
0.0014599
0.00192203
0.000149424
-0.000479444
0.000253549
-0.0018
-0.00866519
0.0373573
-0.0147849
-0.000809221
0.00097611
-0.0106976
0.0101022
0.0105528
-0.00196853
-0.00189334
0.000657995
-0.00387607
0.0158783
-0.00960537
0.0111582
-0.00132018
-0.0233173
0.00608053
0.00767888
-0.00378457
0.0088566
0.00583464
-0.000479794
-0.00202623
-0.00381944
-0.0160196
-0.00687351
0.00930468
0.00595763
0.0140294
-0.0225733
-0.00608837
-0.0015206
8.98198e-05
0.00306358
0.00124235
-0.0162535
-0.00576023
-0.0131523
-0.00133282
0.00557581
-0.0108027
0.00139694
-0.00960192
0.00988455
0.000802235
-0.00153485
0.00138534
0.0069904
-0.00790224
-0.0019827
-0.00322882
-0.00704908
-0.00106296
-0.00063863
-0.0117428
-0.00308797
0.00472487
0.00173232
-0.00128325
0.0141956
0.00831848
-0.00602649
-0.00338952
0.00409878
0.00830859
0.0114794
-0.000465624
-0.00516356
0.00429173
0.00181488
0.00443413
-0.00842554
0.00244779
-0.00514899
0.00292647
-0.0212928
0.00864844
-0.000524353
-0.00943915
-0.000841676
0.00639837
0.00269583
-0.00115474
0.00254224
-0.00439706
-0.00599304
0.00388434
-0.00412896
0.00439539
0.0029215
0.00270354
0.00692064
0.0098448
-0.002321
-0.011024
0.00215393
0.000344904
-0.00374702
0.00669163
0.00398224
0.00175216
0.00483401
-0.00622606
-0.00527574
0.00792033
0.0051007
-0.0155015
0.00984851
-0.0011273
-0.00622261
0.00853567
-0.00274678
-0.00955923
0.00169611
0.0347249
-0.00842289
-0.00113854
0.0105972
-0.00033519
-0.00694342
-0.000832793
0.00133357
-0.0117594
0.00146629
-0.00130033
0.00858743
-0.00628131
0.0020053
0.0232124
0.00826613
0.0137146
0.00429894
0.00865857
-0.00433146
-0.00322939
-0.0039743
0.0073913
0.00630479
0.00369209
-0.0033397
-0.0101637
-0.00327471
0.0213323
-0.0100096
0.00643547
-0.00354636
-0.0106563
0.00157371
0.00947618
-0.00692006
0.00410662
0.000541273
-0.000288702
0.00174055
0.00428799
-0.0117896
-0.0108112
0.00026003
-0.0013782
0.00728033
-0.00288657
0.0196368
0.00802326
0.00548309
0.00377436
-0.0118963
-0.00107073
-0.00668131
0.00181998
-0.00172493
0.00453328
-0.0121755
-0.0109422
0.00853473
0.00696678
-0.00461768
-0.0048845
-0.00592708
-0.00515371
0.00297029
0.000695597
-0.00448876
0.026936
-0.0142348
0.00444726
0.00119476
0.00507972
0.00765149
0.0206645
-0.00622294
0.0156343
0.0191859
0.00321769
0.0192696
0.00344748
0.00621016
0.00225986
-0.0164544
-0.0219743
-0.00799148
0.00604721
0.00185044
0.0041589
-0.00613342
-0.029805
-0.000332392
-0.000861649
0.00151795
0.00779767
-0.00709489
-0.0030358
-0.00476519
-0.00481086
0.00656863
-0.00500455
-0.00522755
-0.00850121
0.000347783
-0.000234858
0.0211236
-0.000849062
0.0147413
-0.00519096
0.0062629
0.00589382
-0.00280202
-0.00765821
-0.00944314
0.0007789
0.00225632
-0.00112472
0.00300532
-0.00614651
-0.000836413
0.000454945
-0.00235178
0.00260376
-0.0020945
0.0090464
-0.00654405
0.00821512
-0.00326
0.00738212
-0.030364
0.00913252
-0.00256237
-0.00214239
-0.0109762
-0.00497464
0.0049153
-0.00673876
0.00092299
-0.0126021
-0.00183951
0.0120575
-0.00662167
0.00517537
0.00223179
-0.00214797
-0.00877219
0.0144357
-0.0065788
0.00694227
-0.00106677
-0.000215062
-0.001371
1.02555e-05
0.00346536
0.0050938
-0.00114233
0.0064142
0.00433132
-0.0046001
-0.00591302
0.00659488
0.00940953
-0.0025387
-0.00300818
-0.0125031
0.000218175
-0.00608403
-0.00373416
-0.00269856
0.00841681
-0.00412464
0.0108703
-0.000125012
0.0125888
-0.000381213
-0.00514758
0.00306647
-0.00743878
-0.00969101
-0.00554925
0.00707055
0.00215347
0.00413525
-0.00556934
0.00299044
-0.00913593
-0.00883085
0.00131769
0.00112599
-0.00373668
0.0142421
-0.00233196
0.0105099
-0.00367094
0.000469369
0.00116253
-0.00693618
-0.00845464
0.0172898
0.00133979
-0.00381156
0.00266257
-0.00346702
0.00778337
-0.0046272
-0.000106264
-0.000673168
-0.0108801
0.00161784
-0.00385533
0.000487009
0.00418556
0.0010084
-0.00481095
-0.00659786
-0.00792263
0.00408018
-0.00199478
0.00655605
0.00342301
0.00935603
0.00752183
0.00277631
0.0120757
0.00803894
0.0103073
0.00825963
0.0152731
8.07464e-05
-0.00510038
-0.00765025
-0.0118131
0.00391284
-0.0101802
-0.00439806
-0.0249019
0.00129981
-0.00831507
0.00115953
-0.000783258
0.00164788
-0.000412363
0.0121767
0.00423405
-0.00832789
-0.0112525
-0.00435335
-0.0171615
0.00123824
-0.0198607
0.00199287
-0.00201429
0.00551038
0.00231304
0.0107651
0.0126538
-0.0036167
-0.00227858
-0.000431381
-0.00456693
-1.29511e-05
-0.00782235
-0.00810694
-0.000991955
0.0094268
-0.000380064
0.0063124
-0.00876296
0.00764821
-0.00456131
-0.0144252
0.00196972
-0.0072707
-0.00192732
0.00927235
0.00537704
-0.00591103
-0.00129209
0.00963214
-0.00440126
-0.0046479
0.000769271
-0.0129751
0.00631288
0.00742324
0.00844807
0.00906393
0.00077253
0.00147177
0.0136523
0.0172388
-0.0111033
-0.00134372
-0.010698
0.000433838
-0.00645781
0.00224917
0.00620649
0.000219677
0.00892258
0.000907321
-0.00314878
0.00641315
0.000239976
-0.0115371
0.00079658
-0.00192344
-0.00224023
0.00277856
0.00820482
0.00067917
0.00519446
-0.00378442
0.000870738
-0.00430609
-0.00195504
0.0264326
0.012646
-0.00400672
-0.000744888
0.000977128
-0.000550971
-0.00672489
-0.00257874
-0.00121937
0.00145213
-0.00136877
-0.00321595
-0.0152579
0.00238064
0.00418045
-0.00953516
-0.00431882
0.00545989
0.00502722
-0.000221265
-0.000750561
-0.00391791
-0.00629997
0.00763311
-0.00359164
0.00291709
-0.0019236
0.00513486
-0.00348194
0.00193494
-0.00524113
-0.00703844
-0.00785734
0.00867995
0.00413358
0.00529033
0.00655115
0.00161844
-0.00521065
-0.00402816
0.00956931
0.00323498
0.00142781
-0.0178485
-0.00135213
0.00874522
0.000988962
0.00563238
0.0157061
-0.00621975
-0.00473661
0.0214113
0.00527815
0.0241134
0.00197399
0.00305645
-0.0128018
-0.00833419
-0.0081999
-0.00732143
-0.00338479
-0.00146275
-0.0118988
-0.0130999
0.00190481
-0.0139057
-0.0169015
-0.00114973
0.000486521
-0.00700563
-0.000330518
-0.00451649
0.0192442
-0.00482646
-0.00269601
-0.00298193
-0.00679196
0.00804303
-0.00595377
0.000557516
-0.00228535
-0.00494317
0.000232485
0.00908862
-0.00474705
0.0154107
-0.00773312
0.0124901
-0.00483275
-0.00846539
-0.00195805
-0.00176591
0.00492522
0.00520058
-0.00371144
0.00204318
0.00435185
-0.0082251
-0.00213487
-0.0178805
-0.007608
-0.0151542
-0.00718641
0.0001833
-0.00605824
0.00271916
-0.00655283
-0.000837847
-0.0118657
-0.0121138
-0.00638941
-0.00715228
-0.00467426
-0.0193482
-0.00648711
0.000694297
-0.00749355
-0.0023142
-0.000737267
0.000780271
-0.00496625
-0.00261294
-0.00464426
-0.00453756
-0.0118162
-0.00176409
0.00427862
-0.00441517
-0.0122311
-0.00360496
-0.00461433
0.0104244
-8.13155e-05
-0.001378
0.00179534
0.00250478
0.00087749
-0.000464364
0.0127458
-0.0108821
0.00141572
0.000124265
-0.00657693
-0.00411962
0.00519859
0.00184777
0.0134859
-0.00346903
0.0084152
-0.000873013
0.00325758
-0.0020884
0.00859519
-0.0256743
0.00567759
-0.00441152
-0.00738574
0.000148359
-0.000196351
-0.00160706
-0.00073108
0.0147233
0.00572907
0.0208485
0.000675331
-0.00260501
-0.00799254
-0.0107683
-0.0136919
-0.00892402
-0.00263127
0.0029437
-0.00466158
-0.0116869
0.000803433
0.0378177
0.000929397
0.0114232
0.00747149
-0.00546603
-0.0127248
-0.0051695
-0.00372022
0.0281903
0.00283168
-0.0015784
0.0251441
0.00148493
0.000789339
0.0104655
-0.0121113
0.00675392
-0.00447614
0.00710062
-0.0100809
0.0056034
0.0122878
0.00890402
-0.00227106
-0.00394072
0.00311256
-0.00768793
0.008182
-0.000618305
-0.0128613
0.00294779
-0.0132813
-0.00434135
-0.0119431
0.0246251
-0.00762615
-0.00704397
0.0172492
-0.00691901
0.00721339
-0.00462334
-0.011238
0.0123348
0.000842523
-0.00803342
0.0178592
-0.0017239
-0.00866879
0.0036449
-0.0132833
0.0103017
-0.0084022
0.0321581
0.0133562
-0.00451366
-0.00144286
0.0115932
0.00597563
-0.00952654
0.003734
0.00955778
0.00530738
0.00574526
-0.00268377
-0.00443519
-0.00697756
0.00921739
-0.00381051
0.00270648
0.000873737
0.000937575
-0.00485009
-0.015235
0.000716441
0.00730588
-0.00762202
0.00353423
-0.00194658
-0.00212218
-0.00102664
0.0109645
-0.0163952
-0.00286822
-0.00488666
-0.00217505
-0.00623304
0.00399801
0.00171919
-0.00345083
-0.012239
0.0171666
0.00456353
-0.00075116
0.00649076
-0.00251551
-0.00155096
-0.0196566
0.00440273
0.00600526
-0.00245058
0.00165557
0.00771578
0.00189086
0.0095158
-0.00660239
-0.0036648
-0.00654592
-0.00337619
-0.000260561
-0.0040273
0.00371997
0.00133777
-0.00562165
-0.00677833
0.00538152
0.00833251
0.00201765
-0.0101324
-0.00196488
-0.00224385
0.00312821
0.0341636
-0.00609205
-0.00605219
0.00441033
-0.0225572
0.0117901
0.0094664
-0.000575593
0.00828908
-0.000570842
0.00136317
0.0244227
0.00790044
-0.0177268
-0.00163333
-0.000610925
-0.00039278
0.0117669
0.000564514
-0.0071807
-0.00995408
-0.0126798
-0.00931963
0.0067145
0.000126269
0.000756201
0.00255436
0.00827727
0.00445509
0.00371048
0.00444038
0.000876418
-0.00747309
-0.0176547
-0.00665424
-0.0282937
-0.00911575
0.00670627
0.00760562
-0.00940867
-0.00561495
-0.0111916
-0.00253632
-0.0362923
0.0145098
-0.00177267
0.00736243
-0.00131608
0.0043716
-0.00347415
-0.00667354
0.0138981
0.00728253
0.000686766
-0.0246083
-0.00365988
-0.0104072
0.00410776
0.00522282
-0.00559938
0.018926
-0.00225271
-0.00127885
-0.0109684
0.0218383
0.00189768
-0.0083949
-0.0216725
-0.0016453
-0.0131792
-0.00472572
-0.00553017
-0.00699506
-0.00244239
0.00621556
0.00882432
-0.00363661
0.00119033
-0.00132066
0.00918332
-0.00943505
0.00251036
0.00929459
0.00341048
0.00346732
-0.00516715
0.0040532
-0.00825225
-0.00684405
0.0232326
-0.031872
0.00120342
-0.0014057
0.00485171
0.0234448
0.0023116
0.010451
-0.00232793
-8.97054e-06
0.00780157
0.00743635
0.00726677
0.000923172
0.00532567
-0.00675143
-0.0208255
-0.0110324
-0.0010276
-0.00815212
-0.0280444
-0.0114099
0.0124421
-0.00255904
-0.0043148
0.0108133
0.000169647
0.00921724
-0.0101844
0.0100167
-0.00898458
-0.00254168
-0.0100858
-0.011133
-0.00838939
-0.000600525
0.00152547
-0.00996474
0.00669176
-0.00701314
0.00246378
-0.00593781
-0.00918839
0.00317168
0.0175024
0.0105819
-0.00500184
-0.022933
0.0103933
0.0151825
0.00399449
0.011865
-0.00404158
-0.000302299
-0.000349297
-0.00123904
-0.000251734
-0.00802688
-0.0034333
-0.0121789
0.00685614
-0.00584342
-0.000204581
-0.00611255
0.000119276
-0.000355051
0.00150257
-0.0120756
-0.00271076
-0.014486
0.00617739
0.0121433
0.00914463
-0.00447882
0.0038377
0.00925872
0.00176895
0.00465528
0.00246337
-0.0119998
-0.00657345
0.00845336
-0.00261776
0.00739414
-0.00208794
-0.00455799
0.00816682
-0.00766659
0.000567729
0.00571807
-0.00801273
-0.00200694
-0.00536287
-0.00275643
-0.000520924
0.0354172
-0.00413484
-0.00339806
-0.00117274
0.00724941
-0.000407413
-0.0323689
-0.0172469
-0.0014898
-0.00507611
-0.00873975
0.00376028
-0.00213263
0.00152484
0.0106255
0.00671176
-0.0125383
-0.0118881
0.00464385
0.0109377
0.0030957
0.00797645
0.0019141
0.00485581
0.00204301
-0.00941594
0.00339944
-0.00307091
0.00171406
-0.0102681
0.00566265
0.00762794
0.00408389
-0.00878598
0.00426434
0.0178571
-0.0013798
-0.0020872
0.00591299
0.00347136
-0.00697023
-0.00665653
-0.00108563
-0.00833083
-0.00146512
-0.000369229
-0.000706789
0.00143538
-0.000648765
-0.00232993
-0.000661413
0.00570123
-0.00217713
-0.00541188
0.00974163
-0.00286446
0.00331644
0.00808135
0.00908902
-0.00425355
-0.000636462
0.00675331
-0.0110308
-0.00934457
-0.00569251
0.0157319
-0.0159018
0.0128515
-0.00595574
-0.00630247
-0.00271581
0.00208118
0.00326305
-0.00844322
0.00218154
0.000342779
-0.0125635
-0.0036322
0.00516881
0.0017785
0.00256826
-0.00753392
-0.00818643
0.00753198
0.00203073
-0.00144185
0.0230592
0.0124432
-0.007052
0.00317178
0.0119534
0.00291982
-0.0105423
-0.00528254
-0.00319114
-0.0112226
-0.000602888
-0.00673481
-0.00260937
0.00737027
-0.00301923
-0.00738189
-0.00825322
0.00711682
-0.012946
0.00304288
0.00922307
0.00819162
-0.0202591
0.00800389
-0.00926324
-0.00724205
-0.000712238
0.0143943
0.00678309
0.00145557
-0.00538688
0.00748583
0.000641304
0.00581871
-0.00102601
-0.0129942
0.00117358
0.00233748
0.0113623
-0.00340328
-0.00678173
0.00427959
-0.00243015
-0.00333095
-0.0233911
-0.025441
-0.00700767
0.00163849
-0.00360123
0.00602786
-0.0193342
-0.00533894
-0.0101938
-0.000111718
-0.00208042
0.0063205
-0.0165091
-0.00844231
0.00347172
0.00289998
0.0215123
0.00461281
0.00474841
-0.00013291
-0.0118398
0.00195867
-0.0144665
0.00242495
-0.0133509
0.00124611
0.010565
-2.98514e-05
0.00309351
0.000251694
-0.00298676
0.00301919
0.00233175
0.00307495
-0.00665879
0.000401804
-0.0102875
0.00383053
-0.00436739
-0.0105699
-0.00210599
-0.00360418
0.000409846
-0.000941204
-0.00433125
0.00198269
0.0119074
-0.00569116
0.00835381
-0.00277568
0.0108425
-0.00203386
0.0076993
-0.00331089
-0.00762313
0.00560265
-0.00387
0.000311023
0.0205784
0.00912782
0.00151844
0.00517902
0.00197133
-0.0140511
0.00421984
0.0115324
-0.000435112
0.000653625
0.00191113
-0.000504131
0.00515334
0.000352627
4.14482e-05
-0.00521504
-0.00927093
0.00396953
0.00086004
0.0145472
0.023318
-0.0137717
-0.000609876
-0.00370687
0.00388665
-0.00945922
-0.00250929
0.00358529
0.0150331
0.0114648
-0.000527448
0.000990709
-0.0179704
0.0112667
-0.0098666
-0.0113258
-0.0030873
-0.00306015
0.019945
-0.00486543
0.00330827
-0.0123255
0.00049373
0.00496851
-0.00942414
-0.0166058
-0.00647137
-0.00515936
-0.0119484
0.00195132
-0.00931904
-0.00104822
0.00287837
0.0022006
0.00381821
-0.000741049
-0.00100923
0.00719137
-0.0104817
0.0068631
-0.000150146
0.0117726
-0.00487265
0.000735053
-0.0101373
-0.00681915
0.00455635
0.000707775
0.00139473
0.00437557
0.00308681
0.00238411
0.00848321
-0.00792492
-0.0198889
-0.00580765
-0.0023187
-0.00138434
-0.00550058
0.0094568
-0.00778911
-0.00388988
-0.00049519
-0.000842041
0.00261496
-0.00564025
-0.0153331
-0.0229085
-0.0219744
0.00317057
0.0134079
-0.00630556
0.00383985
0.00694155
-0.00754483
-0.0125
-0.00288052
-0.00461388
-0.0133454
-0.00359115
-0.00237199
0.00232112
0.00545506
0.0191028
-0.00620474
0.00341464
-0.0148253
-0.0131178
0.00281844
0.00114461
-0.00835631
-0.00507705
-0.00516484
-0.00274758
-0.000273271
-0.00404133
-0.00441511
0.0176319
-0.0022783
-0.0179816
0.00886372
-0.0105903
-0.00308057
-0.0147086
0.00522961
-0.00250518
-0.00291954
-0.000896062
0.0178908
-0.00365937
-0.00205804
0.00522196
-0.00197633
0.00713531
-0.0150437
-0.00406432
0.00353435
-0.000439361
-0.000708287
0.00725739
-0.00542669
0.001523
-0.00602112
-0.00386265
-0.0018991
-0.0103204
-0.0117441
0.00368077
-0.00249741
-0.0107233
0.0123627
0.00331978
0.00376881
-0.00242835
-0.00530513
0.000129726
-0.00440402
0.000343922
0.000494175
-0.00146917
0.0113649
-0.0114927
-0.00281855
-0.00503606
0.0047072
-0.00144372
-0.00275833
0.0134324
-0.00468998
-0.000208484
0.0111905
0.0160214
0.00101327
0.00455992
0.00976909
0.0102373
-0.000577276
-3.88242e-05
0.00354915
-0.0198155
0.00105531
-0.00840968
-0.0289238
-0.0147638
-0.0091184
0.00747965
-0.0108267
-0.00222261
-0.00512823
0.00533524
0.00459556
0.00623568
0.00632402
0.00447572
0.00232653
0.000240763
0.00740934
0.00657387
0.00689434
-0.00120982
0.000334121
0.00343626
0.0136214
0.00764095
0.00136919
0.0161325
0.0015819
-0.00555195
-0.00459244
0.00548605
-0.0108006
-0.00237381
0.0021783
-0.00540043
-0.0152421
0.00334317
0.0084337
0.00404981
0.0039473
0.0118651
-0.00465664
-0.00300422
-0.0015487
-0.000384292
0.00552799
-0.000415922
0.0124888
-0.0210299
-0.0101191
-0.00815494
-0.00814416
-0.00754916
0.00311898
-0.00370965
0.00188961
0.00907756
0.00596241
-0.0082364
0.000581662
-0.000309167
-0.00120697
-0.00404081
-0.00564769
0.0022686
0.000576084
-0.00241144
-0.0013217
-0.00944984
-0.00116239
-0.00790268
0.00467588
-0.00619006
0.00221832
-0.0140826
-0.00793551
-0.00933485
-0.00265582
0.00670927
0.00230261
-0.00573359
-0.000131858
-0.000865943
-0.000509627
-0.00326287
0.00754732
-0.00014444
-0.00818631
-0.00338323
0.0104411
0.00149978
-0.000818918
-0.00153873
-0.00186365
-0.00536563
-0.00454081
-0.000275683
0.0030855
0.000684521
-0.00440407
0.00198179
0.00765709
-0.000682877
-0.0030117
0.00820029
-0.000252704
-0.00157834
-0.00357644
0.02073
-0.00197035
-0.00719047
-0.00118058
-0.00664997
-0.00240116
0.00113924
-0.00119574
-0.00554609
0.00143418
0.00544436
-0.00184931
-0.00818727
-0.0173391
-0.00425169
0.00525019
-0.00258478
-0.0030139
0.00925414
-0.0142299
0.00191786
0.00879887
-0.00326356
-0.00418922
0.0118782
0.0130379
-0.00397114
-0.00237793
-0.00813094
0.0216029
0.00967481
0.010138
0.00272033
-0.0130779
0.00233104
-0.00293242
-0.0100692
-0.00144251
-0.0118832
-0.00605705
-0.008462
0.000348043
-0.0034493
-0.0187578
-0.00515885
0.0023078
0.00420437
-0.00570766
-0.00619995
0.00666238
-0.00456277
-0.0120537
-0.0132846
0.00182737
-0.00413662
-0.0017946
-0.0111453
-0.00926949
0.00304094
-0.00918935
-0.00839283
-0.0116935
-0.00706503
0.000766107
0.00764041
0.00434485
0.00185126
-0.000265154
0.00325415
0.00201698
0.00181332
0.00061419
0.00111465
-0.00185157
-0.00304353
-0.00254679
-0.00702412
0.0258325
-0.0178752
0.00591689
0.00496291
7.48179e-05
-0.00851476
-0.00570801
0.00705863
0.00966404
0.0122518
-0.0141293
-0.00402415
0.00113333
-0.0041868
-0.000926918
-0.0125706
-0.00223426
-0.00613984
0.0131967
