0.00814246
-0.00423844
-7.47889e-07
0.000213649
0.0055412
-0.00345848
0.00566151
-0.000822286
-0.00210738
-0.00112981
-0.00193145
-0.000775533
-0.00652334
-3.06221e-05
-0.00417225
0.00127393
0.00420483
0.00218226
0.00620201
-0.00236269
0.0117019
0.000578633
-0.00309525
0.00270283
-0.00408186
0.00343844
0.000252381
-0.000295805
0.00144892
-0.00361198
-0.000615042
-0.00443257
-0.00130936
-0.00495186
-0.00216125
0.000204397
-0.0011303
-0.00421779
0.0105171
-0.000966278
0.00467654
-0.00353503
-0.000956515
0.006168
-0.00310885
0.00173998
-0.00249966
0.00320617
-0.00158061
0.00170597
-0.00392696
0.000990905
0.00356616
0.0022313
-0.00178344
-0.00300765
-0.005711
0.00217591
-0.0062915
0.00137598
0.00336823
-0.000744258
-0.00340219
-0.00387197
-0.00205015
0.00025632
0.00181835
0.00372818
-0.00869429
-0.00612973
-0.00720591
0.00557462
-0.00454364
0.00032079
0.00655654
-0.00901545
0.00169357
-0.00366611
-0.000952931
0.00135577
-0.000511708
0.00297574
-0.00150378
0.00205047
-0.000236222
0.00338646
-0.00410022
0.00413692
0.00253364
0.0017622
0.00131944
-0.00174651
-9.74685e-05
-0.00421965
0.00113956
-0.0087801
-0.00486638
0.000750297
-4.62614e-05
-0.00576866
-0.00595984
-0.000529442
-0.00592882
0.00303365
-0.00217848
-0.00144703
0.000577258
-0.00372314
0.00502066
0.00204719
-0.00935689
-0.00422178
-0.00331534
-0.00255179
0.00187753
0.000540747
0.0026312
-0.000873594
-0.0020957
-0.0041253
-0.00141331
0.00144994
-0.00123507
0.00414483
0.00499911
0.00100314
-0.00345985
0.00220633
0.00104431
0.00101339
-0.0104245
-0.000694061
-0.0051464
-0.00150077
-0.0015355
0.00110015
-0.00342209
-0.00353615
0.00166334
-0.00152311
0.0004447
-0.000529384
0.00145147
-0.00264302
0.000621287
-4.16247e-05
0.000522248
-0.00623463
-0.000659355
-0.00563067
-0.00527026
0.00848641
-0.00382173
-0.00294116
-0.00460946
0.00526391
-0.0014709
0.000697894
0.0018002
-0.0040891
-0.00173395
-0.00473933
0.000580008
-0.00741328
0.0040989
-0.00334632
0.00535248
-0.0128998
0.00207711
-0.0119705
-0.000764052
-0.000870477
0.00145537
0.0005476
-0.0016644
-0.000244076
-0.00308404
-0.00090362
0.00345763
0.000729423
-0.000194042
-0.000680227
-0.000744694
-0.0058733
-0.000686955
-0.000252499
-0.00128443
0.0058232
-0.00481513
-0.000834658
0.000966236
-0.00120683
-0.000120286
0.00123492
-0.00390482
-0.011662
-0.00576081
-0.0071897
0.000747895
-0.00291748
0.00239796
0.00702004
0.00125745
0.00150762
-0.00624969
0.00669898
-0.00233326
-0.00365843
-0.00306818
-0.00192687
-0.00225784
0.000106842
-0.00243424
0.00121099
-0.0052322
0.00150358
0.00482887
-0.00634603
0.00270457
0.001612
-0.00541769
5.74596e-05
0.000654488
0.0025305
-0.00429822
0.00713243
0.00211821
0.00280722
-0.00175342
-0.00645396
-0.000674712
0.0028325
0.000629359
-0.000245325
-0.00387832
0.00307523
-0.00093459
-0.00134825
0.00382615
0.00025221
0.00248648
0.00126746
-0.000991735
0.000589777
0.00393689
0.000544964
-0.00323035
0.00136915
0.00122115
0.00487712
0.00372487
0.00234306
0.000963273
0.00105622
-0.000719199
0.000646569
-0.000637475
-0.000512412
-0.00014738
-0.00146797
0.00635196
-0.000543362
-0.00260549
-0.00152326
-0.00336886
0.00726114
-0.00740246
-0.00206927
3.72581e-05
0.000573908
-0.00193523
0.00429019
0.00287442
-0.0039539
-0.00334747
0.000560054
0.00122704
0.00332909
-0.0011884
-0.000863828
0.00242145
0.000887337
-0.00153843
-0.00120795
-0.00361191
-0.00539471
-0.00751062
-0.00164625
-0.00106667
0.00866411
0.00469963
-0.000995426
0.00159251
-0.0013518
0.000697525
0.00268386
-0.00386604
-0.0039225
-0.00229832
0.00188464
-0.00280041
0.0047083
-0.00176109
0.00515212
-0.00512299
-0.000154781
0.00660534
-0.00123412
-0.00656684
0.00727772
-0.00646128
0.00645678
-0.00870531
-0.00216246
-0.00852062
0.00519072
-0.0106042
-0.0120849
-0.00481211
-0.00306929
0.00170887
-0.000947793
0.00442661
0.000152388
-0.00360661
-0.00703772
-0.00528184
-0.00537517
-0.000463379
0.00130963
0.00533354
-0.0023285
-0.00108271
-0.00345826
-0.00332234
0.00315739
-0.00110385
-0.00223888
-0.00499083
-0.00657538
-0.00178367
-0.00159903
-0.00678302
-0.00241049
-0.000995192
0.00417722
-0.00437089
-0.00627047
-0.000606842
-0.00140182
-0.00262742
0.00558493
0.00132784
2.14677e-05
-0.00287536
0.00857193
-0.00498425
-0.000433751
-0.00281994
-0.000908599
-0.00703276
-0.00762846
-0.00193994
-0.000518421
0.00801843
-0.0061458
-0.00286793
-0.00454775
-0.000317193
-0.00371158
0.000308679
-0.00289461
0.00343374
-0.00360913
-0.0061132
-0.00190935
-0.011435
-0.00556082
0.00165667
-0.00607168
-0.00318584
0.00185155
-0.000286817
0.00384523
-0.000466319
-0.00252507
-0.00213519
-0.00436967
0.00768337
-0.00269363
5.6015e-05
-0.000225884
0.00229554
0.000683598
0.00265482
0.000637572
-0.000278657
-0.000673683
-0.000728615
0.00193847
-0.00298724
-0.00174421
0.000609131
0.00325581
0.000961825
-0.00600386
0.00805323
-0.000530467
-0.0020637
-0.00597185
-0.000354907
-0.00267492
0.00546822
0.0018172
-0.00593822
-0.00944914
-0.000206117
-0.00391637
0.00228549
0.00179545
-0.00471326
-0.0024886
-0.00269773
-0.00714564
0.00108694
0.00505279
-0.00680199
0.00884034
-0.00875252
-0.00206057
0.00151821
0.000118195
0.00152136
-0.00183952
-0.0104472
0.00649815
-0.00470915
0.003212
0.00300332
-0.00522009
-0.00599153
-0.00582459
0.00480133
-0.00356363
0.001279
0.00425542
-0.00130934
-0.00276632
0.00608831
0.00696733
0.000428993
0.00149992
-0.00620628
0.00065391
-0.00535499
-0.00352278
-0.00322771
-0.00202499
0.00593889
0.00489239
0.00333
0.00137951
-0.0112619
0.00564166
0.00235204
-0.00332985
0.00210497
-0.00513078
0.00019353
5.39742e-05
0.000745066
0.00129991
-0.00383853
-0.00689322
0.00260233
0.00349348
0.00239457
2.11086e-05
-0.00225972
0.00143219
0.00973524
-0.00463912
0.00816665
0.000149633
-0.00244561
-0.000371427
0.000970164
0.00437263
0.00470118
0.0091064
0.00271333
-0.00384679
-0.0037222
-0.00444973
-0.000374886
-0.00125995
-0.00293321
-0.00368306
-0.0037009
0.00165495
0.000267131
0.00351264
0.00338337
-0.000153568
-0.00425937
0.0091288
0.00118059
0.00332816
-0.000518792
0.00165401
-0.00115073
-0.00135941
-0.00504921
0.000108168
-0.00373934
-0.00220176
-0.00688655
-0.00492872
-0.000174374
-0.00423716
-0.00175931
-0.00187837
-0.000763916
-0.00222177
0.0106715
0.00163326
0.00266849
0.000226311
-0.00190051
-0.0111051
0.00306235
-0.000798302
0.000155513
0.00793668
0.00123398
-0.00231644
-0.00754905
-0.000291555
-0.00699426
-0.000311003
-0.00283486
-0.00515201
-0.00575046
0.00425067
-0.000434755
-0.00359258
0.000445291
-0.000739699
0.000707016
0.00813642
-0.00353901
-0.00152831
0.000301429
0.000386507
-0.00241926
0.00173325
0.000596217
-0.00131935
-0.00876563
0.00329709
0.00441612
-0.00181916
-0.000597111
0.00411871
-0.00159656
0.00999212
-0.00651324
0.00427417
-0.0036363
0.00182518
0.00428897
-0.00249286
-0.00173183
-0.00926163
-0.00363488
0.00388634
0.000528705
-0.0058788
0.0053797
-0.00165491
0.00131068
0.0091855
-0.00226407
0.000285588
0.00234617
-0.00540521
0.0022058
0.00898904
-0.00688765
-0.00533055
-0.00380724
0.000547029
-0.00514747
0.000483343
0.0035227
-0.00213491
-0.000599979
-0.0053922
0.00855746
-0.00478196
0.00245472
-0.00203377
0.00327785
-6.46161e-05
-0.00267954
-0.00154997
0.00138596
0.0044672
-0.00239254
-0.000247549
0.000544874
-0.00735915
0.00172919
-0.00101989
-0.0017447
-0.000801743
0.000174634
0.00624539
0.000829717
-0.00889277
-0.0171848
0.00704925
-0.00411634
-0.00355007
-0.00107688
0.00608038
-0.00203662
0.00363395
0.00589988
-0.00320716
0.00123712
-0.00499724
0.00121184
-0.000864359
0.000175892
0.000195006
-0.00427782
-0.00396987
-0.00418124
0.00567603
-0.00861469
-0.000299513
-0.0010992
-0.0030886
0.00341725
0.00233654
0.0109399
0.00333902
0.0103679
0.00301528
-0.00117451
-0.0018633
0.00232044
0.00502963
-0.0084457
0.0011679
-0.00494153
-0.00263107
0.000838682
0.00278607
-0.0005359
0.0022071
-0.000864734
-0.000269004
-0.00248549
0.00117177
0.00234169
-0.00160415
-0.00726148
0.00266926
0.00311911
-0.000593072
-0.000289371
0.00632482
0.00347613
0.00366164
0.000472841
-0.00555161
0.00186874
-0.000669371
-0.00434522
0.00225233
-0.000803773
-0.00416511
0.000890008
-0.00214616
-0.00314658
0.00536587
-0.000368948
0.00325442
0.00253783
-0.00663084
0.000434764
0.00166508
0.00174075
-0.00196235
-0.00191858
-0.00135295
-0.0012661
-0.00642117
-0.00361895
0.00388406
-0.00397203
0.00298627
-0.00511501
-0.00395832
0.0033564
-0.0106535
-0.00132195
-0.00264975
0.0104
0.00205246
0.00523942
-0.0065167
-0.00717755
0.000282047
-0.0100091
-0.000654084
0.00625395
0.00520368
0.00388547
-0.00192553
-0.00259292
-0.00212557
0.0013049
-0.00408406
-0.00513324
0.00635059
-0.00315699
-0.00561408
-0.00608509
-0.0121929
0.00183504
0.0025632
0.00365334
0.00189808
0.0139991
-0.00481449
-0.00345977
-0.00150724
-0.000419262
9.30637e-05
0.0036811
0.001744
-0.00160089
-0.00147699
0.00405363
-0.00140774
-0.00423246
-0.003119
0.00299125
0.0055946
-0.00327042
-0.00786003
-0.000257641
-0.0040741
-0.00053885
-0.00323853
0.004312
0.00770527
0.00522894
-0.00533439
0.00261613
0.00143276
-0.00251545
-0.00193211
-0.00119622
0.00426023
-0.000544182
0.000344785
0.00256138
0.000760185
-0.00193248
-0.00358734
0.00680498
0.00486914
-0.000135854
0.00117469
0.00254739
-0.000259366
-0.00303597
0.00159503
-0.00691893
-0.00183415
0.00823216
-0.000769144
-0.00214176
0.00625134
0.00858844
0.000904249
-0.00559242
-0.00322093
-0.00767491
-0.002055
0.0161495
0.00499569
0.00904698
-0.0027931
-0.00232461
-0.00131214
-0.00363235
0.00279348
0.0093261
0.0111863
-0.00456701
-0.00281129
-0.00335272
0.000681619
0.00701941
-0.00032309
-0.00425725
0.000472466
-1.04596e-07
0.00176898
0.00384625
-0.00069206
0.00041747
0.00225204
-0.00378233
-0.00681475
0.000859871
0.0102513
0.00300256
0.00145756
0.000220636
-0.00279675
0.00196132
0.00840819
0.00890671
0.0104108
0.0103399
0.000470138
-0.000581998
0.00142656
0.00387744
0.000707855
0.00185673
-0.000252297
-0.0156404
-0.00359893
0.00410053
-0.00776621
-0.00227966
0.0086523
0.00544002
0.00281036
-0.00206708
-0.00707554
0.00214569
-0.0117329
0.000788768
0.00416169
-0.00401427
0.00142343
0.00325407
-0.00826084
-0.00232178
-0.00881846
-0.00592488
-0.000566595
0.00122165
0.000521116
0.00293844
-0.00111703
0.00109105
-0.00106125
-0.00104732
-0.00246899
0.0020808
-0.00753241
-0.0033279
0.0154871
-0.00219222
-0.00128553
-0.0125116
-0.00263375
-0.00489835
0.00319304
-0.00331979
0.0027829
0.00143254
-0.00240866
-0.00323669
0.00561663
0.000572487
-0.00204772
-0.00191916
-0.00592997
0.000803062
-0.000179901
0.00652526
0.00493861
0.00672357
0.00242576
0.00516439
5.71841e-05
-0.00203735
0.00824177
0.00803585
-0.0045529
-0.00566267
0.000781448
0.0182415
0.000916734
-0.00149596
-0.0039288
-0.00414366
0.000296535
0.00399106
-0.00191599
-0.00183752
0.00967615
0.000674878
0.00449535
-0.00378222
-0.002683
-0.00491147
0.00356952
-0.00180702
-0.00179131
-0.00445096
0.00288883
-0.000151557
-0.000533075
-0.000545712
0.00367893
-0.000521052
0.000604682
-0.0016527
0.00632081
-0.00669761
0.00736026
0.00324031
-0.0103956
0.000990064
-0.00591597
-0.0022816
0.0080976
-0.00408694
0.000529995
-0.0022274
-7.02052e-05
-0.00101018
-0.00303537
-0.00188214
0.000216452
-0.0024722
-0.00110661
-0.00219121
-9.35166e-05
-0.000720823
0.017666
-0.00576226
-0.00320832
-0.00398158
-0.00283009
0.00128324
-0.00016064
0.000795814
-0.00061333
-0.000544957
-0.00154052
0.00425924
-0.0103144
0.000210247
0.0037988
0.00123501
-0.00402535
0.00296458
0.00386816
-0.000335959
0.00181212
-0.00138676
0.00233167
0.0013585
0.0100646
-0.00127102
-0.000737752
0.000869469
-0.00363744
0.000158405
-0.00162296
0.000401098
0.00290243
0.00410944
0.00327913
-0.000580537
0.00562014
-0.000145354
-2.35941e-05
0.000136269
-0.00101485
-0.00102602
-0.00138037
0.00268281
-0.00199067
-0.00134094
0.00334247
0.000864968
0.00422252
-0.00335676
-2.17935e-05
0.00327848
0.00313183
-0.000252695
-0.00303656
0.0016409
-0.00605827
-0.00406441
-0.000671582
-0.0030776
-0.00138807
-0.0010962
1.63748e-05
-0.000618372
0.00145642
-0.00374499
0.00056008
0.00495963
0.00402496
0.00170586
0.00416404
-0.00310878
-0.00166625
0.0029438
0.00406901
0.00544529
0.000697208
0.0102873
0.00670549
0.00133825
-0.000962856
-0.00575032
0.00230125
-0.00268923
0.00104925
0.00465854
-0.00473334
-0.00174446
0.00336878
-0.00313096
0.00628408
-9.84399e-05
-0.00169756
0.00195128
0.00231159
-0.00305883
0.00224459
0.00083789
-0.00188763
0.00132507
0.00567706
0.000395055
0.000318412
-0.00300231
0.00279942
-0.00253852
0.010474
-0.00448196
-0.0012242
0.00200035
-0.00264247
-0.00284539
0.00175227
-0.00275484
-0.00217641
-0.00738704
-0.00250425
0.00195508
0.00021418
0.00376266
0.00366236
-0.00233821
0.00328078
0.00267585
-0.00226772
0.000247653
-0.00374566
0.0026547
0.00233467
0.00274266
0.00381317
-0.00034803
-0.000473634
-0.0049647
-0.0151046
-0.00163747
-0.00845672
-0.000768915
-0.000651507
0.000180411
0.00464375
-0.00126209
-0.00341105
0.00236881
-0.00204622
0.00145423
0.00295433
-0.00387556
-0.000459389
0.00404795
0.0089833
-0.00172048
-0.00392102
-0.00070217
-0.00616697
0.00671416
-0.000653954
0.00151596
-0.00661422
-0.00443055
-0.00619205
0.0057134
-0.000963038
-0.00129203
-0.00191113
-0.00307431
-0.000783844
-0.00102651
0.00546726
-0.00279994
0.000414136
-0.0045582
-0.000757212
-0.00688986
0.0022758
-0.00054934
0.000757065
0.00297105
0.00173848
-0.000434448
0.00724959
0.00225939
-0.00277014
0.000557289
0.000567551
0.000535076
-0.0067785
0.00208125
0.00259586
0.0010534
-0.000201199
-0.00144858
0.00498673
-0.0027732
-0.00117198
-0.0044169
6.72897e-05
3.69357e-06
0.00873523
0.00476442
-0.00240902
0.00116007
-0.00108345
0.00329405
-0.00285613
-0.000739112
-0.00199986
0.00467928
0.0023644
0.00401747
0.00201447
0.000730288
0.00147717
-0.00241857
-0.000464805
0.00264766
-5.59919e-05
-0.00131513
0.0037339
0.00486954
0.00732322
-0.00114164
0.00012259
0.00661439
-0.00729643
-0.00608317
-0.00693121
-0.00237339
0.00213069
0.00261671
0.00903939
0.000114839
-0.00197205
0.00270529
-0.000691007
0.00234393
0.00231595
-0.003843
0.00122632
-0.00105023
-0.0043987
-0.011011
0.00760374
-1.81731e-05
0.000950972
-0.0146942
0.00234584
-0.000124178
0.00719195
0.00181804
-0.00357864
-0.000736288
-0.000288241
-0.0015647
0.000224615
-0.00331401
-0.0024943
-0.000599247
0.00303107
-0.001303
-0.00357878
0.00302223
0.0012908
-0.00186565
-0.0028545
0.00290428
0.00222259
0.000357098
0.00169539
0.000587495
0.00323765
-0.000994601
0.00272883
-0.00737856
-0.00145395
-0.00116005
0.00155296
-0.0015862
-0.000449124
-0.000666685
0.00473428
-0.00219307
-0.00420581
-0.000249026
-0.00164864
-0.00146178
0.00551755
0.000528643
-0.00628745
-0.00223128
0.000184388
-0.00180568
0.00361449
0.00173809
0.00304482
-0.000814206
0.0012598
0.00520505
0.000200437
-0.00265151
-0.00168911
0.000267112
-0.0055007
-0.00172308
2.68906e-05
0.000793733
-0.00148698
-0.00114052
-0.00199641
-0.00131352
-0.00205154
-0.00154994
-0.0026406
-0.000584737
-0.00408208
0.0043798
-0.00295526
-0.00386329
0.000455267
-0.00199892
0.00141353
-0.000751874
-4.29206e-05
-0.00192857
-0.0093693
0.000351817
-0.00711879
-0.00410392
-0.000640559
-0.000603338
-0.000841574
-0.00123466
0.000258782
-0.00562895
-0.000516139
-0.00110218
0.0018742
0.00107813
-0.00040881
0.00291393
-0.00215808
-0.00212666
-0.0105284
-0.00177997
0.000705245
0.00385751
-0.00128362
0.00222233
-0.00389327
0.00209026
0.0012155
0.00203212
-0.00138119
-0.00286976
0.00644078
-0.000147306
0.00140835
0.000717773
-0.00692857
-0.000439706
-0.00523728
0.00287522
0.00588079
-0.0030843
-0.00148889
-0.00329125
-0.00321541
-0.00206449
-0.00103124
0.000305
-0.00193775
-0.00453657
-0.00432142
0.00943594
-0.00704796
-0.00221443
-0.0017775
-0.0033723
0.0031321
-0.000767152
0.000912277
-0.00201534
-0.00161822
0.00123899
-0.00268423
-3.0518e-05
0.00323645
0.00313231
-0.00471074
0.00442233
0.00297091
9.89302e-05
0.000716193
0.00118292
-0.00161128
0.00371809
0.0012232
-0.0043379
-0.00172971
0.00315606
0.00281421
-0.00561168
-0.00185839
0.00161571
0.00667277
-0.00217061
-0.00123342
-0.00464285
0.00553457
-0.00355132
0.00309668
0.00578177
0.00430183
-0.0121525
0.00200734
0.00462516
0.00179289
0.000362811
-0.0014619
-0.000535305
-0.00883689
0.000282718
-0.00730967
0.000429578
-8.88252e-05
-0.000866443
0.00126494
0.00824314
0.00110782
4.05235e-05
-0.00272479
-0.00103517
0.0011059
-7.06162e-05
-0.00015845
0.00560627
0.00485908
-0.0107029
-0.000908562
0.00181279
-0.00222318
-0.00153411
0.000912382
-0.00457111
-0.00727804
0.00286547
-0.000172583
-0.00432417
-0.00103766
-0.00348909
-0.00398921
-0.00381126
0.000691902
-0.00228447
0.00106997
-0.000671731
0.000134987
-0.00418873
0.00352132
-0.00307363
-0.000895936
0.00101721
0.00304251
-0.00380284
0.000557495
-9.35333e-05
-0.00227519
-0.00558739
-0.00837704
-0.00240871
-0.00321884
-0.00250821
-0.0017519
-0.00136622
0.00137631
-0.00174569
-0.00141983
-0.00275784
-0.00149667
-0.00137728
-0.0024438
-0.000704605
-0.000582521
0.000716052
8.83433e-05
0.0060835
0.00649096
0.00298282
0.00142475
0.0020412
0.00149411
-0.0052826
0.0048808
-0.00180263
0.00119807
0.00281709
-0.00478704
0.000354847
0.00104246
-0.00312413
-0.00405021
-0.000734026
-0.00329272
0.001693
-0.00225831
0.000793439
-0.00287766
0.00234455
0.00701795
0.00191579
-0.00514563
0.000911447
-0.000753049
-0.00213997
0.00173961
-0.00352583
5.73162e-08
0.0113165
-0.00184862
-0.00687688
-0.00903338
0.00187323
-0.00387196
0.00184169
0.00416537
0.000948515
0.000293545
-0.00209016
0.00150967
0.000984729
0.000456593
-0.00140265
-0.000880749
0.00090451
-0.00228577
0.00105501
-0.00339365
-0.00830264
-0.00254114
0.000959341
-0.002117
0.000262199
-0.000596813
0.00279036
0.00146159
0.0035141
-0.00538617
0.00326474
-0.000179572
-0.00166742
-0.00267831
-0.00113935
-0.000620894
-0.00289488
-0.000359167
0.00568508
-0.00181178
0.00102386
0.00297488
0.00031069
-0.00154582
0.000938531
-0.00054042
0.000586411
-0.00275293
-0.00138817
-0.00103546
-0.00188926
0.00952414
-0.00408586
-0.0014589
-0.000487225
-0.00265956
0.00141444
-0.00169136
-0.00129508
0.00141313
-0.00274835
-0.000918955
-1.72265e-05
-6.40367e-05
0.00446095
-0.0015242
-0.00517087
-0.00331513
0.000934882
-0.00259012
-0.00288502
0.00589878
0.00523771
3.27466e-05
0.000274638
-0.0033383
0.000930217
0.00233598
-0.000897983
0.00635583
-0.00172095
-0.00614986
-0.00219905
-0.0101335
-0.00221847
-0.00160292
-0.00667382
0.00417118
-0.00714579
0.00266465
0.00029637
0.0021748
-0.00372244
-0.000424667
0.00469538
-0.000397744
0.00113936
0.00334688
-0.000522494
-0.000258823
-0.000609932
-0.000851775
0.00266448
-0.00117027
-0.000879353
0.00257107
0.00210816
-0.00159133
-0.001475
0.00433858
0.00195016
0.00191519
-4.20528e-05
-0.00579577
0.00515736
0.0031363
0.00300895
0.000187951
-0.000604083
0.00086912
0.000203127
0.0029032
-0.00658263
0.000351491
-0.000979579
0.00382736
-0.0126691
0.0104845
0.00480713
-0.00717169
-0.00123136
-3.5026e-05
0.000390684
0.000910017
-0.000535835
-0.00391419
-0.00145454
0.000838956
-0.00229198
0.00143717
-8.05571e-05
0.00090256
0.00343951
-0.00184504
-0.000259585
-0.00169698
-0.000692202
0.00328742
-0.00224646
0.00163136
0.00368251
0.00411474
-0.0036616
-0.00118453
-0.0047822
-0.000573276
0.000760689
-0.00780911
-0.00262287
0.000126968
0.00493782
0.00165571
-0.00288187
0.000753219
-0.00310189
0.00811939
-0.000695845
0.00413403
0.000301978
-0.000690785
-0.000551257
0.00440035
0.00309753
0.000580762
-0.00380695
-0.000442841
0.00408229
0.000341679
-0.000207726
0.0048795
-0.00179779
-0.00400043
0.000933473
0.00226414
0.00249665
-0.00217129
-0.00111358
-0.00123267
-0.000977789
-0.00146869
0.00500816
0.00252674
-0.00113675
-0.00194726
-0.00338802
-0.000149635
0.00246237
0.00150981
-0.00171001
0.0029118
0.000732214
-0.00104089
0.00615424
0.00162486
0.000230105
-0.00161755
0.000929249
-0.00334001
-6.15699e-05
-0.000787842
-0.00178865
-0.00290605
-0.00182882
0.00226551
0.000301636
0.000435876
-0.00409007
-0.00343858
-0.00404818
-0.000981205
-0.000522692
0.000743203
0.000494854
-0.00978173
0.000758878
-0.00392305
0.00148781
-0.00059534
-0.00328208
-0.00021787
0.00434861
0.00608953
-0.00652712
-0.00344157
-0.00639455
0.000503325
-0.00324438
0.00680582
0.00261854
0.00229297
0.00094969
0.000346578
0.00211315
0.00080536
-0.00145419
0.0012306
-0.000138117
-0.00129408
-0.00679608
0.00868102
-0.00445791
0.00240226
-0.0030664
0.00110012
-0.00202881
0.00233852
-0.00491416
0.000589626
-0.000981643
0.000709584
0.00125016
0.00292843
-0.000385672
-0.00457777
0.00249442
0.000440317
-0.00216303
-0.00208285
-0.00113851
-0.00505093
0.00611103
0.00405136
0.000332571
4.86524e-05
-0.00532653
0.00384015
0.00354024
0.00328159
-0.00046865
1.38684e-05
-0.00411753
5.59567e-05
0.00180744
-0.00280184
0.00255566
0.00212893
-0.00224062
0.000832407
-0.0020319
-0.00165796
-0.000177753
0.00108144
-0.00254665
0.00241931
-0.00722067
0.00237429
-0.000905567
0.000608995
0.00014322
0.00113262
0.00160213
0.000678085
6.67775e-05
0.00281825
-0.00396811
0.0032404
0.00265392
0.000193441
0.00168398
-0.00344595
-0.00294812
0.00371584
-0.00381304
0.00202905
0.000559895
0.0129292
-0.00281723
0.00101458
-0.00132922
0.00134192
-0.00451265
-0.00347912
0.000881292
0.00237654
0.000758404
-0.000158194
0.00532207
-0.00408513
0.00122894
-0.00405072
-0.00208585
-0.00136145
-0.000478812
-0.000544977
0.00605444
-0.000852251
0.00352866
-0.00286902
0.00133264
-0.00433608
-0.00769292
2.9089e-06
0.00750846
-0.00362774
-0.0030379
0.00147557
6.37429e-05
0.00133017
0.00107353
0.000990887
-0.0101007
-0.0001651
0.000435223
0.000701941
-0.00746593
-0.0001903
-0.0034508
-0.00115603
-0.00291039
0.0011702
-0.00435083
0.000392633
-0.00181879
-0.00446727
-0.0023303
0.00139663
-0.000356366
0.00133265
0.0030893
0.00284581
-0.0004127
-0.00215535
-0.00410128
0.000461903
0.00724129
-0.000799077
0.00145555
0.000324733
0.00371831
0.000567691
-0.00113493
-0.00323024
0.00019236
-8.16449e-05
-0.0057222
0.00108164
0.00414897
-0.00427073
0.00534612
-0.00198958
0.000918093
0.000819484
-0.00306515
-0.00286354
-0.00202952
-5.57043e-05
-0.00377188
0.00213708
-0.00435834
-0.00118917
0.00336028
0.000333501
0.0024441
0.00140758
0.000185759
-0.000906982
0.00393616
0.000484431
0.00104313
0.00190486
0.00175122
-0.00213783
-0.00450992
-0.00128825
-0.000876287
-0.00267369
0.00151038
0.00414924
0.00433013
-0.00594499
0.00265968
7.60514e-05
0.00107462
-0.00303985
-0.000537155
-0.00275246
-0.000265987
0.000119678
-0.00215626
-0.000107899
-0.00132004
-0.00291724
-0.00619045
0.00247843
-0.00444255
-0.00212959
0.00116077
-0.00395252
0.00118633
0.00200835
-0.0114377
-0.00255612
-0.00463487
-0.000518537
0.000414048
-0.00247492
-0.00222803
0.00163594
-0.00420049
-0.00405977
-0.0127893
-0.00183235
-0.00706306
-0.00337659
0.000506776
0.00424934
-0.00564597
0.000687403
-0.00719632
-0.00255352
0.0040064
0.00167145
0.000437768
-0.00953583
-0.00020583
-0.00066703
-0.000175507
0.00108882
-0.00208621
-0.00214022
0.00214172
-0.0010027
0.00125219
0.00106897
0.00273073
0.00281152
-0.00270139
0.000607073
0.0021123
-0.00252248
0.00530032
0.0135245
0.00223946
-0.0016925
-0.00561037
0.00112988
0.000516994
-0.00255378
0.00172221
0.00434798
-0.000186009
-0.0022473
-0.000537865
-0.00174893
0.00403122
0.000389018
0.000591188
-0.00604251
0.000190557
-0.00151487
-0.0021869
-0.00220588
-8.53264e-05
0.00543606
0.00279261
0.000426355
-0.00547313
-0.00362157
-0.00299249
-0.00112668
0.000595202
-0.00356666
-0.00888894
0.00731491
0.00033168
0.00154009
-0.00418208
-0.00188775
-0.00676821
-0.0017384
0.00188364
0.00378651
0.000789142
0.00152914
-0.00521913
-0.00154862
0.00339629
0.00904429
-0.00109862
-0.000482937
0.00143466
0.00163725
0.0073296
0.00182168
0.00110708
-0.00893808
-0.00886488
0.000642081
-0.0016134
-0.00527982
-0.0041514
0.000383389
-0.000669997
-0.00697356
0.00490498
-0.000823011
7.95419e-05
-0.00337544
-0.00324916
-0.0102977
-0.00242618
-0.00363315
0.00342222
0.0106394
-0.00317606
-0.000714272
-0.00178365
0.00109187
-0.00131171
-0.00156226
0.00429577
-0.0010733
-0.00373971
0.000451289
0.00105577
-0.00246492
0.0143581
-0.00703415
0.000579679
0.00528403
-0.00078809
-0.00669014
-0.00115051
-0.00191611
0.00590217
-0.00140511
-0.00127019
0.000848624
-0.00389088
-0.0040993
-0.00351758
-0.00828598
-0.00526185
0.000827166
-0.00157448
-0.00373536
0.000895056
-0.000158869
0.00213003
-0.00680233
-0.00204111
-0.00263763
0.00435858
0.000659893
-0.00396042
-0.0120608
0.0034098
-0.00222045
-0.00158576
-0.00262469
-0.000221538
0.000883027
-0.000558314
-0.00381428
0.00112708
-0.00616149
-0.000415474
-0.00132118
0.000912431
-0.00152627
-0.00179509
0.00544085
-0.00184562
0.00560579
0.000125678
0.00159233
0.0059298
-0.0049043
0.0024096
-0.000100715
-0.00588705
-0.00249065
0.003921
-0.000781468
-0.00157662
-0.00100794
0.0019504
-0.000311786
-0.00230003
0.00143615
-2.18357e-05
-0.00243556
0.00314
0.00135785
-0.00616866
-0.00388997
0.00308653
0.00217585
-0.0024915
0.00291684
0.00203922
0.000746411
0.00500068
0.00215382
0.00276388
0.00641254
0.00246839
0.00248323
0.00358955
-0.00822749
-0.00208431
-0.00506993
-0.00110767
-0.00134744
-0.000547972
-0.00402848
-0.0032049
-0.00243856
0.0010667
-0.00285913
0.00141898
-0.00682124
0.00218659
-0.00365626
0.00962269
0.000285984
-0.000600578
0.00422232
0.00295743
0.00323523
0.00337957
-0.00364859
-0.000312589
-0.00981892
0.00400747
-0.00647182
-0.00601172
0.00494863
0.00383277
-0.000620652
-3.29189e-05
-0.00186633
0.000120712
-0.00156687
-0.00516584
0.00370955
0.0064609
-7.48401e-05
-0.00666612
-0.00247811
0.00829616
-0.000840633
-0.000475262
0.0142427
-0.000971207
0.00423936
-0.0046059
-0.00647894
-0.000230622
-0.00232256
-0.00232321
0.000716422
-0.00236347
-0.00370304
-0.00579708
-0.000897774
0.0030678
5.74021e-05
0.00290148
0.000422085
-0.000231918
0.00640733
0.00496651
0.00326483
0.000268054
0.00333357
0.00226305
-0.000258819
-0.00141923
-0.00140964
-0.00719058
0.00213063
0.00386858
-0.00354561
0.00526667
-0.00182177
0.0020717
-0.00559228
-0.00450562
-0.00417158
0.00852619
-0.00447142
-0.00555527
-0.0025878
-0.0013653
-0.00223801
-0.00286172
-0.000438316
-0.00201163
0.000373869
-0.00108377
0.00200894
-0.00541347
0.00935467
-0.00167153
-0.00114004
0.005201
-0.00318634
0.000777974
0.000112008
0.00348273
-0.00160568
0.000732366
0.00266689
6.66176e-05
-0.0032934
-0.00412392
0.00260866
-0.00634179
0.00668421
-0.00538562
-0.000344657
-0.000668008
0.00441507
0.00310852
-0.00132264
0.00315968
-0.00264139
-0.00342123
-0.00476966
-0.00778085
0.00722472
-0.00196369
-0.000269782
-0.0045325
0.00447013
0.00484257
0.00550533
-0.0031554
-0.00144954
0.00132163
-0.00444199
0.00147519
0.00025134
-0.00165202
-0.00896411
-0.000830006
0.00117486
0.00731405
0.00210414
-0.00877956
-0.00196445
0.00349863
0.00211401
-0.00134218
0.00420439
0.00107802
0.000914009
0.00216002
-0.000409357
-0.0081026
-0.00734298
0.000539422
-0.00464003
0.00400133
-0.00896595
-0.00127851
0.00221701
-0.00673771
-0.00424104
0.00525431
-0.00095999
-0.0062697
0.00139125
-0.00418694
0.00542441
-0.00379063
-0.00669621
-0.00108353
-0.0051055
-0.0152398
0.0013858
-0.000484705
0.00015013
0.00046499
-0.000971076
-0.00221192
0.00222597
0.000117661
0.00113018
-0.000109912
-0.00583864
-0.00129536
0.000113472
-0.00150857
-0.0043306
0.00158955
0.00121165
-0.000638518
0.000313295
0.00443774
0.00962498
-0.00297278
0.00080214
-0.00990479
-0.000273517
-0.00363626
-0.00417077
-0.00244599
0.000620561
-0.00853722
0.00690426
-0.00234854
-0.00888423
-0.00333033
-0.00261777
0.00555737
-0.00265557
0.0018599
-0.00687361
0.00165862
-0.000350717
0.0023233
0.00198689
-0.00257653
-0.00567285
0.0226759
-0.0193609
0.00207951
0.00349719
0.0037421
-0.00423969
0.00221879
0.00191535
-0.00163163
-0.00132491
0.000700392
0.00228245
0.00145549
-0.0058963
0.00529293
0.000669787
8.28485e-05
-0.000188889
0.00411019
-0.00167961
-0.0075298
-0.000309468
0.0023382
-0.00223115
-0.00658237
-0.00260166
0.000134089
-0.00176483
-0.00076333
0.000779722
-0.00291477
-0.00796779
-0.00142786
0.00302087
-0.00455988
0.000144899
0.00131799
-0.0015414
0.0058708
-0.00289029
-0.000987911
0.00432456
-0.00585391
-0.000335993
-0.000156216
-0.000926415
-0.00238644
-0.00368153
0.000931338
0.00582725
-0.00353061
-0.00347237
0.0054669
-0.00442415
-0.00145104
-0.0010536
0.00178725
-0.00155659
-0.000573995
0.00197758
-0.00141995
-0.00284583
-0.000475268
0.000718628
0.00374203
-0.000556991
-0.00424079
-0.000384139
-0.00158236
0.00439901
-0.0042227
-0.00341667
-0.00139869
-0.000577543
-0.005056
0.000936994
0.00160708
-0.00434764
0.000812253
-0.00111974
0.00050795
-0.0016091
0.000801755
-0.000579599
0.000287792
0.00046699
-0.006968
0.00242187
-0.00056146
-0.00667055
0.00380431
-0.000544521
0.000344847
-0.00159024
-0.000980224
0.00874577
0.00374007
0.000180428
-0.00147848
0.00196823
0.00268719
0.00213905
-0.00584976
0.000636572
-0.00627487
0.000117842
-0.000414954
0.00116965
-0.000593639
0.00121924
0.00254464
0.002106
0.00219212
-0.00130883
-0.000224184
-0.00544094
0.00374235
-0.00292232
-0.00414477
-0.00100363
-0.00347964
-0.0033763
-0.00114754
-0.00232553
-0.00171812
0.00245108
0.000612511
0.000120951
-0.00213083
-0.00147459
-0.00471431
-0.00868698
-0.000510673
0.00123407
-0.000446103
-0.00203787
-0.00472867
0.00172541
-0.00910861
-0.00102501
-0.00743262
0.00105699
-0.00154558
-0.00208995
0.00168773
0.00556134
-0.00287433
-0.000479563
-0.000566425
0.0027429
0.00270687
0.000102152
0.00029019
-0.00382451
0.00210152
-0.00441133
-0.00718449
-0.00335071
0.00400745
-0.00385711
-0.00197989
-0.0188363
-0.000116136
-0.00736801
0.000672684
-0.000655453
-0.000791787
0.00149657
-0.00515975
0.00259859
0.000897634
-0.000593203
0.00187591
0.00301818
-0.000162364
-0.00306638
-0.000471636
-0.000839495
0.00789349
-0.00660286
-0.00220409
-0.00309221
0.00310298
-0.00369133
0.00111826
-0.00101195
-0.00209776
-0.00807275
-0.00221101
0.00556948
-0.00577027
0.00422357
-0.00168703
-0.000469917
-0.00139541
-0.00197523
-0.00292764
-0.000352586
0.0045861
0.00122139
-0.0030026
-0.00262113
0.00265997
-0.00108326
-0.00203865
-0.000430169
0.00375348
-0.00101464
0.00669348
-0.00167076
0.00285272
0.000835493
-0.00200571
-0.000967772
0.00405993
-0.000525818
-0.00133415
0.00134174
0.000371003
0.00369569
0.00214659
-0.00515256
0.00331292
-0.00196289
-0.00278228
-0.000873186
-0.0104795
0.00299076
-0.000493715
-0.00248095
-0.000632751
-0.00561469
-0.00211715
0.00191589
0.000755514
0.00404202
0.000564726
-0.0101142
-0.000518827
-0.00395572
0.000595353
-0.00761546
-0.00444692
-0.00200026
-2.84726e-05
-0.0007698
-0.00457126
-0.00804813
-0.00102029
0.0090395
0.0085615
0.00357381
-0.00346256
-0.0015198
-0.00344429
-0.00486634
-0.000268036
-0.00175617
0.00075472
-0.00234481
-0.000727844
0.00293023
-0.00170458
-0.00305397
-0.00414366
-0.00384813
0.000265654
-4.33128e-05
0.000267256
0.000161056
0.00568949
0.00153215
0.00648413
0.00966368
-0.000896744
0.000557279
-0.00368039
-0.00210236
0.00184042
-0.00432666
0.00415964
-4.10394e-05
-0.00155555
0.00693661
0.00507214
0.00148758
0.00172131
0.00499325
-0.00346947
-0.0015569
0.00775808
0.00421244
-0.00341718
-0.00059096
0.0020539
0.00486235
0.000743356
0.0010551
-0.00605166
-0.000170585
0.00397
0.00070432
-0.00225705
0.00711686
-0.00718614
-0.00427411
0.000882596
-0.00210795
-0.00825686
-0.00152278
-0.0101095
0.00117729
0.00235314
0.00306594
-0.00313198
0.000197621
0.00069048
-0.00299007
0.00636068
-0.00386571
-0.000472995
-0.00101579
-0.0029097
-0.00332823
-0.00210316
-0.000698917
0.00495498
-0.00162046
-0.011777
-0.000753601
0.00134644
-0.00119999
-0.00176391
0.000813663
-0.00133224
-0.00097305
-0.0013094
-0.00748108
-0.00585191
0.00264316
-0.00143468
-0.000357819
-0.00248559
0.00886865
9.34869e-05
0.00527257
-0.00779208
-0.000587621
4.49142e-05
0.00127895
0.000931884
0.000409346
0.000213288
0.00189073
0.000375149
-0.00588691
0.0007665
-0.00503831
0.000839053
-4.77577e-05
-0.000780637
-0.00142159
-0.00330572
0.0028711
-0.00279515
-0.000292389
-0.00345577
0.00173636
-0.000836295
-0.00130562
0.00312859
-0.00468752
-0.000984513
-0.00134389
0.00336545
0.00140642
0.0069237
-0.00138355
-0.00167061
-0.00243548
-0.000454739
-0.00108036
-0.0038405
0.000417171
0.00220258
0.00388211
0.00106115
-0.000871235
-0.0041114
-0.00318607
-0.0014728
0.0036823
-0.000630977
-0.00366451
-0.00391698
0.00063538
-0.00173329
0.000376586
-0.000699967
-0.00180482
0.000369783
0.000105577
-0.0132897
-0.000740428
0.000273605
-0.00195181
-0.00275409
0.00559628
3.28155e-05
0.00189704
0.00280642
0.00197565
-0.000873567
0.000556435
0.00014414
-0.00103014
-0.00430501
-0.00425649
-0.000679036
-0.000143455
-0.00393909
0.00104411
-0.00189266
0.00104693
0.00368915
-0.00202241
0.000225747
-0.00433206
-0.000698641
-0.00796514
0.000194116
0.00263626
-0.00528332
-0.00822811
0.000655531
-0.00099751
-0.00136223
-0.0003718
-0.000295868
8.29485e-05
0.00113501
0.00505225
-0.00116948
0.000785026
-0.0117193
0.00134374
-0.00300554
-0.00301729
-0.00162942
-0.00229032
0.00722973
-0.00428421
0.00144973
-4.21521e-06
-0.00456063
-0.000503394
0.0129452
0.0107922
-0.00245822
-0.0046148
-0.00260705
-0.000225142
-0.00246355
0.00122535
-0.0046565
-0.00558798
-0.00157739
0.00353722
0.00120882
-0.0021437
-0.000623562
-0.00359788
0.00271561
-0.00105856
0.00121132
-0.000279594
0.00299836
-0.00993677
-0.000752715
-0.00255868
-0.000758676
0.00188096
0.000677881
0.00616726
-3.14346e-05
0.000721133
-1.55195e-05
0.000125053
0.0037477
-0.00135781
-0.00105953
0.00234756
0.00162732
-0.00103641
0.00623574
0.0049236
-9.04932e-05
-0.00374416
0.0010807
-0.0014433
-5.13278e-05
-0.00276
9.53685e-05
0.000172547
-0.00218687
0.00428033
-0.00999916
-0.00747639
-0.000413363
0.00371391
-0.00481786
0.00060556
-0.000659734
-0.00537678
0.00160831
9.88934e-05
-0.00377378
-0.0022571
0.0040119
-0.00022454
-0.00436778
-0.000867117
0.000969403
-0.00321351
-0.00635831
-0.00154223
0.00417353
0.00335674
-0.000112492
-0.00127089
-0.00246823
-0.00541765
-0.00781114
-0.00708042
-0.00243804
-0.000148688
-0.00182628
0.0030307
-0.00150888
0.00103039
-0.00300262
0.00460414
0.00227403
-0.00386082
0.00181462
0.000243042
-0.000963666
-0.00188167
-0.00351659
-0.00425048
0.00113435
0.00185649
0.000355534
-0.00398653
-1.63038e-05
0.00102438
0.00578581
-0.00215926
0.00294842
2.58445e-05
-0.00243743
-0.00201621
-0.00857064
-0.00106222
-0.00181691
-0.000289608
-0.00254208
0.00197838
0.00201112
-0.00335626
-0.00211879
-0.00264608
-0.00306459
-0.00198118
0.00070903
-0.00222666
-0.00884051
-0.000464576
-0.00281294
-0.00316362
0.00211579
-0.011998
-0.00232481
-0.00785226
0.00153871
-0.00243674
0.00638595
-0.000271716
0.000762994
-1.23259e-05
-0.0021836
-0.000662116
-0.00719734
-0.0144105
0.0142532
-0.00395647
0.0021287
0.00613389
-0.00121424
0.00175364
-0.00931952
-0.0038851
-0.00402551
0.00704426
-0.000639793
-0.00479785
-0.00252215
-0.00339284
-0.00501494
-0.00745885
-0.00279971
6.02845e-05
0.000832993
-0.00188683
-0.00442337
0.000786656
-0.00326526
-0.000402006
-0.00685458
0.00129728
-0.00190175
-0.00164761
0.000675711
-0.00191291
-0.00758372
0.00305391
-0.00184976
0.00296733
0.00617154
-0.00384687
-0.00245265
-0.00402085
-0.000459588
0.00507701
0.00209856
0.00375479
0.00505002
-0.00091041
-9.64364e-05
0.000560701
0.0063911
0.00605121
0.00227592
0.000313853
-0.00112195
0.000386105
-0.00287574
0.00125629
-0.00719566
-0.000872624
0.00203409
-0.00186095
-0.00186278
-0.00629235
0.00510081
0.000585039
-0.00464511
5.58246e-05
0.00184504
-0.00214816
-0.000233486
0.000779301
-0.00252472
-0.00404051
-0.00304698
0.00148059
