0.00130323
0.00107559
-0.000303774
-0.0012731
-0.0016096
-0.00141286
0.00200741
-0.000889943
-0.00301086
0.00105359
-1.29544e-06
0.00127911
0.00361183
-0.000655578
0.00402698
0.00167924
0.00159664
-0.00199514
0.00118026
0.000253041
0.00570466
-0.00214175
0.00174546
-0.00320957
0.000344139
0.00624814
-0.002161
-0.00135437
0.00414147
0.000620407
7.4837e-05
0.00403975
-0.00302721
-0.000547453
-0.00148462
0.000940018
-0.00214633
-7.62956e-05
0.00185679
0.00715192
-0.000881986
-0.000286868
-0.00215232
0.00104564
-0.00415963
0.00314392
-0.00139258
0.000291779
0.00193591
-0.00144086
-0.000847829
0.000853633
0.00346259
-0.000282655
0.000135939
0.000916535
-0.00246302
-0.000376692
0.000804386
0.00513451
-0.00101267
0.00012903
-0.000326941
-6.86817e-05
-0.00167502
-0.00299293
0.000951646
5.50313e-05
-0.00418266
0.000379662
0.00306551
0.00401699
-0.00281908
-0.00120791
0.000421373
-0.00509838
-0.00189041
0.00223951
-0.00103052
0.00146192
-0.0017034
0.00238052
0.000278636
0.00251959
0.00420358
0.00385393
0.00245273
-0.00239218
0.00330635
0.000400725
-0.00182283
0.000264979
0.00299874
-0.000597963
0.000536524
-0.00275402
-0.00325556
0.00112333
0.000793251
-0.00285112
-0.00264364
0.000316545
-0.00263294
-0.000869315
7.35753e-05
0.000449029
0.0014251
-0.00296255
-6.08934e-06
0.00131895
-0.00555038
0.000634238
-0.000819713
0.0019983
0.00410885
0.00173659
0.000156962
-0.00183896
0.00335693
-0.00349993
-0.00216495
-0.0019244
-0.00135576
0.00044697
-0.00267912
0.00310427
-0.00127818
-0.000640957
-3.15298e-06
-7.40255e-05
-0.00152934
0.000673572
0.00714555
-0.00147823
-0.00048159
-0.0033019
-0.00384337
0.00141382
0.00400678
-0.000948092
0.000286883
-0.000733629
0.00191287
4.0305e-05
0.00132356
-0.00190927
0.00084859
-0.00343526
-0.00309218
0.00147402
-0.00215391
0.00361222
-0.00040839
0.00169547
0.000304776
0.00298059
-0.000645722
0.000955807
0.00532204
-0.00144656
-0.000744632
-0.000318104
-0.00177122
-0.00455271
0.00434549
0.000697864
0.00497471
-0.00448092
0.00189616
-0.00607958
0.00150267
-0.00244177
0.00202837
0.000737842
-0.00146889
0.00048991
0.00143913
-0.00388764
0.00106488
-0.000197385
0.00228343
0.0021072
0.00243238
0.00268594
0.000171883
0.00183116
0.000388187
0.00132304
-0.000787989
-0.000575993
0.00580577
-8.57936e-05
0.00318457
-0.00216992
-0.00558004
-0.00375762
-0.00150908
0.00176859
0.00118998
0.00112013
-0.00104674
0.00740314
-0.000211131
-0.00123649
0.000134073
-0.00512494
0.00352725
-0.000902854
-0.000740971
-6.18951e-05
0.00331666
0.0026428
0.000613176
-0.00114939
0.00106944
0.000735346
0.000302438
-0.0051818
0.00374916
0.00177261
-0.00189399
0.00493537
-0.000456455
-0.00284196
-0.00129526
0.00178499
-0.000100397
-0.00101672
-0.000905841
-0.00277664
0.00236682
0.00292406
-0.00215924
0.000525484
-0.000402457
0.00170638
-0.000588451
0.00062026
0.000621536
-0.000256594
0.00261208
-0.000970914
-0.000580206
0.00281858
-0.00394452
0.000504456
9.71957e-05
-0.00163339
0.00230968
0.00020965
-0.000166958
0.00142727
-0.000672872
0.00101541
-0.00316461
-0.00225783
0.000478544
-0.000760618
0.00104136
-0.00219341
0.00231807
-0.00126799
-2.87355e-05
-0.000897302
-0.00254354
0.00234278
-3.95854e-06
-0.0032319
-0.0012552
0.00133534
0.000316425
-0.00233946
0.00383469
0.000649954
-0.000167061
0.00356353
0.000824039
-0.00231374
-4.27779e-05
0.000619726
0.000486967
0.00545271
0.00112559
-3.64176e-05
-0.00218853
0.000828451
-0.00680694
-0.000786553
-4.70385e-05
0.000711243
0.0051145
-0.00253489
-0.00189145
0.00432631
-0.00187406
-0.000679657
-0.000610348
0.000644444
-0.00355372
-0.00133044
-0.00227592
0.0021864
0.00147052
0.000367648
-0.00161754
0.000429682
0.00503831
-0.000514154
-0.00538644
0.000628759
0.00155994
0.0020904
-0.000350195
0.000476058
-0.000459838
-0.00188134
-0.00203251
5.02941e-05
-0.00260538
-0.00171437
-0.000731829
-0.00722946
-0.000340519
-0.000919591
0.000879044
-0.00225635
-0.00173748
-0.00400855
0.000150341
-0.00144522
0.000985006
-0.00449275
-0.00197822
0.000471079
-0.0014918
0.00194288
-0.00125567
-0.00143439
-0.000798598
0.000807453
-0.00402409
0.00359646
-0.00259479
-0.00247918
-0.00238978
0.00249276
0.00266417
0.00131033
-0.002659
-0.00241247
0.00194438
0.00184173
0.00256852
0.00155718
-0.00469418
1.84815e-05
-0.0015996
0.00435868
0.000461596
0.000761201
-0.00113514
-0.00167691
-0.000757205
-0.00418107
0.0053746
-0.00312288
0.000941586
-0.00133222
0.00369584
-0.00101292
-0.00215835
0.00167158
-0.00200891
-0.0020302
-0.000733647
0.00106687
-0.00134023
-0.00301438
-0.000424826
-0.00160154
0.00598593
-0.000687952
-0.000500459
-0.000377384
-5.04931e-05
-0.00370575
0.000648751
0.0006913
-0.00230835
0.00429602
-0.00703318
-0.000516736
0.000118648
-0.000793679
-0.00143921
0.00310703
0.00277254
-0.000296615
0.000583893
-0.000950351
-0.000709165
-0.000498271
0.00172417
-0.00137449
0.000108812
-0.00062088
0.00900956
-0.00540043
0.00200861
-0.00122976
5.67034e-05
0.00131242
0.000208319
0.00148547
-0.000915239
-0.00728088
-0.00120703
-0.00051958
0.00052302
-0.00357209
-0.000349806
0.000167133
-0.00340102
2.20489e-05
-0.000832847
-0.0040056
-0.00323138
0.00185583
-0.00313342
0.000693465
-0.00534895
-0.00521052
-0.000186223
0.00101078
-0.000617726
9.52617e-05
-0.00194315
-0.000669072
-0.00202424
-0.0024361
-0.000170363
-0.000100659
-1.03983e-05
-0.00162038
0.000872623
0.00132743
-0.000933931
0.000543132
0.00542561
0.00173757
0.00142549
0.000250996
-0.000295292
0.000273338
0.00400421
0.000731794
0.000539045
-0.00252263
0.00173927
0.00124979
0.00191398
0.00265185
-0.000676042
-0.0055071
0.00595771
-0.000598691
-0.00128149
0.000166005
-6.74064e-05
-0.000219283
-2.71805e-05
0.00697859
-0.000626823
-0.00378537
-0.000130915
0.00278967
-0.000731522
0.00156573
0.00118033
0.000208251
3.48819e-05
0.0020952
-0.000520749
-0.000770325
-0.00101795
0.00119824
-0.00193835
-0.00284309
-0.00505347
0.00137855
-0.000421482
-0.00167724
-0.0012972
0.00348963
-0.000219445
-0.00200317
-0.00105692
0.000836758
-0.00117039
-0.00316306
0.00206433
-0.00131866
0.000990127
-0.00141344
0.00373473
0.000798629
0.00371257
0.00293461
0.0015571
-0.00325597
0.000186161
-0.000898681
-0.00124431
0.000661479
-0.000486333
-0.000113306
-0.000957187
0.000255954
0.0029183
-0.00204645
-0.00185609
0.000747353
-0.000726882
0.00420252
0.00267174
-0.000381089
-0.00112547
-0.00193536
-0.00414774
0.00140687
-0.00132754
-0.00020141
2.53477e-05
0.00252836
0.00261554
-0.00182015
0.000301748
-5.72532e-05
6.30354e-05
-0.00201318
0.000112313
-0.006325
-0.00280472
-0.00102835
0.00150747
-0.00412598
-0.000310517
-8.36818e-06
-0.00440848
0.000811582
-0.0019484
0.000432914
0.00156667
-0.00342693
0.000282345
-0.00223666
8.16083e-05
-0.00241189
-0.00269529
-0.000176069
-0.00163833
0.00256846
0.00536691
-0.000824578
-0.00133709
0.000497782
-0.000594689
0.0065751
0.000656538
-0.00366717
0.0036567
-0.002065
-0.00215551
-0.0011743
-9.11296e-05
-0.000157622
4.01013e-05
-0.000775196
-0.000918273
-8.9983e-05
-0.000902608
0.000284132
-0.00369136
-0.00224895
-0.00183046
0.00152793
-4.7896e-05
0.0049329
-0.00338724
-0.0029526
-0.00110347
0.00112641
0.0001173
0.00210529
-0.00703096
-0.00116769
0.0048736
-0.00287155
-0.000448662
3.82838e-06
-0.000249002
0.001144
0.000647036
-0.0032518
-0.000679729
0.00143465
-0.00479102
-9.4591e-05
0.00710784
-9.45714e-05
0.00125239
0.00094275
-0.000687046
-0.000192705
-0.00148945
0.00108036
-0.00261831
0.000550254
-0.00347608
-0.00797131
-0.000118423
0.00171431
-0.000305102
-0.000874144
0.0010963
-0.0010812
-0.00043281
-0.00358694
-0.000118374
-0.00288539
0.00496228
0.000492148
0.00164625
0.00553948
0.00636339
9.59455e-05
-0.00187316
2.25325e-05
0.00212969
-0.000242871
0.000244632
-0.00132042
0.000524047
-0.00113995
-0.00122173
0.00132323
0.000178847
0.00102423
0.00209077
-0.0015887
-0.00205772
0.0022841
-0.00114354
-3.64427e-05
-0.00201183
-0.000258152
0.00152615
0.00471891
-0.00168748
-0.00242979
-0.00101097
0.00271084
-0.00405945
-0.00027539
-0.000743642
-0.00194902
0.00251785
-0.000846584
-0.00193935
-0.00115513
0.00318281
-0.000311088
2.27351e-05
0.00110079
0.00296474
-8.58831e-05
0.000359762
-0.00391836
-0.00238365
-0.000407115
-4.1452e-05
-0.000918005
0.000549766
-0.000138521
-0.0038005
-0.000467014
0.00149748
0.000337327
0.000199233
0.000137218
0.00345223
0.00134808
0.00329251
0.00133899
-0.00123702
-0.000227999
0.000387713
0.000245876
-0.00215437
-0.0016332
-0.000994161
-4.21959e-05
-0.00137928
-0.000839405
0.00143016
0.00245629
-0.00167815
-0.00605196
-0.00349032
0.00230897
0.000615095
0.000278675
-0.000397339
0.00117412
-0.00470878
-0.00236261
-0.0100663
-0.00171923
-0.000138789
-0.00114903
-0.000348926
0.00179088
0.00133366
-0.000564445
2.92676e-05
-0.00117503
-0.00134258
-0.000228963
-0.00186645
-0.00624803
-0.00258046
0.000102277
0.00109105
7.0426e-05
-0.00430658
-0.0024493
0.00351349
0.000591316
-0.00462195
-0.00287123
-0.00473525
-0.00031602
0.00045151
0.0017751
-0.00209466
-0.00274569
-0.000839743
0.00598804
-0.000535741
0.000629427
-0.000409968
-0.00191854
0.0014591
0.00043909
0.000630287
-0.000894149
-0.000522235
0.000930157
-0.000355333
0.00279994
-0.000459383
-0.00210594
0.00199344
-0.00411495
-0.000838538
0.00136632
-0.0055129
0.00578665
0.000387066
0.00191308
0.000303284
0.000587663
0.00404381
-0.0011592
0.00208478
0.000426075
-0.000448779
-0.000806106
0.000540688
-0.000226327
0.00308756
-0.00107854
0.00125666
-0.00202258
0.00139833
-0.00176807
0.000838498
-0.00044026
-0.002717
-6.4214e-05
-0.00474094
0.00523598
-0.004719
-0.00411149
0.00133701
0.00150959
-0.00129109
-0.00046438
-0.000669333
-0.000152365
-4.77451e-05
0.00184073
-0.000509593
-9.86009e-05
-0.00121174
-0.00120919
0.000449997
-0.000478021
0.0073372
0.000129553
-0.001053
0.00108964
-0.00311379
-0.00111429
-0.00428027
0.000373717
0.000506531
0.00198082
-0.000428687
0.00149387
-0.000765586
-0.00103082
-0.0026278
-0.000112002
0.000117807
0.000469207
0.000680974
0.00546147
0.000396784
0.00117867
0.00337347
3.59025e-05
0.00419708
-0.000193816
0.00149069
-0.000223064
0.0014141
-0.0038913
-0.00324823
-0.00367549
0.00208881
-0.000602452
-0.000450483
-0.000232263
-0.00209536
5.76795e-05
-0.000908964
-0.00261056
-0.000651747
-0.00172259
-0.0018167
0.0021997
-0.000636207
0.00144143
-3.02803e-05
-0.000991082
-0.00376409
-0.00165476
-0.0035491
-0.00326024
3.3533e-06
0.000873047
-0.00666687
-0.000243071
-7.84196e-05
0.00276228
-0.00124451
0.00126179
-0.00687488
-0.000626592
0.000858587
0.002784
-0.000360736
-0.00424041
-0.00284353
-0.00231724
-0.000510642
-0.00255999
-0.00130764
0.000594343
-0.00053258
0.000537449
-0.00138244
0.00226826
-0.00116345
-0.00298625
-0.00101104
-0.00206651
-0.00183723
-0.00145979
0.00011142
-0.00148656
0.00283576
0.00175123
-0.000642393
0.0006194
0.00549475
-0.00332789
0.00301485
-0.000759314
-0.00428914
-0.00155586
-0.00149058
0.000320991
0.003105
-0.00212835
0.000847648
0.000195273
0.000875756
0.000823797
-0.00195478
0.00354807
-0.00271911
-0.000890024
0.000414617
0.00110601
0.000930345
0.0024323
0.000606249
0.00149555
0.00181529
-0.000363284
0.00147307
0.00109425
0.000719208
0.000487507
9.91589e-06
0.00328822
1.55058e-05
0.00377226
0.000278306
0.0139953
0.00338922
-0.000287487
0.0053003
-0.00433471
-0.000456077
0.000611564
0.00161578
0.00158749
0.000277152
0.00037049
0.00188227
0.00341055
0.000606422
-0.000186803
-0.0035479
0.00388628
-0.000116269
0.000628968
0.000672297
-0.00364764
0.000574407
0.00346176
-0.000926622
-0.00253476
-0.00121222
0.00126718
0.00125002
0.000641096
0.0039673
-0.00164543
-0.00191177
0.00949262
0.000703699
-0.0025096
-0.00155306
0.00240653
0.00722145
-0.00151619
0.0032143
0.000615097
0.000720747
-0.000583787
0.000716226
0.000522689
0.000598485
0.000625072
0.00184471
-0.000652061
0.00395307
0.000399232
0.000749837
-0.00188235
0.00108994
-0.00243903
-0.000815719
-0.00228405
0.000713256
-0.000315272
0.00335976
0.00212978
-0.00156424
0.000972
0.00240092
-8.82454e-05
-0.000812394
-0.00194697
0.00154284
-0.00143014
-0.0021378
0.000399971
-3.84358e-05
-0.00142816
0.00128945
-0.000115818
0.00224831
-0.00332286
0.00192071
0.00189491
0.000635793
-0.00274244
-0.000610112
-0.000101485
0.000743296
-0.00320024
-0.00518848
0.00107057
0.00332175
-0.00152894
-0.0029489
0.000969433
-0.00385979
0.00232409
-0.000690779
0.00300004
-0.00129639
0.00114971
0.00157934
-0.00121902
0.00168979
-0.00464181
0.00728469
-0.00206823
-0.00254759
0.00162109
-0.00464005
0.000428307
0.00234797
0.00399077
-0.00130242
-0.00394173
-0.00134986
0.00533869
0.00328514
0.000641366
0.000753129
0.00196566
0.00448549
0.0046935
0.000803984
0.00232841
-0.00018075
0.000701649
-0.000287667
-0.000744789
-0.00312163
-0.000334286
-0.00124627
-0.000378297
-0.000544645
0.000898967
0.000390881
-0.000328952
0.00166423
-0.00154886
-0.00573701
-0.00172559
0.000227606
-0.00251428
-0.00130011
0.00304147
0.00101938
-0.00065906
0.00494525
-0.00192472
0.00467488
0.00559001
0.000934381
-0.00225643
-0.000801656
-7.26701e-05
7.66111e-05
0.00130324
-0.00753731
0.00655379
0.000643829
-0.00172834
-0.00229504
-0.00477852
-0.00154057
0.00171807
0.000663214
0.012991
0.000236239
2.77185e-05
0.000368609
0.0012547
-0.00162452
-0.00105232
0.00106647
0.000801042
-0.00428076
0.00213806
8.96099e-05
-0.00141122
0.00634577
0.0016575
0.00367729
-0.0100893
0.000728511
0.000564439
-0.00016017
0.00491647
0.0029687
-0.00677928
0.000379995
0.0028962
0.00109269
-0.00312351
-0.000984507
-0.000472175
-4.80522e-05
0.000590791
-0.00143882
0.00343399
-0.00192194
7.84654e-05
0.000697628
0.00109956
-0.000865884
0.002652
-0.00134152
0.00418869
0.0062689
0.00159782
0.00430073
0.00146624
-0.00477012
0.00338228
0.000892773
-0.000171332
0.000571019
-0.00183993
0.000375167
0.000775698
-0.00100352
-0.002927
-0.000583815
0.00487545
0.00302026
0.00420372
-0.00050103
0.000428602
-0.0046761
0.000477
-0.00122776
-0.0069959
2.15456e-05
-0.00403521
0.00325301
-0.000164022
-0.000306695
0.00107694
-0.00215467
0.00308799
-0.000805305
-0.000436107
0.000217913
0.000494147
0.00363526
0.00787379
-0.00277877
-0.000229438
-0.00595932
-0.000607552
0.00152261
-0.00218798
-5.97049e-05
-0.000131337
0.000333202
0.00101931
-0.00633247
-0.00112987
-0.00169209
0.000937963
0.000878482
0.000354788
-0.000865163
-0.000163602
0.000718046
-0.00387884
-0.00106089
0.00120008
0.000126732
0.0037237
-0.00207382
0.000636202
-0.000893374
-0.0017804
-0.00716776
-0.00156624
-0.00839173
0.00233457
-0.000161677
-0.000524215
0.000927886
-0.00095551
0.0010055
-0.00137773
-0.00030785
-0.0111255
0.00027886
0.000743322
0.000871552
0.00271727
-0.00282876
-0.000104605
0.000614594
-0.00290221
0.002842
-0.00108128
0.000795791
-0.000334119
-0.00232511
-0.000727903
0.00363927
0.00315615
-0.00610258
0.00318419
-0.00268692
0.00221571
0.00467743
-0.00444242
0.00206506
-4.58116e-06
-0.000586323
-0.00197441
0.00165278
0.000839085
-0.00148178
-0.000322365
0.000550058
-0.000265681
0.0016841
0.00316859
0.00138159
-0.00475267
-0.00174829
0.00157681
0.00584535
0.0019609
0.002444
-0.00184008
-0.00240309
-0.0028206
0.000803107
-0.00300012
-0.00303571
0.00321297
0.000287699
-0.00251985
0.000483873
-0.00238265
0.000234996
0.00091446
-0.0033694
0.00176857
0.00314099
-0.00353147
0.00384567
0.00129971
-0.00367139
-0.000136385
-0.000390437
-0.00256603
-0.00110937
-0.000992019
-0.000702687
-0.00504715
-0.000862614
-0.00180885
-0.000593249
-0.000471295
-0.00632401
-0.00177128
-0.00117849
-0.00275088
-0.000615084
-0.00129281
-0.00492636
0.00132096
0.00108919
-0.00159121
-0.000214407
-0.00215573
-0.00829062
-0.00104846
0.00156085
-0.000765877
0.00405971
0.00265147
-0.000894085
-0.000675507
-0.0011575
0.00104733
-0.00135942
-0.00146823
0.00667214
-0.00579053
-0.000663594
-0.00107747
-0.000755712
0.00478411
-0.00407836
-0.00467184
0.00208753
-0.00274157
0.00132883
-0.00468184
0.000705618
-0.00793826
-0.00158363
0.000419332
0.0104446
-0.00177645
0.00234941
0.00142689
-0.00161762
0.000838027
-0.00031453
-0.000320694
0.00226606
0.000418231
-0.000278645
-0.00556975
-0.00393254
0.00179805
-0.00305211
0.000459084
0.000835923
0.00205975
-0.00178103
-0.000797758
-0.000494261
-0.0021221
-0.000300081
0.000677346
0.00239146
-0.00220201
-0.0041858
-0.000582873
-0.000469762
-0.0113321
0.000804364
0.000228292
0.00517561
0.00376717
0.0030865
-0.0020079
0.00526915
0.00186882
-0.0015647
0.000378315
0.00524072
0.000486496
0.000779586
-0.000612689
-0.000533682
0.00108765
-0.0030021
-0.00467787
0.0011306
-0.00578723
-0.00418528
-0.000511519
0.00113143
-0.0018952
0.00169561
-0.0011307
0.0058062
0.00189203
-0.00455763
0.00415819
0.00196342
-0.00133496
0.00570324
0.00654839
-0.00644903
0.00422466
0.00518285
-0.00652711
0.000738404
-0.00185782
-0.00924086
-0.000306432
-0.000446812
-0.00154097
0.00489573
0.00200376
0.00158162
0.00115374
0.00284221
0.00147879
0.00260515
0.000731596
-0.000880531
0.00104416
-0.000385499
0.000950908
0.00115886
-0.00545672
0.00473528
0.0013276
-0.00507273
0.00127887
-0.000331971
0.00150795
-0.00725576
0.00314662
-0.000209659
-0.000299768
-0.00124224
-0.00366386
-0.000182849
0.00256368
-0.008346
0.00506771
-0.00208689
0.00513898
0.000318128
0.001837
-0.00778862
0.00605115
0.0087771
0.00202278
-0.000424263
-0.00266167
0.00138391
-0.00327263
-0.00317169
0.00155006
0.000137404
0.00318908
-0.00158531
-0.00354653
-0.00505464
-0.00348878
-0.000997603
-0.000848596
-0.000866712
0.00118869
0.00245425
-0.0025379
-0.000701515
0.0011939
0.00117523
-0.000960249
-0.00144587
-0.000363831
-0.000739608
0.00154798
0.00814711
-0.000988227
0.00351144
-0.000592692
-0.00165737
0.0022852
-0.00206158
-0.00223732
-0.00961019
0.000926549
0.00026632
0.00493084
-0.00102355
0.0059152
0.000849575
0.000828093
0.00806875
-0.00380256
0.000360748
-0.00341808
-0.00133323
0.000863581
0.00219442
0.00364377
0.000131204
-0.00158579
-7.17037e-05
0.00164671
-0.00855948
-0.0015321
-0.00385225
-4.916e-05
-0.000930148
0.0013302
-0.00039461
-0.00247106
-0.0024641
-0.00963792
-0.000131632
6.64093e-05
-0.00330639
-0.000194015
0.00366503
-0.000717464
0.00489563
0.00167886
-0.00114581
-0.000336734
-0.00035915
-0.000879211
-0.00270742
0.000328395
0.00244155
-0.000355282
0.0014889
-0.00044564
-0.00339892
-0.000987898
-0.00154976
0.00463766
-0.000667752
0.00187284
-0.000545611
0.00202757
-0.000776254
-0.000761964
0.000501828
-0.00214649
0.00120185
-0.000578257
-0.00065709
-0.00141135
0.000996262
0.00101409
0.00374497
0.00275422
0.00023237
0.00376313
0.00463628
-0.000485424
0.00111695
-0.00233873
-0.00341907
0.00178139
-0.00189641
0.00313889
0.00137145
-0.00177824
0.000628448
-0.0014768
-0.00116462
0.000729618
-0.00553357
0.00209804
-0.00584551
0.00242413
0.000173595
0.00134643
0.00416555
0.00153072
0.00928545
0.00288819
0.00194426
0.00202575
0.00787513
0.00129783
-0.00339656
0.0064886
0.00214784
0.00256797
-0.000467821
-0.00112895
0.00148134
-0.000493693
0.000719499
0.00141802
-0.00319348
0.0032288
0.00103941
-0.00132929
-0.000892035
0.00231863
0.00332797
0.00246915
0.000136981
-0.00356591
-4.62962e-05
-0.000161513
-0.00314955
-0.00149759
-0.00111203
0.00468099
0.00434168
0.00509019
0.00293509
-0.00463588
-0.00167171
0.00306606
-0.00012216
0.00130634
-0.00118188
-0.00064863
0.00146154
0.00178529
-0.00120777
-0.000975628
-0.00123654
-0.00166433
-0.0011551
-0.000224057
-0.000814084
-0.00731591
0.00175083
0.000834338
-0.00304649
0.00401089
-0.00175422
0.00353931
-0.00188604
0.000730359
0.000253855
-0.0025722
-0.000168932
-0.00136658
0.000432137
-0.00196731
-0.00224823
0.00103249
-0.00499655
0.00023927
0.00021225
0.011769
-0.00248495
0.000338122
0.00021156
-0.0011904
0.000485297
0.00483642
0.00268724
0.000763743
0.000684763
0.00207289
0.00528
0.00160861
0.00293329
0.00448391
-0.000855185
0.000369728
0.0010878
-0.00239391
-0.00321679
-0.00234323
0.00166311
0.00409811
0.00215108
0.00927075
0.00116036
0.00705897
-0.000223974
0.00201105
-0.00837691
0.00331583
-0.00334979
-0.000550261
-0.000836579
0.00194225
-0.00220066
0.000915665
-0.00135209
0.00113071
0.000828617
0.00151317
0.000373238
-0.0013867
0.000338899
-0.000377735
0.00209427
-0.000312816
-0.00285023
-0.000905958
0.00681387
0.000181113
0.000895406
0.00110678
9.54799e-05
-0.000420166
0.00200865
-0.00135392
-0.00154439
-0.00266055
0.000446568
0.00353315
0.00161874
0.00269539
-0.000749401
-2.39201e-06
-0.00103836
0.00134577
-0.00131118
-0.000522042
0.000693464
-0.000763356
0.00271543
0.00331227
-0.000641934
0.00672384
-0.000958702
-0.00119871
0.00358603
0.00183274
0.00138208
-5.34689e-05
0.00123704
-0.00325119
-0.00333046
0.0067476
0.000547611
-0.00144941
0.00282318
0.000184695
-0.00420769
-0.00240302
-0.00387987
0.000202364
0.00303965
-0.00218969
0.000594109
-0.00385961
-0.00618794
0.000614658
0.000646047
0.00145024
-0.00209049
-0.00183156
0.00127806
0.000375169
0.00221046
5.1224e-05
0.000907783
0.000553512
0.000830429
-0.00158233
-0.00393051
0.000336271
-0.000584435
-0.00131303
-0.00168829
-0.000871483
0.00358885
-0.000295457
0.00127196
0.00176357
-0.0032627
0.00116561
0.00207053
0.000248405
-0.00091892
0.00106243
0.00578099
0.00100413
0.00151971
0.00257771
0.00135455
0.000594413
-0.000506498
0.000225095
-0.000120647
-0.00179208
0.00145554
-0.00331614
0.000798946
0.00328484
-0.00298238
0.00467805
0.000686212
0.00344222
0.00113145
-0.000506008
-0.000676389
-0.0016434
-0.00200031
0.0014984
-0.00061682
0.000435656
0.00119615
0.000189116
-0.00271363
-0.00138329
0.00146443
-0.00347074
0.0031542
0.00237774
0.00277544
1.40323e-07
0.000759665
0.00348598
0.0021528
0.00621007
-0.00174127
-0.000561219
-0.00179663
0.000824515
-0.00507481
-0.00119395
0.000651013
0.000133457
-0.00271033
0.00828986
0.00216737
-0.00187534
0.00184212
0.00457057
-0.00158564
0.000491822
0.000830738
-0.00178184
-0.00653809
-0.000748145
0.00104638
-0.000869891
0.00832515
-0.000529396
0.00193878
-0.000694076
0.00153742
0.000532055
0.000414412
-0.000119492
-0.00215496
0.00303329
0.000313229
-0.00191387
0.00206551
-0.00320478
0.00232153
-0.000685296
-2.89324e-05
-0.00305953
-0.0032456
-0.0028591
-0.000666753
0.00193866
0.000457214
-0.00148715
0.00162469
0.00381143
-0.0014415
-0.0057402
0.00286618
0.00343834
0.00280403
0.00203535
-0.00675001
-0.000429993
0.00446416
0.00277013
-0.00636659
0.00336081
-0.00293348
0.00135431
-0.00111833
-0.00164559
0.00269698
0.00138372
-0.00393833
0.00316525
-0.000623347
-0.000245471
0.00279297
0.000703701
0.0029327
-0.00222578
0.00136616
0.000123621
0.00173631
0.000365704
0.00472737
-0.00136377
-0.00129741
-0.000444364
0.00189734
-0.00158082
0.000575931
-0.000527942
0.000273034
0.00040206
0.00255815
0.00135599
0.00129852
-4.72614e-06
0.00337344
0.00157783
0.00211124
0.00104017
0.00110048
0.000985686
0.00274859
0.000581113
-0.000922249
-0.000824424
0.000459597
-0.00134097
0.000861734
0.000582184
0.00238648
0.00292541
-0.000703387
3.13582e-05
-0.00101796
-0.000753097
-0.00319681
-0.000593768
-0.00141619
-0.00170266
0.000318535
-0.00112124
0.00623686
-0.00103426
-0.000279529
-0.000547992
0.00282767
0.0010247
-0.00205919
0.00142177
0.00218604
0.00206163
-0.000388607
-0.00093306
-0.00317441
-0.00524815
0.000903964
-0.00206113
-0.00119468
-0.00278185
0.00196974
0.00122252
0.000474105
-0.000132941
0.00472593
0.00359401
0.00772589
-0.000323776
-0.00181019
-0.000143732
-0.00218593
-0.00327091
0.0049874
0.0115593
0.00122497
0.00133881
-0.00309237
0.00679694
-0.00189244
-0.000867005
-0.00160546
0.00370092
0.000663973
-0.00153842
0.000654925
0.00338501
-0.00056143
-0.00133372
-0.00232185
-0.00224201
0.000611301
-0.00117412
-0.00017565
-0.00197131
0.00201118
-0.00179476
0.00222959
7.6941e-05
3.23898e-05
0.000453765
-0.00118225
0.00215162
-0.00110747
-0.00120684
-0.0008674
0.00173017
0.00245243
0.00101751
-0.00245287
0.00273385
-0.00617562
0.000731286
-0.00313758
-0.000245339
-0.000497028
-2.748e-07
-0.00136136
-0.00237597
0.00534004
-0.000568986
-0.0029238
-0.0031621
0.00114629
0.00267292
0.0063008
0.00232745
0.00434981
-0.00376998
-0.00209648
0.00335077
-0.00247387
-0.00311118
-0.002726
-0.00374429
-0.000106253
-0.00309418
-0.000184632
0.00097817
-0.00239566
0.00233297
0.00116444
-0.00453908
-0.00037787
-0.00286644
0.0015298
0.00328469
-0.000135721
0.000620924
-0.00197914
-0.00676114
0.00509775
-0.000900339
-0.00357652
-0.00461624
0.00141488
0.00174687
0.000194864
0.00914348
0.00371825
-0.00308641
0.00175492
0.00054542
-0.0023553
-0.000208324
-0.000494266
-0.000325911
-0.000858808
0.00333499
0.000117346
-0.0022135
-0.000895301
-0.00449419
0.00176505
-0.00527005
-0.00181378
-0.00164649
-0.000447344
0.00019944
0.00325548
0.000687817
-0.00101581
-0.0016335
-0.000434843
-0.000825639
0.00507617
4.94488e-05
-0.00519276
-0.000728871
-0.00261985
0.00036753
0.00121427
-0.00155574
0.00096533
-0.00012372
-0.00130581
0.0024715
0.000213863
-0.00385786
-0.00265412
0.000111616
0.000137073
-0.00064665
-0.000992337
0.00168534
0.00321811
0.00295025
0.00143638
0.000491206
0.00173861
-0.000292255
-0.000241529
-0.000868592
0.000770286
0.000783152
0.00488457
-0.000526373
-0.000819092
-0.000110707
0.00107012
0.00125202
-0.00280167
0.00444782
0.000709888
-0.000137997
0.00153986
0.00335714
-0.00161656
0.00210097
0.00169837
0.00203974
0.00554862
-0.00248343
-0.00198321
-0.000851297
-0.000474096
-0.00601523
-0.00132616
0.00665499
-0.00011597
-0.000602058
-0.0017482
-0.00240161
-0.00265378
-0.00121077
0.000559352
0.000257186
0.00190323
-0.000815283
0.00383745
-0.00061612
-0.00316388
-0.00131746
0.00296873
-0.00160787
-0.00161388
-0.000220122
0.00548581
-0.000262846
-0.00477354
-0.00187409
8.74015e-05
-0.00472986
0.000892055
0.000240718
0.000961747
-0.00151876
-0.00101415
-0.00531297
0.000751549
-0.000934948
-0.00273255
0.000209722
-0.00169193
4.32859e-05
-0.0042365
0.00392706
-0.00437805
-0.000801613
-0.000147433
-0.00147501
0.00021519
-3.87877e-05
0.000462428
-0.00331872
0.00190569
0.00103066
0.00131207
-0.00027971
0.000750216
-0.00373477
-0.000758142
-0.00170248
-0.000414742
-0.00157536
0.00255231
1.55284e-05
-0.00522612
0.000799983
-0.000188137
-0.000415313
0.00239092
0.00255021
-0.00378292
-0.00275956
0.00172295
0.00157506
4.93237e-05
-0.0010093
0.00300282
0.00193808
-0.00184793
0.000576774
-0.0102751
0.00280396
-0.00134062
0.000383648
0.00300526
0.000643568
0.000981567
0.000309175
-0.00901136
-0.00145536
-0.00345995
-0.00850498
0.00168394
0.000142434
0.00256107
0.000398467
-0.00673209
-0.00108972
-0.00093886
-0.000483801
0.00388706
-0.000597571
-0.00278782
-0.00140584
-0.00148664
-0.000685655
0.00226749
0.000485718
0.000875492
0.000176938
0.000839572
0.00257387
0.000300573
-0.00157415
-0.00283277
-6.0633e-05
-0.00449898
-0.00255981
0.00076314
0.000240164
-0.00154059
-0.000464494
-0.00215454
0.00250383
0.00127106
-0.00388703
0.00245736
-0.00129811
-0.00189155
-0.00337965
-0.00197265
0.00371129
-0.00291003
-0.000118355
-0.00183721
-0.00375207
0.00412569
0.00679339
-0.001129
-0.00519704
-0.00303843
-0.00118293
0.00280841
-0.000236804
-0.00107944
0.000321943
0.00868599
-0.00378196
0.00168034
0.00491637
-0.000835855
-0.00556908
-0.00372032
0.0043544
-0.00310756
-0.000850975
0.000811494
0.00297547
0.0026069
-0.000240971
0.000719726
0.00117003
-0.000193411
-0.00633149
0.00232102
-0.00162753
-0.00104024
-0.000709044
0.0026518
-0.00222133
-0.00115088
-0.000323274
-0.00289626
-0.000303539
0.00224845
-0.000532266
-0.000776735
-0.000728716
0.000135449
-0.000572213
-0.00606426
-0.000852204
0.00118307
-0.000663459
9.32818e-05
-0.00266494
-0.0041214
-0.00124152
-0.00139987
-0.00107574
-0.00295683
-0.00372408
0.000262469
0.00015669
-0.00390322
-0.00977981
-0.00895976
-0.00403817
0.000640558
0.000690898
0.00400801
0.00284184
0.001581
4.17395e-05
-0.0109031
-0.00746097
0.00319486
-0.0012646
-0.00216988
-0.00369658
0.00120668
0.000462987
0.000434297
-0.0015796
-0.000526098
-0.000277529
0.00304041
-0.000377448
-0.000851723
0.00230462
0.00313231
-0.000481727
0.00242112
0.00139607
-0.0049831
-0.00794238
0.0121979
-0.00249719
-0.000141675
0.000216156
0.00292317
-0.0008943
0.00209946
0.00115383
-0.00080158
-0.00281109
0.000363073
-0.00218417
-0.000521311
-0.0029723
0.00221466
0.00151354
-0.000363228
-0.00663808
-0.00159855
-0.000505047
-0.004985
-0.000581441
0.00108851
0.000710251
0.000686029
0.00268999
-7.38429e-05
4.56099e-05
-0.000768065
0.00976495
-0.00118937
-0.00576109
-0.00113088
0.000476409
0.00196392
0.000981088
-0.00162086
-0.0024714
0.0107402
-0.00201599
-0.00157775
0.00146935
-0.0023338
-0.00156274
0.00574496
-0.00101485
-0.00205885
-0.00630653
0.00247155
0.00195148
-0.00269982
0.00397454
0.00129369
0.00445779
0.000548468
0.000594163
-0.00215707
-0.00377352
0.00306078
-0.000115692
0.00292162
0.00168163
-0.00101072
-0.00391063
0.00152981
0.00152085
0.00287532
-8.74698e-06
0.000202376
0.00124147
0.00258034
-0.0026044
-0.00184631
-0.00255514
-0.000561766
0.00185309
-0.000267668
0.00163572
0.00402763
0.000119036
-0.000356529
0.000267851
-0.00130181
0.00109413
0.00184123
0.00281811
-0.000108214
-0.00145571
-2.42741e-05
-0.00278842
-0.00186482
0.00154656
-0.000390559
-0.000764156
0.00155391
0.0038745
-0.00281912
0.00488669
0.000648759
0.00176613
-0.000147099
-0.00115884
-0.00135838
-0.000202788
-0.000236984
-0.00149767
-0.0055481
0.000298048
0.00113703
0.00031684
0.000430178
0.00397565
-0.000551645
0.000487335
-0.00491507
-0.00458385
0.00124094
0.000645771
-0.000203543
0.0007852
0.0017729
-3.99328e-06
9.54879e-05
-0.000359622
0.00212612
-0.00121362
0.000972144
-0.00253384
-0.00482265
-0.00283386
-0.00136673
-0.00246681
0.000454769
0.00943597
-0.00159505
0.000468459
0.000699796
-0.000107342
-0.00578401
-0.00793826
-0.00251302
0.00119748
-0.000401345
-0.00190737
-0.000376392
-0.00207488
0.00244121
-0.00156555
-0.00451596
0.00327781
0.00260595
0.000891178
-0.00336192
-0.00449078
0.0045811
-0.00121434
-0.00233587
-0.000544368
-0.00413498
-0.00226595
0.000430251
-0.00363887
0.000172603
-0.00463841
-0.00168982
0.00405932
-0.00204581
0.00211065
-0.00340747
0.00121798
-0.00125247
-0.00395099
-0.000374579
0.00210848
-0.00183536
-0.000921792
-0.00100154
0.0022105
-0.00991802
-0.000973249
-0.00140974
0.00190187
-0.000914161
-0.000215628
0.00136953
0.000955788
0.000489166
-0.00101675
-0.00205373
-0.00250455
0.000211949
0.00125978
0.000491838
0.000526782
-0.00050619
0.0027476
0.00183271
0.00144582
0.00385656
-0.00469849
-0.00120463
-0.00191853
0.00191416
0.001176
0.000815267
0.00136096
0.000173246
-1.91541e-05
-0.00286296
0.00246376
8.49357e-05
0.00135982
0.00071868
-0.00350107
-0.000415008
-0.00132512
-0.00335987
0.00212267
-9.56923e-05
0.00115313
-0.00374841
0.000177914
-0.000709174
-0.00303505
0.00250364
-0.00120775
-0.000568845
0.000126035
0.000996429
0.00106811
-0.000505663
-0.00943628
0.000131197
0.00256616
0.00158816
0.00138188
-0.00105961
0.000173668
-0.00160391
0.00187658
-0.000635926
-0.000462207
-0.0020369
0.00332053
0.00087164
0.000485637
-0.000734211
-0.00398103
0.000554597
-0.00136998
-0.000492009
0.00194867
-0.00263935
-0.00152368
-0.00269721
0.000437188
0.000244253
7.23615e-05
9.87692e-05
-0.00101356
0.00101784
0.00161508
-0.00140084
0.000766477
0.000740478
-0.00114907
0.00100423
-0.000958645
-0.00125446
0.00313263
-0.00130292
0.00397222
0.000671725
0.00411429
-0.0018184
-0.00013659
0.000520352
0.00042975
-0.00145976
0.00233361
-0.00176095
7.20517e-05
0.00151652
0.00526028
0.00288315
0.00270818
0.000624532
0.00111282
-0.00105966
-0.000550635
0.0108101
0.000534147
-0.000719227
5.04772e-06
-0.00146472
-0.000778799
0.000421101
-0.00178236
-0.000770517
-0.000262222
0.00171729
6.44944e-05
0.00612666
0.00788315
-0.000743566
-0.000220028
-0.00203279
-0.00200175
-0.00220349
-0.000642598
8.46761e-05
-0.000553956
-0.000958502
0.000928805
-0.000369662
-0.00154014
0.00251472
-0.0022442
0.00233742
0.0039343
0.0015484
0.000876768
0.0012006
-0.00223528
0.00389587
0.000457467
-0.00399185
0.000260968
-0.00369601
0.00382318
-0.000777691
-0.00336315
0.00100401
-0.000673273
0.00114636
0.000893414
0.00127724
-0.00741075
-0.00372384
-0.000893989
-0.00284773
-0.00216119
-0.00379429
0.00302967
-0.000185097
0.00408043
-0.00200469
0.00184595
-0.000302419
-0.00041051
-0.000605144
0.000131846
-0.00582025
0.00114247
0.00213602
-0.00259408
-0.00345314
-0.00582427
-0.000996495
-0.00253456
-0.00018849
0.000337131
-0.00322319
-0.000709207
-0.00323488
-0.0103855
0.00131704
-0.00180776
-0.00123642
0.00118881
-0.00195807
0.00590543
-0.00198856
0.00284572
0.00111277
-0.00450491
0.00040551
-0.00223591
-0.00379633
0.00202456
-0.000185454
0.00390974
-0.0129862
-0.00175499
-0.000188166
0.000465964
-0.00141267
0.000528955
-0.000650963
0.00351612
-0.00101621
0.00147905
0.00101125
0.000829472
0.00112778
-0.00356427
-0.00197286
-0.000394927
-0.00318234
-0.000441786
0.000566969
0.00215388
0.00436804
-0.00158064
-0.00674232
0.00124832
0.00495935
-0.00127904
0.00218935
0.00053748
0.000759445
0.00246887
0.00108449
-0.00108803
0.00618315
-0.000386521
-0.00145354
0.0015185
0.00499095
0.00342494
-3.90367e-05
-0.000815365
-0.00338907
-0.00440723
0.000870095
0.00386164
-0.002664
-0.00164107
0.000739617
-0.00144459
-0.0014217
0.0044626
4.12827e-05
-0.00335375
-0.00245731
0.00050825
0.00157681
-0.00213749
0.000954257
-0.00174913
0.000253805
-0.00437015
-0.00185318
0.00288515
-0.0072277
0.00437435
-0.00614602
-0.00111557
0.00140743
-0.000455686
-0.00699021
0.00419923
0.00176694
0.00189511
0.00190469
-0.00188567
-0.00359939
0.00977928
0.00224086
-0.00422958
-0.00228373
-0.00248996
0.000789468
-0.0018864
-0.00085074
-0.0039422
-0.0019717
-0.000348252
0.000663528
0.00220494
-0.00111296
0.000133723
0.00163162
0.00212938
0.000227291
-0.00178897
0.00271202
0.00386623
0.00299462
0.00175798
0.000398115
-0.00237744
-0.0021436
0.00103125
0.00205761
0.00575909
-0.00345644
-0.000361391
0.00092403
6.64099e-05
0.00386749
0.000149535
0.000350456
-0.00371333
0.00109864
-0.000833707
0.00272243
-0.0028591
0.00168093
0.000177888
0.00120133
-0.0017907
0.00158727
-0.00288411
-0.00103739
0.00273264
-0.00817053
-0.000400842
0.00290569
-0.0021846
-0.00094454
0.00342013
-0.00478227
-0.00264307
0.000382233
-0.000462097
-0.00625699
-0.000955721
-0.00082225
-0.00260021
-0.000945586
0.000212095
-0.00373501
0.000439316
-0.00284191
-0.00357422
-0.000357098
-0.00238728
-0.000132731
-0.00112322
0.00157643
-0.00368295
0.00025285
0.00233411
-0.00162719
-0.00286916
0.0025355
-0.00300654
-0.000713273
-0.000462269
-0.00190516
0.0037305
-0.00338488
0.00526455
0.00196382
-0.00145569
0.00361514
0.0013472
-0.000973739
-0.00380876
-0.0023427
4.09553e-05
-0.0012771
-0.00635069
-0.00150809
-0.0040558
-0.000773636
-0.00276394
0.00149588
3.93911e-05
0.00717583
-0.00582643
0.00145362
0.000372636
0.00248946
-0.00125069
0.00101315
0.00232059
0.00529472
0.00330687
-0.000536407
-0.0033277
-0.00236617
-0.000787175
-0.000491285
-0.000853789
-0.00966113
-0.00338124
-0.00364397
-0.000632184
-0.000898047
-0.0078747
-0.0018225
0.00108383
-0.00155887
-0.000366085
0.000507843
-0.000512808
0.00184842
0.00354321
-0.00195496
-0.00191765
-0.00297767
0.00335834
0.0124884
0.000875392
0.000451797
-0.00153792
-0.000846468
0.00401539
-0.00205424
-0.00236451
8.9904e-05
0.00215878
-0.00158526
-0.00463508
0.00277973
-0.000308202
0.00260805
-0.00265956
-0.00603582
0.000707469
0.000455934
-0.00180759
0.00188923
0.00287009
0.00190422
0.00285405
0.00170923
0.00386833
-0.00413197
-0.00463235
0.000992946
0.00534255
-0.00282484
0.00101192
-0.00152722
0.000300542
0.00419612
-0.000751239
-0.00359281
-0.000622604
-0.00220345
0.00114362
-9.56219e-05
0.0022774
-0.00169968
-0.00426668
-0.00209722
-0.00185771
-0.00288751
0.00118354
0.000683529
0.00573101
-0.00252176
-0.00322982
0.000217531
0.00154467
-0.00319064
0.00125848
-0.000275491
-0.00285766
0.00402492
-0.000172257
0.000967428
-0.000869181
-0.000737381
-0.00291331
0.000177004
0.00145369
-0.00471399
-0.00223947
-0.00236221
-0.00284362
-0.000593092
0.000139792
