0.00234641
0.00104056
-8.47339e-05
-0.00118483
-0.0017642
-0.00166943
-0.00106455
-0.000623709
-0.000417867
0.00300947
-0.00051392
0.0019047
0.00144612
0.000930098
0.00183433
-0.00230555
0.00298713
-0.000619047
-0.00119967
0.00040586
0.00153318
-0.00294579
0.0041341
-0.00840834
-0.00174568
-0.00187187
0.000739158
-0.00341388
-0.00409478
0.00223678
-0.000709526
0.000449462
-0.00160454
0.00105395
-0.00267719
0.00295214
-0.00733396
-0.0084054
0.000937826
-0.00108479
-0.00103018
-0.00099772
-0.00161476
0.00090262
-0.00138763
0.000819359
-0.00164337
0.000388746
0.00424186
-0.000730956
-0.00150495
0.00165302
0.00235509
-0.000359019
0.000992156
-0.00110399
-0.00655763
-0.00103466
-0.00663331
0.003026
-0.00097209
-0.000803473
-0.00182585
0.00220681
0.000963387
-0.0021014
-0.00431577
0.00190654
-0.00410301
-0.000715229
-0.000671986
0.00146928
0.00129362
-0.00136413
-0.00319363
-0.0030643
0.00160973
0.000916234
-0.000959361
-0.00416438
-0.00242917
0.000650805
0.00388236
0.00351443
-0.000748872
0.000890606
0.00133319
-0.00154133
0.0026321
0.00363386
0.00184684
0.000928415
-0.000669557
0.00106447
-0.000742329
-0.00223434
-0.00221375
-0.00250241
0.000795658
-0.00307217
0.000981797
0.00108725
-0.00281315
0.000390723
0.000967978
-0.00276987
0.00957846
-0.00127038
-0.00143357
-0.000924364
-0.00798842
-0.00125169
-0.00200493
-0.00329656
-0.000105456
-0.00563975
-0.000558744
0.000138142
0.00390943
0.000991415
-0.00479904
-0.000878562
-0.000824866
-0.00157718
-0.00229478
0.00165149
0.000780524
0.00409545
-0.00132634
-0.00178429
-0.00231641
-0.000204986
-0.00209161
-0.00189786
-0.00221168
-0.00526872
-0.00369533
0.00425656
0.00249787
-0.00985568
0.00221416
-0.00118806
0.000270921
-0.00223624
-0.00448484
-0.00262033
0.00126901
-0.000389611
0.000130978
4.11521e-05
-0.00718331
0.00325226
0.00413429
-0.000597326
0.00359102
-0.00191476
-0.00277973
-0.00296403
0.00101531
-0.0011702
-1.79567e-06
-6.02912e-05
-0.00124162
-0.00350437
-0.000565437
-0.00065738
0.00182669
-0.00285612
0.00130389
-0.00609308
0.00680582
-0.000357638
0.0108829
0.00234453
0.000866793
-0.000504744
0.000772262
0.000209061
-0.00106412
-0.00160981
-0.00298332
-0.000355382
0.00447703
-0.000453698
-0.00142038
0.00357037
-0.000791539
-0.0016036
0.00103201
-0.000486903
-0.00112449
-0.00258216
-0.00127488
-0.000915819
0.00179475
-0.00830396
-0.000656148
-0.00180022
0.000203986
-0.00154781
-0.000378788
0.00424157
0.000251472
-0.00038195
0.00244279
-0.000572549
-0.00367613
-0.00503445
0.00163481
0.000328673
0.00110868
0.00160347
0.00282946
-0.00209788
-0.000749364
0.00135089
0.000542601
-0.000908864
-0.00149092
0.00144629
0.000534952
0.00262638
-0.000155277
0.00161359
-0.000691922
-0.000519845
-0.000795728
-0.000359184
0.00527735
0.00149961
0.00179162
-0.00546282
0.000772573
0.00140057
-0.00101432
-0.00292903
0.00335735
-0.00105198
0.00134543
-0.00150786
-0.00136987
-0.000286592
0.00216198
0.000421423
-0.00298581
0.000966532
-0.00117541
-0.000772923
0.00346718
0.00111267
-0.000454793
0.00072599
0.00164114
0.0021092
-0.00197223
0.00404829
-0.000192046
0.000382621
0.00277433
-0.00095341
0.00246919
-0.00162074
-0.00178682
-0.00247121
-0.00485236
0.00081446
-0.00275338
0.000576774
-0.000176078
0.000715917
-0.00403901
-0.000591254
0.000557786
-0.000290003
0.00280293
0.000458134
-0.00114408
0.00366617
-0.00069324
-0.000703316
0.00208817
0.000866168
0.00453392
0.00166098
-0.00103566
-0.0039962
-0.00273094
-0.000866722
0.00071782
-0.000321303
0.00519395
0.00294167
-0.000160051
-0.00574819
0.00147639
-0.00121251
0.0012225
-0.0013961
-0.000123863
0.00135051
-0.00250544
9.3449e-05
-0.00259409
0.000677692
-0.00308046
-0.0016851
-0.00688615
0.0009019
-0.00385215
-0.000534876
-0.00218967
0.000959231
-0.00044126
0.00262177
-0.00209296
0.000537355
-0.00372221
0.000291841
-0.00105916
0.00132349
0.000573154
0.00130951
0.00176055
-0.00409631
-0.00105656
-0.000860453
0.00161716
-0.00200687
0.000880265
0.00185983
-0.00128902
0.0018908
0.000153647
-0.00433692
0.000849002
-0.00487876
0.00165508
-0.00451947
-0.00265654
0.0105392
0.000482578
0.00331878
-0.00262411
0.0016441
-0.00167804
0.00341656
-3.05778e-05
-0.00187145
-0.00301581
0.00357466
-0.00173065
0.00220937
0.00362661
-0.00398622
-0.00078745
-0.00108323
-0.00323919
-0.00293355
-0.000326326
-0.000469978
-0.00162194
-0.00164309
-0.00162229
0.000128777
0.00176493
-0.000972169
0.000273693
0.00118072
0.00190792
-0.00149922
-0.000913327
0.00423448
0.00404443
-0.00178959
0.00271332
0.000900987
-0.00422088
-0.000667838
0.00141167
-0.00253479
0.00137809
-0.00174975
0.000753083
-0.00142445
-0.00143455
0.00102897
0.000426186
-0.000536415
0.000596546
-0.00293314
-0.00204453
0.00523845
-0.0006274
0.000911772
-0.000651797
-0.000234501
0.000582497
-0.00116349
0.00634082
0.00727456
-0.000100094
0.00422201
0.000698502
-0.0010435
0.000727909
-0.000703759
0.00245704
-0.000737123
0.00214769
-0.00142646
0.000556732
-0.000711461
0.00120177
-0.000203911
-0.00129462
0.00144897
0.00197654
0.000322049
0.000344125
-0.00011224
0.00044371
0.000793885
0.00154809
-0.00273046
0.00261436
-0.000869397
-0.00151179
0.00135746
-0.000524229
-0.00099409
-0.000731398
-0.00323439
0.00410549
-0.000372044
-0.000642648
0.00031629
-0.00152484
0.00146101
0.00296412
-0.00117516
0.00052019
0.00268534
-0.000524814
-0.000626724
-0.00114094
-0.000393341
-0.000575451
-0.00123217
-0.00139822
-0.000967863
0.000304288
0.000283287
-0.00217698
-0.00117475
0.00577611
-0.000474828
-0.00105398
-0.0028149
0.00134564
0.000430934
0.000745338
0.0034661
-0.00138564
-0.00516794
0.00513061
-0.00109696
-0.00230023
0.000460064
-0.00138237
-0.000995759
-0.000776815
0.0038276
-0.00189575
0.00171945
0.00477188
0.00240066
0.00206039
-0.00389576
3.28104e-05
-0.00074247
0.00320902
-0.000788408
-0.00294658
-0.00432225
-8.37145e-05
-0.00121866
-0.000902281
0.000297165
-0.00225139
0.00139658
-0.00290417
0.004662
0.00103006
0.00373829
-0.00291664
-0.0014649
-0.000251671
0.00019494
-0.0004656
-0.00246354
-0.00238091
-0.00126103
-0.00128307
-0.000880498
-0.000345303
-0.00499843
-0.00261785
0.00283748
0.004971
0.00105295
-0.000604243
0.00217933
-0.00150269
-0.00495342
-0.00189982
0.00231995
0.00144734
-0.0016213
-0.000303575
0.000869179
-0.00110181
-0.00167143
-0.00224398
0.00448872
-0.000825799
-0.00679137
-0.000502581
-0.00219682
-0.0011372
-0.00178659
-0.00260611
-0.000738608
-0.00250027
-0.00569595
-0.000415535
-0.00255674
0.000738481
-0.0031683
0.00317587
-0.00182229
0.000889627
-0.00691006
-0.00454973
0.000619555
0.00197401
-0.00220943
2.14142e-05
0.000766178
-0.00451621
-0.00208583
-0.00268631
0.0006735
0.0012804
-0.000406597
-0.00196476
-0.00167502
-0.000370898
-0.00334865
-0.00112822
0.00234402
0.0037924
-0.00118926
0.00617846
-0.000520838
-0.00159345
0.000579524
-0.00445714
0.00530832
5.21897e-05
-0.000730343
-0.000607629
-0.00213781
-0.00110398
0.000714903
0.000943516
0.00184329
0.00103365
-0.00629787
-0.00359642
-0.00145822
-0.00146039
-0.000305716
-0.0028391
0.00464798
-0.000957023
0.000323036
0.000976453
0.00472942
-0.00387755
0.00140579
0.00204321
0.00098067
0.000281353
-0.00120633
-0.00168735
-0.0028087
0.00659637
-0.00101033
-0.00340855
0.000828845
0.00365532
0.00590385
-0.00342102
-0.00238148
0.00023646
0.00327154
0.000738051
-0.00251205
0.000360898
0.000231775
0.00136598
0.00268976
-0.00187748
-0.00287083
-9.21049e-05
-0.00160421
-0.0018553
0.00238347
-0.000211946
-0.00405481
0.00278805
-0.00107675
-0.00601564
-0.00224639
-0.00118471
-0.000744449
-0.0027162
-0.00311165
0.000622624
-0.000229847
-0.00230953
-0.000999651
0.0014596
0.00101886
-0.000663663
-2.60986e-05
-0.00394027
-0.000803141
-0.00187016
0.000443426
0.00223391
-0.00441609
0.000283115
-0.00124104
0.00191745
-0.00396367
0.00106354
-0.00121635
0.00171253
-0.0010608
-0.00341646
-0.00219597
-0.000673595
0.00247717
-0.00368556
0.000371494
-0.00217945
-0.00351151
-0.0050565
-0.00791331
-0.00184908
-0.00152562
0.000453606
0.00143815
5.36704e-05
-0.00254627
-0.00240544
-0.00521591
-0.00397355
-0.00302723
0.00272526
-0.00130814
-0.000636624
0.0017765
-0.00196699
0.0016921
0.00157865
-0.00161916
-0.00226963
-0.000782352
0.00179444
-0.000636308
-0.00172203
-0.000838431
0.00118241
0.000179633
-0.00444939
-0.000548357
-0.00302367
-0.00289918
0.00266236
5.27112e-05
-0.00208817
0.00303792
-0.00254178
-0.000764492
0.00184302
-0.000663162
-0.00137577
-0.00321813
0.000173187
0.00307768
-0.000883725
-0.00470938
0.00208278
0.000285331
0.0127068
-0.000595572
-3.48508e-05
-0.00163306
0.00289635
0.000386396
-0.0020088
0.0024072
-0.00265858
4.167e-05
-0.00598437
-0.00120136
0.00519448
0.00230152
-0.000651186
-0.000679062
0.000964569
-0.000789543
0.00033153
0.000852338
-0.00190552
0.00295777
0.00111085
-0.00415667
-0.00115754
0.000116646
0.000279508
0.000964098
-0.00272516
0.0016366
-0.0012432
0.00489775
7.52577e-06
-2.41722e-05
-0.0038581
-0.00171334
0.00135177
-0.000471131
-0.000873146
-0.0003499
0.00116059
0.00207373
-0.00109913
-0.000327257
-0.000798402
0.00180412
-0.00174291
-0.00288149
-0.00125645
-0.00228231
-0.00207172
-0.00473579
0.000700047
-0.00164803
-0.000943682
-0.00137424
0.00408974
0.00055742
0.00116158
-0.0012318
-0.00103746
-0.00020525
0.000528316
0.00259547
0.00201606
-0.000103847
-0.000374294
-0.00247689
0.00180142
-0.0030215
-0.000766987
-0.000277079
0.00131753
-0.000428355
0.00692603
0.0042624
-0.000362602
-0.00064943
-0.00234751
-0.00176074
9.20335e-05
-0.000334216
-0.000526785
-0.00147783
-0.00766498
0.00134043
-0.00243119
0.00169315
-0.00152453
0.00159201
-0.0011977
-0.00155283
-0.00190246
-0.00126407
0.00268186
0.00299391
0.00066917
-0.00115394
-0.00134268
-0.00418042
-0.00208831
-0.00156366
-0.00115813
-0.0053547
-0.00217373
-0.00276949
-0.0015094
-0.0015817
0.00040294
-5.90861e-05
0.000324586
0.00180287
-0.000517437
-0.00325189
-0.000200222
-0.00239246
-0.00132379
-0.000729111
0.00188307
0.000218769
-0.00386594
0.0125742
-9.6745e-05
0.00398502
0.00500953
-8.91781e-05
-0.00553209
0.000719528
-0.00107925
0.00138174
0.00747804
-0.00244757
-0.00226359
0.000200178
0.00700447
-0.000943997
0.00131394
-0.000732587
0.000205408
0.000915426
-0.00289288
-7.46689e-06
-0.000607862
-0.0109361
-0.00159956
0.000359179
0.00181884
-0.00217903
0.00159558
0.00246634
1.93428e-05
-0.00338654
-0.00585583
-0.00376233
-0.00173971
0.000909811
-0.00673782
0.000400935
-0.000774814
-0.000159938
-0.00243446
-0.00179558
0.000273227
-0.00227903
-6.46609e-05
0.00275734
9.02407e-05
0.00198387
0.00102101
0.000144587
-0.0017145
-0.00145572
-0.00194849
9.63793e-05
-0.000359883
0.00141965
-0.000504388
0.000747157
6.42753e-06
0.000359461
-0.000639345
-0.00230478
-0.0032428
-0.002077
0.000710015
-0.00246697
0.000889287
-0.00189417
-0.000722114
0.00309756
0.00418125
-0.00267093
-0.00539668
-0.00446351
-0.00155857
-0.00261336
0.00674642
-0.00204932
-0.00115144
0.002957
0.000632532
-0.00332594
0.000834579
0.000674581
-0.00144832
0.00674597
-0.0006799
0.00134628
-0.00111013
-0.00210199
0.00623437
-0.000437805
0.0012438
-0.00412478
0.00229899
0.00177284
0.0063768
0.00690157
0.00127679
0.000199872
0.00328821
0.00191529
0.000836846
-0.000222287
-0.00249744
-0.00293767
0.00479789
0.00353751
-0.000143304
0.00554173
0.00371216
-0.000767108
0.00216853
-0.00156244
0.0020049
-0.00182246
0.00115699
0.00180234
0.00149619
-0.00514094
0.00060526
0.00776636
0.00479039
0.00244411
0.00198494
-0.00349745
0.00191223
0.00326417
-0.00199496
0.00156852
0.00385913
0.00240523
-0.00179297
-0.0023248
-7.50886e-05
0.000805622
-0.00202524
-0.000694874
0.00542064
-0.00206668
-0.00282552
-0.00382621
0.00168117
0.00287412
0.00147185
0.00188076
0.00260733
0.00333959
0.00188776
-0.00201417
0.00231227
0.00167138
-0.00440786
-0.00112795
0.00168478
-0.000470487
-4.16205e-05
0.000541535
-0.000399588
-0.000138728
-0.00161263
-0.000254238
0.00123334
0.000151759
0.00323379
-0.00103656
0.00078434
0.00238961
-0.00053352
-0.00328429
-0.00171854
-0.00507815
0.000648822
0.0008874
-0.000532158
0.00315014
-0.00128686
0.0039695
0.00097898
0.00204276
0.00171573
-0.00117173
0.00281038
0.00286522
0.00317179
4.64543e-05
4.97573e-05
0.00401031
-0.00188414
-0.00255092
-0.00569942
0.00285538
0.00764357
0.0024049
0.00125449
0.00220479
-0.00122509
-0.00285974
0.000359038
0.00204929
0.000661172
0.00217796
0.000304292
-0.00349335
0.0045258
-0.00235517
0.00430655
-0.00147663
-0.00694068
0.00295842
0.0001554
-0.00338198
0.00462282
-0.00534515
-0.000999059
-0.000918239
-0.000413125
0.00224118
0.00244549
0.00144422
-0.00246865
-0.00278806
0.0107567
0.00356635
-0.00355845
-0.00463694
-0.00116461
-0.00372918
-0.0036132
-0.000504528
-0.00269961
0.000785082
-0.00212599
0.00332688
-0.000553011
-0.00324391
-0.000129957
0.00154655
0.0024058
0.00022712
-0.00828943
-0.00821381
-0.00101515
-0.00288202
-0.0010938
-0.00268219
0.0027395
-0.00168893
-0.00349573
-0.00445167
-0.00310544
2.05493e-05
0.00259606
-0.00550126
0.00125848
0.00111925
-0.00197429
-0.00105368
0.00362605
0.00243911
-0.000601082
0.00150407
-0.00244477
-0.00175421
-0.00342536
0.0033621
-0.000387469
0.000108234
0.00295161
-0.00293315
-0.000148395
-0.00175807
-0.00175481
0.00163268
0.00668623
-0.00333502
-0.00458803
0.00077379
0.0042825
-0.00171447
0.0029849
-0.000719891
0.00513507
-0.00738228
0.00222806
-0.00391213
0.00429218
0.00542547
-3.13273e-05
0.00272119
-0.000216685
0.000676861
-0.00573649
0.000480383
-0.00138187
-0.00244189
-0.00109746
0.000476751
-0.000633396
0.00306287
-0.00204529
0.00323682
0.0016566
0.00561378
-0.00378644
0.00438339
0.002829
0.00253251
0.00472949
-0.000789438
0.00569814
0.00261875
-0.00151607
0.00528082
0.00411963
0.00111677
0.000788208
-0.00721951
0.000872244
1.04169e-05
-0.000494918
0.00221697
3.34674e-05
0.00824355
0.00285919
-0.00273513
0.00025366
-0.00183737
0.000833907
0.000381516
-0.00215198
-0.003383
0.000814979
-0.00420411
0.00298324
0.00291547
0.00243038
0.000126103
-0.00156473
0.00238246
-0.00891958
-0.000256019
0.0003902
-0.00274326
0.000825608
0.0077509
0.000454582
-0.00108257
-0.000585041
0.000596093
-0.000198339
0.00241506
0.00198335
-0.00212855
0.000625419
0.0014026
0.00650388
0.00134661
-0.00253001
0.00536207
-0.000383947
-0.000795711
-0.00185271
0.000247161
-0.00153736
-0.00709515
-0.00269041
-0.000468276
-0.00180414
-0.000107342
-0.00301336
0.000548969
-0.00239998
-0.000590818
-0.00133817
0.00269503
-0.0039919
0.0060513
-0.00719185
0.00523716
-0.000548807
0.00411594
0.00254565
-0.00147765
-1.61801e-05
-0.00362726
0.000903545
0.0003736
-0.00177159
-8.91871e-05
-0.000559909
-0.00472299
-0.00341968
0.00152406
0.00141939
-0.00208556
-0.000804089
0.00215522
-0.00101498
0.00217246
-0.00205854
0.00176027
-0.0007493
-0.00339204
-0.00194423
0.00197819
0.0012659
-0.0014909
0.00348974
0.00608686
0.00132134
-0.00166288
-0.00409772
-0.000657733
-0.00375209
-0.000617573
-0.000872477
-0.000884693
-0.00362506
0.0067958
0.0012764
0.00328967
-0.00245345
0.0017837
-0.00191398
-0.00294372
0.00202765
0.00129386
0.000250759
0.000436643
0.00178334
-0.000693959
-0.00198525
0.000507068
0.00315651
-0.00165393
0.00101821
-0.0044682
-0.00280151
0.00503714
-0.00373124
0.0018849
0.000189831
-0.00160477
0.00282826
0.00257319
-0.00267555
-1.50115e-06
0.00170286
-0.00055745
0.00118757
-0.00059194
0.00126185
0.000124559
-0.00399592
0.00110399
-0.00215814
-0.00391627
-0.00379666
0.00205162
-0.00278032
-0.000255376
0.000196755
-0.000895677
-0.000118859
0.00619016
-0.0035097
0.0013981
0.00111398
0.00184188
-0.00205715
-0.000145468
0.00261137
0.00137239
-0.000321819
0.00492543
0.00185097
0.00190519
-0.00139769
0.00384239
-0.0044242
0.00142674
0.00454035
0.00182609
0.00181724
-0.000713564
-0.000253048
0.000558995
-0.00341804
-0.00239192
-0.000113511
-0.00148594
-0.00185604
-0.00132982
0.000607243
-0.00258428
0.00300898
-0.00370031
0.0100308
0.00209591
7.8539e-05
0.00850893
-0.000509036
0.000650106
0.000814362
-0.00168237
0.00549266
-0.000839614
-0.000943813
-0.000990679
-0.000659951
-0.000177797
-0.00116458
0.000703587
0.00362163
-0.0037175
-0.00421793
-0.00295449
0.000696881
0.00159763
0.000165969
0.00281802
-0.000451592
-0.00134729
-0.00229123
-0.000745161
-0.000832719
0.00138143
-0.00456844
0.00133309
0.000119892
-0.000366459
-0.000896676
0.00195851
0.00360282
0.00141172
-0.00142542
0.00074093
0.00136288
0.00165726
-0.00221288
0.00248986
-0.00248997
-0.00310103
-0.000950745
-0.000161138
9.24299e-05
0.00150463
-0.0040026
-0.000261384
0.000782323
-8.20313e-05
0.00492561
-0.000152648
0.00296219
0.00341584
-0.00261954
6.57337e-05
-0.00227223
-0.000876062
0.0036908
0.00506598
-0.00342891
0.00580514
0.00439143
-0.00293903
0.0026884
-0.000294243
0.000369833
-0.00459675
-0.00103727
0.00132259
-0.000717707
0.00135891
0.000243233
-0.00329323
-0.00460171
-0.00531977
0.000968473
-0.00103963
-0.00399059
-0.000845528
-0.00106892
0.000499831
0.00750983
-0.00192658
0.00573881
-0.000148763
-0.00065297
0.00185721
-0.00351127
-0.00089126
-0.00228901
0.0005091
0.000944223
0.000820448
-0.00195519
-0.000212183
-0.00216548
0.00379911
-0.00397993
0.00319278
0.00162577
0.00329961
-0.000108805
-0.00241312
0.00450153
0.00317385
0.00450186
-0.00336349
-0.00441052
0.00195622
0.00488439
-0.000546018
-0.00208625
0.00232731
0.000519322
0.00490291
0.00213438
5.96991e-05
-0.00378281
-0.00402936
0.00254789
0.000382489
0.000237311
-0.00300618
-0.00119484
-0.00249604
0.00166105
-0.00173084
-0.000500696
0.000779873
-0.00557483
0.00431495
0.00277161
-0.00102095
0.00741851
-0.000450321
0.000313917
-0.00172944
-0.00020035
0.000871998
0.00339083
0.00167852
-0.0054064
-0.00356065
-0.00128548
0.00157298
0.000981591
0.00293709
0.000205084
0.00327004
-0.0012151
-8.07319e-05
0.00463505
-0.00226655
-0.00271497
0.0018061
-0.00458852
0.00272993
0.000428458
0.00161019
-0.000791775
0.00177778
-0.00448511
0.00194101
-0.000769647
-0.00161358
-0.00183298
0.00170611
-0.000675452
-0.0016239
0.00156899
-0.00457056
-0.00270086
-0.00474978
-0.0021083
-0.000315478
-0.00180698
-0.00427284
0.0103341
-0.00608396
-0.000851532
0.00404875
2.10569e-05
-0.00199274
0.000680459
0.00271156
0.00359179
-0.00113057
0.000422933
0.00254801
0.00136119
-0.00169072
-0.00228086
0.000910131
-0.00183465
-0.00471256
-0.00115538
0.00256282
-0.00267254
0.000428248
-0.00493178
0.00236378
4.29968e-05
0.000309705
0.00107532
-0.00299184
0.000813
-0.00251759
0.00206501
0.00145386
0.00355882
0.00713193
0.00357857
0.000379294
0.000464873
0.000329695
-0.00538697
0.00432721
-0.00438962
0.00104492
0.00100266
-0.00112263
-0.00103126
-0.00238521
-0.00806013
-0.00228218
-0.00249605
0.00303769
0.00566344
-0.00384729
0.00148842
0.000702732
-0.00260379
0.000783889
0.00337572
0.0021752
0.00573687
0.00208282
0.00169943
0.00369212
-0.000413925
-0.000643031
0.00121965
-0.00113583
0.000841161
0.00399142
0.000813755
-0.00244654
-0.00435257
0.00233018
0.000562171
0.00309135
0.000160747
-0.00104647
0.00415139
-0.00206525
0.00603703
0.000221858
-0.0012233
0.00332463
0.00203662
-0.00165877
-0.00465661
0.00307348
-0.00352467
0.00861768
-0.00696904
0.00378138
0.00470004
-0.0074702
-0.00226126
0.00477615
0.000141929
0.0016441
0.002317
-0.00399862
0.00117876
0.000980442
-0.00623536
0.000687338
-0.00059351
0.00163128
-0.00423637
-0.000354754
-0.000290168
-0.00270456
-0.00252458
-0.00105222
-0.000205621
0.00366907
-0.00181793
-0.00033439
-0.000727089
0.00112753
0.00038489
-0.00333481
0.000278651
-0.00336464
0.00264641
0.00202082
-0.00544621
-0.00604923
-6.42515e-05
-0.000696539
-0.00378966
0.00653368
-0.00144683
-0.00408486
-0.000852871
0.000120475
-0.00034983
0.0036894
0.00471655
-0.00188326
-0.000805191
-0.00277397
0.00086686
0.00286162
0.0018547
0.00110506
-0.00441197
-0.00200598
0.00114934
-0.000113002
-0.00316471
-0.00109938
0.00532502
0.00401564
0.00450121
-0.00063593
-0.00250656
0.00226394
-0.00186635
0.00572109
-0.000478473
0.00448559
0.00373359
-0.000748718
-0.000193837
0.00513674
-0.00122528
-0.00376077
0.000198779
0.00187004
-0.000422375
0.00218796
-0.00510556
0.000439184
0.000875304
0.00128769
0.0024499
-9.51444e-05
0.00143335
0.000183288
0.00197063
8.28031e-05
-0.00376065
-0.000408714
0.0002782
-0.00033265
0.0015942
0.000242696
-0.00207681
0.00290327
0.00225662
0.00114728
0.00153466
0.00112569
0.000224024
-0.00121216
-0.000813602
-0.00259983
0.00214531
-0.00360495
0.00951746
0.00116644
-0.000932618
-0.000144836
-0.000304253
-0.00149666
-0.00111543
0.00670018
0.00389198
-0.00102564
-0.00226383
0.000256864
0.00101186
-0.00469403
-0.00297864
0.00476935
-5.24948e-05
-0.00173898
0.00280464
-0.00056142
-0.00484074
-0.00654312
-0.00707457
0.00478085
0.00176495
0.00366148
0.000489196
-0.00674864
-0.00419606
0.000944752
-0.00159602
-0.000864468
-0.00134455
0.00322347
0.000940133
-0.00440552
-0.00165329
0.00585136
0.00404567
0.00082723
0.00231586
0.00033915
0.00306856
-0.00214769
-0.00677182
-0.00428024
0.000110698
0.00200845
0.00479382
0.00435597
-0.00201054
0.00576023
0.000387569
0.00288408
-0.000689886
0.000426049
-0.00162447
0.0017595
0.00359788
0.00033103
-0.00496351
0.00256666
0.00163178
0.002869
-0.00307457
0.00357172
0.00508177
9.74044e-05
-0.000534766
-0.00902582
4.35197e-05
0.00428913
-0.00895373
0.00411005
-0.00039576
-0.00185249
-0.000666145
0.00655151
0.00458736
0.00129118
-0.00350131
-0.00262954
-0.00133543
0.00417866
-0.00324861
-0.0024944
-0.00316464
0.000425581
0.00205053
-0.00900614
0.00416731
0.00454813
0.00201167
-0.00331647
0.00135177
0.00383419
-0.000239974
0.00321226
-0.00293518
0.000733673
-0.00239027
-0.00459383
0.000384308
-0.00068701
-2.42617e-05
0.000689388
0.00137189
0.00479222
0.00396207
-0.00366952
-0.000342571
-0.000799125
0.00186365
-0.000170911
0.00819976
-0.00177079
-0.00917783
0.00184754
-0.00109826
-0.000358597
0.0019986
0.00071726
0.001833
-0.00204955
0.0088251
-0.00326604
-0.000456202
0.000196107
-0.00226502
0.00172694
-0.00145478
-0.000621925
-0.00198824
0.00370706
-0.00272979
-0.00190636
-0.00203162
-0.00261766
0.00102647
-0.000946115
0.000369179
0.00176818
-0.00341284
-0.000839534
0.00295052
0.00162889
-0.00114465
-0.00173737
-0.00173877
0.00599571
8.60439e-05
0.00275741
-0.00427826
-0.00317075
-0.000363089
0.00166823
0.00401183
0.00169018
0.00109271
0.0028281
0.000679925
-0.00820622
0.00194559
0.00112933
0.000391498
-0.000966973
0.00161099
-0.000166641
0.00247972
0.00182047
0.00477084
-0.00444398
0.00423997
-0.000279953
0.000792468
0.00375953
-0.00116403
0.000210959
-0.00917476
0.00032203
0.00459922
0.00136759
0.00103525
-0.00118743
-0.0016794
-0.00211162
0.00262636
-0.00033656
0.00112476
-0.000584955
-3.1083e-05
-0.00126416
-0.00270736
0.0013344
-0.00518933
0.00211947
-0.00159996
4.99627e-05
-0.00407999
0.00136826
-0.00125235
-0.001276
-5.78213e-05
-0.000105473
-0.0048135
0.0042071
0.0014459
-0.00141356
0.00178136
-0.000879432
-0.000150143
-0.000350902
0.00118444
0.00402467
0.0011458
-0.000968859
-0.00135991
-0.00362285
-0.0011262
0.000296139
-0.00070574
0.00472022
0.00496159
0.0026963
-0.00163965
-0.00243436
-0.00432959
0.000848068
-0.00257427
-0.00145445
-0.0042724
7.74226e-05
-0.000249494
-0.00180874
-0.00147098
0.00231036
0.000486362
-0.00252413
0.00602718
0.000946023
0.0041973
0.00205559
-0.00401087
0.00164174
-7.44202e-05
-0.001287
0.00294645
0.0207207
0.00246616
0.000729564
-0.00121138
0.00294932
-0.00150846
-0.00298806
0.00125408
0.00599766
0.000256805
-0.000609744
0.00073086
0.00697009
-0.00125017
0.0020671
-0.00421722
-0.00113031
0.00143989
0.000596006
-9.83831e-05
-0.00239707
0.00437197
-0.00136913
0.000449377
-0.00298119
-0.00127117
-0.000832988
-0.00235534
-0.00298458
-0.00275684
-0.0013495
-0.000561496
0.00203647
0.00203229
0.00588633
-0.00073202
0.00114523
-0.0100917
0.000969697
-0.00262605
-0.00108536
0.00238181
-0.0055183
0.00110324
-0.00151405
0.00371971
0.000282485
-0.00273411
-0.00106158
0.00217058
0.00237898
0.00796462
0.00139513
0.00269555
0.000869669
-0.00194897
0.00057786
-0.00188283
0.00261844
-0.00292286
-0.00192171
-0.00234288
-0.00165592
0.00269677
0.00219429
-0.00588801
-0.00282492
-0.000309713
-0.00156675
0.000493934
-0.00103254
0.00390156
-0.00102915
0.00434325
0.00201573
-0.00202223
-0.00183748
-0.00120084
-0.00550045
-0.00195185
-0.00234172
-2.39867e-06
0.00512895
-0.000479192
-0.000766354
0.00185465
2.32066e-05
0.00100796
0.00174437
-0.00523325
0.000256371
0.00179814
-0.00442584
7.91872e-05
-0.00318304
-0.000119054
0.00145176
0.00299422
-0.00650661
0.000804226
-0.00247164
-0.00252494
-0.00121963
-0.00184837
-0.00252691
0.00452553
-8.31027e-05
-0.00439126
-0.00344985
-0.00208333
0.00117466
-0.000290914
-0.0019242
-9.85932e-05
-0.00745065
-0.00529697
0.00205976
0.00364051
-0.000862066
-2.65084e-05
-0.00181285
-0.00374508
0.00512303
0.00204771
-0.00766795
-0.00129916
0.000801366
-0.00132209
0.00266135
0.00229986
-0.00254949
0.00649819
0.00474579
-0.00164024
0.00065081
0.00202271
-0.00198594
0.00114407
-0.00408285
0.00078635
-0.00187807
0.00319048
0.00342231
-0.000490203
0.00162574
0.00161143
-0.000525975
-0.000239594
0.00586533
-0.000235092
-0.000180928
0.00311409
0.000380139
-0.00147269
-0.000182303
-0.00468926
0.00296517
0.000237899
0.00367891
0.00639695
-0.000725241
0.00721651
-0.00381611
0.00102384
0.00346228
0.000916313
-0.0010776
0.00454119
0.00103607
9.08226e-05
-0.00174654
-0.00101296
0.00328997
-0.000444691
-0.00342942
0.00777338
0.000954565
0.0023012
0.00229693
0.00431328
-0.00483059
0.00172127
-0.00117629
0.00366787
-0.000651692
0.00022682
-0.00104702
-0.00220064
-0.00173536
-0.00145566
0.000731988
-0.000725702
-0.0002937
-0.00815806
0.000182682
0.000325847
0.00256833
0.00108186
0.0025496
0.00169482
-0.00151756
0.000416271
0.00314763
-0.00759125
-0.00221702
-0.00379864
-0.00262949
0.000496367
-0.00124621
-0.00537354
-0.00332711
0.00338158
-0.00107482
-0.00130639
0.00275652
-0.000984894
-0.00491324
-0.000930575
0.00173086
-0.00308312
0.00157448
-0.000873098
-0.00257939
-0.00148763
-0.00452323
0.00323208
-8.63046e-05
0.00235099
-0.00481059
0.000425221
0.00369429
-0.00331135
-0.00318695
0.0007435
0.00381233
0.000371259
-0.000272803
-0.00153317
-0.00112348
0.000350547
-0.00199124
-0.0022709
-0.000584372
0.00339351
-0.0018317
-0.000975919
-0.000853377
0.00163311
-0.00228412
0.00129128
-0.00238869
-0.00222792
0.000109441
0.00120292
-0.000935036
0.0041943
0.000843741
-0.00170728
0.00103874
0.00188172
-0.00835036
-0.000980292
7.227e-05
-0.00247962
0.000674147
-0.00137919
-0.00215386
-0.000848449
0.000284018
-0.00182844
-0.00117376
-0.00182738
0.00355135
0.000296338
-0.000794868
-0.00455289
0.00291724
-0.00279511
-0.00258955
-0.00382218
0.000165636
6.08027e-06
0.00819861
0.00272815
0.000199026
0.00124881
-0.00377752
0.00107181
-0.00336184
-6.52545e-05
0.00116683
-0.00178965
-0.00232421
0.00403879
-0.00024978
0.00385993
0.00575709
-0.00528345
-0.00313655
-0.00148911
0.00352596
-0.00316556
-0.00113953
-0.00072287
-0.000606942
0.00560591
-8.93211e-05
0.000751609
0.00289576
-0.00697681
-0.000686072
-0.00108426
0.000989484
-0.000109633
0.000365563
-0.00336545
-0.00169173
-0.00116188
-0.00211823
-0.00132026
0.00157244
-6.10682e-05
0.00226894
0.000501046
0.00127505
-0.00260493
0.00259285
-0.000318911
-0.000386234
0.000177124
-0.00167866
-0.00539646
-0.00278012
0.00300103
-0.000965565
0.00128451
-0.00154651
0.000517229
0.00159709
-0.00379868
0.00179041
-0.000878826
-0.000762083
-0.00061795
-0.00247304
-0.00346006
0.00360939
0.00027902
0.000430817
-0.00178778
0.00187343
0.00262211
-0.00174283
-0.000348196
0.00187565
-0.000697666
-0.00075975
0.000221947
0.000862925
0.00216839
-0.000448093
-0.000804223
-0.000280438
-0.000991146
-0.00473657
-0.00261143
-0.00204826
-0.0038058
-0.00365955
-0.00629559
0.00183709
-0.00191042
0.00436425
-0.000643556
-0.000114386
0.000144747
-0.0014364
0.00340614
0.0048457
0.00289924
0.000449573
-0.000842844
0.000248854
-0.000220039
-0.00718257
0.0253863
-0.000913146
0.00258654
-0.00162506
-0.000460029
-0.00159384
0.000901233
-0.000447558
-0.0025072
0.00139917
0.00175901
-0.000258319
-0.00187867
-0.000516813
-0.00014496
-0.00150427
-0.000196567
-0.0023595
0.00107984
-0.0012433
-0.000859242
-0.00182963
0.0045767
0.000628205
0.000138911
0.000264283
-0.0027606
0.000299379
-8.975e-05
0.011563
-0.00151644
-0.00396643
-0.00202091
-0.00147836
-0.00219793
0.00147882
0.0011454
-0.0010581
0.0028842
-0.00109572
-0.00918216
0.00126479
-0.00106001
0.00146391
0.000199282
-0.00486612
-0.00183694
0.000286251
-0.000189318
0.00351771
-0.00191851
0.00091773
0.000846034
0.00429742
0.0012387
0.00774621
-0.0011875
-0.000167385
0.00367754
0.00482973
0.00492811
0.000897379
-0.0030049
-0.00458027
0.00287982
-0.000724409
-0.000728132
-0.000874549
-0.000414671
0.00343611
0.00264286
-0.000479233
0.00011777
-0.00430675
-0.00199552
0.00222554
-0.000810742
-0.00304124
-0.00045573
-0.00340019
0.00141499
0.00702182
0.000743305
0.00300974
0.00242176
-0.00658109
0.00394172
-0.00205468
-0.00431113
0.000661293
-0.00111153
0.00161646
0.000509886
-0.00126242
-0.00032283
0.000946403
-0.00461812
0.00351253
-0.00325249
-0.000991702
-0.000527118
-0.00114941
-0.00226986
-0.00309472
-0.000784446
-0.00221063
0.00403267
-0.00199266
-0.00187902
-0.00011673
0.0022849
0.00278912
-0.00282068
0.00404708
-0.000494815
-0.00420988
0.00304177
-0.00171765
-0.000664229
-0.0014705
-0.00240386
0.00310528
0.000660395
-0.00281584
0.00204533
0.000834543
0.00166398
-0.00271095
-0.000109327
-0.000442969
0.0018508
-0.00365883
0.000731887
0.00107291
-0.00160045
-0.00193538
-0.00408894
9.53097e-06
-0.00482792
-0.00281951
0.00242729
0.00762434
-0.000418397
0.00125793
0.000354153
0.00380702
0.00254026
0.00445008
-0.00396347
-0.00108979
0.00466908
0.00447539
-0.00258829
0.000341458
0.000688915
-0.00181173
-0.00360063
-0.00159921
-0.000224667
-0.00132369
-0.000223971
0.00306887
0.00172714
-0.00207929
-0.00596632
0.00368869
0.00027965
-0.000379239
-0.00293724
0.000553913
-0.00291113
-0.00043762
-0.000964774
0.00280383
-0.00207856
0.00217926
0.000421303
-0.000432806
-0.00385828
-0.000296065
-0.00357981
-0.000989702
-0.00516617
-0.000819718
0.00301539
-0.00184758
-0.00199582
0.00231128
-0.00274073
-0.00118776
-0.00220884
-0.00104022
-0.00195571
0.00198493
0.00229219
-0.000713763
-0.00108755
-0.00187007
0.000443204
-5.81725e-05
0.00399492
9.6669e-05
-0.0028355
-0.00228754
0.00478001
0.000992753
0.00409667
-0.00225449
-0.00252947
0.00408502
0.00448792
0.000160929
0.00309426
0.000219745
0.00368255
-0.000581128
-0.00766896
-0.00266561
-0.00250575
-0.000147099
-0.00343617
-0.00418445
0.00269792
-0.00335496
0.00253397
-0.00120752
-0.00100239
0.00109964
0.00138297
0.00447783
-0.000975362
-0.00722053
-0.000142905
0.000364413
-0.00415691
0.00175805
-0.000290763
2.99382e-05
0.000741819
-0.00210766
-0.00103351
-0.000684633
0.00302834
0.0015052
-0.00199008
-0.00329972
-0.00422411
-0.00384373
0.00220355
-4.89393e-05
-0.00163068
0.0027814
-0.00227823
-0.00327237
0.000111081
0.000777711
0.000841625
-0.00565267
-9.64591e-05
0.0038766
0.000265858
0.00206657
-0.00307035
-0.000652532
-0.00114259
-0.00265484
-0.00329839
-0.00055138
-0.00186292
0.00296254
-0.00152981
0.00608507
-0.00327253
-0.000854371
-0.00194971
0.000999946
0.000545903
0.000871832
0.000186102
-0.00253818
-0.00166935
-0.000903592
0.0018438
0.00334407
-0.00159668
0.00254475
-0.000494765
-0.00254037
-0.00136025
-0.000724759
0.0113943
-0.00111354
-0.00053416
0.000370481
0.00677179
-0.00315363
7.07752e-05
-0.00412344
0.00201571
0.0004561
0.00279774
-0.00281789
0.00404873
0.00460663
-0.00183382
-0.000390873
-0.000531112
-0.00454392
-0.00207502
0.00412667
-0.0018147
0.00125475
-0.00404155
-0.00379373
0.00046204
-0.00165057
0.0035988
-0.00540193
0.000906598
-0.00359062
-0.00262074
-0.0021251
0.00199458
-0.00234087
-0.000387257
0.00350923
-0.00124585
0.000532332
-0.00134409
-7.99464e-05
-0.00506414
0.000393586
0.00178466
-0.00130711
2.25827e-05
-0.000409582
0.00266148
-0.00118094
-0.00276134
0.00156307
-0.00192796
-0.00600441
-0.00238329
0.000303069
-0.000511387
0.00101376
-0.00138623
-0.00445537
-0.00123007
-0.000699976
-4.35715e-05
0.000820523
-0.000619212
0.00160883
-0.000625956
-0.000888987
0.0035632
-0.000180305
-0.00167158
-0.00273367
-3.59e-06
-0.00156022
-0.00155762
0.00124174
-0.00194222
-0.00034372
0.00392712
-0.00297904
0.00261961
-0.000572175
-0.00672977
0.00211705
0.000419721
0.000227462
0.000345533
-0.000322231
0.00123195
-0.00487493
0.00247614
0.0046288
-0.00196376
0.00162871
-0.00244348
0.00236048
-0.000442695
0.00225154
-5.87859e-05
-8.59432e-05
-0.00115617
0.00238363
0.00640493
-0.00273551
0.00185081
0.000540939
-0.000724331
0.000123592
0.00128419
0.000610837
-0.00165294
0.00356309
0.00197607
0.00115609
0.00173213
0.0018423
-0.00225177
0.00385708
0.0062656
-0.00352359
-0.00494707
0.00058908
0.00298958
0.00401064
-0.00119323
-0.0015242
0.00117093
-0.000273474
0.0027876
0.00112001
-0.00060809
0.00101225
0.00049342
0.000161063
0.00161772
0.00490449
0.00414543
-0.00243066
-0.00268417
-0.00509094
-0.00272018
-0.00219696
-0.00214629
0.000702752
-0.00413846
0.00451772
0.000430935
0.0017395
-0.00117225
-0.000929693
-0.00184971
0.0026508
-3.1552e-05
-0.00149822
-0.00141833
0.00548006
0.00195846
-0.00147452
-2.78453e-05
0.00369518
-0.00109063
-0.00311941
0.00345083
0.00811154
-0.000316468
0.000687084
-0.00038041
-0.000366521
-0.000471102
0.00561239
-0.0033677
-0.00464733
0.000194665
-0.000809223
-0.0089268
-0.000741596
-0.00367911
7.11179e-05
0.00274443
0.00274752
0.00142588
0.00220049
-0.00219342
0.0013351
-0.00302697
0.00183133
0.00557942
-0.00604017
-0.00166991
-0.0018697
0.000208257
-0.000221837
0.00359016
-0.000754132
-0.00398023
0.00269659
0.00100213
0.000527446
-0.00235798
0.000316805
-0.0014762
-0.00127356
-0.000951119
-0.000155143
-0.000212647
-0.00373467
0.00207867
0.000969593
0.000245234
0.00369844
0.000983607
0.00260041
2.90923e-05
-0.00311745
-0.00110808
-0.00299433
-0.000686782
-0.00626605
4.26082e-05
-0.00111597
-0.0019202
-0.000690122
-0.000181658
-0.00173901
-0.00174098
0.00263204
-0.00160464
-0.00311078
-0.000798387
0.00084777
0.000634471
0.00313635
-0.00308618
0.000563474
-0.000487136
-0.00132952
0.000902584
-0.000993953
-0.00132152
-0.00353822
0.00240138
-0.00694471
0.0024893
-0.00050707
-0.00487439
-0.000963364
-0.00336998
-0.000407204
-0.0013324
0.00111251
-0.000599931
3.95408e-06
-0.00301182
0.000269869
0.00203915
0.00510925
-0.00127614
0.00102422
-0.000708892
0.00300657
-0.0032745
-0.000600267
-0.000542524
0.00400169
0.000448851
-0.00469803
-0.00165295
-0.00171506
0.000681336
-0.000461235
-0.00250144
-0.000910668
-0.00174708
0.00371139
0.000543736
0.00435012
0.000814908
-0.00155088
0.00110706
0.000182959
-0.00422236
-0.000383633
0.00193081
-0.00147352
0.00261961
-0.000934866
0.00027955
6.91993e-05
-0.00418646
-0.00209423
-0.00412987
0.00107377
0.00102089
-0.00525082
-0.000871072
-0.00339737
-0.00057153
-1.69949e-06
-0.00362462
-0.00291402
0.00602019
-0.000106844
-0.00534871
-0.000528292
-0.00103009
-1.21386e-05
0.00499345
-1.1117e-05
0.00297129
0.00264958
0.000380454
-0.000144512
-0.00277008
0.000630979
-0.00248952
0.00126447
-0.000913716
-0.00349589
-0.00251364
-0.00551978
-0.00422464
-0.000554408
-0.00134366
-0.00030731
0.00219832
-0.0014694
-0.00452268
-1.85458e-05
-0.00123225
-0.00565023
0.000440303
-0.000381099
0.000430668
-0.00578019
-0.00135947
0.00188154
-0.00330575
0.00338249
0.0034402
-0.00422722
0.00352417
-0.000736264
-0.00407191
0.000887711
-0.00345729
0.00734027
0.000548363
0.00548172
0.00417896
-0.00099287
0.000739883
-5.93927e-05
0.000718044
0.00145049
0.000597026
-0.00273913
-0.00294805
0.000641036
-0.000787418
-4.33204e-05
-0.0036418
0.00178631
0.000711175
0.00190439
0.00245331
0.00362017
0.00342614
-0.000307547
-0.000143768
0.00262462
-0.00276576
-0.00092598
0.00149362
-0.000708071
-9.05854e-05
0.00663095
-0.00216472
0.00242872
