0.00149415
0.000785283
0.00395945
-0.00184743
-0.000286114
-0.000529361
0.00499735
-0.00265188
0.000849338
0.00660368
0.00147941
-0.00118525
0.00358475
0.000397675
-0.00263453
-3.41053e-05
0.000856403
-0.000506017
0.0026053
0.000264224
0.0030551
-0.00524537
0.000786736
-0.00210902
-0.000734311
0.000307414
-0.0008396
-0.00368535
0.00280598
-0.00320553
0.000476855
0.00276767
-0.00360096
-0.00201229
-0.00186318
0.000805586
0.00382862
-0.00452854
0.000523349
-0.00478627
-0.00173216
-0.0033926
-0.0027216
0.000606505
-0.00308546
-0.000410845
-0.00275515
-0.0007071
0.00495886
0.00426378
-0.000869678
-0.00266235
0.00209068
-0.000849421
0.000138777
-0.00274771
-0.00390237
-0.000106701
-0.000243774
0.000408284
-0.00382228
-0.000921775
-0.00185262
-0.000460309
0.00115372
-0.000620596
-0.00223025
-0.000768279
-0.000493565
-0.000820463
0.0032216
0.00123292
0.00318746
0.000863729
0.00364066
-0.00234059
0.00395306
0.00339807
-0.00325377
0.000543604
-0.00449274
0.00201755
0.000227802
0.00310217
0.00337865
-0.000574763
0.00670318
0.00154175
0.00853301
0.00266256
0.00209195
-0.000146013
0.00283818
-0.00167432
0.00129622
-0.00598609
-0.00165507
0.00336825
0.000296183
-0.00400207
0.00143328
-0.00280101
-0.0019748
0.00168628
0.000418622
0.000452451
0.00303961
-0.00468139
-0.00219196
0.00187816
-0.00153393
-0.000514915
-0.000648759
-0.00676734
-8.18602e-05
0.00168024
0.00183533
-0.00448268
0.0018903
-0.00445282
-0.0024859
-0.00198262
-0.000190031
0.0013799
-0.0021876
0.00834896
-0.000535454
-0.000112285
-0.000663886
0.00803549
-0.00386647
0.000805024
0.00333343
-0.000800977
-0.00190594
0.000662927
-0.00732148
-0.00533989
0.00566638
-0.00646433
-0.000244472
0.000631446
-0.00044749
-0.000930526
0.00125153
0.000898504
0.000775846
0.0029351
-0.00331227
0.00190635
0.0012331
-0.00125487
0.00277488
-0.00022721
-0.000205806
0.00749852
0.000632904
0.00116037
0.0022418
0.000986996
-0.00167872
0.00138204
-0.000549109
-0.00813582
0.00107383
0.000815455
-0.000386831
-0.00292235
-7.50102e-05
-0.00642556
0.00592844
-0.000463296
0.00336462
0.000343226
-0.00179615
-0.000766542
-0.00242051
0.00209665
-0.000789878
5.4651e-05
0.00190781
-0.00354964
-0.000335639
0.00114518
0.000894446
0.00121262
-0.000734687
0.00162144
-0.00386156
-0.000157465
0.00615144
0.0015854
-0.00499036
0.00101052
-0.0034772
-0.00580692
-0.00365159
0.00011869
0.000691754
0.00148381
0.000456707
0.0053545
0.00291192
-0.000843879
-0.00176841
-0.00071714
0.000218602
-0.000532071
-0.000594692
-0.000661181
-0.00160316
0.00210452
0.00379356
-0.00172369
-0.000338296
-0.000260287
0.00188372
0.00329764
0.000943596
0.000258132
-0.00237129
0.00838927
-0.00266885
0.00168637
-0.000373814
0.009779
-0.00102779
0.00264099
-0.00355504
0.00295046
0.00367169
-0.000409582
0.0030316
0.000503293
-0.00310917
-0.0014446
0.000324091
-0.000341148
-0.000485927
-3.66654e-05
-0.000624249
-0.0059479
-0.00142268
-0.000577841
-0.00359519
0.000747474
-0.000568675
-0.001751
0.00280669
-1.71021e-05
-0.000445874
0.00597597
0.00526611
-0.00181787
-0.00359436
0.00280796
0.00112396
0.000575548
0.00115464
-0.0012629
-0.000484039
-0.000755415
-0.000132197
-4.67142e-05
-0.00221087
0.000298204
-0.000913747
-0.00470604
-0.000990965
0.00131348
-0.00240647
0.000919649
-0.000920386
-0.00238909
0.000471557
0.003408
-0.00419553
-0.00247939
-0.000930795
-0.00324547
0.00236282
0.00824483
0.000457091
0.000774966
0.00274097
-0.00296754
-0.00561728
-0.000143697
0.000344102
-0.000489351
0.00755073
-0.00123413
0.00211332
0.00561915
0.00129607
-0.00137996
0.00288102
0.00249454
0.00207285
-0.00146945
0.00116628
-0.000618128
-0.00509105
0.00202281
-0.00595041
0.00110497
0.00299924
0.00206535
-0.00335901
0.00160078
-0.00121795
0.00146911
-0.00202541
-0.00230191
-0.0013247
-0.00377475
-0.00105113
-0.00188262
-0.00306084
-0.00406558
0.00149179
-0.00497057
0.00256688
-0.002349
0.000999686
-0.00278911
-0.00214987
-0.00354277
0.00208942
0.000774672
-0.00517529
-0.00489723
-0.000822244
-0.00260039
-0.00280594
-0.00110801
-0.00294713
-0.00144056
-0.000712629
0.000761952
0.0042386
0.00165705
0.000485707
0.00203078
-0.00137825
0.00129075
0.00277138
0.00622863
-0.00421585
-0.000186783
0.00234921
0.000527464
-0.000962876
-0.00415812
0.00205163
-0.00040061
-0.00314507
0.00442806
0.000845344
0.000510804
-0.000612618
-0.00172313
-0.00114048
-0.00550926
0.00763652
7.61782e-05
-0.00110122
-0.00230173
-0.00135559
0.00214699
-0.00108257
3.49319e-05
-0.0014371
-0.000697047
-0.00354377
-0.00293277
-0.00108188
0.000276671
-0.00461574
-0.00185228
-0.000613147
0.00111277
-0.00160802
-0.000890717
-0.00234074
-0.00381717
-0.000694524
-0.000223054
-0.00513672
0.00431997
-0.00161189
0.00169877
8.28266e-05
0.00142841
-0.00143341
-0.00012944
0.000689256
-0.00498015
0.0012012
0.00758674
-0.00121652
0.000292301
0.000206679
0.00172056
-0.000533003
-0.00240927
0.00374475
-0.0045734
-0.000137939
-0.00330981
-0.000834343
0.00031119
-0.000911761
-0.000376446
0.00214447
-0.00619385
0.00477267
0.00544129
-6.6101e-05
0.00202611
0.000364806
0.00183659
-0.000678241
-0.00111707
-0.00117329
-0.00057271
-0.00254758
-0.00187972
-0.004355
-0.000753043
-0.00117035
-0.00432723
0.000197519
0.00199104
-0.00340748
0.000585467
9.87714e-05
-0.00286762
0.000930795
-0.00326961
0.00429253
0.000407124
-0.00143801
-0.000978963
0.0034622
-0.00255856
-0.0015394
0.00241631
0.000674754
0.00202155
0.000311269
-0.00064604
-0.000927635
4.7445e-05
0.00683188
0.00103336
-0.000791508
-0.001581
-0.000193117
0.00050973
-0.00250177
-0.00399608
-0.00259058
-0.000849519
0.00247924
-0.00323926
-0.00274204
0.00350902
0.00114936
0.00303463
-0.00188677
0.000486538
0.00304116
-0.00276782
-0.000161355
-0.00373633
0.00180713
-0.00350636
-0.00143762
0.000527823
0.00172181
0.000156532
0.000437029
-0.00375839
-0.000245034
-0.00161204
0.000870114
-0.00192181
0.00206971
0.000153112
-0.00252828
0.00150572
0.00147076
0.00236059
-0.000652168
-0.000900384
-0.0015052
0.000840077
-0.00125628
-0.00397203
-0.00331116
0.00355938
8.47736e-05
-0.000190117
0.00145277
-0.000533344
-0.00158448
-0.00120961
-0.00310236
-5.81269e-05
-0.000179732
0.000414505
-0.00148649
0.000197266
-7.91411e-05
-0.000564578
0.00193188
0.00100702
1.9499e-05
-0.00377445
0.00189343
0.00366152
-0.00341053
-0.00210149
0.00203211
0.00179758
-0.00263385
-0.00117218
-0.00459087
-0.00887901
-0.000931564
-0.00151128
0.000426129
0.000763215
-0.000514082
-0.00311203
-0.00185977
0.00055391
0.000833347
-0.00198522
-0.000861354
-0.00317522
-0.00129968
0.00183997
0.00126676
-0.00268421
-0.000524258
-0.00117003
3.23747e-06
-0.0032017
-0.000648049
0.00352838
0.000220443
3.08825e-05
0.00136415
-0.00334054
0.000506691
-0.00123189
0.000433732
-0.00159887
0.000888448
-0.0030006
0.00222341
0.000324351
-0.00182789
-0.000900573
-0.000647934
0.00593371
0.00123811
-0.00114344
0.00207389
-4.47984e-05
0.000165892
-0.00278802
-0.000649918
0.00176231
-0.00145694
-0.00599699
-0.00236434
-0.00169337
-0.000978834
-2.93678e-05
0.00117186
-0.00318872
-0.00116342
0.000795079
-2.31701e-05
0.00430969
0.000134102
-0.000372529
0.000122286
-0.000365773
0.00141672
0.0020115
-0.00149591
-0.0023692
0.0048448
-0.000145039
-0.00262562
-0.000899618
-0.00115531
0.00477245
0.000290362
1.52874e-05
-0.000700025
-0.000292372
0.00166356
0.00266458
-0.000992945
-0.000499425
-0.000344618
-0.00524132
-0.00102542
-0.000826293
-0.00177935
0.000789925
-0.000830748
0.00142962
-0.00299946
-0.00936482
-0.0023141
0.00104475
-0.00316639
-0.000905649
-0.00225313
-0.00505735
0.000209216
0.00313477
0.00135316
-0.000456095
0.00314335
0.000122348
0.00189468
-0.00143589
-0.00283343
-0.000151719
-0.0014754
-0.000268979
0.000593402
-0.00141277
0.00106055
-0.000886223
-0.000729945
0.00067333
-0.00144188
3.21126e-05
-0.000224736
-0.0019279
-0.00369691
-0.0033368
-0.000145119
-0.00021389
0.0010125
-0.000151427
-0.00313961
-0.00308584
-0.00112015
-0.000570917
-0.00321325
-3.71361e-05
-0.00130307
-0.00272519
-0.00379652
0.000150487
-0.00410339
-0.00238961
-0.00189099
-0.00347829
-0.00319107
-0.00456165
0.00399303
-0.00205408
-0.000809362
-0.000200839
0.00287568
0.00399482
-0.00019334
-0.000726862
-0.00193197
-0.000717574
-0.000303218
0.000915896
0.00161769
-0.000364039
-0.00237563
-0.00174849
0.00238449
-0.000197959
-0.000666745
-0.00262719
-0.000202712
-0.00150632
-0.000653687
0.000569052
0.00154266
-0.000798042
0.00179047
0.00256169
-0.00232258
-0.00282377
-0.0029682
-0.00113758
-0.00308246
-0.00310113
-0.00102063
-0.00336567
-0.00118726
-0.000979896
-0.00166973
-0.00113069
0.000866655
0.000430808
-0.00171114
0.00607347
-0.00158328
-0.000933272
0.00448838
0.00148238
-0.00156424
-0.000974356
0.00140723
-0.000476962
0.00149778
0.00119809
0.000379302
-0.0015824
-0.00127926
-0.000689586
-0.000542039
-0.00312178
-0.00279506
-0.00159757
0.00293154
0.00107015
-0.00338929
-0.000204086
0.00142543
0.00275366
-0.00244124
-0.00139805
-0.00347138
-0.00126993
0.000854328
0.00383335
-0.00402617
-0.00191857
-0.000136464
0.00288066
3.21018e-05
-0.000969223
-0.00153679
-0.00420732
0.00157338
0.000377071
-0.000205184
-0.00281096
-0.002071
-0.00281601
-0.00259136
-0.00322119
0.000518731
-0.000824917
-0.000171736
-0.00122738
0.00207608
-0.000491162
-0.00676253
0.00548973
0.00190532
-0.000177376
0.00119919
-0.000207232
0.00375391
-0.00284335
-0.000173948
-0.00295658
0.00337931
-0.00273656
0.00128126
-0.000626678
0.00209204
-0.000873603
0.00122205
-0.000775133
0.00185402
-0.000351253
-0.00118463
0.00225233
-0.00120937
0.000817816
-0.00203949
-0.00284598
0.00182333
0.00293367
-0.00156164
0.000739899
-0.000223599
0.00218289
-0.00203935
0.000125741
-0.000223483
-0.000962688
0.00127631
-0.00270741
-0.00218724
-0.00212214
-0.000386476
0.00133141
-0.0059648
-0.00310753
0.000570981
-0.000851788
-0.00295322
-0.00014197
-0.00183892
7.0733e-05
0.00414847
-0.0014936
-0.000620802
0.00226387
-0.000742547
-0.0042359
0.00187055
0.00117622
0.000233494
0.00102785
-0.000858964
0.0046415
0.00303582
-0.00269307
0.0061989
0.000459224
0.00291094
0.000506272
-0.00179383
-0.000504829
0.00284287
-0.00101551
-0.00209196
-0.00210687
0.00160851
-0.00142231
0.00171685
-0.00305092
-0.000852091
0.000859602
-0.00141697
0.00669451
3.64127e-05
-0.000874898
-0.000822683
0.00310774
-0.00351575
-0.00402258
0.000908222
-0.00145736
0.00239935
-0.00347443
-0.00300286
-0.000486352
-0.00141274
-0.00945304
-0.00562419
-0.00236464
-0.000380522
0.00153998
-0.00140726
-0.000329011
0.000571923
-0.00257122
7.72508e-05
0.00185069
-0.00514472
-0.00306203
-0.000738665
-0.0056675
-0.00233315
0.000449478
-0.00147103
0.000733975
-0.001378
-0.000952234
0.00108822
0.00292067
-0.00260815
-0.00189283
-0.00097197
-0.00112204
-0.00142688
-0.00108905
0.000322595
-0.000673927
0.00256826
0.000313257
-0.00238901
-0.000396134
0.00106009
-0.000548238
0.00153719
-0.00112297
-0.000206418
0.00370661
-0.000576018
8.85623e-05
0.00375372
-0.00072665
0.000713702
0.001088
-0.000458134
0.00157861
0.000100008
0.00218013
-0.000620983
0.00289732
0.000790284
-0.000494796
0.00372189
0.000688669
0.000319558
-8.17482e-05
0.00235712
0.00195458
-0.00143725
0.00179335
-0.000832359
0.000965225
0.00170462
-0.00113352
-0.00037937
0.00635608
-0.00357949
0.00515188
0.00409933
-0.000716347
0.00294198
0.00172145
0.00201938
-0.00108809
0.00307702
0.00199763
-0.00224546
0.00119441
-0.00121035
-0.00131234
0.000703556
0.000390167
-0.000727139
0.00284247
0.00243769
5.67179e-05
0.000526663
-0.00148292
2.45235e-06
0.000244517
-8.26536e-05
-0.00478797
-0.000773344
-0.000403834
0.000436149
-0.000905756
-0.000514746
-0.00207263
-0.000600759
-0.00112881
0.000955731
-0.000995528
-0.00269047
0.00365512
0.00385656
-0.00181281
-0.000597197
0.000241711
0.000396942
0.00150591
0.0010351
-0.00237276
0.000121196
-8.29264e-05
5.47425e-05
0.000402699
0.00224223
-0.00538391
0.00554816
0.00376442
0.00133112
-0.00461906
-0.00205912
-0.000343671
0.00195248
0.00051773
0.00340224
-0.00165849
-0.00084678
-0.00228786
-0.000244631
0.00127166
0.000936692
0.00477763
-0.0030653
-0.00170528
-0.00545463
0.00366902
-0.00430319
-0.00198244
-0.00153422
0.00103155
-0.00185684
-0.001895
0.0017613
-0.00222107
0.000191813
-0.00177928
-7.95818e-05
0.000769446
0.000646528
-0.000201957
0.000354033
0.00190813
0.00156836
0.00210293
0.000534499
0.000102259
-8.30842e-05
-0.00105564
0.00234703
0.00372299
-0.0019173
0.00180951
-0.000967212
-0.00156957
0.00242256
-0.00283672
0.000495394
-0.000202588
-0.00530405
0.000795399
0.00579098
-0.00100303
0.00288037
-0.00101665
-0.00238385
-0.00178577
0.00143311
0.00489949
0.00141761
0.000709548
0.000417377
0.00575012
0.00241817
0.00268141
-0.00169828
0.00169575
0.000803719
0.00132729
-0.000671537
0.00134873
-0.00383385
0.00425398
-0.00424686
0.00108912
8.6342e-06
0.00292801
-0.00321559
-5.62002e-05
-0.00603
-0.0031537
-0.000903844
-0.00383366
-0.000436804
-0.00402318
-0.00283225
0.00219967
0.00229601
-0.00180385
0.00173775
-0.000753182
0.00458829
0.00304826
0.000153319
0.0022463
0.00173504
-0.00133276
0.00123694
-0.000644199
-0.00184747
1.38518e-05
0.00169684
-0.00216849
0.00443595
-0.00184361
-0.000103085
0.0055254
0.00177372
0.00672588
-0.00244452
0.00120535
-0.00178026
-0.00086729
0.000830172
0.0024116
0.00603769
-0.000582157
0.000212068
0.000993903
0.00421198
0.00229497
0.00194441
0.00304
0.000842976
-0.00688439
0.00336012
-0.00183844
0.00261654
0.00362655
0.00234986
0.0018896
0.00208392
0.00301263
-0.00188349
0.000548259
0.0012317
-0.00243402
-0.000216854
0.000942492
-0.000702292
0.000923131
-0.000417672
0.00209407
-0.000365324
0.00425773
0.00218496
-0.000310092
0.00435183
0.0017727
0.00379737
-0.000832889
-0.00202695
0.00258246
0.00113143
0.00208228
0.00199358
0.000501593
-0.00065596
-0.000415676
-0.00378042
0.00410106
-0.000715451
0.00047079
-0.000970834
0.00673314
0.00495506
-0.000213442
-0.00045076
-0.00086392
0.000526515
0.00444955
0.000873129
-0.00319949
0.00240319
0.00091584
0.00115771
-0.000552146
-0.0029736
-0.00244209
-6.93019e-05
0.00118763
-0.00256825
0.0023272
0.00228374
-0.00474941
0.00240271
0.000183739
0.000952008
0.000497906
-0.000125685
0.000339654
0.000776324
-0.000508246
0.0008379
0.00286543
-0.00117736
-0.000921775
-0.00212367
0.000534891
-2.53567e-05
0.00199884
8.47219e-05
0.00179557
-0.00165496
-0.00062029
6.89168e-05
0.00248266
-0.00112709
0.0013735
1.65937e-05
1.91984e-05
-0.00367855
-0.00175852
0.00185096
-0.000219826
-0.0030892
0.00174263
-0.00144426
0.00344299
0.00195459
-0.000351431
-0.00184467
0.00270966
0.00133842
-0.000919675
0.00163436
-0.00576841
-0.00136028
0.00170753
-0.000499686
-3.98549e-05
-0.00050147
-3.99265e-05
-0.00542801
0.0015404
0.000310177
-0.00105838
0.000103174
0.00313502
0.00250226
0.00147568
0.0057998
0.00240498
-0.00272843
-0.00102216
-0.00149656
-0.00184846
-0.00325961
-0.00146951
-0.000237868
0.00366743
2.95433e-05
-0.000633238
-0.00244166
-0.00220947
-0.000979303
-0.000273043
-0.00219781
-0.00304347
-0.000495735
0.0025684
0.00342854
-0.0043717
-0.00301946
-0.00319071
-0.00150763
0.00261915
0.0018643
0.000259741
0.00160438
-0.00421111
6.06193e-05
-0.00395214
0.000800694
-0.00486517
-0.00230462
-0.00314695
0.000244343
-0.00198021
0.000261924
0.00348014
0.00258764
-0.000572489
0.000857962
0.000622842
0.0033629
0.000374539
0.00098509
-7.31726e-05
0.00213685
0.00151044
0.00233708
-0.00267779
-0.00187931
-0.000801936
-0.000345976
0.000666441
0.00109036
0.00431246
-0.00379332
0.00259258
-1.17631e-05
-0.00108724
0.0010899
-0.000991232
-0.00397039
0.00424314
-0.00164711
0.000675997
0.000204657
-0.00132455
-9.02827e-05
-0.00158986
0.000831917
-0.00321118
0.00220243
0.000773626
0.000995966
-0.00992189
-0.00227582
0.00325545
0.00311393
0.00109413
0.00364714
-0.000169507
-0.000349183
0.00222213
-0.00351108
0.00199032
-0.00190237
-0.00373612
0.00316373
-9.87805e-05
0.00167044
0.000515593
0.000858108
-0.00169007
-0.00183887
-0.00253289
0.00436594
-0.000761229
0.00255304
0.00407429
0.000141946
0.00134979
0.000823295
-0.00572278
-0.00375398
0.00267372
-4.106e-05
-0.00101753
0.00459571
0.00361652
-0.0005289
-0.00104679
0.0041807
0.000821087
-0.000171434
-0.00316157
-0.00129042
-0.00336639
0.000634716
0.000913372
0.00437046
0.000921451
-0.00128436
-0.00237198
-0.00212464
-0.00514215
-0.00678904
-0.000841048
-0.00690694
0.00272524
0.00144476
0.00174463
-0.000956249
0.00521857
-0.00272217
0.00343063
0.00631316
0.00173689
0.00284284
0.00326449
0.00110491
0.000633309
-0.00142191
-0.00189253
-0.00026505
0.000541769
-0.00341201
4.85771e-05
-0.000140815
-0.00058054
-0.00257035
-0.0032145
-0.00205
0.00681476
-0.00404671
0.00749875
0.00165181
-0.000319359
0.00412292
-0.000271042
0.000990828
0.00388635
0.00324226
-0.00241571
-0.00608678
-0.00274293
-0.00249394
-0.000998454
0.000275495
0.00235448
-0.00366674
0.000874734
-0.00510361
-0.0029173
-0.00263495
-0.000634653
0.000478046
-0.000117317
-0.000171233
-0.00157422
0.00247953
0.00215595
-0.00420356
-0.000284517
0.00502051
0.000837754
-0.00240995
0.00265602
-0.00207412
-8.75203e-05
-0.00267975
-0.00110112
-0.0015044
0.00203717
0.000893434
-0.00183423
0.000147394
0.0024156
-0.00362778
0.00231683
-0.00113554
0.0005012
-0.000196832
0.00502202
-0.00159673
-0.00318906
0.00389974
-0.000330558
0.0010116
-0.00416233
0.00255121
-0.00283838
3.13567e-05
-0.000645914
-0.00150588
-0.000976942
-0.00430261
-0.000370169
-0.00178556
0.00111274
0.00206599
-0.00218548
-0.00807309
0.00470516
0.00135599
-0.00204713
0.0053495
-6.45398e-05
0.000519844
-0.00278
-0.00385215
0.00400896
0.000887781
-0.00168519
0.00086167
-0.00170287
0.000594105
-0.00288621
0.00194109
0.00262019
-0.00339215
-0.00169616
-0.00285396
-0.00447532
0.00320658
-0.00256357
-0.00448763
0.00197298
-0.00129532
0.00103797
0.00827452
-0.00187152
0.00511891
-0.000272528
0.00581583
0.00307193
-0.00257685
0.000109083
-0.00170604
0.00403897
-0.00225827
0.00312919
-0.00159078
-0.00456123
0.00214334
1.77791e-05
-0.00494699
-0.00024049
-0.000175313
-0.00216962
-4.72245e-05
-0.00249685
0.00100955
0.00141401
-0.00147232
0.00240569
3.96319e-06
3.51542e-05
0.0015504
-0.00852502
-0.00277199
0.00288328
0.000799536
-0.000919457
0.000942909
-0.00224578
0.00399308
-0.00089813
0.00182841
-0.00171676
0.00382335
-0.000759203
-0.00195628
-0.00126314
-5.84716e-05
0.00152651
0.000269823
-0.00292241
8.11135e-05
-0.000383451
0.000293284
-0.00158448
0.000912811
-0.000246484
0.00133256
0.00231096
0.00337488
-0.0006131
0.0015613
0.00673106
0.00512769
0.00274285
-0.000433602
-4.21978e-05
-0.000601374
-0.00166865
0.00336053
0.00181572
-0.00206615
0.00641199
-0.00125007
0.00029621
0.00206973
-0.00119769
0.0014012
0.00102923
-0.00356259
0.0025254
-0.00088957
-0.00110137
0.000802893
-0.00034148
-0.000710279
0.00452145
0.00107232
0.00477186
0.000432176
0.00369879
0.00159826
-0.00219602
-0.000890607
0.00205672
-0.000115645
0.00193564
-0.000699261
-0.00191291
0.0017966
-0.00417597
-0.00288771
0.00174627
0.00173861
0.00406421
0.00531542
0.000373167
-0.00104102
0.00112074
0.00243231
-0.00618355
-2.75253e-05
0.0024356
0.00110862
0.000764258
0.00258822
0.00226635
-0.000883108
0.00460212
-0.000974276
0.00467784
0.00202185
-0.00112146
-0.00161008
0.00305366
-0.000494615
0.00159084
-0.000761943
0.0019633
-0.00295618
0.00315673
-0.00302802
-0.000887466
0.000210992
0.00118317
0.00112637
0.000793891
-0.000531493
-0.00415762
0.00561698
0.00313445
0.00560932
-0.00155506
-0.00259466
0.00640508
-0.00101443
-0.000398656
-0.000140522
-0.000769209
-0.00135067
-0.00734059
-0.00298527
0.00137239
-0.0004252
-0.00371644
-0.000115681
-0.00116999
1.88862e-05
0.00263431
0.00186105
0.000690742
-0.00215703
-0.000327663
-0.00129338
0.00130626
-0.00364601
-0.00128842
0.00111892
0.00292388
-0.00213743
-0.000140149
0.00276447
0.00273551
-0.00283952
0.000972823
0.000512515
-0.000370138
0.00202872
0.00294508
0.00308967
-0.00187703
0.000952351
0.00820445
0.00199202
0.00410914
-0.00172236
0.000799293
-0.00168673
0.00357368
0.00176622
-0.000725782
-0.00114203
0.000791018
-0.00142374
-0.000670432
-0.00159063
0.00062488
-0.000687867
0.00103921
-0.00139047
-2.43535e-05
0.000306999
-0.00311802
0.000920652
0.00122651
-8.86562e-05
0.00382644
0.000597195
5.58812e-05
0.000675223
-0.00133994
-0.000850585
0.00355084
0.00180131
0.00426019
-0.000976197
0.000573166
0.000975071
0.000191564
-0.00342018
-7.5642e-05
-0.00152463
-0.00120352
-0.000709121
0.000802345
-0.000844756
-0.00328173
0.00501322
-0.0028751
-0.00246876
-0.000264404
0.00731791
-0.00458319
-0.000814348
-0.000796998
0.00343239
-2.3955e-05
-0.00157831
-0.00075708
0.00082491
0.00120794
0.000489757
0.000643114
-0.000987634
-0.00047635
0.00362932
-0.000195454
0.00241239
-0.00143917
-0.000136654
0.000380804
0.00452709
0.00326985
0.00103885
-0.00415749
-0.00422229
0.00010135
-0.000741873
0.00424884
0.000675866
0.00048336
0.00148451
-0.00317108
-0.00142171
-8.24063e-05
0.00171804
-0.00144288
0.00306134
2.46086e-05
-0.00578193
0.00102323
0.00175842
-0.000546366
0.000187612
9.70136e-05
0.000856312
-0.00402339
-9.64226e-05
0.00299058
-0.00296761
0.00182575
-0.00121969
0.00547871
-0.000249686
-0.00447405
-0.00424372
0.000532353
-0.000970053
-0.000288671
-0.00525812
0.00112974
0.00134644
-9.46754e-05
0.00614267
-0.00149156
0.00477783
-0.00176773
0.000532571
0.00331575
-0.00172241
0.000439221
0.000696846
7.85774e-05
-0.000968308
0.00262059
0.00585926
0.00468323
-0.00189655
0.00335532
0.000879527
0.00111201
0.000997246
5.51244e-05
-0.0044366
0.00163306
0.00098372
0.000485587
-0.00100681
-0.00290137
0.000536195
-0.00104374
-0.000130484
-0.000268338
-0.00106089
0.00571111
0.00375658
0.000144905
0.00279316
-0.00106417
0.00222667
0.000182101
0.000514278
0.00271578
0.00113285
0.0115914
0.00154505
-0.00254876
-0.000213091
0.00468355
0.00149827
-0.000551576
0.00286888
-0.00337863
0.00398539
-2.009e-05
-0.00127759
-0.000219878
0.00163899
0.00415953
0.00323932
0.00125315
-0.00273777
-0.000112384
-0.00446804
-0.00332912
-0.0033882
0.00920335
0.000217193
-0.00233364
-0.00115566
-0.000494283
0.00210237
-0.00169912
-0.00250625
-0.00416886
-0.00038534
-0.00373034
-0.00290509
0.000285458
0.00197981
-0.000860289
0.00218819
0.00658975
-0.00111286
0.000504249
-0.000498123
0.000330263
0.00148254
0.000619466
-0.00127974
-0.00856626
0.00961007
0.00668328
-0.00066969
0.00295222
0.00214125
-7.8066e-05
-0.00192182
0.00155105
-0.000132577
0.00258501
-0.00325687
-0.00329575
0.00441622
-0.00413459
0.00480643
0.00136915
0.0056561
-0.00212933
7.70483e-05
0.00129669
0.00148518
0.00358128
-0.00282366
0.00088061
-0.00268687
-6.95103e-05
0.00538572
-0.00431752
0.0013268
-0.00182148
-0.000466282
-0.00215227
0.000587078
-0.0012423
0.000715811
0.00404416
0.00243866
0.00145882
0.000611979
-0.00313354
0.00507818
6.85294e-05
0.000105603
0.000862671
-0.00453697
-0.000100518
-0.00449618
-0.000350668
-0.000599368
0.00246394
0.0005271
0.000573296
0.00097739
0.00122649
0.00622623
0.00173273
0.00165117
-0.00170216
0.000815981
0.000379476
0.000360557
-0.00416468
0.0019837
0.00128332
-0.0036002
-0.000723076
0.00367879
0.000527871
-0.00931088
6.13531e-05
0.000312994
0.000911761
-0.0024051
-0.000366878
-3.46512e-05
-0.00271365
0.000351826
0.00054376
-0.00251378
-0.00331868
-0.000617748
-0.000241335
0.00182493
-0.00047847
0.0061283
0.00329141
0.00206087
0.00424285
-0.00426643
0.00156106
-0.00387136
-0.00250825
0.00335301
0.0101256
0.00123213
0.000851037
-0.0045447
0.00766093
-0.00114595
-0.00345521
-0.00109268
0.00240793
-6.76184e-05
-0.00117849
0.00172016
0.00232886
0.00148529
0.00108845
-0.00165357
-0.00302056
0.000418885
0.00368481
0.000235435
0.0017482
-0.00125365
0.00126711
0.000374369
0.00150776
-0.00203587
-0.00124124
0.00363502
0.00403534
0.00243228
-0.00281561
-0.00614086
-0.00305195
0.000463325
0.0019301
-0.00014442
-0.00655776
-0.00586853
0.000146988
-0.00216493
-0.000556231
-0.00100498
-0.00119755
-0.00032285
-0.00212203
0.00590859
-0.00147245
-0.00184373
0.00336839
0.00166766
-0.00426334
0.0101338
0.00297224
0.00570916
-0.00358593
-0.00227055
0.00651332
-0.000347857
-0.00260313
0.000816426
-0.00411678
7.43874e-05
0.00625715
0.00430168
-0.00210578
-0.0036721
0.000258827
-0.00404816
-0.00392522
-0.00164276
-0.000910703
-0.00353612
0.00756522
-0.000542862
-0.00256728
-0.00317091
-0.00033228
-0.00143148
-0.0138475
-0.00343183
-0.00131437
-0.000530507
-0.000328169
-0.00123464
0.00710973
0.00537903
-0.00335847
0.00640348
-0.00130656
-0.00731262
0.00156024
0.00116136
-0.00471659
0.00181902
0.000329615
-0.000607029
-0.00233451
0.000629245
-0.00304758
-0.00147608
-0.00567892
-0.00397819
-0.00561102
0.00183043
-0.00123447
0.00331091
-0.00451158
-0.0048378
-0.00334843
0.00296955
-0.000307511
0.00111935
0.00108291
-0.00252609
-0.0118938
-0.00332241
-0.000219636
0.000452796
-0.00592109
0.000416559
0.000964862
0.000228668
0.00246559
0.00226472
-0.00402566
-0.00314999
-0.0017821
-2.33937e-05
-0.00156257
0.000593362
0.00327292
0.00180337
0.00259219
0.00177568
0.00138562
0.00602154
-0.00226207
0.00279867
-0.00205276
-0.00367133
-0.00271452
0.00458892
-0.000941336
0.00356147
0.000399562
0.00207435
-0.000637913
-0.00172407
0.0060387
-0.00219767
0.000450274
0.00465621
0.000711671
-0.00188205
0.00229742
0.000840703
0.00115983
-0.00218082
-0.0025906
-0.0050987
-0.00163758
0.000179386
-0.00477807
0.00205489
0.00358854
0.00100679
-0.000813338
0.00159218
-0.000927829
-0.00119363
0.000826598
-9.56501e-05
-0.000603693
-0.000352275
-0.000354267
0.00641678
-4.66683e-05
-0.000361678
-0.00155305
-0.00183246
-0.00105377
0.00165339
0.0015822
0.00487533
-0.00103719
-0.000118595
0.0012595
-0.000776679
-0.00160278
0.00116637
-0.000387551
0.00168981
-0.00391047
-0.0008892
0.0021866
-0.000666779
0.00703644
-0.000636455
-0.000851459
-0.00109077
0.00333343
-0.00234642
-0.0022487
-0.00694243
-0.00405038
0.00135576
-0.00539598
0.000979216
-0.00215986
-0.00268189
-0.0020028
-0.00239117
0.00394415
0.00226721
0.00256632
0.000274757
-0.00251849
0.000612351
-0.000433265
0.000768095
0.000340973
-0.00144263
-0.00174814
-0.00301129
0.000918523
0.000816559
0.000356927
0.00590251
0.00284107
-0.00391129
0.00322165
6.73678e-05
-0.00659049
-0.00292159
-0.00028579
0.00237472
-0.00188553
-0.00199455
-0.000911781
-0.00253483
1.90696e-05
-0.00154024
-0.00515493
0.00224338
0.000630944
-0.00121598
-0.00189613
-0.00696652
-0.00153198
0.00450814
-0.00539457
0.00437434
0.00049298
0.000278475
-0.000178706
0.00131321
0.00444869
-0.00047967
0.00082103
0.00364958
-0.00129017
-0.000452252
0.000315994
-0.00139668
0.000729067
-0.00100308
-0.000114767
-0.00136478
-0.00220904
-0.00175722
0.000499379
0.00113624
-8.57444e-05
-0.000858427
0.000557566
-0.00307206
0.000964162
0.00182787
-0.00174876
-0.00137184
0.0023412
-0.00310607
0.00244863
0.00193353
0.00108529
0.00190194
-0.00166149
-0.00029167
0.00331635
0.00196763
-0.00104855
-0.00338678
-0.000789339
0.00302772
0.00135117
0.0048387
0.0031759
0.00065614
-0.000937004
-0.00579919
-0.00125449
3.04839e-05
-0.00131816
-0.00128644
0.00419142
0.00614189
-0.00393377
0.00250914
0.00273743
-0.00110116
-0.00255823
-0.00182591
0.00265727
0.000656436
0.00143483
-0.00192818
0.00216035
-0.00163946
-0.000584
0.00194178
0.00144196
-0.0002702
0.00166852
-9.81223e-05
0.000123225
-0.000471446
0.000985088
-0.00146873
0.00026126
-0.00174426
0.000273549
-0.000728285
-0.00189629
0.0017367
-0.00527337
0.00297453
-0.000749564
-0.00443678
-0.00192578
-0.00320921
-0.0057918
0.000116597
0.00279767
-2.16581e-05
4.82964e-05
-0.00222261
3.9752e-05
0.000136013
-0.00152231
-0.00174307
0.001183
0.00104755
-0.00186982
0.000630062
0.000379364
0.00112793
0.00426781
-0.000260659
0.000951793
0.000247237
0.00303412
-0.00142582
-0.00143031
-0.00235959
-0.000723136
-0.00115664
-0.000824904
-0.00182722
-0.00266861
-0.00208749
0.00304204
-0.00121745
0.00102129
0.000865892
-0.0021801
-0.00478745
-0.00135134
0.00325316
-0.00487291
0.00156252
-0.000753605
0.00134169
0.000670575
-0.000752095
-0.004347
0.010204
-0.00176853
-0.000550601
-0.00127957
-0.000289319
-0.00083113
0.00421028
-0.000294645
-0.00115992
0.000134566
0.000614981
0.00126206
-0.000168676
0.000639706
-0.000123874
0.000135592
-0.00135515
-0.00810315
-0.00565215
0.000696218
0.00023228
-0.000195532
0.00511003
0.0033157
-0.000147147
0.000139938
0.000483108
-0.000928275
-0.00140701
0.00752815
-4.84053e-05
-0.004154
0.000554127
0.00108042
0.000713496
6.65214e-05
0.00413306
-0.00825249
0.000427071
-0.00144688
0.00129171
-0.000229297
0.000910305
0.00146584
0.00064791
0.00500291
-0.00177001
-0.00231689
0.000947908
-6.12298e-05
-0.000763457
-0.00030572
0.000628535
0.00272793
0.00129564
0.00491528
-0.000906538
-0.000451186
-0.000137191
-0.0040482
0.00362607
-0.000438129
-0.000300767
-0.00385214
0.000206515
-0.00461789
0.00134148
0.00201074
-0.00041818
0.00377105
0.00273352
-0.00245787
0.00247745
-0.00262644
-0.00262923
0.0016995
-0.000888061
0.00136735
0.00352809
0.00018028
0.000611591
0.00514625
-0.000682472
0.000922031
0.000221885
-0.00424394
0.00877628
-0.00153361
-0.000520663
-0.00149787
-0.000121894
-0.000110817
0.000802283
0.00102913
-0.00289368
0.00655719
-0.0036709
0.00174717
-0.000546182
0.00315759
-0.000107054
-0.00521094
-0.00246447
6.78988e-05
-0.00173987
-0.000308544
0.000596406
-0.000472123
-0.000124564
0.00307083
-0.0021386
-0.00297793
-0.00152174
0.00293126
-0.00523513
-0.00143577
-0.0026164
-0.00102703
0.000521742
-0.00100677
-0.00376093
0.00254006
-0.000447484
0.00417423
8.79953e-05
0.000190252
0.00446674
0.0049721
-0.00232846
0.00489776
0.000324058
-0.00450253
-0.000752835
0.00774077
-0.00298371
0.00164436
-0.00289104
0.000151709
-0.00575111
-0.00263605
-0.000399288
0.00335684
-0.000131333
-0.00104936
0.00025901
-0.00302758
0.000392686
0.00074791
-0.00339863
0.00285935
0.000578571
0.000897951
-0.00263732
0.00164598
0.00394161
-0.0001881
-0.00377751
-0.00164712
0.0012984
0.00170025
0.00108946
-0.00485511
-0.00089283
0.000432013
-0.00257564
0.000724511
-0.0013671
-0.00117599
-0.00123178
-0.000181114
-0.00344841
-0.00190486
-9.10915e-05
0.00220931
-0.00186307
0.00439981
-0.000471949
-0.00571053
-0.00674611
-0.0029541
-0.000163811
0.00178708
0.00217864
-0.00381318
0.00117947
-0.0016859
-0.000727925
-0.00536987
-0.00138471
0.00279863
-0.0024462
0.00156913
-0.00040462
-0.00388829
0.0019115
-0.00163117
-0.00262341
0.00061674
0.00579661
-0.00024013
-0.00357375
-0.00176635
-0.00255997
-0.00199387
-0.000907904
0.00813011
0.000418242
-0.00125765
-0.000951892
0.0011963
0.00120366
-0.00359731
-0.00125712
-0.00366994
0.00144023
-0.000678507
-0.00216229
-0.000373774
0.000523928
0.000873017
-8.00902e-05
-0.00298796
0.00116054
-0.00230427
0.00275097
-0.00982299
-0.00121561
-0.00135647
0.000605161
0.000782644
-0.00119506
-0.00354517
0.00183472
4.66581e-05
-0.00103914
-0.00138005
0.00032024
-0.000502614
-0.00405866
-0.000604497
3.53079e-05
-0.00277476
-0.00447232
0.00217613
0.000834966
0.000883928
0.000567782
-0.00174291
0.000753811
0.00186499
-0.00665558
0.00344656
-0.00188882
-0.00139487
0.00123617
-0.000914358
0.000494795
0.00230313
-0.000523387
-0.00148279
-0.000944103
0.000827418
0.000630014
-0.000587508
0.000673754
-0.00203329
-0.00111742
-0.000232238
-0.0017295
-0.00155241
-0.000284832
0.00281345
-0.00145953
0.00338777
0.000911954
-0.00108012
-0.00150971
-0.00242092
-0.00284166
-0.000560548
-0.000721739
-0.00401078
-0.000270284
0.00554423
0.00282841
0.000496931
-0.000886365
-0.00356825
-0.00114309
6.92501e-07
0.003562
-0.00224787
-0.000328323
-0.000849154
-0.00106607
0.000813491
-0.000453276
-0.000873725
-0.00291208
0.00069815
-0.00109602
-0.000721826
0.00153989
0.0032146
0.000944157
-0.000937791
0.00152834
0.000254427
-0.00255078
-0.00465006
0.00129787
-0.00201102
0.00107797
0.00112857
-0.0014015
-0.00107075
0.00520113
-0.00372507
-0.0052869
0.000607414
0.000515932
0.00228001
-0.000849921
-0.000920021
-0.00254461
0.000717074
-0.00258532
0.00242926
-0.00398697
0.00148627
-0.00149728
-0.00369198
0.000661208
-0.00547726
-0.000612555
-0.00041712
-0.00239529
-0.00287044
-0.00261162
-0.00287941
-0.000906864
0.000838731
-0.00195612
0.00137221
0.00375919
-0.000346499
0.00180592
0.000794229
0.00018869
0.00109934
0.000963248
0.000557475
-0.00273461
0.00155737
0.00150474
-0.00425003
-0.00341524
-0.000646333
-0.00347463
-0.00404932
-0.000678683
0.00144152
-0.00261223
-0.00286344
-0.00131423
-0.00169266
0.00330035
-0.00172956
-0.00150821
0.00211246
-0.00560937
-0.0028386
0.00121527
0.000243118
-3.12047e-05
0.00426378
0.00554684
-0.0016431
-0.00350934
0.00372267
-0.00103478
-0.00227302
-0.00588699
-0.00166853
-0.00280958
-4.43042e-06
-0.000477703
0.00111993
-0.00195473
0.00353141
-0.000277102
0.00283146
0.00234683
0.000556691
-0.000987257
0.000551658
0.00174162
0.00241565
-0.00200225
-0.00113578
0.000542365
0.000941304
0.00135667
-0.00429464
-0.00562686
0.00343766
-0.00397599
0.000943425
-0.000185707
-0.000197314
0.0019888
-0.00169216
0.00179108
-2.66094e-05
0.000481749
0.000654148
-0.00653959
0.000607138
0.00180284
-0.00259101
0.00099773
0.00459962
-0.00177689
0.00110089
0.00183212
-0.00268199
-0.00144048
0.00195938
0.00175005
-0.00162762
0.00142228
-0.00105871
-0.00177654
0.0024869
0.000383199
0.00100633
-0.00204861
0.00249556
0.000791469
4.95465e-06
0.000605537
-0.000337798
-0.00231221
0.00364119
-0.00706563
-0.001063
0.00196025
0.00709424
-0.00051742
0.000191079
0.00283165
0.00396998
0.00194475
-0.00448359
-0.000955451
0.000392132
8.17559e-05
0.00981693
0.00183104
-0.000579737
-0.00184385
-0.000182795
0.00221195
0.000285013
0.000219733
-0.00798504
-0.00398508
0.00365665
-4.4489e-05
-0.00308739
0.0030814
-0.0019064
-0.0027569
-0.00497203
-0.0112173
-0.00166323
0.00058771
0.000978607
0.00115007
-0.000436916
-0.00100215
-0.00128993
0.000586456
-0.0049898
-0.00619784
0.00445639
-0.00427582
0.000800173
-0.0015125
-0.00291837
0.000388385
-0.000263506
0.0016369
-0.00455374
0.00627025
-8.37444e-05
0.00127609
-0.00206631
0.0010826
0.00208015
0.00157025
-0.00207465
0.000433263
0.00179481
-0.000151152
0.000871729
0.0032972
0.00135275
0.000355377
-0.00224315
-0.000347601
-0.00137263
-0.00322965
-0.00103019
-0.00159494
0.000396996
0.0028124
-0.000325825
0.00311077
0.00112038
-0.00234986
-0.000249387
-0.000306819
-6.84772e-05
-0.000954344
-0.00210629
0.00152215
0.0010565
0.000610785
0.000627774
0.00226806
-0.00180496
0.000188003
0.00524952
-0.00115333
-0.00203283
0.00043494
-0.00148399
0.000590522
0.000202522
0.00065835
0.000709372
-0.000673558
0.00442348
-0.00119065
-0.00320133
0.00214244
-0.00113263
0.00204983
-0.000185053
0.00617982
0.00541779
-0.00274298
-0.00417803
-0.00133466
-0.00362895
0.00109145
-0.000636149
0.00264178
-8.83196e-05
0.000676928
0.00203965
-0.001778
-0.00135285
0.00222823
-0.0010426
0.00228338
4.09405e-07
-0.00116825
-0.0012761
-0.00615768
-0.00623331
0.00113623
-0.00258528
0.00232076
0.00010776
-0.00600209
-0.00101099
-0.0103791
0.0027357
-0.00385447
-0.000917329
-0.000467598
-0.00100586
-0.00182442
-0.00129244
0.000416252
0.00173087
-0.00270563
-0.000586942
-0.00196008
-0.00110704
-0.00323499
-0.0001258
0.00877826
-0.00167071
0.00425795
0.00120869
0.000821887
0.00285191
0.00104685
-0.000161709
-0.00383921
0.00256869
-0.00275863
-0.00118059
0.00269439
-0.00184922
-0.00226752
-0.00370313
-0.00432219
-0.00063765
-0.00278115
0.00135996
-0.000281628
0.00370005
0.00473154
0.00427144
0.000402747
-0.00253429
-0.00178051
-0.00158319
-0.00197501
0.00240008
0.000232307
0.00166846
0.000554239
-0.00175811
0.000614258
8.21732e-05
-0.00372691
0.000880611
-0.00186644
0.000332537
-0.00384979
0.0016029
0.00175364
-0.00108598
-0.00247635
-0.000846429
-6.08028e-05
0.00136366
0.0032114
0.0103952
-0.00196279
-0.000411841
-0.00226363
0.000842672
-0.0048612
5.92488e-05
-0.002829
-0.00318044
0.00394642
-0.00131629
0.00149797
-0.00274063
-0.00286623
-0.00308699
-0.0040463
-0.00304223
-0.00108883
0.000438147
-0.000221739
0.00148739
0.000645823
0.000600845
