0.00295098
-0.000245118
-0.000716392
-0.00226286
0.00258057
0.00279428
-0.00338212
0.00537214
-0.00512343
-0.00031898
-0.00020349
-0.00498159
0.00229977
-0.00153561
-0.00331856
0.00959148
0.0128037
-0.00157982
0.00179305
0.00256325
0.00141211
-0.00805627
0.0022337
-0.00443457
-0.00433695
0.00394259
-0.00240663
-1.8909e-05
-0.00333011
0.00196849
-0.00128645
0.0018507
-0.00608805
-0.00224334
-0.00629753
0.00763525
0.000508439
-0.00280184
0.000762753
0.00338262
-0.00297563
-0.00434961
-0.00475653
0.00554286
0.000143516
-0.00380796
-0.00395962
-0.00189213
0.00537404
-0.0012224
-0.00705188
-0.00164327
0.00977173
-0.00374991
0.000981344
0.00249334
-0.00214022
-0.00353373
-0.00825979
-0.0024604
-0.00657883
0.000720295
-0.00380028
-0.00263782
-0.00340527
-0.00260364
0.00201975
0.00447612
-0.00101469
-0.00116262
0.000322883
0.00415283
-0.00366982
-0.00857858
-0.005334
-0.00880123
0.00200132
-0.00711239
-0.00423407
0.0015257
-0.0094839
-0.00596452
0.000699943
0.00699607
-0.000203187
-0.00123531
0.00827383
-0.00320643
-0.00238348
-0.00447641
0.00642287
0.00181693
0.00915471
0.00446783
0.00268279
-0.00535887
-0.00313862
-0.00430102
-0.000640166
-0.00232505
0.00291081
0.00020307
-0.00491185
-0.00598625
-0.000452937
-0.00372439
0.00138522
-0.00892906
0.000259455
0.00466995
-0.00414507
0.00229265
-0.00232081
-0.00101526
-0.00189368
-0.00135119
0.00131811
0.00504328
-0.00445293
-0.0109797
-0.00416199
-0.00368863
-7.43328e-05
-0.00857001
-0.00770929
0.00509035
-0.00337953
0.00471306
-0.00289088
-0.000746548
-0.00806612
-0.000123027
0.00126748
0.00150581
-0.00270922
-0.000483929
-0.00555834
-0.00468383
0.00350623
-0.00250305
-0.00363509
-0.00433127
-0.00358978
-0.00144127
0.00686459
-0.0007745
0.00422075
-0.00189714
0.000842203
-0.000345068
0.00149051
-0.00270847
-0.00687062
-0.00176861
-0.000677865
0.000380417
-0.00503244
-0.00911432
0.00890059
-0.00834111
-0.00435335
-0.0033711
0.000141056
-0.0109267
0.00705264
-0.000927277
-0.00264372
-0.013212
0.0010925
-0.0107366
-0.000676609
-0.001107
-0.00568558
0.00440597
-0.00526315
0.000556853
0.00536409
0.00117272
-0.00708573
-0.00207363
0.00250698
-0.000116998
0.000565914
-0.00628841
0.00100585
0.00122084
0.00219602
0.00822487
0.000112743
-0.00243524
0.00460889
-0.00446371
-0.00286336
0.00125278
0.00230263
-0.00452963
0.000420794
-0.00476083
0.00189062
0.002282
-0.00124486
0.00797833
-0.00793317
0.00379846
-0.00847321
-0.00622415
-0.00100336
0.00109889
-0.0047275
0.00181579
-0.000777598
-0.0030073
-0.00169447
-0.00452449
0.00167711
0.000425095
-0.00560988
-0.00630888
0.00217032
-0.000185667
0.00034857
0.00545264
0.000650401
0.00313488
-0.00336006
0.0047583
-0.0028476
-0.0124609
-0.00203338
-0.000400995
0.00429857
-0.000426886
0.00193041
0.00322512
-0.00296854
-0.00278689
-0.00387464
-0.00704468
-0.00176655
-0.000353483
0.000892214
-0.00753295
0.0020795
-0.0118794
-0.00298838
0.00485147
-0.00193203
0.00291915
-0.00511525
-0.00225619
0.00432856
0.00069638
0.00101524
-0.000420132
-0.00407843
0.00670743
-0.00173632
0.00200978
0.00432986
-0.00808868
-0.00174257
-0.00481103
-0.00391192
-0.000941931
-0.00813654
0.0100907
0.00226913
0.00746605
0.000609812
0.00145154
-0.00450819
-0.00387198
0.00329631
-0.00432293
0.000704675
-0.00447221
-0.000354002
0.003724
0.000984092
-0.0028268
0.00258739
-0.00142736
-0.00253129
-0.000860982
-0.00462087
-0.000844532
0.00238416
-0.00314771
-0.00366513
-0.00314084
0.00467567
0.00549134
0.000872663
-0.00196562
-0.00367351
-0.00137316
-0.00496545
-0.000164895
-0.00519654
0.00865946
-0.00245979
0.00555412
-0.00272511
0.00473001
-0.0048634
-0.00646496
0.00311559
-0.00276195
-0.00650329
-0.00413793
-0.00551812
-0.00273257
-0.00361807
-0.00556757
0.000185735
-0.00753996
-0.00918887
-0.00468011
-0.00250931
-0.0020323
0.00225956
0.00457839
-0.00108905
-0.0051774
-0.000536155
-0.00378513
-0.00525212
-0.00896491
-0.00177379
0.00852464
-0.00257903
0.00208232
-0.00346307
-0.00440623
-0.00112689
0.00230913
-0.00896682
-0.000796394
-0.00195812
0.000916389
-2.40755e-05
0.00382476
0.00044443
0.00524256
-0.00179887
0.00430856
2.28514e-05
0.00468835
-0.00468462
-0.00597309
-0.00838073
-0.00744121
-0.00409951
-0.00146378
0.00145924
-0.00254861
-0.00570063
0.00127365
-0.00187037
0.000495508
-0.00233688
-0.00616021
-0.00229635
-0.00123648
0.000875587
0.000315055
-0.00222908
-0.00552633
0.00356253
-0.00359493
0.000227972
0.00793632
-0.00215464
-0.00113762
-0.000673337
0.00265952
-0.00566796
-0.00111419
-0.000256265
-0.0080894
0.00175353
-0.00799247
0.000880206
0.000790281
-0.00175885
-0.0168432
-0.00444453
-0.00694709
-0.00570978
0.00152007
0.00350927
-0.00388157
0.00193037
-0.00470065
-0.00438591
-0.00597264
-0.00200264
-0.00212721
0.00324768
0.011028
-0.000624885
-0.00456935
0.00403061
0.00290841
0.00116888
-0.0028492
0.00535049
0.000189858
-0.0027455
0.00288893
0.00247735
-0.00196939
-0.000371485
-0.00237906
0.00183432
-0.00512906
0.00207106
-0.00223742
0.00108752
-0.00781179
0.00283075
-0.00107803
-0.000494314
-0.00519206
0.00554552
-0.00170358
-0.0104842
-0.0105866
-0.00240207
-0.00175205
0.00117288
-0.00743518
0.00201314
0.00499901
-0.00843678
-0.00564238
-0.00856851
0.00133937
-0.000898077
-0.000418838
-0.00517045
-0.00183271
-0.0028192
0.00266975
0.000552752
0.00419334
-0.00928372
0.000147094
0.00530429
0.000608972
-0.00301221
0.00101428
-0.00404802
-0.00150772
0.000553231
0.00207239
-0.00170031
-0.000378277
-0.00275103
0.00189844
0.00526194
-0.00404041
-0.00688459
-0.00530666
0.000142087
-0.00415507
0.00129903
0.000433063
-0.0051366
0.00163343
-0.00325429
0.00552953
-0.00572166
-0.00417096
0.00237333
-0.00118684
0.00210274
0.00143384
-0.00513402
-0.000793779
0.00238773
-0.00190105
-0.00490003
0.00286858
-0.00430931
-0.00281681
-0.00338103
-0.00723693
0.00180408
-0.0026508
0.000338094
-0.00228548
-0.00514791
0.00144442
-0.0024387
-0.00457426
-0.00184555
-0.00397894
-0.00333023
-0.00395523
-0.00555292
0.00503975
-0.00351043
-0.004297
-0.00608731
-0.00737658
-0.0050028
-0.000182141
-0.004653
0.00111371
0.000308513
-0.00852541
-0.00367005
-0.000372104
-0.000798148
-0.00520812
-0.00751057
0.000521347
-0.00187426
-0.00756524
-0.00206913
-0.00763891
-0.000109904
-0.00194798
-0.00484793
-0.00206868
-0.000535691
-0.00233901
-0.000254408
0.000145661
-0.00534149
-0.00549657
-0.000159683
0.00635601
-0.00180431
7.5657e-05
-0.00500858
-0.00635082
0.000136816
-0.00915334
-0.000320813
-0.0145699
-0.00115043
0.0045563
-0.00152457
-0.0151302
-0.00194466
0.000890096
0.00196038
-0.0029184
-0.000111125
0.0059198
-0.000306782
0.00170844
0.00337454
-0.00703366
9.99317e-05
-0.0038756
-0.00463262
0.00286206
-0.00663711
-0.000190347
-0.00405783
-0.00448739
-0.0034715
-0.010271
-0.00456106
0.000343176
0.00739914
0.000437503
0.0111074
0.00154395
-0.0028227
-0.00634325
-0.00850615
0.00321897
-0.00603513
-0.0096933
0.00119572
-0.0023979
-0.0143414
-0.00181054
-0.00217308
-0.00472756
-0.00573412
-0.00314466
-0.0051893
0.000388578
0.0023057
-0.00182224
5.97168e-06
0.000703619
-0.0066529
0.0032513
-0.00820773
-0.00177763
-0.00160016
-0.00503456
-0.00431061
-0.00104863
-0.0026349
0.0028492
0.00583811
-0.00253236
0.00200139
-0.00446354
-0.0005954
-0.00712628
0.00469553
-0.000474142
-0.000881536
-0.00473142
-0.000135536
-9.66948e-05
-0.00285377
0.000226458
-0.00826512
0.00376784
0.000829231
-0.00930463
-0.00453822
-0.000784948
-0.00514944
-0.000414046
0.00397797
-0.00282391
0.000975901
0.00819811
0.00496088
-0.00154811
-0.00289455
-0.00403376
-0.00325871
0.00328908
0.000651793
-0.00454869
0.00251853
0.00510429
-0.00705015
-0.00155516
0.0037999
-0.00189005
0.00223598
0.00230822
-0.00125649
0.00153792
-0.00707957
-0.0026946
-0.00240828
-0.00275632
-0.00124154
-0.00220583
-0.00581486
0.00349802
-0.00525806
-0.000660644
-0.00361645
-0.00364249
-0.0107882
-0.00828408
-0.000418874
0.00897539
-0.00245273
0.00174359
-0.00508592
-0.000489892
0.00312984
-0.000487679
-0.00669206
-0.00862997
0.0063795
-0.00342797
0.000270217
-0.0036216
-0.00148743
0.00148682
0.00158747
-0.00510718
-0.00268265
-0.00164276
0.00102304
-0.00608273
-0.00448496
-0.00322649
-0.00392098
-0.000495329
-0.00460499
-0.000332469
-0.00623408
-0.00373617
0.00296483
-0.0144752
-0.000508308
0.000923802
-0.00164329
-0.000522466
0.00176834
-0.000801092
-0.00886221
0.00301157
-0.00332856
0.00512016
-0.0021396
-0.00801098
-0.00360443
-0.00100012
-0.00397544
-0.00178216
-0.00403453
-0.00416924
0.00229688
-0.00106899
-0.00301486
-0.0018851
-0.00895296
0.00102093
-0.00584368
0.00402006
-0.00480196
-0.00229234
-0.00113232
0.000447878
0.000386636
-0.000915177
0.00441008
-0.00127253
-0.0101451
0.00205352
-0.00525422
-0.00779384
-0.00205143
-0.00134423
-0.00196404
0.000393806
-0.00276686
-0.00302618
-0.00434217
0.00342085
-0.00731927
-0.00879587
-0.0150782
-0.00572
-0.00612783
-0.00868892
-0.00891554
-0.00206269
-0.00243041
0.00506774
-0.00157134
-0.00107962
-0.0029051
-0.00114848
-0.00250085
-0.00146215
0.00436516
-0.00229072
-0.00223438
-0.0038591
-0.00600363
-0.00295643
-0.000392799
-0.00485258
0.00812299
-0.0025951
0.00167504
0.00426602
-0.00425726
0.00289413
-0.0070888
-0.00123333
0.00348306
0.00327765
0.00275263
-0.00195477
-0.00249683
0.00257912
-0.00827113
-0.00331038
7.44741e-05
-0.00187106
-0.00927259
-0.00312735
-0.00124798
-0.0025105
0.00412789
-0.00129793
-0.00119313
0.00101816
-0.00990157
0.00119485
-0.00430231
0.00274773
-0.00387308
0.00362513
-0.0153417
0.000757104
-0.00822796
-0.0134909
-0.0011899
7.62307e-05
0.00376216
-0.00162595
0.000326794
-0.00272013
-0.00698635
-0.00304749
-0.0028285
-0.00573701
-0.00869771
0.0017576
-0.00654257
0.00503381
-0.00742765
-0.00190624
-0.00229027
0.00258533
-0.00196681
-0.00419922
-0.00180753
-0.0090196
-7.79498e-05
-0.00280037
-0.000366367
-0.00386082
0.00461754
-0.000796479
0.00066861
0.00269462
0.00402593
0.00295536
-0.000347666
4.27282e-05
-0.00465863
-0.0023414
-0.00681404
0.0055106
0.00983752
-0.00158531
-0.0025818
-0.00920042
0.0083009
-0.00177485
0.00117853
-0.00133224
-0.00514114
-0.0014902
-0.00296315
-0.00103982
-0.00396556
-0.00528469
-0.00384867
-0.00131998
-0.00181123
0.00269504
0.00191469
-0.00611834
-0.0010233
-0.00537078
-0.00653501
-0.00550854
0.00052767
-0.00496159
-0.00956319
-0.00143564
-0.00223451
0.00482267
-0.000499401
-9.61464e-05
0.00493978
0.000583633
0.00276755
0.00332532
-0.000345931
-0.0012668
-0.00422659
-0.000709406
0.00403626
0.00132139
-0.00337819
0.00381805
0.00133436
-0.000113737
-0.00400263
-0.00639682
-0.000478213
0.000429441
0.0005551
0.00271176
-0.00224913
-0.00656952
0.00468033
0.0044275
0.00252505
-0.000915633
0.000244929
-0.000861308
-0.00393938
0.0020746
-0.00178078
-0.00466263
0.000806381
0.00880959
-0.00395243
0.00132749
-0.00281661
0.0011896
0.00104992
0.00207243
-0.00087292
0.000201952
-0.00215758
0.0103013
0.00258497
0.00528041
-0.00303328
-0.000977959
0.00167065
0.00213071
0.00317309
-6.55383e-07
-0.00339418
-0.00179402
0.00707361
0.00156461
-0.00169955
0.00150974
-0.00549779
-0.00679307
0.0026324
0.000277713
-0.00087342
0.0060046
-0.00197875
-0.00888077
0.00465121
0.00662232
0.00620923
-0.00186211
0.00235297
0.00204113
-0.00200345
0.00722157
0.0033072
0.00254913
-0.00415411
-0.00447865
-0.00113681
0.000984157
0.00541569
-0.000266988
-0.00228405
-0.000940821
-0.00194398
0.00473769
-0.00143
0.00117653
-0.000860179
-0.000431253
-0.00273585
0.00453723
-0.00119167
-0.000603613
0.000802985
0.00181417
-0.00146748
-0.00252707
-0.00314864
0.00309941
0.00694606
-0.000595438
0.00254888
0.00401062
0.00261893
0.00240325
0.00272636
0.00381958
0.00171285
0.00113475
-0.00281554
0.0063221
0.000352141
0.00241294
0.00109191
2.15595e-05
0.00122191
-0.00466207
-0.00407984
0.000614795
-0.00483183
-0.00191881
0.00179262
-0.00198445
-0.00216676
0.00619087
-0.000966361
0.00437522
0.00327941
-0.00148938
0.00539314
-0.00318581
-0.00762288
0.00228565
0.00348278
0.00171147
0.0052784
0.00112325
0.00331856
-0.00891577
0.00245758
0.00173452
0.000552455
-0.00809252
-0.000173407
0.00190723
0.00579784
-0.00370485
-0.00203168
-0.000271933
0.000386777
0.00875939
0.00078493
0.00102739
0.00149689
0.00164526
0.0035304
-0.00289003
-0.00208462
0.00297809
0.00143064
-0.00104326
0.000334308
-0.00438707
0.00241704
-0.00118316
-0.00118853
0.00300508
-0.00626886
-0.00292892
0.00366715
0.00170159
-0.000142874
-0.00520523
-0.00194008
0.00326691
0.00298712
-0.00133588
-0.011128
0.00320368
2.16386e-05
0.00566823
0.00307971
0.00391117
-9.62588e-05
-0.00101535
0.00145854
0.00381263
-0.00119245
0.00459532
0.00281708
0.00570735
0.00541521
0.00228455
0.00535962
-0.00059662
-0.00319669
-0.00367228
0.00370851
0.00522993
0.00375666
-0.000998829
0.000635739
-0.00447099
0.00209291
-0.00101218
0.0012297
-0.00212146
0.00231567
0.000296802
-5.03141e-06
-0.00819304
-0.00143223
-0.000736634
0.00588496
-0.00662054
0.00277827
-0.00869841
-0.00256687
0.00514166
-0.00637751
-0.00404868
-0.00102725
-0.000560501
0.000240586
0.0074636
0.00382946
-0.000250205
-0.00483434
-0.00221187
-0.00268809
-0.000748076
0.00546508
-0.00208887
0.000474408
-0.0016616
-0.00103874
-0.00484637
0.00265422
0.000333366
-0.00821539
-0.00558726
-0.000614772
0.0041752
-0.0043627
0.00209514
-0.0001487
0.00157011
-0.00287587
0.0041373
0.00170445
0.00740938
0.0017174
-0.00485639
-0.00460589
0.000665852
0.00431409
0.00485286
-0.00108857
-0.00097831
0.00121841
-0.00210746
0.00374055
0.000237197
0.00250615
0.00149521
0.000566048
0.00240064
0.0134569
-0.000378477
-0.0046178
0.00180628
-0.000590909
0.00654642
-0.0013701
-0.00346646
-0.00507408
-0.00130591
0.00148548
-0.00476147
-0.00136637
0.00349428
0.00194492
0.000987632
-0.00199988
-0.00178462
0.000849148
0.00630462
-1.2102e-05
0.00151276
0.00311955
0.00944426
0.00220993
0.00213773
0.00208931
-0.00338759
0.00329102
-0.00159016
-0.00357179
0.00235319
0.00305798
-0.00206578
0.00522988
0.00583047
-0.000718466
-8.56087e-05
-0.00402473
-0.00443037
-0.00188494
-0.00238558
0.00432156
0.0025827
0.00812894
-0.00291059
0.00275135
-0.00295385
-0.0073142
0.00214535
0.00156724
0.0010417
-0.00054879
-0.000290417
-0.00147623
-0.000659326
-0.00237682
-0.00240309
0.00366459
0.000343919
-0.00792428
-0.00171805
-0.000459386
-0.000962926
-0.00214873
-0.000908756
-0.00169219
0.00318238
-0.0116905
0.00381036
-0.00301859
0.00129732
0.00528001
-0.00203332
0.00315955
-0.0031469
0.00502148
0.00159523
0.00564714
-0.00283536
0.00247878
0.0018196
0.000387092
-0.00628516
0.00263117
0.00117946
0.000183129
0.0013929
0.00127491
-0.00322427
-0.00220945
0.000506017
-0.00534234
0.000230807
-0.00111241
-0.00178102
-0.0025502
-0.0020027
0.0029155
0.00229819
-0.00233342
-0.00286606
-0.00408852
-0.00234034
0.00106949
-0.000607766
-0.00560687
-0.00121068
0.00291558
-0.00203273
0.00198278
0.00323179
0.0018976
-0.00350945
-0.00244989
-0.00259129
0.00641509
0.00466163
0.00381242
-0.00469654
0.00189174
-0.00204766
-0.00231197
-0.00123567
-0.000963568
-0.00059108
-0.00020915
-0.00830894
-0.00139226
0.00356023
-0.00135048
-0.00267485
-0.00394453
-0.00335092
0.00211423
5.76991e-06
-0.00274798
-0.000566648
-0.00102161
-0.00114025
-0.00173907
-0.00518368
0.00450031
0.0070425
0.00231392
0.0039804
0.00265841
0.0022439
-0.00817801
-0.00157032
-0.00113985
0.000279681
0.0014524
-0.00127942
-0.00637147
0.00381049
0.00565377
0.00518798
0.000692504
-0.000951322
0.00302479
-0.001376
-0.00275671
-0.00301572
0.00338217
-0.00315643
2.74732e-05
0.000784214
-0.00628141
-0.00430629
-0.00706358
0.000810183
0.00342366
-0.00106026
-0.00615568
-0.00832996
0.000433851
0.000111606
0.00240744
-0.00249533
0.00733787
-0.00501532
-0.00991846
-0.00573614
0.00274879
-0.00238156
-0.00371927
-0.00682213
-0.00284103
0.00169223
-0.000404695
0.00440758
-0.00462946
0.00355437
0.00242632
0.00287503
-0.0020686
-0.00118139
0.00451144
-0.00187503
-0.00905507
0.00448814
-0.00258941
-0.00351094
0.000800885
0.00516753
-0.0040058
0.000834915
0.00262798
-0.00461328
-0.000867195
0.00405012
0.0021983
0.00313594
-0.00510685
0.00103893
-0.00280374
-0.0152971
0.00209724
-0.00113692
-0.00444451
-0.000771399
-0.00633355
0.0040841
-0.00389959
-0.00129978
-0.000628103
0.000549459
-0.000267762
0.0015538
0.00215541
-0.000839578
-0.000416757
0.000120162
-0.0044857
-0.011766
-0.00636236
-0.0150429
-0.00334409
-0.000138257
-0.00297928
-0.00214267
0.00686686
0.0076912
0.00547067
0.00208484
-0.00820073
0.0117643
0.00401085
-0.003404
0.00196754
0.00573252
-0.00316237
0.00323822
-0.0064841
-0.000906139
-0.00371576
-0.00261543
-0.000512832
-0.00850434
-0.000421058
-0.000488129
0.000150909
0.00325277
-0.00615291
0.00119592
0.00180249
0.00146333
-0.00124936
0.00567704
-0.00679788
-0.00455269
-0.00542297
0.00421789
0.0054043
-7.49648e-05
0.00336347
0.00152422
0.000951606
-0.0020167
-0.00187757
-0.00269721
-0.00441401
-0.00273969
-0.000397096
-0.00344228
0.00452451
-0.00426593
0.00345858
0.00241019
0.00102669
0.00275644
-0.00135997
-0.000804758
0.0028644
-0.000591712
-0.00439739
0.0027377
0.00571953
0.00167895
-0.00313902
-0.00117342
0.00353579
-0.00568282
-0.00278034
0.001063
-0.00278643
0.000952017
-0.00458793
-0.0022413
-0.000728421
-0.00538754
0.00540702
-0.0046654
-0.00224106
-0.00495561
-0.000944809
0.00455849
-0.00344576
0.0068252
0.000611078
0.00245639
-0.00399513
0.00112677
-0.00303972
-0.00543689
-0.00194136
-0.00274689
-0.00422633
-0.00322063
-0.00620961
-0.00226549
0.00524845
-0.0036057
-0.00292713
-0.000899998
0.00287598
-0.00155244
-0.00348137
-0.00205181
0.000696093
0.00247819
0.00404453
-0.0039037
-0.00030314
-0.00194998
-0.00551138
0.0019949
-0.00599962
-0.000396997
0.00138686
-0.00970505
-0.00496094
-0.00372922
-0.00486784
-0.00131967
-0.00112588
-0.00408877
-0.00158394
0.00699244
-0.00180662
-0.00306559
0.00188683
-0.00857314
0.00063258
-0.0047039
-0.00140806
0.00186858
-0.00251131
-0.00385668
0.00532011
-0.00583145
-0.00326176
0.00364551
-0.00155116
0.00385314
-0.00132051
-0.00618531
-0.00343105
-0.00399572
-0.000466531
-0.00113955
-0.00494361
-0.00177561
-0.00591845
0.00315667
0.000926533
-0.00134048
-0.00033213
-0.00245713
-0.00139332
8.10786e-05
0.00423128
0.00266519
0.000656162
0.00169375
0.00315718
-3.14587e-05
0.00782566
-0.0125062
0.00249867
0.0111231
0.00074559
-0.00123496
-0.00222593
0.000481673
-0.000564038
-0.000743046
-0.00250441
0.0104697
-0.00163139
0.00855984
-0.00657164
-0.00176925
0.00211033
-0.00351152
-0.0026273
-0.000100936
-0.00285327
0.000233116
0.00283732
0.00310682
0.00108769
0.00724427
-0.00369839
0.00909984
0.00131505
-0.000429192
0.000223925
0.00282863
0.00552191
0.00721539
-0.00149306
-0.00637675
0.00143628
-0.00142367
-0.00109798
0.00243697
0.00388915
-0.00159242
0.00409229
0.002244
0.00115896
0.000509015
-0.00331821
-0.00204481
-0.000580388
0.00187003
0.00234406
-0.00435299
-0.00100299
0.00120908
0.00553731
0.00104383
0.00454027
0.00342047
-0.00408807
0.00757513
0.00225802
0.0075385
-0.000169783
-0.00325981
-0.00296364
0.000609154
-0.000257939
0.000963439
-0.00130056
0.00527963
-0.00305277
0.000307783
-0.00231603
0.000205274
-4.19833e-05
-0.000686041
-0.00330143
-0.0014413
-0.000688604
-0.00856618
0.00371846
0.00188937
-0.00633999
0.00732644
-0.00756118
0.00443079
-0.00462913
-0.00137807
0.00261851
-0.00327533
-0.00809169
-0.00592191
0.00972457
-0.00248671
-0.00166443
-0.00165675
-0.00569438
7.19659e-05
0.000546454
0.0119563
-0.00400705
-0.000829858
0.00269909
0.00297691
0.00114472
0.000220522
0.00162546
0.00198045
-0.00211665
-0.00198493
0.00860575
-0.00165896
0.000675059
0.00488477
-0.000921982
-0.000415968
-0.00361338
0.000782266
0.00568403
0.00557522
0.00151151
0.00229758
0.000771703
0.00502744
-0.00114023
0.0107601
0.00763098
-0.00235548
-0.00279033
-0.00314259
0.000927602
-0.00178024
-0.00229296
1.15865e-05
-0.00360186
-0.00245702
-0.0031123
0.00252231
-0.00143221
0.00729112
-0.000663482
-0.00168674
-0.000168682
0.000582447
-0.00646493
0.00233647
0.00354572
0.000891943
0.00188754
-5.10981e-05
0.000312885
0.000557083
-0.00447789
0.00329547
0.00192015
-0.00243115
-0.00261796
0.000555917
0.00539085
0.00364327
0.000609832
-0.00205104
0.00451392
-0.00314755
-0.00135791
-0.00186536
-0.00153402
-0.00567264
0.0124282
0.00202828
0.000873435
0.00297696
0.00125219
0.00192672
-0.000489582
-0.00234816
0.000878154
0.00361446
0.00433893
9.15612e-05
-0.000321036
-0.00404262
-0.00547622
0.00221464
0.00132318
-0.00055665
0.000229359
0.00257913
0.00513444
0.00158456
-0.00900907
0.00352778
0.00735706
3.93879e-05
-0.00757199
-0.000363179
-0.0050582
0.000901357
0.00510466
0.00223535
-0.0053582
-0.00146453
0.00342654
-0.0108269
0.00656495
0.00791728
-0.00382911
-0.00274582
-0.00440764
0.00126866
0.00179733
0.00431819
0.00125665
7.3676e-05
0.00319152
-0.00178057
0.00288008
0.00502197
-0.00337179
0.00730103
-0.00261087
0.00333995
0.00513677
-0.00170255
-0.00172573
0.0020806
-0.00189967
0.00269392
0.000194138
0.00178975
-0.00164406
-0.00101846
0.00219787
-0.00215153
0.00508216
0.00272135
-0.00518457
0.00412693
-0.00196299
0.00518108
0.00397995
0.0048257
0.000973968
0.00272025
-0.00171943
-0.00145756
0.00686652
0.0015291
-0.000473857
0.00312757
-0.00275459
0.00382491
0.00250025
-0.00191763
-0.00265214
-0.00216471
-0.00290273
0.00364909
0.00413201
0.00220588
0.000605155
-0.000352331
0.00166387
-0.00180418
-0.00156414
0.00342354
-0.00521677
-0.000301079
-0.0051278
0.00199638
-0.000529883
-0.000819394
0.0049428
-0.00273905
-0.00383215
0.0037792
0.00104326
-0.00520835
-0.00165794
0.00298637
0.000726251
-0.000750203
-0.00351804
-0.0124246
-0.00871148
-0.00186541
-0.00154382
-0.000935376
0.00405337
0.00412252
0.00432712
0.00850009
0.0111763
0.00338362
0.00360908
-0.0105665
-0.00519985
0.00251089
0.00602856
-0.00181971
0.00389303
0.00133937
-0.00306027
-0.0019503
-0.00201056
-0.000180946
-0.00711187
-0.00165129
-0.00183295
0.00176348
-0.0002137
-0.00495844
0.00050533
0.00797114
-0.00301825
-0.00969498
-0.00487732
0.00464825
-0.00218605
-0.00026048
0.00253308
0.00297973
0.0021152
0.00414976
0.00228252
0.00475302
-0.000192319
-0.00320374
4.10304e-05
0.010947
0.00336506
-0.00537988
0.00409671
0.00518946
-0.00123009
-0.00616119
0.00188338
0.00275643
0.012931
-0.00420231
0.00315584
-0.000476699
0.00410298
0.00405754
0.00566338
0.00476887
-0.00168742
-0.000232762
0.00536895
-0.00364421
0.0012261
-0.00262983
-0.00273671
-0.00154918
-0.000871991
-0.00136586
0.00160558
0.00031498
0.00027694
0.00112431
0.00281975
-0.00786793
0.00143368
-0.000968231
0.0023255
0.00293152
-0.0059496
-0.000453616
0.00131827
-0.00456675
0.00458536
-0.000266119
0.00483787
0.00292188
-0.00162202
0.000880497
-0.0077389
0.00175236
-0.00429223
-0.00290759
-0.0017464
0.00438071
-0.00173911
-0.00565264
0.00140397
-0.0034514
0.00291663
-0.00295782
0.00193027
0.0042713
-0.00345808
-0.00253453
0.00184062
0.00145507
-0.004409
5.57699e-05
-0.00518961
-0.00640328
0.0027069
-0.00164275
-0.00122439
0.00338704
0.000839089
1.47399e-05
0.00646614
-0.000141165
-0.000926276
0.000608473
0.00284241
0.000412072
-0.00723171
-0.00190315
-0.00399824
-0.00140798
0.00447205
0.0132762
0.00222796
-0.00530302
-0.00206591
0.00237945
0.00298539
-0.00463412
0.000629811
0.00415117
-0.000238953
-0.00313887
0.00442647
0.00224418
-0.000842194
0.00798713
-0.000421184
-0.00443469
0.000827179
0.00403774
0.000625745
-0.00181071
-0.00122409
-0.00460535
0.000758363
-0.00172447
-0.00177343
-0.00028656
-0.00332595
-0.00413351
0.000949765
-0.00097082
-0.0110924
-0.000583758
-0.00210928
-0.00370886
-0.00300585
-0.00036865
-0.00874732
0.00209991
-0.00251913
-0.00171439
0.00184413
-0.000878657
-0.00222109
-0.00760945
0.00924632
-0.000812502
-0.000449713
0.00530751
0.000509569
-0.000706946
0.00740573
0.00123726
-0.000596272
0.00303015
0.00136903
0.00260331
-0.000329708
-0.00290691
-0.00162882
0.000855963
0.000478104
0.00418004
-0.00315207
0.00278385
-0.00437053
-0.00039773
0.000104841
-0.00371577
0.000930904
0.00241137
-0.00342155
-0.000155342
-0.00119301
-0.000841565
-0.00256563
4.51628e-05
-0.00274107
0.000307427
-0.00336184
-0.00074035
-0.00196718
-0.00316365
-0.00139405
0.00286074
0.0073092
-0.000483937
0.00587738
-0.00360855
-0.0126516
0.00661065
0.00128248
-0.00266011
0.00161539
-0.00203593
-0.00151796
-0.00179044
-0.00199078
-0.00505941
-0.000755099
-0.00473814
-0.00300116
-0.00342305
0.000153632
-0.0015715
0.00462999
0.0061389
-0.00148292
0.000902094
-0.001837
0.000761257
0.00766748
-0.00116825
-0.0020798
-0.0108855
-0.00764557
0.00319145
-0.00252773
-0.00725191
-0.000678395
0.000810821
-0.00313632
1.20532e-05
0.00646796
-0.00479553
-0.00197385
0.000750352
-0.00128829
0.00335847
0.00053319
-0.00212307
0.0005313
0.0048529
0.00249365
0.00324979
0.00938047
0.00363082
-0.00894826
-0.00247546
-0.00540794
0.00267763
0.00276103
-0.00748968
0.00510978
-0.00240045
0.00278043
-0.00249378
-0.00398335
0.0110711
-0.0025518
-0.00249029
0.000485931
-0.000304364
-0.00525797
0.00274982
0.00453396
0.00260462
-0.00716526
-0.00356856
-0.00813419
0.00212611
0.00482012
-0.00115103
-0.00825627
0.000965209
0.00396746
0.00147839
0.00467886
-0.00205573
-0.00253441
-0.0018622
0.0031951
0.00496057
-0.00027508
-0.00486343
0.00528204
-0.00283487
0.00561629
-0.000767378
0.00520514
-0.00107192
0.000495462
-0.000280429
0.00163252
-0.00259381
-0.000959547
-0.00452081
-0.000591837
0.000151412
-0.000299964
0.00265242
-0.00323329
-0.0122318
-0.00205297
-0.00131059
0.00154683
-0.00132718
-0.00548553
-0.00179059
-0.00573376
0.00059394
-0.0065622
0.00793652
-0.00994487
-0.0056042
-0.00149306
0.00172343
0.00105565
-0.00272925
0.00153677
-0.00259479
-0.00809165
-0.00702713
0.0121742
0.00200023
-0.00891681
-0.00546142
0.00264306
0.000336312
-0.00358563
-0.00275948
-0.000547682
0.000181929
-0.000765987
0.00481018
-0.00160091
-0.00115216
0.0100775
-0.00741973
-0.00570209
0.000383221
0.00519905
-0.00263717
-0.0021611
0.000700232
-0.000106824
-0.00204176
-0.00164262
0.00102569
-0.010904
0.00455789
0.00281737
-0.00799477
-0.00129072
0.000810533
-0.00476916
0.00188776
-0.000509735
-0.00561728
-0.000930833
-0.00645347
0.00270087
-0.000234148
0.000749217
0.00490557
0.0045151
0.00135039
-0.00224366
-6.29319e-05
0.000741085
0.00500372
-0.00317223
-0.00101324
-0.00298255
-0.00343943
0.000878356
-0.000374715
0.00845509
0.00275194
0.000211376
-0.00161068
0.00651355
0.00613494
0.00644428
-0.000453314
-0.00302226
0.0129853
-0.00337609
0.00272188
-0.00598341
0.00738962
-0.00388135
0.014765
-0.000206444
0.000776108
0.00524288
-0.00488209
-0.00774045
0.00438396
0.00240134
0.00996661
0.00175756
-0.00121669
0.000836351
-0.00663953
-0.00376342
0.00195862
-0.00255427
-0.00538643
-0.000949642
0.00738523
-0.00260096
0.00338448
0.00495587
0.00352627
0.000926149
-0.00179755
0.00126204
0.00619637
-0.00581064
0.0010722
-0.00591907
0.000478826
-0.000899635
-0.00242147
-0.000109774
-0.000626716
0.00229865
-0.00793403
0.00722912
-0.0014482
-0.00357088
-0.00148132
-0.00193893
0.00049454
-0.00295474
0.000911264
-0.00514916
-0.000263212
-0.00338095
-0.00497777
-0.00576705
-0.0014343
0.0066978
-0.00252258
-0.000168557
-0.00076194
-0.00317241
-0.000236458
-0.000650455
0.00242912
0.000578384
-0.00214313
0.00776353
-0.000287921
-0.00251878
-0.00229171
0.00695254
-0.00185422
-0.00477361
-0.000296026
0.000942974
0.000824494
-0.00303322
-0.00273542
0.000611786
-0.00599607
-0.00396854
-0.00399654
0.00154458
0.00156495
-0.00452918
-0.000428263
-0.0161627
-0.00088603
-0.00228403
-0.00344267
-0.00567643
-0.00120304
0.00390448
-0.00205642
0.00020723
-0.00740023
-0.000956804
-0.00246847
0.0049025
0.0024838
-0.0027226
-0.000207462
-0.0012327
0.000159864
0.00217692
0.000250132
-0.0065623
-0.005827
0.0125744
-0.00850661
-0.00448786
-0.00352119
0.000395151
0.00145779
0.00961643
0.00287923
-0.00463411
-0.0055216
0.00211422
0.00635055
-0.000692536
0.00271888
-0.000723696
-0.00188328
-0.00379583
-0.00614418
-0.00853928
-0.00172826
0.000574016
-0.00305628
0.00456543
0.000998319
8.3892e-05
0.0062951
7.4712e-05
-0.00115802
-0.00600608
0.00214223
-0.00108929
-0.0120399
-0.00765267
0.000161006
-0.000815213
0.0053287
0.000317359
-0.000297372
4.89667e-05
0.00490324
-0.000993731
-0.000769607
-0.00193653
0.0034924
0.00160413
-0.00281513
-0.00676954
-0.000852933
0.00398416
0.00177538
0.00187791
0.00127256
0.000812588
-0.0109408
-0.00178474
0.00224038
-0.00385186
0.00260315
-0.00237589
-0.000739838
0.00376803
-0.00194604
-0.0115443
-0.0063219
-0.00077249
-0.00284623
0.00498135
0.00140487
-0.00134965
0.00422879
0.00178361
0.000967665
0.00672423
-0.000183745
0.0015738
-0.00145573
-0.00317726
-0.00105884
-0.000187054
-0.00117634
0.000848827
0.00178739
-0.00489294
0.000855418
-0.00209817
0.00271891
-0.000817234
-0.00524286
-0.00211512
-0.0060942
0.00119059
0.0027898
-0.000686106
-0.00467572
0.00219745
0.00708814
-6.88918e-05
0.000672094
0.0037827
0.000410358
-0.00384699
0.00203472
0.00555338
0.00458814
0.00504614
0.00559147
0.00037073
-0.000677242
-0.00119275
0.00398427
0.00524685
0.00919672
-0.00401201
-0.00164969
0.00919112
-0.00343076
0.00132517
-0.00632317
-9.97495e-05
0.00423648
0.00281202
-0.00287768
-0.00034803
-0.00594263
0.000937983
-0.0017027
-0.00279874
-0.00267164
-0.00271077
-0.000729278
0.00251762
-0.00428856
0.00235608
-0.00422203
0.000376212
0.00096143
-0.0062513
0.00137629
-0.00745133
-0.000191353
0.00242261
0.00877706
-0.000565243
-0.00072491
-0.00298467
-0.00732498
0.000974459
-0.000856557
-0.00577812
0.00508779
0.00240754
-0.00150453
0.00281241
-0.00334856
-0.00348375
-0.00972414
-0.00229299
0.00123809
0.00613238
-0.00067864
-0.000950208
-0.00326259
0.00205392
-0.0042216
-0.00807664
-0.000101579
-0.00173403
0.00380293
-0.0116004
0.00619847
-0.00275418
-0.00939337
-0.000858532
0.00501008
-0.00395034
0.00418246
-0.000790037
-0.00114223
-0.00625267
-0.00178391
-0.0030918
0.00370961
-0.008694
0.00402867
0.00461112
0.00527532
-0.00263937
-0.00294265
-0.00264354
-0.00101662
0.00308043
-0.00195079
0.00173893
0.00466444
0.00313632
0.00418337
-0.00437827
0.00357265
0.000495434
-0.00531203
-0.00614531
0.00452521
0.00209681
0.00679814
-0.00149884
0.00228334
-0.000474701
-0.00255958
-0.00589881
0.00151593
0.00593106
0.00276503
0.00220935
-0.00606987
0.00305714
-0.00114218
-0.00129162
-0.000422186
0.00695248
0.00171047
-0.00592183
0.0017913
0.00537808
0.00605774
0.00827759
-0.00183881
-0.00460113
-0.0036211
0.00263605
0.0031748
4.1244e-05
-0.0052913
-0.000151543
-0.00133231
-0.000353042
-0.00102501
0.000804579
-0.000964033
-0.0056857
-0.00302022
0.00794436
-0.00159582
-5.21074e-05
-0.00245451
0.00741483
-0.000618124
-0.00154817
-0.00428124
0.00377626
-0.00128924
0.00216439
0.000381288
-0.0052779
0.00490592
-0.00452255
0.00541375
0.000448454
0.0105392
-0.00536086
-0.00648145
0.00123543
0.00640737
-0.00501538
0.00372262
5.8074e-05
-0.00318402
-0.00143188
-0.00148568
-0.00355857
-0.000735791
-0.00413604
0.00634525
-0.00349981
0.00390256
-0.00191199
-0.00592016
0.00222938
0.00211283
-0.000688932
-0.00261774
-0.00265998
0.00444046
0.00517031
0.00977389
0.00569579
0.000374499
0.00380171
0.00112415
-0.00143926
-0.00153588
0.00506454
-0.00408739
-0.000117211
2.94086e-05
0.00242259
0.00155705
-9.91574e-05
0.00135631
-0.00686385
0.000553848
-0.0023106
0.000921734
0.00223121
-0.00227209
-0.0043907
-0.00370013
-0.00246014
0.00566203
-0.00341962
-0.00195352
-0.000143104
-0.00520364
0.0021902
0.000225868
-0.000767282
-0.00641315
0.00287325
-0.00421538
0.00376217
0.00357621
0.00191769
-0.00373643
0.00108505
-0.00151348
0.00106866
0.00181607
-0.00736547
0.0023994
-0.00523657
0.00424488
0.000663671
-0.00231082
0.00247372
-0.00456094
0.000405785
-0.00204279
-0.00152926
-0.00457039
-0.0039106
0.00166217
0.00146163
0.000163921
-0.00195774
-0.000747357
-0.00219654
0.000339511
-0.00890818
-0.00147546
-0.00207429
9.4604e-05
-0.0034031
0.00120984
-0.00552746
-0.0016716
0.00658986
-0.0132073
0.00348138
-0.00325622
-0.0103668
-0.00881864
-0.000373358
0.00534487
0.00485477
-0.00022436
-0.000221169
0.00114778
0.0104261
-0.00331459
0.00983773
0.00633232
-0.00553846
0.000201007
0.00045
0.00310323
0.00119952
-0.00420837
0.00164956
-0.00411563
-0.00522912
0.00410147
0.00201187
0.00232748
-0.00152578
0.00296856
0.000737204
-0.0020464
-0.00109333
-0.0018998
-0.00532055
0.00228986
-0.00492403
0.00394966
0.00633385
0.00854555
0.00216783
-0.00299172
-0.00400623
-0.00177666
-0.00146305
0.0033739
-0.00201288
0.000431013
-0.00727808
-0.00791919
-0.0077931
-0.0012681
0.00144049
-0.00352114
-0.00193814
-0.00120461
0.00206749
-5.04313e-05
0.00590804
-0.00169671
0.00686335
-0.00152016
-0.0044157
0.0010676
0.00563512
0.000150316
0.00541327
-0.000716275
-0.00395542
0.000105228
-0.00242173
0.000743092
-0.00278691
-0.00234565
-0.001925
-0.00378945
0.000642625
0.00557285
0.000231751
-0.0052451
-0.000836401
-0.00317662
0.000111223
-0.00376073
-0.0113063
-0.0014381
-0.0025603
0.00627647
-0.000770577
0.00815506
-0.0126515
0.0012268
0.00696575
0.00807267
0.000300928
0.000700991
0.000610995
-0.004749
0.00686845
-0.00591573
-0.000333592
-0.00320694
0.000671178
0.0209171
-0.00155193
0.00275481
-0.00264485
0.00321142
-0.00825889
-0.00783999
-0.00336386
-0.000799551
-0.00541094
-0.00173983
0.00268357
0.00659606
-0.0054605
-0.00247727
-0.0026435
0.000150384
-0.0012924
-0.00136259
0.00395574
-0.00402955
-1.02679e-05
-0.00538079
0.00382092
-0.00338906
-0.00207774
-0.00189416
0.00248531
-0.00218632
0.0107026
-0.000843374
-0.00391749
-0.00164462
0.0036871
0.00796523
-0.00422777
-0.00407859
-0.00368647
-0.000932078
-0.00679769
3.13972e-05
-0.00256402
0.000549772
0.000901802
-0.0049787
0.00653058
-0.00050053
0.00240135
-0.00309377
-0.00641622
-0.00501978
0.00195382
1.33039e-05
-0.00782558
0.000947645
-0.00602952
-0.00152657
-0.00251945
-0.00247764
0.00307052
-0.00309697
0.00408
0.00302235
-0.00215167
-0.00342681
0.00346291
0.000568111
-0.00617052
-0.00255309
-0.00190177
0.00133615
-0.00144633
0.00139257
0.00805924
-0.0022045
0.000334131
0.00135619
-0.00528113
-6.77879e-05
0.00329888
-0.00157817
-0.000275576
0.000823213
-0.000496224
0.000197797
-0.000473593
0.0109995
0.00119182
-0.000680407
-0.00474921
0.00271792
0.00391818
-0.000444271
-0.00289163
-0.00185969
-0.002445
0.00383677
-0.00208388
0.000191078
0.00135367
0.00127491
0.00412729
0.00112011
0.00355454
-0.00118702
0.00173027
-0.0119817
0.00370428
0.00108127
0.000298732
0.000881475
-0.00161087
-0.00398902
0.00313893
0.000119803
-0.00611256
-0.000907862
0.00361406
-0.00378776
-0.00800238
-0.00274818
-0.00659775
-0.00283863
0.00340428
-0.0113703
-0.00300106
-0.00735187
-0.00430531
0.00605768
-0.0019724
-0.00393634
-0.00702855
-0.00231175
-0.00206468
-0.00405354
0.00150799
0.00293634
0.00622503
0.00172126
0.00157356
0.00650268
0.00588765
-0.000324649
-0.0110613
-0.00465414
0.00157229
-0.00121088
0.00667589
-4.75657e-05
-0.00205056
0.00166827
0.00325174
-0.00273964
-0.00677915
-0.000861207
0.00136823
0.004979
-0.000596028
-0.000302982
0.000512218
0.00571183
-0.00659905
-0.00351326
0.000704413
-0.00206784
-0.000983977
0.00885967
0.000868571
0.00399735
-0.00540974
-0.0028709
0.00420717
-0.00512531
-0.00468266
-0.00865356
-0.00412704
-0.000687189
-0.004869
-0.00188841
0.00305953
-0.00292166
0.00182065
0.000172193
0.00122867
0.00546604
0.00434103
0.00280529
-0.00163823
0.00497829
-0.00274323
0.00465799
-0.00624939
-0.00897722
-0.00498311
-0.00712489
-0.00388899
-0.00509965
0.00327105
-0.000687232
-0.00637803
-0.00218966
0.000222742
0.00304504
-0.00172398
-3.39262e-05
-0.00514066
-0.000680631
0.00146983
0.00764651
