0.00368836
0.000584221
0.00757243
0.000403037
-0.00203521
-0.00218997
0.00130578
-0.00134832
-0.00187536
-0.00250699
-0.00282802
-0.00197487
-3.38214e-05
0.00011563
-0.000462161
0.000917761
0.00517632
6.53468e-05
-0.00066382
-0.00155743
0.00532871
-0.00400662
-0.000671203
-0.00746639
0.000127253
0.00602711
-0.00133332
-0.00203857
-0.00166213
0.00111556
-0.00183659
-0.00469325
0.0032616
0.000652974
-0.00123196
0.00170529
-0.00051661
0.000585445
6.68681e-05
-0.000130431
-0.000684844
-0.00659662
0.002023
0.00242222
-0.000403354
-0.00179095
-0.00466028
0.000748955
0.00188286
-0.00697545
0.000923935
-0.00243758
0.00186848
1.80912e-05
-0.0039905
0.000414188
-0.00145567
-0.000998299
-0.00043894
0.00144714
-0.00177318
-0.00269564
0.0025961
0.000449972
0.00132962
0.000712307
0.000366952
0.000379585
-0.000268491
0.00033352
-0.00123918
0.00156618
-0.000536174
-0.00290161
-0.00142776
0.00238395
0.00146328
0.00529085
-0.0012458
0.00243362
-0.00391549
-2.28431e-05
0.00222564
0.00429886
0.000152339
0.00325177
-0.00165836
0.00109335
0.00359217
-0.000979582
-0.00350103
0.0022542
-0.000708516
-0.000884017
0.00474569
0.00319739
-0.00208008
0.00453018
7.69453e-05
-0.00278666
-0.00426446
0.00138484
-0.00191595
0.00364642
-0.000623957
-0.000423551
0.00260686
-0.00415818
-0.00181024
0.000375242
-0.00111701
-0.00167284
-0.00273302
0.000692489
0.00250417
0.00244341
0.00215885
2.43343e-05
0.00138047
-0.00197419
0.000480423
-0.00110303
-0.000590745
-0.00100876
-0.00101752
0.000998904
-0.0016686
0.00648042
-0.000310878
9.92725e-05
-0.00214354
-0.00126905
0.00443949
-0.00258181
0.000237199
-0.00329415
-0.00374145
0.000319266
0.000299529
-0.00385291
-0.000842787
0.00316318
0.00179714
-0.00154169
0.00324802
-0.00018419
-0.00023335
-0.000940224
-0.000888849
-0.0012043
-0.00109668
-0.00287158
0.000811601
-0.00279032
0.000367013
0.00259179
-0.00303953
-5.62735e-06
0.00689577
-0.00231801
-0.0047437
-0.0010842
-0.00227371
-0.00354339
0.00251176
-0.000169937
0.00186569
0.000436049
-0.000322741
-0.00184203
0.0045702
-0.00191582
0.00882232
0.00829461
-2.77458e-05
-0.00120803
0.00072096
0.000570206
0.00858759
-0.000348622
-0.000422688
0.000256574
0.00483135
-0.000966273
0.000700082
-0.000333631
0.000463304
-0.000384788
-0.00012332
-0.000857609
0.00336217
-0.00216728
0.00235743
0.00112695
-0.00537267
-0.0012929
-0.00184197
-8.17983e-05
0.00184295
-0.00193336
0.000672909
0.00665341
-0.000890433
-0.00132766
-0.000770573
-0.00167988
-0.00095676
0.000549674
-0.000115656
8.91195e-05
0.00116292
0.00200238
-0.00285593
-0.000957219
0.000456252
0.00027493
-0.00137235
0.00163795
0.00582087
0.00195157
-0.0019095
0.0043555
-0.000639649
0.00373442
0.000134641
0.00221447
-0.000319872
-0.0074504
0.00314317
-0.00335617
-0.00281628
-0.00127826
0.000367212
0.000692345
-0.000588524
-0.000424634
0.00154877
0.000959422
0.000255962
-0.00106407
0.000759168
0.00207029
-0.00626355
0.00254794
-0.00186097
0.000909964
0.000162444
-0.00365026
0.00287654
0.00178567
0.000426806
0.00580422
0.00231108
-0.00383696
-0.00239001
0.00273138
-0.000332578
-0.000429564
0.00440405
-0.00328912
-0.000305603
3.46455e-06
-0.000639722
-0.00209662
-0.00246714
8.90922e-06
-0.00293054
0.00011421
-0.00113752
-0.00318742
-0.0023788
-0.0012957
0.00159891
-0.00118765
-0.00129247
-0.00152039
8.71936e-05
-0.00139018
-0.0018978
0.000271641
0.00599859
0.00354245
-0.000218075
0.000415316
-0.008178
-0.00236558
-0.00669185
-0.00125768
0.000701738
0.00217799
0.00410297
-0.00106621
-0.000781579
0.000756366
0.00161257
-8.40471e-05
-0.00121139
0.00213897
-0.000524643
0.0011989
-0.00131458
0.000416782
-0.00181654
0.00154122
-0.00132014
0.00212729
0.0040581
-0.000402553
-0.00116783
-0.00285209
-0.00921401
0.00329157
0.000274618
-0.00270134
-0.00317
-0.00216663
-0.00369102
-0.00106737
-0.00207443
0.00153876
0.00199425
-0.00331893
0.00373525
-0.00623142
-0.000995607
0.00109149
-0.00255818
-0.00176729
-0.00136501
0.00193651
-0.00137661
-0.000543648
-0.00177458
-0.00716754
-0.00286138
-0.000636764
0.00096047
0.000346536
0.000441334
-0.00343293
0.00153995
0.00329398
-0.00342473
-0.00339904
-0.000228959
-0.000273056
0.00354421
0.00296802
-0.0018793
0.00216643
-0.00108091
0.00496279
0.00122248
0.000378764
-0.000163041
0.00203291
-0.00222735
-3.5773e-05
-0.00027707
0.000963613
-0.00215646
-0.00196841
-0.000263333
-0.00401474
0.0060156
3.27348e-05
-0.000875265
0.0016114
0.00136602
0.00282625
3.40313e-05
-0.00070451
0.00645667
-0.00172121
-0.00581551
0.000628079
-0.00369052
-0.00201423
0.00252867
-0.00513192
0.00452099
-0.00228689
-0.00259602
-0.00257381
-0.00111072
0.000757939
-0.00204543
0.00192045
-0.00184208
0.000811475
0.00175933
0.000720447
-0.00555739
-0.00120924
0.00114567
0.00233348
-0.00096325
-0.00254136
0.0022975
0.00485515
-0.0010586
-0.00258396
0.00554327
0.000860796
0.00247219
-0.00879544
0.00915756
-0.0104199
-0.0060973
0.000748874
0.00284036
0.000501721
-0.000467769
0.000391589
-0.000723165
-0.00492589
-0.00111733
0.00177361
0.00206973
0.00417766
0.000821974
-0.000412346
0.000453857
-0.00224067
0.00243895
-0.00402757
-0.00267454
-0.0026717
-0.00372721
-0.00183672
-0.00151901
-0.00645874
-0.00241099
-0.00281934
0.0011692
0.00165299
-0.00516197
0.00245284
0.00227428
-0.00216014
-0.00153976
0.00381543
-0.00498423
-0.00137923
-0.0010148
0.000423604
-0.00166476
-0.000372401
0.000609103
0.0039172
0.00249234
-0.000617061
-0.00177201
-0.00230155
0.00965104
-0.000458407
0.00152093
-0.00232673
0.00294731
0.000977305
-0.00184709
0.00574578
-0.00464013
-0.00284887
0.00181176
-0.00135773
-0.00168792
6.76565e-05
-0.00106219
-0.0049934
-0.00130916
0.00118202
-0.000632143
0.00354762
0.000652579
0.000870167
0.00427112
-9.71023e-05
-0.00115736
-0.000739126
0.00128151
-0.00169121
-0.00212978
-0.00455845
0.000155724
-2.58729e-05
-0.00212099
-0.00114763
-0.00585896
0.00557255
0.000667819
-0.00230789
-0.00229798
-0.000919989
-0.00176965
-0.00483342
-0.0024565
0.00196425
-0.00259819
-0.00178378
-0.00198132
-0.000611572
-0.00189554
-9.45135e-05
0.000236575
-0.00306277
0.000566916
-0.00452089
0.00145896
-0.00288457
-0.000952608
5.84272e-05
-0.000824224
-0.00210061
0.00056303
-0.00460133
-0.000201199
-0.00138503
-0.00410595
-0.00234383
-0.000302015
0.00398098
-0.00169
0.000578387
0.00259296
-0.000723947
-0.00265435
8.26432e-06
-0.000423755
-0.00231774
-0.00121756
-0.000526091
-0.00138173
-0.00338179
-0.00405811
-0.00314282
-0.000385013
0.000466377
0.00239893
0.000190604
0.0014005
-0.00177262
-0.00526935
0.00313956
-0.00171616
-0.0135439
-0.00144023
-0.000383448
0.00262786
-0.00121256
0.000848844
-0.000627395
0.00547574
-0.00394567
0.0031002
0.00146333
0.00530261
-0.00419185
-0.000357369
0.00371878
-0.00360899
0.00302295
0.00306257
-0.000850706
-0.00412077
0.00472527
-0.000575632
0.00205444
0.000897166
0.00128442
0.00108182
-0.0042736
-0.00588178
0.000975436
-0.0019685
-0.00251892
-0.00131173
-0.00100865
0.00174714
0.000659384
-0.003819
0.0024621
0.00524739
-0.000206986
0.00106021
0.000800249
0.00183629
0.0090284
0.00286678
-0.00236204
0.00115175
-0.000486853
-0.00582065
0.00150526
-0.000810715
-0.00145431
0.00767573
-0.00843955
0.000233027
0.00139074
0.00384112
0.00308804
-0.00238767
-0.000680221
-0.00205106
-0.00169489
0.00217972
0.000438957
0.00586926
-0.000959617
-0.00161532
0.000848867
0.00119775
-0.00289263
-0.00309408
-0.0023936
-0.00713931
-0.00325612
0.00240721
-0.00381707
-0.00554642
0.00164597
0.00174367
-0.00319036
0.00255991
-0.00178385
0.000288794
-0.00717634
0.00282616
-3.23066e-05
0.00239186
-0.00230777
-0.000352801
-0.00618317
-0.00361958
0.00186712
-0.000406421
0.00613682
0.00462868
-0.000513705
0.00057618
0.00434536
-0.00312431
-0.00103891
-0.00229715
-0.00675785
-0.000769906
-5.40458e-05
0.00150291
-0.00829108
-0.0018016
-0.00101004
-0.00147778
0.00367682
-0.00261493
-0.00307395
-0.0173263
0.000977275
-0.00312327
-0.000746698
-0.00183228
-0.000442256
-0.00299655
0.00317461
0.000326456
-0.000583522
0.00129844
0.00134662
0.000756621
-0.00329212
0.005284
-0.000392281
-0.000582917
-0.00217662
0.00302553
0.00401159
-4.89883e-05
-0.00129353
-0.00262164
-0.00157674
-0.00108968
0.000284303
-0.0021426
-0.000463432
-0.00280703
-0.000881546
0.00220766
0.00023025
-0.00191269
-0.00168643
-0.00273537
0.00257051
-0.00285502
0.00116373
-0.0026121
8.00541e-05
-0.00229838
-0.00309568
0.000480951
0.000288585
-0.00188849
0.00281441
-0.000276287
-0.00128209
0.0017007
0.000424161
-0.00169331
-0.00242191
-0.000506061
-0.00226922
1.95927e-05
-0.000276587
-0.000267696
0.00081994
-0.00281687
-0.000463284
-7.54513e-05
-0.0021983
0.0061893
-0.00222924
0.00132595
0.000494573
-0.000225296
-0.00172231
-0.00399418
-7.7366e-05
-0.00640273
0.00205757
0.000886226
-0.000230027
-0.00237851
0.000876148
-0.00478257
-0.000622951
-0.00465672
-0.00764137
0.00480236
-0.00297209
0.000473032
0.0010432
-0.00921064
-0.000509267
0.00249103
0.00011137
-0.00734846
0.000277081
-0.000911387
0.0040166
-0.00373123
3.08817e-05
0.000227159
0.000919375
0.000663729
0.00258814
-0.001709
0.00146125
9.89179e-05
-0.00410478
0.000629384
0.00216455
-0.00372905
-0.000732512
0.000662759
-0.000893942
0.000891413
-0.00658803
-0.00414849
0.00578738
-0.00171678
0.00173802
0.00112938
0.00184111
0.00547807
-0.00275768
0.00436318
0.00222584
-0.000211221
-0.000588307
-0.00110218
0.000140904
0.00112045
0.00120484
-0.000205401
0.00225036
0.00671615
-0.00351414
-0.000278536
0.00168825
-0.00111267
-0.00104554
-0.00139538
-0.00338297
0.00117605
0.00286421
-0.0035374
0.00459653
-0.00452976
0.00273932
4.16022e-05
-0.002767
0.00351198
0.00101262
0.00198892
-0.000484216
-0.00437701
-0.00386027
-0.00286498
0.00116176
-0.0045644
-0.000286087
-0.00252917
-6.42136e-06
-0.00303318
-0.00534486
-0.00146252
-0.00125398
0.00433139
0.00751159
-0.00513851
0.000324595
0.000387865
-0.00279587
-0.00370388
-0.00414797
-0.000453316
0.000216789
-0.00067434
0.00645661
0.00442449
0.00325958
0.00399122
0.000545787
-0.00102688
0.00119156
0.00207154
0.0026305
-0.00184476
-0.00527378
-0.00271628
-0.00400103
0.00561977
-0.0034122
-0.002935
0.00144536
-0.00225459
0.00202049
0.00016403
0.00115211
-0.00163299
-0.00107534
-0.00244941
-0.00170549
-0.00149056
-0.00277989
0.00168735
0.000850392
-8.46669e-05
0.000147987
-0.00252653
-0.00119759
0.00245135
-0.00286282
0.00109269
0.00176786
0.000456086
-0.00186436
-0.00150875
-0.00081061
-0.00201381
0.00139522
0.00102904
0.00437976
0.00332182
-0.00260594
-0.00256761
-0.0007513
0.00143091
0.000540936
-0.000634998
0.00122894
0.000176078
0.00246035
-0.00264841
0.00161235
-0.00110239
-0.00151675
-0.000548945
-0.000805655
-0.0010991
-0.00149805
-0.00117871
0.00175093
0.00265186
0.00241052
0.00150984
0.000728854
-0.00377968
-0.00468474
0.00537477
-0.000886419
-0.00535604
0.00182645
-0.00485636
0.00318202
0.00340372
0.00115883
0.000430506
-0.00185361
0.000706544
0.00237854
-0.000911776
-0.000517779
-0.00514117
0.00471241
-7.08836e-05
0.00010674
-0.00404652
0.00211448
0.000359137
0.000222912
-0.00342077
0.0036202
0.000787272
0.00174062
-0.0012069
0.00335388
-0.00126379
-0.00200603
0.00182949
0.0082886
0.00310341
0.0100468
0.00214646
-0.00217519
0.0027122
-0.00540721
0.000651852
0.00208014
-0.00372533
0.000462183
-0.00494416
-0.00770411
9.31806e-05
0.00110773
0.000229025
-0.000222408
-0.00310866
0.000689536
0.00474916
0.000789185
0.00114464
-0.00354053
-0.00192685
-0.00139178
-0.00585243
-0.00296525
-0.00199571
-0.000382301
0.00146853
-0.0020168
-0.00332055
0.00311271
0.000261924
0.00737462
-0.00131424
-0.000771046
-0.00720142
3.30895e-05
0.00427203
-0.00589429
-0.00326674
0.000995052
-0.000960793
-0.000352981
0.00215147
-0.00336612
-0.00287124
-0.002645
0.000880345
0.00285331
0.00317186
-0.000247966
-0.000936204
0.00145855
-0.000277414
0.00297417
9.35968e-05
0.00103163
0.00206163
-0.00346446
0.00200592
0.000818479
0.00238089
-0.00500399
-0.00136199
0.000234168
0.00175837
0.00107703
-0.00566765
0.0011336
0.0014716
0.000343946
-0.00169448
-0.000147721
0.00163568
-0.0044807
0.00230408
0.000299478
0.00155177
-0.00387523
-0.0033501
-0.00194562
-0.000347322
-0.00404777
0.00247575
-0.0020358
-0.00361022
0.00403991
0.00248557
0.000976195
0.003675
0.00403903
-0.000509168
0.000688677
-0.000823761
0.00245429
0.00134109
-0.00134119
-0.000217593
7.4099e-05
0.002697
0.00139423
0.00478177
-0.00104923
-0.00153932
0.000712827
0.00674307
0.00463906
0.000244132
-0.00936368
-0.000366381
-0.00119211
0.0013214
-9.88653e-05
-0.00079972
0.00106639
0.00265474
0.000646826
0.00494424
-0.000968921
0.000246441
0.00475032
0.00234328
0.00730515
0.00202654
-0.00171603
-0.0038835
0.00229263
-8.99179e-05
-0.00126038
1.44671e-05
0.00109234
0.00204263
-0.00305236
-0.00223189
0.000341015
-0.000363763
-0.00282932
-0.000316451
-0.00524303
0.00134774
-0.00204752
0.000306742
-0.00172709
0.00192468
-0.00210648
-0.000720617
-0.000542421
0.000133704
0.00225644
-0.000577487
0.000841385
0.00306581
0.00156246
-0.000569051
0.00210047
-0.000982853
0.000286793
0.00211302
-0.00556897
-0.00177682
-0.00107869
0.00085729
0.00690634
0.00191181
-0.00048954
-0.00204421
-0.00250067
-0.00246959
-0.00021657
0.00695371
0.00219958
-0.000955673
0.00238561
0.00114603
-0.00397691
0.00326603
0.00800935
0.000959326
-0.0116594
0.00426404
-0.00287546
0.000978273
0.00676015
0.00200659
0.00216398
-0.00150635
0.00360833
0.000435354
-0.00111223
0.00135036
-0.00226457
0.00140797
0.00102692
-0.00184649
0.0036364
-0.000727438
-0.000784021
-0.00116887
0.000309873
-0.00220794
0.003575
-0.00213717
0.0015461
0.00795383
-1.30958e-05
0.00888648
-0.00338399
-0.000422814
0.00191977
0.000893541
0.000170574
-0.00107237
-0.000195431
-0.00465777
0.00212936
-0.00392397
0.00372025
0.000733738
0.00404891
-0.00128842
0.00272496
-0.00117586
0.00059606
0.000452965
0.00259092
0.00261612
-0.00292068
0.00668654
0.000614156
-0.000954241
0.00159528
-1.41269e-05
-0.00131878
0.00637584
0.00340487
-0.000942207
-0.000973913
7.72774e-05
-0.00100819
0.00120588
-0.00163456
-0.00665697
0.000335291
-0.0039448
-0.00282049
-0.00259471
7.19513e-05
-0.000607203
0.00361992
0.00155566
0.00237158
0.00291058
0.00212946
-0.00643034
0.00232354
-0.000253463
-0.00274694
-0.000345455
0.000275542
0.00212856
-0.00581287
-0.0023445
0.000813814
0.00146032
-0.000289153
-0.00714536
0.00174394
-0.00226346
-0.00137603
-0.00816649
-0.00260894
-0.00296832
0.00240538
-0.00934044
-0.00376425
-0.00129353
0.00159388
0.00468715
0.00247764
0.00221203
-0.00480364
-0.0022673
0.00452151
-0.00142757
0.0018684
0.000313895
-0.00357459
-0.00577981
-0.00355599
-0.00045324
0.000263478
-0.00384975
-0.000457568
-0.00181448
0.000758076
0.00149481
0.00502803
-0.00363625
0.00090953
0.00121537
-0.001715
-0.00383139
-0.0023572
0.0096977
0.00401282
0.00133961
-0.00285891
-0.000970794
-0.000848653
-0.00170357
-0.00164048
0.0027493
-0.00757714
-0.00135795
-0.0013716
0.00331478
-0.00231044
-0.0030158
0.001571
-0.00182581
-0.000290362
-0.000845647
0.000328914
-0.00385309
-0.00271961
0.000203171
-0.00236563
-0.000347667
-0.000870145
0.00224328
-0.00223364
4.00306e-05
-0.000416366
-0.000170557
0.00577373
0.00152864
0.00241354
0.000151564
3.5696e-06
0.00612571
0.00425701
-0.0052
-3.74831e-05
-0.000536032
-0.00246082
9.34739e-05
-0.00174258
-0.00402335
-0.00164988
0.00252719
0.000867539
-0.00506631
0.000995735
-0.0025723
-0.00334756
-0.00237961
-0.00251185
-0.000503933
-0.00514166
-0.00590981
0.00227284
-0.0024267
-0.00209217
-0.00410136
0.000839457
-0.00280912
-2.20503e-06
0.000534419
0.000618955
0.000906029
-0.00236862
-0.000807484
0.000453249
-0.00225421
0.00634762
-0.00223603
-0.00334558
0.00116405
0.00197583
-0.00123317
-0.00060611
-0.00160359
-0.000738699
-0.0043184
-0.00128587
0.0023428
-0.00470267
0.00326167
9.94159e-05
-0.000206486
-0.000795738
-0.00495139
-0.000744546
0.0066857
-0.00602513
0.00125362
0.00389782
-0.00160777
0.000595469
-0.000225395
0.00200769
0.00237957
0.000850612
-0.000639405
0.00230667
0.00186265
0.000220418
-0.00261665
-0.00457842
0.00351674
0.00181331
0.00101709
-0.00618576
0.00238087
-2.57146e-05
0.00246911
0.000784807
-0.0029
0.00233093
-0.00356081
-0.00212806
0.000100091
-0.00381835
-0.000909012
-0.00599588
0.00101887
0.00265747
-0.00727959
-0.00523891
0.00132215
-0.000774292
0.000414303
0.000361749
0.00384167
0.00198928
0.00139937
0.00295362
0.00104946
0.00104935
-0.000962495
0.00312543
-0.00135772
0.00237374
-0.00312909
4.12276e-05
0.00273384
-0.00132317
0.000702647
-0.0031204
-0.00333248
0.00409952
-0.0103204
0.00714162
0.00109555
0.00147822
0.00550998
0.00304315
0.00512613
0.00997252
0.0053023
-0.00162803
0.000404734
-0.000565771
-0.00160801
0.000256761
1.49189e-05
-0.00212424
-0.00487249
0.00193494
0.000217272
0.000884787
0.0006552
-0.00107853
0.00235083
-0.000380565
-0.00112052
-0.00170916
-0.00215162
0.000943546
0.0054841
-0.00171358
0.00263543
-0.00146557
-0.00330165
-0.00505124
0.000803103
-0.000371118
-0.00647611
-0.00546712
0.00498994
-0.00247969
-0.000832124
-0.00199216
0.00244321
0.00381289
-0.00215715
0.000778058
-0.00366287
0.00184699
0.0016997
0.000436594
-0.00561141
0.000891585
0.00361234
-0.000125472
-0.00108626
-0.00149752
0.00294612
-0.00220977
-0.00475173
0.00577338
5.40732e-05
0.00251854
-0.00197369
-0.00179966
0.00227143
-0.0044724
-0.000284281
-0.00462716
-0.00265127
-0.000163101
-0.00177005
0.000753838
0.00132667
0.000825211
-0.00120988
0.00175751
-0.00172781
0.000715168
0.00355984
0.00285047
0.00845984
-0.000743795
-0.000483811
-0.00234413
-0.00294261
0.00182001
3.56938e-05
-0.00335535
-0.00143584
0.00120799
0.000185397
-0.000709955
-0.0084209
0.0067358
0.00229257
-0.00175172
0.00492541
-0.00635187
0.00585003
-0.00571779
0.00396772
7.3392e-05
-0.00320812
0.000828301
-0.00535688
0.00714673
-0.00454056
0.000607357
-0.00501134
0.000843204
-0.00510658
-0.00349376
-0.00350426
0.00259569
-0.000841575
-0.00246117
-0.0012563
-0.00495525
-0.00230021
0.00139907
-0.00112715
0.00339614
-0.00222389
0.00198102
0.00947926
0.000429273
0.000388588
0.00170838
0.000794645
-0.00353994
-0.00309952
-0.000290479
-0.00407585
-0.00132942
0.00226526
0.00186561
0.00251101
-0.00609316
-0.00157459
0.00513477
0.00146076
0.00128239
-0.00191429
-0.00530897
-0.00226797
-0.00147295
-0.00183537
-0.000170636
0.000569096
0.00221701
0.00552132
-0.000559492
-0.00219347
-0.00145068
0.0027877
0.000312079
0.00140955
-0.000179823
0.000237029
-0.000998074
0.00412909
-0.00343958
-0.00152625
-0.000397432
-0.00011705
0.00442859
-0.00117571
-0.00107514
0.00173095
0.00663813
-0.0035913
-0.000973844
-0.00526922
3.72539e-05
-8.96561e-06
-0.000361293
-0.00189141
-0.00259796
-0.00104659
0.000661904
0.00380116
0.000856395
0.00700094
0.000616904
0.00429766
-0.000419715
0.000127321
0.00154034
-0.000470385
0.00114638
0.000455329
0.000887025
0.00360065
-0.00714904
-0.00155219
0.00236048
0.00129754
-0.00403763
0.00233783
0.00115595
-0.00223626
0.0030662
0.00147988
-0.0033655
-0.00078415
-0.00123866
-9.55089e-06
-0.00106988
0.00268258
-0.000192376
-0.00416584
0.00830856
-0.00470065
0.00549327
0.000654963
-0.000987873
-0.0014103
0.00227351
-1.32302e-05
0.000280605
-0.000388194
0.00120437
0.0047341
0.00393017
-0.00614735
0.000574055
-0.000795208
0.00217749
-0.00571409
-0.000906618
0.00148174
-0.00306236
0.00208139
-8.35214e-06
-0.00198565
-0.00792091
-0.00388961
0.00141499
-0.00475646
0.00112917
0.00104003
-0.00510026
0.00295618
-0.00641594
0.00096082
-0.000784149
-0.00294486
-0.0017536
0.00198815
0.000378418
-0.000748972
0.0075354
-0.000668963
0.000511339
0.00176167
-0.00154976
5.68432e-06
-0.00277952
-0.00516921
0.00103632
0.00171922
-0.000181929
0.00342897
0.000104679
0.00191641
0.00461866
0.00271929
-0.00369724
0.00139249
0.00308536
0.00278912
0.000859161
0.00216609
-6.90516e-05
0.000142955
0.00562036
0.00117752
0.00128503
0.00592882
0.00137653
-0.0104172
0.00660336
-0.00316805
-0.00315862
-0.000356989
0.00045622
-0.00190928
0.00496425
-0.00183497
0.00154366
-0.000808963
0.00202887
0.00132783
-0.00267661
6.61181e-05
-0.00102073
0.000750597
-0.000878336
-0.00589562
0.00657456
-0.00280597
-0.000456716
-0.00402384
-0.000387223
-0.0032455
0.00163862
-0.00276174
0.0015427
-0.000416093
-0.00228058
0.000703456
-0.00421655
0.00381396
0.000452415
-0.00248763
-0.000573521
-0.000336113
0.00141475
0.000504408
-0.00351647
0.0045895
-0.00316939
-0.000987168
0.000648234
0.000594824
-0.0034839
0.00313967
-6.49459e-05
0.00442793
-0.00245391
0.000755793
-0.00358366
-0.00116981
-0.00549158
-0.00039344
0.00248122
-0.000174814
-0.00374529
-0.000108643
-0.00273162
-0.00297965
0.000737145
-0.00055724
0.000304997
0.00281917
0.00166119
0.000702007
-0.00148058
-0.00680759
0.00204069
0.000387507
-0.00130835
-0.0024348
-0.00158706
-0.0003372
0.00226671
-0.00154897
0.00634188
0.00792292
0.000553636
0.0066743
-0.00311338
-0.00308888
-0.00337859
-0.00624703
-0.00243973
0.00161507
-0.000244301
0.00115427
-0.00183711
0.00137771
0.00181453
-0.00287654
0.000528875
-0.00235834
0.00218758
-0.000174469
-0.000136741
0.00347612
-0.00225816
-0.00172222
0.00252616
-0.000336994
-0.00013266
-0.000476048
0.00213762
0.00314637
-0.00234852
0.00187187
-0.00471812
-0.00064894
0.00355237
0.00197065
0.00238049
0.0021182
0.00170997
-0.00213824
0.00214848
0.00446852
0.00106757
-0.00309834
-0.00185739
-0.0019726
0.00252178
-0.00231461
-0.000670424
-0.000195731
-0.000650004
0.00134957
0.000587612
0.00314999
0.00292602
0.00117622
-0.00282865
0.00104391
-0.00446946
-0.00447118
0.00320961
-0.00128935
-0.00183659
-0.0029433
0.00272246
0.00320785
0.00236714
9.65205e-05
0.000981972
-0.00218315
0.0112547
0.00142512
-0.00306302
0.000159711
0.00476221
0.00186181
-0.00374113
0.00507265
-0.00839548
-0.00484652
-0.00347961
0.00159785
7.19977e-05
0.00792424
0.00794392
0.00676618
-0.000915864
0.00545147
0.00169108
-0.000125176
-0.000864487
-0.00164987
-0.000822908
-0.00433081
-0.00172941
-0.00285457
0.00286226
0.00476315
-0.0014151
-0.00141344
-0.00360695
-0.00508194
-0.00268821
0.000473812
0.00328242
0.000414867
0.000526076
0.00301924
0.00246144
-0.0052041
-0.00207196
-0.00528912
0.00591865
-0.000846633
0.00231799
0.00268744
-0.00040028
0.00426501
0.00599004
0.00272793
0.00471668
0.00228723
0.00280867
4.78947e-05
-0.00262766
-0.000406346
0.00142806
0.000968572
0.00134341
0.00189134
0.000205745
-0.00175407
0.00088153
-0.0029104
-0.00439947
0.00706537
0.00122892
-0.00112538
-0.00388724
0.00120988
-0.00102239
-0.00079628
-0.000866283
0.00392022
-0.00361519
-0.00175619
0.000239188
-0.000424808
-0.0046243
-0.000210116
-0.0010847
-0.00411091
-0.00319598
0.00880859
-0.00189797
0.000553813
0.00180083
0.00144593
-0.000480907
0.00165156
0.00167002
0.00112285
0.000228921
-0.00421556
0.000636485
-0.00100614
-0.00123812
0.00419573
0.000284905
-0.00179922
-0.00529856
-0.00103399
-0.0017791
-0.00515736
-0.00499368
-0.000848634
0.00123095
-0.00170454
-0.00410359
0.00376637
-0.000215374
0.00260753
0.00114834
0.000660508
0.00913325
0.00155308
0.00278925
0.0016801
-0.00391539
0.00299054
-0.000370556
0.00196227
0.00162113
-0.00164238
-0.000457878
-0.00127018
0.000979869
-0.000716592
-0.00313367
0.00244391
-0.0016135
0.00148031
-0.000196826
0.00297899
0.00227569
0.000419369
0.00153065
0.00203145
-0.0011067
0.00657937
0.00913786
0.00234836
-0.000302727
0.00249031
0.0045067
0.000699149
-0.00074012
-0.00158282
-0.00027151
-0.00045955
-0.00162329
-0.00121951
0.0094623
0.00603064
-0.00487989
0.000878023
-0.000211901
-0.000104193
-0.00731823
0.000422798
0.000932331
-0.00107934
0.000516207
0.00164275
-0.00200625
-0.00263335
0.000989731
-6.80888e-05
-0.0039754
0.00152433
-0.00112279
0.00531229
0.00351543
-0.00217395
0.00325008
-0.00512963
0.00321496
-0.00116007
-0.00315795
-0.00424283
-0.000679243
0.000993431
-0.00168482
-0.000602906
0.000666357
0.00326941
-0.000258662
-0.00490697
-0.000710794
0.00213161
0.00230019
0.00750847
0.00182738
0.00619071
-0.00458807
-0.00874606
0.00816641
-0.00395739
-0.00250134
0.000129475
-0.00345037
-0.000181306
0.00170057
0.00276557
0.00147551
-0.00182194
-0.00801565
0.00119697
-0.00122253
-0.000134979
-0.00298303
-0.000254047
-0.00363563
0.00139844
0.00407501
-0.00131503
-0.00224245
0.000590734
-0.0004765
-0.00326826
-0.000893649
-0.000348042
0.00185072
0.000538999
0.00134857
0.000805473
-0.00267354
0.00226344
0.00107235
-0.00392432
0.00350779
-0.00241381
-0.000723193
0.00124719
0.00151706
0.00255806
-0.000990574
0.000641895
-0.00126927
0.00532321
-0.00281488
-0.00518915
-0.00360172
-0.000224474
-0.00540075
0.000905933
0.00152809
-0.00191273
0.000128884
-0.00189502
-0.0046273
0.00565375
0.00207762
-0.00215543
-0.00292204
-0.00439191
0.000280434
0.00108009
0.00419074
-1.25963e-06
0.00100396
-0.00753364
-0.00196096
0.000343631
-0.00283209
-0.000512175
-0.0015501
0.000145331
-0.00227475
0.00673981
-0.00287391
0.00395611
0.00119676
-0.000302475
0.000685411
0.000453042
-0.00146629
0.000207112
-0.00140085
0.00189918
-0.00301065
-0.000245172
-0.00060775
-0.00297707
0.00194208
0.000897636
0.0011386
-0.00267187
0.0056184
-0.00100629
-0.00228606
0.00617732
0.00268343
-0.00177541
0.00157935
0.00201402
-0.00219197
-0.000246594
0.000221
0.00230464
0.00069886
0.00309678
-0.0032695
-0.00112611
0.00316216
0.00034649
-0.0011374
0.00196575
-0.00158281
-0.00187911
-0.00104133
-0.00273988
0.00231215
0.00333079
-0.00100993
0.00184951
0.000256262
-0.00032584
-0.00194632
0.00122349
-0.00329087
-0.000806018
-0.00116453
0.00628301
0.00282022
-0.00117742
-0.0015991
0.00541877
-0.00360997
0.00252778
0.00105735
-0.00247179
0.00313115
-0.00271747
-0.00066699
0.000678274
0.00211604
-0.00452527
-0.00098297
0.00311245
0.00418549
0.00183093
-0.000548019
-0.00111577
0.00321202
-0.00130923
0.00167615
-0.000838653
-0.000230641
-0.00262951
0.00442173
0.00134258
0.00153172
-0.000166251
0.00289937
-3.81583e-05
-0.00509915
-0.00100541
-0.00042194
-0.000378785
-0.00267382
0.00229771
-0.00471012
-0.000394492
0.000958853
-0.00439303
0.000220324
0.0109077
-0.000182861
0.00252916
-0.00178042
-0.00409572
0.0045507
-0.00248413
0.00091567
0.0035649
0.00529334
-0.00536741
-0.00218363
-0.00237506
0.00281584
0.00255367
-0.00185789
0.00147641
0.000405889
0.000590975
-0.00336321
-0.00574442
-0.00164165
-0.000819734
-0.00545934
-0.000138658
-0.00166755
0.00364976
-1.83657e-05
-0.000748467
5.91715e-05
-0.00119127
0.00181264
0.00410813
-0.00618883
-0.00222772
0.000702893
-0.000499319
-0.0045985
0.00236404
-0.00209794
0.000650377
0.00139786
-0.00724612
-0.000623625
0.00126252
0.00545287
0.000134089
0.000364105
-0.00410176
-0.0034053
-0.00142807
-0.00454603
-0.00583686
0.00469044
-0.00335182
0.00736598
0.00162564
0.00227861
0.0048177
0.000822921
0.00245064
-0.00366776
0.000778094
0.00561225
-0.00655564
0.0013213
-0.000294198
-0.000920302
0.000199749
-0.0013843
-0.00238084
-0.00197065
0.000910535
-0.00430636
-0.00258728
-0.00098794
-0.000437776
-0.00277129
0.00993343
0.000450527
0.0018382
0.000664921
0.000531261
-0.00862147
-0.00139273
0.00159312
0.00339751
0.00321495
0.00062614
0.00199178
-0.000521241
-0.00219643
0.00347041
0.00327077
-0.00104451
-0.0022968
-0.00258413
-0.00131274
-0.000478869
-0.00134058
-0.00614339
0.00180281
0.00020848
-0.000664621
0.00128351
-0.00696429
-0.000271942
-0.00331425
-0.00394618
0.000448241
0.000463854
-0.0019025
0.00219264
-0.00203938
-0.00248033
0.0030035
0.00255281
-0.00181655
-0.000996667
0.000301695
-9.03824e-05
-0.000388958
-0.000654755
0.00189476
0.00362295
-0.00113487
-0.0046004
-0.00208995
-0.00396071
-0.000898703
0.00164238
0.00337118
0.00429828
0.00330711
-0.00186012
0.000441725
-0.0139024
-0.00301
-0.00178344
-5.64491e-05
-0.00359907
0.0014428
-0.003964
-0.000770845
-0.000129408
-0.00038197
0.000271146
-0.00219421
0.00343505
0.000253417
0.00849213
0.00758831
0.00294332
-0.000711737
-0.00282136
0.00130873
-0.00659313
-0.00536163
0.0113017
-0.00389684
-0.000726394
-0.000264953
0.000364444
-0.00180111
0.00469966
0.00115438
-0.00241517
0.000287275
0.00148861
-0.000287633
0.00156518
-0.0012056
-0.00345464
-0.00366355
-0.00113926
-0.00637264
-0.00100464
3.4513e-05
0.000179492
0.000388305
0.00277004
0.00235192
8.30612e-05
-0.00529303
4.2385e-05
-0.00080137
-0.00243335
0.00735027
-0.000187922
-0.00280509
0.00146158
-0.00217779
-0.000363615
0.00186697
-0.00231418
-0.00046621
0.00372658
0.00210896
5.07672e-05
-0.00167566
0.00270675
0.00249716
0.000949251
0.00045966
-0.00283891
-0.000298945
0.00252506
0.00183509
-0.0019389
0.00219028
0.00461728
0.00078213
-0.00125377
0.00509887
-0.00160613
-0.000996265
-0.00101795
0.00193453
-0.00132477
-0.00158504
-0.000472279
-0.00219825
0.00105138
-0.000430539
-0.000422026
-8.48469e-05
-0.000462416
0.00242787
0.00504356
-0.00511963
0.00265159
-0.00491101
0.00116685
0.000906472
-0.00090956
-0.00100055
0.00114714
-0.00120243
-0.00138299
0.000622299
-0.000380433
0.00244885
0.00286548
-0.000410871
0.00504475
-0.00414543
-0.000198285
0.00480047
-0.00175483
0.00165759
-0.000116822
-0.00109808
-0.00048534
0.0051185
-0.00541372
-0.000421663
-0.00230363
0.00285712
0.00109035
-0.000920011
0.000627032
-0.00286588
0.00117096
0.00212774
0.00180425
-0.00467738
-2.35771e-05
0.00331167
-0.00192302
0.0112512
-0.00244183
-0.00015284
-0.000751952
0.000990305
0.00337282
-0.00156453
0.000821708
0.000973389
0.000432649
0.000976717
-0.000164083
-0.00183449
-0.00308026
-0.00368686
0.000709834
-0.000434693
-0.00714824
0.00218939
-0.000605173
0.000183951
0.00018713
0.00251005
-0.00522367
-0.000227085
-0.00367707
0.000585642
-0.00547032
-0.00522468
-0.00481422
0.00266462
1.13547e-05
0.000693639
6.75929e-05
0.00389022
0.00174016
0.00219657
-0.00457725
0.00427239
0.00145964
-0.00687438
-0.00124527
-0.000944541
-0.00017121
0.00073214
0.00324837
0.000489651
-0.00198075
-0.000680208
0.000875585
-0.00142271
0.000510978
-0.00575743
-0.00506128
0.0020002
0.00011693
-0.00016791
-0.00148935
-0.0034124
-0.000749067
0.0004962
-0.00135071
0.0034337
-0.00224127
0.00257601
0.00251462
-0.00659695
-0.00565792
-0.00188797
-0.000342164
-0.000813764
-0.000499979
-0.00452902
8.472e-06
-0.00149856
-0.00167968
-0.00454519
0.00147913
0.0041221
-0.00203308
-0.0010161
1.45652e-05
0.00229441
0.0072128
-0.00352482
0.00444031
0.00371409
0.00141329
-0.00628614
-0.00150923
0.00084032
0.0019764
-0.00103307
-0.00150666
0.00570264
0.00124007
-0.00111839
0.00423964
-0.000738032
-0.00044755
-0.000139183
0.00096648
-0.00120134
0.00134073
-0.00232492
-0.00117091
-0.00096545
-0.000821338
-0.00103942
-0.00604011
-0.000982666
0.00175553
-0.00191009
0.0028483
0.00337797
-0.00181638
-0.00166644
0.00407739
0.000900259
0.00176408
-0.00441154
-0.000750004
0.000499875
-0.000461533
-0.000829745
0.00027009
-0.000740271
0.00339962
-0.00132747
0.00264819
-0.00274257
-5.66457e-05
-0.00503741
0.0024626
-0.00362985
-0.00139388
-0.00206707
0.00137473
-0.00315298
-0.000980966
0.0022466
-0.00302306
-0.00369772
-0.00311686
0.000255373
0.00092892
-5.49467e-05
-0.00168109
0.00375235
-0.00225509
0.00340666
-0.00334967
0.00292562
-0.00163783
-0.000347256
-0.00101004
-0.00104217
-0.00420757
-3.92412e-05
0.00165534
0.00232256
0.00386719
0.00125781
-0.000828138
0.000142471
-0.000932168
-0.00123815
0.000574652
-0.00221132
0.00299727
-0.0011553
0.00305103
0.00570754
0.00325681
0.0014659
0.000669352
-0.00294781
-0.000759922
0.00422676
0.00867598
-0.00377421
-0.000364066
-0.000286546
0.00371951
-0.000458629
-0.000501062
0.00235521
-0.00140075
-0.00142532
0.00102512
-0.00170136
-0.00159398
0.00409174
-0.0100127
-0.000166281
-0.000257905
0.000341663
0.000448346
-0.000803499
0.00012685
-0.00215564
-0.000114881
-0.00140424
-0.000581058
-0.00175989
0.00068824
-0.00147295
-0.000688387
0.00141517
0.000461866
0.00169876
-0.000348458
-0.00526319
-3.36899e-05
0.00116016
-0.0025452
-0.00169602
0.00118053
-0.00198475
-0.000452351
-0.0044297
-0.000473524
-0.00025136
0.000890076
-0.000927146
0.000115785
-0.00443891
-0.00111051
-0.000309637
-0.00465855
-0.00167428
0.00275182
0.00238235
-0.00356917
-0.00535055
-0.00483763
0.000352077
-0.0010507
0.00183607
-2.92803e-05
0.000305797
-0.00645714
0.00307735
0.00511034
-0.00455436
0.00105421
-0.00546405
-0.00710331
-0.00168974
-0.000358198
0.00031364
0.003044
-0.000947216
-0.00490886
-0.00335969
0.00343855
-0.0043127
-0.000962441
-0.00247687
0.0014932
0.00110731
0.000215904
-0.000726321
0.00373831
8.70146e-05
-0.000410523
-0.0121152
-0.00319598
0.00210706
0.0026712
0.00652607
0.00348419
0.000422787
-0.000896094
0.00210312
0.00520971
-0.00444585
-0.000871384
0.00174604
-0.00059266
-0.00422125
0.00111418
0.000386281
0.000591063
-0.00692332
-0.00462826
-9.52563e-06
-0.00743607
-0.000294221
0.000483042
0.00512203
-0.00117339
-0.00484564
0.0092015
0.00478625
0.00990869
0.00134371
-0.00686404
0.0021066
0.00470521
0.000657679
0.000867689
-0.00213774
0.00388433
-0.00018977
0.00145281
-0.000222065
0.00117744
-0.000935367
0.00431258
-0.0008648
-0.00188538
0.0011019
-0.0046085
-0.00166903
-0.000447479
-0.00634059
-0.00537011
-0.0133396
-0.00150587
0.000635101
0.000339026
0.0101781
-0.000153779
0.000842393
0.0018753
0.00122692
-0.00427761
-0.000957936
0.000425801
-0.00345078
0.00146033
0.00409602
1.19471e-06
0.000403367
-0.00542962
0.00524859
0.00712633
-0.00278622
0.00055302
0.00648773
-0.00781846
0.00853183
0.00160302
-0.000256743
-0.00340589
0.0101575
-0.00305354
-0.00836285
-0.00726737
0.00501566
-0.00298849
-0.0021745
-0.000198857
-0.00840402
-0.00346623
0.00406986
0.00333541
-0.002685
0.00157441
-0.00299013
-0.00623474
0.0057101
0.00191225
-0.000466045
0.00288991
0.00598879
-0.00147455
0.000311183
0.00066693
-0.00249068
-0.00277522
0.0064191
0.00151563
0.0038898
-0.0137452
-0.000637392
0.0031981
-0.00422479
-0.000544192
0.00374401
-0.00507578
-0.0128793
0.00845947
0.00381476
-0.00548777
-0.00137754
-0.00165924
0.00191047
0.000758753
-0.00342597
-1.68557e-05
0.000447171
0.000446994
-0.000357126
-0.0101254
-0.00781396
0.00252601
-0.00711321
-0.0107403
0.00287938
-0.0113814
-0.000555959
-0.00177237
0.00225128
-0.000242624
-0.000391806
-0.00709903
0.00257187
0.00105654
-0.00493978
-0.000303049
0.00035826
-0.000635212
-0.00161888
-0.00481477
0.00150642
-0.00572252
-0.00921542
0.00372928
0.00298068
-0.00354705
0.000629673
-0.00735037
-0.00190594
-0.00157119
-0.00936123
0.00210357
-0.00123786
-0.000577829
0.000222524
-0.00215396
0.0132063
5.61165e-05
-0.00399946
-0.00160585
0.000788988
-0.00438607
0.000338221
0.00773452
0.00519266
-0.00410659
-0.00348583
0.00268287
-0.00483992
0.00721911
-0.00586314
-0.00104359
-0.001172
-0.00577628
-0.00616648
0.0039856
0.00435658
0.00426841
-0.00106781
-0.00441866
0.0041436
-0.00587506
0.00339701
0.000358678
-0.00365556
0.00541013
-0.00179273
0.00331339
0.000892874
-0.00198897
-0.000185843
-0.0064976
0.00185878
-0.00270538
-0.000869066
-0.0045046
-0.00907298
-0.00646832
0.00243174
0.000234222
0.00447293
0.00145645
0.00812368
-0.0077187
-0.00339553
0.00498463
-0.0046099
0.0111632
0.00190428
-0.00500257
0.00332541
0.000661332
0.00948819
-0.00405888
-0.00563033
-0.000112362
0.00482779
-0.000619406
-0.000491087
-0.00610585
-0.00529757
-0.00219775
-0.00393377
0.0078682
0.00209627
-0.005147
0.00157301
-0.0042772
0.00225809
0.000149754
-0.00528227
-0.00585585
0.00394986
-0.00284712
-0.00632388
-0.00333519
0.00366985
-0.00215152
0.00458473
0.000967908
0.00199299
0.00342028
0.000835422
-0.00608262
-0.00305872
-0.000555655
0.00416188
0.000471785
0.00603029
0.00353938
-0.00365413
-0.00101836
-0.00239192
0.00109277
-0.00168614
-0.000841781
0.00368479
-0.0049226
0.000583533
-0.00347621
0.0035005
-0.00510592
0.0011795
0.00221418
-0.0032107
0.00196201
0.00090625
0.00772675
0.00287161
-0.00305524
-0.000276602
-0.00405173
0.000968352
-0.00353621
-0.0050527
-0.00182671
0.000208498
0.000486453
0.0014538
