-0.0120069
0.00404896
7.41424e-05
0.00025989
0.00201422
-0.0035955
0.000999693
0.00463041
0.0145498
0.00240194
-0.00334878
0.00714108
0.00085341
-0.000825832
-0.0042463
0.00116581
-0.00506216
-0.00977986
-0.000116091
-0.00265628
0.0161747
0.0216974
-0.000136351
0.00178082
-0.00508658
0.000699807
0.000767801
-0.001756
0.000258665
0.000268413
-0.00537662
-0.012506
0.00165571
-0.00560255
-0.00163767
-0.00250573
0.00548709
-0.00253882
0.000849889
-0.00623023
0.000203817
0.0016984
0.00263291
-0.00714908
0.00337708
-0.00478508
0.0121307
0.00714737
-0.0146059
-0.000364363
-0.000982563
0.00548176
0.0101856
-0.000204294
-0.00334961
0.000607006
-0.00286131
0.0038727
0.00686553
-0.00267308
0.00106585
0.00130728
0.0125058
-0.00769643
-0.0138081
0.00766818
0.0117463
0.0094032
0.00152897
-0.00260377
-0.00705968
0.000600215
0.00197301
0.0058027
0.00817238
0.00184096
0.0032587
-0.0154227
-0.00558038
-0.000309536
-0.00164111
0.0045695
-0.00223549
-0.00524605
-0.000645097
0.00231525
0.00167084
0.00121658
0.0039514
-0.0182411
0.0116072
0.0101803
0.00325437
-9.26817e-05
-0.000480192
0.00131607
-0.00171845
-0.00225027
4.9956e-05
-0.000793855
-0.00574444
0.0169472
0.0031696
0.00269268
0.00555425
0.00479459
0.000811578
0.00545604
0.00230401
-0.0127864
0.00357677
-0.0130789
0.00125635
-0.00298153
0.000506928
0.000479601
0.00361325
0.0301663
0.00841009
0.000837994
-0.0015954
-0.000170589
0.00157043
0.000892133
0.0080791
-0.00106005
-0.00355138
-0.00188095
-0.00292167
0.00262968
-0.000602151
0.000740139
-0.000333019
-0.00122826
-0.00433849
-0.00731326
0.000796292
0.0026723
0.00288212
-0.00376154
-0.00747194
0.00981061
0.0136058
0.00111224
0.000394119
0.00081405
-0.00217291
-0.00127551
-0.00234266
0.00790485
0.000563962
-0.0157026
0.00219779
0.000834378
-0.000993764
-0.0100198
0.00312311
0.00179627
-0.00215346
-0.00669494
0.00140882
0.000428941
0.00421454
-0.00554326
0.00425992
0.00940782
-0.000988476
-0.00764467
0.00787108
-0.0136962
-0.0119087
0.00370785
-0.0134727
-0.00233563
0.0056148
0.00174002
0.000360166
-0.000567821
0.00304768
0.00450188
0.00699787
0.00156011
0.000492226
-0.00220487
-0.0218231
0.0113111
-0.00187788
0.00347999
0.00864172
0.00157709
-0.0108174
0.00129406
0.00434217
-0.00312685
0.000157901
0.00415084
0.00680465
-0.000646571
0.00552726
0.00156266
-0.0020758
0.00024637
0.00610445
-0.000868805
0.000286324
0.00327653
0.000662036
0.0120397
-0.0108435
-0.0184296
0.00826314
-0.010174
0.00221342
-0.000250519
0.0012167
-0.0101824
-0.00669237
-0.000189623
-0.00163056
0.0190581
-0.000982406
0.000268161
-3.83732e-05
-0.00232846
0.00204844
-0.00174474
0.00246399
-0.00460918
-0.000337706
-0.00144862
-0.0057138
-0.0114247
0.000429427
0.00256158
0.000186024
0.00558995
-0.00845389
-0.00686669
0.00429686
0.0100058
-0.00509384
-0.00365698
0.000870735
0.00130041
0.00562157
0.00859933
-0.00873859
0.00389483
-0.000100083
-0.00402926
-0.00262318
0.000189867
-0.0119653
-0.0159862
0.00213389
0.000953573
0.00109162
-0.00832921
0.00299884
0.00689168
-0.0014476
0.00738334
0.00801847
0.00128161
0.0028139
0.0035488
0.000689986
-0.00459325
0.00575512
0.00772783
-0.00507412
0.00541137
-0.00469788
0.00480506
0.00129939
0.000522062
-0.00303089
-0.00199899
-0.01156
0.00218319
0.000947025
0.00332186
0.00332924
-0.00482394
-0.00107119
0.00469309
-0.00960028
-0.00853087
0.000467886
0.000704838
-7.54743e-05
0.00533644
-0.00375803
0.00151755
-0.000524233
0.00511749
-0.000110221
0.00347548
-0.00405113
-0.0021027
0.00132065
-0.00150346
0.0104465
0.000236278
-0.00142103
-0.000302657
0.01454
0.00593818
-1.20014e-05
0.0103313
0.0030324
0.0024673
0.0028249
0.000456348
0.00307814
-0.00326263
0.00389393
0.000911432
0.000702823
0.00698989
0.00216404
-0.00683483
0.0012296
0.00091811
0.0116656
-0.00637225
0.00180325
-0.0102099
0.00202636
0.00108572
0.0124957
0.00201153
0.000747894
0.00109501
-0.000741659
-0.00403341
-0.00069443
-0.00289218
0.00247632
0.00167415
-0.00189243
-0.00328768
0.0136926
-0.00190492
0.0108195
0.0143244
0.0029839
0.00181815
0.000386255
8.44861e-05
0.00446467
0.000688384
-0.000238566
-0.00229175
0.0025481
0.00313831
-0.00476713
-0.00180907
-0.000204491
-0.00367516
0.000760051
0.00147515
-0.0078711
0.0120856
0.00131661
-0.00218415
0.000863346
-0.0038769
0.000923695
-0.00515108
-0.00599841
0.00653091
0.00150803
-0.00131568
-0.000811931
0.00533273
-0.00670456
-0.000297472
0.00883582
-0.00681112
0.0168866
-0.0052852
0.00439098
-0.00451558
-0.00887183
-0.00684204
-0.00174877
-0.0223406
0.00240081
0.00868071
0.000534032
0.00186776
-0.00148942
0.00529301
0.000284066
0.00188223
0.00828475
-0.000412789
0.00520922
-0.00970013
0.00178895
0.00223257
0.000776865
8.79797e-05
0.00699657
-0.00439831
-0.00105848
0.00155586
0.00222273
-0.00127765
-0.00272771
-0.00249986
-0.0041843
0.00155572
-0.00114554
0.00208222
0.00157166
-0.00169005
0.000123883
0.00063605
-0.000233643
0.000362456
-0.00370375
0.00762592
-0.00590449
0.000325037
-0.00305707
-0.000438821
4.35384e-05
-0.000520529
-0.000149774
0.00893585
-0.00232524
-0.0198572
5.96268e-05
0.00419465
-0.0103171
0.00280554
-0.00521167
0.00365596
-0.00774525
-0.000369074
-0.00777234
-0.00362467
0.00250923
0.0019042
0.000870193
-0.00251646
-0.000896954
-0.00565255
-0.00484083
0.000532995
-0.00221702
-0.00444597
0.00432313
-0.00554624
0.00446848
0.000147961
-0.000238936
-0.00160179
-0.00260218
-0.000191261
-0.00548172
0.00790301
-0.0193134
-0.000269161
-0.00206047
-0.000983388
-0.000152242
-0.0127525
-0.00525481
0.00436718
-0.00210303
0.0119011
0.00157171
-0.00667561
0.00196007
0.00346868
-0.00888002
-0.00729395
0.00576908
-0.000138983
-0.00616421
0.00076689
0.00966714
0.0045989
0.00405835
0.00320963
-0.00361463
-0.00292821
0.00287357
0.000637045
-0.000325217
-0.00882542
-0.00885941
0.0017343
-0.0147835
-0.0078376
0.00328715
0.000346921
-0.00104989
-0.000212331
0.00462428
0.0024259
-0.00640091
-0.000893029
-0.000751069
0.000219349
0.00105898
-0.00142865
-0.000567455
0.00170153
-0.00201605
-0.00480373
0.00399709
-0.00571562
0.00179373
0.00194004
0.00375573
0.00092377
0.0101018
-0.0032485
-0.00707585
0.00342943
-0.00316977
0.00756785
0.022191
0.0244912
-0.00173193
0.004889
-0.00601728
0.000420419
-0.00258926
-0.00660911
-0.00932298
0.000822189
-0.000946634
0.00562118
-0.00540571
0.000354241
-0.00205506
0.00378032
0.000846577
-0.00546905
0.0069956
-0.000973527
7.10249e-05
0.00035292
0.00549791
0.00189977
0.00810387
0.00358701
0.0025776
0.000571825
-0.000211718
0.00939883
0.0014623
0.00297191
-0.00205607
0.00306784
-0.00334299
0.00220316
-0.00175913
-0.00680403
0.0022544
-0.00202109
-0.000831414
0.00102971
0.0163333
0.00869992
0.00630079
0.00100341
0.00962578
-0.00302819
-0.00133712
-0.00311935
0.00217146
0.00438267
-0.00635707
-0.00760346
0.00372901
-0.0045109
-0.000292817
0.008758
-0.00606077
0.0151682
0.000660641
0.00877125
-0.00559222
0.00325405
0.0116466
0.00437026
-0.00768489
-0.00157614
-0.000801303
-0.00229877
0.00803643
-0.0216337
-0.00408739
0.00342618
0.000528465
-0.00102496
0.000599998
-0.000323298
0.00835189
0.00046299
-0.0149986
-0.0109438
-0.00169791
0.00960415
0.00164445
2.90651e-05
-0.00188662
-0.0044191
0.00268152
0.00244316
0.0132393
0.00381089
0.00475661
0.004417
-0.0116303
-0.000326663
0.00323562
0.00630198
-0.000700438
0.00153611
0.000143057
1.21506e-05
-0.00115819
-0.00893313
-0.00419191
-0.00523525
0.0111077
0.0110741
0.000624024
-0.00986644
-0.00183488
0.000787608
0.000205913
-0.00874844
-0.000694934
-0.00229876
0.00447231
0.00475562
-0.00352464
0.00199064
-0.00248727
0.00446453
-0.000114656
-0.0116885
-0.00710696
0.0173056
-0.000502539
-0.00663646
0.00306282
0.00122418
-0.00284894
0.00448284
-0.00575222
-0.000272932
-0.0205421
0.00986929
0.00177581
-0.00344536
-0.00560516
-0.0120593
-0.00251221
-0.000350672
0.0102898
0.000165437
0.00119269
-2.15521e-05
0.0012206
-0.00932805
0.0015156
-0.00396054
-6.88894e-05
0.0020634
-0.0013126
0.00207386
0.0164565
-0.00306853
0.00223281
-0.0112122
-0.000735796
0.00115091
-0.00285927
0.0036497
-0.0132987
0.000997795
-0.000615314
-0.00110002
0.011108
0.0090306
-0.00208221
0.0116327
-0.000483258
-0.00399361
0.000278677
-0.0108358
-0.00112735
0.0115515
-0.00814299
-0.00151041
-0.00601046
-0.00229668
0.00273876
0.0136014
-0.00428011
-0.0067103
-0.00141406
0.00138947
-0.00288505
-0.0102163
-0.00472165
-0.00553174
0.00382154
0.000191998
0.00488402
0.00621577
-0.00289484
0.000830413
0.000992947
-0.00211232
-0.0130721
-0.00101372
-0.00219883
0.0017376
0.00404756
0.00486256
0.00109369
-0.00377487
-0.00303928
0.00284742
-0.00112615
-0.000670228
0.00430752
0.00234691
-0.00208897
0.0106795
-0.0204983
-0.0298166
0.000851901
0.000146477
-0.00355996
0.00296201
2.90831e-05
0.0043294
0.00280298
0.00139088
-0.00347031
0.00199878
0.00153791
-0.00102595
-0.00516217
-0.00667592
-0.000535251
0.000459652
-0.000423932
-0.00660949
0.000545813
0.000769324
0.000626313
0.0211617
0.00619103
-0.000678815
-0.00514933
0.00713893
-0.0016975
-0.00284172
-0.00229898
-0.00295763
-0.00547522
-0.00168987
-0.00715002
-0.00212609
0.00660311
-0.0123095
0.00309657
-0.00192499
0.00283684
-0.000138248
0.0020214
0.0011976
0.000136474
-0.0113331
0.00463508
-0.0107545
-0.00572784
0.00992503
0.000327248
0.000388281
-0.00186024
0.00122384
0.0111186
0.00179514
-0.00222091
-0.0130345
0.00234285
-0.00524749
-0.00198754
-0.00203998
0.0102996
0.00343094
-0.0037037
0.00718937
0.00140674
-0.00890485
9.91264e-05
0.000504649
3.47192e-05
-0.0152295
0.00238008
0.000578957
-0.00147583
0.000503843
0.000252739
0.00114081
0.000236595
-0.0136634
0.00285144
-0.00964971
0.000259094
0.00100427
0.01938
0.00125862
-0.0041985
-0.000440409
0.0109593
0.000140134
-0.00205666
6.68695e-05
-0.0064292
-0.00222638
0.00742105
0.00419651
0.00549278
0.00188971
0.000249414
-0.0121912
-0.000385764
-0.0015347
0.00808039
0.000114056
0.00180208
0.0038847
-0.00662313
0.00652438
0.00843394
0.00182419
0.00234929
0.000179089
0.000349805
0.00953314
-0.0015408
0.000647949
0.00288135
-0.00412949
0.00580764
0.00351715
0.000637226
-0.00508899
-0.0187245
0.000615616
0.00526724
0.00187562
0.000416388
0.00129867
0.000639998
0.00889188
-0.000419984
-0.0074946
-0.0027209
0.000933401
0.00265404
0.00714137
0.000327813
0.00581885
-0.00267087
-0.000790364
0.0080398
0.00651581
0.00168418
0.000755892
-0.00207607
0.000949116
-0.00638962
0.000755402
-0.00134399
0.00772402
0.00456834
0.00126861
-0.00111382
0.000764159
0.000498787
-0.000184131
0.000495397
-0.000806968
-0.00125423
0.000156269
-0.00682037
0.00378634
0.000765903
0.00216136
0.00150641
0.000117336
0.000119199
-0.000501784
0.00966005
0.00181315
0.00155427
0.000756376
1.91247e-05
0.000790354
0.000397604
0.012448
0.00675754
0.00057941
-0.00135598
0.00386552
0.00199954
0.00366887
0.00241733
0.00108809
0.00275076
0.000299127
0.000776342
-0.00344729
-0.00114362
-0.000168954
0.00178722
0.000480296
-0.000218357
0.0135338
-0.000203285
-0.00371026
5.25777e-05
-0.00121735
0.00206564
0.0138127
0.000668333
-0.00139108
0.0074729
0.0106863
-0.000790203
-0.00278105
0.0127075
-0.00415455
0.00134413
0.000659502
0.00494973
-0.000680075
-0.0108025
0.00361732
0.00259668
-5.89067e-05
-0.0019234
0.00511984
-0.0141738
0.00109573
0.00308026
-0.00155865
-0.0085812
0.000671688
-0.00103745
0.00409348
-0.000691374
-0.00292562
-0.00446819
-0.0142871
-0.00350522
-0.000573866
0.00707343
0.00688799
-0.00738801
0.00761239
-7.18141e-05
-0.00534634
-0.00929922
0.00594857
0.000113416
0.00493664
-0.000577364
0.00432353
0.0016913
-0.000389231
0.000334139
-0.00444472
0.0110356
-0.00108878
-0.00361772
0.00111294
-0.00467658
0.000488825
0.00209225
-0.00829864
-0.00320117
0.00421939
0.00609965
-0.000684903
0.000952416
-0.00568801
0.000621051
-0.00102052
-0.0054368
-0.0165184
-0.0129983
-0.00266209
-0.00370369
0.00184324
-0.00687084
-0.00196962
-0.000308917
-0.00681527
0.00594329
-0.000685461
0.00829941
0.00147002
-0.00440682
0.000232286
0.00166258
0.00761882
0.00426935
-0.000103478
0.00402134
-0.00559875
0.00090304
0.000321109
0.00942459
0.000730145
0.00480676
-0.00394308
-0.00828803
0.00193408
0.000455335
-0.0123108
-0.00158309
-0.00220909
-0.00538241
0.00893157
-0.000322607
-0.0137497
0.00456039
0.000747822
0.0183539
-0.000592771
0.000352856
-9.00296e-06
-0.00640923
0.00763047
0.00349701
0.0102878
-0.000453583
0.00127542
0.000670158
-0.017055
0.0017079
9.59969e-05
0.000950414
-0.00334047
-0.0100551
0.00132363
-0.00465269
0.000798858
-0.00457584
-0.00326359
-0.00853948
-0.00411915
0.00379878
0.00103946
-0.00166785
-0.0027267
-0.00990048
-0.00277316
-0.00270089
0.00108555
0.000383284
0.00153956
0.00423764
0.00348934
0.00253804
0.011524
-0.000439357
-0.00316
0.000525123
0.00978719
-0.00249821
-0.00423967
0.00927727
-0.00417554
-0.000952086
0.00096311
-0.0101527
-0.00490549
0.00612811
0.00313071
-0.0104875
-0.00161001
-0.00667941
0.00103812
0.00652583
-0.00123783
-8.07123e-05
0.000641147
0.00386326
-0.00907627
-0.00933186
-0.010242
-0.00150362
-0.00284246
0.000618087
-0.00151406
-0.0089111
0.00537197
0.00324071
-0.00319305
6.27777e-05
-0.0170045
-0.00505936
0.0100097
-0.00242261
0.000171353
0.000209295
-0.00774567
-8.77702e-05
0.00132578
-0.00445699
0.00390717
-0.00315543
-0.000533946
0.00134619
0.0180877
0.000808033
-0.0103343
0.00237509
0.000830502
0.00900007
0.00144467
0.00139065
-0.00662002
-0.0118271
-0.0055037
0.00243145
0.000772386
9.85193e-05
0.0015173
-0.00102152
0.00632094
0.00198005
0.00660937
0.00102894
1.00688e-06
0.0154382
-0.000248043
0.00837858
-0.00209947
0.000258955
0.00195809
0.000265452
0.00356978
-0.00114739
0.000870039
-0.00310906
8.44654e-05
0.0120618
0.000590184
-0.0163022
-0.00100744
-0.00177805
0.00015078
0.000828472
-0.00191822
-0.000951036
-0.00188213
-0.00441521
-0.00242066
0.000684114
-0.00216581
0.00218746
-0.000652368
-0.00484037
-0.00152496
-0.00289053
0.00302375
0.0004836
-0.00373997
0.000813438
0.00531499
0.00129831
0.00160643
0.00512277
-7.19475e-05
-0.00806991
-0.00605193
0.00312304
0.00256208
-0.00536765
0.00110067
-0.00496394
-0.0107054
0.00638525
-0.00155855
-0.00350547
-0.00151995
-0.00141386
-0.000580464
0.000985303
0.000391835
-0.00401241
0.00210697
0.000868484
-0.00522519
0.00203516
0.00260237
0.000288619
-0.001658
-0.00322832
-0.00107019
0.00244358
-0.00194374
0.000466761
0.000313685
-0.00116599
0.00369103
0.0144228
0.000269008
0.00301342
0.00015929
-0.00225266
-0.00768184
-8.27637e-05
0.00282442
0.00526677
-6.89781e-05
-0.00145601
0.002761
0.00243282
-0.00230827
0.00994795
-6.18097e-05
-0.000561236
-0.000724714
0.00137018
0.000715029
0.0056547
0.00158328
0.000348554
0.00503118
-0.00698841
-0.00638524
-0.00317021
-0.00235861
0.00292193
0.000784144
0.000649699
0.00793466
0.00199074
-0.00314005
-0.0120543
-0.00177437
-0.0057571
-0.0112078
-0.00627073
-0.00323873
0.00111257
0.0101572
0.00973792
0.00322086
0.00415389
0.00307639
-0.00294643
-0.00116835
-0.000723775
-0.00382634
0.000125151
-0.00614387
-0.00251711
-0.00139892
-0.00183477
0.0204216
0.0063185
0.00734955
-0.00439168
-0.00644614
0.00205041
0.00321811
0.00421099
0.00352726
0.0138838
0.00638029
0.0163993
0.00175174
-0.00119382
0.0258054
-0.00243571
0.00885052
0.0176175
-0.00155419
-0.00507549
0.00719104
-0.0107909
-0.00132304
-0.0174771
0.00121317
-0.0077487
0.00607027
0.000379407
0.00101152
0.0159461
-0.0145655
0.00464928
-0.000480423
-0.00370621
0.0109226
-0.000146775
0.00065146
-0.00972415
0.000540267
0.00585969
-0.0067699
0.0177273
-0.00819913
-0.00919422
0.000987893
-0.00654751
-0.0125852
-0.00770837
-0.000119288
0.00562042
0.0174901
0.00221972
0.00893636
0.000639471
0.00438832
-0.00479837
0.00231237
0.00180399
0.00605729
0.00106961
5.39777e-05
-0.000768429
-0.0155624
-0.000504828
0.00347659
-0.00114743
-0.00636539
-0.000873322
-0.00138438
0.00351538
0.00398434
-0.00185495
0.00141382
0.00232622
-0.00147282
0.00108302
0.00133848
-0.0036296
-0.00182626
-0.012152
0.000436219
-0.00637043
0.00342364
0.00873198
0.00335747
-0.00560934
0.000284196
0.00236425
0.000908126
0.00156407
0.00152083
-0.000290198
0.00179452
-0.00293031
0.00840961
-0.00036114
0.0053351
0.00358415
0.000649533
-0.00151284
0.000854687
8.87538e-05
-0.000404169
-0.000920625
-3.41416e-05
-0.00699111
-0.000942509
-0.00420285
-0.00283398
0.000166429
-0.000401083
0.00161217
-0.00282359
0.00928137
0.000198568
-0.00285645
0.00648895
-3.15104e-05
0.00296717
-0.00552825
0.00683107
0.0109489
-0.00333417
0.00042213
-0.0124418
0.00442498
-0.000598982
-0.00341335
0.00267238
0.00918967
0.000270015
0.00656402
-0.0010502
0.000329081
-0.00198237
-1.6871e-05
0.0118595
-0.00093452
-0.00849703
0.0250063
0.00593076
-0.00351554
-0.00468371
0.00259001
-0.00148916
-0.0015184
0.00379271
-0.00352194
-0.00180741
0.0113008
-0.00175421
-0.00388231
-0.00501304
0.00152963
-0.00846376
0.00398068
0.00125347
0.00934522
-0.00455559
-0.00188985
-0.00572865
0.0060854
-0.00347816
0.00527754
-0.000802061
-0.0206318
-8.08608e-05
0.00449878
-0.007072
-0.00658704
3.91728e-08
0.000319674
0.01116
-0.00669776
0.00287333
0.00103067
0.00662059
0.000509412
-0.00309916
0.0170289
0.0135391
0.0126368
-0.0279398
0.0161466
0.00395673
0.000665673
0.0052791
0.0169669
-0.000324183
8.80353e-05
-0.000777389
0.00499016
-0.00240044
0.00115449
-0.00205381
0.000653716
-0.00114061
0.00460048
-0.00125861
0.000843031
-0.00134072
0.00163539
0.0188683
0.00889084
-0.00149799
0.0012913
0.000876942
-0.00100422
-0.000514869
0.00335328
-0.00199022
0.00081136
0.00176523
0.00459348
0.00604049
0.0034799
-7.21763e-05
0.00252898
-0.000775608
0.00238079
0.00057953
-0.000684851
-0.00092368
-0.00608144
9.31099e-05
0.00015841
0.00608173
4.5269e-05
0.00427217
0.000681582
-3.62799e-05
-0.000231131
-0.0023675
0.00332528
0.00203364
0.00190296
0.00111225
0.00104241
-0.000151423
0.000299327
0.00358856
-0.0026339
0.000223408
-0.000690434
-0.00131927
-0.00168146
-0.000742059
0.000444976
0.000227398
0.00100322
-0.00388374
0.00753635
-0.00179133
0.00181856
0.00113602
-0.00542837
0.00195777
0.0139391
0.00148294
0.00142247
-0.00432857
0.00025215
0.00391142
-0.000272684
-0.0179182
0.013882
0.00214508
0.00112684
0.00222511
0.0116667
-0.0027057
0.00522802
0.000456259
-0.00498094
-0.00304939
0.00531522
0.00669883
0.00598908
0.000713256
0.000849076
0.00104977
0.000885694
0.00489189
-0.0114088
0.00171853
0.000120445
-0.00341804
0.0021544
9.91527e-06
-0.0162089
-0.00066957
-0.00142113
-0.0057826
0.000468435
0.00266318
-0.00145884
0.00843323
0.00334905
0.000641253
0.00286652
-0.00443314
0.000800404
0.000403329
0.00154969
0.00406076
0.0147958
0.00221507
0.00392612
0.000392856
-0.00173421
0.00555944
0.00153787
-0.0106575
0.000718291
0.0030105
-0.000295858
0.00383964
0.0187302
0.000759323
-0.000515853
0.00895106
-0.00149386
0.00746983
-0.00283628
0.00882432
0.00196187
0.00216083
0.00064864
0.000660991
0.00230017
-0.00211511
-0.00836012
0.00227114
0.00576607
0.00635548
0.00624714
-0.0039181
-0.00461653
0.0149347
-0.000401408
-0.00821405
0.0129911
0.000269398
-0.00464328
-0.00300128
0.00377979
0.00225888
0.000876636
0.00044897
0.00206848
5.86528e-05
-0.00085788
0.0010573
-0.000281028
0.000375235
-0.00360267
-0.000671336
0.00392244
0.000516677
-0.00417798
-0.0115218
-0.00362023
0.0108938
-0.000797482
0.000969519
-0.00867557
-0.000924009
0.000397373
0.00122466
-0.000187718
0.0016214
-0.00420099
0.00511416
0.00187959
0.00121735
0.0085762
-0.000176232
0.00164072
0.00809164
-0.00718709
0.000729974
0.00831399
-0.00550166
0.00073692
-0.00497134
-0.00437321
0.00580015
0.00135894
0.0114108
-3.08476e-05
0.000678366
-0.00735686
0.00432014
0.00137639
-0.0030755
-0.0135838
5.65704e-05
-0.00115676
-0.0108037
-0.00612672
-0.00519704
-0.0107108
-0.0070589
-0.000808948
0.00236818
0.00210791
-0.000180788
0.000989657
0.000950098
5.30258e-07
0.00512172
0.00111558
-0.00103175
-0.00804535
0.0109769
0.00180687
-0.0150707
0.000414048
0.00401028
-0.0014082
0.00176969
0.00318786
0.00208612
-0.00838258
7.51029e-05
-0.0139402
-0.000103288
0.000873338
-0.00392147
0.000572571
-0.00308103
0.000904021
0.0087429
-0.00190432
-0.0102735
0.0014525
-0.00552003
-0.000827309
-0.000742424
0.000209192
0.00144214
-0.00153568
0.00312743
-0.00147763
0.00503016
0.000669175
0.0139113
0.000198786
-0.0018362
-0.0111626
-0.000671245
0.000622738
0.000350656
0.0107072
-0.00656069
0.00158054
0.00342532
-0.0025898
0.000615127
-0.000243541
-0.00109344
0.00488798
7.60176e-05
0.00112604
0.0148702
0.000476147
0.0136594
0.00518601
-0.00568944
0.00245925
0.00718594
-0.000123736
-0.0113785
0.00718692
0.00437974
-0.00314995
0.00685795
-0.0121371
-0.0047819
0.000213323
-0.00618515
-0.00975424
0.010618
-0.0014379
-0.0040681
0.00210061
-0.00477254
0.0152147
-0.000572754
0.000868147
0.00979223
0.000416543
0.0074979
0.00533802
-0.000930444
-0.00814906
0.00196191
0.0145187
0.0117656
0.00181008
0.0012953
0.00812615
0.0011474
0.00103272
-0.00396445
0.0197632
0.00269882
0.0106537
0.00281714
-0.00460587
0.00658525
0.0119495
0.0125061
-0.0103656
0.0049852
0.00569868
0.00129045
0.0265609
6.63237e-05
0.00796624
-0.00184367
-0.00622849
0.0170765
-0.000781918
0.000544736
0.00984033
-0.00173669
-0.00555556
0.000768247
0.00632133
-0.00124991
0.0101699
0.00210941
-0.00310275
8.65079e-05
0.00388955
0.00120448
0.000504972
0.0136237
-0.00666003
0.00578413
0.00175356
0.0164025
0.000633468
0.0208104
0.00246402
0.00527773
0.0154068
0.0141814
0.00224788
-0.0111639
0.00179578
-0.00152098
-0.000214202
0.00174528
0.00137882
0.0021069
0.000418535
0.00600434
0.00550734
-0.000726787
-0.000324249
0.000992291
-0.00771121
0.00023507
-0.00761706
9.01897e-05
0.00733416
0.00230457
-0.00824679
-0.00589649
-0.00863075
-0.00426321
-0.0141648
0.00242355
0.00322431
-0.0047236
0.000753982
-0.0118347
-0.000309242
-0.00721437
-0.00057002
-0.015689
-0.00208699
0.00453116
0.00284119
0.00239105
-0.00932108
0.00251778
0.00388237
0.000169352
2.46749e-05
-0.00737798
-0.00264676
0.000487563
0.00417034
-0.00594159
-0.0125165
0.00602957
-0.00376482
0.00440856
-0.00522669
-0.00173266
0.000428559
-0.000116026
-0.0114242
-0.0018806
0.000562954
-0.0027283
-0.00768064
0.00557257
0.000371831
0.00108223
-0.00257678
-0.00149899
-0.00561941
-0.00197765
-0.000686421
-0.00402386
-0.0013482
0.00623742
-0.00223076
-0.0107874
0.00407613
-0.00788023
0.0151217
-0.00685926
-0.00113251
0.00472586
-0.000559068
0.00256926
0.000617948
0.000432578
-0.00168884
-0.00497672
-9.27422e-05
-0.0144753
0.000411036
-0.0147567
-0.00211118
0.00036562
0.00334724
-1.00881e-05
-0.0102623
-0.000272034
0.0020441
-0.00324416
0.00706454
-0.0010346
0.00127291
0.000162131
-0.000689977
0.00891333
-0.000855774
0.00145924
-0.00355315
0.000802339
-0.00335044
0.00335569
0.00281537
0.0164313
-0.00492963
-0.00314113
-0.00086668
-0.000814022
-0.000743881
-0.00780396
-0.000749941
-0.00226325
0.000333698
0.00122887
-0.00303534
-0.00670867
0.00412469
0.000192738
0.0029521
-0.00321306
0.000582894
0.00275329
0.00723965
0.000209299
0.00280884
0.00367564
-0.00653181
0.00110407
0.0010444
0.00313128
-0.00148622
0.00867968
0.000414545
-0.00184036
-0.000472964
-6.43627e-05
0.00258374
-0.00655379
0.00334762
-4.71582e-05
0.00443433
0.0189144
0.000412269
-0.00715924
0.0092298
-0.00601699
-0.0124085
0.0106185
-0.000825716
-0.0115674
-0.00373204
0.00226142
-0.00847853
-0.00096432
0.000133097
0.0069526
-0.00858065
0.0124769
0.0173851
0.0030081
0.00307645
0.00114459
0.00278808
-0.000333326
0.000883598
0.00664679
-0.00861469
-0.00020598
0.00092962
-0.00181
0.00390199
0.00512819
-0.00345629
-0.00426099
-0.00631607
0.00195511
0.00522509
0.00176691
-0.00475517
-0.00443224
-0.00443954
0.0134003
-0.00207392
-0.0118234
-0.0207947
0.0046152
0.00014579
-0.00509334
0.00191897
0.00206033
0.000906283
-0.000739625
0.00725281
-0.0110063
0.00815356
-0.00756144
-0.00212145
0.000173951
0.000336377
0.0131662
-0.000374174
-0.000709787
-0.000428146
0.0156445
-0.000132855
0.0010638
-0.00474992
0.000414445
0.00120293
-0.00139953
-0.00376239
0.000395711
0.000662483
0.000201777
-0.00944021
-0.00653523
0.00195967
-0.0115941
0.00157851
0.00104677
-4.91461e-05
-0.000938517
-0.00639713
-0.000771649
-0.0182291
0.00421681
-0.00611648
0.000687198
0.00130751
0.0074901
-0.0010147
0.000694465
-0.00817312
0.0106625
-0.0105783
0.0045312
0.0144594
-0.000536597
-0.00463392
-0.00185127
-0.0133581
0.000796446
0.00188342
0.00256141
-0.00427683
-0.000343206
0.000329629
-0.000696569
-0.00166478
0.00472512
0.000351961
-0.00786551
0.00962786
-0.000341818
0.0159393
-0.000656849
0.00210034
-0.000929603
-0.00360242
-0.00110389
-0.00637197
-0.0102619
0.00143425
0.00995942
-0.0010862
-0.012003
-0.0091739
-0.000860441
0.021714
0.000406898
-0.00686288
-0.000804576
0.0139945
0.00956225
-0.00515722
0.00560343
-0.000765195
-0.00505781
0.0103397
0.000509727
0.000734482
0.00282127
0.00875735
0.000452391
-0.00277814
-0.011272
-0.002834
0.00281429
-0.00010187
-0.00272999
0.0159668
-0.00522073
0.00564942
0.00873454
-0.00274618
0.00110538
-0.00907306
-0.00274906
-0.000172217
0.00357261
-0.00089033
0.0036633
-0.000276943
0.0130833
0.00813299
-0.00866366
0.0054619
0.00177859
0.00149639
-0.000583102
-0.00133685
-0.00119922
-0.00255873
-0.0030927
-0.00428563
0.000477357
-0.00220043
0.00126048
-0.00106515
0.00074285
0.0183039
0.00488555
-0.000264607
0.000926746
0.00744914
0.000423436
0.00252933
-0.00155859
0.000700251
0.00607044
-0.0139961
0.00273089
-5.56127e-05
0.000531101
-0.0131259
0.0151022
-0.0151829
0.00216896
0.0115078
-0.00371257
-0.0028664
0.00301828
0.00157162
-0.00872354
0.0104102
-0.00456697
0.00708922
-0.000173867
-0.000424518
-0.00235786
0.00741513
-0.0211935
0.0019631
0.00279708
0.00231155
0.00267295
0.0205007
-0.000860786
-0.00100237
0.00188647
0.0023562
-0.00119786
-0.00277013
0.00118084
0.00321522
-0.00191821
0.00246311
-0.00427267
0.00188081
-0.00317506
-0.0012216
-0.00644721
0.00430009
-0.00653301
0.000636275
0.0100088
-0.000786296
0.00411141
0.00411113
2.10814e-05
0.000288801
-0.00266115
0.00221979
0.0115209
-0.00143794
0.00141585
-0.0108426
-0.00530435
-0.00091018
-0.00395544
-0.000912298
-0.0119793
-0.00170799
0.00206557
-0.0022872
0.00115378
-0.0149008
0.00726712
0.000760258
0.0018037
-0.00180916
0.00245203
0.00441934
0.000809556
0.00753939
0.00443155
0.00344602
0.00902724
-0.00155955
0.0043355
-0.00168671
0.00814504
-0.000863004
-0.000676001
0.000853373
0.0140736
0.00145477
0.00679015
0.00773593
0.00846404
-0.00212935
0.000326483
0.000407249
0.00503628
-0.000219201
-0.00972722
-0.000509953
-0.000549681
0.00495344
0.00246936
0.00395827
-0.00266648
0.0011381
-0.000461297
-0.00952243
-0.00315665
0.00116309
0.00309108
0.00812145
-5.15469e-07
0.00475785
0.00288483
0.00967956
0.00329056
0.00732133
-0.00160034
0.00128832
-0.0007051
0.00135512
-3.21357e-06
0.0027833
0.0188332
0.00454978
-0.0138709
-0.00485926
0.0129637
-0.00520348
0.00371748
0.00309424
0.0070568
0.000325472
-0.00176395
0.0142903
-0.00464694
0.00064836
0.00251726
-0.00470667
0.00808136
-0.0033956
-0.00124468
0.00090708
-0.00245767
0.000205514
-0.000327439
-0.00117604
-0.000318015
0.0284589
0.00639819
-0.00381742
0.00066592
-0.000680342
0.00439804
-0.00923185
-0.00245924
0.000739522
-0.00200677
0.00594365
0.000389386
0.00294274
-0.00454103
-0.00322245
-0.00591714
0.0092474
0.0186674
0.00139755
0.00041644
0.00233058
0.00134582
7.53026e-05
0.00204547
0.00343105
0.000887178
-0.00987471
-0.00049867
-0.00115563
0.00415371
0.0121667
-0.000200606
0.00222664
-0.00492834
0.00100529
-0.0158064
0.00207158
-0.000162904
-0.0007326
-0.00200776
0.0037371
0.00393688
-0.00227933
-0.000410269
0.0019102
0.00320873
-0.00331986
-0.00267391
-0.00698842
0.000737418
0.000985035
-0.00114274
0.000859333
0.0127628
-0.00294009
-0.00487166
-0.00246909
-0.00301733
-0.00695207
-0.00125428
3.88112e-05
4.18308e-05
-0.000685972
0.00517552
-0.0013429
0.00709137
-0.00243429
-8.39056e-05
-0.00685824
-0.001185
0.00233331
-0.000752574
3.89949e-05
0.00306351
-0.0182205
-0.00142481
0.00251877
-0.00242331
0.000442994
0.00612823
-0.00824132
0.000189306
0.00159919
0.00179549
0.00640697
-0.0101759
-0.00121881
-0.00345016
0.00798457
0.00927766
-0.0017344
-7.01121e-05
0.000389613
-0.00504287
-0.00585645
0.0147237
0.000144005
0.000643178
0.000818917
-0.00219096
-0.00131025
0.000184693
-0.000913901
0.0121732
0.000424642
0.00421378
-0.00171421
0.00438566
0.00119722
0.000373361
0.000458031
-0.000887547
-0.000822229
0.00142516
0.000709464
0.00240694
-0.00463534
-0.00140121
0.00745338
0.00926926
0.000153282
-0.00460084
-0.00535942
0.000458941
-0.0074045
0.0128294
0.00789686
-0.00172319
0.00893759
0.0047302
0.000784117
-0.00233834
0.0100243
-0.000188728
0.00139884
-0.000311212
-0.00458264
-0.000118346
0.00305458
0.00247548
0.000707383
0.00388334
-0.00285736
0.000187055
0.0114331
-0.000635995
0.00447198
-0.000863353
-0.00129088
0.000121317
-0.00729975
0.00251436
0.003783
0.00453594
0.00395107
-0.000272079
4.65874e-05
-0.000431461
0.000788315
0.00337696
-0.000585358
-0.0155961
-0.00310339
-0.0060204
-0.0130105
0.00105393
0.000407968
-0.000235504
-0.00227051
-0.0031497
0.00097575
-0.000757531
0.000267747
0.00170611
0.0050542
-0.00176737
-0.000160285
-0.0006959
0.00345629
0.000177322
-0.000509935
0.00200011
0.00764631
-0.000379197
0.0032082
0.00195483
-0.00239036
0.0100239
0.000759981
0.00117113
0.00500622
-0.00884421
0.00445534
-0.00266755
0.00702448
0.00487567
-0.00167478
0.000783209
0.0109241
-0.00290511
-0.009448
-0.00543034
0.00474937
0.000321713
0.000224953
0.00140664
0.00422332
0.000454218
-0.000838646
-4.05048e-06
0.000389984
-0.0255639
0.00169923
-0.00369251
0.00116057
0.00559153
0.00111986
-0.00780586
-0.00205983
-0.000906708
-0.00272228
0.000521331
-0.00232894
0.00130785
0.0118594
0.00171265
-0.000801368
-0.00207732
0.00534548
0.000414818
-0.00696723
0.00784891
-0.000860554
0.00142044
-0.00213351
-0.00542177
-0.0049952
-0.000413649
0.000218579
0.00105679
-0.00262666
0.00258491
0.00188799
-0.00394454
-0.00258776
0.00160537
0.00343786
-0.00981021
-1.78002e-05
-0.00290393
0.000633895
0.00120997
0.000786113
0.00219535
-0.00362296
0.00036274
0.00651798
0.000381408
-0.00318902
-0.00438261
-0.00166201
0.00481069
0.0054654
0.00464113
-0.00294168
-0.00855674
0.000466268
0.00143853
-0.000615914
-0.000312752
-0.00270997
0.00264819
0.0013856
0.0137501
0.00982251
0.000189756
0.00145478
-0.000935523
-0.000471711
0.00431649
-0.00376671
0.0171213
0.0108007
-0.0062599
-0.00639059
0.00258573
0.00144246
0.00309843
-0.00142196
0.00138374
0.0095118
-0.00325712
0.000673125
-0.000624096
0.00070044
0.000230775
-0.00220332
-0.00661827
0.000987858
-0.000258927
-0.000651644
0.00705573
0.00845189
-0.00385258
-0.00953022
-4.41206e-05
0.0168962
0.00058213
0.00119324
-0.00701683
-0.00200697
-0.000149086
-0.00345033
0.00110867
-0.000568001
0.00364512
-0.0148926
-0.00861629
0.00535967
0.00557104
0.000867811
0.00322529
0.00170612
0.0015163
0.000674828
-0.00385357
0.00323731
-0.00393556
0.00316579
-0.00329704
0.00156346
0.00154588
0.00048802
0.0148147
-0.0023321
0.00137399
0.00367878
0.000165696
0.00327367
-0.00174645
-0.011212
-0.000674434
-0.00363633
-0.0119244
-0.0105871
-9.78571e-05
-0.00595535
-0.00974144
-0.00538629
-0.00728589
0.00321065
0.000931325
-0.0152281
0.00010758
0.0058413
-0.00656052
0.0167221
-0.000503905
0.000312386
0.00463685
0.000241058
-0.000263072
0.00167268
-0.00030403
0.0016246
-0.0030677
0.0017752
-0.00165254
0.000132082
-0.0040572
-0.0057997
0.00112667
0.0103978
0.000332761
-0.00442752
-0.00475521
-0.0158057
-0.00808518
0.00333798
0.000309766
0.00299904
0.000473136
0.00383639
0.00652097
0.00377047
-0.0160107
0.0103212
0.00907413
0.00170615
-0.0035549
0.0030929
0.00335043
-0.00649983
-0.00919501
0.000411584
-0.00167293
-0.000211599
-0.00184068
-0.00237239
-0.0010847
-0.00123996
-0.00156672
-0.000249738
0.000179148
0.000395697
0.00107244
0.00163023
-0.00997563
-0.00397139
0.00172208
-0.00308056
0.000757865
-0.0124624
-0.00266976
-0.00104839
0.00915911
0.00561344
0.00655845
0.00331716
-0.00326457
0.00192685
0.0022268
-9.83587e-06
-0.00347315
-0.00259217
0.00866027
0.00613039
-0.00073597
0.00694302
-0.00158139
0.00463467
0.0033258
-0.00482764
-0.00808104
0.00318513
0.00691293
-4.78875e-05
-0.00553343
-0.00135547
-0.00248634
-0.000281761
-0.00116237
0.00368542
6.19159e-05
0.00179311
0.00440401
0.00361188
-0.0136366
0.000668782
0.000686778
0.00904633
-0.0167694
0.000929346
-0.00482393
0.0116617
-0.00278117
-0.00300263
-0.000957268
-0.00075204
-0.00147083
0.00828149
-0.00412711
0.00248037
-0.0022768
0.000116387
0.00115842
0.0101932
-0.0186039
-0.0158807
0.00349364
0.00372564
-0.000355631
0.00216973
-0.00667842
0.00215781
0.0175612
-0.00385255
-0.00693002
0.00275601
-0.000671261
0.0097801
0.000961884
-0.00130949
-0.00092906
-0.0190493
-0.00289398
0.00442464
-0.00841611
-0.0137139
0.01199
-0.0126953
-0.00713809
-0.0103585
-0.00322633
0.000734696
0.000618502
0.000969434
0.00271014
-0.00158058
0.011148
0.00487147
0.00076584
0.000558191
-0.00499253
-0.00140936
-0.0014071
0.00133746
-0.00827977
0.000240263
-0.00851837
-0.00475438
0.00152031
-0.00910791
0.00344828
0.000603085
0.00921625
0.00107861
-0.00216114
0.00169295
-0.0129777
-0.00666138
0.00830851
-0.011619
0.00124416
-0.00503703
0.00440797
0.000426484
0.00466271
0.00186827
0.00260197
0.0258309
0.00402592
0.00315254
0.00174573
0.00403275
-8.64213e-07
-0.00233233
-0.00269704
-0.00730803
0.00247007
-0.00519694
0.00117271
0.00123183
0.000256465
0.000145031
-0.00588005
-0.000686095
0.00150781
0.00303061
0.00727935
-0.000727744
-0.00839437
0.00628492
-0.000271693
-0.00148559
-0.00106205
0.0021296
-0.000158769
0.0181377
-0.00455712
-0.000214452
0.000110768
-0.00175713
0.00476516
0.00127423
-0.00171887
-0.00308476
0.010476
-0.00554423
0.00443134
0.00607832
0.015832
0.000452869
0.00172727
0.00261827
0.0127125
0.00747883
-0.000142092
-0.00329198
0.000753667
-0.00830235
0.00457228
0.00876474
-0.00911142
0.00151093
-0.00200252
0.000600671
-0.00730592
-0.00732711
0.000537078
-0.0136133
-0.00348973
-0.00545538
-0.000506504
0.00273638
0.00345757
-0.00693766
0.0044147
-0.000422834
-0.0168565
0.000946551
0.000986282
0.00846533
0.00472436
3.17553e-05
0.0109408
0.000271956
-0.00765737
0.000619074
0.00203146
-0.00754215
0.00794531
0.00651823
0.00870411
0.00599939
0.000809652
-0.00935196
-0.00193414
-0.0113637
-0.0010374
0.00175818
0.00140501
-0.0024596
0.0112881
0.00549372
-0.0023501
-0.00299379
0.00135032
-0.00249831
0.00530012
0.000105585
-0.00369561
-0.000501938
-0.0125852
-0.00598316
-0.00162396
-0.00446666
0.00539055
0.000224766
-0.00753405
0.0160271
-0.00236156
-0.00262552
-0.0167303
0.000476679
-0.00911527
-0.0067777
-0.000743791
0.00119344
0.00128337
0.00251401
0.00371069
-0.000259985
-0.0063326
0.00785439
0.00226336
-0.00349013
0.00104346
-0.0033167
-0.000105947
0.000239797
0.00058154
-0.000602552
0.00812079
0.00965331
0.00202145
0.00438122
0.0152586
0.000620077
0.00113108
0.00962143
0.000802328
-0.00155822
-6.26468e-05
-9.52613e-05
0.000314651
0.000170095
0.00358283
0.00045924
0.0030424
0.00450963
-0.000916411
-0.00716988
0.00298851
-0.0045671
0.011762
0.00229435
-0.00249281
