-0.0117917
0.0039616
0.000105311
0.000405292
0.00198366
-0.00326451
0.00112062
0.00480395
0.0142897
0.00246419
-0.0032558
0.00759547
0.000995058
-0.00079369
-0.0045267
0.000937299
-0.00492354
-0.00969388
-0.000161612
-0.00260852
0.0158451
0.0210398
3.37557e-06
0.00217208
-0.00510863
0.000825487
0.000748288
-0.000858844
0.000382244
0.000329638
-0.00469828
-0.0120427
0.00164293
-0.00444148
-0.00164837
-0.00284347
0.00512075
-0.00269497
0.000848745
-0.0056759
0.000272691
0.00180793
0.00273712
-0.00571967
0.00376935
-0.00421896
0.0118627
0.00665358
-0.0135206
-0.000310731
-0.000537564
0.00543736
0.0101749
-0.000398982
-0.00317324
0.00066246
-0.00288324
0.00424758
0.00689557
-0.00260159
0.00118443
0.0013659
0.0117667
-0.00701213
-0.0130169
0.00748682
0.011603
0.00910853
0.00179846
-0.00262584
-0.00668738
0.000680269
0.00216272
0.00541532
0.00797658
0.00189701
0.00375293
-0.014402
-0.00786887
-0.000303326
-0.00119128
0.00457288
-0.00233828
-0.00527327
-0.000632128
0.00269083
0.001792
0.00124209
0.00385723
-0.0178769
0.0114574
0.00930673
0.00330213
-9.28898e-05
-0.000491446
0.00125469
-0.0016178
-0.00215504
1.2572e-05
-0.00051924
-0.00542298
0.0159948
0.00319256
0.00284816
0.0055113
0.00434522
0.000804325
0.005462
0.00232534
-0.0121179
0.00352941
-0.013099
0.00139047
-0.00285632
0.00063546
0.000821677
0.00390051
0.0285981
0.0083799
0.000987103
-0.00166373
-0.000197911
0.00177666
0.000992
0.00807953
-0.00116834
-0.00358458
-0.00180076
-0.002639
0.00233963
-0.000708916
0.000808212
-0.000246812
-0.00108766
-0.00446684
-0.00639699
0.00084063
0.00275246
0.00276977
-0.00393478
-0.00729852
0.010012
0.0133711
0.00119716
0.000522674
0.00088944
-0.0020109
-0.0011901
-0.00249656
0.00773046
0.000687739
-0.0141472
0.00274311
0.000986777
-0.000884993
-0.008767
0.00337115
0.00188622
-0.00190892
-0.00644576
0.00150456
0.000548444
0.00403454
-0.00505681
0.00450792
0.00876372
-0.00107062
-0.00705633
0.00759166
-0.0129917
-0.0114771
0.00360562
-0.0129089
-0.00152612
0.00558527
0.00198349
0.000423756
-0.000585476
0.00321329
0.00435824
0.00732999
0.00211373
0.000743481
-0.00225386
-0.0205919
0.0110749
-0.00168983
0.0035468
0.00824492
0.00179783
-0.0108568
0.00134745
0.00439623
-0.0030464
0.000320104
0.00439581
0.00662791
-0.000689216
0.0057869
0.00172722
-0.00187833
0.00031262
0.00589763
-0.000793303
0.000348759
0.0035
0.000719755
0.0117755
-0.0097355
-0.0167978
0.00790411
-0.00938065
0.00256815
-0.000262927
0.00140256
-0.00982717
-0.00661929
-0.000178567
-0.00158931
0.01819
-0.00100322
0.000482307
0.000114715
-0.0020648
0.00244427
-0.00182791
0.00293195
-0.00468509
-0.000146532
-0.00256174
-0.00519759
-0.0108663
0.000599462
0.00250736
0.000222527
0.00551799
-0.00811049
-0.00662578
0.00390249
0.00969196
-0.0047661
-0.0037133
0.00105566
0.0012544
0.0055824
0.00811154
-0.00825532
0.00399499
1.36144e-05
-0.0036679
-0.0024465
0.000836709
-0.0112463
-0.0154898
0.00215442
0.00149304
0.00130043
-0.00877876
0.00341286
0.00700498
-0.00152295
0.00643501
0.00808315
0.00133003
0.00233167
0.00344151
0.000719523
-0.00377439
0.00510009
0.00752364
-0.00479847
0.00543641
-0.00441868
0.00498072
0.00145364
0.000637777
-0.00318284
-0.00189337
-0.0111738
0.00200912
0.00110211
0.00327074
0.00344534
-0.00481955
-0.00105918
0.00444006
-0.00938494
-0.00813401
0.000373643
0.000788099
-0.000133826
0.00526639
-0.00344831
0.00173273
-0.000488395
0.00521455
-6.33202e-05
0.00353694
-0.00354015
-0.00213014
0.0013279
-0.00203547
0.0106406
0.000239196
-0.00165106
-0.000390487
0.0142263
0.00591389
0.00012494
0.0100089
0.0030793
0.00266857
0.00307805
0.000543828
0.00284073
-0.00319232
0.00377678
0.00100415
0.000794252
0.00689411
0.00224365
-0.00673097
0.00145456
0.000849865
0.0116668
-0.00625104
0.00212549
-0.00976463
0.00207373
0.001425
0.0122891
0.00202126
0.000920556
0.00127216
-0.000683723
-0.00396082
-0.00100793
-0.00286721
0.00261525
0.00180151
-0.00212686
-0.00305896
0.0130639
-0.00192749
0.0100809
0.0141477
0.00281012
0.00149789
0.000517866
0.00015286
0.00433773
0.00072858
-0.000125198
-0.00214071
0.00270496
0.00337616
-0.00401268
-0.002048
-0.00024129
-0.0036135
0.00108445
0.0015958
-0.0073795
0.0123798
0.00142473
-0.00220017
0.000944073
-0.00292196
0.000885589
-0.00522297
-0.00558506
0.00653214
0.00180647
-0.000906595
-0.000798467
0.00511952
-0.00643153
-0.000325417
0.00821439
-0.00640777
0.0160572
-0.00513753
0.00456045
-0.00445077
-0.00857434
-0.00704066
-0.0015262
-0.0211989
0.00253754
0.00881215
0.000753618
0.00262787
-0.00154311
0.00530964
0.000379174
0.00213351
0.00801762
-0.00110496
0.00505664
-0.00893728
0.00181063
0.00230262
0.0008176
0.000145569
0.0066679
-0.00442635
-0.00112711
0.00125838
0.0024715
-0.00102759
-0.00272345
-0.00248903
-0.00410876
0.00163045
-0.00114745
0.00210388
0.00191104
-0.0021984
0.000123339
0.000724685
-0.000178545
0.000642089
-0.00414092
0.00744382
-0.00563424
0.000390748
-0.00308272
-0.000474856
5.31775e-05
-0.000705196
-9.94313e-05
0.00881229
-0.00229831
-0.0185022
0.000230618
0.00429841
-0.00961552
0.00288126
-0.00498233
0.0037286
-0.00701893
-0.000595907
-0.00751619
-0.00309102
0.00272513
0.00185244
0.000983398
-0.0022685
-0.000762616
-0.00560453
-0.00442315
0.000375898
-0.00231149
-0.0037618
0.00430119
-0.00559769
0.00450728
0.000195843
-0.000196676
-0.00161686
-0.00220315
-0.000298158
-0.00349823
0.00765283
-0.0192148
-0.000294725
-0.0018866
-0.00101193
-0.000518266
-0.0128323
-0.00516065
0.00443986
-0.00201758
0.0113646
0.0019587
-0.00549441
0.00192036
0.00357246
-0.00857269
-0.00654352
0.00592364
-0.000162251
-0.0057047
0.000804297
0.00954162
0.00493366
0.00437239
0.0032669
-0.00342172
-0.00271361
0.00317732
0.000856949
-0.00034299
-0.00830233
-0.00854948
0.00167879
-0.0142623
-0.00744725
0.00331714
0.000437989
-0.00110298
-0.000108442
0.00470749
0.00245317
-0.00633519
-0.00096664
-0.000850163
0.00037174
0.00110945
-0.0013628
-0.000547131
0.00176187
-0.00217266
-0.00452615
0.00408237
-0.00531912
0.00189663
0.0020038
0.00409928
0.000814016
0.00988003
-0.00271652
-0.00676259
0.00388967
-0.00317256
0.00764919
0.0213063
0.0234564
-0.00186841
0.00535963
-0.00560665
0.000504348
-0.00276874
-0.00645047
-0.00834803
0.000976287
-0.000603195
0.00595468
-0.00440684
0.000637314
-0.00195489
0.00401331
0.00099859
-0.00436715
0.00686359
-0.00103153
0.000135535
0.000389406
0.00550318
0.0014847
0.00821649
0.00337086
0.00245452
0.000634608
-0.000228409
0.00912067
0.00149082
0.00280936
-0.0023212
0.00315147
-0.00307703
0.00254832
-0.00191193
-0.00691934
0.00243347
-0.00215448
-0.000856488
0.00121061
0.015709
0.0084503
0.00636157
0.000972196
0.00956165
-0.00284399
-0.00134033
-0.00379517
0.00202934
0.00473612
-0.00604995
-0.00611193
0.0038031
-0.00394506
-0.000450488
0.00835968
-0.00583166
0.0149317
0.000609623
0.0088773
-0.00520563
0.00301531
0.0115993
0.00426814
-0.00715903
-0.0016604
-0.000466482
-0.00184227
0.00815036
-0.0195558
-0.00394904
0.00360822
0.00075891
-0.0010474
0.000644563
-9.22816e-05
0.00853322
0.000532246
-0.0145613
-0.0100384
-0.00158275
0.00917224
0.00186785
7.01348e-05
-0.00196373
-0.00443076
0.00276861
0.00262091
0.0132252
0.00292757
0.0051794
0.0047153
-0.0111323
-0.000235307
0.00341112
0.00605572
-0.00099891
0.00167488
0.00027644
3.70332e-05
-0.00110228
-0.00854787
-0.00368987
-0.00518546
0.0107113
0.0112511
0.000688681
-0.00922413
-0.00303388
0.000970728
0.000371284
-0.0080559
-0.000705252
-0.00249627
0.00421528
0.00509608
-0.00368521
0.00202882
-0.00201791
0.00483296
-6.81185e-05
-0.010915
-0.00711555
0.0162723
-0.000945339
-0.00661586
0.00321999
0.00129076
-0.00298784
0.00451208
-0.00562787
0.0001271
-0.0199473
0.0089256
0.00185146
-0.00332117
-0.00531905
-0.0113379
-0.00239128
-0.000338373
0.0103097
0.000337312
0.00118453
0.000387549
0.00126175
-0.00876179
0.00160994
-0.00409565
8.67823e-06
0.0022197
-0.0014537
0.00243428
0.0161329
-0.00286299
0.00225418
-0.0106497
-0.000927861
0.00124935
-0.003029
0.00373169
-0.0127469
0.00126301
-0.000700009
-0.00112873
0.0101594
0.00850523
-0.00203224
0.0116628
-0.000581617
-0.00415559
0.000334269
-0.0108052
-0.00114165
0.0111057
-0.00779517
-0.00109395
-0.00598314
-0.00184069
0.00267876
0.0128687
-0.00378671
-0.00635865
-0.0016135
0.00137649
-0.00242241
-0.0101653
-0.00497436
-0.00528864
0.00367292
0.000237186
0.00389905
0.00626715
-0.00309824
0.00171621
0.0011118
-0.00274955
-0.0127191
-0.000993778
-0.0021902
0.0017961
0.00423359
0.00477545
0.00128438
-0.00286046
-0.00299443
0.00296327
-0.00127123
-0.000714411
0.00450242
0.00259956
-0.0021816
0.0101951
-0.0194648
-0.0284508
0.000890022
0.000160421
-0.00353837
0.0033637
4.36623e-06
0.00447479
0.00294595
0.00189592
-0.00354534
0.00207427
0.00197034
-0.00110989
-0.00508506
-0.00621742
-0.000588644
0.00114386
-0.000429608
-0.00652816
0.000737515
0.000879737
0.000659746
0.0194612
0.00605918
-0.000680171
-0.00486493
0.00698907
-0.00188469
-0.00239648
-0.00241101
-0.00300526
-0.00494714
-0.00156587
-0.00683139
-0.00224575
0.00640343
-0.0117483
0.00329656
-0.00197213
0.0028354
-9.97902e-05
0.00264439
0.00155561
0.00023674
-0.0106886
0.00437421
-0.0106526
-0.00569726
0.00963638
0.00044481
0.00048402
-0.00147274
0.00119387
0.0104785
0.00185906
-0.00221142
-0.0126345
0.00242433
-0.00483817
-0.00172663
-0.00205203
0.0112165
0.00339405
-0.00356111
0.00667862
0.00154553
-0.00817458
0.000115304
0.000502852
1.02918e-05
-0.0150674
0.0026859
0.000703851
-0.00113358
0.000590273
0.00035025
0.00116432
0.000361382
-0.0121823
0.00300807
-0.00786899
0.000248084
0.0011954
0.0188556
0.00134745
-0.00409637
0.000647602
0.0110358
0.000288233
-0.00201493
7.54432e-06
-0.00528615
-0.00214296
0.0075131
0.00474557
0.00557754
0.00241513
0.000696028
-0.0116789
-0.00046794
-0.00146503
0.00773816
0.000187488
0.00197161
0.00389865
-0.00648654
0.00545872
0.00838625
0.00191943
0.00250044
0.000192627
0.000386386
0.00942289
-0.00163845
0.000768347
0.0033637
-0.0044417
0.00603585
0.0033724
0.000729587
-0.00415567
-0.0179511
0.000737803
0.00520745
0.00203927
0.000485505
0.00156443
0.000762443
0.00833181
-0.000407526
-0.0071943
-0.0027664
0.0010015
0.00269193
0.00734562
0.000335433
0.00578502
-0.00262746
-0.000825536
0.0085255
0.00652025
0.0017606
0.000689949
-0.00176038
0.000935554
-0.00613291
0.000921726
-0.00110016
0.00782782
0.00459096
0.00109163
-0.00119257
0.000815355
0.000532207
-3.74674e-05
0.000689154
-0.000817083
-0.000681876
0.000194521
-0.00618058
0.00402979
0.000766799
0.00202108
0.00145878
0.000276084
0.000185648
-0.000487108
0.00943571
0.000149542
0.00113426
0.000798959
-2.98183e-05
0.00102378
0.000434212
0.0123894
0.00712384
0.000756102
-0.00158169
0.00388396
0.00223619
0.00324843
0.00254763
0.000862961
0.00284209
0.00020551
0.000583834
-0.00252193
-0.00114518
-0.000171366
0.00163355
0.000560823
-0.00017168
0.0131345
-0.000211723
-0.00360214
0.000111879
-0.00137222
0.00201547
0.012875
0.00071734
-0.00141466
0.00740842
0.0105259
-0.000788182
-0.00253791
0.0124696
-0.0036025
0.00153894
0.000713438
0.00547027
-0.00117627
-0.0106054
0.00361256
0.00281387
3.44085e-05
-0.00209749
0.00510766
-0.0139876
0.0011194
0.00328807
-0.00168766
-0.00814059
0.000937328
-0.000999923
0.00362425
-0.000734714
-0.00295824
-0.00438669
-0.0132834
-0.00346177
-0.000343045
0.00727016
0.00711534
-0.0082235
0.00744519
-7.65077e-05
-0.00520479
-0.00864025
0.00588327
0.000124402
0.00525603
-0.000424239
0.00437796
0.00191413
-0.000434768
0.000860821
-0.00430579
0.0107791
-0.00104618
-0.00340391
0.00149552
-0.00473797
0.000613092
0.00185103
-0.00779329
-0.00341091
0.00464226
0.00625185
-0.000583616
0.00113799
-0.00493747
0.000718285
-0.000902608
-0.00535589
-0.0158227
-0.0130729
-0.00251564
-0.00323709
0.00207347
-0.00633318
-0.00200167
-0.000310336
-0.00659191
0.00581486
-0.000647441
0.00823813
0.00185905
-0.00431781
0.000425532
0.00197098
0.00730372
0.00448419
-0.000112018
0.00386363
-0.00534078
0.000967868
0.000348229
0.00925975
0.000846315
0.00481699
-0.00392497
-0.00794544
0.00187192
0.000521619
-0.011861
-0.00159433
-0.00219626
-0.00483264
0.00869113
-0.000205949
-0.0136279
0.00467404
0.000811875
0.0178108
-0.000529607
0.000400041
-9.47787e-05
-0.00629446
0.00755509
0.00379859
0.0103273
-0.000542053
0.00135014
0.000797087
-0.0168578
0.00183518
0.000193389
0.00109354
-0.00347584
-0.0091759
0.00134003
-0.00447476
0.00104065
-0.00456919
-0.00330593
-0.00732075
-0.00359143
0.00397913
0.00117274
-0.00133783
-0.00229187
-0.00936415
-0.00255434
-0.00211705
0.0010739
0.00046003
0.00173276
0.00385653
0.00383421
0.00265623
0.0115649
-0.000489327
-0.00304504
0.000708185
0.0102127
-0.0022427
-0.0040386
0.0087528
-0.00422526
-0.00105557
0.00115099
-0.00937873
-0.0042352
0.00619159
0.00298477
-0.0100307
-0.00177966
-0.00598001
0.00125552
0.00650643
-0.00125337
-5.75952e-05
0.000683993
0.00389527
-0.00867149
-0.00873471
-0.00996241
-0.0015337
-0.00301743
0.00075964
-0.00165085
-0.00885748
0.00450616
0.00340491
-0.00334331
8.9866e-05
-0.0160832
-0.00494256
0.010156
-0.00262687
0.000412357
0.000287329
-0.00783296
-6.6868e-05
0.00132351
-0.00437582
0.00436518
-0.0030448
-0.00056371
0.00103226
0.0168269
0.000804568
-0.00983472
0.00221085
0.000948376
0.00862989
0.00156716
0.00143368
-0.00658743
-0.011631
-0.00552694
0.00249746
0.00084817
0.00013952
0.00111012
-0.000824016
0.0060754
0.00207711
0.00692654
0.0011129
7.24728e-05
0.0147276
-0.000222351
0.00821659
-0.00205533
0.000333944
0.00213935
0.000276567
0.00364755
-0.00102174
0.000958241
-0.00287995
0.000133755
0.0118743
0.000630513
-0.0142356
-0.00059395
-0.00154594
0.000222455
0.000936161
-0.00190082
-0.00111079
-0.00208244
-0.00418572
-0.00245615
0.000558511
-0.002029
0.00248567
-0.000698451
-0.00458992
-0.00182188
-0.00288417
0.00320027
0.000553421
-0.00378711
0.000913393
0.00518009
0.00111636
0.00177005
0.00545491
-7.063e-05
-0.00788853
-0.00559218
0.00308785
0.00264888
-0.00509854
0.00107712
-0.00441857
-0.00986593
0.00577492
-0.00154102
-0.00351143
-0.00172209
-0.00148543
-0.000623494
0.000934436
0.000492406
-0.00399069
0.00215097
0.000873497
-0.00457514
0.00180125
0.00260623
0.000388492
-0.00116348
-0.00364386
-0.000757734
0.00241707
-0.00147283
0.000531812
0.000348617
-0.00110368
0.00390984
0.0143434
0.00031796
0.00244731
0.000213139
-0.00176395
-0.00659254
-0.000191162
0.00273866
0.0056144
6.79005e-05
-0.00147552
0.00285031
0.00248102
-0.00202491
0.00915448
-9.55769e-05
-0.000608591
-0.00111996
0.00161372
0.000745482
0.00474077
0.00163988
0.00044716
0.00506466
-0.00661332
-0.00621238
-0.0031063
-0.00231026
0.00295151
0.00121449
0.000902572
0.00784372
0.00213504
-0.00289161
-0.0114989
-0.001813
-0.00557926
-0.0100406
-0.00545782
-0.00319515
0.00119414
0.00990784
0.00751376
0.00335594
0.00380446
0.00336208
-0.00295819
-0.0010187
-0.00086488
-0.00362317
0.000216299
-0.00566468
-0.00218612
-0.00129038
-0.00100996
0.0194574
0.00631085
0.00691997
-0.00419213
-0.0059515
0.00237377
0.00331882
0.00444261
0.00386508
0.0138109
0.00630918
0.0157027
0.00191115
-0.00126365
0.0248454
-0.00236124
0.00862913
0.0171202
-0.00149227
-0.00493041
0.00723537
-0.00988164
-0.00125931
-0.0170763
0.00132433
-0.0075677
0.00593872
0.00043356
0.000944897
0.0152194
-0.0135201
0.00466318
-0.00058371
-0.00389714
0.0105308
-0.000904274
0.000811498
-0.00938896
0.000668713
0.00572613
-0.00627217
0.0168549
-0.0075839
-0.00897072
0.00103955
-0.00632382
-0.0122427
-0.00712452
-9.42338e-05
0.0054161
0.0169674
0.00287931
0.00855395
0.000704809
0.00469909
-0.00338122
0.00274917
0.00194935
0.00656075
0.000971804
6.70578e-05
-0.000671644
-0.0149764
-0.00050292
0.00370365
-0.000732098
-0.0058196
-0.00100746
-0.00146635
0.00343204
0.0040682
-0.00172045
0.00160191
0.0023954
-0.00148786
0.00111083
0.00145798
-0.00364751
-0.00178397
-0.0118463
0.000720881
-0.00646152
0.00358809
0.00832294
0.00328897
-0.00520804
0.000327549
0.00253589
0.000990198
0.00195749
0.00169191
-0.000324561
0.0019274
-0.00304122
0.00821969
-0.000423061
0.0057224
0.00313262
0.000803594
-0.00138085
0.00101737
0.000187866
-0.000455151
-0.000920316
-3.45614e-05
-0.00635558
-0.000991192
-0.00388913
-0.00272906
0.000202924
-0.00042459
0.00163376
-0.00281135
0.00921218
0.000228464
-0.00292654
0.00683201
-6.93328e-06
0.00309477
-0.00526258
0.00684154
0.0110271
-0.00319255
0.000484032
-0.0120711
0.00435034
-0.000451364
-0.00310953
0.00277598
0.00909366
0.000409131
0.00684757
-0.00103323
0.000311767
-0.00182324
0.000111173
0.0118734
-0.000858204
-0.00775409
0.0232735
0.00576307
-0.00341942
-0.0043151
0.00258435
-0.00155514
-0.00166012
0.0042469
-0.00317028
-0.00154913
0.0108344
-0.00188125
-0.00319619
-0.00475407
0.00156318
-0.00748511
0.00391517
0.0013607
0.00955164
-0.00471286
-0.00193106
-0.00559833
0.00438463
-0.00335942
0.00528106
-0.000662467
-0.0194176
9.00031e-05
0.00339469
-0.00679568
-0.00629641
-5.71832e-05
0.000385829
0.0107661
-0.00651339
0.00275481
0.00106321
0.00642633
0.000548767
-0.00303298
0.0165318
0.0125572
0.0123201
-0.0265572
0.0156785
0.00426315
0.000296429
0.00538711
0.0163655
-0.000377582
9.18328e-05
-0.000861793
0.00489027
-0.00230992
0.00127771
-0.00215591
0.000777695
-0.00118972
0.00467967
-0.00099126
0.000925973
-0.00122619
0.00195159
0.0186218
0.00861256
-0.00167928
0.00141323
0.000946963
-0.0010501
-0.000547449
0.00339447
-0.00221394
0.000793702
0.00208481
0.00446783
0.00624152
0.00328999
-5.98263e-05
0.00259033
-0.000845316
0.00238458
0.000562368
-0.000699875
-0.000815113
-0.00561861
0.000140435
0.00017313
0.00589595
0.000124233
0.00465152
0.000804671
9.49397e-05
-0.000243529
-0.00235551
0.00319715
0.00202568
0.00186249
0.00124645
-0.000815551
-6.6046e-05
0.000265272
0.00367851
-0.00271691
0.000212861
-0.000829635
-0.00132822
-0.00179552
-0.00076479
0.000392331
0.000274725
0.000933013
-0.00336153
0.00739028
-0.0017341
0.00194983
0.00121773
-0.00556014
0.00207939
0.0134287
0.00152838
0.00184512
-0.00426138
0.000605299
0.00383161
-0.000314679
-0.0165662
0.0136977
0.00216313
0.00135738
0.00248219
0.0113428
-0.00280436
0.00561572
0.000617441
-0.00479211
-0.00299453
0.00513624
0.00669638
0.00672474
0.00077956
0.0012587
0.00127348
0.000975154
0.00470412
-0.011128
0.00186286
0.000178679
-0.00356606
0.00230808
-0.000169961
-0.0152895
-0.000716518
-0.00181276
-0.00553803
0.000521989
0.0028945
-0.00143898
0.00811292
0.0032047
0.000836383
0.00285507
-0.00420631
0.000887559
-9.14815e-05
0.00129581
0.0041886
0.0144418
0.00250344
0.00417458
0.000471775
-0.00171891
0.0055107
0.00162279
-0.010105
0.000879289
0.00301204
-0.00023908
0.00377888
0.0176631
0.000880619
-0.000504855
0.00884037
-0.0014578
0.00734549
-0.00287992
0.0083617
0.00233077
0.00233103
0.001012
0.000765492
0.0023659
-0.00207087
-0.00831572
0.00227187
0.00571278
0.00633399
0.00620676
-0.00407426
-0.00470819
0.0147023
-0.000409596
-0.00705933
0.0127586
0.000356114
-0.00482946
-0.00330482
0.00445854
0.0022043
0.000917545
0.000547945
0.00210761
5.35955e-05
-0.00104527
0.00103349
-0.000158031
0.000319421
-0.00367469
-0.000627571
0.00393721
0.000323642
-0.00407206
-0.0112812
-0.00332841
0.0101217
-0.00088083
0.00116693
-0.00829924
-0.000845309
0.000914257
0.00132577
-0.000203061
0.00182159
-0.00418236
0.0049961
0.00121063
0.00141035
0.00863665
-0.000197996
0.00192474
0.00783729
-0.00645567
0.00111824
0.007885
-0.00479455
0.000859465
-0.00459814
-0.00389009
0.00530993
0.00144167
0.0113768
6.10672e-06
0.000754048
-0.0070244
0.00434638
0.00144907
-0.00304344
-0.0124966
0.000238075
-0.00128456
-0.0104361
-0.00612576
-0.00523379
-0.0101602
-0.00653638
-0.000853147
0.00234652
0.00219399
-0.000177993
0.00146815
0.00101215
1.76786e-05
0.00459122
0.00136413
-0.00109897
-0.00777884
0.0107361
0.00183599
-0.0149462
0.000623357
0.00372702
-0.00138901
0.00188783
0.00311719
0.00223837
-0.00788142
-0.000178703
-0.0136132
-2.03509e-05
0.00122052
-0.00388705
0.000838153
-0.00312242
0.00114172
0.00869928
-0.00176825
-0.00946671
0.00164646
-0.00501083
-0.000793378
-0.000730508
0.000392282
0.00161661
-0.00165638
0.00334809
-0.00126445
0.00516286
0.000788327
0.0124206
0.000295306
-0.00180675
-0.0104272
-0.000510525
0.000797822
0.000200344
0.0103368
-0.00653588
0.0017687
0.00310221
-0.00269075
0.000652124
-0.000206514
-0.00113368
0.00504091
0.000118482
0.00122727
0.0144136
0.000906095
0.0133452
0.00521285
-0.00564865
0.00262803
0.00709726
-0.000136322
-0.0109421
0.00724546
0.00381349
-0.00315796
0.0070326
-0.0110772
-0.00442859
0.000263173
-0.00603572
-0.00638953
0.0101291
-0.00160361
-0.00411695
0.00235257
-0.00467183
0.0145493
-0.000621473
0.000875615
0.00947819
0.000472597
0.00705018
0.00524843
-0.000987262
-0.00804394
0.00195787
0.0116659
0.0112952
0.00191572
0.0010888
0.00815008
0.00127461
0.00137871
-0.00389396
0.0190842
0.00233494
0.0102644
0.00315261
-0.00454233
0.00648373
0.01203
0.0121401
-0.00983871
0.00507549
0.00526468
0.00137297
0.0259044
0.000173824
0.00783999
-0.00181456
-0.00588987
0.0173904
-0.000635914
0.000610914
0.00991708
-0.00151954
-0.00508563
0.000904226
0.00624217
-0.00138948
0.00971775
0.00234203
-0.00315431
0.000217958
0.00403268
0.00111848
0.000569983
0.0132509
-0.00626392
0.00556629
0.00219016
0.015815
0.000790577
0.0199359
0.00217646
0.00532344
0.0152751
0.0135819
0.00347982
-0.010564
0.0017435
-0.00125945
-0.000173717
0.00191742
0.00156482
0.00242376
0.000512469
0.00571957
0.00585126
-0.000723691
-0.000359365
0.00101981
-0.00660299
0.000157497
-0.00737144
2.83929e-05
0.00748905
0.00259731
-0.00824855
-0.00575716
-0.00854028
-0.00413733
-0.0131852
0.00241481
0.0038452
-0.0041476
0.00091532
-0.0115793
-0.000275001
-0.00717784
-0.000686991
-0.014701
-0.00215458
0.00422079
0.00295783
0.00177987
-0.00908279
0.00281284
0.00373209
0.000220596
4.37362e-05
-0.00697678
-0.00269057
0.000595575
0.00386217
-0.00564327
-0.0119374
0.00599744
-0.00353151
0.00439926
-0.00512503
-0.0016681
0.00060175
-3.68066e-05
-0.0106956
-0.0017643
0.00071391
-0.00269683
-0.00746153
0.00563646
0.000259377
0.000964275
-0.00258588
-0.00158159
-0.00521357
-0.00201257
-0.00046194
-0.00386956
-0.0014548
0.00612293
-0.00208198
-0.0101307
0.00388589
-0.00759334
0.014967
-0.00653053
-0.00117777
0.00480973
-0.000730203
0.00263805
0.000739734
0.000513151
-0.0014544
-0.00462185
-5.24825e-06
-0.0141523
0.000572515
-0.013998
-0.00204886
0.000499172
0.00354726
0.000263957
-0.0098341
-0.000292027
0.0020989
-0.00242827
0.00696741
-0.000987029
0.00155082
0.000176139
-0.000688116
0.00877213
-0.000434657
0.00150183
-0.00344165
0.000179837
-0.00344715
0.00337295
0.00284948
0.0159168
-0.00472212
-0.00273077
-0.000901894
-0.00100727
-0.000779877
-0.0070745
-0.000852314
-0.00222798
0.000456294
0.00145483
-0.00282421
-0.00636995
0.00440582
0.000259451
0.00111282
-0.00251646
0.000743683
0.0028764
0.00722404
0.000198825
0.00285548
0.00390806
-0.00590054
0.00115293
0.00124378
0.00361259
-0.00150341
0.00910127
0.000728032
-0.00184077
-0.0018895
-0.000186801
0.00289358
-0.00638862
0.00328
-6.14392e-06
0.00471754
0.0185304
0.000500932
-0.00687943
0.0086886
-0.00597851
-0.0119432
0.0103937
-0.000856595
-0.0111793
-0.0033762
0.00247796
-0.00848078
-0.000993701
0.000201227
0.0077088
-0.00859798
0.0122724
0.0170622
0.00299831
0.00318669
0.00136132
0.00253481
-0.000416128
0.00117512
0.00671842
-0.00818486
-4.65967e-05
0.000991153
-0.00188735
0.00362981
0.00530918
-0.0031117
-0.00457055
-0.00579367
0.00210384
0.00499446
0.00191629
-0.00381003
-0.00431714
-0.00423536
0.0135555
-0.00185195
-0.0115366
-0.0190638
0.0041102
0.000234093
-0.00480411
0.00139116
0.00229581
0.00110907
-0.000865106
0.00722761
-0.0109296
0.00732546
-0.00745325
-0.00210678
0.000272097
0.000430715
0.0129482
-0.000374524
-0.00060559
-0.000126215
0.0151744
-0.000128544
0.00120902
-0.00441791
0.000515908
0.00127893
-0.00136168
-0.00322366
0.000567072
0.000833944
0.000336432
-0.00896273
-0.00372619
0.00196975
-0.0109201
0.00175234
0.0012505
-6.87452e-05
-0.000971541
-0.00615546
-0.000756282
-0.0175219
0.00427996
-0.00591625
0.000719751
0.0010602
0.00751128
-0.0010932
0.000874603
-0.00773195
0.00913255
-0.0103275
0.00466559
0.0139589
-0.000622728
-0.0048882
-0.00191467
-0.0123769
0.000856621
0.00194467
0.00262021
-0.00422514
-0.00038095
0.000302528
-0.000616587
-0.00178238
0.00461129
0.000499994
-0.00754635
0.00980796
-0.000937784
0.0154857
-0.000619028
0.00181936
-0.000978244
-0.00391086
-0.00101357
-0.00625279
-0.00986716
0.0015166
0.00997531
-0.00118039
-0.0116724
-0.00895989
-0.000904591
0.0209802
0.000434088
-0.00706776
-0.000824202
0.0140983
0.00941412
-0.00489339
0.0053431
-0.000658394
-0.00438894
0.010431
0.000638215
0.000837761
0.00291317
0.00874503
0.000824492
-0.00292652
-0.0110652
-0.00237609
0.00301901
-0.000103053
-0.00264638
0.0155411
-0.0051609
0.00581956
0.00872412
-0.00295088
0.00120625
-0.00887885
-0.00227972
-0.0002688
0.00351588
-0.000957822
0.00331591
-0.000238531
0.012243
0.00787159
-0.00842398
0.00541644
0.00189786
0.00170019
-0.000419191
-0.00138837
-0.000978404
-0.00235425
-0.00295231
-0.00335507
0.000115769
-0.00200181
0.00136931
-0.000998961
0.00142327
0.0175897
0.00485767
-0.000281647
0.0010203
0.00777335
0.000661718
0.0028995
-0.00163861
0.000598119
0.00610084
-0.0133124
0.00282494
-2.9492e-05
0.000739718
-0.0127778
0.0144169
-0.0148897
0.00200006
0.0109193
-0.00327902
-0.00299243
0.00298164
0.0017433
-0.00773939
0.0100964
-0.00443025
0.00696305
-4.02005e-05
-0.000412958
-0.00228913
0.00695892
-0.0202735
0.00190615
0.00391888
0.00238694
0.00263337
0.0192694
-0.000874457
-0.00113026
0.00199851
0.0025056
-0.00124772
-0.00250391
0.00135877
0.00328749
-0.00196137
0.00271697
-0.00413768
0.00149442
-0.00254674
-0.00131808
-0.00549431
0.00463754
-0.00630676
0.000680846
0.00975941
-0.000580282
0.00413377
0.00456207
0.000106357
0.000348849
-0.00290388
0.00189385
0.0113154
-0.00124443
0.00145833
-0.00974965
-0.00525294
-0.00104002
-0.00381996
-0.000994653
-0.0109656
-0.00155054
0.00240283
-0.00209013
0.00132389
-0.0141017
0.00734427
0.000880894
0.00196827
-0.00167433
0.00228732
0.00466153
0.000917442
0.00763933
0.00450743
0.00342058
0.00880145
-0.00159968
0.00434208
-0.00167692
0.00748929
-0.00115103
-0.000795985
0.000978272
0.0133638
0.00159263
0.00613139
0.00770396
0.00836469
-0.00201233
0.000339354
0.000416563
0.0046268
-0.00036973
-0.0095108
-0.000621281
-0.000694868
0.00496884
0.00253378
0.00381983
-0.00224376
0.00119154
-0.00034608
-0.00941905
-0.00357904
0.000907736
0.00250534
0.0077658
-0.000383945
0.00467522
0.00295867
0.00917141
0.0034914
0.00706519
-0.00162784
0.000966701
-0.000945936
0.00150062
-0.000174703
0.00304754
0.0188307
0.00472338
-0.0132057
-0.00488535
0.0126376
-0.00681496
0.00378291
0.00273626
0.00700164
-0.000118182
-0.00186072
0.0140275
-0.0045762
0.000448682
0.00206632
-0.00407285
0.0082233
-0.00317127
-0.00131354
0.00115901
-0.00226202
0.000521548
-0.000343478
-0.00145425
-0.000179924
0.0269709
0.00658124
-0.00387919
0.000704494
-0.00074467
0.00465217
-0.00911948
-0.0023087
0.000831393
-0.00211085
0.00612108
0.000531396
0.00317115
-0.00437924
-0.00297563
-0.00605377
0.0092181
0.0174366
0.00130475
0.000454248
0.00219136
0.0010812
0.000135964
0.00212858
0.00317861
0.000888102
-0.00885014
-0.000524898
-0.00117367
0.00443069
0.0121069
-0.000175395
0.0025593
-0.00551772
0.00137773
-0.0155697
0.00206758
-0.000102927
-0.000866547
-0.00229817
0.0036061
0.00398764
-0.00204278
-0.000427304
0.00207983
0.00338592
-0.00274925
-0.00247468
-0.00678041
0.00131102
0.000894565
-0.00112815
0.000929667
0.0123193
-0.00273747
-0.00465833
-0.00252604
-0.00298486
-0.00663697
-0.00118726
7.97591e-05
3.29936e-05
-0.000773565
0.00515789
-0.00119117
0.0075973
-0.00249414
-0.000424335
-0.00662221
-0.00123489
0.0023563
-0.00046686
9.78788e-05
0.00310245
-0.0173353
-0.00179857
0.00269959
-0.00218424
0.00041967
0.00612488
-0.00806806
0.00020962
0.00178057
0.0016725
0.00654865
-0.00953839
-0.00127119
-0.00352218
0.00777548
0.00911697
-0.00183603
-0.000116586
0.000320056
-0.00497054
-0.00634298
0.0148267
0.000362757
0.000632176
0.00115417
-0.00222517
-0.0012426
0.000223865
-0.000873046
0.0122321
0.000442368
0.00446288
-0.00176601
0.00442601
0.00129021
0.000472027
0.000596538
-0.000956582
-0.000666796
0.00157077
0.000861517
0.00249978
-0.00431357
-0.0014749
0.00758322
0.00918822
0.000178558
-0.00435083
-0.00501193
0.000170816
-0.00703281
0.0122237
0.0081009
-0.00161916
0.00898072
0.00426772
0.00102547
-0.00278553
0.00975537
-6.474e-05
0.00150556
-0.000547755
-0.00446212
-8.74148e-05
0.00296893
0.00262136
0.000432838
0.00346422
-0.00302491
0.000191002
0.0115898
-0.000684687
0.00459456
-0.000725367
-0.00122025
0.000213951
-0.00706694
0.00233551
0.00389744
0.00462109
0.00402039
-0.000218967
7.80643e-05
-0.000448756
0.000895193
0.00367422
-0.000622728
-0.0143919
-0.00302797
-0.00586104
-0.0123124
0.00120813
0.000415097
-0.000355633
-0.00251806
-0.00281579
0.000990081
-0.000928866
0.000366967
0.00174755
0.00498312
-0.0016728
-0.000174136
-0.000863874
0.00375978
0.000262373
-0.000665566
0.0022887
0.00725868
-0.000366981
0.00315187
0.00203103
-0.0023474
0.00936308
0.000927662
0.00132591
0.00462015
-0.00864865
0.00476344
-0.00281363
0.00697686
0.00437075
-0.00184056
0.000793685
0.0105316
-0.00301103
-0.00849912
-0.00542147
0.0046334
0.000361094
0.00041156
0.00139592
0.00426963
-0.000184627
-0.00098742
9.4535e-05
0.000563877
-0.024069
0.00155088
-0.00359109
0.00104036
0.00587316
0.00121189
-0.00728715
-0.00176211
-0.000928606
-0.00277655
0.000574842
-0.00239525
0.00136533
0.0114048
0.00178782
-0.000782908
-0.00193985
0.00507967
0.000829628
-0.00683448
0.00760881
-0.000773357
0.00146789
-0.002179
-0.00544809
-0.00402934
-0.000413001
0.000634617
0.00137598
-0.00230242
0.00272115
0.00203484
-0.00285077
-0.00259458
0.0015958
0.00353063
-0.00971306
-0.000138713
-0.00294817
0.000823991
0.00125164
0.00097304
0.00266731
-0.00344142
0.000265964
0.00649765
0.000474272
-0.00298007
-0.00474667
-0.00154388
0.00472697
0.00540767
0.00469849
-0.00270537
-0.00788154
0.000587988
0.00162905
-0.000632609
-0.000343883
-0.00261118
0.00261761
0.00139104
0.0129112
0.00964604
0.000220579
0.00160818
-0.00063827
-0.000522903
0.00379101
-0.0038272
0.0166538
0.00997049
-0.00614244
-0.00597539
0.00293981
0.00152827
0.00301462
-0.00138224
0.00144679
0.00943887
-0.00311123
0.000710783
-0.000625211
0.000829805
0.00023011
-0.00239476
-0.00675458
0.00111146
-0.00031383
-0.000572418
0.00704297
0.00802681
-0.00379782
-0.00913392
-7.5831e-05
0.0162067
0.000652212
0.00137723
-0.00718169
-0.00194313
-0.000230926
-0.00348461
0.00111901
-0.000702231
0.00330287
-0.0144797
-0.00687937
0.00530897
0.00556498
0.00101069
0.00339938
0.00228391
0.00158767
0.000953983
-0.00371115
0.00339051
-0.00388264
0.00313716
-0.00312355
0.00155934
0.00185556
0.000555943
0.014626
-0.00234086
0.00125793
0.00370379
0.00023228
0.00348784
-0.00168135
-0.0109688
-0.00057318
-0.00342544
-0.0107204
-0.00937965
-9.60097e-05
-0.00573073
-0.00858129
-0.00519676
-0.00694257
0.00321564
0.00123598
-0.0144598
0.000105406
0.00612687
-0.00626821
0.0157582
-0.000491812
0.000418198
0.00443777
0.000420685
-0.000237282
0.00168787
-0.00071893
0.00156632
-0.00294036
0.00191126
-0.0017361
0.000213472
-0.00393515
-0.00471813
0.00124375
0.0103895
0.000384536
-0.00403314
-0.00415181
-0.0151401
-0.00787929
0.00273328
0.00028437
0.00319162
0.000175056
0.00385497
0.00659206
0.00389501
-0.0153658
0.00997487
0.00899661
0.00195039
-0.00314512
0.0031198
0.00360622
-0.00640562
-0.00844515
0.000861204
-0.00140219
-0.00036274
-0.00187612
-0.00231855
-0.0011796
-0.00113903
-0.00166022
-0.00017257
0.000284234
0.000568629
0.0011633
0.00171988
-0.00966005
-0.00391239
0.00210427
-0.00286107
0.00089503
-0.0115747
-0.00231256
-0.000998338
0.00907627
0.00533104
0.00633777
0.00281233
-0.00297012
0.00205999
0.00258619
6.98092e-05
-0.00372887
-0.00225353
0.00839888
0.00603534
-0.000763215
0.00668144
-0.00164236
0.00467839
0.00361006
-0.00489289
-0.00776752
0.00385847
0.00676515
-2.15902e-06
-0.00475355
-0.00146214
-0.00258284
-0.000446668
-0.000863036
0.00378615
2.6159e-05
0.00192678
0.00431491
0.00375097
-0.013084
0.000682432
0.000737612
0.00879587
-0.0156368
0.00133492
-0.00482477
0.0110171
-0.00280765
-0.00294693
-0.000990367
-0.00098014
-0.00144197
0.00821563
-0.00427934
0.00279671
-0.00219958
0.000291903
0.00128146
0.00997034
-0.0175126
-0.0159373
0.00377659
0.00332912
-0.000453583
0.00237744
-0.00600061
0.002201
0.0169329
-0.00379703
-0.00663352
0.00229446
-0.00126171
0.00921685
0.0012684
-0.00122856
-0.00109331
-0.0180657
-0.00272205
0.00455043
-0.00800671
-0.0128845
0.011676
-0.0121895
-0.00699347
-0.00965361
-0.00295198
0.00102486
0.000891451
0.00102216
0.00288874
-0.00105444
0.0107807
0.00513146
0.00095985
0.000565225
-0.00497083
-0.00135242
-0.00159394
0.00145937
-0.00799221
0.000388102
-0.00882404
-0.00460033
0.00015561
-0.00838317
0.00355501
0.000788592
0.00892857
0.00112955
-0.00225757
0.0017236
-0.0125287
-0.00610611
0.00805208
-0.0116936
0.00116774
-0.00502628
0.0048156
0.000475453
0.00485293
0.00195223
0.00312883
0.02443
0.00403593
0.003347
0.00170691
0.0039429
6.56303e-05
-0.0022884
-0.00171659
-0.0073535
0.00228256
-0.00488306
0.00123798
0.00154561
0.000356422
0.000190314
-0.00576729
-0.000678495
0.00162203
0.00408523
0.00782824
-0.00048115
-0.00805113
0.00605374
-0.000255584
-0.00128477
-0.00121676
0.00268988
-0.000882414
0.0176618
-0.00475405
-0.000269932
0.000141549
-0.0015567
0.00516631
0.00139174
-0.00170254
-0.00249591
0.010272
-0.00572247
0.00509017
0.005712
0.0148759
0.000541907
0.00190425
0.00288956
0.0124583
0.00768252
-0.000127003
-0.00336502
0.000919215
-0.00769747
0.00453102
0.00873779
-0.00861569
0.0017117
-0.00198237
0.000867579
-0.0071576
-0.00676288
0.000658408
-0.0127539
-0.00273704
-0.00516287
-0.000551666
0.00293243
0.00351862
-0.00672214
0.00436854
0.000114571
-0.0158557
0.000985464
0.00100547
0.008277
0.00473775
-1.39739e-05
0.00972167
0.000350828
-0.00737167
0.000830974
0.0022938
-0.00662756
0.00758768
0.00674442
0.00915706
0.00568304
0.000915843
-0.00862737
-0.00204786
-0.00995472
-0.00111213
0.00196705
0.0014142
-0.00258606
0.0108541
0.0051377
-0.00243421
-0.00272404
0.00116377
-0.00241556
0.00564044
7.34443e-05
-0.00271319
-0.000481235
-0.0127574
-0.00560791
-0.00138806
-0.00461123
0.00545614
0.00029285
-0.00643159
0.0153804
-0.00137176
-0.00207778
-0.0160962
0.000483313
-0.00892379
-0.00660024
-0.000785005
0.0014257
0.00149214
0.00272135
0.00378139
-0.000232874
-0.00630258
0.00755168
0.00242675
-0.00359924
0.00118611
-0.00335867
-8.52343e-05
0.000224911
0.000675086
-0.000643638
0.00831718
0.00981122
0.00244436
0.00357478
0.0146974
-0.000626517
0.00121899
0.00993468
0.000731199
-0.00155804
-0.000393827
-8.64765e-05
0.000289374
0.000261587
0.00398949
0.000649249
0.0030871
0.00447439
-0.000829512
-0.00669745
0.00324655
-0.00446778
0.0108302
0.00240453
-0.00254092
