0.00182028
0.00137389
0.00296608
-0.000161185
0.000819266
-0.000882679
0.000346954
-0.00165062
0.000638729
1.56809e-06
0.000488496
-0.00127905
-0.000712395
0.00177015
0.00218345
0.000661992
0.00151737
-2.21221e-05
0.000292198
0.00570849
0.00555148
-0.0037215
0.0028916
-0.0102133
-0.000253759
-0.00186074
-0.00105419
0.000337619
8.29884e-05
0.00273742
0.00128368
-0.00160219
0.000391633
0.0013278
-0.00085145
0.00332408
-0.00127453
0.000391631
0.00533841
0.00226648
0.000358359
-0.000531652
0.00169778
0.00162784
-0.00321569
0.0021903
-0.00074188
-0.00122417
0.00237009
-0.000301954
0.00318912
-0.00153216
0.00531498
0.00306565
0.000362065
-0.000586586
-0.00198057
0.000879964
-0.001991
-0.00100772
0.00124906
-0.00130333
0.00274436
0.00483311
0.00141902
-0.000908177
0.00167111
-0.000864494
0.00156889
-1.44444e-05
-0.00121926
0.00254408
0.000209477
-0.00165308
-2.42033e-05
-0.00389154
-0.00269865
0.00091459
0.000886871
0.00343925
-0.0011853
0.0129996
-0.00188931
0.00239821
0.00315135
0.00387902
0.0019474
-1.83083e-05
0.000318797
-0.000658124
0.00216091
0.000713214
0.00676259
0.00511184
0.00263586
-0.00129704
0.00177117
-0.00102135
-0.000897479
0.000671054
0.000458079
0.00270437
-0.000258593
0.00402935
0.00158807
0.000628732
0.00012369
0.00297684
-0.00103552
0.00167812
-0.000879156
-0.000760121
0.000472785
0.00378146
0.000961784
-0.00187431
-0.000234287
-0.000370081
0.000416913
-0.000426652
-0.00105732
0.000786262
-0.000300235
0.00102408
0.00220501
0.00707099
-0.000320796
0.00455413
0.000881896
0.00121881
-0.00300759
0.000551592
0.000857652
0.00276973
-0.0018982
0.00250929
-0.00201093
-0.00231217
-0.00250176
-0.00157952
-0.000295011
-0.000511714
0.000130643
-0.000644928
0.00105041
0.00156293
-0.000259694
0.00180186
0.00172121
0.00837949
0.00195076
0.00674424
0.00805253
0.0027095
-0.00145603
0.00682644
-0.00155865
0.0031923
0.00134789
-0.00268211
0.000113794
-0.00235012
0.000343665
-0.0010755
0.00131721
-0.00237729
0.00199806
-0.0038517
0.00173059
0.00113873
0.00525029
-0.000894616
-0.00302399
-0.00153993
-0.00145854
-0.000349773
0.0022512
0.00312176
0.00110298
0.00254371
0.00241519
0.00207281
0.0034839
0.00016556
0.00234233
0.000142152
0.000398085
0.00197354
-0.000263171
6.56663e-05
0.003845
-0.00165959
-0.00279036
0.00562518
0.00389732
-0.000489642
-0.0027617
-0.00014856
0.00047811
-0.0018453
0.00132847
0.00555606
-0.00257689
0.000665773
-0.0048381
0.000394303
-0.000746123
0.001472
0.0001081
-0.00119303
3.74624e-05
0.00173645
0.00704242
-0.000868211
-0.00110888
0.000598258
-0.00070528
0.000525827
0.00269148
-6.76883e-05
0.00316644
0.000247758
-0.00309267
0.000508181
-0.00196743
0.00194815
-0.00156493
-0.00151402
0.00178716
-0.00196066
0.00430456
-0.0027908
0.000864139
0.000214598
8.3119e-05
-0.00516389
4.58518e-05
0.00218508
0.000480942
0.00135043
0.00318435
0.00241675
0.000749478
-0.00145439
-0.000391318
0.00160319
8.74148e-05
0.000823467
0.00191734
-0.000449486
0.00216918
0.00751814
0.00671232
-0.000430573
-0.0019257
-0.00157879
0.000783674
0.000557657
0.00091516
-0.00101811
0.00353276
-0.000423872
-0.0019954
0.00100556
0.000426907
0.000366315
0.000632027
0.000968252
0.000716252
0.00143829
-0.00140805
0.0039811
-0.0010859
0.000676489
0.00170886
0.00152628
-0.00133011
0.000120265
0.000147549
0.00050298
-0.00215863
0.00260162
0.00156345
-0.000989116
-0.000655418
0.000626778
-0.00406954
0.000346395
-0.000899002
0.00934579
-0.00304074
-0.00110886
0.00373732
0.00508138
0.00153022
0.000977745
2.31277e-06
0.000426017
-0.00202263
0.00130253
0.000496503
0.00120823
-0.00106375
0.000708047
0.000509594
-0.000838337
-0.000575402
-0.000166849
-0.00434646
-0.00228585
0.00191484
0.000374493
-0.00118169
0.00182607
-0.00189847
-1.3206e-05
0.000217442
0.00124069
0.00450595
-0.000664565
0.00210431
-0.00136266
-0.00156832
-6.93309e-05
-0.00299117
0.000740208
-0.000433568
-0.0016474
-8.55058e-05
-1.45385e-05
9.27809e-05
0.00383358
-0.0014016
-0.000678015
-0.00292109
0.000802575
0.0022377
0.000647748
7.80405e-05
9.74889e-05
-0.00124449
8.72339e-05
-0.00057619
-0.00142243
0.000523452
0.00043642
0.000804479
-9.74453e-06
-0.000633462
-0.000774646
-0.00240725
-0.00138327
0.00270522
0.00193523
0.000692409
0.000714196
-0.00188989
0.00248943
0.000659252
0.00108568
-1.26579e-05
-0.00238369
0.000174462
-0.00124078
0.00393518
-0.000255
-0.000104444
0.00230078
-0.00124778
-0.00153742
0.000233706
-0.00069176
0.000917607
0.000860064
-0.000945076
0.00206066
-0.00424095
-0.000563612
-0.000344859
0.00146166
0.00131752
0.00118304
0.00032732
0.00488812
0.000738837
-0.00129447
-0.000967348
0.00244069
-0.00102442
-0.00108519
0.00199984
0.000762571
0.000609928
0.00323064
0.000425493
-0.00057294
-0.00087285
-0.000475249
0.00156974
0.00374961
0.000760971
-0.000440619
0.000631089
3.41021e-05
-0.000508838
-0.000754614
-0.00196971
-0.000930716
-0.00143444
-0.00173904
-0.000328256
0.000608143
-0.000646488
0.000256994
-0.000785399
-0.00164775
0.0012111
-0.00246782
0.0027025
0.000116358
-0.000325231
-0.000383609
0.000718765
-0.00122224
0.000820418
-0.00149181
-0.00146392
-0.00116177
-0.000531934
-0.000539555
-0.000149782
-0.00173901
-0.0010453
-0.000179688
0.000358036
0.000207166
0.00388916
-6.5316e-05
0.00129951
0.000362943
-0.00405699
-0.000355004
0.00250306
0.00270308
0.00248497
-0.000845576
-0.000913518
0.000386969
-0.000686813
0.000942966
-0.00188102
0.000566862
-0.00128542
0.000781966
-0.000164319
0.00158956
-0.000444093
-0.00019499
-0.000328342
0.00236414
-0.000893202
-0.00249057
0.000906593
0.000200877
0.00202333
-0.000830897
5.69753e-05
0.000825886
0.000161857
-0.000597495
-0.000657106
0.00144385
0.00146434
0.000553692
0.000952422
-0.00107218
0.000828383
0.00126074
-0.00199315
-0.000753046
0.00142144
-0.00390982
-0.000430253
-0.0023278
-0.000518308
0.00129773
-9.88804e-05
0.00108914
-0.000407987
0.000355047
0.00127902
0.00138308
0.00186702
0.00167552
-0.00066619
0.00135074
-0.000914961
0.000638516
0.00190299
-0.00204551
-0.000536173
-0.000845305
-0.000614526
0.00352542
-0.000912682
-0.00261914
-0.000364936
0.000928663
0.0040215
-0.000969352
-0.00125851
-0.00195915
-0.00142665
0.000336692
-0.000765347
-0.000897654
0.00450865
0.000361615
5.56643e-05
-0.000186859
-0.000123522
0.000608102
0.00106501
0.000122505
0.00259097
-0.00114393
0.000428936
-0.00108924
-0.00123885
0.000720268
-0.000385918
0.00107166
-0.00050725
0.00021713
-1.92686e-05
0.00109312
-0.00287717
0.000484738
7.59285e-06
-0.000263283
-0.000611825
-0.00306934
0.000478547
0.00145877
0.00226786
-0.000736102
0.000884125
-0.000976605
-0.000462558
0.00202586
-0.000757829
0.000161732
0.000273258
0.00309515
0.000694556
-8.08125e-05
0.00219306
-0.0011518
-0.000416289
-0.00104645
-0.000446744
7.94558e-05
-0.000329473
-0.000363945
0.00156133
-0.00279202
-0.00279388
0.00383988
0.00111803
6.60334e-05
0.000836513
0.00092179
-0.000323194
0.000785478
-0.0015379
-0.00088688
-0.000273016
-0.00192189
0.000332121
-0.000482987
-0.000269276
0.00203719
-0.00241763
-0.000486359
-0.000179426
0.00179865
0.000103337
7.90313e-05
-0.000211351
0.00117496
0.000926561
-0.00343554
-0.00027228
0.00208416
-0.000189401
0.000241583
0.0025093
0.000778819
-0.000197249
0.00109637
0.000824083
0.0047206
0.00056826
4.68026e-05
-0.000487181
0.000429686
0.00181937
-0.000152015
-0.000968879
-0.000166587
0.000427515
0.00041198
-0.000111266
-0.000512075
-0.0018309
0.00104025
0.000378428
-0.00292856
0.00177497
-0.00203916
0.00210505
0.000914505
-0.000920824
0.00175323
-0.000112817
-0.00117063
0.00122562
0.00027956
-0.000412399
0.000328636
-0.000745573
0.00301003
4.81998e-05
0.0038925
-0.00304628
0.000206776
-0.00124828
0.000294511
0.000689942
-0.000113205
0.00154061
0.00177726
-0.00255211
-0.00084327
0.00180078
-0.00213567
0.00242063
-0.00354182
0.0013403
-0.0010616
0.0028475
-0.000349935
-0.00106812
-0.00160036
-0.00041055
0.0011254
0.00355909
0.000759455
0.00281988
0.000921853
4.55834e-05
0.00138252
-0.000455194
0.00040964
6.57048e-05
0.000942622
-0.00186628
-0.000585871
0.00158605
0.00128243
-0.00207332
2.13724e-05
0.000302706
-0.000458054
-0.000436745
-0.0015005
-3.9805e-05
0.00205045
0.000715516
-4.05943e-05
0.000598816
0.00141527
-0.001793
0.000145657
-0.000812955
-0.0024926
0.00103053
0.000333958
-0.00287348
0.00274359
0.00346373
0.00303453
-0.000803502
0.000346837
-7.24983e-05
-0.000223951
-1.59432e-05
0.000375442
-0.00133103
0.00286374
-0.00170916
0.000842548
-0.00114577
-0.000592853
-0.00103272
-0.000127634
-0.0038165
-0.00399334
0.00118198
0.000569471
-0.00068706
0.000640635
-0.00128957
-0.000579643
-0.00286152
0.00134683
-0.00274722
-0.00116709
0.00310408
0.00107755
0.000673244
0.00154134
-4.95277e-05
-0.000433468
0.0028059
-0.00111278
-0.000584338
0.00242763
-0.00040223
-0.00257979
-0.000828742
-4.83526e-05
0.00078314
7.89233e-05
-0.000106735
-0.000506696
0.00111743
0.00110137
0.00120935
-0.000342374
-0.00166302
-0.00105919
-0.000251077
2.29892e-05
0.000183079
-0.00184453
0.00159819
0.00264535
-0.00215798
-0.000295314
-1.7776e-05
-0.00230012
0.00126661
0.00207809
-0.00249528
0.000407978
0.000142375
0.00390325
0.000882798
-0.000398094
-0.00178293
-0.000819274
0.00119556
-0.00100076
-0.000629638
0.00208355
0.0016178
-0.00163035
0.00127324
-0.000431163
0.000645994
0.00320657
0.00147132
-0.0030159
0.000275099
-0.000983895
0.00302406
-0.000903177
0.00368115
0.000236201
0.00163727
0.000475561
-0.00148995
0.000951156
0.000806206
-0.00178125
-0.000668021
0.000897217
-0.0006197
-0.000327094
-0.000520378
0.000345055
-0.000572499
-0.00211161
0.00280992
0.00312227
0.00109393
0.00234537
-0.00207291
0.00118761
-0.00161368
0.000731366
-0.00219126
-0.00318712
0.000493566
-0.00204401
-0.00300258
1.90647e-05
0.000837401
-0.00143337
-0.00330796
0.00204773
0.00171688
0.000765249
-0.0016713
0.000834493
0.00408276
-0.000247469
-0.0016546
-0.00108559
-3.87091e-05
0.000913961
-0.00271172
0.00103542
0.000686622
-2.85136e-05
0.000316369
-0.00106324
-0.000463275
-0.000643988
-0.00194404
-0.000181197
-0.00080034
0.000122298
0.000768917
0.00118183
-0.00104587
0.00137771
-0.00428064
0.0026598
-0.00251369
0.000709567
0.00270124
-1.97224e-05
0.00381442
0.00122431
0.00124862
-0.00228348
0.00247961
-0.00214316
0.000715014
-0.000585285
-0.00304798
-0.00258268
0.00146234
-0.000894008
0.00108636
-0.00105069
0.000944834
-0.000904949
0.000603412
0.000888897
0.000234019
-0.00128305
0.000259345
-0.00171976
-0.00148658
0.000384315
0.00161682
0.000203976
-0.00252413
0.000828744
-0.000144361
-0.00061303
-0.00176539
-0.00352422
-0.00148078
-0.000595546
-0.00188984
0.00205342
0.000373418
-0.0014151
-0.00280512
0.0021036
-0.00048062
-0.00090546
0.000778119
0.0025426
0.000137735
0.00290415
0.000793139
-0.00140198
0.000545097
0.00106541
0.00115009
-0.000670515
3.78375e-05
0.000292479
0.00190448
-0.0004319
-0.000414903
-0.00194775
-0.000918272
0.00036038
-0.00367944
0.000534374
0.00286661
0.00030541
0.000642768
-0.000913187
-0.00148144
-0.00353942
-0.00120362
-0.000290999
0.000811483
-0.000804003
-0.000887421
0.000523273
0.00155838
0.000751478
0.0014784
-0.000278089
-0.000314796
4.4882e-05
0.000109937
0.00266805
3.07837e-05
-0.000654182
-0.000213068
-0.000163617
-0.000768779
-0.003731
0.00141963
-0.00323319
-0.00461901
0.00211282
0.000476244
-0.000517233
-0.00219303
-9.12309e-05
-3.60449e-05
-0.000134111
0.00472744
0.00105931
-0.00151816
-0.000557109
-0.000337315
-0.00480975
0.000737077
-0.000656929
0.00051175
0.0048454
0.00151864
-0.00045148
-0.00150332
0.000188736
-0.00115162
-0.000231344
0.0035797
-0.000512251
-0.00317647
-0.00314287
-0.00163114
0.000792894
-0.00109097
0.000373975
-0.0025428
-0.000812188
0.000929598
0.00138922
-0.000967743
0.000496319
0.000603552
-0.00125606
0.000309356
0.000605626
-0.000405849
0.000683288
0.0020026
-0.00121579
0.000181316
-0.00043169
-0.000597849
0.000906802
-0.00145105
-0.000112499
-9.9483e-05
-0.00051101
0.00124644
-0.000538251
-0.000679891
0.00153132
-0.000633688
-0.00148398
0.000151842
-0.000752451
-0.0020488
-0.000472274
0.00130957
0.000749676
-0.00114603
0.000169739
-0.000454185
0.0015755
-0.000906654
6.50757e-06
0.000158328
0.000982463
0.00110486
-0.00141221
-0.000286724
0.000558441
0.000234932
0.00138662
-4.89055e-05
0.00106052
-0.00114624
-0.000671537
0.00128001
-2.90974e-05
0.000298145
-0.00022044
-0.000163795
-0.000484557
0.00154824
-0.000601537
0.00085739
-0.00112235
0.000580181
0.000476101
-0.00092442
-0.000826859
-0.00229289
-0.00016908
0.000599404
0.000815834
0.00168618
0.000156782
-0.000924033
-0.00196087
4.14569e-06
0.000162341
0.00019972
0.000497621
-0.000321804
0.00229287
-0.00127967
-0.000649192
0.000804983
0.00178711
0.00131087
0.00165499
-9.2469e-05
0.000505251
0.00231595
-0.00016065
-0.00323802
-0.000497666
0.00318521
-0.00182699
-0.000402266
-0.000285185
0.000477853
0.000238409
0.000864321
-0.00149218
-0.001657
0.00226679
0.000235697
0.00151537
-0.00549002
0.000247813
0.000171211
-0.00238202
0.000401613
-0.000214052
0.000773087
-0.00267775
4.17844e-05
-0.000696678
0.000561738
-0.0011784
-0.00447875
-0.00149142
-0.000789117
-0.00079354
8.92105e-05
-0.00161435
-0.000483465
-0.000286458
0.000385598
-0.000298188
0.00119448
0.00446709
-0.000567143
1.14264e-05
0.000425335
-0.000429153
-0.00345969
-0.00256659
-0.0010089
0.00144
0.00170727
0.00134325
-0.000295423
8.23914e-05
0.000209736
-0.000108128
0.00292223
0.000237656
0.00142903
-0.00139457
-1.15355e-05
0.000103833
0.00127113
0.00116583
-0.00161201
-0.000575611
0.00167674
0.000205946
0.00134066
0.00159552
0.00233088
-7.66551e-06
-0.000807528
-4.08822e-05
-0.000408047
-0.000521947
-0.000513353
-0.00188567
0.00013705
0.00302767
-0.00559483
0.00106701
-0.00248211
0.00186043
-0.00426726
0.00165474
-0.00028893
0.000327018
0.000195178
0.00181606
-0.000443419
-0.000920447
0.000176931
-0.00141447
0.00214151
-0.00159169
-0.000892963
0.000955428
0.00127366
0.00109161
-0.000329061
-0.000735897
-0.00518763
0.00158686
0.00264452
0.00244986
0.000603278
-0.0013057
-0.000674411
0.000584457
0.00397197
-0.00202036
-0.00206714
-0.00167085
-0.000394282
0.00093655
-0.000816454
0.00138146
0.000542639
0.000268604
-0.000901661
-0.00027303
-0.000251569
-0.000793364
-5.97907e-05
0.00340271
0.000426
-0.000398619
0.000234568
0.00566191
-0.00371221
-0.000922665
0.00193304
-0.000941956
-0.000638135
-0.00289806
0.000190414
5.8027e-05
-0.00219151
-0.00189419
-0.00285692
0.00355538
6.11239e-05
-0.000996878
-0.00121585
0.00206841
0.0004193
0.0015608
0.00101045
-0.0028509
-0.00182306
0.00228339
-0.00182529
0.000109241
-0.000137053
0.000848282
0.00109329
8.27086e-05
-0.00155241
0.000379272
-0.00075203
0.0010785
0.00231798
0.000465058
-0.000149473
-0.00125346
4.56082e-05
-0.00154703
-7.60151e-05
0.000529287
-0.000807457
0.00406736
-0.00117402
0.00039543
0.00237504
-0.000606619
0.000492647
0.000844414
0.000820979
0.00255696
0.00177632
-0.0017392
0.00248343
-0.00191301
-0.000789633
0.000563084
-0.00103982
0.000127092
-0.00156817
-0.000641644
-0.00122269
0.000514737
-0.000567669
0.00200146
0.00330522
0.000978754
0.000420926
-0.00142162
0.00162073
-0.000318989
0.00281086
5.94608e-05
0.000169682
0.00213219
-3.70974e-05
-0.00099664
-0.000168519
0.00122698
0.00157968
0.00094522
0.000596822
0.00391559
-0.00039694
0.00058596
0.00257434
-0.000260412
0.00136033
-0.00144695
-0.00235933
-0.000798817
0.000469453
-0.00121621
-0.00239062
0.000712894
-0.000286373
-0.00197607
-9.53515e-05
-0.000844064
8.73968e-05
-0.00239823
-0.000988347
0.00279341
-0.00079681
-0.00023682
-0.000691292
0.00143248
-7.43111e-05
0.000613767
-0.00241592
-0.000366211
0.00152332
-9.43397e-05
-0.000290156
0.00152976
0.000808494
-0.00223765
-0.000395074
-0.000279595
0.000580854
0.000910542
0.000598492
0.00137029
-0.000976067
-0.000154301
0.000526842
-0.000216786
0.000337973
-0.000415118
-0.000724164
-0.00193269
-0.00159059
0.0027097
0.000342011
-0.000973158
-0.000527646
-5.26838e-06
4.18205e-05
0.000142506
0.00138903
-0.00491024
0.00159044
-0.00288399
-0.000660692
-0.0027266
0.000550245
0.00159768
2.84818e-07
0.00129029
3.39352e-05
0.000235436
-0.000254823
-0.00162295
0.000258051
-0.000636517
-6.13377e-06
0.00337286
-0.000632862
-0.00135251
0.00104356
0.0013143
0.00488007
-8.42172e-05
-0.000936955
0.000115244
-0.000677008
0.000114623
-0.000513845
0.000726268
-0.00176146
-0.00122818
-0.00199843
-0.000830017
0.00142558
-0.00151486
-0.00121522
0.00472415
0.00133466
0.00199135
-0.00365981
-0.000792987
2.12735e-06
-0.00238847
-0.00121228
0.000681928
0.000795371
0.000375759
-0.00174025
0.00705466
-0.000507977
-0.000299002
0.000933502
-0.00252437
-0.00131468
3.48396e-06
-0.000972327
-0.00136567
-0.00151804
0.00308596
-0.00044642
-0.00100827
-0.0038988
-0.00249153
0.0011026
-0.00219059
0.00318979
0.00184635
0.00161913
-0.00106375
0.00257068
-0.00279794
0.00137507
-0.000239483
-2.56887e-05
-0.00271185
-0.00110594
-0.00378673
-0.00125607
0.00071497
-4.0472e-05
5.5017e-05
1.63305e-05
0.00132033
-0.000663336
0.00022113
-0.000949259
-4.4349e-05
0.000410305
0.000825484
-0.00351583
0.00137766
0.00244249
0.000815067
-0.00342671
-9.4679e-05
-0.000197504
-0.00109695
-0.000360977
-1.73956e-05
0.000276525
0.00070546
-0.000695007
-0.000618142
0.00203287
6.36503e-05
-0.00088852
0.00164649
0.000934111
0.000767076
0.000397045
0.00434981
0.000163975
-9.38565e-05
0.00263031
-0.0029156
-0.0012332
0.000382459
-0.000157944
-0.00309798
0.00213082
-0.00074114
0.00269029
0.000208282
0.00190534
-0.00228824
-0.00136265
-0.000800768
-0.00120184
-0.00103655
0.000909777
-0.000556928
0.000512517
0.00027283
0.00015122
0.000438193
-0.00308964
0.000554349
-0.00124779
0.000519003
0.00160058
0.00218876
0.00104779
-0.00117538
0.000851604
-0.000899495
0.000879173
0.000628291
-0.000880993
-0.000413878
-0.00293764
-0.00167209
-0.00189128
-0.000704593
-7.51227e-05
0.000292185
-0.000594502
0.000339767
0.000826012
-0.000809245
0.00137236
-0.000496986
-0.000936237
-0.000578581
0.00120601
-0.000846344
-0.000973877
-0.00156606
0.0024471
-0.000386626
-0.000391311
-0.000266808
0.00199998
0.000162145
-7.49184e-05
8.93611e-05
-0.000290048
-0.000600604
0.0011915
-0.00128298
0.00257516
0.000899454
-0.00076585
-0.000602313
-0.000217726
0.000760173
0.00507793
0.00401594
0.00120536
0.000215647
0.00106095
-0.000789109
-0.00116795
-0.00206458
0.000407431
0.00116339
1.33872e-05
0.000404183
0.00130268
-0.0032845
-0.00203522
0.0028354
-0.000494121
0.000303238
2.4856e-05
0.000390858
-0.00215743
-0.00107312
0.00136244
0.000559436
0.00165701
0.00470578
0.00200371
-0.000400956
0.000566837
0.00121985
9.70935e-06
-0.0040928
0.00176747
0.00311678
0.00343541
-0.00255551
-2.32598e-05
-0.00221982
0.00103105
-0.00178094
-0.00162979
-0.000527397
0.00147274
-0.00166877
0.00106476
-0.00107103
-0.000665662
0.000326277
-0.000884463
0.000672478
-0.00251619
-0.000280383
0.000802134
-0.0013563
-0.00126315
-0.00130482
-0.000188247
0.000338091
0.00171473
0.00106884
-0.00129649
0.00385035
-0.0021095
-0.000550364
0.00144709
-0.00121798
0.00106405
-0.000985645
0.000580704
0.00139882
0.000973099
0.000179801
-0.00199532
-0.00101591
-0.000230581
0.000640853
0.000880716
-2.803e-05
-0.000395541
0.000402688
-0.00023534
0.00234614
0.000766568
-0.00232151
0.0019228
-5.22716e-06
-0.000325681
0.000974195
-0.00420526
-0.00118254
-0.00031278
-0.000675159
0.000621726
0.00323443
-0.00109533
0.000632619
0.000219595
-0.00140122
-0.00140879
-0.00153521
-0.00309842
-0.00170334
6.76061e-05
-0.00365331
-0.00293652
0.00317699
-0.000141698
-0.00207975
0.000631884
0.0030917
-0.000707063
0.00201398
0.0004025
-0.000780411
0.00121741
-0.000197727
0.000105362
-0.00046968
0.00145522
-0.00506304
-4.33814e-05
-0.000553685
0.00138836
-0.000867912
0.000771672
-0.000638984
0.00262951
-0.00309858
-0.00166939
-0.00237245
-0.000324152
-0.000328263
0.00140836
-0.000453785
0.000446893
0.00161595
-0.0013359
-0.000403402
-0.00151273
-0.000259264
0.000296069
-0.00155253
0.00050533
-0.00168113
-0.000452491
-0.000343604
0.00172457
0.00143891
0.000850701
0.000446958
0.000749409
0.0019067
-4.29725e-05
-0.000923624
0.00226521
-0.00033115
-0.00231565
-0.000180914
-0.00101861
-1.2682e-05
-0.00302917
0.000136397
-0.00211901
-0.00044223
9.47032e-05
0.000819751
-0.000399389
0.00155515
-0.000209581
-0.00150537
8.60189e-05
0.00355025
-0.000259917
0.000288571
0.000598696
-0.0036826
0.000519238
4.0949e-05
0.00101503
-0.000210323
-0.000366309
-0.000129521
-0.000127105
0.000131618
0.000561705
-0.00348293
0.00178866
0.00160152
0.000393966
-0.00188768
0.00142022
-0.00183947
-0.000845532
-0.000374467
-0.000807992
-0.00392098
0.00115998
0.00352956
-0.000106295
-0.000711385
-0.00171014
0.00203181
-0.000679727
0.00218693
0.000601657
-0.000756073
0.00192242
-0.000455022
-0.000453147
0.00171537
-0.000753902
-0.00180029
-0.00139628
-0.000561567
-0.00410728
0.000935241
0.00177544
0.00285219
-0.000645312
-0.000341757
-0.00154104
0.00173838
0.00102316
-0.00125208
0.000529027
0.000382701
0.00103505
0.00146507
-0.00298496
0.00028763
0.00281534
-0.000812112
0.00161551
0.000431261
-0.000130167
0.000540574
0.00071952
0.000355369
0.00388772
0.00165383
4.06637e-05
-0.000732289
-0.000695611
6.05773e-05
0.0001392
0.000338083
0.000100381
0.000715734
-0.00262207
3.56932e-06
0.000804342
0.00144758
0.000796825
-0.00138371
-0.000857944
9.26871e-05
2.57906e-05
-0.000385349
0.000464324
0.000457953
-0.000484028
-0.00021609
0.000925298
-0.00287398
-0.00114853
-0.00127358
7.75624e-05
-0.00122252
-0.000435802
-0.00136922
0.000168458
0.000300369
0.000468659
0.00234161
0.000861884
0.00365525
-0.000919479
0.00102637
6.37189e-06
0.000884089
-0.0030817
0.000154913
-0.00303238
-0.000163968
0.000238456
-0.00265376
0.00177282
-0.000773777
-0.00108161
-0.000157692
-0.000348733
0.000899593
0.000518912
0.000148984
0.00150771
0.000439623
0.00314288
-9.02677e-05
0.0010531
-0.0016506
0.000908853
-0.000835517
0.000685866
0.00102226
0.00247498
-0.00260046
0.00125383
0.00508275
-0.000536341
0.000755527
0.000959426
-0.0015224
-0.00278976
0.00107025
-0.00102639
-0.00021432
0.00408869
-0.00173732
0.00138319
-0.00111863
-0.000347922
0.000740051
-0.000343001
-0.00298023
-0.00119405
-0.000884993
-0.0013626
0.000265426
0.000633229
-0.000911705
0.00131096
0.000922312
-0.00155849
0.00156137
0.00162247
-0.000178111
-0.000927591
-0.00038816
-0.000240498
-0.000778353
-0.00123095
0.00190776
-0.000261323
-0.00270613
0.000516853
0.00165831
-0.000734665
0.000457588
-0.000982337
-0.00123703
0.0079878
0.00424644
-0.00135931
0.00101179
-8.45465e-05
0.00197451
-0.00131492
0.00316899
-0.00113223
0.00111003
-0.000871102
-0.00290963
0.0016324
0.000750518
-0.000816381
0.000381182
0.00357431
0.00154419
0.00143794
-0.000452601
0.001291
-0.000827138
0.000538912
-0.00243572
0.00143656
0.00287066
-0.000653902
-0.00273947
-0.00052387
-9.3811e-06
0.000582164
0.00106754
-0.000263991
-0.000245375
0.00012844
-0.00393058
-0.00231495
0.00206005
-0.00157806
-0.000328344
-0.00102253
-0.000961638
-0.00103444
8.82979e-05
0.00012737
0.000394831
-0.001915
0.00210439
-0.000271521
-0.000310721
-1.48994e-05
-0.00011442
0.0012908
0.0015625
-0.000863253
0.00048049
-0.000102513
-0.00156177
-0.00170579
7.64199e-05
-0.0007647
-0.00218768
-0.0019315
-0.00450268
-0.00120318
-0.00233935
-0.000206742
0.000774586
-0.0010057
0.000667526
0.00159938
-0.00119683
0.000490076
0.00168318
0.000684958
-0.00253323
0.000235113
-0.00146031
-0.000153603
-0.000559076
0.000764895
-0.000208561
0.00350829
0.000661396
0.00184053
-0.000773111
0.00110161
0.000471277
0.00114828
-0.000863277
-0.000450559
-0.000967407
2.29841e-05
0.000268934
0.0013356
-0.00123826
0.000792526
0.00157615
-0.0005197
-0.000534954
0.00267961
-0.000748037
-0.00109362
0.000112108
0.00200461
0.000408968
-0.00116271
0.000317871
0.00165984
-0.00228309
-0.00135882
0.00237995
-0.00117248
0.000641146
-0.00211885
0.000167778
0.000433277
-0.00186033
0.000213019
0.000726432
-0.000126057
0.000934623
0.00028504
0.000908315
0.000799914
-0.000404926
0.000697508
0.00135634
0.00136239
-0.00101847
-0.00204083
0.00196439
-0.00206446
0.000559183
0.00251514
-0.000233327
-0.0018538
4.10982e-05
0.00338884
0.00105869
-0.000989589
0.00198927
-0.00125644
-0.000304572
0.000726819
0.00033411
0.00445353
-0.00272928
-0.00024607
0.00426681
-0.000625988
-0.00205454
-7.20968e-05
-0.000774657
0.000147135
-0.00363545
-0.000434405
-0.00144412
-0.000500436
-0.00151549
-0.0010853
-0.00184455
0.0011326
0.000668987
0.000982313
0.00139408
-0.000939133
0.000518296
0.000196563
-0.00203068
-0.000131196
0.000592495
-0.00286154
-0.000525829
0.0017145
-0.000212152
-1.32507e-06
0.0081634
0.00197565
0.00150486
0.00080522
-0.000518236
0.000884981
0.000894168
-0.000745383
-0.00180643
-0.00209402
-0.000405438
-0.000421141
0.000781887
-0.00133448
0.000204232
0.000866468
-0.000730812
-0.00236454
-0.000453761
-0.000821928
-0.00345261
0.00123769
-0.000984631
0.00134617
0.000950877
0.00463012
-0.000695253
0.00122636
-0.000532278
-0.002022
-0.00257166
0.00126795
0.00125973
0.00182922
-0.000142947
2.6174e-05
-0.00120825
-0.00188374
0.00319437
0.00127675
-0.0053064
-0.00141428
0.00211328
0.000180488
0.00236266
0.00414794
-0.00207139
-0.00203766
-0.00033956
-0.000719
0.000618568
-0.00168353
0.00185081
0.000346202
-0.00269462
0.00125658
0.00213896
0.000703547
0.000432608
-0.00132816
0.00264192
0.000667874
-0.00139588
0.00146099
-0.000494275
-0.000515568
-6.99943e-05
0.00221288
0.00202268
0.000581216
-0.0012114
-8.97766e-05
0.00157052
0.000589673
0.00108697
-0.000991904
-0.000696804
0.00392063
-0.00121328
-0.000454665
0.000138487
-0.00060267
-0.00046558
0.0023879
0.00153035
-0.000253011
-0.000360399
8.24895e-05
0.00343745
0.000613899
-0.000164303
0.00542543
-0.00164207
-0.000719321
-0.00104972
-0.000335362
0.00170207
-8.89889e-05
-0.00224355
-0.00201263
0.000678785
0.000736244
-0.00245625
0.000913145
0.00131677
-0.000747834
-0.00137167
0.00138126
-6.31312e-05
0.00243735
-0.00173268
-0.000354646
-0.00297186
-0.000546012
0.00158914
-2.53958e-05
5.35085e-05
-0.000137263
-0.00102144
0.000283688
0.00297055
0.0017632
0.000605815
-0.000729282
-0.00269692
0.00418538
-0.00179664
0.00281517
0.00122981
0.00132483
3.09307e-05
-0.000613147
-0.00010118
0.00170503
0.000140536
-0.000571725
-0.00257729
0.000564834
8.04735e-05
-0.00171282
-0.000610158
-0.000347596
-5.82247e-05
0.00279789
0.00256702
0.000448182
0.000566932
-0.000620618
-0.000367365
0.0012316
0.000524729
-0.000605999
0.00035668
-0.00069861
0.00178453
-0.00101675
0.00264093
-0.00151402
-0.00369875
-0.00582094
0.000389465
0.00186509
-0.0016498
0.0013263
-0.00078611
0.00314622
0.00061561
0.00303841
-0.00131996
0.00108386
-9.01637e-05
0.00117015
0.000708732
-0.00018073
0.000925649
0.000949101
0.000619253
-6.74239e-05
-0.00232015
-0.000116257
-0.000163763
0.00087596
-0.000526684
0.00135061
-0.000375017
0.00108826
-0.001238
-0.000306312
0.000362602
0.00246035
-5.14605e-05
-0.00198747
0.00236831
0.000225915
0.000630272
-0.00183614
-0.00107347
0.000439904
0.00569127
0.00179718
0.00382488
-0.000455287
0.00206954
-0.00170736
0.00277971
-0.000521233
0.00420462
-0.000776133
0.000891567
-0.00059581
-0.000297033
-0.000261837
-0.000767389
-0.00155939
-0.000328762
0.00423274
-7.76503e-05
-0.000280898
0.000425155
-0.000687883
-0.00261265
0.00229344
-0.00132881
0.00186684
0.00054933
-0.00233538
-4.21836e-05
-0.000222478
0.00244671
0.00153396
-0.000199528
0.000884927
-0.000387027
0.00189671
-0.00135871
-0.00163147
-0.00114733
-9.17081e-05
0.000468451
-0.00239588
-0.00104385
-0.00113106
0.0003404
0.000736623
-0.0017691
0.00175825
-0.000498957
-0.00155099
-0.00167235
-0.0013217
0.00136919
-0.00266417
-0.00112414
0.00137754
0.00103231
-0.00207034
0.00114742
0.00106053
-0.00181176
0.00184911
-0.000497566
-0.00105859
0.000506066
0.00296624
-1.80731e-06
0.00104858
0.00152961
0.00331623
-0.00034769
5.99909e-05
-0.00285975
0.000512089
0.000283297
0.00472614
0.00329685
0.00223766
0.0131126
-0.000226261
0.000547141
0.00413226
-0.000791745
0.000336911
0.000132021
0.00185174
0.000568319
-0.000895931
0.00352995
-0.000389638
0.000926136
-0.000524616
0.000596788
0.00191161
-0.000550454
0.00177436
-0.00147561
-0.00022166
-0.000258558
0.00140793
-0.00209986
-1.55399e-05
0.00156744
0.00429521
0.00105227
-3.96675e-06
0.00186828
0.00302839
0.00251141
-0.000227696
-0.00176516
-0.0011081
-0.0004238
-0.000845202
0.0025489
-0.000772822
-0.000412228
-0.00107375
0.000919946
0.000804241
-0.0036185
-0.000669619
8.06342e-05
-0.000809213
-0.00012979
0.00357339
0.00120588
0.000597866
0.00184967
0.00172871
0.00157674
-4.96051e-05
0.00163793
0.00126825
-0.00139195
0.00230201
-0.000913176
-0.00167619
0.000164525
-0.000409244
0.000176667
0.0030807
-0.00265685
-0.00285312
0.00290482
-0.0013538
0.000290583
-0.00204232
0.000802479
-0.000417688
0.00316187
0.000113961
0.000104288
-0.00218493
-0.00117941
0.0043305
-0.00104657
-0.00168532
0.000832758
-0.000348999
0.00361966
0.000373907
-0.00406306
-0.000410935
0.000394148
-0.000825178
-0.00158747
0.00486205
0.00240344
-0.00241494
-0.000666029
-0.000617871
-0.000650876
0.000319297
-0.000936735
0.000222112
-0.000185849
0.000503431
-1.64291e-06
0.00088421
-3.68126e-05
-0.000464324
-0.000934486
0.000772954
0.00131666
0.00134276
-0.00197628
0.00262427
-0.000126162
0.000881774
-0.000926534
-0.000694167
0.00385873
0.00286108
0.000425366
-0.00033885
-0.00121806
0.00127836
0.00582708
-6.80415e-06
-0.000901774
-0.00254214
0.00284546
0.000563941
0.00194601
0.00168504
0.00112646
-0.000830549
-0.00297507
0.00322232
-0.00148349
0.000335939
0.00257091
0.00137803
8.83497e-05
0.000652259
-0.000212482
0.000671062
-0.000820662
0.000536857
-0.000901932
-0.000138775
0.000595357
0.00123254
-0.00083446
-9.16852e-05
-0.00341404
-0.00226991
0.000691211
0.000109739
0.00281372
0.000608434
-0.00211539
0.00149691
0.000943652
-6.14999e-05
0.00287089
-0.00112227
-0.000732605
-0.00113836
-0.000438903
0.00057459
0.00067007
-0.000770482
-0.00192458
0.000307086
-0.00071074
-0.000277431
0.00125936
0.000336702
-0.00141805
-0.000881252
-0.000393118
-0.0018216
0.00223656
-0.00176895
-0.0011614
0.00117229
-0.00131151
0.000586954
0.000404696
0.00495706
-0.00156193
-0.000148275
-0.00549873
0.00176913
0.00113971
-0.00251218
0.00151342
0.000309888
-0.000922913
-0.00100318
-0.00304211
0.00017041
0.00127133
0.000257691
0.000682409
0.00017504
0.000666725
-0.000996801
0.00121701
-0.000121989
0.000215575
0.000463315
0.00197467
-0.00214981
0.00300288
0.000562356
0.000103951
0.000341359
-0.00283841
-0.00246853
-0.000612984
0.000742565
0.00399025
0.000230915
0.000551406
0.00103041
0.000380734
-0.0027283
0.0023659
1.8469e-05
-0.00043116
6.13809e-05
0.000153428
-0.00204661
0.0011313
-0.000914527
0.00200194
-0.000181308
0.000393455
0.000160534
-0.0014111
-0.000999609
0.000758748
-0.000639494
2.12219e-06
8.25363e-05
-0.000377158
-5.85615e-05
0.00050956
-0.00319477
-0.000647088
-0.000631038
-0.00127241
0.00103699
-0.000207344
0.00205315
0.000207319
-0.000703887
-0.000162598
-0.00090546
-0.00150078
0.000152669
-0.000302851
0.000500796
0.000588623
-9.25429e-05
-0.000454165
0.00124729
0.00217494
-0.000944774
-0.00118704
0.00230428
-0.000125988
-0.000441127
0.000294532
0.00162941
-0.000116437
0.000603309
-0.000409581
0.000165424
-4.03436e-05
0.00196435
0.000243338
-6.8415e-05
0.00129202
-0.000612581
0.0017861
0.00227183
-0.00170361
-1.49729e-05
0.0011405
-0.000144691
0.00115073
-0.000479681
0.00333096
-0.00186852
0.00139115
0.000228897
-0.00110036
0.000901419
0.002124
0.000977701
0.00471486
0.00283687
-0.00178686
0.00219599
0.000363463
-0.000501295
-0.00144274
-0.000940002
-0.000420255
0.000526445
-0.00102423
0.00232465
0.00048447
0.0036517
0.00277935
-0.000120906
0.00384785
-0.00153761
-0.00194984
0.0045404
0.000783837
1.66945e-05
-0.00189751
0.00121475
0.000234989
-0.000151868
5.84657e-05
-0.000379017
0.000402532
0.00151856
-0.000484275
-0.00124393
0.00104551
-0.00257549
0.000605755
0.00016455
0.000918969
0.00309274
0.00217968
-0.000204918
-0.00124235
0.00141012
-0.000332025
0.000372919
-0.000514952
0.000286786
-0.00107168
0.00213814
-0.00319447
-0.000598998
0.00192117
0.000658538
-0.00241622
0.00120196
0.00025379
0.000262111
0.00010284
-4.81651e-05
-0.00296994
0.000720293
-0.00100606
0.000352582
0.000774936
0.00045523
0.00122179
-0.000178005
-0.000125213
-0.00159806
0.00282983
-0.000751194
-0.00063941
0.00217524
0.00308362
-0.00176741
0.00154849
-0.000357675
-0.00108244
-0.00107737
-0.000811865
-0.000416206
0.000164887
0.00309741
-0.00182008
-0.00106841
0.00217703
-8.09955e-06
-0.000511563
0.00167959
0.00214603
-0.000126928
0.000785221
0.00116102
0.00137258
0.000400675
0.000253332
-0.000264048
0.000306347
-0.0017024
0.0013396
0.002404
0.000159192
-0.000849488
0.000867166
-0.000995127
-0.00015761
-0.000627421
0.00146804
-0.0013237
-0.000121113
-0.000188004
-0.000468637
0.00195971
-0.00285053
-0.000251747
-0.00066485
-0.000302525
1.43746e-05
0.00122678
3.07265e-06
-0.00406795
-0.000948617
-0.00142996
-0.000560256
0.00177901
-0.00154258
0.00118987
-0.00104958
-0.000718486
-0.000455009
0.000352908
-5.88972e-05
-0.00630504
-0.00126139
-0.00152729
0.00126827
-0.0016347
0.00174599
-0.00174506
0.000122378
0.000295883
-0.000233532
0.000601691
-0.000247823
-0.000949513
-5.0461e-05
-0.000429954
0.00227351
0.00205265
-0.00047008
-0.00304574
-0.000149183
0.000304503
0.000281753
0.00292458
0.00258273
-0.000119708
0.000850823
0.00140338
0.00177048
-0.00121347
-0.00307321
-0.0011383
-0.00137467
0.00120018
1.30627e-05
-0.00110239
6.67652e-05
-0.000411207
0.000731912
0.000848738
0.00253758
-0.000628153
0.000366641
-0.00298861
-0.000820774
-0.0010166
0.00280791
-0.000639942
0.00392273
-0.000402978
-0.0028985
-0.00107508
-0.00157824
-0.000662149
0.00127448
0.00327249
-2.82006e-05
0.00239962
-0.00235664
-0.000108732
0.000747475
-0.00116996
-0.00102951
-5.67446e-05
-0.00135696
-0.000165107
-0.000490423
0.000231872
0.000565372
0.000165195
-0.0010952
0.00426296
-0.00332625
0.000515063
-0.000132576
0.00221869
-0.00222513
-0.000294811
0.000805638
0.00139647
0.000128405
0.00107409
-0.000288691
-0.000712164
0.000451708
-0.00219458
-0.00345691
0.00203758
0.000406216
-0.000745113
-0.000585214
-0.00234586
0.00174711
0.0001731
-0.000599209
-0.00214154
-6.1337e-05
0.000855326
-0.000444339
-0.00121711
-0.00101238
0.00101429
-0.000330035
0.00165797
-0.000678806
0.00093405
-0.000198136
0.000312357
0.00168594
-0.0019311
0.000290821
0.00427035
0.00110584
-0.00378859
0.000905356
-0.00197282
-0.000845958
-0.00159284
0.00074396
-0.000740855
-0.000190503
-0.00204718
-0.00143664
-0.00121456
-0.000312905
-0.00177794
-0.000649289
0.00123466
0.00320822
-0.000232769
-0.000730566
-0.00165969
-0.000729549
-0.000310598
-0.00252111
-0.000515723
-0.000349267
0.00162726
-0.000418069
0.00143822
6.46914e-05
0.000625608
0.00345336
-0.00149661
-0.00100775
-0.00248178
0.00211548
0.000383341
0.000196265
-0.00183997
0.000176342
-0.00052266
-0.00208831
-0.000327461
-0.00212625
4.61667e-06
0.000157241
0.000143495
-0.00253775
0.000362522
0.00100725
-0.000107614
0.000756116
-9.59611e-05
0.00353634
-0.0016796
-0.00188077
-0.00166034
0.000439943
-0.000557764
0.000654737
-0.00102064
-0.000871889
-0.00139082
-0.000343738
-0.000143867
0.000138221
-0.000613402
-0.000437818
-0.000220221
-0.00125602
-0.00159924
0.00271614
-0.000590153
-5.59234e-05
-0.000883724
8.69693e-05
-0.000887856
-0.0011798
0.00266344
0.00220408
-0.00234696
0.0020938
-0.00286276
0.00106307
-0.00031466
0.0038109
-0.00160268
-0.000338375
0.000717434
0.0019907
-0.00207876
-0.000269758
0.00257986
-0.00174689
-0.00301075
-0.00130997
0.00416272
0.00192091
0.00100475
3.3049e-05
-2.28028e-05
0.000190667
0.000473635
-2.68359e-05
0.00299557
-0.000822117
-0.00191382
0.00319244
0.00109632
0.00102529
0.000256876
0.00412379
0.00294468
0.000233618
0.000506206
0.0027789
-0.000131615
-6.79593e-05
-0.00137658
0.00267203
-0.000729557
-0.000574224
-4.23861e-05
0.00139189
-2.6215e-05
-0.000117335
-0.000450602
-0.00223536
-0.000455601
0.00164387
0.000178969
0.00376863
1.47092e-05
-0.00206822
-0.000297465
0.00207595
-0.000381033
0.00101072
0.000401162
0.00229344
-0.000149571
0.00114511
-0.00156513
-0.000365445
-0.0015365
-0.00328718
0.000934357
0.000806732
-0.000724888
-0.000439293
0.000167097
-0.00216228
-0.00283723
0.000422556
