0.00185328
0.000650068
0.00327151
-0.000189489
-0.0025762
8.66021e-05
0.00406466
0.00202071
0.00105789
0.00422147
-0.000198609
-0.00140576
0.00545621
0.000862277
-0.00122702
0.000521893
0.000323966
-0.00106824
0.0015237
0.000606461
0.00208392
0.000849367
0.00113496
-0.000818402
0.000126978
0.000362649
-0.000840313
0.000813407
-0.00149901
-0.00121209
-0.000213707
-0.00112146
0.00042025
-0.00113321
0.00214127
0.00170996
0.000530925
-0.00275826
-0.00155493
-0.00319373
0.00120457
0.00118497
-0.00203554
0.000702995
0.000301293
0.000656143
-0.00132133
0.000560109
-0.00166705
-0.000142075
0.00632623
0.000621665
0.001495
0.00145101
-0.000455904
-0.00183834
-0.00293097
0.000752851
-0.000752312
0.00020323
-0.00335293
0.0014554
-0.00260639
-0.00117521
0.000554387
0.000638276
0.000524061
0.000707594
-0.00226332
-0.000296794
-0.00288315
0.00522507
-9.98253e-05
-0.00134411
-7.4174e-05
0.000568913
0.00378746
-0.00184691
0.000585741
0.00128406
-0.000957488
0.00469917
0.000658285
-1.72783e-05
0.00253793
0.000239729
0.00166128
0.000933332
-0.000308157
3.90315e-05
-0.000181137
0.00197474
0.00055782
0.000481791
-3.47983e-05
-0.000620808
-0.00176258
-0.000683839
0.000116602
0.000672492
0.00110616
0.000682289
-0.000822531
0.00172732
0.000924197
-0.00160135
-0.00164032
0.00023474
-0.00130428
-0.0023354
0.000540946
-0.000220971
-0.000126292
0.00031872
-0.000159559
0.00138645
-0.00336429
-0.000369088
0.000173085
-0.000483145
0.00584526
-0.000725145
-0.000158207
-0.00070104
-0.00197993
0.000586128
-0.00212571
-0.00052754
-0.000418745
-0.0001913
-0.000324408
-0.00034029
0.00236815
0.000608176
0.000711858
0.000579988
-0.000756592
-0.000272648
0.0019678
-0.00138033
-0.00028198
0.00159223
0.0026987
2.89076e-05
-0.00198111
-0.000513341
-0.000176715
-0.000391893
0.000573731
0.0031822
-0.000161202
-0.000519571
0.00154661
0.00079841
-0.00100817
0.000302486
0.000770392
-0.00132487
-0.000536993
-0.000423273
-0.0015354
0.000261717
-0.000560669
-0.00263262
-0.00115816
0.00107589
0.00166052
-0.000489076
0.00212195
-0.0051328
0.000519071
-0.000485664
0.000446729
0.00137545
-0.000287442
-9.51929e-05
-0.000827285
-0.00142835
0.00280421
-0.000403109
-0.000313183
-0.00134807
-0.00435196
0.000945042
-0.000230281
-0.00131288
0.000318566
0.000724415
0.000697345
0.00137859
0.000863624
-0.00326894
-0.00255968
0.00147886
0.00104082
-0.00224659
0.000813857
0.000360227
0.000496521
0.000623926
0.00026711
-0.000618376
-0.00152266
0.00118654
-0.00137505
-0.000470934
-0.00118945
-0.000304241
-0.000670798
0.000709303
-0.00145662
-0.000854015
0.000653166
0.000142002
0.00196249
-4.96752e-05
0.00095871
-0.00208904
-0.0015072
0.000295768
-0.000443549
-0.000883994
0.00166398
-0.000606601
-0.000105653
4.14129e-05
-0.000119705
0.000100382
-0.00115647
-0.000549406
-0.000834447
0.000859069
0.000692154
9.60166e-05
0.00158539
0.0018081
0.00123868
0.000497517
0.0008818
0.0023018
0.00029123
-0.000402064
-0.00117386
0.00196813
0.000352389
-0.00142364
-0.000726409
0.00161098
-0.0013235
0.000231762
-0.00115794
0.000381549
0.000185642
0.000279857
0.000263039
-0.00143102
-5.90122e-06
0.000445572
0.00110709
-0.00125928
0.00107127
0.00366972
-0.000604224
0.000859244
0.000839441
0.00245305
-0.00464027
0.000959625
9.75741e-05
-8.71851e-06
-0.00012404
-0.000442432
0.000633826
-0.00328012
0.000986271
-5.05045e-05
-3.03085e-05
0.000728798
0.00142852
0.000158548
-0.00122069
-0.00131851
0.00077821
1.96504e-05
-0.00141659
-0.00105605
0.000254857
-0.00184684
0.000282572
0.00280818
0.00264216
-0.000517967
0.00324683
0.000176298
0.000145588
-0.000287246
0.00138382
0.00312788
0.000193719
0.00171633
0.0018266
0.000604419
0.000152139
-0.000181216
-0.00280452
2.15877e-05
0.00149291
0.00110404
-0.00122597
0.000460145
-0.000630711
-0.000423863
-0.000347007
4.47418e-05
-0.000525851
-0.00096601
-0.00370066
-0.00287207
0.000385281
0.0013548
0.00260312
0.000318093
-0.000532898
0.000585856
0.00264005
0.00272601
-0.000155996
-0.00186362
-0.00116471
0.00174413
0.000343167
-0.000109961
0.000584261
0.000694271
5.87963e-05
0.000188766
-0.00430394
-0.00186679
9.60106e-05
-0.00381313
0.000535294
0.00074906
-0.000310036
-0.000530313
0.00187596
0.00148189
0.00199172
-0.00129782
0.00102979
-0.000450954
8.90934e-05
0.00355153
0.00147193
-0.00148769
-0.000489911
-0.00234896
0.00024062
0.0016871
0.000724254
-0.000314257
-0.0047639
0.000648934
-0.00504485
0.00116096
-0.00151506
0.000138624
0.00129514
0.001332
0.000621345
-0.00128625
-0.000277084
-0.00149033
0.00218199
-0.000290006
0.00134672
0.0037451
-0.00127581
0.000262289
-0.0018089
-0.00198754
0.00136011
0.00161434
0.00220409
0.00303848
0.00101062
-0.00524317
-0.000425772
-0.00126117
0.00328491
-0.00129924
0.0036025
0.00362465
-0.000723699
-0.000605586
0.000939569
0.00140893
0.00170833
-0.00129118
0.00125844
-0.00311355
-0.00106785
0.00126415
0.00163002
0.00224385
0.000473145
0.00129105
0.00198934
0.000570205
-0.00229587
0.00313478
0.00570732
0.00152789
-0.000263
-0.00111818
-0.000521701
-0.000525254
0.00327809
0.000474163
-0.00171389
0.00112371
0.00102944
0.0017145
-0.000696988
-0.0029019
0.000773983
0.00266938
-0.00111724
0.000968463
-0.000704553
0.00162562
-0.00164431
-0.00357397
-1.31872e-05
5.08642e-05
2.95683e-06
0.00215092
0.000299923
0.0002957
0.00185206
-0.000309841
-0.00154625
0.00250851
-0.000779359
0.00227834
-0.000687459
1.96475e-05
0.00226082
0.00123269
0.00043834
0.00225881
0.00062012
0.00172305
-0.000942808
0.000689691
0.00038698
0.00146335
0.00198033
0.000920295
0.00150648
0.00239492
0.000953539
-0.00167368
-0.00551183
0.000707831
-1.81386e-05
-0.00229797
0.00133229
-0.000373082
0.00158463
-0.00180213
-0.000273452
0.00304659
-0.0010968
-0.00244745
0.00165846
-0.00160546
-0.000427939
-0.00107857
-0.0032823
0.00108324
0.000513061
0.000282613
-0.000739379
0.00127467
0.00170326
-0.00209938
0.000695826
-0.000232963
-0.0018895
0.00486631
0.00207315
6.76113e-05
0.00129072
0.00115866
0.000738915
0.000628005
0.000651195
0.00462535
-0.00519488
-0.000987361
-0.000106911
-5.56107e-05
0.00133823
0.00583805
0.00372203
0.0014306
0.00206672
0.00272682
0.000235575
0.00106799
-0.00054389
-0.00150231
-0.000316014
-0.00150047
-0.000899976
-0.000378274
-0.000892701
-0.000674904
0.000471843
0.00176017
-0.0023725
-0.000391246
0.00307171
-0.000182054
0.00334277
0.00072633
0.000626234
1.89638e-05
0.000455191
0.000864175
-0.00197177
-0.00603058
0.00040297
0.00144404
0.00120817
-0.00206132
-0.000670917
-0.00111797
0.00115919
0.00101919
-0.000664579
-0.00257673
-0.00222168
0.000817679
0.0013848
-0.000355989
-0.000612096
0.00240826
0.000592132
0.000733225
-0.00174631
-0.000964648
-0.00062724
0.00340045
0.000873946
0.00265602
-0.000237009
-0.00236202
-0.00346522
0.00256117
0.00229026
0.00188915
0.00127443
0.000432832
0.000628316
0.000621072
0.00152452
0.00303727
-0.000971008
0.000557743
-0.000787779
-0.00112817
0.000816244
-0.000182209
0.00198142
0.000772249
0.0017452
-0.00100653
-0.000344736
-0.00124225
0.000627961
0.00448062
-0.000625822
0.00107284
0.000890039
0.00388798
0.00184319
0.000332429
-0.000846736
0.000101565
9.12303e-05
-0.000856852
-0.00142267
-0.00271853
0.000472207
0.00140097
0.000186698
0.00341308
0.000128222
0.00158247
-0.000395236
0.00135503
0.000983383
0.000422862
0.00108005
0.00290678
0.00139984
0.000312269
-0.000635524
0.00117053
-0.000570719
0.000673528
0.00503683
-0.000372508
-0.0053541
0.00100474
-0.000419228
-0.000623823
1.40061e-07
-0.000549469
0.00205887
0.00239295
-0.000869374
-0.00134266
0.00295571
-0.00174438
0.000207337
-0.000753322
0.0018245
-0.000744945
0.00391837
-0.00178249
0.0012515
0.00324831
-0.00153546
6.86049e-05
-0.000486081
-5.77377e-05
-0.00324939
0.000182911
-0.00259452
-0.00053488
0.00150885
3.0467e-06
-0.000113171
0.00144101
0.00234795
0.000174274
0.00110496
0.00473169
0.00300768
0.000721058
-0.00107281
-0.00127342
-0.00476304
-0.000483282
0.000218598
-0.000348705
-0.000618143
0.000121743
0.00246251
0.000511721
-0.000854884
0.000253248
0.00167393
-0.000836278
0.000243386
-0.000507417
-0.00294669
-0.00277969
0.00107057
0.000485946
9.89413e-05
-0.0020462
-0.00117086
0.0015927
-0.000123323
-0.00243607
0.00175481
-0.000493648
-0.00279319
0.00216763
0.00132113
0.00323798
-0.000576762
0.000244467
0.000207638
0.00396513
0.00197435
-0.00131883
0.00188776
-0.0018708
-0.000893253
0.000345234
0.000845383
0.000674268
-0.00187685
-0.000240818
-0.0030122
-1.69597e-05
0.00174673
0.00383253
0.00173318
0.000650322
0.00079416
-0.000299821
6.47616e-07
-0.00201866
-1.4615e-05
0.00355092
0.00118173
3.02399e-05
-0.00057596
-0.00247002
-0.000797575
-0.000511845
-0.00352062
-3.43474e-06
0.000581221
0.00169361
-0.000716658
0.00207238
0.00208001
-0.0013707
-0.000480633
-0.00249954
-6.25029e-05
0.00330275
0.000781934
0.000101783
-0.00157998
-0.000782942
0.00207004
0.00112475
0.000267441
0.000362503
0.00558394
-0.00290994
0.00344786
-0.000772319
-0.00211337
0.000357479
0.00104465
0.00234015
0.00242542
0.0021413
-0.00132496
-0.00133419
0.00116252
-0.000156269
0.000889723
0.00058189
-0.0025411
0.00131168
0.00130936
-0.00165269
0.000387124
-0.0011744
-0.000463719
-0.00182312
-0.000528632
0.000587334
-0.00265824
-0.000521324
0.000243296
0.00135561
0.000971405
0.000516357
0.00050092
0.00436636
-0.00115516
0.000866148
-0.00117864
0.000539254
0.00260581
0.00127365
-0.000816366
0.00298468
-0.000669377
-0.000297821
-0.000227782
0.000856761
0.000286833
-0.00573324
0.00474773
-4.75676e-05
-0.00065241
0.000206198
0.00499199
-9.87471e-05
-0.00196693
-0.000743017
0.000576236
0.000647068
0.00283123
0.00179622
-0.00458135
0.0032905
-0.000314649
-0.000729698
0.00071419
0.000483864
0.00175163
0.000327379
0.00361305
0.00020804
-0.0011663
-0.00217605
0.000580525
-0.000196047
0.002113
0.000140972
0.00136538
-0.000628681
0.000534545
0.000451479
-0.00184838
0.002438
-0.000330264
-0.000958259
0.000356472
-0.000723823
0.000141861
0.00141823
-0.000322259
-0.000202461
0.00216646
-0.00096921
0.00171908
0.00117507
0.00167816
0.000264407
-0.000667653
-8.0094e-05
-0.00061776
0.000860549
0.00177939
-0.000715507
0.00224865
4.3836e-05
0.000444608
0.00390666
-0.00247955
-0.00148055
0.000736406
0.000913867
-0.000249482
-0.000967743
0.00121867
-0.00306363
0.000320291
-0.00128012
0.0038644
0.00199699
0.00455894
-0.00365086
-0.00227574
0.000574788
-0.00228516
-0.000126852
0.00310107
-0.00149506
-0.000943214
0.00111269
0.000513414
-0.00187681
-0.000524093
-0.00212868
-0.00158471
0.000350364
0.000434807
0.00160957
0.00136755
0.000791327
-0.00094387
-0.00113495
-0.000633494
0.000245707
-0.00320313
0.00111843
0.00148846
-0.000248085
-0.00214121
0.00043316
0.00239255
-0.000237614
0.000408864
0.00267129
0.000675308
0.00234457
0.000160382
-0.00100993
0.0038906
0.00111496
0.000232155
0.000715832
0.00127449
-0.000267975
0.0032614
-0.00244253
-0.00113986
-0.000454103
0.00430277
7.24844e-05
-0.00308004
-0.000522252
-0.00287941
0.000251693
-0.00188254
-0.00031887
-0.00095122
-0.000686495
0.00077059
0.00126319
-7.22701e-05
0.00140884
-0.00209058
0.00140753
-0.000370575
0.00239246
5.78684e-05
-0.00132245
0.000925302
-0.000173649
0.00264946
0.00148596
0.00131947
0.000383441
0.00146455
0.00271892
0.000362663
0.00145437
0.000971735
-0.000514204
0.00383814
-0.00341743
-0.000312867
-0.000200795
-0.00347772
-0.000651479
-0.000992939
-0.000661147
0.00299139
0.000386266
7.9502e-05
0.0010432
-0.00240702
-0.00215352
0.00154123
-2.64261e-05
0.00161635
0.00667863
0.00161341
-0.00131522
-0.00133288
0.00276543
0.00219303
-8.2082e-05
-0.000241628
-0.000663087
-0.00088674
0.000265797
0.000461553
-0.00143098
-0.0021742
-0.00151484
0.00117328
-0.00127634
0.000425132
0.00531053
-3.34698e-05
-0.000191001
-0.000602077
-0.000222098
-0.000322893
0.000999974
0.000484128
4.98288e-05
0.00150116
-0.00399333
0.000634415
-0.000732963
-0.000354048
0.00138309
0.000273159
0.000190356
-0.00114027
0.00119629
-0.000783269
0.000790529
-0.000425442
0.00163223
-0.00195936
0.000194077
0.00312363
0.0013772
0.000812152
0.000183547
-0.00122932
0.00110127
0.000820374
1.28845e-05
-0.000469004
6.76338e-05
-0.000643781
0.00117555
-3.81527e-06
-0.000666708
-0.00124455
-0.000244023
-0.000430706
0.00103243
-0.00184078
0.00390811
-0.000750018
0.000231984
0.00136795
0.00119216
0.00195251
0.000411964
0.00135716
0.000866024
0.000519566
9.00622e-05
-0.000278334
-0.000213151
0.00321062
4.17828e-05
0.00147981
-0.00117593
8.81196e-05
-0.00106369
-0.000256787
-0.000965646
0.000918383
0.000281073
-0.000907836
-0.00118399
-0.00093517
0.000817043
-0.000211654
-0.00221801
-0.000562326
-0.000867809
0.000250038
-0.000922149
3.67495e-05
0.00119849
0.000966703
0.000132499
-0.000594471
0.000625976
0.000886293
0.000603734
-0.000537215
0.00038973
-0.00161008
0.00107071
0.00200757
-0.00173302
-0.00023664
0.00233035
0.00102951
0.00142656
5.58427e-05
-3.77038e-06
-0.00280941
-3.39192e-05
0.000553838
-0.00043314
-0.00410796
0.000299757
-0.00141254
-0.000555847
-0.000177997
-0.000124827
0.000123254
0.000719626
0.000393408
0.00516662
-0.000675628
-4.19309e-05
0.000145025
-8.42581e-05
0.00262161
-0.00446192
0.000257963
-0.000257393
-0.000879821
-0.00202515
-0.0017366
0.000916308
0.000928197
-0.000261825
0.00146509
-0.000734217
-0.000735238
0.00259125
0.000140805
-0.00175072
-0.00118922
0.00149278
-1.18987e-06
0.00119401
0.000119059
-0.00278349
0.000414835
0.000822369
0.000228236
-0.00110503
0.000617185
-0.00241889
0.000699666
0.0012098
0.000952076
-0.00137217
-0.000166465
0.0016814
0.000429913
0.00153303
0.00154431
-0.000853103
0.00161082
0.000540431
0.000562108
0.000111204
-0.000422852
-0.000132381
-0.000788155
0.00113971
-0.000225043
-0.000612057
0.0011412
-0.000657663
0.00061442
0.00127283
-0.000249006
-0.00298293
0.00144846
-0.000378892
0.000258273
-0.00133154
0.00201447
-0.000458355
-0.000285111
0.000663874
-0.00118551
0.00129004
0.000438335
0.00155038
0.00224898
0.00223397
-0.0022341
-0.000182318
-0.00529474
0.000485465
-0.00308683
-0.00025105
0.000479431
0.000721843
0.000604799
0.000837375
0.0012471
0.00144183
0.0016923
0.000292729
0.00353696
0.00122965
0.00244537
-0.00169058
0.000539138
-0.000524184
-0.00079025
0.000114975
0.000939742
0.000841524
-9.43608e-05
0.00038045
0.00231845
0.000398281
-0.0010046
0.00184367
0.0001309
0.000449347
0.00147997
2.80088e-05
0.000263112
0.000419302
0.000401141
-2.96211e-05
0.000938756
-0.00203465
-0.00138669
0.00240858
0.000632029
0.000561222
0.000125476
0.00140464
0.00015112
0.000743865
0.000674094
0.00037467
-4.08093e-05
0.00101299
0.00032297
6.86209e-05
-0.00137101
0.00184414
0.000382623
-0.000215083
-0.00136373
0.000514479
0.00138293
1.64976e-05
-0.0012621
-0.00035928
-0.000370868
0.00048224
0.000319077
-0.0012904
0.00136335
0.000506702
0.000165492
0.00213705
-0.000693461
0.00187478
0.000554032
0.000292625
0.000222708
0.00022255
-0.00145003
0.00323861
0.000318193
-0.00238337
0.00177237
-0.000217972
-0.000390582
0.00171571
0.00203784
0.00304574
0.000212859
0.000175733
0.000523551
-0.000858671
0.000505906
2.64872e-05
-0.000647281
-0.000409272
0.000981564
-0.000489468
0.000536151
0.00282456
-0.000415961
0.00340996
-0.000735994
0.00114929
-0.000132173
-0.00156447
-5.43304e-05
0.00381758
0.000172676
0.0004783
-0.000345806
-0.000809136
-0.00018488
-0.000210003
0.00154315
-0.000385042
6.92589e-05
-0.000706996
-0.0017634
0.00205157
0.00179807
9.94442e-05
0.000136544
-0.00270236
-0.000399652
0.000223432
0.000214724
-0.000260508
-0.00114633
0.000738264
-0.00117341
-0.000158558
-0.0006974
0.000558852
0.000290869
-0.000175142
-8.08501e-06
0.00104716
-0.00148135
0.00113355
-0.000110925
-0.00167563
-0.000256595
-0.000955403
3.82941e-05
-0.00138666
-0.000419194
0.000298162
0.00104849
0.000248525
-0.000628223
-0.000137973
-0.000140604
-7.09526e-05
-0.000145456
0.000379469
-0.0012869
-0.00146602
8.71957e-05
-0.00242962
1.83467e-05
0.00249098
0.000297996
-0.00118021
-0.000238149
-0.00090103
-0.00284539
-0.000434146
0.000727428
-0.00058435
-0.00228478
0.00230641
0.00115314
0.00207506
-0.00117965
0.00104772
0.000590869
-0.000495266
0.000118256
-0.000879995
0.000271418
-0.0012247
-0.000358309
-0.000525379
0.00124019
1.90321e-05
0.000417526
-0.000668057
0.000954475
-0.000589963
0.000795799
0.000447307
-0.00115119
0.000227328
-0.00114577
-0.00026072
-5.3321e-05
-0.0012688
0.00202276
-0.00153021
0.000890682
0.000205603
-0.000158255
0.00110155
7.2706e-05
-0.000275035
0.00192219
0.000373616
-0.000765514
0.00170289
-0.000991462
-0.000650391
-0.00328026
0.00138569
-0.00101765
-0.000248492
-0.00168894
-0.000674236
7.88868e-05
-0.000418219
0.00088839
-0.00156138
-0.000377927
0.000613104
-0.000190582
-0.000225615
0.00420129
0.00199296
-0.000775408
0.00171015
-0.000485189
0.000327794
0.000174981
-0.0011551
0.000782238
0.000726869
0.00109665
-0.000908045
0.000543745
-0.00140938
0.00242241
0.000619418
0.00317909
0.000326558
0.00286478
0.000636358
0.000868545
-0.000945169
0.00114216
-0.00126983
-0.000279412
-0.000860281
-7.50421e-05
0.000400129
-0.00176726
-0.000299909
0.000241817
-0.00092913
0.0011677
-0.000647461
-0.00205727
0.000515123
-0.000269415
0.000253636
-0.00144868
-0.000804611
0.00152518
0.00192644
-0.000838401
0.000491849
-0.00307386
-0.000182361
-0.000184719
0.000200239
-0.00071172
-0.000737966
-0.000199394
0.00226741
-7.11344e-05
0.00143091
-0.000616856
-7.5444e-05
-0.000917535
0.00015511
0.000780089
0.00142672
0.000366633
0.000476187
-0.000539566
0.000579774
0.000421179
0.000379572
-0.000203098
-0.00142745
-0.00386125
-0.00161106
0.000576512
9.53208e-05
0.00362746
-0.000656188
-0.000392364
0.000216848
0.000303613
-0.000581934
-0.000535254
-0.000315345
5.91425e-05
0.000847599
0.00248913
0.00123082
0.000430672
5.63349e-05
0.000553791
0.000817815
-0.000334506
0.00069131
-0.000187598
-0.00136796
-0.00018732
0.000311465
-0.000588742
0.000881175
0.00387764
0.00064318
0.00142782
-0.000366236
0.000278068
6.35757e-05
0.000853791
0.00216893
-0.000377574
-7.58835e-05
-0.00146792
-0.000306299
-0.000346252
0.000207273
-0.000476216
-0.00095298
-0.00160216
0.000769515
-0.000292496
-0.000490044
-0.00174739
-0.00032932
0.00156573
-0.00271312
-0.000426905
-0.000820981
0.000462916
-0.000318989
-0.000206364
0.00388903
0.00168111
0.000296321
0.00191649
-0.0013124
0.00105909
0.000391225
0.000535008
0.00152755
0.000286784
-9.1579e-05
-0.00129779
-0.00046563
0.00180125
-0.000128759
0.000327448
0.00239308
-0.00164221
0.000154566
0.000437271
-0.00254569
0.00103431
0.00264139
-0.000143726
-0.000119242
0.00119838
-0.000473415
0.00284275
-1.27004e-05
0.0021933
-0.000147338
-0.00173791
0.00200072
0.000961407
0.000742515
-0.000278742
0.000895106
0.000540655
-0.000317327
-0.000407002
-0.00142984
0.0016632
0.00134485
-9.33316e-05
0.00320288
-0.00317263
-0.00215595
-0.000280032
0.000824426
4.47873e-05
0.000719384
-0.000954402
-0.000132995
-0.000462875
-0.000391538
0.000713384
-0.00143583
0.000307087
-0.00181979
0.00135061
-0.000114631
0.00131006
0.0009798
0.00207466
-0.00119518
0.00100582
-0.000285106
-0.00137074
6.89322e-05
-0.000142388
-0.00165339
-0.000352004
0.00241449
0.00150307
-0.00019621
0.00274175
0.00129879
-0.0011219
-0.000632128
0.000699802
0.00124942
0.00143278
0.000174334
2.37693e-05
-0.00012389
-0.00137397
0.000369698
0.00017508
-0.00119503
-0.000405415
-0.000806903
-0.00197417
0.000144418
0.000142353
-0.00143781
0.00018632
0.000983421
0.000724828
0.00143466
0.000603203
-0.00154465
-0.000504117
0.000146718
-0.00116219
-0.00014007
-0.000110771
0.000499373
0.00117522
0.00244644
0.000100116
-0.00127268
0.00136085
0.000417088
0.000582528
0.00077896
0.00252886
-0.000798207
0.000381428
-0.00055345
-0.000241294
-7.51468e-07
0.000927661
-0.00146398
0.00160422
0.000661651
-0.00117713
0.000965496
-0.000479051
-0.00151534
0.000189831
0.00573678
-0.0019152
-0.000303487
0.00124233
0.00018135
-0.00107183
8.62577e-05
0.000515195
-0.00137301
0.000753242
-0.000709216
0.000677927
0.000246602
0.000845497
0.00706987
-0.000385335
0.00124459
0.000107588
0.000665756
8.38064e-05
-0.000764846
-0.000310967
0.00115073
-0.000327622
0.000603123
-0.00039244
-0.0017423
-0.000419221
0.00233008
-0.00243961
0.00184092
-1.65861e-05
-0.00106367
-0.000623729
0.00122387
6.65719e-05
0.00131272
0.000227291
-0.0004805
-0.000930018
-0.000811243
-0.00117473
-0.0019077
4.79877e-05
0.000349755
0.000626742
-0.000815328
0.000453895
0.00091121
0.00113176
0.00119254
-0.00205979
-0.000744156
-0.000973708
-0.000377975
0.00125222
4.49194e-05
-0.00140555
-0.00131243
0.00101306
0.0012823
-0.000880639
-0.00181807
-0.00169262
-0.00112564
0.00232863
-0.000481681
-0.000851541
0.00381746
-0.00198858
-0.000102819
4.31307e-05
0.000172371
0.00211749
0.00380685
0.00179258
0.00291217
0.00163281
0.000318147
0.00145792
0.000134561
0.000901754
0.00074262
-0.00173567
-0.00393739
-0.000969575
0.000315046
0.000570188
0.000603032
-0.00143141
-0.00249128
-0.00224291
-3.67509e-06
-0.00019606
0.000354118
-0.000647406
-0.00169751
0.000590045
-0.00122971
0.00105876
-7.22676e-05
0.00122824
-0.000604057
0.00094806
0.000168191
0.00367341
-0.00037993
0.00253044
-0.000736968
0.00242644
-0.000108713
-0.000903797
-0.000285032
-0.000569961
0.000128559
0.00142115
0.000133485
0.00133866
-0.00195449
-0.000246686
0.000174322
-0.000472547
0.000479453
0.000445293
0.00149857
-0.000344504
0.00171135
0.00300516
0.000658674
-0.00356683
0.000937859
0.000235306
-0.000274732
-0.00127437
-0.000539805
0.000688004
0.000564217
-0.00037723
-0.00279096
-0.000253402
0.00148299
0.00090657
0.000799054
0.000166606
-0.000935569
-0.00199983
0.00159247
-4.44473e-05
0.00102541
-0.000260031
0.000592367
-1.73428e-05
-0.000489594
-0.000448501
0.000512095
-2.03951e-05
0.000413258
0.000608441
0.000287596
-0.00136753
0.000499614
0.00196571
-0.00108917
-0.000637173
-0.00195621
-0.000344622
-0.000766618
1.57979e-05
-0.000389006
-0.000339768
-0.00110246
0.000972726
-0.000263527
0.00197666
-0.00139659
-0.00109794
-0.00042116
-0.000969238
0.000735205
0.000564022
0.000741247
0.000385309
0.00106652
-0.00029209
0.000712511
-0.00224844
0.000555274
0.000248243
0.00029312
-0.000826879
-0.000161945
0.000267883
0.0015753
0.000370846
-0.000107617
0.000409081
-0.00191601
-2.43718e-05
0.00230199
0.000321632
-0.000489366
0.00057307
0.000358102
0.00204743
-0.000644602
-0.000277379
-0.000874644
-0.001449
0.000568884
-0.000598306
0.00159627
0.00025057
0.000779108
-0.00026297
0.00047228
-0.000909287
0.000602502
0.00170444
0.00135567
0.0020606
0.000307979
0.00070653
-0.000695585
-0.000442193
0.001155
0.000622164
0.00193219
0.00208141
8.60502e-05
-0.000994578
0.00037547
-0.000751952
0.000474366
0.00105403
-0.00038795
-0.00227092
-0.000246162
-0.00143139
0.000417651
-2.87601e-05
-0.000149047
-6.16357e-05
0.00096292
0.000672948
0.00099859
-0.000849656
-0.000318724
-0.000682748
0.000209551
-0.00396711
-8.10004e-06
0.000850548
0.0012078
0.000850183
0.0034755
0.00217155
-0.000462054
-0.000309697
0.000276419
-0.000208411
-0.00051091
-0.000843941
-0.00056771
0.00045259
0.00137328
0.000241233
0.000702131
-0.000355509
0.00166067
-0.000313235
-0.00139255
-6.26584e-06
-0.00231307
-0.000119602
0.00302908
0.000396805
-0.000263581
0.00115523
0.00251845
-0.000704675
0.00128531
-0.000828025
-0.000671415
0.00174829
0.000883109
0.00107271
0.000232219
-0.000203078
6.11835e-05
0.00200156
0.00224073
-0.00283019
-0.000928068
-0.000800552
0.000161326
-0.00144807
0.000926054
0.00063425
4.30408e-05
0.00319582
-8.77619e-05
-0.00103612
0.000468417
-5.44831e-05
0.00123009
0.00173349
-0.000154622
-0.000386606
0.000511139
0.00219176
-0.00043124
0.00029149
0.000190503
0.000297357
-0.00106632
0.000414875
0.00326055
0.00261304
-0.000541867
-0.00121848
0.00232204
-0.000335812
-0.000974727
-0.00103414
-0.000641948
-0.000285262
-0.000932835
-0.000646488
-0.00241317
-0.00154084
-0.000301537
-0.000266148
-0.000458264
0.000708582
0.00244581
-0.000350934
-0.000487893
0.000212456
7.28706e-05
0.00090229
-0.000416933
0.00179606
-0.000391318
0.00136863
-0.00123445
0.000344472
-0.00109484
0.000256243
-0.00229566
0.00294327
0.00014055
0.00265129
0.000779544
0.000218936
-0.00132395
9.15581e-05
0.00247333
-0.000108852
0.000483816
-0.00171576
-0.000280263
0.00137391
-4.0133e-05
-0.0014455
0.00123159
0.000519503
-0.00236795
0.001842
1.60967e-05
0.00344336
-0.000585504
0.000439475
-0.00142924
-0.00124489
-0.000571167
0.000913873
-0.000536797
0.000139484
-0.00263694
-0.00136174
0.000616314
-0.00323211
-0.00258657
7.79759e-05
0.00106003
-0.000686723
-0.000405101
0.000311147
0.00188104
-0.000806821
0.000171535
-0.000407983
-0.00115703
0.00201867
-0.00157665
8.26333e-05
0.000196254
-0.000750345
-0.000282772
0.00201482
-0.00128625
0.00243931
-0.00103138
0.000318745
-3.79846e-05
-0.00126186
-0.0018851
0.000793831
0.00111548
-0.000822664
-0.000426856
0.000392044
0.000884462
0.000614756
0.000388185
-0.0033039
-0.000838352
-0.00182756
-0.00128875
-9.74052e-05
-0.000596262
-0.00020582
-0.00176883
0.000936194
-0.000513309
-0.00146935
-8.11979e-05
-0.00107884
-0.000222557
-0.00175211
5.61023e-05
-0.000384185
0.00172155
-0.00160832
-0.000455989
-7.63032e-05
0.000550303
-0.00156791
8.44759e-05
-0.000163573
-0.00436282
-0.000821689
0.00175672
-0.000587189
-0.0020872
0.000124736
1.33506e-05
0.00240918
0.00048742
-0.000387483
0.000337264
0.000448167
0.000244704
-0.000462867
0.00192728
-0.00114277
-0.000883835
0.000209653
-0.00117626
0.00230059
0.000915956
0.00042561
0.00188088
0.0020875
0.00121569
-0.000399259
0.000480259
-0.000834653
-0.000939515
-0.00377641
0.000738513
0.000988374
0.000235256
-0.00100247
0.00038761
0.000263628
0.000145833
0.000539245
0.000692536
0.000833269
0.00105
-0.000838829
-0.000328763
-0.000509222
-0.00374415
-0.00147696
-0.000225196
0.000203301
-0.0014255
-0.00147508
-0.000867195
0.00243326
0.000737395
0.0032797
0.00209377
0.00030665
-0.000524136
-0.000466161
-0.00107394
0.00229445
0.00142511
-0.000438104
0.00190809
0.000474146
-0.00146251
0.00125588
-0.00116679
0.00110834
-0.00101297
0.00304394
-0.00190964
0.00144275
0.00209106
0.00195106
-0.000386516
0.00147689
0.00071025
-0.00164736
0.000989997
0.000355676
-0.000563913
0.00101841
-0.000826807
-0.0018059
-0.000801222
0.00483562
-0.000541028
-0.00104451
0.00544458
8.7813e-05
0.00192968
0.000743231
-0.00171094
0.00235018
0.00131681
-0.00160793
0.00101458
-0.000418199
-0.00111894
-0.000584801
-0.000314963
0.000311994
-0.00250711
0.00461998
0.00135116
-0.000952097
0.000245067
0.00110088
8.37697e-06
0.00147294
0.00175181
0.000830964
0.00068881
0.000356571
3.73799e-05
-0.00101338
-0.000593935
0.00153742
0.000985288
0.00177391
0.00083542
0.000607619
-0.000765312
-0.00170283
-0.000906392
0.00258403
-0.00121297
0.00293361
-0.000181716
0.00011774
0.000217638
-0.000245611
-0.0020642
-0.000250674
-0.000622248
-0.0015552
-0.0011691
-0.000816554
-0.00141297
0.000195485
0.00099661
0.00386757
0.000630921
-0.000240812
0.00211579
-0.00117887
-0.000516455
-0.000453921
0.000210892
0.000747508
-2.18379e-06
-0.00186034
0.000867189
-0.000609843
0.00100535
-0.00270421
-0.000765644
-0.000764326
-0.002092
-0.000342602
0.000343253
0.00316201
0.000893342
-0.000927724
-0.000816725
0.00243009
0.000948608
-0.000747123
0.000307655
-0.000775091
-3.65727e-05
-1.29002e-05
0.00579542
-0.000477227
9.20708e-05
0.000435585
-0.00114695
0.000789257
0.00115031
2.76263e-05
0.00158017
-0.000889304
0.00120424
0.00192118
0.000598213
-0.0019062
0.00140358
0.000287224
0.000122647
0.00111899
-1.49885e-06
-0.000492296
0.000308481
-0.00211455
0.000313938
0.000733585
0.000745975
-0.000894076
0.00104407
0.00263138
0.00103901
9.7382e-05
0.000536688
0.000361676
-0.000239564
0.00386223
-0.000593862
-0.00297266
-0.000993645
-0.0022184
0.000753712
-0.00258874
-0.000462967
-0.000401241
-0.00162396
-0.00454673
0.00314749
5.61443e-05
0.00127189
0.000247623
0.000432856
-0.000857305
-0.000730465
0.00201986
0.00264784
-0.000874371
-0.00345999
-0.000348499
-0.00155371
0.000924567
0.00153196
-0.0016945
0.00400264
-0.000465398
-0.00032996
-0.000270286
0.00291346
0.00244927
-0.00152802
0.000319836
0.000492708
-0.00353583
0.000515808
-0.00117021
-0.000573274
-6.13762e-06
0.00342128
0.00138705
0.000858189
0.000152683
-0.000510423
0.00110873
-0.00182364
0.00142363
0.00184561
0.000644802
0.000287093
0.000481792
0.0010395
0.000349171
-0.000963214
0.000782518
-0.000889579
0.00197323
-0.000167969
0.00210383
0.00459442
0.00049576
0.000493074
4.47487e-05
-0.000723372
-0.000146879
0.00350234
0.000942507
-0.000390644
-0.000139872
-0.000653946
-0.00286832
4.72141e-05
-0.00147467
0.000266077
-0.00430751
-0.000188055
0.00167693
-0.000682672
0.000254844
0.00103359
-0.000222
0.00192717
-0.00191366
0.000708199
-0.00034324
-0.000377506
-0.00149528
-0.00191391
-0.00188086
-0.000185461
0.00250035
-0.000192926
0.00290359
-3.10179e-05
-0.000684631
-0.00177384
-0.00134047
0.0010881
0.00404917
0.00264162
-0.00180042
-0.0028748
0.00114048
0.000984566
0.000240132
0.00369993
-9.69745e-05
-0.000233511
-0.0012717
0.00195132
0.000651276
-0.000238675
-0.000168951
-0.00245722
0.00121697
-0.000215057
0.00134659
-0.000940904
-6.66284e-05
0.000874947
-0.000567301
0.000284592
0.000375555
-0.00144156
0.000738647
0.00109175
0.000812072
-0.000644465
0.00247995
0.000965716
-0.000230827
-0.00027198
0.00040851
-0.000662054
0.00250051
0.000546104
-0.00069275
1.65146e-05
0.000616912
-0.000261744
-0.000295864
-0.000529287
-0.000149214
0.00402165
-0.000925866
0.0031116
-0.000441994
0.000138554
0.00131156
0.00174312
-0.000837911
-0.000504721
0.000204213
0.00108772
0.00035274
-0.00394688
1.07582e-05
-0.00114695
-0.00102193
-0.000195363
-0.000640236
0.000227182
0.000180619
0.00186433
0.000905807
-0.00305019
-0.0031233
0.000150118
0.000251085
0.00177772
0.000379226
-0.000753886
0.000136081
0.000807586
-0.00259164
0.00156329
-0.000275949
0.00301773
-0.000273344
0.000966152
0.00123835
0.00204534
-0.00213549
5.76172e-05
0.000818897
3.95964e-05
-1.06437e-05
0.000370719
0.000438724
-0.000351618
-0.000617839
0.000361275
-0.00345665
-0.000952933
-0.00100843
-0.00133618
7.77746e-05
0.000915104
0.00157448
0.00059036
-0.00139969
0.000496833
-0.000955348
0.00170455
0.000423456
0.00134153
0.000364846
0.00172002
0.00134871
1.21627e-05
0.00158154
-0.00177778
-0.000195339
-0.000658357
-0.000456615
-0.00473924
0.00136683
-0.000605449
-0.000411481
-0.000514632
0.000148648
0.00022235
-0.00077435
-0.00075289
-0.000185638
-0.00015414
4.15514e-05
0.00190516
0.000318717
0.00159095
-0.000991289
-0.00234181
0.00114381
0.00217194
-0.000265821
0.00180055
-0.000778473
-0.000224216
-0.000280559
0.00189189
0.000432236
0.000146116
-0.00176621
-0.00230409
-0.00166758
-0.000420804
-0.00079806
0.000272875
0.000828575
-0.000785559
-0.000283757
-0.000775314
0.00189826
-0.00122538
0.00137469
0.00199487
0.000892929
-0.00267614
0.000192432
-0.0011428
0.00125603
-0.00125886
0.00285132
0.000643622
0.000110208
-0.000443361
0.000635988
-0.000125515
0.000523793
-0.000295558
-0.00235322
1.50308e-05
-0.000483873
0.000525619
-0.000760645
-0.00182926
0.000311361
-0.0010898
-0.00153468
-0.00147286
0.000332412
-6.28836e-05
0.00039973
0.000646959
0.00149257
-0.00281555
-0.000111606
-0.000681868
0.00115106
-0.000698307
0.000207763
-0.00308331
-0.00199325
0.000464097
0.00121934
0.00253731
0.00225298
0.00119233
-0.000140592
-0.00160316
3.08217e-05
-0.000772393
-0.00027645
-8.98458e-05
0.00100002
0.000961449
2.59602e-05
0.00218662
-0.000301159
-0.0010049
0.000287491
0.000896626
-0.000187927
-0.00106037
4.28148e-05
-0.000695229
0.00262822
0.000266768
-0.00156168
2.41388e-05
0.000965259
-0.000730861
-0.000101243
-0.00106802
-0.000831712
0.00186669
-0.00067714
0.00135002
-0.000469271
0.0018375
-0.000185387
0.000689239
-0.00100624
-0.000106534
0.0010025
-0.0012918
-0.000104052
0.00173127
0.00169838
-0.000124508
0.000761142
-0.00103832
0.000174394
-0.000154696
0.00116229
0.000146591
0.000337798
-0.000220544
0.00119684
0.000508221
0.0011151
-0.00013042
-0.00243461
-0.00195774
0.00136131
-6.68193e-05
0.00162181
0.00452976
-0.00184318
-2.48202e-05
-0.000889713
0.000445654
-0.000576687
-0.000974525
0.000967233
0.00244114
0.00106863
-3.88965e-05
0.000962267
-0.00174872
0.00254601
-0.00149491
-0.00134255
-0.0023028
-0.000114737
0.00127209
-0.000799527
7.55062e-05
-0.000882617
0.000304715
0.000553722
-0.00219865
-0.000991363
0.00147428
-0.000961769
-0.00117789
0.000432623
-0.00109224
-0.000144597
0.000590223
-0.00200923
-0.000560489
0.000467046
0.000563373
0.000638956
-0.0018096
0.00191896
-0.001177
0.00130722
0.000623069
-0.000279389
-0.000798638
-0.000203764
0.00166
0.00103324
0.000131326
0.001606
0.000108499
0.00183579
0.00030561
-0.000643024
-0.00198582
-0.000656029
-0.000255626
-0.000307378
0.000534841
0.000835358
-0.00142779
4.46414e-05
0.000381984
-0.000731343
0.000548534
0.000793446
-0.00162373
-0.00271316
-0.00241345
0.00141499
0.00267857
-4.92216e-05
0.000232435
0.00136647
-0.00225749
-0.00127439
-0.00068849
4.58268e-05
-0.00316879
0.000806958
-1.26686e-05
0.000399974
0.000740126
0.00249049
-0.000699862
0.000706131
-0.00146788
-0.00243734
3.27929e-05
0.00123892
-0.00243378
-0.000408909
-0.000327837
-0.00128934
0.000813043
-6.03218e-05
-0.00108944
0.00181944
0.000500738
-0.00343667
-0.000265442
-0.00403567
0.000155772
-0.000371797
-0.000489815
-0.000581887
0.000681532
-0.000583545
0.00275492
0.000177943
-0.000282671
0.000127276
-0.000636031
-0.000818892
-0.00163737
0.000731844
0.000150881
-0.000190031
-1.77008e-05
0.00124372
-0.000131064
0.000425786
0.000165233
-0.00023332
-0.0015727
-0.00113066
-0.000124892
0.000188264
-0.000249935
-0.00182906
0.00379752
0.000385746
0.000583403
-0.000340891
-0.000829343
-0.00172997
0.0023004
0.000158541
0.000661671
-0.000454966
0.00175463
-0.00130026
0.000457171
-0.000670673
0.000570209
0.000579751
3.05483e-05
0.00362865
-0.000249145
-0.000488777
0.00117613
0.00226681
0.000257477
0.00117794
0.00268978
0.000523671
-0.00141715
-0.00200297
0.00172091
-0.0014771
-0.00113601
-0.000131911
-0.00417843
-0.00257325
-0.000767679
0.000937689
-0.00233018
0.000261143
0.000314271
-0.00117865
0.000208002
0.00141912
0.000403074
0.000214349
0.000734265
0.00016788
0.000967884
0.00176462
-0.000531886
0.000199227
0.000295943
0.000305427
0.0020778
0.00157906
-0.000156658
0.0016579
0.00105258
-0.000571297
-0.000650542
0.000712784
-0.00104201
0.000410756
0.000653163
-0.000320804
-0.00148066
-0.000270664
0.00126907
1.67368e-05
0.000452545
0.00210644
-0.000973782
-0.000229756
-0.000447305
0.000155251
0.00195444
-1.16036e-05
0.00182295
-0.0033246
-0.00030521
-0.00204026
-0.00110437
0.0022783
0.000751646
-0.000890524
-5.12116e-05
-0.000140945
0.000750005
-0.00169458
0.00115656
0.000251491
-0.000375446
0.000391097
-0.0012167
0.000495798
-0.00037455
-0.000436874
0.00163884
-0.00221094
-0.000718571
-0.0012377
0.0003523
-0.000743384
0.000282233
-0.00273958
0.000340996
-0.000106956
-0.000239628
0.000690529
0.000470478
0.000418791
-0.000391142
0.000558596
-0.000870458
-0.00162387
0.000380731
0.00202574
-0.00256887
0.000110711
0.00252976
0.000503766
2.12637e-05
0.000148624
-0.000804883
-0.000733967
-0.00125913
-0.000312318
-0.000710596
-0.00152914
-0.000622412
0.00054756
-0.000208781
3.49222e-05
-0.000221388
0.000924161
4.48571e-05
-0.000280538
-0.000648851
0.00306803
-0.000371528
0.00149391
-0.00042298
0.00084835
-0.000809616
0.000210358
0.000710754
-8.38461e-05
0.000257764
-0.000153396
0.000126405
-0.00171158
-0.00350939
-0.000802912
0.000731248
-0.000699187
-2.04052e-05
0.00136157
-0.00100134
0.000137507
0.0011526
-0.000508389
-0.00224252
0.00223752
0.00331289
0.00188082
-0.000640035
-0.000750079
0.0038507
-0.000439977
0.000573415
0.00075555
-0.00203272
0.000764776
-0.000227438
-0.00239009
-7.15157e-05
-0.000400638
-0.000521754
0.000712253
0.000521469
0.00171456
-0.000385088
-0.000181458
0.00107891
0.00140213
0.000185017
-0.00189437
0.00146825
0.000316851
-0.00179323
-0.000560821
-0.000204194
0.00173273
-0.000124351
-0.00170879
-0.00124557
0.000327217
9.20181e-05
-0.000618571
-0.00286758
0.00104687
0.000204462
0.00105402
0.0021311
0.000134111
0.000190454
0.00218916
0.000426683
-0.000116378
8.70235e-05
0.00116121
-0.0010157
-0.000875432
0.000593246
-0.000474658
0.00560292
-0.0028577
0.000440278
-0.000624866
0.00181621
-0.00178661
0.000449115
0.000854467
0.00114439
0.00110712
-0.00205327
-0.000719288
0.00141235
2.07488e-05
-7.29128e-05
-0.00205683
-0.00224273
-0.00158534
0.000802277
