0.00499095
0.000635086
0.00177137
-0.000435876
0.00110388
-0.00357513
0.0015958
-0.000559806
-0.000881875
0.00147827
-0.000279653
-0.0026268
0.000443117
0.000417225
-0.00359659
0.000194722
0.0019387
-1.27377e-05
0.00428732
-0.000128759
0.0031305
-0.0019989
0.000190151
-0.000616907
-0.00231746
0.00166946
-0.00272857
-0.00144366
0.00239736
0.000262233
-0.000383385
-0.00173512
0.0021071
-0.00410626
0.00294155
0.00255521
-0.00184091
-0.000928079
0.00536532
-0.00160475
-0.000459624
-0.0033036
0.000783191
0.00238237
0.00137788
0.00134648
-0.000446583
0.000312125
-0.00153317
0.00156142
0.00239273
0.00242768
0.00285211
0.000376458
2.3944e-05
-0.00169094
-0.00039092
0.00268064
0.000607151
0.00074967
0.00302927
-0.00198346
-0.0002788
-0.002391
0.00020407
-0.00147419
0.00174903
0.00232793
-0.00493167
-0.00392298
-0.00559544
0.005398
-0.00313074
-0.00375012
-0.00237812
-0.00272754
0.000890354
-0.000250377
-0.00155396
0.00164268
0.00074011
0.0025699
-0.00103036
0.000354411
0.000572687
0.000422802
-0.000701606
0.00514486
0.000784657
-0.000460486
-7.97224e-05
0.000191256
-0.000180979
-0.000610678
0.000472097
-0.00561429
-0.00216598
0.000289814
0.000774243
0.000387501
-0.00257198
0.00231914
-0.00293982
-0.000361477
-0.000383867
-0.000116779
-0.000396881
-0.00263902
0.0017047
-0.00218298
-0.0031865
-0.00375663
-0.00333144
0.00383946
-0.000494799
0.00247245
0.00140471
0.00100004
-0.000689151
-0.00502537
-0.000781078
-0.00256564
-0.00136265
0.0017719
0.00110991
0.000890978
0.00122778
0.00136042
-0.00093979
0.00149139
0.00148176
0.00210735
-0.00119502
0.00049306
-0.00153516
0.000148249
-0.0066532
0.00141591
-0.00107694
-0.00259276
0.00145772
0.000756879
0.00145122
-0.00225243
0.00290775
-0.000509225
4.75173e-05
-0.00325818
0.00103712
0.00584525
-0.00492702
0.00149841
0.00394166
-0.00151541
-0.00260921
0.00162177
0.000434132
0.000411271
-0.000367193
-0.000766717
0.00170503
0.000196162
-9.48853e-05
-0.00289316
0.00197175
0.00151773
0.00411649
-0.00417043
-0.00181025
-0.00294633
-0.000387242
0.000202528
-0.00503161
0.000399727
-0.00327145
0.00215884
-0.000246581
0.00210892
0.00319196
-0.000933215
-0.000979721
-0.00450039
0.00232899
-0.00305276
-7.71698e-05
-0.000969782
0.000227937
0.00235037
-0.00206931
-0.00116405
0.000475884
-0.000103072
0.000958444
0.000346558
-0.00311286
-0.00109887
-0.00445587
-0.00126449
0.000685346
-0.00180235
0.0015844
0.00227293
0.000227032
-0.000114336
0.00223914
0.00178518
-0.00123125
0.00131073
0.00131749
-0.00277394
-3.79613e-05
0.000418221
-0.000106946
0.000427703
-0.000618504
0.00131978
0.000616715
-0.00207764
0.00236479
0.000814355
-0.00336421
0.000772323
-0.000834536
-0.000207137
0.000610082
0.00331196
0.000615494
0.00193052
-0.00218908
-0.00112351
0.000354727
0.000233615
0.0036741
-0.000660307
0.00236752
0.00179152
0.00111973
-0.000422385
-0.00229504
0.00138231
0.00123196
0.00265699
0.00113981
0.000744027
0.00307062
0.000657855
-0.00073474
0.000461386
-0.000987883
-0.00113283
0.00325427
0.00374872
0.000536508
0.000471822
0.000740365
-0.00105947
0.000735145
0.00350518
0.000187116
-0.00167271
0.00145048
-0.000418893
-0.000322613
-0.000448719
-0.000459438
0.00270589
-0.00378386
-0.00215555
0.000197267
0.000116467
0.00119575
0.00198588
0.00329615
-0.00278587
-0.00145289
0.000944382
0.00305078
-0.00133131
0.000425311
-0.00291316
-0.00174179
0.00121129
0.000915133
-5.11645e-05
-0.00164767
-0.00329071
-0.000274685
-0.00127738
-0.00178751
0.00399803
9.72507e-05
-0.000287814
0.00118252
-0.00340051
0.00206123
0.000545204
-0.000731167
0.00123895
-0.00103656
0.00313997
0.00689683
0.0019828
-0.00232833
0.00292847
-0.000168732
-0.00153124
0.00351714
-0.00044031
-0.0018788
0.00092357
-0.00187666
0.000823264
-0.00446661
-0.00196232
-0.00383878
0.00200558
-0.003206
-0.00531455
-0.00330341
0.00231766
-1.31609e-05
0.00058422
0.000814475
0.00183677
-0.000254778
-0.00123611
-0.000770654
-0.00449143
0.000236153
0.00268205
0.00324593
-0.00186069
0.000306029
-0.00387372
-0.000701077
0.00364097
-0.000100586
7.22659e-05
-0.000676094
0.00128425
-0.00130437
-0.00200268
-0.000551716
-0.00178966
9.4753e-05
0.00108003
-0.00045252
-0.00154148
0.00336752
0.0065268
-0.00150664
0.00294164
-0.000947599
-0.000714692
-0.00112517
0.0082304
-0.000728466
0.00226247
-0.00103612
-0.000189768
-0.00221009
0.0025455
-0.000532609
-0.000756457
0.00274326
0.000304247
0.000559527
-0.00133594
0.00122471
-0.00382513
-0.000731986
0.000562801
-0.0005318
1.29982e-05
0.000652697
0.000231252
-0.00537651
-0.00461646
-0.0019994
-0.00349061
-0.00276237
0.000104604
0.00200337
0.00635578
-0.000325166
-0.00136497
-0.000134009
-0.000751265
0.00246975
0.00114779
0.00162436
0.000678168
0.00199703
-0.000302219
0.00257218
0.00105362
-0.000631753
0.000183958
0.000533805
0.00322835
-0.00134832
-0.00324911
-0.000116284
0.00129664
0.00128877
-0.00124793
0.00326383
0.00144056
-0.000867229
-0.00232879
0.00437364
8.7436e-05
0.00269777
7.47404e-05
-0.00433668
-0.000750288
0.000496853
-0.000614368
0.00252718
0.00243203
-0.00373844
-0.00181411
-0.000187714
-0.00383467
0.000233871
0.00293508
0.00095326
0.00112374
-0.00127256
-0.00146105
0.00131884
0.00100736
0.000482103
-0.00278905
0.000144101
0.00231298
-0.000191899
0.00105856
-0.000183247
0.00121517
-0.000458295
-0.00266514
0.000426938
-0.00161715
0.000193155
0.00200674
9.87272e-05
0.00338966
0.00399028
0.00466677
0.0014391
1.08216e-05
-0.00235492
0.00134566
-0.00239122
-0.00230427
0.000758051
-0.00211413
0.0029635
0.00344828
0.00275377
0.00241448
-0.00677336
0.0022213
-0.000127195
0.000779293
0.000614977
0.000260199
0.000484008
-0.00259677
0.000133508
-0.00205257
2.56665e-05
-0.00115779
0.000219273
0.00372417
0.00284464
-0.000462784
-0.00110078
0.000133345
0.00585124
-0.00160573
0.00173475
-0.000605075
-0.00335422
0.000706784
-0.000752687
-0.000378705
0.00468729
6.18826e-05
0.00177302
-0.000278096
0.00206843
0.000909684
-0.000524047
0.00134418
-0.00160113
0.00373773
0.000562553
0.000878541
-8.48746e-05
0.00365194
0.00400404
0.000941945
0.000651447
0.00402993
0.00358053
0.00170238
0.00103577
-0.000963903
-0.0011115
0.0011487
-0.00455565
-0.00137204
-0.000835094
-0.00259692
-0.00252389
-0.0020455
8.66333e-06
0.000195636
-0.00228201
6.28e-05
-0.000808114
-0.00251937
0.00299897
0.00162776
4.51267e-05
0.000503229
-0.00130177
-0.00357043
0.00215258
0.0031068
-0.000401967
0.00221511
-0.00221854
-0.00247907
-0.00393926
0.000337985
-0.00369903
0.000876256
-0.00227826
0.00101682
-0.00311911
0.00149066
0.000669118
0.000598188
0.0007509
-0.00110806
0.000228737
0.00376769
-0.00241408
0.00449371
-0.000910655
0.000126231
-0.00170515
0.000853829
-0.00226692
0.000671826
-0.00469728
0.00243754
0.00427138
-0.00119677
0.000286665
0.00638195
-0.000537452
0.00241929
-0.00268304
0.00178879
0.000472584
0.000713452
0.00261919
-0.00193923
0.000322185
-0.00172045
-0.00260394
0.00285101
-0.0010382
0.000906193
0.00128954
0.00292228
0.00296264
0.00154135
-0.00266355
0.00191414
0.00176684
-0.00213918
0.00140794
0.0073525
-0.00499591
-0.00125846
-0.00138157
0.000180189
2.45744e-05
0.000802839
0.000981282
-0.00304738
0.000236463
0.00314074
0.00629983
-0.00213206
0.00173711
0.000439091
0.00337989
-0.00206415
-0.0032038
0.000684187
8.37123e-05
0.000412753
-0.00262046
-0.000500711
0.000221371
-0.00249388
0.000311412
0.00222247
-0.0024823
0.000344875
0.00364811
0.00307554
0.00119798
-0.00305622
-0.00499588
0.00071349
-0.00537472
-0.00178094
0.000342582
0.00505583
-0.000337625
-0.00181459
0.00430468
-0.00189543
-0.000888421
-0.00135928
0.00159973
-0.000280315
-0.00100852
0.000554465
-0.0043049
-0.000880776
-0.00173021
0.00142454
-0.00800028
0.00300082
0.000776758
-0.0024772
-0.000828533
0.00360542
0.00359665
0.000947327
0.00410777
0.00207679
0.000252511
0.00140597
0.00310812
0.00330498
-0.00462441
-0.000150628
-0.00113587
-0.00153904
0.00135945
0.00205946
0.000833392
-0.000126276
-0.000924474
9.63878e-05
-0.00111188
0.00113605
0.000557839
-0.00342696
-0.000353148
0.00378068
0.00127203
5.34053e-05
5.27881e-05
0.00498202
0.000489163
-0.00227077
0.00162575
-0.00382063
0.001309
-0.000592238
-0.00152586
0.000757409
0.00144283
0.00607258
0.000267965
-0.00223652
-0.000189398
0.00493046
-0.00231476
0.00803974
-6.20457e-05
0.000521152
-0.000356015
3.58386e-05
-0.000283339
-0.000627589
0.000309121
-5.87041e-05
0.000165287
-0.00329475
0.000175308
-0.000744568
0.00223488
0.00163653
-0.00288411
-0.00142048
-0.000607672
-0.00380325
-0.00106049
-0.00219138
0.00576217
0.0011524
0.00347117
-0.00208873
-0.00221038
-0.00436189
-0.00419459
0.00147815
0.00111562
0.00379492
0.00234897
0.000898704
0.00159058
-0.001923
-9.68728e-05
0.000785364
-0.00489304
0.00163976
-0.000922085
-0.00697076
-0.00693691
-0.00563909
0.00119318
0.00132816
0.000431907
-0.0002825
0.00166791
-0.00560458
-0.00202986
-0.000544511
-0.00226481
0.000943973
0.00259725
0.000486719
-0.00134947
-0.00101962
0.00221526
-0.000315092
-0.00128344
-0.00261143
0.000890978
0.00341508
0.000250228
-0.00658501
0.00136405
-0.00102569
0.000575135
-0.000117295
0.00097369
0.00338341
9.91098e-05
-0.000881772
0.00066834
-0.000843487
-0.00297636
-0.000426899
-0.000118119
0.00105567
-0.00021444
-0.000690599
0.001583
0.00162744
0.00152761
-0.00107831
0.00576254
0.00185491
-0.00135024
0.000249161
0.00274755
-4.78682e-05
-0.000237473
0.000750839
-0.0022862
0.00186418
0.00681146
-0.000624593
0.0015061
0.00229808
0.00373094
0.000387084
-0.00379792
-0.00111869
-0.000917487
-0.000496276
0.0102729
0.00370859
0.0026427
-0.000288894
-0.00330784
-0.00172053
0.000319196
0.00291257
0.00211574
0.00734947
-0.000176224
-0.000918238
-0.00278154
-0.00331147
0.00363284
-0.000676808
-0.00253953
0.00131852
-0.00114721
-4.43515e-05
0.00210247
-0.00114462
0.00168507
0.00453906
-0.00191177
-0.000903978
0.000492315
0.00509372
0.00152159
0.00456447
0.000113453
-0.00125896
-0.00262291
0.00285643
0.00622693
0.00688786
0.00369168
-0.00128972
0.000302126
-0.00293203
0.00186116
0.00154426
0.00354723
-0.0010067
-0.00555237
-5.37589e-05
0.0016659
-0.00178076
-0.0010232
0.0046564
-0.000994498
0.000845508
0.000679753
-0.00416135
0.00144643
-0.00558546
-1.39177e-05
0.000982521
-0.00108769
0.000931548
0.00330279
-0.00123521
0.002843
-0.0028903
-0.0073394
-0.00127003
-0.000993959
8.93354e-05
0.0054182
0.000387789
0.00471163
0.00146108
0.000240263
-0.00163184
0.00166872
-0.00309705
0.000925318
0.00785611
-0.00222664
0.00497694
-0.00383511
-0.001116
0.000479712
-0.00149512
-0.00300374
0.00393348
0.0009956
0.00241018
-0.000233688
0.000421437
-0.0012169
-0.00164777
0.00149833
-0.00040402
0.00146452
-0.000282891
0.00255495
0.000548459
0.00051269
0.0028673
0.00655324
0.000491391
-3.6172e-05
0.00304085
0.00288561
0.00055037
-0.00130839
-0.00143081
0.00571461
0.000182683
-0.0041549
-0.00287181
-0.00277497
-0.000556768
0.00156464
-0.000357319
-0.00305832
0.00419748
-0.000636599
0.00217766
-0.00248987
-0.00122419
-0.00762661
0.00159568
-1.40518e-05
0.00142442
-0.00106286
-0.000374091
0.0001095
0.000339073
-0.000393762
-0.000650279
8.52232e-05
-0.00107128
0.00105091
0.00264818
-0.00400501
0.00218078
-0.000784708
-0.00520765
-0.00220155
-0.000124491
-0.000248895
0.00126757
-0.0030586
0.000631619
-0.000102896
0.000651451
-0.00269548
-0.00142059
0.000453813
8.48188e-05
-0.00199741
-0.00551594
0.000643625
-7.82556e-05
0.0022561
0.00351133
0.000290884
0.000518271
-0.00304248
-0.000172109
0.00141502
0.000861593
-9.82492e-05
-0.00179569
-0.00016003
0.00215093
0.00301453
-0.00110584
-0.00142169
0.00533557
0.00181179
0.000636561
0.00104552
0.00242973
-0.0013298
0.0015076
0.000468782
0.00270215
0.000335261
0.00662874
0.00125163
-0.0011132
0.000995053
-0.00100709
0.000331719
-0.0012261
-0.000545863
-0.000469236
0.000482971
0.00185853
-1.8282e-05
0.006037
-0.000179463
2.58156e-05
3.39687e-05
-0.00125591
0.0015891
-3.89711e-05
0.000865812
0.00154039
-0.000851099
0.00243679
0.00122159
0.00182064
-0.000261704
-0.000166564
0.00102544
0.00349747
0.00136746
-0.00286995
0.00120284
-0.00315777
-0.00036176
-0.00240668
-0.000268904
0.00162328
0.000564723
-0.000301887
0.00284864
0.000836203
-0.00112579
0.00206644
0.00416062
-0.00171227
0.00120098
0.00272929
0.00134286
0.000632677
0.000448438
0.000988294
0.0022516
0.000223784
0.00414031
0.00222722
0.000271465
0.00299939
-0.00181228
0.00224045
-0.00336054
0.000398898
0.00185653
-0.00269829
-9.15415e-05
0.00156403
0.000508181
0.00531631
0.000207469
0.000494613
0.0017166
0.00246274
-0.00310432
-0.000360744
0.00188438
-0.0020535
0.00242431
0.00564469
0.001758
0.00127446
-0.00587585
0.00265465
-0.000829305
0.00642152
-0.00346389
-0.00269723
0.000716222
-0.00119533
-0.00182794
0.00273064
0.000210494
-0.00287729
-0.00603954
-0.00122173
0.00191858
-0.00029205
-0.00175825
0.00195624
-0.00475233
0.000712834
0.00320847
-0.00342941
0.000323644
-5.6744e-05
-0.000331589
0.00170793
0.0025933
0.00189074
0.0012475
-0.000203148
-0.00237144
-0.0039619
-0.00203575
-0.00512591
0.00127678
0.00041972
-0.000327712
0.000154487
-0.00168849
0.000206802
0.00107451
-0.00234307
0.00247776
-0.00175223
0.00153097
0.000594446
0.00160541
0.00167851
0.0013299
0.000538878
0.000518897
-0.00222668
0.00408703
0.00165394
0.00237716
-0.000367588
-0.000217565
-0.000688869
0.00279525
-0.000450822
-0.00105749
0.00129506
-0.000779045
-0.00107791
-0.00254432
0.00610526
-0.00053592
0.000853787
-0.00105564
-0.000426574
-0.00348901
0.00264571
0.00133814
-0.000710654
0.00259422
-0.0023289
-0.000589815
0.00548022
-0.00230031
0.000541306
0.00225639
-0.00225182
0.000329572
-0.00379541
0.00122818
0.000180136
0.000300419
-0.00158622
-0.000943017
0.0017518
0.000887778
-0.000188842
-0.0014625
0.00115899
-0.00196551
-0.00253109
0.00212696
-0.00225615
0.000935492
-0.000707863
-0.00401928
-0.00186527
-0.00148578
0.000784987
0.00243063
0.00111828
0.00173637
0.000328808
-0.00113535
-1.42209e-06
0.00114385
-0.00189568
0.00277847
-0.000157161
0.000345231
0.00242566
0.00290661
0.00197269
-3.63952e-05
-0.000656597
0.00162424
-0.000298857
-0.0034255
-0.00152752
-0.00181447
0.00187716
0.000296969
0.00171006
-0.00216285
0.00250008
0.00270795
-0.00120139
0.00236919
0.000906866
0.00120866
-0.0001116
0.00100973
0.00244234
-0.00629128
0.000800647
-0.000731799
0.000402421
-0.00367625
0.00278759
-0.00022617
0.00281207
0.000511056
-0.00115653
-0.00170521
0.000820432
-0.00019792
0.000607381
0.00220051
0.0028011
0.000183408
0.00181024
0.00120841
0.00202423
0.00195334
0.000937475
0.000836163
0.000908463
0.00167873
-0.00127624
-0.000235217
0.00214935
0.00131856
0.000784992
-0.00123737
0.00389094
-0.000714772
-0.00197091
-0.000768768
0.00146914
0.000731317
-3.09801e-05
0.000451448
0.00394173
-0.000253485
0.000609065
-0.00103928
-0.0027829
-0.000549611
0.00252887
0.00135772
-0.000198816
-0.00154066
1.05529e-05
-0.000424722
-0.000263424
0.00198429
-0.000400164
0.00179299
0.00330821
0.00160351
0.00107127
-0.000303392
0.000243532
-0.000570777
0.000291583
-0.000123677
-0.00165465
-1.46453e-05
-0.00227473
-0.00206084
-0.00146454
-0.000558177
-5.17642e-05
0.00025137
-0.00285505
-0.000181157
0.000344022
0.00288099
3.88424e-05
9.08641e-05
-0.00117123
0.000290917
0.00367993
0.00293816
-0.000615588
-0.00127959
-0.00289142
-0.000325502
-0.00218398
0.00118019
0.000530153
-0.00262251
-0.00148076
0.000351032
-0.000469622
-0.00763847
-0.00110804
0.000361082
0.00136738
0.000125074
0.00315422
0.00355174
-0.00288076
-0.00158252
-0.00408591
-0.00109345
0.00196046
0.00128184
7.18115e-05
0.00144856
6.50167e-05
0.00292132
0.00216863
0.00333324
2.79072e-05
-0.000429133
0.00477729
-0.002067
0.000388183
0.00082188
-0.000618027
0.00256898
-0.000811582
-0.00337651
0.00152739
-0.00059025
-0.00357376
0.000738874
0.00126324
-0.00182194
-0.00113064
0.00136572
-0.00320954
0.000301598
-0.00166861
0.00640963
-0.00272355
-0.000631495
-0.000629459
0.000327531
0.00346193
-0.00110113
0.000766027
-0.00136158
-0.000467855
0.00166992
-0.00049606
3.8045e-05
-0.000103497
0.00182759
-0.00358701
0.00192886
0.00150585
-0.00175517
0.00191222
0.00101981
0.00104439
0.00231888
0.000137829
0.000307883
-0.00132243
0.000981692
0.000402381
-0.00297649
0.00161103
0.000628812
0.00277314
0.00114864
-0.00150029
0.00139525
0.00415439
-0.000339805
0.000815217
0.000128985
0.00370254
-0.00109147
0.000851032
0.00516871
0.00200098
0.00166117
-0.000591931
0.000327309
-0.00174864
0.000279739
-0.000304885
0.00057193
0.000322624
-4.54305e-05
-0.000632305
0.00616016
0.000154437
0.00216401
0.00185668
-0.00192449
-0.00143258
-0.0023725
0.00014593
0.00345742
0.00385342
-0.000799061
0.00229475
0.00027363
-0.000159905
-0.00132815
0.000280495
0.00098972
-0.0010453
7.43633e-05
-0.00250959
0.0014695
0.00142587
-0.00357727
-0.0016961
0.00153453
0.000134161
-0.000864663
0.00178044
-0.000804973
0.000376686
0.00217752
0.00115958
-0.00361802
0.00156904
-0.0010961
-0.00171559
-0.00248334
9.60607e-05
0.00034939
-0.0052154
-0.00353961
0.00335164
-0.00119571
0.00102771
-0.000244307
-0.00183804
-0.00034062
0.000248834
0.00125397
0.00143647
-0.00289983
0.00197241
-0.00140684
-0.0018664
-0.000904319
0.000976628
0.00229304
-0.000890151
0.00248222
0.00152055
0.00214217
0.00100386
0.000351088
-0.000297133
-0.00135205
0.000666101
0.00101183
0.00115087
0.00227963
-0.00359442
9.52181e-06
0.00111256
-0.00377135
-0.00257538
-0.00121317
-0.001309
0.0011945
-0.00213299
0.00119008
-0.00058804
0.000228045
0.00227461
0.00176898
-0.00336359
0.0010696
-0.00013689
-0.000172333
0.000258885
0.00260911
-0.00222168
0.00576537
-0.00157842
-0.00488021
-0.00270815
0.00400202
-0.00416775
0.0013138
0.00371904
0.00144195
0.00125931
0.00105643
0.00207758
0.000758769
0.00531812
0.00117107
-0.00117021
-0.00132183
-0.000817194
0.00118328
-0.00154612
-0.000608532
-0.00235154
-0.00127669
-0.00122319
0.00191356
-0.00113498
-0.000993297
0.000228448
0.00315896
0.000901566
0.00249692
-0.000466032
-0.00194576
-0.000423599
-0.000910062
0.00144794
-0.00248427
0.000703846
0.00278408
-3.44761e-05
0.000656485
0.00316978
-0.000592041
-0.0028123
0.00108364
0.00103997
-0.000871419
0.00171978
0.000754221
-0.00028287
0.000505519
-0.000667359
0.000898135
-0.00029426
-2.662e-05
-0.00339081
0.000281018
0.000896462
-0.00111735
0.000881499
-0.00277802
-0.000689684
-0.000746655
0.000640214
0.00117923
-4.51616e-05
0.00409858
0.000362981
0.000194115
-0.00473603
-0.0007119
0.00434005
-0.00150172
-0.00203403
-0.00158987
0.0025654
-0.0011779
0.0002799
-0.00010085
0.00364134
0.0030107
-0.00379094
-0.000552131
-0.00180751
-0.000652382
-0.000969757
8.38283e-05
0.00217225
-0.00350124
-0.000417163
0.000518906
-0.000639002
-0.00237178
-0.000873758
0.00257489
-0.00120366
-0.00144832
0.00290914
-0.000216867
0.00123372
0.000530005
-0.000775414
0.00133797
-0.000908552
-3.67585e-05
0.00035843
0.000421131
0.00107125
-0.00157705
-0.000823719
0.00269754
-0.00360299
0.00176263
0.0013639
0.00153228
0.00411141
0.00257892
0.0008949
-0.000148297
0.00132628
0.000815787
0.00142893
0.000238842
0.000180559
-0.00143909
0.00352651
0.00156075
0.00540177
0.00268817
-0.00300019
-0.00131933
0.000895805
-0.000539464
0.00158735
-0.00123517
0.000373444
0.000274301
0.00107042
-0.00211336
0.000737961
-5.40245e-05
0.000230772
-0.00253498
-0.00102774
0.000464535
0.000175806
-0.000124392
0.00237239
-0.00474559
-0.000557304
0.00169048
0.00151683
-0.00127842
-0.00156665
-0.00301913
-0.00231972
0.000126553
-0.0013573
-0.00240837
-0.000980945
0.00232636
0.00375812
0.000278912
0.00127191
-0.00289479
0.00350446
0.000528283
0.00411487
-0.00109002
-0.000141716
0.0014396
0.00303736
0.00159667
0.00132126
-0.00169885
0.000732414
0.00186968
-0.000688434
0.000937972
0.0040116
-0.00211239
-0.00125521
-5.91243e-05
0.00194564
0.00306009
-0.00247261
0.000481843
-0.00178838
0.00147067
0.0010101
0.00289323
7.97952e-05
0.00246089
-0.00139831
-0.00393287
0.000479561
-0.00240512
-0.00201621
-0.00203464
0.000978956
0.0050274
0.00131564
0.00376492
0.00248667
-0.00103191
-0.00233551
-0.00291424
-0.0023771
2.32908e-05
-0.000364633
0.00100425
-0.00246633
-0.00197932
-0.00197434
0.00184743
0.000326656
-0.000899508
-0.0017259
-7.47929e-05
-0.000934867
0.000437122
0.00293275
-0.0026315
-0.00591192
0.000339287
-0.00343684
0.00111777
-0.00327285
-0.00163686
0.00060584
0.0037861
0.00421688
-0.00334027
-0.000353373
-0.00285388
0.0017288
-0.00233144
0.00229138
0.00254564
-0.000293768
0.00141487
0.000638861
0.00188484
-0.000503449
-0.000815357
0.0017046
-0.000755783
0.000825653
-0.00076765
0.00163165
-0.0049036
0.00170384
-0.00110466
0.00168324
-6.45216e-05
0.0017886
-0.00138975
0.000873438
-0.00195789
0.00159936
0.000701704
0.00347194
-0.000856488
-0.00407269
0.000844847
-0.000851111
0.00139776
-0.00318876
0.000357763
-0.00250119
0.0029558
0.000441528
0.00119039
4.12579e-05
-0.00207567
0.00270788
0.00436717
0.000789712
-0.00499205
0.000518893
0.000778959
-0.000711189
0.00272295
-0.000415744
0.00226672
0.000623752
-0.000979208
8.87746e-06
-0.00206718
-0.000881359
0.00044952
0.000166334
0.00148288
0.00037972
-0.00495464
-0.000499911
0.000155678
0.00130859
0.000704997
0.00038458
0.00140243
0.00386639
7.79119e-06
0.000614088
-0.000626495
0.000558244
0.00512552
0.000593124
0.00130997
-0.00033615
0.000110177
0.000251536
-0.00397621
0.00265369
0.00163167
0.00527073
-0.000851574
0.00153192
0.00040874
0.000487307
-0.00548188
-0.00201422
0.00216755
0.00416077
0.00123342
0.00178718
0.00403744
-0.00234601
0.00235459
0.000782726
-0.00139042
0.000291956
0.0010823
0.000381108
0.00169003
-0.00078623
0.00314043
-0.00148857
-0.00058646
-4.00587e-05
-0.00301551
0.00175404
0.00617821
-2.22295e-05
0.000968603
-0.00144627
-0.000415767
0.00231767
-0.000245646
0.000797876
-0.00465073
-0.00334541
0.00105444
0.000154646
-0.00136176
0.000548931
-0.00443649
-0.001544
-0.00218675
0.00181321
-0.00487301
0.000378037
6.40427e-05
4.03482e-05
-0.00146183
-0.000583991
-0.000812075
0.000347572
0.00407506
0.000816741
-0.00143718
-0.00282742
-0.000489139
-0.000884927
0.00400522
0.00204747
-0.000751541
0.000678641
-0.00111717
0.00156951
-0.00055714
-0.0036525
-0.00299508
0.000512209
-0.00100731
0.000688914
0.00178026
-0.00325343
-0.00233301
0.000153261
0.00122029
-0.00227248
-0.00270136
-0.00179139
-0.00473467
0.000349624
-0.00197412
0.00157768
0.000293273
0.000401439
0.00279613
-0.000365379
0.000129286
0.00182091
-0.00218857
-0.00169521
0.00319327
-0.000779642
0.000980319
-0.00025544
-0.000894255
-0.00346371
-0.000663193
0.00310951
-0.000300122
-0.000817529
0.000997138
0.00189036
0.00287321
-0.00187326
0.00163992
0.000136981
0.000581129
-0.000841683
-0.0041654
-0.00323903
0.000416822
-0.000399679
0.0024753
-0.00028919
-0.000677637
0.000422506
-0.00141009
0.000968035
-0.0029405
-0.0012297
5.49539e-05
-0.00169662
-0.000371736
0.000351208
-0.00557764
-0.000990047
-0.000840143
0.000362484
-0.000511634
0.00369463
-0.000788294
0.000224533
-0.00277674
-0.000249083
-0.00274368
0.00217238
-0.0056198
-0.00342504
0.000439337
0.00323196
-0.000405804
0.00152806
-0.00177032
-0.00622796
0.00390722
0.000783308
0.00183558
-0.00831763
0.000122372
0.00108558
-0.00212177
-0.00188287
2.90454e-05
-0.00256932
-0.000525687
-0.00297909
0.000564151
0.000967034
0.00176658
0.00163502
-0.00246893
0.000852678
0.000989674
-0.00220044
0.00295327
0.00303726
0.000266961
-0.000429557
0.000707354
-0.000604494
0.0025527
-0.000429852
0.0032513
0.000596632
-0.00177973
0.00129185
0.00208473
-0.000773081
0.000351597
0.00110834
0.00253418
-0.00398672
-4.32659e-05
-0.000985415
-0.00234622
-0.000873173
-0.00154731
0.00179028
0.00106526
0.00295394
-0.00336309
-0.000346468
-0.00094823
-2.6433e-05
-0.00194552
-0.00329924
-0.00124686
0.00303324
-0.00027107
0.00130078
-0.00240826
-0.00172289
-0.00274583
-0.000913723
0.00077877
0.00170797
0.000687745
0.00315389
-0.000490806
-0.00061362
0.000891319
0.00498963
-0.000659084
-5.6144e-05
0.00350743
0.000243762
0.00142552
0.000980015
0.00209635
-0.00143469
-0.00367855
0.000609035
0.000805895
0.00122381
0.00145485
-0.000484024
0.00103665
-0.00550547
0.00360017
0.000195357
-0.00116826
-0.000867701
-0.000864771
-0.00269802
-0.00264409
-0.00253663
0.000433124
0.00593636
-0.00145513
0.000518691
-0.00196601
-0.000297156
0.00216332
-0.00391117
0.0016385
0.00151988
-0.000964974
1.01332e-06
0.00191012
-6.46997e-05
0.0034151
-0.000402897
0.000457853
0.00389196
0.000205224
-0.00142501
-0.000143543
0.00115926
0.00237497
-0.00398621
-0.00248906
0.00156896
-0.00352204
-0.000863456
-0.00321935
-0.000769803
-0.000472324
0.000760139
-0.00137493
-0.00225149
-0.00100131
-0.000553742
0.000346259
0.000123467
0.000927849
0.00119107
0.00309801
0.0011303
0.00154897
-0.00483061
0.00366395
0.0018515
0.00184452
-0.001281
-0.000229129
0.0023416
-0.00305159
0.0001153
0.00319389
-0.000136738
-0.000111937
0.000132745
0.00341222
0.000501123
-0.000450059
0.00300468
0.00320655
0.00450774
0.000199386
0.00122783
0.00448186
-0.00269815
0.000915216
0.000748337
-8.34731e-05
9.93067e-05
0.00245428
0.00127948
0.000398354
-0.00170038
-0.000896542
0.000228624
0.00147808
0.00181347
0.000327861
0.0024746
0.00351273
-0.000144579
-0.00191464
-0.00253576
0.00179151
0.00189565
-0.00082583
0.000584458
0.000814329
0.00262336
0.00268862
0.0017557
-0.000163435
0.00494393
0.000215539
0.00141629
0.00282502
-0.00163331
-0.00116991
-0.00458243
-0.002342
-0.00277286
-0.000530506
0.00166906
0.00135752
0.00265514
0.00186116
-0.00101019
0.00264675
-0.00293939
-0.00045682
-0.00251793
0.000610997
0.00146741
-0.00159195
0.00111599
0.00112263
0.00115537
0.000533591
-0.000802085
-0.00132619
-0.000592188
0.00337507
-0.00209823
-0.00122676
0.00428192
0.00175979
0.000448171
0.00105191
0.00108228
0.0033126
-0.00128555
-0.00298313
0.00243094
0.00261821
-0.000876886
-0.00207971
-0.00220378
0.00317838
-0.000566179
-0.000232419
0.00764023
-0.000830233
0.00363502
0.000415527
0.000956652
-0.000166704
0.00192188
-0.000113138
-0.0022014
-0.000454305
-0.00119847
-0.00346111
-0.00449567
0.0019404
-0.00140855
-0.000454427
6.10546e-05
-0.000358599
0.00209393
0.00220222
-0.00237864
-0.00161055
0.00181617
0.00188611
-0.00302284
0.000896556
0.00353471
-0.00249407
0.00433372
0.00213246
-7.91154e-05
0.00239212
0.000346416
0.00155064
-0.00219645
-0.00211595
-0.00386064
0.0047056
-0.000743163
-0.000131629
-0.00184831
-0.00099867
-0.00027986
-0.000943834
-0.000821996
-0.000557782
0.000571427
0.000122108
0.00374557
-0.00164639
0.0053775
0.00285608
0.000101071
0.00266405
-0.00344994
0.00134061
-0.000235538
-1.97435e-05
-0.00120584
-0.00183928
-0.00034151
-0.000784137
0.000414476
9.04957e-05
0.000728716
-0.00550993
0.00404933
0.000804498
-0.000866742
0.00116281
0.00171701
0.00113483
-0.00144406
0.000435562
0.00225142
-0.000678418
-0.00339296
-0.00276663
0.00537732
0.000555139
-0.000805843
-0.00200274
0.000661848
0.00267869
0.00221222
-0.0019034
0.000397567
-0.000622715
0.000240084
-0.00212732
-0.000140468
-0.000133803
6.02724e-05
0.0010928
0.00261578
0.00108297
0.00203697
-0.00265416
-0.000573954
-0.00018166
0.00259104
-0.00138024
0.0023091
0.000840793
-0.00126981
-0.000986438
0.000575621
-0.000585689
-0.00075913
0.00114118
0.000186385
0.0038921
-0.00318642
-0.00122056
0.00129481
-0.00250418
-0.00184749
0.00243656
0.000443825
-0.00424236
0.00179549
-0.00228978
0.00459358
-0.000202336
-0.00420856
0.00219696
-0.00390887
-0.00434196
0.000636462
-0.000336865
0.000166097
0.00223186
-0.000517663
-0.00226334
0.00341691
0.00147466
0.00190013
-0.000254595
-0.00462245
-0.000324585
-0.000703804
0.000205143
-0.000194722
0.00138377
-0.0020204
-0.00181839
0.000251755
0.000108164
0.00597495
-0.000923852
0.00227417
0.00185975
-0.000336174
0.00126644
0.00330965
-0.000644319
0.000920443
-0.00220681
0.00274737
-0.00192154
-0.00334739
0.00145725
0.000470444
0.00359961
-0.000230161
0.00200556
-0.0021655
0.00127784
-0.000483986
0.00181098
0.000831367
0.00095719
-0.00248006
0.00926863
-0.00482368
0.00195357
0.000677234
0.00172357
0.000873787
0.00381607
0.00113526
0.000512608
-0.00148383
0.000220728
0.00124443
0.00339896
-0.00328501
-8.31206e-05
0.000357723
0.000798421
0.00230804
0.00218373
-0.00109284
-0.00285301
0.0036763
0.00196626
-0.0047015
-0.00366591
0.000144123
0.000587093
0.000142758
-0.00067871
0.00334573
-0.00395421
-0.00326434
0.00124668
-0.000766885
-0.000992307
0.000288409
-0.00101129
-0.00022752
0.00520525
-0.00156673
0.0014747
0.00228313
-0.00130647
0.00113179
0.000923265
0.00215361
-0.00224491
-0.00115979
-0.000194908
0.00217849
-0.00308293
0.00251573
0.00416919
-0.00103547
-0.00106701
-0.000429071
0.00245957
0.00115905
-4.41324e-05
-0.000798177
0.00262054
0.00176364
-0.00134074
-0.000207358
0.00491361
0.000883054
-0.0020624
-0.00137618
0.00355051
0.000154469
-0.000887837
0.00047411
0.000937522
-5.00639e-05
0.000665391
7.87412e-05
0.000964194
-0.00185894
-0.000879658
0.000442252
0.0011538
-0.000151765
0.00348425
-0.000386348
-0.00166544
-0.00241961
-0.000865304
0.00195064
-0.00152683
0.000896063
0.00134963
0.000762217
0.000160229
-0.000700956
0.00270188
0.00271006
0.000885469
-0.00042662
0.00186027
0.000967361
0.000441894
-0.0010988
-0.000448752
0.00295699
-0.00232729
0.00278155
-0.00155073
0.00132441
0.000562249
-0.000852137
0.0013153
0.00151424
-0.00100145
-0.00203663
-0.00149346
-0.00130896
0.00318037
-0.00119875
-0.00146634
0.00112435
-0.00170713
-5.98914e-06
0.00203111
0.00111923
0.00211709
0.0023677
0.00151645
-0.000160516
-0.00251562
-0.00254016
-0.00269596
-0.00106301
-0.00111194
-0.000201573
-0.00111165
-0.000243127
-0.00240555
0.00206874
-0.00212956
0.000838406
-0.00304867
0.00263892
-0.000208698
-0.00130997
-0.000174626
0.00728794
-0.0011043
-0.00333373
-0.0013811
0.000473605
0.00100935
-0.000890244
-0.000996319
-0.00108598
0.0019994
-0.00274482
-0.00236194
-0.00518763
0.00259657
-0.00499849
-0.00181686
-0.00779771
-0.00249927
-0.0052553
0.00037166
-0.000908678
0.00154054
0.000851127
0.000551252
0.00222851
-0.00464111
0.00188018
2.97418e-05
0.00197175
0.00232264
-0.000508061
-0.00169143
0.000714911
-0.00013589
-0.0036456
-0.00180705
-0.00220083
0.00407532
-0.00246955
0.00161201
0.000178089
-0.00273951
-0.00360377
-0.00449158
0.00369842
0.00112715
-0.000483696
-0.000545861
0.0016445
-0.0013562
0.000361073
7.824e-05
-0.00122951
0.000788145
0.00138209
-0.000980689
-0.00167749
-0.00348667
-0.00257967
-0.000183873
0.000155735
0.00239332
0.000863687
0.00210022
-0.000660223
0.00297407
0.00304941
-0.000228691
0.00163904
0.000298585
-0.00101967
-0.00288855
0.0006723
0.00126522
0.000657652
0.00209965
-0.00055878
0.00562956
-0.00117501
-0.0036152
-0.000464822
-0.00375013
-0.000474152
-0.000322821
-0.000276684
-7.72329e-05
0.000445304
-0.00138148
0.000691716
0.00192582
0.00134968
-0.00107304
-0.00613054
0.000946999
-0.000781357
0.0011721
-0.00124868
5.84887e-05
-0.0012893
-0.000366142
-0.000108786
-0.00049017
0.000842398
0.000440467
0.0033352
0.00320846
0.00249894
-0.000326824
0.0025658
-0.000827121
-0.00381113
0.000979227
-0.0016528
0.00111871
0.000257173
0.000616618
0.000187346
-0.000177812
0.000192873
-0.00163383
-0.00379371
-7.79336e-05
-0.0012523
-0.000525941
-9.66755e-06
0.000657125
0.000386007
0.00338348
0.00279292
-0.000500424
0.00550913
0.000203109
0.000872163
0.00133484
-0.00106156
0.00122499
0.00242028
-0.00181179
0.00836888
0.00436879
0.000406751
0.000654126
0.000817175
-0.00314369
-0.00146037
-0.000435479
0.00270239
-0.00223308
-0.00117397
0.00131706
0.00336755
0.000995681
-0.00104151
-0.00312458
0.00143536
0.00328594
0.000354331
0.00319057
0.0046769
-0.00474574
-0.00152051
0.00107874
-6.46812e-05
-0.00123439
-0.000917322
-0.00241013
0.000823974
0.0014559
0.00120883
-0.000602478
0.0021278
-0.000991263
-0.00014037
0.00450629
-0.00045736
-0.000461038
-0.0022125
-0.0017124
-0.00467656
0.00199167
0.000840601
0.00299997
-0.0002977
-0.00611606
0.00109697
-0.00127454
0.00130528
0.000290012
0.000928985
-0.000250974
0.0010375
0.000350332
-0.00110294
-0.00480166
0.00146823
-0.00438395
0.00110999
0.000606325
0.00685063
0.00160961
0.003926
-0.00528166
0.000509134
0.000740971
0.00150336
0.00134777
0.000454261
4.34017e-05
3.82103e-05
0.00406217
0.00128823
5.98438e-05
-0.00152191
-0.00022296
-0.000502435
-9.32596e-05
-0.00311323
-0.0006149
0.00322095
-0.00559994
0.000191843
0.000978547
0.000983638
-0.000704353
-0.000717689
0.000560681
-0.00315519
-0.000954141
-0.00121349
0.00150477
0.00112208
0.00449174
-0.00138543
-0.000368537
0.000309763
0.000993272
0.000613892
0.000706585
0.00160178
0.000990297
0.000980787
-0.00190841
-0.00193041
-0.00205359
0.00178783
-0.000796626
0.000457929
-0.000366337
-0.00213845
-0.000878266
-0.00058586
-0.000475751
0.00222509
0.000288992
0.000512382
0.000766768
0.000261897
-0.00458022
0.000517055
-0.00213348
-0.00182488
0.000899241
0.00077104
-0.00105662
0.00145052
0.00164182
0.00484558
0.00206077
0.000268786
-0.00165321
-0.000827148
0.00248327
-0.00244234
-0.000348039
0.00202688
-0.0011078
-0.000170923
0.000367476
0.00035367
0.0019569
-0.00222462
-0.000828671
-0.00326455
0.00093576
-0.000811846
-0.000767219
0.00127813
-0.000907727
-6.17601e-05
0.00104631
6.94023e-05
-1.12784e-05
-0.00219713
-0.00341082
0.000311789
0.00169817
0.00179346
0.00180208
7.29107e-05
0.000943659
0.00141685
-0.00303494
-0.00246049
0.000387681
-0.00199633
0.00298135
0.00107203
0.00100069
0.000993922
0.000727611
0.00185232
0.00274409
0.00237632
-0.00043003
-0.00417565
-0.0040731
0.00346536
-0.000685959
0.00119067
-0.00201372
-0.00488404
-0.000943141
0.00305358
0.00128222
0.000437427
0.000944766
-0.0017149
-0.00145088
0.0028794
0.00219562
0.00309417
0.0015419
-0.000236984
-0.00338254
-0.000587791
-2.84763e-05
-0.00205616
-0.000377733
0.00601494
-0.000228635
0.000397521
0.00377599
-0.00161671
0.00102341
-0.000771058
-0.00251587
0.00167357
0.000226329
-0.00281997
0.00375156
0.00422203
0.00160293
0.00190237
0.000404744
-0.0002912
-0.00131645
-0.000313663
0.00311591
0.00051247
0.000179581
0.00429634
-0.00696538
-0.000692019
0.00125874
0.00150937
-0.00533808
-0.000547124
-0.00116698
-0.00517097
0.00363949
0.000606788
-0.000791967
-0.000292654
-0.000772391
-0.00234165
-0.0059349
-0.000849825
0.00212835
-0.000443784
0.000838078
0.00204647
0.00128325
0.000909785
0.00174569
0.000137022
-0.000835314
-0.00268349
-0.00250284
-1.65668e-05
-0.00290721
-0.00033162
0.00112343
0.00223065
0.00100761
-3.92779e-05
-0.000220478
0.00208804
0.00136592
-0.00290529
0.00309259
-0.00129267
-0.00247909
-0.0020089
-0.00365639
0.000367209
0.00208816
0.00246345
0.000364584
-0.00310917
-0.000126951
-0.00299392
0.00310722
0.000433077
-0.000842215
-0.000336582
0.0016881
-0.00108237
-0.00332201
-0.000912257
0.00149063
-0.000642945
-0.00134707
0.00130822
0.00168746
-0.00236425
-0.00074122
0.000321303
-0.000865643
-0.00405108
-0.000462638
-0.00101569
-0.00713482
-0.000893979
0.00271889
0.000473414
0.000172197
-0.00405575
-0.00327966
-0.00842489
0.00090519
0.000838525
0.00225255
0.00119783
0.00152106
0.00130923
0.000730212
-0.00098264
-0.00651142
-0.00422401
0.00147638
1.24754e-05
0.00109421
0.00209873
0.00105883
0.00235897
-0.00206712
-0.00238226
-0.00190145
0.00170022
-0.000541111
-0.00282983
-0.00195544
-0.00324937
-0.000619896
-0.00410827
-0.00045865
0.00207096
0.000301366
0.00258984
-0.000917039
0.00191402
-0.00183971
0.0039451
-0.00103655
0.00261858
-0.0012212
-0.00138635
0.00138586
0.00106637
0.000456756
-0.000128769
-0.00262294
0.00277554
0.00211676
-0.00268229
-0.00232687
-0.00493551
0.000361532
0.00200294
0.000497196
0.000392157
0.00229825
0.00063404
0.00152849
-0.00111405
0.00443779
0.00433458
0.00162199
0.000295883
-0.00240516
-0.000819692
-0.0024322
0.00279517
-0.00104966
-0.000370466
0.00310088
0.000676233
-0.000442375
1.82624e-05
0.00566303
-0.000784858
-0.00283955
-0.00150591
0.00206989
0.00216378
0.0014749
-0.00175964
-0.000652343
0.000780463
-0.00158839
0.00142091
