-0.000467815
-3.89274e-06
-4.03178e-05
-2.05252e-05
0.00021972
-0.000181268
-0.000243447
-0.00111496
0.000112205
-7.84224e-05
-0.000247898
-0.000514243
0.000804192
-0.000558027
0.000391775
-0.000293739
0.000354295
0.000136777
0.000735805
0.000233971
-0.00060411
-0.000206938
-0.000237231
-0.00242059
5.89085e-05
0.000107329
-9.7797e-05
-0.000694219
0.000371156
0.00033757
-0.000198696
-0.000125639
2.05293e-05
0.00026573
-0.000231342
0.000394396
7.96523e-05
7.60568e-05
-2.23154e-05
-0.000719099
0.000232616
6.65519e-05
-0.000190957
-0.000271854
3.26844e-05
0.000304324
-5.34371e-05
-9.73815e-05
0.000542144
-0.00020686
-0.000168639
0.000382975
0.000425282
-4.0473e-05
0.000187474
0.000164945
-0.000421987
4.64922e-05
-0.000583483
0.000385319
-6.61352e-05
1.41246e-06
9.09013e-05
-0.00019003
-0.000135737
-3.87606e-05
0.000236103
-0.000295879
-0.000376053
-0.000242381
0.000115634
0.00147343
0.000194879
0.000161639
-0.000589138
0.000117258
9.77652e-05
-0.000252962
-1.95078e-05
-0.000457247
-0.000379939
0.000172886
1.51763e-05
0.000536571
0.000425746
-0.000215602
-0.000419095
-4.17951e-05
-0.000182824
-0.000133917
-1.02893e-05
6.48082e-05
-0.000350102
-1.39213e-05
0.000261308
-0.000723275
0.000830343
2.60236e-05
0.000646149
-3.24548e-05
3.16775e-05
0.000327954
0.000135879
0.000684842
-0.000400082
7.31205e-05
0.000759291
-0.000434443
-0.000161556
0.000212747
-0.000198061
-0.000385986
-0.000252604
0.000440053
-6.80977e-05
0.000677523
0.000461087
0.000371363
0.000405334
-0.00136879
0.000226661
0.000142581
-0.000404446
-0.000224964
-0.000148027
0.000741209
4.92803e-05
-8.05387e-05
6.18511e-05
0.000555768
-0.000173602
7.44917e-05
9.37485e-05
0.000261887
-8.12909e-05
-0.000307501
-0.000156272
0.000299631
0.000330367
-0.00058913
-6.10669e-05
0.000364817
0.000364588
3.02068e-05
9.53497e-05
2.53814e-05
0.00011463
-0.000886322
0.000101434
0.000288309
-0.000649466
-0.00111267
0.0003639
0.000135196
-0.000330435
0.00131883
-0.000415393
-0.000532546
0.000151541
-0.000813101
6.55562e-05
-0.000260102
-0.000340348
-9.22172e-05
0.000390485
2.15623e-05
0.000451679
-0.000753433
0.000536969
-0.000266878
-5.76423e-05
-0.000158322
-0.000786831
0.000291248
-0.000151614
-9.25558e-05
0.000156351
-0.000269482
-9.59086e-05
3.7388e-05
-0.00020769
0.000415287
0.000539462
0.000356448
-0.00011607
0.000318301
-9.0553e-05
0.000206882
-0.000462575
-4.3874e-05
2.02427e-05
0.000224384
-0.000620885
0.000274715
2.14315e-05
-0.000478432
-0.000436072
-0.000249265
0.000102024
0.000283238
-0.000138692
-1.46159e-05
-0.000387804
-8.01827e-05
-9.46888e-05
1.4668e-05
-0.000238214
0.000192168
0.000552873
0.000192237
-0.000321886
-2.456e-06
5.32148e-05
-0.000421446
7.31106e-06
0.000488667
0.000695843
-0.000204734
0.000237873
-0.000124068
3.51479e-05
-0.000221211
-0.000182061
0.000306632
-0.000126072
7.10586e-05
-4.40204e-05
5.58485e-06
7.11117e-06
9.00865e-05
0.000139277
0.00029531
-0.000108016
-0.000153448
3.33833e-05
6.32926e-05
-5.34202e-05
-0.000114291
-0.00031802
0.000368724
6.47656e-05
0.000416669
0.000210811
0.000290756
-0.000157876
0.000423611
-0.000295597
1.97709e-05
-0.000116974
-4.14064e-05
0.000131026
0.000170637
0.000364922
-0.000160493
-0.000529731
0.000264725
2.67512e-05
0.000198513
0.000353167
0.000241785
0.000278018
-3.18055e-05
-0.000225774
-0.000134332
-0.000130365
0.00050864
-0.00049363
-0.0003673
0.000889774
-0.000114066
7.75254e-05
-0.000113497
0.000244111
0.000120151
-0.00021805
0.00096808
0.000129286
0.000317611
7.07517e-05
-0.000279479
-0.00053604
-5.04354e-05
0.000379793
-0.000325959
6.99513e-05
0.000121774
0.000196215
-3.52488e-06
-6.5681e-05
0.00012007
0.000539952
-0.000409973
0.000712509
-0.000406474
0.000795866
-0.000209347
1.80688e-05
-0.000290563
-0.00039779
6.97038e-05
2.63189e-05
-0.00020703
-0.000965648
0.000628438
-0.000608984
0.000634941
2.61833e-05
-6.41819e-05
-0.000359028
-0.000995564
9.58351e-05
-5.83335e-05
-0.000154466
-9.8849e-05
0.00085238
0.000292442
-0.000202227
-0.000122196
-0.000221636
-0.000192475
0.000811718
0.000121125
0.000363969
-0.000312078
0.000289729
-4.42722e-05
0.000234833
-0.000467169
-2.94647e-05
0.00076702
-0.000411928
0.000183491
-0.000101208
-6.42893e-06
-0.000107834
0.00020311
0.000290683
-0.000172409
-5.61962e-05
-0.000434551
-0.000927016
-0.00121041
-0.000404965
0.000504531
-0.000211846
0.000155796
0.000545288
0.000239308
-0.000416207
-0.000257536
-0.000185196
4.89708e-05
3.47667e-06
-0.00020874
0.000153753
0.000108067
0.000141917
-2.22236e-05
6.29527e-05
-6.74047e-05
-0.00105686
-2.73442e-05
-0.000306275
-0.000138626
-0.00090035
-0.00020539
0.001967
0.00014432
0.000119713
6.28747e-05
-0.000458888
-0.000343322
0.000276372
-0.000513993
0.000512762
-6.56128e-05
-9.35528e-05
-0.000218729
-1.61236e-05
3.83092e-05
0.000800446
-0.000201117
3.84752e-05
-0.000249754
0.000454848
-0.000502752
-2.29848e-05
-2.09971e-05
8.66874e-05
-0.00104104
0.000297928
0.000951215
9.52641e-05
-0.000634259
-0.000294532
-0.00022474
-0.000114699
-0.000282307
0.000393256
0.000231369
0.000511416
-0.000177321
7.70898e-05
9.81504e-05
0.000102413
-0.000147885
0.00023213
0.000365076
0.000107681
0.000533339
0.000588647
-0.000241901
-0.000415412
-0.000137739
-0.000340201
0.000124091
0.000665761
9.59526e-05
7.02695e-05
0.000143751
0.000255306
0.000940928
9.98584e-05
-0.000198889
0.000553006
0.000326649
0.000126377
-6.87121e-05
-0.000324531
7.91626e-05
-9.55813e-05
-0.00128765
0.000479907
-0.000151983
5.62463e-05
0.000136277
-2.12136e-05
8.8996e-05
-0.00010746
-0.000157079
0.000182621
0.000205162
0.000246677
0.000477932
6.27194e-05
-0.000202785
-0.000100701
-0.000306627
0.000644216
0.000221649
0.000299051
0.000134712
-0.000213534
0.000102832
0.00197947
-0.000362107
8.7672e-05
6.49359e-05
-0.000540163
0.000979875
0.000549691
0.000105755
-0.000372476
-0.000139338
-0.000599235
0.000273551
-4.35658e-05
0.00014147
-0.000196286
-8.25392e-06
0.000230894
0.000946445
-0.000130303
0.00114211
7.82245e-05
-0.00022826
-9.65575e-07
0.000257705
-0.000336146
-4.01754e-05
-8.81955e-05
0.000196061
0.000240081
0.000423799
-7.31766e-05
0.000179083
-0.000169055
-3.19278e-05
0.00030493
0.000153459
0.000197192
0.000405442
0.000990663
0.00104801
-8.85455e-05
7.3955e-05
-6.6284e-05
0.000435406
1.58179e-05
-0.000349289
0.000702342
-0.000120964
5.12142e-05
-0.000266597
-0.000173317
0.000256343
0.000440159
0.000640337
8.93408e-05
-0.000862245
-0.000184933
0.000173593
-2.34664e-05
0.000208688
-0.000109402
2.14533e-05
0.000346193
0.000102847
-8.14709e-05
-0.000170021
-0.000451415
0.000775201
-0.000286838
-5.5436e-05
0.000296904
-0.000346115
-1.46822e-05
0.000279301
-0.00014822
-0.000363078
-0.000346101
-1.73589e-06
-0.00024876
-0.0011015
0.000147216
3.98478e-05
-0.00035848
-0.000104
-0.000235453
-0.000327957
-0.000371802
0.000209896
-1.77438e-05
-0.000393445
0.000860253
8.76903e-06
5.91813e-05
0.000398262
0.000986658
-0.000249101
5.37072e-05
9.70943e-05
9.92751e-07
0.000369695
0.000119557
-0.000267035
0.000123017
1.11215e-05
-0.000173802
0.000834346
-4.73226e-05
0.000219476
0.000753157
0.000171009
0.000257348
-0.000126026
-0.000363376
0.00044946
-0.000150462
-0.000248613
-9.04353e-05
-0.000327522
1.18881e-05
8.35811e-05
0.000386728
0.000434245
-5.27287e-05
-6.40452e-05
0.000416922
0.000162103
-0.000334682
0.00032921
-0.000137805
-0.000446719
0.00136924
0.000485124
-0.000243364
-8.6113e-05
-0.000654366
9.99925e-05
-0.000107033
-0.000236576
-0.000350512
-0.000109931
-0.000245696
0.000104782
0.0004156
3.57833e-05
-0.000336376
0.000408518
1.24628e-06
0.001217
0.000196647
0.000302241
0.000168484
0.000288245
0.000631503
-0.000827244
-9.2943e-05
-2.77649e-05
0.000171321
-0.000203868
-0.000129627
-9.68145e-05
-5.214e-05
-0.000191484
-0.00021588
-0.000156474
0.000157088
-0.000782536
0.000323029
-9.30012e-05
0.000221992
-0.000529281
0.000197093
3.97901e-05
-0.000112422
-0.00018498
0.000260212
-0.000132042
0.000692053
0.000873255
0.00101703
0.000553292
-0.000675158
-6.2396e-05
0.000285854
8.68732e-05
0.00064702
-0.000133934
-0.000206359
-0.000345672
-0.000124919
0.000115261
0.000211368
-0.000350763
3.14517e-05
-0.000273032
0.000309006
0.000282194
0.000874623
-0.000244075
-0.000201201
-0.000218109
-0.00076296
-0.000183693
0.000357919
-0.000137789
-0.000298616
-0.00051788
-0.000183701
-0.000648924
-6.81299e-05
-0.000158453
-7.6682e-05
6.62288e-05
0.000515324
8.59868e-05
-4.98364e-05
0.00056532
0.0011343
-9.76573e-05
-4.06134e-05
0.000179351
0.000578565
0.000130586
-0.000155409
-0.000172812
-0.000125303
-0.000164947
-7.08131e-05
0.00107478
-0.000271708
0.000214271
-0.000219192
-0.000318114
-0.00015656
0.000475399
0.000232392
-3.44692e-05
0.000130321
0.000521967
-0.000134015
-0.000158932
-0.000196934
4.50874e-05
0.000436632
-0.00065743
0.000281286
6.55029e-05
-0.000871756
0.00105251
-0.000565256
-0.000386415
0.000105753
0.000116842
-0.000197164
-0.0006462
-0.000437775
-0.000268893
-0.00024901
0.000187506
-0.000511946
0.000143904
0.000212386
2.25139e-05
-0.0014505
-0.000799125
0.000756211
-4.02035e-05
-0.000668402
-1.14826e-05
-0.000245135
0.000235368
0.000500511
0.000130384
-0.000563795
0.000257679
0.000360203
-0.000731362
-0.000488111
-0.000290739
2.04338e-05
-6.11292e-05
-0.000201753
-0.000417433
-0.001083
-0.000182216
-0.000164677
-0.000393972
-0.000118154
-0.000141466
0.000599898
0.000727934
0.000108826
6.48101e-05
0.000767584
0.000146552
-0.000114419
-1.00316e-05
-3.11131e-06
-0.000109224
4.24727e-05
0.000473253
8.19866e-06
-0.000306879
-0.000114255
8.89485e-05
6.46482e-05
-8.38774e-05
-0.000208994
-0.000211224
-0.000208838
9.69406e-05
0.000612121
0.000315633
-0.000236764
5.96023e-05
0.000773685
-0.000497531
0.000517825
2.09455e-05
0.000630708
-0.000253949
0.000154697
-0.000140253
-6.16087e-05
-0.000314362
0.000248901
-0.000127505
-0.00020232
0.000509608
-0.000227517
-0.000147485
-8.82778e-05
-0.000313127
0.000374808
0.000222282
0.000426262
0.00016136
-0.000392095
-0.000211395
0.000184769
-8.87572e-05
0.000271209
0.000216619
0.000104412
0.000183648
0.000383905
-0.000194587
0.000208634
0.000523551
0.000119507
-0.000328859
0.000237462
-0.000916851
0.000386331
-0.000158206
8.02635e-05
0.000257396
1.72217e-06
-0.000327205
-1.08553e-05
0.000197477
-0.000259626
-1.27972e-05
0.00133708
0.000190715
-1.70299e-05
-0.000195639
-0.000232679
-4.03677e-05
1.10724e-05
1.4781e-05
-7.9021e-05
0.000201608
-0.0003118
0.000369543
0.000434499
0.000224588
0.000984253
7.4661e-05
-8.18543e-05
3.56308e-05
-3.64959e-06
2.58814e-05
0.00077275
0.000165835
-0.000200168
-1.83428e-05
0.000550205
0.000169435
0.000311822
-0.000340863
0.00107473
3.83203e-05
3.4013e-05
-0.000563291
0.00029369
-0.000727866
0.000109861
0.000372318
-0.000243799
0.000131516
0.000831503
-4.19421e-05
0.000778202
-0.000404492
-0.000810107
-0.00054693
-5.71905e-05
-0.000384671
0.000259713
0.000385909
-1.09071e-05
-0.000102844
-0.000305186
0.000332858
-0.000122796
0.000164916
0.000111877
0.000101875
0.00034176
-6.91934e-05
0.000301303
3.36978e-05
-0.00016062
0.00071584
-0.000596651
0.000548648
-0.000125581
-0.000116618
0.000407953
0.00145675
-1.86506e-06
-0.000389949
1.27376e-05
8.68945e-05
0.00012868
-6.45564e-07
-0.000209198
0.000277491
0.000620254
-0.000150649
0.000576109
0.000199302
0.00110797
0.000760712
-0.000843488
-0.000198312
0.000224921
-7.86117e-05
-0.000456627
0.000262307
-0.000324089
-0.000906854
0.000150267
-7.01691e-05
0.000128293
-9.43595e-05
-0.000697158
-3.19893e-06
-0.000437159
0.00061289
0.000336697
-0.000267783
0.000900826
-0.000365219
4.52892e-05
0.000661316
-0.000279353
0.000549921
0.00133338
0.000691486
-7.51086e-05
0.000309046
0.000331667
0.000143747
0.000325671
0.000516807
0.000350315
-0.000697535
0.00105367
0.000658064
-0.000155634
0.000307954
0.000960566
-3.55402e-05
0.000928465
-5.51165e-05
-3.66183e-05
0.000260409
-0.000390147
0.000939986
-0.000287523
-0.000294361
-0.000245811
-2.79888e-05
0.000529455
-0.000860503
9.074e-05
-0.0015075
-0.000439374
0.000734594
9.99686e-05
0.000135207
0.000556292
0.000923057
-5.57164e-05
0.00017329
-0.000757395
-0.000676421
0.00011902
-0.000987783
-0.000135594
9.7118e-05
-0.000174049
0.000633727
0.000732013
0.000162819
-0.000257711
-5.50217e-05
0.00033357
0.00157867
0.000331168
-0.000142645
-0.000257958
-7.70861e-05
7.25558e-05
7.46946e-05
9.51855e-05
0.000426165
7.84719e-05
0.0012169
0.000809395
-0.000526597
-3.76533e-05
0.000193917
0.000314515
0.000519423
0.000349129
0.000238955
-0.00079257
0.000256162
0.000240876
0.000172938
-0.000242008
-1.874e-05
0.00111259
0.000358877
0.00039253
-0.000135634
7.91614e-06
0.000389544
7.71367e-05
8.06655e-05
0.0003473
0.000180312
0.000305588
-0.00100591
0.000499854
-0.000567059
-9.36999e-05
0.000244405
0.000722547
0.000739286
6.77606e-06
0.0006925
0.00129508
0.000173548
0.000636707
0.000559326
0.000290443
-0.000310455
1.10749e-05
-8.67874e-05
0.00082482
0.000297069
0.000464115
0.00028908
0.000657315
-0.000756794
0.00131517
6.94505e-05
-0.000332644
0.000808315
0.000332512
0.00021057
0.000487205
5.92292e-05
-0.000618942
-0.000105477
0.00108615
0.000161176
0.000657115
0.000356236
0.000385799
0.000374823
0.00116562
0.000165256
-6.72152e-05
0.00114247
0.00010792
0.000386588
0.000326986
0.000176949
-0.000562952
0.00121895
0.000594899
0.00040865
0.000708443
0.000334147
0.000558439
-0.000285218
-0.00033636
-0.000183443
-0.000927025
0.000678844
0.000327044
4.9432e-05
-0.000750578
-0.00061477
0.000861153
-0.000551426
0.00053487
-0.000445308
0.000171891
-0.000189599
0.000220766
0.00140305
0.000397249
0.00104055
-5.23003e-05
-0.000817255
0.000171009
-4.36205e-05
0.000211439
0.000291026
0.000339637
0.000294326
-0.000134624
0.000687358
0.00069713
0.000498446
-0.000214679
8.90246e-05
0.000378766
0.000303886
-0.00145051
-0.000393257
-7.75735e-05
-0.000440063
0.000718317
0.000566831
0.00137411
-0.000102426
0.000539487
0.000906816
0.00123847
-0.00172535
1.14593e-05
0.000454803
0.000514167
0.000199968
0.000237115
2.95777e-05
-0.000630929
0.000516001
0.000577382
0.000175773
-4.88206e-05
-0.000561581
-0.000249962
-0.000138291
-0.000385761
0.00113845
-8.51513e-05
0.000636662
0.000141527
0.00117801
4.24114e-05
0.00104728
0.000408946
0.00106969
0.00134515
0.000346881
0.00114109
0.000219916
-0.000399704
0.000820037
5.99512e-06
3.2367e-06
7.59182e-05
-0.000336633
-8.18012e-06
0.00025176
0.000296921
0.0002006
-8.86514e-05
0.00107053
0.000418301
0.0004
-0.000179556
0.000448527
-0.00193915
0.00121214
-0.000113886
-0.000655393
0.000466507
-0.000422194
1.20189e-05
0.000607894
-0.000105113
-0.000203218
0.000247442
0.000373695
0.000212292
0.000718293
-0.000298143
0.000392543
0.000863387
0.0015843
0.000491247
-0.000120839
0.000173264
-0.000107966
-0.000329924
0.000630041
6.31814e-05
0.000286074
-0.000389222
0.00087984
0.00122373
2.92122e-05
0.000237087
0.000383485
-0.00019044
0.000616807
-0.000216251
-0.000127864
-0.000485771
2.49719e-05
-0.000663607
-0.00120979
0.000604392
-9.06927e-05
-0.000968906
-6.73459e-05
0.000173524
-0.000119264
-0.000186479
0.000400916
-0.000323765
0.000878372
0.000128127
0.000590903
-0.000118968
-0.000112802
0.00162794
0.000264739
0.000340244
-0.000617372
0.000160972
-0.000186011
0.000131268
0.000135411
0.000227479
-0.000137436
-0.000390059
0.000320676
9.5951e-05
8.12038e-05
-0.000159093
4.41583e-05
-0.00046403
0.000222903
0.000359155
0.000149296
-0.000370802
7.87479e-06
0.000140206
0.000885806
-0.000287748
4.25101e-05
0.000323489
0.000224301
4.01151e-05
0.000438626
-3.25944e-05
-8.87062e-05
-9.43916e-05
1.79227e-05
-7.98488e-05
0.000256865
0.000148394
0.000724925
-2.86241e-06
0.000197232
6.36013e-05
-1.6979e-05
0.000597008
-7.49319e-05
0.000363376
0.000299831
-0.000399377
-0.000385347
0.000221274
-0.000295202
-9.08386e-05
0.000287669
5.36476e-05
7.88879e-05
0.000160135
-1.74964e-05
4.27421e-05
0.000697217
0.000707049
4.48584e-05
0.000382204
0.00062908
-0.000228256
-0.000121001
-0.000152247
-2.35626e-05
-0.000326028
0.0009677
-0.000315777
-0.000199256
0.000776742
-0.000280288
0.000661051
0.00040551
-2.91663e-05
0.000194242
-0.00050929
0.000289439
-0.000437831
2.37873e-05
-0.000281006
0.000244336
-0.000323066
0.000539484
0.000662245
3.09009e-05
-0.000114835
-0.000175075
6.27461e-05
-0.000301495
0.000419127
0.000329969
0.000560318
-0.000108749
0.000412984
2.41821e-05
0.000514489
0.000885269
-0.00138662
0.000133916
0.00120281
-0.000208179
2.27348e-06
0.000249211
8.32396e-05
-0.000530797
-0.000416623
-0.000511898
0.000500343
-0.000403106
0.000363745
-0.000388982
0.000175508
-0.00033078
0.000574348
0.000372512
0.00168108
0.000283013
0.000612517
0.00125295
2.49266e-05
0.000270818
-8.409e-05
0.000366895
5.18965e-05
0.000737694
-0.00012493
0.000144592
0.000832635
0.00101103
8.54274e-06
0.000472986
0.000723542
0.000708835
0.0012035
0.000402983
7.54412e-05
0.000188962
-0.000431841
0.000173323
0.000598089
8.44008e-05
0.00014451
0.000235734
-0.000373407
-0.000384558
-0.000320053
0.00026541
0.000723297
8.99548e-05
-0.000279916
0.000355562
0.000278863
6.80158e-05
0.000275412
0.00124071
-0.00122455
0.000352333
0.000170247
0.000242988
-0.000175223
0.00038298
-0.000169067
-4.59239e-05
6.35066e-05
-1.40869e-05
-0.000423204
5.03964e-05
0.000106558
-0.00036844
0.00079024
0.000224456
-0.000455537
-0.000452912
-0.000808843
0.000797881
-5.29215e-05
-0.000204471
0.00136535
-0.000194567
-5.91207e-05
0.000849473
0.000565704
-0.000342488
-0.000254946
-0.000513447
-0.000665036
3.40764e-05
0.000101902
0.000147112
-0.00027072
0.000423163
-0.000174717
7.76142e-05
0.000619213
-0.000478588
-0.000546488
0.000357752
-0.00032134
-0.000299879
-0.000115322
0.000220718
0.0018796
-0.000688817
0.00126795
0.000142865
-0.000345699
0.000114652
-0.000224723
0.000147965
-0.000735939
0.000178328
0.000274312
5.17288e-05
0.000449579
1.86611e-05
0.000577963
0.000403768
-0.000557869
0.000109113
3.39034e-05
0.000340507
0.000232323
5.29137e-05
-0.000167465
0.000107866
0.000380971
-0.00011108
0.000100998
0.00118823
0.000735615
-0.000427502
0.000205917
3.32888e-05
-4.61552e-05
0.000848382
-2.04007e-05
-4.8862e-05
-0.00038147
0.000523815
0.000556546
-0.000195938
-0.000176348
0.000286735
-8.51957e-05
0.000112719
0.000461359
0.000410117
-0.000130842
-7.50202e-05
0.000185384
0.000472997
-0.000159478
-1.21892e-05
0.000155608
-0.00012218
-0.000178042
9.50529e-05
0.000153136
0.000257273
0.000363322
4.42779e-05
0.000165222
-0.000157003
0.000361321
0.000106908
0.000274624
0.000614284
-0.000159459
0.000311176
0.000829462
0.000411003
0.000805366
0.000141492
-0.000229082
0.000510035
-0.000257871
-0.000221433
-0.000362961
0.000842691
-0.000212862
0.00010474
-0.000216886
-0.000380862
-0.000300493
-0.000268597
0.000282829
-0.000458731
4.7014e-05
-0.000195637
0.000439565
-0.00153183
-0.000357615
-0.000319623
0.000194563
0.000596698
0.000144551
-0.000350064
0.0016428
0.000304312
-2.04044e-05
-0.000121358
0.0006027
-4.4407e-05
7.06346e-06
0.00060212
0.000211982
-7.1634e-06
0.000770561
0.000392514
7.55861e-05
-0.000698696
0.000390795
-0.000191609
-0.000108837
0.00025054
-8.67597e-05
0.000818453
-0.000487513
-1.24535e-05
1.37609e-05
0.000589226
0.000477315
-1.27549e-05
0.00124271
0.000315874
-0.000734952
-0.000431885
0.000421433
0.000805029
0.000581311
0.000838982
0.00129627
-0.000269818
0.000228217
-0.000537356
-0.000465585
-0.000224499
-0.000116715
0.000805853
0.000469645
-5.4288e-05
4.44562e-05
0.000111806
-0.000552144
-0.000128074
-0.00104472
0.000739757
-0.000260342
0.000377353
-7.06553e-05
0.000499002
1.40959e-05
0.00075565
0.00119417
0.000366416
0.000573319
0.000946661
0.00119715
-0.000218177
-0.000286074
0.000459119
4.27204e-05
0.000115286
-0.000135185
0.00072362
8.20552e-05
6.08836e-05
-0.000131845
0.000273198
0.000421061
-0.000299743
4.70485e-05
0.000513795
1.54516e-05
0.000587671
0.00098592
-0.000115652
-7.46461e-05
0.000310838
0.00059951
0.000187779
-8.408e-05
0.000204859
-0.000220209
0.00227764
-0.00117119
-0.000459467
0.000851276
-0.00149167
-0.000367629
0.000364162
-7.05636e-05
0.000507429
-0.000454094
0.000257994
0.000256302
0.00147824
-0.000572285
-0.000373185
5.47496e-05
-0.000511632
-0.0003152
0.000227513
-0.000102959
-0.000135048
0.000169586
0.000583548
0.000297103
0.000514344
0.000208757
-0.000725063
-6.58176e-05
-8.75903e-05
6.71913e-05
-3.5445e-05
0.000995772
-0.00121369
8.53144e-05
0.000274886
-0.000376679
-0.000202611
-5.84138e-05
-3.42629e-05
0.000147574
0.00144569
-0.000533129
-0.000576651
8.28565e-05
-0.000124516
0.000456829
0.000501599
0.000141896
-0.000724424
0.000160593
0.000761179
0.000208705
-8.29111e-06
0.000377182
0.000342397
-0.000284269
-3.62921e-05
0.000757405
2.25419e-05
-0.000362603
-0.000509045
0.000225843
0.00112699
-0.00128415
0.000644003
0.00091343
0.000818366
0.000708918
-0.000281149
0.000277231
0.000878844
0.000238781
1.67438e-05
-0.000224499
0.00132032
2.3598e-05
0.000281627
0.000178212
8.14318e-05
-6.23117e-06
0.000471912
6.95879e-05
-0.000240036
-0.000136548
-9.00292e-05
-0.000444739
-4.56576e-05
-0.000235848
0.000324136
0.00104145
-0.000172425
-0.00040093
-7.9371e-05
-0.000770283
-0.000360688
0.000864968
-0.000289627
-0.000102317
-0.000503365
-0.000159603
0.000580709
5.79512e-05
4.67357e-05
0.000382236
0.00102733
-0.00020483
0.00126504
0.000238588
-0.000797777
0.00310683
0.00012004
0.000313043
0.000513304
0.00100132
0.000749476
0.000104411
0.000912655
6.34875e-05
6.9695e-05
0.000541623
-4.88518e-05
-0.000240625
0.000358602
0.000395762
0.00102921
0.00011083
7.3709e-05
-8.86884e-05
0.000180075
-0.000237935
-0.000655714
-0.00116201
0.000192226
0.000515362
0.000330232
0.000467719
-0.000426578
-0.000188701
0.000232063
0.0007177
0.000154036
-0.000910594
-0.000518025
-0.000113803
-0.00154878
0.000607984
0.000890446
-0.000273265
-0.00051884
0.000202187
-2.82095e-05
-0.000105017
-1.3202e-07
-0.00053216
-1.74422e-05
3.25617e-05
-5.31211e-05
0.000678779
-0.000506425
0.000166743
0.000657695
-0.0002345
0.000502982
-5.45637e-05
0.00117748
-0.000339793
0.000641244
0.000468684
-0.000153232
-1.3474e-05
0.000882424
-0.000184492
0.000869259
-0.000187945
0.0007787
0.000992485
-0.000890109
0.00110634
-0.0011919
-4.14349e-05
0.00166599
7.14833e-05
0.000732571
0.000144667
0.000199962
-0.000124074
-0.000184476
0.000474729
0.000827486
-0.00020787
0.000254697
5.61411e-05
0.000689794
0.000290233
0.000422238
-0.00122452
0.000771289
-0.000135871
9.35176e-05
0.000245666
0.000426486
0.000188508
-0.000223965
-0.000164991
0.00063179
0.000196458
0.000333268
2.18227e-05
5.37869e-05
-0.000710792
0.000137922
0.000218285
0.00046696
0.000351965
0.000204029
-8.2325e-05
0.000485036
-0.000235025
-9.78502e-05
0.000253575
3.84406e-05
-0.000129645
-3.95541e-05
0.000572565
-0.00115215
0.000811657
0.000494323
0.000127827
4.52001e-05
0.00107444
0.000237362
1.75489e-06
-0.000204995
0.00120571
0.000141369
-3.04583e-05
-0.000314934
-0.000369296
0.000474529
-3.05654e-05
0.000135103
-0.000118149
0.000308308
0.000817032
-2.73733e-05
9.47412e-05
-0.000284958
8.81219e-05
1.41045e-05
-4.3354e-05
0.000211199
0.000124699
-0.000679561
0.000719524
-0.000126055
0.000112655
-0.00013397
0.000338883
0.000103649
-0.000615598
0.000329106
-0.000166019
-0.000554945
0.000255025
0.000988794
0.000558127
-0.000261845
0.000224693
0.000579816
-1.38874e-05
0.00103979
0.000296355
0.000460179
0.000131864
8.37328e-05
0.000123463
-0.000182359
0.000110241
0.000649986
0.000876009
-0.000215843
0.00100601
-0.000158394
-4.30857e-05
0.00026242
0.000361994
-0.000143021
-0.000368369
-0.000103048
0.000186716
-0.000470864
0.000190557
0.000210161
-0.000325934
-0.000332484
0.000326423
-0.000356524
3.74867e-05
-0.000149366
0.000273414
0.000335179
0.000193496
0.000235757
0.000486026
0.000367542
0.000193682
0.000120871
4.68225e-05
0.000226927
-0.000620357
-0.00016754
4.31811e-05
4.77021e-05
0.000454136
0.000249516
-0.000309285
0.000472514
0.000200039
2.40254e-05
-2.84116e-05
-1.85429e-05
-0.000148719
0.000448765
-8.01414e-05
-0.000194459
0.000887802
-0.000612911
0.000162117
-0.000694163
0.000690434
0.000939912
-0.00113508
0.00032271
5.49326e-05
-0.000157531
0.000109857
-0.000737602
-4.64395e-05
-0.000360107
-0.00011672
0.000265569
3.59591e-05
0.000269862
-0.000225446
0.000260993
-0.000354531
4.42622e-05
0.000559898
0.000768847
4.02071e-05
-4.68597e-05
8.52947e-05
2.41399e-05
-6.74894e-05
-8.55495e-06
-0.000268312
0.00254027
0.00165729
6.64446e-05
3.98621e-05
0.000862583
-6.44332e-05
-0.000275488
0.00026128
0.000135627
-5.17794e-05
-6.54185e-05
-0.000225363
0.00070711
-0.000365758
0.000132942
0.000275473
-0.000225892
0.0003048
0.000835139
-4.66985e-05
-0.000503228
0.00065701
0.000173755
0.00117204
-1.38307e-06
-0.000263446
-0.000214954
0.000207309
5.30405e-05
-0.000423582
-0.000243147
0.000270186
0.000341951
-3.83829e-05
-0.000132781
0.000417896
0.000181406
0.000181439
4.16446e-05
-0.000158688
-5.09544e-05
-0.000150838
-7.14217e-05
0.000269155
-0.000236221
7.8494e-05
0.000414328
-8.66215e-05
0.000180112
0.000285364
5.69079e-05
0.000501796
0.000593731
-0.00040301
0.000725641
0.000125843
0.000584116
3.34939e-05
0.000154895
-0.000185494
-0.000459871
0.000411932
0.00031621
0.00049661
0.000205403
0.000181716
-0.000371627
8.66667e-05
1.81897e-06
0.000594517
0.000140779
0.000607753
0.00182338
-9.41939e-05
0.000436721
-3.90638e-05
0.000117605
0.000180192
4.02261e-05
-0.000153553
9.01825e-05
-0.000621502
0.000131242
-2.73303e-06
0.00068677
-0.00128889
0.000562986
-0.00016125
0.000385774
-0.00101076
0.00118865
0.000185566
-0.000327648
-9.67324e-05
6.98317e-05
-8.99433e-05
-0.000153511
0.000477797
-0.000131956
3.36391e-05
-0.000234174
-6.47274e-05
-0.000114152
-0.000283368
-9.96876e-05
0.000475078
-0.000454041
-0.000398671
-0.000285574
0.00016167
-0.00021577
0.000961585
0.000107426
0.00068978
-0.00133379
0.000492029
-0.000216296
-0.000103769
2.95403e-05
9.55315e-05
-0.000150011
-0.000512136
0.000252959
1.51122e-05
-0.00066529
-0.000266894
0.000798987
-0.000169752
-5.74821e-05
0.000707772
-0.000155466
0.000595937
0.000295114
4.4077e-05
0.000115826
0.000821435
0.000383197
-0.000116481
-0.000515111
0.000633972
0.000435682
0.000675451
0.000280161
-0.000101387
0.000191452
0.00010733
-0.000119064
-0.000251279
0.000689787
-0.000417697
-0.000138707
0.000517389
-0.000146298
-0.000479426
0.000208343
0.000490999
0.000115793
-0.000216777
-0.000172489
-0.000240943
-1.96124e-06
0.000605816
0.00012485
0.000824497
0.000703985
-0.000634845
6.11196e-05
-0.000220746
-0.00032051
-0.000296621
-0.000167818
0.000540918
0.000209285
0.000182491
-0.000639969
-0.000944902
-0.000198814
0.000269309
0.000508119
0.00108565
2.97583e-05
0.000176855
-0.00022169
0.000544912
-9.71895e-05
-0.000137277
-0.000326124
0.000346003
0.000159458
0.000100939
-0.000232425
-7.1227e-05
0.000177919
0.00128339
0.000124121
0.000688372
-0.000320742
-5.28861e-05
3.04505e-05
0.000104973
0.000136809
-0.000237554
0.000149607
-0.00040731
0.000108073
0.000241109
-0.000546743
0.00016109
-0.000340571
0.000287968
0.000325271
-0.000407939
0.00088944
0.000772449
0.000111831
-3.79933e-05
0.000122733
-0.000172883
-6.81475e-05
-0.000100672
-1.05262e-05
4.73908e-05
-3.30876e-06
-0.000615931
-3.90949e-05
0.000446042
-3.88551e-06
0.00104069
0.00026949
-0.000381295
0.000179288
-0.000577871
0.000235231
0.000130195
0.000667889
-0.000193558
0.000151017
0.000147536
-0.000370763
0.000154409
0.000616207
-0.000170394
0.000236095
0.00104772
0.000372889
0.000616936
-0.000233906
9.63503e-05
-0.000252671
0.000361885
-0.000682295
0.000616228
0.00023529
-5.52015e-05
8.71483e-05
0.000394272
0.000360679
-0.000120772
0.000127649
-0.000544109
0.000431459
0.000251529
0.000176522
7.18571e-05
0.00055977
8.3697e-05
-4.58355e-05
4.50679e-05
0.000185741
-1.47793e-05
-0.00148999
0.000230327
0.000301302
0.00105704
6.84108e-05
-0.000167588
5.34479e-05
-0.000370366
-5.48868e-05
6.83952e-05
7.69551e-05
-3.02502e-05
0.000569279
0.000244203
7.80997e-05
0.000904191
-0.000348971
-0.000119135
0.000393503
0.000147226
0.000493336
-0.00019263
-0.000103014
-5.43053e-05
5.18748e-05
0.000572312
-8.50416e-07
-0.000462801
-0.000339651
-0.000420859
-0.000106704
0.000350963
-9.43766e-05
-0.00040413
0.000562935
0.0018101
0.000313833
-7.13573e-05
5.84216e-05
2.89732e-05
-2.9019e-06
4.49111e-05
0.000197801
0.000104445
0.00079967
-0.000234198
0.000114978
-0.000472605
-0.00015327
-1.62035e-05
0.000519155
-0.000466153
-0.000235009
0.000637205
0.000217446
-0.000112655
0.000830105
0.00050892
0.000362645
0.000132398
9.01596e-05
-0.000437348
0.000562333
-0.000311309
0.000411776
-0.000198957
-0.000527756
8.20296e-07
0.000198718
-3.02704e-05
0.00026198
0.000221608
0.000315583
0.000399959
-4.21423e-05
0.000459392
-0.000293913
0.000516264
-4.37781e-05
-0.000242262
-0.000349337
0.000473938
0.000387682
-8.87112e-05
-0.000209059
-0.000198856
0.00028467
-0.000326586
0.000242869
-3.95022e-05
0.000210021
6.97492e-05
0.000152418
-0.000143433
-0.000277335
6.27929e-05
7.57186e-05
-0.000106044
-0.00032382
0.000283979
0.00121856
0.000121267
0.000223574
0.000175492
0.000214358
0.000466396
7.53005e-05
0.000412931
0.00013978
0.000184964
-1.13776e-05
0.000368058
0.00054698
8.48449e-05
-0.000473366
0.00277751
0.00010468
-0.000246594
-0.000464899
0.00038898
-0.000128732
-0.000267894
-1.65306e-05
-0.000193848
-1.33566e-05
0.00013712
0.000864903
-8.29007e-06
0.000305493
-3.17049e-05
-1.16871e-05
-7.16578e-05
-0.000810086
-0.0003461
-6.15568e-05
-5.32339e-05
-0.000254674
-3.48565e-05
2.87784e-05
-0.000143837
-8.1787e-05
0.000266876
-0.000278304
0.000102985
0.00175153
-0.00053707
0.000172973
-0.000148131
-0.000174296
0.00053862
-3.01315e-05
-3.86645e-05
0.000144148
0.00170856
-9.60953e-05
2.4866e-05
0.000310585
0.000221591
-0.000494766
0.000105609
-8.13679e-05
-9.83188e-05
-0.000270697
9.98692e-05
0.000476531
-0.00012542
0.000555422
0.00125583
0.00094554
-0.000136402
0.00108785
-4.8105e-05
-8.93632e-05
0.000415356
-0.00015607
0.000669
-0.000125708
2.15647e-06
-3.49885e-05
0.000622752
0.000577633
0.000466117
5.46528e-05
-7.37522e-05
0.000409318
0.000264446
-5.25618e-05
0.000760052
0.000400722
-0.000208938
0.000755797
-6.46812e-05
-3.56454e-05
0.00090593
-0.000314733
0.000511799
-0.000218801
-0.000146802
0.000450807
0.00102737
-0.000170216
0.00105667
5.62854e-05
-0.000197613
0.000339105
-0.000100705
-0.000386765
0.000205504
9.1799e-05
-0.000257768
0.000510374
-6.59198e-05
1.71079e-05
-8.48351e-05
0.000350782
2.25465e-06
0.000341035
-0.000191857
2.8456e-05
-0.000144748
0.000605304
0.000728936
-0.000175914
-0.000233778
0.000208014
0.000243439
-0.000320027
-0.000285345
0.000462264
-4.23167e-05
-9.93881e-05
-4.44153e-05
-0.000157179
-4.41457e-05
-0.000208963
2.30066e-05
0.00010947
-3.60064e-05
-0.000819871
0.000479995
-7.33779e-05
1.78676e-05
7.38484e-05
0.000311995
-0.000210622
0.000649414
0.000183754
0.000160246
0.000718948
-5.82832e-05
0.000138913
-0.000671672
5.42639e-06
-8.96859e-05
-0.000481459
-3.62342e-05
0.00149344
0.000120633
9.31377e-05
-1.75396e-05
0.00019656
-1.53863e-05
0.000215877
-5.83781e-05
3.42595e-05
0.000407843
0.000454234
-0.000125211
-2.96175e-05
0.000431474
-1.96862e-05
0.000142387
0.000167776
0.000401702
-5.63467e-05
8.42675e-05
-0.000941471
-0.000642169
-0.000119442
-0.000503758
0.000486686
-0.000333052
-0.000189627
-0.000795554
9.32285e-05
-0.000272154
-8.37007e-06
-0.000284287
0.000540585
-0.000497703
0.000784755
0.0003101
-0.000163902
-0.000386562
6.16234e-05
5.25344e-05
0.00040679
0.000488092
0.000234236
0.000566783
-0.000862516
-0.000225063
-0.000365466
0.000272438
-0.000292901
0.000142498
0.00090573
5.47235e-05
-1.5468e-06
0.000463368
0.000436224
-0.000147484
1.55202e-05
-0.000491179
0.000148894
0.00042905
-0.000713626
-0.000188888
9.59827e-05
0.000354528
0.000138054
0.000296712
0.000276629
0.000268887
-4.89129e-05
0.000528413
5.85899e-05
-6.31571e-05
0.000232135
0.000205982
-0.000159399
-9.3169e-05
0.000550689
-0.000203466
0.000133566
-7.12606e-05
0.000230578
0.000398605
4.87217e-05
0.000643168
-0.000160015
0.000160062
0.000190908
0.000453552
0.000570842
0.000356559
-0.00092714
7.90626e-05
0.000415728
8.641e-05
0.000357584
-4.19023e-05
-0.000256813
6.72077e-05
-3.33227e-05
0.000140169
-3.46012e-05
-4.81202e-05
-0.00076092
-3.96467e-05
-9.03954e-05
-0.000630152
-0.000345305
0.000148158
-0.000309344
-0.000131836
0.000901783
-0.000155408
6.28343e-07
-6.9652e-05
5.54683e-05
-0.000228661
0.000280036
0.00042327
0.0001176
0.00013116
0.000338915
0.000123068
4.17836e-05
5.38116e-05
-0.000348366
0.000496879
-0.000367681
-0.00030697
0.000267039
5.83471e-05
0.000597046
0.000290827
-8.71402e-05
-3.30439e-05
0.000170654
-0.000116709
-0.000747131
0.000453826
0.000107861
-0.000103676
-0.000377445
7.7127e-05
0.00132044
9.58365e-05
-0.000525683
-0.000605867
8.50944e-05
-7.92267e-05
0.00026415
0.000380016
5.54554e-05
-0.00024317
0.000136154
0.000566964
-0.000204924
-0.000160901
0.000331276
0.000342296
0.000431967
-0.000174354
-0.000236026
0.000628831
0.000449755
0.000553277
0.000305411
-0.000199679
6.4213e-05
0.000353912
0.000315972
0.000114864
6.12622e-05
-9.44809e-05
0.000150951
-0.000101898
-0.000261202
9.61232e-05
-0.000478237
0.000188503
-0.000671431
9.16602e-06
-0.000300391
8.63398e-05
-7.85133e-05
0.00105991
0.000448757
0.000537861
0.000108381
0.000192288
0.000766537
-0.000529632
-0.000294953
6.7136e-05
0.000292097
8.21304e-05
-1.30249e-05
0.000634426
-0.00026018
-0.000461503
-6.93923e-05
-0.000645886
6.15352e-05
1.24629e-05
0.000156403
-0.000243322
0.000513956
0.000882935
4.77384e-05
-0.000119486
0.000163587
-8.18609e-05
7.13456e-05
-0.000163681
0.000483889
0.000323011
0.000100619
-0.000254043
-0.000403282
-2.49033e-05
0.000449902
3.5836e-05
-0.000137728
-0.000344077
-0.000376634
0.000137996
-5.98545e-05
0.000131709
2.92999e-05
0.00028921
4.95459e-06
0.000454341
-0.000239144
-0.000131376
0.000237555
-8.13172e-05
0.000101717
0.000166185
-9.03196e-05
0.000129246
0.000863691
0.000292387
0.000209815
-5.54612e-05
7.14697e-05
9.9538e-05
0.000191416
0.00054932
0.000461356
2.95653e-05
0.000206724
0.000968174
-0.000315864
0.00046381
-0.000295783
0.000199823
-0.000180745
8.22043e-05
-2.05625e-05
-5.92445e-05
8.94996e-05
0.000393368
0.000563933
0.00142537
-0.00030089
5.44644e-05
0.000621693
0.00135725
0.000210566
-5.37672e-05
-0.000136993
3.25547e-05
7.04369e-05
-0.000390589
-0.000256857
-0.000262839
0.000272337
0.000384693
-4.19309e-05
0.000419281
-0.000242354
0.000488081
0.000260232
-0.000361911
0.000723113
0.000370679
0.000731732
-0.000622522
-0.000444824
0.00061941
-4.26344e-05
-0.000166702
0.00126455
0.000104067
0.000780076
0.000137554
0.000274236
-3.65815e-05
0.000668713
-0.000442007
0.000593355
6.19475e-05
0.000225001
0.000233615
0.000321249
0.00019343
0.000168335
0.00025864
0.00047309
-0.000144098
-0.000281776
-0.000181341
0.00100923
0.000222447
0.000942634
0.000204072
-0.000108021
0.000568368
0.000991331
-0.00014306
6.37618e-05
-0.000117827
-0.000223907
0.00017682
-5.1544e-06
0.000142768
-4.48949e-05
2.26815e-05
0.000585156
0.000284792
0.000459388
8.11895e-05
-9.64658e-05
-9.79832e-06
0.000525655
8.14793e-05
-0.000618122
1.27724e-05
0.00049197
0.000404884
0.000850538
0.000419396
-0.0001331
-0.000403475
-2.41815e-05
0.000258952
0.000204546
0.000142713
-0.00034359
3.75096e-05
0.0004741
0.000254673
-0.000245207
-6.36128e-06
-0.000651158
0.000845005
0.00058757
-7.1767e-05
-4.92789e-06
0.000900163
0.000336643
5.45047e-05
-6.66048e-05
0.000834639
-0.000261955
0.000288894
-0.000139822
-6.81849e-05
4.42342e-06
0.000399328
0.000277014
-0.000323392
-0.000212413
-0.000570873
0.000309974
0.00015013
0.000138902
-0.000140639
-0.00025636
-0.000122958
0.000242329
-3.45874e-05
-0.000151022
0.000306708
0.000735949
0.000106085
-0.000250754
-0.000100223
0.000143737
9.04868e-05
0.000263437
-7.67138e-05
-0.000386173
-0.000157131
-0.000817889
0.000413302
-0.00015957
-0.000171088
-2.61408e-05
-0.000187223
-5.5837e-05
0.000274575
0.00017902
0.000218474
0.0010643
5.9043e-05
0.000175044
0.000245373
0.000218888
-8.55756e-06
6.06477e-05
4.38574e-05
0.0003553
0.000344366
-0.000142092
-6.37055e-05
-0.000438152
0.000477072
0.000113738
-0.000211655
2.05917e-05
0.000571827
0.000275599
-0.000145651
-2.57218e-05
0.000373614
0.000513613
0.000782526
0.000164598
-0.000229427
8.85167e-05
-6.01615e-05
0.00010812
0.000378932
7.93037e-05
0.000219965
0.000737018
-0.00045767
0.00022613
-0.000670561
0.000144406
-0.000330479
-4.11747e-05
-7.62992e-05
0.000318737
-0.000235639
-0.000214249
-5.30891e-05
-0.000263944
0.000673796
0.000144607
-8.59834e-05
1.44163e-07
-0.000328889
0.000121729
0.00058587
0.000276458
0.000161274
0.00015917
0.000452741
0.00034341
0.000143091
0.000748587
0.00027464
0.00099195
0.000358975
-0.000102287
0.000388119
0.000479952
1.27438e-05
-6.11253e-05
7.35573e-05
0.000333499
-5.44135e-05
0.000185067
-0.000149703
0.000446063
0.00070142
-0.000378399
-0.000417122
0.00023441
-0.000487567
0.000573187
5.61256e-06
6.5926e-05
-0.000146479
1.15801e-05
0.000350885
0.000338868
0.000332202
0.000402739
-0.00096926
0.000335166
-4.15051e-05
0.000193984
-0.000201887
0.00131642
0.000229523
-9.02387e-05
-8.40053e-05
1.94588e-05
0.000121657
0.000568995
0.000201415
0.000389462
9.14024e-05
8.54503e-05
-2.06432e-05
0.000501929
-0.000191904
0.000495209
-5.61225e-05
-0.000215008
0.000798721
-1.87764e-05
-0.000194094
-0.000152639
-0.000699078
-0.000162716
-8.86428e-05
0.000236692
-7.23347e-05
-0.000112285
-0.000456201
0.000198638
-0.000340167
-0.000103441
