0.000497077
0.00112008
0.000649891
-0.000239944
0.000142163
-0.00022614
-1.67692e-05
0.000758978
-0.0005351
0.0027216
-0.000767137
0.00223704
0.000270139
0.00235818
0.00209552
-0.00192625
0.00210117
0.000394621
-0.00126427
0.00306207
0.000290287
-0.0018904
0.00261824
-0.00308665
-0.000354861
-0.002382
-0.00018949
-0.00180514
-0.00137141
0.00185136
-0.000223884
0.000599266
0.000811664
0.00381304
-0.00196974
0.00182508
-0.00467292
-0.00506895
0.000474575
-0.0016278
-0.000824279
0.000302253
0.000679887
0.00234528
-0.00214557
-0.000656384
0.000797497
0.000459926
0.0045708
0.0019407
-0.000223081
0.00289528
0.00100718
0.000381607
0.00010871
0.000317194
-0.00165885
-0.000247913
-0.00308093
0.00253306
0.000824213
-0.000454817
-0.00116832
0.00357716
0.0017523
-0.00149919
-0.000927908
-0.000361674
-0.00236858
-2.78362e-05
0.00145107
0.00183583
0.000394388
-0.000973865
-0.00303381
-0.000607529
0.00225739
0.000431739
-0.000124867
-0.00467466
-0.00231716
-0.000109374
0.00403291
0.00470788
-8.03169e-05
-0.00119053
-0.000499568
-0.000534368
0.00105889
0.00200555
0.00191771
0.000926681
0.000281672
0.0034819
-0.00192936
-0.00290945
0.00106088
-0.00342499
0.000212101
-0.0015733
0.00071234
0.00229709
-0.000239479
0.00217174
-0.000922736
-0.00347524
0.00165596
-0.00203741
0.000294485
-0.000681658
-0.00342738
-0.00115103
-0.000607159
-0.00110538
0.000191708
-0.00410667
0.000596086
0.000897066
0.00192098
-0.00202523
-0.00307121
0.000760401
-0.00016647
-0.00076485
-0.00237407
0.00219867
0.00156838
0.00301005
-0.00105858
-0.00107871
-0.00212881
0.000259964
0.000137598
-0.00131789
2.1229e-05
-0.00334686
-0.00447346
0.00235105
-0.00174515
-0.00396327
0.00293133
-0.000932487
0.00165917
-0.00153776
-0.00457937
-0.000414854
0.00172603
0.000799134
0.00163585
-0.000346041
-0.00305152
0.000922912
0.00354043
-0.00015942
0.00305623
-0.00206283
-0.00155748
-0.0029872
0.0021952
-9.24969e-06
-0.00107179
-0.00229984
0.00100346
-0.000401298
0.00257936
0.000179592
0.000959656
-0.000600078
0.00325968
-0.004157
0.00341649
-0.000237443
0.00466997
0.0021099
0.000568452
-0.000481263
-0.00161844
-0.00232921
-0.00100298
-0.000149912
-0.00286554
-4.18653e-06
0.00575512
-0.00165212
-0.000283828
-0.000325973
0.000953899
-0.00295678
-0.00111729
0.000241548
0.000736294
-0.00278018
-0.000976163
0.000167557
0.00273675
-0.00624138
0.00139268
-0.00134282
-0.0013577
-0.00110217
-7.19542e-05
-0.000514476
-0.00019645
6.74727e-05
0.00262049
-0.000328124
-0.00243835
-0.0009562
0.00357721
-0.000633103
0.00208827
0.000717504
0.00214204
-0.000667173
-0.000472527
0.00121404
-0.000767739
-0.00164185
-0.000743486
0.00137855
-2.92736e-05
-0.00114476
0.000347731
-0.0011845
-0.000885045
-0.000771532
-0.000157022
-0.000355125
0.00376774
0.000918169
0.00220441
-0.0020606
-0.000943772
0.0022659
0.00118757
-0.00253346
0.00181841
-0.000973414
0.00147258
-0.00119699
0.00138886
3.72173e-05
0.0017441
0.00093916
-0.00273384
0.00228063
-0.000632973
0.000138315
0.00358039
0.00157654
0.000870608
-0.003128
0.000655128
0.00341556
-0.00088372
0.00239023
-0.000210521
-0.000610921
-7.28509e-05
-0.0033833
0.00167532
-0.000945861
-0.00210205
-0.00244293
-0.00241663
0.00105629
-0.00350483
0.00168214
-0.00212806
-0.000555831
-0.00072935
4.06744e-05
0.000552203
-0.000296412
0.00313119
0.0010716
-0.00186612
0.00521372
-0.000580366
-0.000135897
-0.000810891
0.00045175
0.00249101
-0.000343268
-0.00122524
-0.00114631
-0.00260313
-0.000963977
-0.000164014
-0.000586472
0.00383435
0.00235824
0.00216605
-0.000922156
0.000156224
-0.00116787
0.000239604
-0.000606143
-0.000978274
-0.000325567
-0.00124369
8.93405e-05
0.00113736
-0.000402269
-0.00249115
-0.000571915
-0.00427161
-0.000671164
-0.00553911
-0.000230747
-0.000412193
0.00133538
0.000484364
0.00169764
-0.00156575
0.000662577
-0.00147921
-0.000731567
-0.000612217
0.00209131
0.000689538
0.00120251
-0.000487626
-0.00405593
0.00113992
-0.000115267
0.00120757
-0.000532329
-0.000638071
-0.000654138
-0.000931524
0.0022579
-0.000600285
-0.00344918
0.000974087
-0.00250827
0.00103476
-0.00286405
-0.000857595
0.00868164
-0.000827083
0.00466307
-0.000130051
0.00244402
0.000552579
0.0026699
-0.000259298
-0.00186214
-0.00310506
0.00318461
-0.00137349
0.00308393
0.0037642
-0.00207046
-0.000122119
-0.00110147
0.000229035
-0.00129679
0.000275541
0.000154664
-0.00133086
-0.00185526
0.000348791
-0.000658803
0.000714687
-0.000907027
0.00182948
0.00200349
0.00252831
-0.000666349
-0.00144058
0.00179478
0.00129393
-0.00221989
0.00248052
0.000829061
-0.00353457
-9.51218e-05
0.00145254
-0.0035382
-0.000721119
-0.0014332
0.00193042
-0.00160233
-0.00152726
0.000736452
6.35278e-05
0.0013832
0.00226222
-0.00196096
-0.00187268
0.00464824
0.000999742
0.000773455
0.000171142
0.000271913
0.000811917
9.37493e-05
0.0052885
0.0040586
-0.000479614
0.00388191
0.00113818
-0.000684422
0.00186573
0.000293797
-0.000367822
0.000286579
0.00211824
-0.00202209
8.68745e-05
-0.000938189
-0.000182476
-0.000796109
0.00172679
6.32783e-05
0.00105063
5.29407e-06
0.000674347
-0.000224432
0.000476092
-2.67126e-07
0.00363909
0.000446564
0.00366364
0.000458444
-0.00137986
0.000447202
-0.00068933
0.000406444
-0.00100001
-0.00477499
0.000681614
0.000643509
0.000212804
0.000365422
0.000906677
0.00262384
0.00228303
-0.00202659
-0.000327938
0.00308811
-0.00130242
0.000323008
-0.00304122
0.00135553
-0.000792579
-0.000988607
-0.00226548
-0.00109761
0.000747188
0.00136555
-0.00132629
-0.00126312
0.00476839
0.000987314
0.000441826
-0.00154551
0.000564819
-0.000672375
-0.00171934
0.00299395
0.000113423
-0.00217523
0.00232047
-0.000183968
-0.00149162
0.000501639
-0.000358561
-0.00170651
0.000506194
0.00405962
-0.000945612
-0.00016326
0.00361189
0.00409645
0.00216444
-0.00275347
0.00017046
-0.000591493
0.00136368
-0.00103896
-0.000834104
-0.00101702
0.00219896
3.64705e-05
0.00085686
0.000151426
-0.00124701
-0.000520263
-0.00181831
0.00279837
0.0010014
0.000729937
-0.00174246
-0.000365313
0.000503677
0.000104896
0.000320839
-0.00161586
-0.000994363
0.00191563
-0.00119012
-0.000335494
0.000522396
-0.00406456
-0.0021734
0.00111181
0.00533267
0.00110509
0.000211205
0.00156399
-0.00130984
-0.00292553
0.000501125
0.0039013
0.000208456
-0.00174055
0.0012797
0.000248845
-0.000574253
-0.00232563
-0.00131621
0.00319813
0.000391513
-0.00563665
0.00101838
-0.000878473
0.00010975
0.000864052
-0.000192337
-0.000346114
-0.00218282
-0.00254274
-0.000188684
0.00228041
0.00117226
-0.00321496
0.00469205
0.00121665
0.000826223
-0.00326083
-0.00201867
0.000557947
0.00074517
-0.00150021
-0.000217459
0.000801527
-0.00391082
-0.00168554
-0.00199691
-0.000255842
0.000417638
-0.000902823
0.000212144
-0.000884367
-0.000653651
-0.000485744
-0.00142011
-0.000176589
0.00149182
-0.00104906
0.00460066
0.000899105
-0.00188084
0.00129347
-0.00265475
0.00248301
0.000352305
0.000184083
-0.00030686
-0.00193349
-0.000313471
0.000650489
0.00109664
0.0023474
0.00226439
-0.00282939
-0.00283716
-0.00142958
-0.00113175
0.000245935
-0.000320086
-0.000911492
0.00157318
0.00170211
0.00164036
0.00388045
-0.0034335
0.000413858
0.00169231
0.000232861
0.00231879
-0.000534295
1.76928e-05
-0.00143736
0.00451806
0.000166919
-0.000953998
0.000481532
0.00301179
0.00345451
-0.00203714
-0.00075269
0.00165788
0.00267965
0.00139298
-0.00136348
0.000990823
0.000436246
0.00156579
0.00278973
-0.00202311
-0.000829066
0.000109571
-0.000125786
-0.00122052
0.00278582
-0.000958225
-0.00511143
0.00348952
-3.85197e-05
-0.000405318
-0.000574329
-0.000694284
-2.71396e-05
-0.0020494
-0.00143918
0.00338398
-0.000191003
0.000652383
-0.00018574
0.000617789
0.000162696
-0.000457847
-0.000759802
-0.00523466
0.0014007
0.000673253
0.00209445
0.00280588
-0.00223097
0.000121627
-0.001837
0.00247828
-0.00151618
0.00096521
0.000140752
0.00120614
-0.00118625
-0.000653738
-0.00248855
0.000413049
0.00300559
-0.00100608
0.000766036
-0.000297228
-0.00204824
-0.00218732
-0.00182296
-0.00130357
0.000809388
0.000171306
0.000592222
0.00118437
0.000775092
-0.000418919
-0.00350653
0.000533448
-0.000971809
0.00121848
-0.000551987
-0.000211346
0.00100633
0.000334932
0.00169782
0.00239541
-0.00192917
0.000377545
-0.000655067
0.00135419
-0.000238589
0.000139161
-0.000778625
0.00193899
2.82719e-05
-0.00382964
-0.000394509
0.000404663
-0.00387724
0.00173727
1.62668e-05
-0.00200591
0.00235459
-0.000793536
0.000636771
0.00185313
0.00108507
-0.000145978
-0.000731894
0.000734108
0.000389605
0.0031002
-0.000187846
0.00105071
-0.000644559
0.00504385
-0.000316846
-0.00200257
-0.000924777
-0.00120327
0.000685775
-0.000396868
0.00147484
-0.000469573
0.00132004
-0.0039239
0.000460104
0.00217516
0.000968071
-0.00201885
0.00183023
0.000745105
-0.000567172
-0.000815476
0.00149185
0.00259725
0.00240295
0.000964952
-0.00339224
-0.000702256
-0.00015861
0.000479528
0.000284916
-0.000636365
0.00110557
-0.0012609
0.00262811
0.000591474
-0.00140481
-0.00212318
0.000358244
0.000738465
-0.000237479
-0.000115874
-0.00330218
0.00207147
0.00160481
0.000614788
-0.000198621
0.000356806
0.00157502
-0.000768192
-0.001015
-1.0331e-05
0.00129783
-0.00204297
-0.00418713
0.00112639
0.000245306
0.000340622
0.000642364
0.00499881
0.000577371
0.00140611
0.000322705
0.0021161
7.47481e-05
0.000408318
0.00112256
0.00198103
0.00108016
-0.00079442
-0.000774676
0.00407936
-0.00273125
-6.44932e-05
0.00021039
0.00219205
-9.98133e-05
0.00582035
0.00309562
0.000694077
-0.000364729
-0.00188233
-0.0019201
0.00054712
-0.000404173
0.00145748
-0.00149654
-0.00116224
0.00144178
-0.000174242
-0.000551768
-0.00123854
0.00129301
0.00100531
-0.000598808
3.85753e-05
-0.000872911
0.00168122
0.00455846
0.00238601
-0.000428317
-9.55605e-05
-0.00276415
-0.00100265
0.000226213
-0.000177306
-0.00370782
0.000144881
-0.0015097
0.00189977
-0.00258097
0.000467568
-0.000400166
0.00192496
0.00132977
-0.000982859
-0.00215189
-5.2384e-05
0.000542159
-0.000223907
-0.000612891
0.000557409
0.000270149
-0.00417613
0.00505374
-0.00051016
0.00576198
-5.40818e-05
0.000439158
-0.000553612
0.00134331
-0.000954598
0.00104291
0.00547304
-0.00133541
-0.00246056
0.00164442
0.00196421
-5.6164e-05
0.00108308
-0.000155353
-0.000283172
0.000996321
-0.00302615
0.00131994
0.00224306
-0.00797455
-0.0002428
0.00129685
0.00131723
-0.00322178
-0.00177743
0.00188844
-0.000517813
-0.00214632
-0.0015216
-0.00321469
-0.00278137
0.00116244
-0.00344881
0.000494605
0.000700869
0.00152701
-0.00258837
-0.000693795
-0.00112472
-0.00153868
-0.000844871
0.00133786
-0.000184224
0.000713408
0.000592768
0.000613045
-0.00157515
-0.00164722
-0.000238788
4.41257e-05
-0.000318257
0.000725638
-0.00180071
-0.000622441
-0.000574509
-0.000535179
0.000254628
-0.000849293
-0.00060446
-0.000219105
-0.000726742
-0.00323711
0.000227327
-0.00184092
7.00587e-05
0.00207756
0.00289426
0.000546552
-0.00389431
0.000486724
0.000738141
-0.00264648
0.00159998
-0.000716235
-0.000937419
0.00206964
0.00161698
-0.00231281
0.00035747
0.00141092
-0.000218954
0.00458394
0.000409638
0.00262272
-0.00204132
-0.00147521
0.00299848
-0.00228395
0.00357451
5.28987e-05
0.000944995
0.000345176
0.00465656
0.00278747
0.000583023
0.00125472
0.00276472
0.000185157
0.000674987
0.00260712
-0.000662422
-0.000701611
0.00177846
0.00305562
-8.40828e-05
0.00205453
0.00562625
-0.000561103
0.00217051
-0.00397943
0.00149204
-0.00175149
-0.000237713
0.00201283
0.00174498
-0.00199129
0.000107466
0.00320603
0.00482395
0.00250887
0.000135443
-0.000368787
0.000996631
-0.000184169
-0.00251051
-0.00200427
0.00262631
0.00096617
-0.00205042
-0.00141815
0.00010295
-0.000683212
-0.00275127
-0.00206684
0.00240896
-0.00093118
-0.00427093
-0.00354788
-0.000280292
0.00169458
0.00120209
-8.389e-06
0.00292226
0.000512026
0.000891072
-0.000509591
0.00225484
0.00142821
-0.00201347
-0.00204804
-0.00125837
0.000532438
-0.000838184
0.00191113
-0.0013912
0.000985738
-7.30256e-05
0.00144124
-0.00118593
-0.000193531
0.00181039
-0.000955942
0.00150361
0.00102741
-0.00108859
-0.00372298
-0.000684407
-0.00265846
0.00171644
0.00159636
0.00121635
0.00260747
-0.00146738
0.00259334
-0.00275044
-0.000708336
0.00173822
-0.00123977
0.0034692
0.0018856
-0.000114304
-0.00050349
0.000500491
0.00446267
0.000132555
-0.00436298
-0.00243825
0.00333119
0.00824965
0.00148906
-0.00193772
0.00210919
-0.000636291
-0.00148711
0.000355565
0.00145843
-0.00265473
0.000880577
0.000990306
-0.0018611
0.00269756
0.00205046
0.00108576
-0.00136829
-0.00214355
0.00056691
0.0020816
-0.00180972
0.000520075
-0.00446475
-0.00320474
-0.00336891
0.000846929
0.000654446
0.00350388
0.00351886
-0.00167934
-0.00123326
0.00794808
0.00425636
-0.00217703
-0.00477646
0.00015901
-0.000732157
-0.00329324
-0.00126436
-0.00172452
0.00138043
-0.0019439
0.00184629
0.00142581
-0.00261694
-0.000662179
0.00180152
0.00114753
-0.000249001
-0.00620061
-0.00151085
-0.000758313
-0.000965011
-0.00069737
-0.00147978
0.00106111
-0.00194793
-0.00400664
-0.00293678
-0.00119104
8.8161e-05
0.00172317
-0.00381073
0.000480263
0.00205461
0.00263616
-0.00222915
0.000130831
-0.000430482
-0.00179853
0.0014554
-0.00194172
-0.000719841
-0.00258014
0.000409542
-0.000963734
0.000634876
0.000579582
-0.00112055
0.000180533
-0.00153598
-0.00330535
-0.00205577
0.00119791
-0.00130872
-0.00132184
-0.00227061
0.00501878
-0.00231817
0.00241523
-0.000935747
0.00303424
-0.00202859
0.00342054
-0.00269918
0.00285385
0.00207364
-9.52636e-05
0.00103955
0.000135481
0.000263841
-0.00192161
0.000430668
0.000625541
-0.00408607
-0.000243179
0.000357912
0.000922246
0.00123776
-0.00211214
0.00338563
-0.000393655
0.00437357
-0.00393015
0.00205161
0.00430778
0.0025658
0.00365223
0.000292892
0.00499734
0.00335859
-0.0028743
0.00438313
0.00228673
-9.01201e-05
-0.000241122
-0.00434053
-0.000262089
-0.000197617
-0.000293477
-0.000200726
3.93471e-05
0.00174423
0.00112425
-0.00198426
0.000220372
-0.00179234
-0.00430107
0.00196021
-0.00245489
-0.00310308
0.00202254
-0.0010237
0.00319016
0.00221463
0.00118987
0.000166742
-0.000308777
0.00351689
-0.00433736
0.000713933
0.00178447
-0.00125093
0.0012391
0.00286755
0.00150542
-0.000669931
2.48611e-07
-0.000561633
-0.00259613
0.000575445
0.00208306
-0.000161529
0.000532067
0.000588078
0.00428314
0.00176682
-0.00128484
0.00207359
8.99509e-05
-0.00188571
0.000649316
-0.000110209
-0.00113435
-0.00311052
-0.00249928
-0.00111244
0.00103514
-0.00281958
-0.000338294
0.00221555
-0.00211051
-0.00120464
-0.00092816
0.00403704
-0.00175446
0.00170967
-0.00450545
0.00560629
0.000489383
0.00428843
-0.00114255
0.00117691
0.00142239
-0.00218361
0.00110476
0.000472336
-0.00184166
0.000499997
-2.62949e-07
-0.00356632
-0.00331754
0.00164237
5.9807e-05
-0.00208625
-0.000742165
0.00181837
0.000592898
0.0014064
-0.000333575
0.00145235
-0.0016522
-0.00082454
-0.0011852
0.000299584
-0.000328657
0.000390421
0.00252733
0.00158899
0.000269301
-0.0013955
-0.000894999
-0.000999056
-0.00290222
-3.54372e-05
-0.00273244
8.35901e-06
-0.00321794
0.00662329
0.00118384
0.00398604
-0.000873393
0.00127365
-0.000920938
-0.00442661
0.00222413
0.00111442
0.00271974
0.000874592
0.00414003
-0.000880384
-0.0016634
0.00111842
0.00143723
-0.000644942
0.0016766
-0.00304535
-0.00121066
0.00255383
-0.000651334
0.00114752
0.000361983
0.000165668
0.00105718
0.00192566
-0.00174689
-0.000779974
0.00282272
0.000179784
0.00307348
0.000439695
0.000693485
6.66848e-05
-0.00134379
0.000147299
0.000903954
-0.00397039
-0.00284861
0.00215306
-0.000811258
-0.000882134
6.87024e-05
9.64882e-05
-0.00171011
0.00448877
-0.001441
0.00188838
0.00136154
0.00178041
0.000771464
-0.00102635
-0.00106043
0.00126734
6.3169e-05
0.00333412
0.00337067
0.00267255
-0.000353235
0.00362904
-0.00507638
-0.000901736
0.00283764
0.00190546
0.001837
-0.00147138
-0.000282205
-0.00181198
-0.0012917
-0.00330096
0.00201973
-0.00128274
-4.04656e-05
-0.00142492
-0.000231718
-0.00422512
0.00257932
-0.0023282
0.00203395
0.00136453
-0.00110092
0.00518179
-0.000235056
-0.000702764
0.000251137
-0.0019483
0.002862
0.000773197
-0.000992762
-0.000436251
-0.00189751
-0.000145209
0.000175691
0.00107056
0.00313884
-0.00347417
0.00128394
-0.00273501
0.000723358
0.00114854
-0.000590071
0.002581
-0.00457042
-0.000715205
-0.00298054
-0.00163688
-0.00121588
-0.000161372
-0.00423599
0.00124595
-0.00188274
4.12497e-05
-0.00159508
-0.000514499
0.00201362
0.00129488
-0.00125104
0.00275459
-0.00302963
0.000856993
-0.000725725
0.000891053
-0.00163438
-0.00301469
0.000916658
0.000113301
0.0016381
0.000948165
-0.00196568
-1.82938e-05
0.000949708
-0.00137537
0.00469386
0.00089296
-0.000250443
0.00158323
-0.00129405
0.00107406
-0.00143334
-0.000831196
0.00274761
0.00276567
-0.00086127
0.00432828
0.00516575
-0.000701632
0.00175767
-0.000870564
-0.000121898
-0.00416928
-0.00187684
-0.000938853
-0.000653533
0.00185594
-0.00242367
-0.000920139
-0.00140394
2.10108e-06
-0.000529471
-0.00122603
-0.00279271
-0.000363455
-0.00151132
-0.000482679
0.00555109
-0.00149828
0.00301032
-0.000745822
-0.000818936
0.00158906
-0.0040192
-0.000765104
-0.00517973
0.000120129
0.00110628
0.00127138
0.000692644
-0.000317596
-0.000723995
0.00142035
-0.00167979
0.00241948
0.000992735
0.00230609
0.00053091
-0.00110212
0.00271583
0.0023759
0.00353687
-9.52957e-06
-0.00453408
0.0016022
0.00188378
-0.000491306
-0.0021135
0.00199685
4.97135e-05
0.00432993
-0.00241212
0.000517874
-0.00191858
-0.00254231
0.000683128
0.000530559
0.000535758
-0.00228918
-0.000495926
-0.000974696
0.00111545
-0.000971181
-0.000701393
0.000813628
-0.00484498
0.00284373
0.00101604
-0.00156147
0.00484569
-0.000415925
-0.00259932
-0.00132975
5.09324e-05
0.00116111
0.00339694
0.00333828
-0.00240869
-0.00225196
-0.000272238
0.00211879
0.00122387
0.000745674
0.000231022
0.00286363
0.00273081
-0.000436778
0.00192545
-0.000859215
-0.00119952
0.00264556
-0.00193143
0.00107115
-0.00151443
-0.000790469
0.000423599
0.00285186
-0.00391407
5.28514e-05
-0.00129028
0.000245558
-0.000576101
0.000103346
-0.000404527
0.00199776
0.00393202
-0.00504278
-0.00169706
-0.00102007
-0.00122056
0.00203249
-0.0007152
-0.00216206
0.00460869
-0.00194013
0.001926
0.000746612
0.000287334
-9.30774e-05
0.000667175
0.00298967
0.00119236
-0.0010683
0.000466212
0.00259869
-1.42684e-05
-0.00441099
2.6474e-05
-0.000622927
-0.00228697
-0.00150148
-0.000712498
0.00106659
-0.00320771
0.000510379
-0.00355116
0.00305071
-0.000303438
0.00161554
-0.00131736
-0.000703821
0.00230166
-0.0015979
0.000350642
-0.000311962
0.00448143
0.00415912
0.00181501
-0.00202348
-0.00215894
-0.00124696
-0.00473207
-0.00156845
-0.00340858
-0.000416209
-0.000953369
-0.00124146
0.00026629
-0.00139012
-0.00618577
-0.000443372
-0.0027771
0.00351642
0.00216894
-0.00183067
0.00208745
0.00138356
-0.000759088
0.000990136
0.0044347
6.38298e-05
0.00344464
0.00513833
0.0015834
0.00201724
-1.26278e-05
-0.000801407
0.000296923
6.8913e-05
0.000681992
0.00341613
-0.000960415
-0.00145937
-0.00137063
0.000461921
0.000551978
0.00144436
0.00036586
-0.000231918
0.00322104
-0.00110387
0.00331188
0.000500538
-0.000793134
0.000458032
0.00165372
-0.00158616
-0.00226325
0.00418022
-0.000703117
0.000985412
-0.00416647
0.0016728
0.00399526
-0.00328423
-0.00200503
0.00327096
-0.00159684
-0.000392469
0.00139528
-0.00229766
2.42794e-06
0.000492418
-0.00455789
-0.00147115
9.23131e-05
-0.000183172
-0.00221671
-0.000130896
-0.000341281
6.18617e-05
-0.00218731
-0.00235374
0.0023497
0.000551266
0.0025387
-0.000731582
0.00191634
-0.000333733
0.000936696
-0.00111295
0.00155772
-0.00164618
0.00219476
-0.000147512
-0.00306147
-0.00482768
-5.01856e-05
-0.00095437
-0.00129202
0.00345827
-0.0023809
-0.00337672
4.50347e-05
-8.32959e-05
-0.00245079
0.00243362
0.00264982
-0.00101723
-6.61263e-05
-0.00242353
-0.0027368
0.00376861
0.00126105
0.00188067
-0.00208671
0.000454951
0.00157685
0.000114135
-0.00194827
-0.00250399
0.00179113
0.00242547
0.0026572
-9.3076e-05
-0.000366741
0.00244125
0.000449532
0.00581517
-0.000258899
0.00289069
0.000637519
0.00033173
0.00139335
0.00300529
0.00111133
-0.00166081
0.000685782
0.00200789
-7.07216e-05
0.00339096
-0.00371058
0.00110732
0.000779158
-8.85827e-05
0.000996559
0.000316692
0.00132502
-0.000789296
0.00191157
-0.000961785
-0.00237971
5.00324e-05
0.000984958
-0.00224954
0.00109266
0.0014913
-0.00312464
0.000804944
0.00217878
0.00187127
0.00108415
0.000881362
-0.000483259
-0.00142299
-0.000108692
-0.0009871
0.00103086
-0.00323725
0.00161966
0.00194855
-0.00053455
0.000937602
0.00158891
-0.00228436
-0.00137377
0.00511114
0.00236753
-0.000761988
-0.00102594
0.00175021
0.0040039
-0.00130367
-0.00167722
0.000963039
4.56664e-05
-0.000445328
0.00109386
0.00122927
-0.00182734
-0.0027932
-0.0034178
0.00428434
-7.16081e-05
0.000511283
-0.000736289
-0.00524413
-0.00284591
0.000820465
-0.00289321
-0.00383542
0.000258652
0.00246176
0.00132231
-0.0014468
-8.34414e-05
0.00642833
0.00423666
0.000143977
-0.000362656
0.00212944
0.000553762
-0.000963776
-0.00299613
-0.00436149
0.00252857
0.0033523
0.000485978
0.000277105
-0.00090023
0.00385056
0.00135945
0.00192439
0.00123979
0.00123626
-0.00122209
0.00270295
0.00484274
0.000598401
-0.00307184
0.000329766
-0.000975837
0.00219682
-0.00326521
0.00291465
0.00201279
-0.000127893
0.00198531
-0.0035393
0.00114096
0.00205281
-0.00161227
0.00257024
-0.000830928
-0.00172616
0.000519038
0.00102938
0.00341966
0.00263962
-0.00185011
-0.00168361
-0.000711106
0.000919124
-0.00173963
-0.00152996
-0.00372016
-0.00327676
0.00278066
-0.00317784
0.005576
0.00229204
0.00230686
-0.00578824
0.00124054
0.00259725
-0.000253704
0.00234193
-0.000438346
0.000372791
-0.00439002
-0.00486175
-0.00188051
0.00106969
0.000212908
0.000646818
0.00293442
0.00599967
0.00340452
0.000501478
0.000899487
-0.00155643
0.00209027
0.000332383
0.0028175
-0.000159496
-0.00536764
0.00254984
-0.001223
-0.000472175
0.00352121
-0.000424663
0.00124652
-0.00185278
0.00414149
-0.00266107
0.000487516
0.000122463
-0.00176961
0.00405599
-0.00117177
-0.000395733
-0.00139631
0.0031358
-0.0015041
-0.000846071
-0.0017086
-0.0031896
-0.000878177
0.000304517
0.00212705
0.00078319
-0.00181151
-0.000432888
0.00232271
0.00272501
-0.000508523
-0.00196433
-0.00105386
0.00396495
0.000115553
-0.000216117
-0.00180092
-0.0025053
-0.000827453
0.00121852
0.0040173
-0.000246506
-0.000560957
0.00379108
0.000819266
-0.00353846
0.000767807
0.00123671
0.000214489
-2.8249e-05
-0.00130691
-0.000953842
0.0032508
0.00334306
0.00292348
-0.00497091
0.0040908
-0.000280428
0.00126501
0.00606207
0.00197372
-0.0014666
-0.00426414
0.000593016
0.00471371
0.00181764
0.00105778
-0.00147592
0.00036529
-0.000152485
0.00239543
-0.00190513
-0.00116734
0.000455421
-2.43745e-05
0.00121521
-0.00183848
-0.000282354
-0.00289585
0.00144857
-0.00154667
0.0012936
-0.0017533
0.00129978
-0.000819116
-0.000125243
-0.00020193
0.000446485
-0.00472318
0.00301113
0.00466213
-0.00024511
0.00157536
-0.00069376
0.000234745
0.000491378
0.000584803
0.0032883
0.00204381
0.00134909
-0.000765744
-0.0042956
-0.00127945
-0.000575872
-0.000752368
0.00488071
0.00370359
0.00180758
-0.00104186
-0.00308053
-0.0044325
0.000662404
0.000468008
-0.00071498
-0.00186816
0.000958707
0.00107066
-0.00192077
0.000866946
0.00107651
-3.45418e-05
-0.00255289
0.00524671
-5.03499e-05
0.0030951
0.00145848
0.000812016
0.00157136
0.00020784
-0.00150773
-0.00268102
0.00780657
0.000408559
-0.000489682
0.00122127
-0.000800162
-0.000880245
-0.00262694
0.000352447
0.00188836
-0.00127786
-0.000559136
0.00105907
0.0033045
-0.000771978
0.0010681
-0.00228049
-0.00211672
0.000841073
0.000364678
-0.000459964
-0.00203882
0.00365264
-0.000961055
0.000246637
-0.000675579
-0.00153377
-0.000231887
-0.000564627
-0.001246
-0.00328459
-0.000821553
0.000847086
-7.79157e-05
0.00194635
0.00127912
0.000113672
-0.000454935
-0.00362946
0.00127888
-0.00164412
-0.000197275
0.00193418
-0.00218559
0.00134292
-0.00154266
0.00267605
-0.000112999
-0.000442204
-0.000611403
-3.44206e-05
0.00023857
0.00218208
-0.000133412
0.000476836
-0.000209359
0.000257892
0.000170056
0.000925233
0.00267567
0.000262414
-0.00149106
-0.00272406
-0.00150732
-0.00068008
0.00380543
-0.00202875
-0.00183437
-0.00110689
-0.00134873
0.0012333
8.41029e-05
0.00487549
0.000579402
0.0042972
0.00179986
-0.000171988
-0.00268059
0.00164486
-0.000575811
-0.00201513
-0.000625114
-0.000475455
0.00299823
0.00046114
-0.000612542
0.000318929
-0.000700649
0.00287558
-0.000119706
-0.00297754
-0.000612202
-0.000254879
-0.00336164
-0.000562891
-0.000280669
9.58277e-05
0.000224459
0.00213975
-3.15204e-06
-0.000421237
-0.00145501
-0.00389713
0.000641604
-0.00102928
-0.00131253
0.00377552
-0.00321443
-0.00233931
-0.00038344
-0.00031276
0.00111668
0.000621344
0.000189654
0.00300685
-0.00322205
-0.00178874
0.00169278
0.00411675
0.000301789
-0.000628406
-0.000275868
-0.00322628
0.00291228
0.00221449
-0.00424419
-0.00280373
0.00147918
-0.000266915
0.00282717
0.00384221
-0.00428605
0.00482039
0.00420515
-0.00122005
0.00152
0.00279405
-8.74169e-05
0.000811684
-0.000489386
-0.000980651
-0.00126272
0.00278615
0.00167607
-0.000624809
0.000433188
0.00113103
-0.000251694
0.00122722
0.00143511
-0.00079139
-1.45966e-05
0.00272943
0.00292553
0.000385839
0.00014426
-0.00216733
0.00168916
0.000933798
0.00338707
0.00348883
-0.00236446
0.00476269
-0.000553001
0.00255444
0.00140393
0.00153847
-0.000963838
0.00511838
0.00023789
-0.000438622
-0.00221594
0.000661072
0.00121149
0.000603207
-0.00211486
0.0038298
0.000814002
0.00312011
0.000705942
0.00507375
-0.00200154
0.0029203
-0.000651372
0.00114201
6.3711e-05
0.000692161
-0.00181822
0.000611373
-0.000573409
-0.0025444
0.000664346
-0.000859925
0.001504
-0.00284289
0.00151596
-0.000267784
0.000435784
0.00103051
0.00193733
0.00222073
0.000447963
0.000302886
0.00329099
-0.00581005
-0.000811797
-0.00239839
-0.00119137
0.00137138
-0.00148414
-0.00199545
-0.00104106
0.00215688
-0.000868718
-0.000123443
0.0034974
-0.00134205
-0.000461515
0.00129778
0.0022158
-0.00222957
-0.00072383
-0.000379197
-0.000917917
-0.00261982
-0.00292503
0.00229697
1.86617e-05
0.00158441
-0.000200087
-0.0011413
0.00301004
-0.00163329
-0.00140506
-0.000118708
0.00250037
0.00141054
-0.000577081
-6.35986e-05
6.00218e-05
-0.000394827
0.000101381
-0.000514305
-0.000228026
0.00300561
-0.000544946
-0.000269466
0.00120328
0.000659692
-0.00133353
0.00140455
-0.00190829
-4.33679e-05
0.000514097
0.00317943
0.00156862
0.00159857
0.000422733
-0.00239033
0.000433729
0.00290616
-0.00478737
0.00224996
-0.0004226
-0.00172466
-0.000179358
0.000949728
-0.00102963
0.000745517
0.000207614
-0.00178594
-0.00145442
-0.00230034
0.000287612
0.00196801
0.000900929
-0.000452654
0.00114762
-0.000522948
-0.00102078
-0.00360223
-0.00206835
0.000101375
0.0027864
0.00227928
0.00264805
0.000182814
-0.00303298
-0.000259561
0.00173397
-0.000547335
0.00177775
0.000143592
-0.00211996
0.00290496
0.000153635
0.0026385
0.00205112
-0.00254178
-0.00308319
-0.00143302
0.00427927
-0.000752794
-0.00136099
0.000387368
-0.000258426
0.00379287
0.00173028
0.000250476
0.00290819
-0.000277325
-0.00157686
-0.000629912
0.000779752
0.000823675
0.00115757
-0.000870499
-0.00171348
-0.000165113
0.000738554
-0.000283931
0.00351686
0.0017477
0.00142421
0.000349289
0.00115755
-0.00360174
0.00144955
-0.00435891
-0.000917194
-0.000250605
-0.00202471
-0.00251035
-0.00177202
0.00261483
-0.00110958
-0.000243243
-0.00198857
0.000989942
0.000195264
-0.00581309
0.00186679
-8.98726e-05
-0.00137402
0.000897953
-0.00123276
-0.0029153
0.000902633
0.00154013
0.00111844
-0.000929716
2.10858e-05
0.000652247
-0.000608953
0.00117536
-0.00186538
-0.000296622
3.24678e-05
0.00345776
0.000519388
-0.000197879
0.000862566
-0.000102388
-0.0018416
0.00053281
-0.00166434
-0.00130574
-0.00131548
-0.000741311
-0.00269116
-0.00415437
0.00505741
-0.00133146
0.00293809
-3.26353e-05
-0.000683054
0.000787549
-0.00205373
0.00160341
0.00134505
0.00174781
0.000481423
-0.00117344
0.000736747
-0.00102031
-0.00179673
0.0101037
-0.0021837
0.000764222
-0.00197553
0.000926952
-0.00140435
-0.00196279
-0.00029745
-0.00100607
-0.000350687
0.00122075
-0.000369853
-0.000901418
0.000156971
-0.00180074
-0.00105607
-0.000874945
-0.00357031
-0.00209226
-0.00114881
0.000192348
-0.000603263
0.00226767
0.000708409
-7.231e-05
-0.000111866
-0.00143789
0.00089989
0.000131007
0.00791419
-0.00112062
-0.0016163
-0.00139994
-0.00157384
-0.00146525
0.000523603
0.00102741
0.00236061
0.00319599
-0.00107795
-0.00625042
0.000354806
-0.000500706
0.000799419
-0.000164344
-0.00310444
-0.00135648
0.00127655
0.00084017
0.00266938
0.000728138
0.000898661
0.00422266
0.000838965
-0.000261598
0.00316671
-0.000368912
0.00228065
0.00165064
0.00215395
0.00456037
-0.000462527
-0.000708592
-0.00414143
0.00146083
-0.00115275
-0.000377324
-0.00105834
-0.000209175
0.00245934
0.0033649
0.000224223
0.000535431
-0.00127692
-0.00187534
0.00152272
-0.000185408
-0.00113772
0.0029685
-0.00419982
-0.000243582
0.00212672
-0.00125523
0.00132625
0.00389464
-0.0041956
0.00571695
0.000588673
-0.00429787
0.00116595
-0.00122588
0.00199988
0.00016232
-0.000280807
0.000329744
-0.00223468
-0.00423277
0.00175695
-0.00274491
-0.00125582
-0.000391144
-0.000409229
-0.000838232
-0.00212888
-0.00147813
0.000636618
0.00240291
0.00105741
-0.00137921
0.00101027
0.00284044
-1.09749e-06
-0.00103677
-0.000483548
0.000913948
-0.00219126
0.00106299
-0.00249036
3.48783e-05
-0.000410031
-0.00154986
0.00332259
0.000310821
-0.000963774
0.00282591
0.000900376
-0.00119445
-0.000993705
0.000227825
0.000213304
8.25388e-06
-0.00132005
0.00144592
0.00376906
0.000860751
-0.000271178
-0.00181568
3.23597e-05
-0.00310852
-0.00255408
0.00177081
0.000581147
1.76186e-05
0.00352803
0.000363616
0.00312182
0.00071887
0.00197547
0.000286837
-0.000354124
0.00292268
0.00223498
-0.00138001
-0.000887024
-0.000541176
-0.00124615
-0.00351118
-0.00172437
0.00168108
-0.00186616
-0.000542643
0.000652213
0.000179133
0.000319264
-0.00240386
0.0028636
-0.000312466
0.000442854
-0.000674143
-0.000392942
-0.00102009
-0.000740237
-0.000916113
0.00217922
-0.000790459
0.0024202
-0.00091502
0.000987352
-0.00183761
-0.00066942
-0.0022036
6.96012e-05
-0.00269853
-0.00052657
0.00399979
-0.00163273
-0.00163962
0.0034734
-0.00155802
0.0018966
-0.00190951
0.000133907
-0.00228243
0.00234262
0.000866624
-0.00288098
-0.000438044
0.000791207
-0.00108453
0.000423146
0.00368319
0.00148851
-0.00371557
-0.00113655
0.00193817
0.00076459
0.000560118
-0.00106325
-0.00118702
0.00213233
0.00542422
-0.00015073
0.00198304
-0.00122376
0.00369379
-0.000416533
-0.00381288
-0.00226306
-0.00154963
0.000854764
-0.000703675
-0.00282699
0.00206747
-0.00431681
-8.18384e-05
0.000660825
-0.000834258
0.00073888
0.00150073
0.00460831
-4.47278e-05
-0.00269171
0.000178478
0.000281311
-0.00121109
-0.000403857
-0.000472312
9.4799e-05
0.000823632
0.000267321
-0.00038136
-0.000784979
0.00228699
0.00410847
-0.00258868
-0.00248402
-0.001715
-0.00180034
0.00244859
0.000208166
-0.000352548
0.00293445
0.000939463
-0.00131954
0.000144279
0.00301351
0.000411455
-0.00230791
-0.000328859
0.00377878
-0.000209505
0.00145272
-0.00326462
-0.000904629
-0.00125736
-0.00173248
-0.00272996
-0.000429342
-0.00135491
0.00303918
-0.00128067
0.00387163
5.32511e-05
-0.00228679
-0.00078547
0.000591614
0.00150217
-0.00100528
0.000751849
-0.00212401
-0.000994883
-0.000398009
0.000693729
0.00255494
0.00124859
0.00256909
-0.0012542
-0.000322436
-0.000701698
-0.000773628
0.00434971
-0.000500583
-0.000716648
-0.00110747
0.00423784
-0.00261615
0.000192737
-0.00232455
0.000916088
-0.000204194
0.00236156
-0.0027175
0.0016401
0.00531011
-0.00163155
-0.000223849
-0.000711187
-0.00339885
-0.00177714
0.00131924
-0.00125067
0.00123908
-0.00143097
-0.00256077
0.000458457
0.0026626
0.000831277
-0.00130922
0.00201811
-0.00228889
-0.00182045
-0.00142969
0.00131365
-0.00112071
-0.000642217
0.00199961
-0.000625787
0.000339476
-0.00073262
-0.00131617
-0.003174
0.00248015
0.0019809
-0.00145226
0.000465167
-2.46845e-05
0.00180862
0.0021861
-0.00177921
0.00201254
-0.00412756
-0.00135838
-0.000363897
0.00204624
0.000187886
-6.20431e-05
-0.00206689
-0.00240801
-0.00117252
0.000981844
7.13259e-05
0.00145331
0.00069369
-0.000604046
-0.000450824
0.00411688
0.00277512
0.0012247
-0.000773949
-0.00149671
0.000237484
-0.000333998
0.000594893
0.000259488
-0.00027028
0.00108271
0.00132854
-0.00059322
0.00181518
-0.00100689
-0.00268736
0.00406164
4.93946e-05
-0.00193842
-0.00126863
-0.000665953
-0.000172698
-0.00259096
0.000896271
0.00275431
-0.00119154
0.00239082
-0.00155441
0.00370976
-0.000855496
0.00183195
0.00052844
-0.0017954
-0.00104601
0.00332943
0.0037793
-0.000157692
0.00149038
-0.000694428
0.000126807
0.000476944
0.00190887
-0.00173246
-0.0012646
0.00184421
0.00322359
0.00430465
0.00115598
0.000199828
-0.00111746
0.00309351
0.00273716
-0.0011428
-0.00340689
0.000384268
0.00209625
0.00248102
-0.000800372
-0.00181679
-0.00193096
-7.11004e-05
0.00136899
0.00141495
-0.00016239
0.00100309
-0.00011139
-0.000886486
0.000906277
0.00446622
0.000853721
0.000365423
-0.00211897
-0.00447779
-0.00303041
-0.00159227
-0.00298839
-0.00106623
-0.00319132
0.00332981
0.00218563
0.00169287
-0.000945535
-0.00136839
-0.00113257
0.000802832
0.000916247
0.000439508
0.000955582
0.00186184
0.000865146
-1.90326e-05
-0.000262497
0.00199926
0.00135168
-0.00227154
0.00338361
0.00203596
0.00130557
-0.0016634
0.000410927
-0.0015846
-0.00247646
0.000400776
-0.00181097
-0.00344853
0.000797182
0.000194728
-0.00574454
-0.000485618
0.000489546
-0.00116878
0.000902053
-0.000151527
0.00243038
0.00341078
-0.000792014
0.00156391
0.00205027
0.00320809
0.00511861
0.000189067
0.000552878
-0.000346035
-0.00180121
-0.00418238
0.00505005
-0.0004469
-0.000375142
0.00336475
0.0010347
0.000800927
-0.00115235
-0.00278842
-0.00085212
-0.000565391
-0.00231309
0.00135078
0.000569879
-0.000837845
0.000414575
0.000236208
0.000566008
0.00143758
0.000902322
0.00266655
-0.00122762
-0.00169067
-0.000671972
-0.0049779
0.000710157
-0.00364836
0.0004696
0.000219893
-0.000575339
0.000110139
-0.000318668
-0.00296708
-0.00182948
0.00309899
-0.00254729
-0.00198977
-0.0039898
0.00109487
0.00097136
0.00129573
-0.00506575
0.00137127
-0.000104861
-0.000565611
0.00165421
0.000374749
-0.000129114
-0.00304783
0.00229984
-0.00551613
-0.000186943
-0.00148865
-0.00441835
0.000652923
-0.00292149
-0.0022673
-0.000900247
0.00164243
-0.000909659
-0.00135862
-0.00119981
-0.000726851
0.00293006
0.00720501
-0.00163024
-0.000895947
-0.000501981
0.00340368
-0.00179309
-0.00230566
0.000372334
0.00175528
-0.000792761
-0.00435743
-0.00159661
-0.00109622
0.000190548
-5.2399e-05
-0.00188805
-0.00223092
-0.00150077
0.00165647
-0.000434671
0.00154049
-0.00110258
0.00026994
0.00202879
0.000674441
-0.00128389
-0.00123744
0.000693233
4.45768e-05
0.00186943
-0.000735829
-0.00146471
-0.000586418
-0.00241365
-0.00166266
-0.000176585
0.00181974
0.000813397
-0.00351019
7.52147e-05
-0.00266129
-0.00037654
-0.000785549
-0.00306752
-0.00134178
0.0063493
0.00147561
-0.00523189
0.0012181
0.000198423
0.000702082
0.00148185
-0.000312691
-0.000339136
0.00406459
0.000787738
0.00262649
-0.00201472
0.000899755
0.000110562
-0.00166353
0.000311837
-0.00177273
-0.000596422
-0.0046607
-0.000702955
-0.00110293
0.000561769
-0.000527443
0.00261218
0.000945092
-0.00219032
0.000884321
5.51155e-05
-0.00143201
0.00211677
0.00026017
-0.00079992
-0.000608054
0.00152874
0.00103312
-0.00141251
0.00214213
0.00042868
-0.00215662
0.00269199
-0.00486826
-0.00318075
-0.000475193
7.63333e-05
0.0049164
-0.000175055
0.00317597
0.00185478
0.000769903
0.00215935
0.00127844
0.00167076
-4.84611e-05
0.000157344
9.00457e-05
0.00190024
-0.000159183
-0.000725397
0.000342223
-0.0019002
0.0015221
0.000833739
0.00345024
0.000849812
0.00413919
0.00278984
-0.000767316
-0.00199686
0.00305344
-0.0013367
-0.000530328
0.00093415
-0.00065555
0.000994394
0.00651226
-0.00263722
0.000660431
