-0.000601609
0.000340421
0.00361187
-0.000324808
0.000363958
-0.000506199
0.00174696
-0.000943017
-0.0026312
0.00432612
0.000843452
-0.00227408
0.00182783
0.00152667
-6.38383e-05
-0.000325147
0.000430765
-4.57093e-05
0.0021465
-0.000401433
0.00106513
-0.00223548
-0.000827326
0.000816507
-0.000614139
-0.000107119
1.47561e-05
-0.000591123
0.00362262
-0.00314191
0.000569186
0.00311376
-0.000449906
0.000321595
0.00025772
0.00122227
0.0025169
-0.00222169
5.58169e-05
-0.00668091
-0.00242069
-0.00238828
0.000791498
-0.000575924
-0.00185027
-0.00143244
-1.80713e-07
-0.000522207
0.00156119
0.00190049
-0.00046932
-0.00306902
-0.00071485
1.63214e-05
-0.000432745
-0.00122213
-0.00207816
-5.77608e-05
0.000633484
-0.00241692
-0.00203425
-0.00149498
-0.000654223
-0.00305376
0.00089325
-0.000844069
-0.0017365
-9.93048e-05
-4.61794e-05
-0.000968784
0.00202874
-0.000328231
0.00225166
0.000638964
0.00205513
-0.0029144
0.00120047
0.00248183
-0.00164216
0.000940654
-0.00449094
0.0021669
0.00274316
0.00467893
0.00111059
-0.00179097
0.00188704
0.00144932
0.00552335
0.0027973
0.00214704
-2.52679e-05
0.00220319
-0.000962114
0.0026577
-0.00527516
-0.000121003
0.00217444
0.000467549
-0.000918014
0.00247717
-0.001305
0.000618224
0.00305683
0.000389558
-5.66167e-06
4.41995e-05
-0.00245651
-0.00139695
0.00123012
-0.0012619
0.000708311
-0.000315568
-0.00514756
-0.00067303
0.00174959
0.00181926
-0.00138759
-0.000286915
-0.00354152
-0.000592798
-0.00228169
-0.00107448
0.000441291
-0.00113017
0.00355849
-0.00091824
-0.000904587
-0.000790646
0.00601849
-0.00115313
0.00020638
0.00187165
0.000302783
4.45769e-05
0.00281526
-0.00350753
-0.00174689
0.00281869
-0.00550653
-0.000310662
0.000102892
-7.55709e-05
-0.00101464
0.000738974
0.000860094
0.00129886
0.00380353
-0.00303387
0.00304088
0.000395088
-0.0023012
0.00249909
0.000297928
-0.00243305
0.000814382
0.00274068
-0.000644507
0.00189486
0.00107756
-0.00134798
-0.00102941
-0.000364663
-0.00188863
-0.000402467
0.000838229
0.00167894
-0.000238297
0.00238072
-0.00265361
0.00278318
0.000267351
0.002433
0.00119162
-0.000303233
-0.000322549
-0.00562756
0.000342204
-0.00061909
0.00141407
0.00160175
-0.00263188
0.00160379
0.00139475
0.000682832
0.00066693
-6.46117e-05
0.00123238
-0.00145607
0.000171212
0.0040553
0.0012899
-0.00176143
0.000468138
0.000486774
-0.00231088
-0.00313805
-0.00149787
-0.000106521
0.00173452
-0.000602374
0.00576815
0.00379258
-2.44676e-05
-0.000777807
-0.000120922
-6.70821e-05
-1.36419e-05
0.000963424
-0.00117001
-0.00121522
0.00156598
0.00239339
-0.00200263
0.00121973
0.000371813
0.000354414
0.00471793
-0.000709212
-0.000788851
-0.00263022
0.00316903
-0.00108843
0.000721832
-0.00132222
0.00519599
-0.000419236
0.0027419
-0.00131495
0.00256773
0.00295391
-0.00087563
0.00333102
0.000591424
-0.00233226
-0.00292582
0.00048624
-0.00079589
-0.00104136
-8.25757e-05
0.00104485
-0.00219252
0.000975458
-0.00252039
0.0016627
4.7944e-05
0.000396337
-0.000723618
0.00167218
-0.000958971
-0.000403189
4.63205e-05
0.00171171
-0.00228098
-0.00206543
0.00304934
0.000473826
-0.000436298
-0.00154282
-0.00239817
0.00123936
-0.000342325
0.000305427
4.5792e-05
0.0002319
-0.000812217
-0.000412164
-0.0025666
-0.000958255
0.00175879
-0.00223974
0.00105276
-0.0016797
-0.00151466
0.000894994
0.00173381
-0.00201844
-0.00221248
-0.00197181
-0.00239201
-0.000515854
0.00715843
0.0010151
-0.000662269
0.00127467
-0.00162487
-0.00315578
0.000505155
-0.000901894
-0.000435246
0.00156097
-0.00037061
0.00307029
0.00203533
0.00106738
-0.00082241
0.00318397
0.000820016
0.000826702
-0.00159695
0.00122734
-0.000633701
-0.0022875
0.000881853
-0.00327441
0.0010271
0.00339643
0.00184842
-0.00316079
1.23184e-05
-0.00281441
0.000599404
-0.00223654
0.000833749
0.00128905
-0.00308365
-0.000249036
-0.000372945
-0.0020201
-0.00138929
0.00024663
-0.00282326
0.00293876
-0.00153446
0.00099254
-0.00163798
-0.00185735
-0.00127664
0.00123635
0.0015254
-0.00386762
-0.0021336
-0.000562686
-0.00234378
0.00115074
0.000464699
0.000434995
-0.000686254
-0.000667809
-0.00108102
0.002458
-0.000322085
-0.00165055
0.00177612
9.79012e-05
0.00118773
0.00231988
0.00431623
-0.00194647
0.000698785
0.00227524
0.00105802
9.5666e-05
-0.000781235
-0.000194657
-0.000416859
-0.00178483
0.00206145
0.000256166
-0.000246964
-0.000306437
-0.00121543
-0.00110515
-0.00278155
0.00077047
-1.38662e-05
-0.000598762
-0.00159734
-0.000766272
0.00200521
-0.000275583
-0.000815725
-0.00297094
0.000992009
-0.00209513
-0.00155171
-0.000811158
0.000167264
-0.00333187
-6.75963e-05
-0.00239888
0.00176538
-0.000817126
3.49975e-05
-0.000485685
-0.00117506
-0.000686341
-0.00104279
-0.00316125
-0.000232639
-0.00290581
0.00062521
0.00107953
0.00196664
-0.00152674
-0.000291512
0.00060126
-9.06249e-05
0.000714054
0.00559062
-0.00136599
0.00173305
-0.000292896
0.00122321
-0.00137012
-0.00195481
0.000255409
-0.00226176
-0.00110983
0.00049491
-0.00100889
6.20407e-05
-0.000900895
-0.000296432
0.00152887
-0.00229459
0.00310992
0.00388924
0.000776008
0.000124696
-0.00063752
0.000460037
0.000285739
-0.00182438
0.000463467
-0.000129813
0.000353234
-0.000829108
-0.00165432
-0.000470289
0.000129686
-0.000888329
0.000250194
0.00124845
-0.00134075
-0.000148618
0.000508303
-0.00124195
0.000904151
-0.00166728
0.00141445
-0.00242836
-0.00149681
-0.00117883
0.00285083
-0.0013168
0.000362648
0.000850633
0.000991463
0.00183253
0.000169967
-0.000206396
-0.00174583
0.000207728
0.00213595
0.000914243
0.000182968
-0.00126567
-0.000587604
0.000564317
-0.00219636
-0.00214541
-0.00149473
-0.00120343
0.00292912
-0.00108059
-0.00197198
0.00388997
2.11739e-05
0.00189168
0.000326366
-0.000517606
0.00153346
-0.00217211
0.000799248
-0.00359638
0.00211226
-0.000573178
-0.00123248
3.09031e-05
0.00179565
-0.000400077
-0.000389989
-0.00149638
-0.000510357
0.000629793
-0.00102401
0.00026834
0.000215269
0.000221074
-0.00302124
0.00157834
0.00312945
0.00218133
-0.00118577
0.000198714
0.000348442
0.000718494
6.49416e-05
-0.00387949
-0.00116474
0.00298655
0.000205269
-0.000272781
0.00156882
0.00066238
0.000734795
-0.00125109
-0.0024963
-0.000387448
-0.000481459
0.000888791
0.000118186
-0.00099311
0.000646373
-0.00152213
0.00163127
0.000951186
-0.0010596
-0.000612343
0.00207834
0.00169447
-0.00121695
-0.00110168
0.000645683
-0.000511926
-0.000978887
7.99544e-05
-0.00328752
-0.00192542
0.00101896
0.000420571
0.000655073
0.00108158
-1.52976e-05
0.00118564
-0.000528063
0.000895692
0.00105301
-0.00198325
-0.000496994
-0.000530918
-0.000995697
0.00242204
0.00103452
-0.00041743
-0.000648579
-0.00290864
-0.000321918
-0.00217843
-0.000828848
0.00487088
-7.72531e-05
0.00271256
0.00344851
-7.2149e-06
-0.00029308
0.00116687
-0.000344241
0.000146712
0.000898005
-0.00238883
0.000725892
0.000282023
-0.00318453
-0.00233653
-0.000915508
0.00574859
0.00135004
0.000106931
0.00276881
-0.00123089
0.000152013
-0.00488598
-0.000892895
-0.00142968
5.4369e-05
-0.00249029
-0.000685853
-0.000186242
-0.00119195
1.57582e-05
-0.000124827
-0.00154948
0.00251112
0.00130086
0.000117316
0.00407634
-0.00171963
-0.000350921
0.000934091
-0.00134993
0.000973955
0.003668
-0.000113843
-0.000486458
0.00146314
0.00172854
-0.00210649
-0.000375427
-0.000388204
0.0022631
-0.000481248
-3.53401e-05
-0.000130531
-0.000218481
0.00230843
-0.0018391
-0.000201964
-0.000534378
-0.000650827
-0.00348571
-0.00195268
-0.00122297
5.23871e-05
-0.000139893
0.00239148
0.00135245
-0.00267666
-0.004698
0.000212011
-0.000992868
0.000392835
-0.000644309
-0.00207534
-0.0025328
-0.000364494
0.000872837
0.000663194
-0.000486738
-0.000369439
-0.000562059
0.00162583
-0.000739573
-0.00225928
0.000213249
-0.00321423
0.000432847
0.00118993
-0.000518428
0.000375683
-0.00039167
0.000209821
0.000727959
0.000638527
0.000328099
-0.000268123
-0.00115787
-0.000866106
-0.00164694
-0.000403051
0.000980757
-0.000383731
0.000435372
-0.00159445
-0.00130176
0.00126024
-0.000400506
0.000280264
0.000326138
-0.001235
-0.00262258
-0.00319854
-0.00107075
-0.00325426
-0.00196086
-0.000673576
-0.0036146
0.00115859
-0.00017624
0.00333956
-0.00180718
-0.000936604
-0.000557836
0.00216152
0.00220214
-0.000193838
0.000181804
-7.21523e-05
-0.000720875
-1.27299e-05
0.0013487
0.00138147
-0.00115221
-6.49223e-05
-0.00168906
-0.000297276
0.000216412
0.00130157
-0.000863199
-0.00143345
-0.000523449
-0.000807585
0.000923882
0.000341882
-0.000564716
0.00150883
0.000571718
0.00114916
-0.00259495
-0.00219612
0.000538117
-7.80362e-05
-0.00245695
0.00105127
-0.00122467
-0.00157791
-0.0019363
-0.0020155
0.000326965
0.000829307
0.000962712
-0.000426737
0.00305563
-4.36013e-05
-0.00269426
-0.00220865
0.00174522
-0.000507537
-0.00102717
0.00154061
0.000425282
0.000316559
0.00104484
0.000679559
-3.86043e-05
-0.00131244
-0.000624914
8.44253e-05
-0.00205625
-0.00268198
-0.000973407
0.00233922
0.000764614
-0.00254006
-0.000639885
-0.00242092
-0.000102935
-0.00135228
-0.000442641
-0.00155408
-0.000409049
0.00114606
0.00151513
0.000617168
-0.00480347
0.0004642
0.00198567
0.000900055
-0.000526372
0.000421337
0.000449122
0.00282992
0.000944471
0.00148198
-0.000863859
-0.000462915
-0.00235724
-3.61984e-05
-0.000701051
0.000983267
-3.66603e-05
-3.03028e-06
-0.000347691
0.000132318
0.00215473
0.000641395
0.00340769
0.00154838
-0.00142351
0.00038
0.000141358
0.00174925
-0.000943212
-0.000579841
-0.000215436
0.00325124
-0.00170162
0.00217009
-0.00024323
-0.00101762
-0.0016026
0.000184082
0.00157919
0.000606967
0.000618305
-0.000842109
0.0016977
-0.000249894
0.000300825
-0.00163652
-0.00247943
0.00107445
0.000650036
-0.000929011
0.00121221
-0.000280493
0.00162397
-0.00157243
-8.88426e-05
-0.00096184
-0.000621953
0.000120634
-5.80842e-05
-0.000957832
-0.000840018
-8.66292e-05
0.000440327
-0.00166171
-0.00123153
0.00134292
-7.28623e-05
-0.00111708
-0.000931601
-0.00127373
-0.000434367
0.0039754
-0.000174327
-0.000333893
0.00305081
-0.000543388
-0.000669252
0.00227031
0.0004435
0.000141789
0.000471835
-0.00178454
0.00351351
0.00147807
0.000391442
0.00249444
-0.000177464
0.00186831
-0.00082224
-3.82253e-05
-0.000278254
0.00149082
0.000607971
-0.00289472
-0.000238866
-0.00145712
-0.000392082
0.00222301
-0.00294762
0.0020606
0.00135761
-0.000617978
0.0040212
0.00239808
-0.00113046
-0.000387063
0.00142795
-0.00253907
-0.000326337
0.00151131
0.000349416
0.00345348
0.000297054
-0.000799903
0.000123163
-0.00162837
-0.00549969
-0.00504007
-0.00109532
-0.000635018
0.00154687
-0.0018582
-0.000882409
-0.000592985
-0.00188115
0.000540864
0.00150913
-0.00246172
-0.000320402
5.83419e-05
-0.0038076
-0.00271764
0.000956057
-9.23077e-05
0.001476
-0.000824751
5.0178e-05
0.00102136
0.0036879
-0.000112626
-0.000176249
0.000279013
-0.000380059
0.000207469
0.000112922
7.13377e-06
-0.00138773
0.00157994
0.00120085
-0.00229238
-0.000221421
0.0015673
-0.000159494
-0.00228686
-0.00101189
8.61318e-05
0.0031349
-0.000265707
-0.00140573
0.00239498
-0.000967108
0.000523281
0.000347665
-0.000484301
0.00085437
0.000588628
0.00521439
-0.00103302
0.000754497
-0.000399112
0.00107937
0.00170335
-0.00225994
0.000801839
-0.000589903
0.00258146
0.000458988
-0.0014244
-0.000236681
0.000134986
0.000793558
-4.57872e-06
-0.00163456
-5.82481e-05
0.00242514
-0.0016208
0.00116626
0.00366392
-0.00200231
0.000649463
0.00289636
0.00189479
-0.000188385
0.00180457
-0.00090807
-0.00194767
0.000239151
-0.00051479
0.000425473
0.00222562
-0.00131226
-0.000803054
-0.000662758
0.00301895
0.000615994
-3.69031e-05
-0.00320945
-0.00102624
0.000222557
-0.00210208
-0.00307228
0.000153772
0.000895956
0.000528955
-0.000497009
-0.000533746
-0.000856516
0.000217384
-0.00232663
0.000698238
0.000798132
-0.004416
0.00522386
0.00122457
-0.0011306
-0.00115237
-0.000869382
0.000596305
0.000535687
0.000819921
-0.00518139
-0.000230853
-1.43316e-05
-0.00155701
-0.0012056
0.000443837
0.00127827
0.00254579
0.00286582
0.00052241
-0.00312977
0.000448403
-0.00133921
0.000707839
-0.000623878
0.00236212
0.0021406
-0.000424593
0.00029236
-0.000613225
0.00112742
0.000168221
0.00256411
0.00120706
0.00122562
-0.00179234
0.0037567
-0.00351416
-0.000461554
-0.0006402
9.19026e-05
-0.000295673
0.00118114
0.000691806
0.000447416
-0.00191527
0.000858863
-0.0001226
0.00061583
0.00105225
7.85406e-05
0.00179546
0.00105332
0.00219506
0.000245703
-0.000649858
0.000327806
0.00188864
-0.00141992
0.000824862
0.00130132
-0.000492931
0.000108628
-0.000457392
-0.00115184
0.00052826
-0.00118406
-0.00242962
-0.00142055
-0.002472
-0.00106998
0.00475082
-0.00130402
-4.97965e-05
-0.000315824
-0.00167474
-3.41592e-05
0.000165583
0.00430115
0.00119436
0.00140357
-0.000446535
0.0015619
0.00235477
0.00168237
0.00129676
0.00127481
0.000923073
0.00282417
-0.00163015
-0.000660124
-0.0032122
0.00225679
-0.00250346
0.00155824
-0.000156857
0.00400271
-0.00182786
-0.000543172
-0.00180815
2.8533e-05
-0.000119455
-0.000384653
-0.00112973
-0.00147754
-0.00252084
-2.96673e-05
0.000976909
-0.00161914
0.000226882
-0.00163671
0.0038012
0.00246327
0.000318888
0.00422671
3.70118e-05
0.000148509
-0.000447905
-0.000479535
-0.00114707
-0.00111608
0.000287439
-0.0013702
0.00187211
-0.0002075
-0.000616796
0.0036465
0.00167622
0.0059717
-0.00290806
0.00221881
-0.000282124
-6.70456e-05
0.00145612
0.000360667
0.00382336
0.000724827
0.00209782
0.00274731
0.00190359
0.00227879
0.000377371
0.00166786
-0.000744427
-0.00222423
0.00149143
0.000871643
0.00231499
0.000605482
0.00261042
0.000888689
0.00299143
0.00143181
-0.00117644
-0.000393431
0.00194306
-0.00289886
0.00209936
0.000745247
-0.00138062
0.000242137
-0.000547959
0.00169313
0.000365399
0.00278695
0.000799567
0.000988433
0.000793239
0.000590071
0.00437399
0.000813462
0.00284855
0.00293126
0.0015018
0.00122881
0.00172951
-0.00110544
0.00139764
0.000465097
-0.000978939
0.000485587
-0.000653644
-0.00205634
-0.000601651
0.00302597
0.00201927
0.000981174
-0.000842453
-6.85391e-05
-0.00172119
0.00236229
-0.00102331
0.000526032
0.00109645
0.00047769
0.000634898
-0.00102988
-0.000445682
-0.00223127
0.000497326
0.000668404
-0.000842539
0.00314323
0.000658929
-0.0023639
0.00276918
-0.000778535
-0.00144253
-0.000726236
7.10724e-05
-0.000986814
-0.000196776
-0.000524653
0.00219657
-0.000583555
0.00109855
-3.8641e-05
-0.00263658
0.00294201
0.000289484
0.00200575
0.000757934
0.000638175
-0.000421924
-0.000462462
-5.00472e-05
0.00151643
-0.00106787
0.00111761
0.000156071
-0.00105928
-0.00145788
-0.00076719
0.000795706
0.000577725
0.000226216
0.00214027
-0.000486113
0.000656118
0.00105018
-0.000473665
-0.000798124
0.00222996
0.00167197
-0.000542857
0.00103018
-0.00204197
-0.000932672
0.00106768
0.000422011
-0.000542826
-0.00141832
-0.00154376
-0.00317328
0.00308379
0.000536325
-0.00194704
-0.000328875
0.00284368
0.00155058
0.00161211
-0.000130072
-0.000405997
-0.000913562
-0.000306083
-0.00239106
0.00119538
0.00119108
0.000443234
0.000615553
-0.00173031
0.000113082
-0.000876254
-0.000927927
0.00112206
-0.000732865
-0.000484562
0.000739589
-0.00232695
0.00018993
0.000225621
0.00277926
-0.000824404
-0.00122554
-0.000406549
0.000440109
0.00240404
0.00105058
0.0019734
0.00167165
-0.00187328
0.000552753
-0.00192371
9.23711e-05
-0.00307011
-0.00171539
-0.002973
0.000520216
-0.000932885
-0.000749037
0.00140263
0.00221376
0.000751378
0.000879709
-0.001232
-0.00107359
0.000333578
0.000254049
-0.000206419
0.00197
0.000799207
0.00140233
0.000514264
0.000230125
-0.000203697
0.00210744
2.42133e-05
-0.000781527
0.00162831
-0.00594982
0.00435776
-0.00107854
0.000459306
-0.000270771
0.000269609
0.00036255
0.0023043
-0.00243775
0.00227939
-0.000213781
-0.000363489
2.08378e-05
-0.00187011
-0.000226496
-0.00204988
0.00145445
-0.000385574
-0.000383157
-0.00458189
-0.00363954
0.00297818
0.00126556
0.000409871
0.00419986
-0.000601219
0.000322626
0.00147111
-0.0023957
0.00146973
-0.002417
-7.11609e-05
0.00175341
0.00133162
0.00251968
-0.00144949
0.00127583
-0.0024
0.000421509
0.000805845
0.00626335
-0.00150524
0.000390483
0.000391258
0.00156165
0.00171767
0.000384281
-0.00301882
2.94487e-05
0.00101862
-0.000182742
-0.000413995
0.00192329
0.00199476
0.000832797
-0.00143198
0.00123146
0.00129529
0.00198237
-0.00377736
-0.000939563
0.00253011
-0.000547987
6.98374e-05
0.00378973
0.000580564
0.00171983
-0.000648658
-0.000520268
-0.00297709
-0.0037822
-0.000975548
-0.0019189
0.0031289
0.000536123
-9.14128e-05
-0.00384867
0.00331412
-0.00123582
0.00220192
0.00462569
0.00119067
0.0033349
0.00518116
0.000722776
-0.00184976
-0.000775682
-0.000928191
0.0011221
0.00144231
0.000957943
0.000237015
-0.00197039
0.000421804
0.00269551
-0.00146525
-0.000421011
0.00353723
-0.00294257
0.00689079
0.00332111
0.000446774
0.00273191
0.00134746
0.00252304
0.00284406
0.00339706
-0.000495137
-0.00338994
-0.00306892
-0.00116079
-0.000418122
0.00120316
-4.03022e-05
-0.0016763
0.000753187
-0.00427587
-0.00147173
0.000473869
-0.000311901
-0.00053871
-2.29343e-05
-0.000758072
-0.00174152
0.0045983
0.00200109
0.000208432
-0.000241824
0.00180314
3.37995e-05
-0.00129824
0.00150845
-0.00308354
-0.000240651
0.000106667
0.000142162
1.53729e-05
0.00176698
-0.00152928
-0.00114365
-0.000613062
0.00286718
-0.00369802
0.000141271
0.00230968
0.000554029
0.000612683
0.00375068
8.58657e-05
-0.00175978
0.00327508
0.000365008
0.000981545
0.000146562
0.0021987
-0.00172787
-0.000147516
-0.00290135
-0.000946215
-1.88401e-06
-0.00299008
-0.0012537
-0.00244965
0.00126825
0.00171293
-0.000606609
-0.00443273
0.0030577
0.000787016
0.00139807
0.0035945
0.000767161
0.000624495
-0.000338795
-0.00204968
0.0040118
-0.00036742
-0.00029207
-0.00100728
-0.00284305
-0.00318088
-0.00246928
0.00192713
0.00210167
0.000508767
-0.00388423
-0.00199746
-0.00233968
0.00302993
0.000645473
-0.0025853
0.00162213
0.000606962
0.00126228
0.00714545
-0.000273918
0.00404055
0.000564005
0.00146574
0.00207931
0.000246198
-0.000863209
-0.00107741
0.00293239
0.00105356
0.00274716
-0.00103639
-0.00389618
-0.000291019
0.000191778
-0.00396554
-0.000430099
0.00113975
2.6557e-05
0.00109029
-0.000705947
0.00184035
0.00079073
-0.00115173
0.00151776
-0.000648281
-1.02996e-05
0.00172036
-0.00267157
-0.00269373
0.00116474
-0.000463541
0.000380162
-0.0013802
0.000647927
0.00165762
-0.00173279
0.00110235
-0.001267
0.00229076
-0.00244281
-0.00368322
4.60187e-05
0.000101232
-0.000118597
-0.000101679
0.00256416
-0.000840267
0.000313985
0.00148221
-0.00140584
0.00053435
0.000796281
0.00104377
0.000316565
0.00231454
0.00113077
0.0017172
0.00532665
0.00178286
0.00241791
0.000936556
-0.00111672
-3.67329e-05
0.0010454
0.00126644
-0.00127083
-0.00316094
0.00258934
0.000768313
-0.000530714
0.00190844
0.000759624
0.00139252
0.000193793
-0.0029225
0.00226871
-0.00163897
-0.00127966
0.000270692
-0.00337414
-5.53837e-05
0.00241759
0.000843344
0.00123976
0.000315565
0.00302239
0.00186729
-0.000621866
-0.000584859
0.00207505
0.00333188
0.00157983
-0.000914692
-0.0016507
0.00111244
-0.00100037
-3.76899e-05
0.000804244
0.00106896
0.00276402
0.00468499
-0.000222964
-0.000941411
0.000756633
0.00156155
-0.000337913
-0.000379652
0.00127869
0.000305762
0.000574434
0.00385722
0.00151365
-0.00112784
-0.000231363
2.44469e-05
0.00219739
0.00108367
-0.00141126
-0.000919283
0.00206128
-0.00154655
0.00153826
0.00115013
0.00335748
0.000717709
0.00197824
-0.00207348
-0.000254771
-0.000547052
-0.000224045
-0.000606525
0.00386499
-0.000458848
-0.00070347
0.00349906
0.000725537
0.00153865
-0.00062245
-0.00103666
0.00320823
-0.000451136
0.000219875
0.00116224
0.00089388
0.000687357
-0.0058728
-0.00179988
0.000463883
-0.000213371
-0.00293371
0.000506012
0.000672443
-0.000386301
0.000159027
0.000749662
0.000253717
-0.00304825
3.3795e-05
-0.000416598
0.00225482
-0.0027079
-0.00102479
-0.000447409
0.00217333
-0.00125856
0.000186461
0.00225349
0.00196007
-0.00219035
0.00173347
0.00192444
-7.78981e-05
0.00133454
0.00171682
0.0009175
0.000519952
-0.0023348
0.00362729
0.00125255
0.00166003
0.000968843
-3.1528e-05
-0.000145676
0.00341047
0.000211666
0.000134428
-0.000217919
0.00210491
0.000758667
-0.000796237
0.000136902
0.000980705
0.000585615
0.00169926
-0.00113508
-0.000297381
0.000391701
-0.00156736
0.00143219
0.000369727
-0.000670324
0.000660013
0.00176826
0.000249754
0.000978309
-0.000796521
0.000241623
0.000971283
0.000793501
0.00381458
-0.00209255
-0.0019253
0.000512342
0.000129611
-0.00164909
-0.00158247
0.00223848
-0.000329417
-0.000399943
-0.00156153
-0.00117149
-0.000193204
0.000463596
-0.00147189
-0.00223073
0.0013608
0.0025172
-0.000341117
-0.000290567
-0.000535875
-0.000282875
0.00102188
-0.000110793
0.000772727
0.00117332
-0.000126328
0.000954911
-0.00190728
-0.000452813
0.000136411
0.00250449
2.83667e-05
0.00129003
-8.24281e-05
0.00129566
0.000184443
0.0017258
0.000731446
0.000474172
-0.000209487
-0.00159763
-0.00135352
0.000812735
0.00525292
0.0021019
-0.00040858
0.0012097
-0.00103128
-0.000913834
-0.000364948
0.00116062
-0.00014836
0.00012719
0.000811879
0.000286959
0.000268352
0.00164531
-0.0012241
1.8846e-05
0.000553937
-0.000551803
-0.00159799
0.000536664
0.00264711
-0.00173326
0.000909267
-0.000350102
0.00391192
-0.000941148
-0.00198315
-0.00133071
0.000188576
-0.00181071
4.5312e-05
-0.000560476
0.00172897
0.000853325
-0.000811063
0.00227976
0.000338742
0.00208454
0.00133982
-1.02274e-05
0.00243848
0.000982812
5.84926e-05
0.000512141
0.000653281
-0.000930547
0.000179609
0.00235029
0.000908989
-0.000754303
-5.48154e-05
0.00129181
0.00169304
0.00175273
-0.000422058
-0.00391837
7.83783e-05
0.000396585
0.000253989
-3.27056e-05
-0.00129236
1.93823e-05
-0.000957472
0.00043123
-0.000281924
4.71341e-05
0.00367419
-0.000615243
4.81143e-05
0.00220565
-0.000294811
0.00120836
0.00179749
0.00243173
0.00129951
0.00194812
0.00713695
0.00180298
0.00167037
0.00163665
0.000508991
0.000793164
-0.00156968
0.00089634
-0.000316721
0.00232854
0.000520389
-0.00105153
0.000179784
0.00243685
0.00095592
0.0025558
-0.000514649
-0.00198675
8.32728e-05
-0.00230704
0.00107801
-0.00337033
0.00618009
-9.94116e-05
-0.000861584
-0.000746803
-0.000169956
0.00131494
0.000531763
-0.00125874
-0.00320183
0.000855277
-0.00198236
-0.0020896
0.000684799
0.000299702
-0.00182171
0.00105663
0.00240396
-0.00142743
-1.33262e-05
-0.000965722
8.97382e-05
0.00237582
-0.000598708
0.000106189
-0.00494426
0.00845434
0.00312406
-0.000834397
0.000390049
-0.00056801
0.000466968
-0.00183333
0.000851098
-0.000858311
0.00340047
-0.000558077
-0.00198599
0.0027651
-0.000352702
8.36183e-05
0.00117947
0.0016023
-0.00144506
-0.00250745
-1.30509e-05
4.98627e-05
0.00233304
-0.000803304
0.000715752
-0.00103648
-0.000558581
0.0039669
-0.000313321
0.000780646
-0.00135554
-0.000938917
-0.00221723
0.00085726
-0.00134135
-0.00133759
0.00338975
-0.000211178
-0.000779723
-0.000733306
-0.00121188
0.00165101
0.000610224
-0.0008936
7.81437e-05
0.00217655
-0.00195014
-0.00160647
-0.00177768
-0.00128471
0.00212318
-0.00110979
0.000413092
-6.8994e-05
0.00130016
0.00587365
0.00144438
0.00197849
-0.00155721
-0.00142977
0.00268383
0.00210193
-0.00143432
0.00139318
0.00176089
-0.00155181
-0.000608777
0.000962196
0.000943351
-0.00398796
-4.23186e-06
0.000704195
0.000830556
0.000922619
0.00010526
-0.00191273
-0.00412496
-0.000618476
0.00028629
-0.00208482
-0.00233998
-0.000293552
-0.000204563
0.00108126
-0.000764998
0.00541084
0.00332735
0.00114133
0.00283656
-0.000975647
0.0016648
-0.00160873
0.000226523
-0.00136654
0.00205959
-0.000157097
-0.000662732
-0.000410509
0.00421094
0.000451911
-0.00087837
-1.13294e-06
0.00209544
-0.00125397
-0.000580984
0.00315454
-0.000862775
0.000723814
0.00141165
-0.000790802
-0.00122778
2.10508e-06
0.00151447
-4.94089e-05
0.00208061
-0.0014838
0.000897978
0.000471136
0.00142625
-0.000878935
-6.5775e-05
0.0046027
0.00279329
-0.000633234
-0.00133133
-0.004875
-0.000867292
0.00207468
-0.00093712
-0.000944309
-0.00366893
-0.0039613
-0.000401262
0.000347587
-0.000509671
-0.000638245
-0.00015269
-0.000881105
-0.00109361
0.00331654
-0.00212404
-0.000261925
0.00351835
0.00225946
-0.00262067
0.00453749
0.000735527
0.00340547
-0.00392542
-0.00118752
0.000801539
0.00102383
-0.00184901
0.00127689
-0.00053446
0.000863529
0.00485787
0.00290144
-0.000227383
-0.000289114
0.000476979
-0.000745206
-0.0014191
-0.00112023
0.000473717
-0.00104993
0.00606757
0.00175883
0.00052768
-0.00172645
0.00105208
-0.000588336
-0.00850074
-0.00186449
-0.000678953
-0.000537088
0.00302159
-0.00148242
0.00779773
0.00143091
-0.000295958
0.00499189
-7.46064e-05
-0.0010659
8.87936e-05
0.00193955
-0.00327575
-0.000488888
-0.000954102
-0.000167904
1.09696e-05
0.00166242
-0.00149352
-0.000177286
-0.00249703
-0.00408884
-0.00177847
0.0012051
-0.000511309
0.000932489
-0.00280193
-0.00445311
-0.00284657
0.00231493
-0.000453891
9.79466e-05
0.00153259
0.000350698
-0.00520743
-0.00205767
0.000499555
-0.000888314
-0.00228956
0.000286038
0.00133638
-0.0023937
0.00326311
0.00103663
-0.00354474
-0.000544703
-0.00024177
0.000100265
-0.000492156
-0.000292635
0.00268898
0.00226753
0.000590519
-0.000275964
0.0016384
0.00351102
0.00355249
0.000183829
-0.00171575
-0.00107912
-0.00186503
0.00233437
-0.00112971
0.00105279
-0.00139619
0.00209347
-5.09084e-05
-0.00141697
0.00323338
-0.00125527
0.0017961
0.00203052
0.00162333
-1.25327e-05
0.00211025
0.000183963
0.000992361
-0.00188493
-0.00221468
-0.00256518
-0.00161259
-0.000203031
-3.75492e-05
0.00303155
0.00279639
0.000454582
-0.000891346
0.00230924
0.000956464
0.00043996
0.00166941
-0.000420539
-0.000336473
-0.000522617
-0.000760008
0.00436246
-0.000957087
0.00112803
-0.00116918
-0.00198373
-0.000293891
0.000677744
-0.000239184
0.000622682
-0.000104973
-0.000110363
-0.00107191
0.000342811
-0.000836631
0.00157637
-0.000185603
0.000768108
-0.00117414
-0.00110986
0.00209537
0.00157833
0.00660525
3.50941e-05
-0.0014108
0.000349874
0.00241893
-0.000271283
-0.00388892
-0.00575471
-0.00248336
0.00111408
-0.0011516
0.00211259
-0.000164774
-0.000547014
-0.000429123
-0.002006
0.00334479
0.00237771
0.000532899
0.000743863
-0.00153574
1.22892e-05
-0.000597875
6.44954e-05
0.000117013
-0.00133417
-0.000511438
-0.00193246
-0.000164077
0.000739481
-0.000649324
0.000386483
0.000773151
0.00149859
0.00180422
0.00060589
-0.00245676
-0.000629369
0.00123736
-0.00056717
-0.00135311
0.000682298
0.000353505
-0.00360557
-0.00111174
-0.00144196
0.00038392
0.00141053
-0.000119855
0.000191698
-0.000450804
-0.00505464
-0.000737979
0.00363945
-0.00375499
0.00408955
-0.000125706
0.00098477
0.00125526
0.00231614
0.00107524
0.000169494
-0.000178599
0.00431601
-0.00287671
-0.000206413
-0.000636795
-0.000294198
-0.00031563
-0.000153694
0.000254294
-0.000871062
-0.00204621
0.00123455
-0.0004355
0.00210008
0.00122292
0.0015863
0.000935208
-0.00561077
0.00156137
0.000605879
-0.00185015
-0.000648495
-0.000186247
-0.00354648
3.39373e-06
0.00251532
0.00139798
0.00192355
0.00277044
-0.0021392
0.00248359
0.00281477
-0.000164497
-0.00085279
0.000804714
0.00100452
0.00015475
0.00474489
0.000658878
0.000244034
-0.00161529
-0.00150356
-0.00296845
-0.000697917
0.0025419
-0.00146481
0.00117807
0.00816558
-0.00260799
0.000815071
0.00196584
0.000516543
-0.00145512
-0.000301995
0.0021008
0.000816432
0.00202501
-0.00185649
0.00259397
0.00015594
-0.000436226
0.000349285
-0.0011375
5.46682e-05
0.00103625
-0.000723472
0.000449029
-0.000153034
0.00255434
0.00109051
-0.000996433
-9.35746e-05
-0.00103102
-0.00213358
-0.000793955
0.00185621
-0.00361995
0.00063682
-0.000494596
-0.00202579
-0.00143084
-0.0059932
-0.00533873
0.000729245
-0.000700781
0.000473236
-0.000142804
-0.00201666
-0.00218963
-0.000735762
-0.0012246
0.000409825
-0.000626582
0.000418822
-0.000765579
0.00151555
0.00226425
-4.54402e-05
0.00218919
0.000463563
0.00102087
-0.00158215
-0.000716467
-0.00101116
-0.00112264
-0.00196482
-0.00102227
-0.000163119
0.00031096
0.000615612
0.000436808
-0.00204203
0.0030942
-0.000896612
-0.000687794
0.0004575
-0.00133851
0.00194513
-0.00340657
0.00222406
-0.00423812
0.00332842
0.000212071
-0.00071879
0.00020231
0.00149866
-0.000694102
8.90178e-05
-0.000179323
-0.000598254
-0.00083386
-0.000186557
0.000422625
0.00181834
-0.000328183
0.000288501
-0.0011918
-0.00191235
0.000409976
0.000304129
-0.000261156
-0.00138714
0.000727001
-0.000269664
-0.00293013
-0.0030213
0.000285112
0.000632991
9.70522e-05
0.00481455
0.00198284
0.00158232
0.000802331
-8.19049e-05
5.8627e-05
2.68748e-05
0.00826638
0.00160097
0.000945289
0.00260219
-0.000687083
0.000993772
-0.000573572
0.00387103
0.000749157
0.0037117
-0.000997745
0.000348825
-0.000633669
0.00371329
0.00119957
0.00138868
0.00314025
-0.00152346
-0.000991384
-0.00126654
0.000780741
-0.000712894
0.000312543
0.000824138
0.00279174
0.000729651
4.46421e-05
-0.000123544
0.000307936
0.000585202
-0.00275637
0.00207042
-0.000683876
-0.0005162
-0.00216243
-0.000881586
-0.00352124
-0.000425294
0.00218645
-0.00037145
0.000647579
0.000744279
-0.000262435
0.00118416
-0.00222453
6.23288e-05
0.00101578
-0.000478334
-0.00102037
0.00299543
-0.000418106
0.00167545
0.000573164
-0.0010949
-0.000376555
0.0035946
-0.00227125
0.00494611
-6.02154e-05
-0.000377474
-0.00134559
0.00081613
-0.00100485
1.01161e-08
0.000442225
-0.00137908
0.00433128
-0.00341337
0.00167313
0.000398309
0.00238748
-6.75928e-05
-0.0039008
-0.000962536
-0.00103892
-0.000396439
-0.000397081
0.00176133
-0.000111554
0.000540974
0.000461455
0.00116481
-0.00171946
0.00116944
0.00166997
-0.000874534
-0.00171205
-1.96888e-05
-0.00154131
0.00013884
-0.00105467
-0.00166815
0.00172772
-0.0003574
0.00348013
3.64453e-05
-0.000448648
0.00238877
0.00482777
-0.00149376
0.00182781
0.00145792
-0.00108217
0.000109433
0.00685717
-0.00120209
0.00191945
-0.00244732
0.000336087
-0.0023028
-0.000607991
-0.00113712
-7.77651e-05
0.000946174
-0.000682775
-2.39658e-05
0.000401593
-0.000307453
0.00138833
-0.000645096
0.00223693
-0.000482733
0.00066131
-0.00238361
0.00172109
-0.00150508
0.000223435
-0.00320816
-0.000815153
0.00191422
0.000226351
0.000333629
-0.00597427
-0.000116068
0.00154906
-0.00047414
0.000653247
-0.000559258
-0.00132652
-0.000612975
-7.88308e-05
-0.00147559
-0.000481291
0.000203924
0.00328529
-0.00223332
0.0042115
-0.000480837
-0.000570232
-0.00128744
-0.00117598
-0.000415428
0.0013004
0.000132318
-0.00105893
0.00211181
-0.00239231
0.000720226
-0.00329216
-0.00261538
0.00237668
-0.00353257
0.00107777
0.00045206
-0.000788463
-0.00238573
-0.00341519
-0.000403755
0.000870661
0.00334207
9.92596e-05
0.00143599
-0.0014169
-0.00131146
-0.00264215
-0.000713949
0.0040241
-0.00121493
-0.00183832
-0.000724301
-0.0012611
0.00108496
-0.00269117
-0.00262951
-0.00156807
0.00126799
0.000734174
-0.00150652
-0.000439559
-0.000325417
0.000573047
1.14795e-05
-0.00186304
0.00159587
-0.00195499
0.00129371
-0.00144165
-8.70505e-05
0.00036254
0.000532085
-0.000410488
-0.000339892
-0.000424081
0.000509279
-0.000486428
-0.00092026
0.000134198
0.00020572
-0.000382618
-0.00311832
-0.000395181
-0.00061846
-0.00125696
-0.00407884
0.00283322
0.000178028
0.000335013
0.000696057
-0.00175258
0.00178231
0.00132643
-0.00336895
0.00279507
0.000328319
-0.000237243
0.0019039
-0.00106594
0.00103455
0.000377352
-0.000142006
-0.000764003
-0.001345
0.000870363
0.00213612
-0.000695516
-0.00128832
0.00124534
-0.00127303
-0.00108762
-0.00119951
-0.00113931
-0.00107501
0.0020173
-0.000285477
-0.000332714
0.000755455
-0.00161666
-0.00174645
-0.000437194
0.00042738
0.000445634
0.00078356
-0.00298754
0.000830183
0.00263496
0.000511246
0.00209844
3.05181e-06
-0.00312598
-0.000253637
-4.97524e-05
0.00315912
-0.0012745
-0.000221103
-0.00164391
0.000533008
0.00160872
-0.000450537
-0.000982869
-0.00145252
0.00101424
-0.000437802
-0.000707571
6.48842e-05
0.00456463
-0.000188907
-0.000508838
0.00462894
0.00212418
-0.00214672
-0.0017472
0.00213496
-0.00140328
0.00117642
0.000592849
-0.000523263
0.000349789
0.00299515
-0.0022679
-0.00314898
0.00105474
0.000152083
0.000863868
-0.00195415
-0.000567335
-0.0022676
0.000716793
-0.00158236
0.00139792
-0.00166906
0.000124018
-0.00113278
-0.00259231
0.000519147
-0.00219257
-0.000556982
-0.000128941
-0.00070428
-0.00184099
-0.00151443
-0.000762459
-0.00079331
-0.000845117
-0.000428192
0.00114039
0.00214892
-0.00020791
0.00163821
-0.000269267
-0.000269634
0.000639437
0.000462516
0.00047481
-0.00048511
0.00328349
0.00437528
-0.00271455
-0.00177995
0.000289766
-0.00131711
-0.00188533
-0.000440271
0.00278082
-0.00137584
-0.000720141
-0.000527795
-0.0016665
-0.00111686
-0.00070311
-0.00045428
0.000935843
-0.00289149
0.000258313
0.000896868
-0.00238663
-0.00070156
0.000689578
0.00411932
-0.00219609
-0.00234884
0.00292253
-0.000356703
0.00041866
-0.00435648
-0.00145994
-0.00176793
0.000556332
-0.000904568
0.00040924
-0.000525109
0.00346288
-0.00140101
0.00157635
0.00127773
-0.000165015
-0.000812647
0.00100312
0.00239286
0.000829532
-0.00195282
-0.00084772
6.51351e-05
0.00127124
-0.0019762
-0.000947221
-0.00302016
-0.000354081
-0.000176498
0.0032497
0.000207623
-0.000491274
0.000835372
0.00186405
0.000882017
-1.38559e-05
7.09657e-05
0.000104033
-0.00177192
-0.00154012
0.00161068
-0.001608
0.00101543
0.00206469
-0.00087925
-0.000395097
0.000989759
-0.00151343
-0.000856622
0.00163798
0.00135862
-0.00224131
0.000344942
3.21619e-06
-0.00181712
0.00254049
0.000314276
0.00153208
-0.0017165
0.000612444
-0.000841748
-0.0012575
0.000369419
-0.00131336
6.97794e-05
0.00571283
-0.0034713
-6.54727e-05
-7.40984e-05
0.00482965
0.000556784
0.000484145
0.00348684
0.00126278
0.00152903
-0.000522055
0.000899982
0.0038295
0.00139605
0.0051934
0.00324967
-0.00229064
0.00159877
0.00157451
0.0030156
0.0016419
0.00311917
-0.00231434
-0.000824003
0.00203253
0.000195534
0.00448358
0.00326246
-0.00266201
-0.000768049
-0.00242292
-0.00100742
0.00239082
0.000345542
0.00164516
-0.00106964
-0.000270948
-0.00178272
-0.000113151
-0.000542446
0.00163464
-0.00230605
0.00371963
-0.00176767
-0.00126621
-0.00190762
-0.00228186
-4.31597e-05
-0.000863422
0.000917877
-0.000788532
0.00365495
0.000815526
0.00132828
0.000134431
0.000749952
0.000803403
0.00102655
-0.00126937
0.000224875
0.00125191
-0.000972199
0.00165875
0.000702609
0.0013322
0.00143712
0.00142289
-0.00213907
-0.00361225
0.000388288
-0.00119129
-0.000880628
-0.000349836
0.00430187
-0.000390871
0.00363752
0.000194251
0.000403745
-0.000152632
-0.000479972
0.0006036
-0.000135384
-0.00053001
0.000562813
0.00222665
-0.000854547
0.00206919
0.000848444
-0.0023419
-0.000924882
0.00138891
-0.000554325
-0.000365816
-0.00222908
-0.000970407
0.000427331
-0.000771608
0.00153112
0.000147415
-0.000469931
0.00139666
0.000518211
-0.00267118
0.00108744
-0.00145705
0.00179406
0.000293569
0.00272987
0.00345298
-0.00222854
-0.00057509
-0.000459359
-0.00216733
0.000737619
-0.000317678
0.000977212
-0.00153847
0.00224063
0.000195221
-0.00209298
-0.000106347
-0.00110608
-0.000448752
0.00181577
0.00204255
-0.000231423
-0.0011567
-0.00279836
-0.000519562
0.00179901
-0.00318423
0.000566322
-9.86728e-05
-0.00442707
0.000346133
-0.00271639
0.00204826
-0.00127155
-0.000256336
-0.000808552
-0.00188942
-0.00163655
0.000127746
-0.000160914
0.000647622
0.000168479
-0.00250624
0.00280434
-0.000357732
-0.00239766
-0.000996966
0.00375708
-0.000270068
0.00457595
0.00160049
0.00291912
0.00249592
0.00129579
0.0024788
-0.00344546
0.00156177
-0.000904432
-0.00164688
0.000385035
0.000108725
-0.00121038
-0.00210357
-0.00305677
0.000183001
-0.00160424
0.000952185
-0.000862645
0.00142538
0.00143403
0.000883989
1.16419e-05
-0.00318216
-0.0010726
-0.000307741
0.00261547
0.00103656
-0.00135669
0.00136575
0.00153799
7.54437e-05
0.000887971
0.00110021
-0.00263228
-0.00161962
-0.000333017
0.000579504
-0.00342855
0.00176394
0.000983074
-0.00155319
1.2548e-05
-0.000467831
0.00111064
-0.000265471
0.00287337
0.00546081
0.00029382
0.00186712
-0.00191193
0.00103495
-0.000159492
0.00221889
-0.00212867
0.000506093
0.00180098
-0.00179139
0.0002704
0.000733592
0.000107573
-0.00336735
-0.00148971
-0.00259484
0.000472874
-0.0010694
0.000309935
0.00254201
-0.000612294
-3.69896e-05
