-8.61593e-05
0.000298838
0.000246107
-5.60973e-05
-0.000180477
0.000169931
0.000174953
6.51535e-05
-0.00031035
0.000358373
9.19866e-05
-8.01955e-05
-0.000375627
0.000549308
-0.000240628
4.5192e-05
0.000265147
-0.000244598
-0.000447239
0.000682391
0.000564056
-3.27944e-05
0.000593395
-0.0015903
-0.000152737
0.000216946
0.000100166
0.000226874
0.000736144
0.000790329
-0.000172599
0.00047103
-0.000247795
-0.00044029
-6.71315e-05
0.000406466
-3.80386e-05
0.000220339
0.000569221
-4.86381e-05
-6.74111e-05
-2.05714e-05
-0.000225539
2.64399e-05
-1.69056e-05
-4.08555e-05
-5.10618e-05
-8.04115e-05
0.000393888
8.11536e-05
-0.000232618
0.000620369
0.000245278
3.2783e-05
-8.62165e-06
0.00040307
-0.000252275
0.000468417
-0.000844738
0.000262292
-4.63245e-05
-0.000150209
0.000404607
8.78426e-06
-9.93806e-05
-0.000193009
-0.000484436
0.000156402
-0.00020572
-1.39628e-06
0.00126944
0.00211923
-0.000247261
-7.29072e-05
0.000428622
-0.000494627
-6.69913e-05
0.000136481
-0.000249478
-2.08974e-05
-0.000266543
0.00101854
-0.000146152
-1.62318e-05
0.000240973
0.000463237
0.000584827
-7.26925e-05
0.000732492
0.000433684
5.51048e-05
0.000473926
0.000185545
-0.000238582
0.000722815
-0.000249775
-0.000272994
0.000683648
-2.14184e-05
5.5583e-05
-6.66043e-05
0.000599327
3.73836e-05
0.00106158
-5.78045e-05
0.000167012
0.000390605
-5.99782e-05
0.000120876
0.000654421
-2.49134e-05
0.000498134
5.34714e-05
0.00050299
6.04587e-07
0.000103516
-0.000242369
0.00014526
0.000202646
-0.000132297
0.000162605
0.000279004
-5.07463e-05
0.000317635
-9.29052e-05
0.000762251
-3.07345e-05
0.000507695
1.06147e-05
0.000969735
-0.00062416
4.7686e-05
0.00023434
0.000481371
-0.000134528
-0.000118827
-0.000240394
0.000672148
0.00058035
-0.000507296
0.000101066
-0.000278413
-0.000512676
-9.77865e-05
0.000726852
0.000137818
0.000365282
0.000133815
0.000279371
0.000949723
-0.000196153
-9.06918e-05
0.000548365
0.000395662
8.61553e-05
0.000690524
-8.47685e-05
-0.000201488
0.000656814
-0.000224024
0.000310387
-0.000142253
-8.23277e-05
-8.25591e-05
-0.00024127
-0.000231422
-9.33291e-05
-0.00103364
0.000504375
0.000160179
0.000881618
-0.000397778
-0.000489943
0.000211034
-3.33238e-06
4.25118e-05
-0.00051812
0.000409482
3.75416e-05
-9.12223e-05
0.000138241
5.03989e-05
0.00198734
4.02458e-05
0.000302298
0.000646115
-0.000199377
0.000263169
-3.00061e-06
-6.27377e-05
0.000530998
0.000348744
0.000649918
0.000213634
0.000124461
-5.64995e-05
-0.000543275
0.000495225
4.62032e-05
-8.95637e-05
-0.000154
0.000949373
-0.000382744
-0.000336059
-0.000140452
9.15423e-05
-0.000139134
0.000736395
-2.22298e-05
0.000147246
0.000759252
0.000629735
0.000572988
-0.000282864
0.000369646
-1.64517e-05
3.46546e-05
-0.000898025
0.000538161
-6.58653e-05
-0.000281759
0.0005026
-0.000153508
0.000417341
-0.00012304
0.0009509
-0.00013103
-4.59538e-05
0.000507494
0.000122356
0.000209555
-2.44394e-06
-0.000214408
-4.87992e-05
-0.000721877
7.12022e-05
0.000309507
-0.000192308
-0.000213087
0.000408634
0.000713503
-0.000314296
-0.00034161
3.50233e-05
-0.00024296
0.000108509
6.57319e-05
0.00013858
6.87333e-05
0.000270922
-0.000245524
0.000473703
0.000460012
-0.000112779
-0.000254758
0.000618139
-0.000112721
0.000317626
0.00065063
-0.000838045
0.00028922
3.59706e-05
-0.000108578
8.73366e-05
0.00038894
5.31544e-05
2.42737e-05
-0.000111848
-6.6846e-06
8.15263e-05
-0.000231482
2.14333e-05
-2.74674e-06
-7.85428e-05
-2.36159e-05
-0.000213448
-8.40369e-05
0.000356536
9.7301e-05
3.76755e-05
0.000331558
0.000416133
-0.000207346
-0.000122089
-0.000148172
0.000184621
-0.000614609
-0.000254746
-0.000247556
0.00115314
0.000119259
-0.000326199
-0.000516331
0.000430722
0.000513223
-0.000147509
0.000494306
0.000550564
-0.000373753
-0.000119069
0.000248489
-2.90507e-05
9.82163e-05
0.000115823
-7.74158e-05
0.000674894
0.00021561
-4.01066e-05
-0.000440745
-0.000181686
0.000193668
3.9109e-05
3.4848e-05
-0.000278926
-0.000231258
-0.000351918
-0.000250941
-0.000323553
-0.000117424
-0.000521136
0.000276999
-0.000460083
-0.00016332
-0.00014459
0.000231356
-0.000106438
-0.000163367
-0.000293425
-0.000160911
0.000180022
-0.000308073
0.0015927
-0.000237281
-0.000111792
4.23298e-05
8.06744e-05
-7.33938e-05
-0.00038615
-0.000205755
0.000225566
0.000917738
2.45549e-05
-0.00050697
0.000138735
1.32624e-05
0.000378622
7.61075e-05
0.00126465
9.55251e-05
-0.00025701
7.85828e-05
0.000272264
0.000164897
-0.000577542
-0.000250777
-6.02674e-05
-0.000238261
0.000374172
-3.35831e-05
9.77964e-05
-0.000331071
-0.000499361
-0.000405075
-6.44849e-05
0.00133932
-6.56412e-05
6.47676e-06
0.000182847
0.000383923
-7.64484e-05
0.000287074
-9.60298e-06
0.000122061
-0.000116765
0.000275165
-6.57208e-05
-0.000578324
-0.00026887
-0.000205198
0.000273567
-0.000121378
-7.93556e-05
-0.000101934
0.000175573
-0.000135185
-0.000155265
-0.000414233
-0.000444176
0.000551576
-0.000281341
0.000504924
0.000379964
0.000300343
-0.000210298
-1.59698e-05
-0.000111245
-0.000153522
-0.000273244
-2.60664e-05
0.000378971
1.30998e-05
3.61462e-05
0.00020888
-0.000207289
0.000106875
-0.00023538
-0.000209555
-0.000149725
0.000476123
-0.000208704
0.00103992
-7.30625e-05
-0.000350399
0.00049487
0.001557
-0.00054753
0.000204735
-0.000449522
0.000714435
0.000306494
0.000144969
0.000245226
-0.000146975
-0.000142833
-0.000116635
-0.000237689
-0.000122482
0.000230864
-0.000426962
0.000219227
-0.000261911
-0.000357818
0.000492421
-0.000167639
-0.000198329
0.000972838
0.000474595
-0.000150105
5.36465e-05
-0.000640371
-0.000266536
0.000379215
-0.000237463
-8.08492e-05
1.54501e-05
0.000451098
-3.81364e-05
-7.54794e-05
0.00104648
0.000778423
-0.000217874
-1.40216e-05
-0.000570314
0.000187726
-0.000391421
-0.000237259
0.000862699
-5.98771e-05
0.000313462
0.000762347
-7.04527e-05
0.00058852
-0.000872505
-9.53593e-05
0.000343995
-7.30826e-05
0.000149667
0.000346108
-0.000129441
0.000219043
-0.000202423
0.000695758
-0.000219041
0.000380083
0.000271317
2.58212e-06
0.000123167
8.16935e-05
-0.000204554
-6.90727e-05
0.000505262
-3.07158e-05
2.9666e-05
-0.000652997
-2.849e-05
3.61058e-05
-6.31605e-05
-4.33836e-05
-3.13065e-05
0.000250499
0.000203431
0.000154129
0.00078892
-0.00023074
-0.000383439
-0.00017728
-5.03424e-05
0.00123585
-0.000285017
-0.000319133
-0.000437463
0.000916523
-0.000330118
-0.000259462
-0.000145532
-0.000189544
-0.000382033
0.000374687
0.000131502
0.00011701
-0.000219884
-0.000367342
-7.91815e-05
7.43997e-05
-9.84525e-05
-0.000421883
0.000220372
2.59314e-05
0.00041924
-0.000573869
-5.18368e-05
0.000215015
2.13775e-05
6.68141e-06
-0.00015777
-5.11737e-06
0.000142756
-9.68372e-05
-0.000372251
0.000356606
-0.00027328
4.92732e-05
-9.2105e-05
-0.000320772
6.98889e-05
0.000451424
0.000199979
-5.16029e-05
-0.000273859
-0.000198791
-0.000231933
0.000272822
-0.000192948
7.23432e-05
7.62275e-05
0.000271289
-8.60381e-05
-0.000220948
5.03728e-05
-6.12963e-06
-0.000202401
0.000221284
-0.000175092
-0.00033975
-0.000160366
-0.000414339
-0.00013004
-0.000274122
-0.000257275
-3.242e-05
-5.45328e-05
0.000279785
-0.000313297
-0.000116987
0.000322659
0.000227517
0.000293415
0.000651336
-7.52918e-05
0.000142215
0.000635795
0.000117131
0.000857282
-0.000355919
-0.000285114
-0.000370507
-0.000283787
-0.00069085
0.000299272
-0.000342503
0.000310567
0.000156821
-0.000872267
0.000308126
-0.000147672
0.000123797
-5.86939e-05
-0.000243643
-0.000168749
0.000271572
0.000310302
-1.44135e-05
4.70446e-05
6.47511e-06
-0.000349844
3.77292e-05
0.000954234
0.000536443
-6.12227e-06
1.44598e-05
0.000312282
0.000141555
-3.35736e-05
-0.000314811
5.81549e-05
0.000175479
-0.000140943
-0.000195693
0.00037108
-9.45816e-05
5.39898e-05
-0.000362938
-0.0001156
-0.000108257
-0.000319252
0.000332833
-4.36267e-05
5.69362e-05
-0.000312345
-0.00089027
0.000222959
-0.000205211
-0.000146415
-0.000114882
-0.000290234
0.000333668
4.64375e-05
-0.000142427
-2.72298e-05
0.000175048
0.000558244
-0.000278618
8.33234e-05
0.000538349
-5.38647e-05
-0.000160986
-0.000188772
5.53823e-06
0.000261477
-9.79722e-05
-0.000260988
-0.00028449
-0.000122656
8.60403e-05
-5.20387e-05
-0.000335578
-0.000350574
-1.62121e-05
0.000145646
0.000169303
-0.000350181
0.000104189
7.1568e-05
-0.000306429
-0.000637535
-0.000160283
-0.000432591
0.000232954
3.90634e-05
-0.000635039
1.48344e-05
-7.87423e-05
-0.000232729
0.00015678
-0.000439289
4.25744e-05
0.000586109
0.000388121
-0.000600062
-0.000254807
-9.05219e-05
0.00015326
-3.69907e-05
0.000168438
-1.77416e-05
-8.77064e-05
-8.74939e-05
-6.03665e-06
-0.000150939
-3.69096e-05
-0.000135751
-4.95496e-06
-8.18019e-05
0.000147979
6.40349e-05
-0.000325505
-0.00017369
-0.000183272
-0.000369208
8.16949e-06
0.0003312
0.000141207
-2.47274e-05
2.15022e-05
0.000133283
-3.22549e-05
0.000749756
0.000977791
-0.000241716
-0.000296427
-0.000200369
0.00204917
-0.000218951
-0.00011032
0.000484675
-0.000445158
-7.15236e-05
-0.000709313
-0.000279757
5.8197e-05
-0.000156086
6.45501e-05
-5.44058e-05
-0.00030731
-0.000329454
9.13455e-07
-0.00214838
0.000365839
0.000218152
0.000553572
0.000121456
-0.0003474
8.24443e-05
7.04679e-05
-0.000204945
-6.51441e-05
-0.000689611
-0.000127855
8.95316e-05
-0.000350685
-0.000448133
-0.000307131
0.000264193
4.98505e-05
-8.73508e-05
-4.2141e-06
-0.000142228
0.000157789
-0.000148056
0.000272388
-0.000447496
-0.000231685
0.00017239
0.000171316
-0.000417488
-0.000156329
0.000532602
0.00150612
-8.90145e-05
5.8547e-05
-1.26859e-05
-0.000186787
-5.309e-05
2.14318e-05
9.64204e-05
-0.000351703
0.000548804
5.75721e-05
-8.62405e-05
6.33647e-05
-0.00021792
-6.15845e-05
-0.000286192
-7.81037e-05
-0.000179532
0.000258158
-0.000176733
0.00024235
-0.00010229
0.00016143
4.3241e-05
2.36003e-05
0.00018004
-0.00041924
0.00018813
-2.58986e-05
0.000808521
-9.69269e-05
0.000201611
-0.000103298
-4.24954e-06
5.46866e-05
-0.000194774
-0.000373364
0.000790875
-0.000331955
0.000158389
0.000215243
0.000192139
-1.62434e-05
-0.000426401
0.000284892
-0.000406727
0.000387158
0.000878577
0.000411896
-0.000333157
0.000219213
7.22484e-05
9.57576e-05
8.94458e-05
0.00010421
0.000562845
0.000281856
-6.10598e-05
-0.000200457
-0.000256575
7.29834e-05
1.99625e-05
0.000425549
0.000134631
0.000398656
2.00953e-05
-2.03986e-05
-0.000239266
-4.36263e-06
-0.000192723
-0.000152401
0.000159987
-0.000163834
-7.23923e-05
-3.36792e-05
-0.000118575
-7.6483e-05
7.25947e-05
-4.59629e-06
0.000466526
6.05813e-05
0.000219477
-0.000137756
0.000281102
1.47544e-05
-0.000559491
-9.13391e-05
-0.000303562
0.000533445
0.000131337
-0.00029932
-0.000667881
-0.000265637
0.000650991
1.92901e-05
0.000107179
0.000201405
-7.30967e-05
7.91802e-05
0.000135027
4.11465e-05
0.000461259
0.000300183
-9.30036e-05
0.00023786
-0.000240414
-0.000275013
-6.67275e-05
-0.00013374
0.000127905
-6.13161e-05
-0.000262237
0.000119983
-0.000174956
-0.000309494
-3.49365e-05
3.18854e-05
-0.000266675
-0.000561042
-0.000305912
-0.00059307
0.000102606
-0.000558783
-0.000372029
-0.00013178
-0.00034981
0.00025644
0.000322957
-0.000141774
6.63001e-05
0.000178852
-9.78211e-05
0.000331895
-2.74106e-05
-0.000164876
3.32003e-05
1.55115e-05
0.000151354
-0.00025339
-7.2529e-05
-9.68529e-05
-0.000529183
-0.000277162
0.000177707
9.6313e-05
0.000506459
7.17107e-05
5.27133e-05
0.000173225
0.000168836
0.000281293
-0.000166229
-0.000226144
0.000258354
-0.000232676
0.000913704
9.06943e-05
-0.000670955
-0.000131694
-0.000135049
-0.00017834
0.000100343
-1.89895e-05
-0.000123682
0.000494772
5.07515e-05
0.000351983
-5.57124e-05
0.000338736
-9.64845e-05
-0.000254286
-7.67724e-05
-1.90665e-05
-5.77784e-05
-0.000154416
0.000129914
-0.000270439
-5.90159e-05
0.00011102
-0.000137353
0.000124693
2.75295e-05
0.000874174
0.000550639
0.000481262
0.00066849
-0.000304958
-6.42812e-06
7.28752e-05
0.000117241
0.000435544
-0.000162455
8.31276e-05
6.56346e-05
-8.06893e-05
0.000642244
0.000233413
-0.000233649
-0.000125572
-2.07769e-05
-0.00088705
0.000763006
-0.000159836
-6.01345e-06
0.00237528
0.000576686
-0.000131302
4.07255e-05
-0.000135657
0.000329779
-0.000101106
0.000284188
-0.000100414
-6.20421e-05
-8.87601e-05
0.000219831
-0.000113584
-0.000115898
-0.000190849
-8.39791e-05
0.00017469
0.000567516
-0.000100379
0.00047155
-0.000105221
0.000128663
-6.19419e-05
0.000155585
-0.000271183
0.000429669
6.66676e-05
4.19939e-05
-0.000254521
-0.000137493
3.11728e-05
9.90545e-05
4.82167e-05
-0.000246689
-0.000174001
-0.000107989
0.000264499
-0.000434146
2.39334e-05
8.17217e-05
0.000252107
-0.000366972
0.000583639
-0.000122683
-0.00011454
-0.000213712
0.000598759
-0.000387112
3.09184e-05
-0.000376732
0.000101686
0.000252275
0.000294907
-8.82913e-07
-6.9301e-05
0.000387597
-0.000113797
0.000190894
5.87473e-06
5.74353e-05
-0.000176561
-3.50518e-05
0.000125172
0.000400879
-0.000258623
-3.05251e-05
0.000122685
0.000858625
0.000250376
0.000186351
0.000139205
3.59211e-06
9.63148e-05
0.000162081
9.46101e-05
0.0012808
-2.08687e-05
9.06459e-05
6.86978e-05
0.000346061
-0.000245444
-0.000158385
-2.48041e-05
0.000212782
-8.2252e-05
-0.000230164
-0.000613088
0.000665742
0.000216305
-0.000276023
-3.37046e-05
0.000179243
0.000101218
6.10526e-05
-8.21384e-05
-0.000448466
-0.000209107
0.000212531
0.000386858
-0.000199182
7.28613e-05
0.000259877
0.000113406
-0.000231791
-0.000295457
-0.000135546
0.000401684
0.000693514
0.000726437
0.000122538
0.000608646
0.000115213
-0.000209785
-0.000115164
-0.000314138
-0.00031922
-0.000283196
-0.000220642
-7.99819e-05
-0.000468196
0.000611606
-3.6523e-05
-0.000603287
0.000163831
-4.72771e-05
0.000538499
0.000227159
8.70709e-07
0.000625156
0.000954722
-0.000116412
6.73289e-05
-0.000142708
-0.000504211
-0.000952592
8.18579e-05
-0.000219983
-0.000156549
0.000356337
-0.00019482
0.000254589
0.000194046
-8.50835e-05
0.000145931
-0.000107092
-0.000210052
0.000210915
0.000644736
-8.90194e-05
0.000490654
0.000178964
0.000239242
0.000102709
0.000257578
-0.000585572
-0.000131419
0.000245333
0.000379087
-0.000712543
-0.000455275
0.000807319
-2.73785e-05
0.000224094
4.60155e-05
0.00060649
3.92809e-05
0.000323492
-0.000100441
0.000187115
0.00065058
-0.000167937
-0.000355938
-7.17639e-06
-0.000363731
-0.000107193
-6.49701e-05
-0.000331355
7.61541e-05
0.00022072
-7.46433e-05
0.000361149
-0.000333097
0.000166241
0.000230122
-7.44011e-05
4.34313e-06
-0.000340435
0.000140335
0.000511828
0.000319811
0.000220701
-8.96221e-05
-0.00046142
-1.21877e-06
0.000599733
7.97649e-05
0.00111249
1.75276e-05
0.000801907
-0.00062666
0.0003269
-7.58719e-05
-5.23571e-05
0.000232979
0.000489488
0.000424773
-0.000412618
0.000249656
-9.40259e-05
0.000166792
0.00016103
3.41348e-05
0.000122995
0.00010018
-8.03792e-05
-0.000332682
0.000194203
-0.000162574
0.000155134
-6.25081e-07
0.000388485
2.19382e-05
-3.96489e-05
0.000247988
-0.000123234
-5.95408e-05
8.5726e-05
0.000432684
0.000783663
0.000662724
0.000413826
-0.00110163
0.000592357
8.69322e-05
6.285e-05
-0.000139014
0.00058975
-7.53936e-05
-3.75532e-05
-9.08121e-06
-0.000863131
-0.000535515
-0.000538117
0.000393452
0.000183795
-0.00107576
-0.000211163
-0.000124188
0.000595593
0.000177877
-0.000566673
-0.000360271
0.000468333
-4.03016e-05
-0.000214944
-0.000213941
0.000151029
-3.03487e-05
4.38311e-05
-0.0001476
0.000241596
0.0004892
0.000475581
0.000120886
5.71158e-05
5.1474e-05
-7.21449e-05
-7.61548e-05
-1.37121e-05
-6.83736e-06
-0.000222389
3.23207e-05
5.26855e-05
-0.000254353
0.000155247
2.13985e-06
0.000202683
5.43666e-05
0.000200634
-7.34649e-05
0.000105682
0.000401394
-0.000126038
0.000909345
0.000361881
8.35183e-05
0.000230816
-0.000126074
0.000308732
-0.000176217
-2.81552e-06
-0.000116564
-3.5817e-05
9.85752e-05
-0.000241984
8.99919e-05
-0.000185404
0.00021987
-0.000226712
-0.000196153
-0.000334587
0.000676594
-0.000275021
-0.000166036
0.000737243
5.07179e-05
-0.000156295
-0.000296473
-0.000697071
-3.66738e-05
-1.51512e-05
7.83006e-05
0.000308988
-1.99618e-05
-8.84015e-05
-0.000517347
-8.10645e-05
0.00020609
0.000180915
0.000382125
-0.000171656
0.000138318
1.15754e-05
-1.20594e-05
0.000240341
-4.8352e-06
2.65231e-05
4.67652e-05
-0.000405878
-0.000307572
-8.03709e-05
-3.14605e-05
0.000162137
-0.000171037
0.0002161
-0.000154932
-0.000124094
-6.15415e-07
3.18956e-05
-0.000523376
0.000280248
0.000750174
0.00019534
-8.04554e-06
8.5982e-07
0.00073059
-0.000336672
-4.76356e-05
0.000662596
0.000109114
0.000100644
-0.000285778
0.000789053
-0.000800192
-4.95281e-05
0.000839571
-2.12287e-05
0.000199484
0.00018126
0.000177724
-0.000195637
0.000112396
0.000377199
-0.000138377
-0.000213303
0.000140787
-0.000109995
-0.000167727
0.00021622
-0.00102826
-0.000271793
-0.000572824
0.000304133
0.000850554
1.82861e-05
0.000517095
0.000545197
-0.000628359
-0.00013908
2.15355e-05
3.45337e-05
-0.000203766
3.52476e-05
0.000137467
-0.000212612
0.000107716
0.000331802
6.48164e-06
1.32427e-05
-9.23229e-05
0.000329341
0.00127125
-9.04689e-05
0.00030437
-0.000216159
0.000207986
1.49265e-05
2.68749e-05
-0.00031409
0.000166071
2.73804e-05
-1.15748e-05
-0.00036441
0.000184857
-2.55007e-05
0.000477633
0.000130987
0.00029723
0.000717248
5.29149e-05
-0.000192493
-0.000407303
0.000692776
-0.000668187
-5.9443e-05
0.000407668
0.000156438
0.000229696
-8.22275e-05
-7.4976e-05
-0.000281862
-0.000772501
-0.000841585
-0.000431202
5.97882e-05
-7.24088e-05
-0.000173453
0.000215848
7.20956e-05
-5.06951e-05
0.000214042
-0.000520838
0.000539443
0.000209198
1.07073e-05
0.000137434
-9.35677e-07
0.00101661
0.000424838
0.00101176
-0.000205292
-0.000447071
3.72443e-07
-0.000841087
-0.00023899
-5.62744e-06
-7.53215e-05
-0.000191025
9.48291e-05
2.37679e-05
-6.59539e-05
-0.000504032
-2.33949e-05
-8.85748e-05
-8.15235e-05
-4.25749e-05
7.86539e-05
0.000266638
0.000208762
0.00073257
-0.000292765
0.000845598
2.14319e-05
1.53701e-05
-9.01756e-05
-0.000248122
-0.000518915
-0.000405374
0.000326487
-0.000179681
0.000386024
-0.000223235
-2.79881e-05
-0.000108624
5.86957e-05
-0.000523434
6.55394e-05
-0.000183652
-3.14493e-05
4.11064e-05
2.37572e-05
-0.000293282
-0.000204103
0.000183421
0.000151783
0.000307706
0.00072094
0.000197549
-0.00025747
6.97186e-05
8.20431e-05
0.000273884
6.94382e-05
-0.000356117
-0.00033155
2.73562e-05
-5.4141e-05
-0.000131828
-4.86911e-05
-0.00027511
8.9781e-06
0.000158526
0.000448211
0.000262702
-0.000351508
-1.15173e-06
-0.000166724
-3.82046e-05
0.000224498
-0.00010396
4.49629e-05
0.00033834
-6.02775e-05
0.000835224
-0.000139516
0.000202619
-8.20797e-06
-8.50572e-05
-0.000161431
-0.000333676
-0.000412776
0.000757993
-0.000320731
-0.000564631
0.000424062
-0.000188822
7.5995e-05
0.000478796
-0.000127589
0.000142148
0.000493394
-7.65249e-05
-1.31646e-05
-0.000284732
-0.000156422
-0.000105903
0.000152523
0.000329229
0.000365285
-0.000155455
0.000264376
-0.000121509
-0.000114565
-0.000402521
3.15728e-05
-9.325e-05
-0.000180058
4.99402e-05
-0.000305145
0.000174769
-7.55677e-05
-0.000239184
0.000322013
-0.000106988
-0.000158815
0.00132907
0.000101526
-0.000116893
0.00019939
-2.37e-05
0.000561321
-0.000145442
-0.000313604
6.05173e-05
-6.48265e-05
-0.00013894
0.000130741
-0.000403165
-0.000249389
0.000217601
-3.7642e-05
-0.000201667
0.000134035
-3.86335e-05
-0.00012602
-0.000459773
-4.10618e-05
0.000167284
-1.45709e-05
0.000136002
0.000505213
0.000778856
-0.000105537
0.000338169
-0.000522107
-3.02513e-05
0.00143999
0.000302683
0.00021333
0.000676329
-0.000186777
4.89199e-05
-0.000163959
0.000304585
-0.000130589
-0.000385669
-1.68591e-06
0.000631131
0.000337379
9.7551e-05
0.000208633
-0.000581515
3.63821e-05
-0.000446559
0.00014629
-0.00037851
1.7544e-05
0.000136835
0.000155993
0.000402964
0.000381051
0.000328804
-4.05952e-05
0.00111657
0.000163977
-0.000169107
3.8436e-05
-0.000152997
0.000190116
0.000543606
0.000225346
-3.26501e-05
6.21738e-05
-5.92187e-05
0.000476026
-0.000165583
8.79036e-06
0.000349338
7.65973e-05
-5.45677e-05
-0.000222012
9.43178e-05
-8.50656e-05
0.000174332
-0.000247085
7.1931e-05
-0.000164447
0.000147125
-6.60838e-05
-0.000401348
0.00028816
4.22945e-05
0.000347873
4.25868e-05
0.0010722
0.00037099
2.93258e-05
0.000600044
0.000594754
-0.000109034
0.000417676
0.000137024
-0.000126023
-0.000117396
0.000223055
-0.000798059
-5.09118e-06
0.000109152
-7.07344e-06
-0.000598009
0.000151952
-0.000143578
5.52098e-05
0.000247908
0.000383014
-0.000208561
6.51283e-05
1.90538e-05
-0.000343698
-0.00061916
-7.84757e-06
-0.000196063
8.87724e-06
0.000533493
-0.000713059
-8.26898e-05
-0.000101061
-3.76106e-05
0.000147113
0.000286037
-3.54657e-05
0.000502334
0.000539907
0.000157177
-0.000170983
-1.26836e-05
-0.000105866
0.000177497
0.000758595
-0.000133603
-0.000165552
-1.42331e-05
1.75674e-05
0.000265679
-0.000307623
0.000255354
0.000303102
-0.000452111
-1.89241e-05
-0.000852934
-0.000216688
-5.80669e-05
-4.13261e-05
0.000139807
0.000323003
0.000357092
0.000388065
0.00034688
-2.40115e-05
0.000577783
0.000104211
-0.000485967
2.25542e-05
0.000476749
-5.19466e-05
-0.000180953
-1.66878e-05
-2.11952e-05
-6.24233e-05
-0.000343567
-9.25888e-05
3.32325e-05
0.000117034
0.000590802
-0.000101635
1.32093e-05
0.000414274
0.000329281
-8.69313e-05
-0.000231641
0.000420546
0.000282411
0.000126195
-0.000676666
8.89482e-05
-0.000287526
-0.000351559
5.94501e-05
-0.000226115
-0.000101817
-0.000488333
6.90776e-05
0.000529471
0.000709596
-0.000330276
2.01463e-05
0.00016488
-0.000139108
0.000118779
-0.000320536
5.94545e-05
-5.1301e-05
0.000311032
9.17716e-05
-0.000112038
-0.000531518
-0.00087507
-0.000178939
4.03645e-05
0.000312259
0.000214569
-7.62578e-05
-5.21986e-05
1.52383e-05
-5.51428e-05
-0.000510206
0.000726438
0.000387768
0.000150068
0.000119718
0.000466457
-0.000261036
0.000305539
-0.000247431
-2.70647e-05
0.00010288
0.000107388
3.53022e-06
-9.95265e-05
-3.43647e-05
-4.51598e-05
0.000364355
-0.0002842
-0.000598066
-9.39114e-05
-4.37633e-05
-0.000370024
0.000473369
0.000754419
-7.44552e-05
-0.000144687
0.00118327
4.79025e-05
-0.000278865
0.000236076
0.000206618
-9.22081e-05
-9.08241e-05
-6.00002e-05
6.31502e-05
7.18558e-05
-0.000267106
0.000157256
-0.000292485
-0.000197663
0.000533278
0.000315108
-0.000272337
3.36811e-05
0.000251129
-4.2479e-05
1.79546e-05
-0.000181242
-0.000243722
0.000123224
0.000345245
0.000129025
0.000516215
-7.09636e-05
-0.000127772
0.00023843
-0.000166327
0.000224849
0.0005789
-9.37175e-05
0.00018086
-0.000122827
-2.80419e-05
0.000144701
-3.24724e-06
0.000149735
-8.34757e-05
-1.44299e-05
0.000446322
0.000155903
4.90499e-05
0.000176631
-0.000349579
0.00043415
8.1102e-05
0.000619585
0.00020733
0.000107534
-2.76201e-05
-8.49756e-05
-0.000163716
0.000581043
0.000290763
0.000309266
0.000474035
1.78718e-05
-0.000489805
-8.21749e-05
-0.000282992
0.00033419
8.99842e-05
-0.000143695
-0.000137662
0.000557467
-0.00038069
-0.000227815
-0.000174327
0.000719129
5.37505e-05
-0.000223286
-8.24371e-06
-3.41434e-05
-8.14458e-05
-9.03623e-05
0.000222853
0.000118778
0.000754174
0.000263541
8.91499e-05
-0.000330477
-0.000139394
0.000169631
-2.98041e-06
-1.54375e-05
-0.000448674
0.000866401
-0.000104296
4.22351e-05
0.000133547
-0.000399698
0.000547167
-4.18941e-05
-4.72505e-05
0.000312911
-3.3943e-06
-0.00015564
-0.000129753
0.000259761
-6.88427e-05
-0.000238505
-0.000317194
3.47012e-05
-2.92158e-05
-0.000671425
-4.18271e-05
0.000295637
0.000115147
-2.9068e-05
0.000108912
-0.000322869
0.00149461
0.000373134
0.000267359
0.000269473
-0.000548213
-2.27623e-05
-0.000267699
7.04429e-06
-6.65759e-06
6.12401e-05
8.94074e-05
3.94052e-05
9.39263e-05
0.000389204
8.75749e-05
6.45922e-05
0.00012824
-0.000415732
0.000994689
-2.80736e-05
0.000181381
-0.000343545
-0.000260064
-8.0256e-05
0.000182852
-6.50767e-05
0.000390967
-0.000672011
0.000122082
-8.94627e-05
-0.000266811
4.19152e-05
1.73976e-05
-5.96295e-05
4.26732e-06
4.97316e-07
9.46872e-05
0.000305136
-0.000297114
-0.000130717
0.000533139
-0.000224458
0.000298673
8.63606e-05
-0.00018271
-2.96847e-05
0.000164459
-0.00050028
2.24167e-05
0.000138098
-6.05217e-05
0.000309742
-0.000132974
0.000195532
0.000179353
0.000458114
4.15756e-06
-0.000340645
0.000144783
0.000225831
0.000371756
-0.000232795
-0.000697941
-0.000228593
3.14832e-05
-0.000115131
0.000101516
1.08902e-06
-0.000269446
5.37549e-05
0.000403433
0.00021152
0.000175238
-0.000217567
-0.000201225
-0.000319426
-1.82132e-05
-0.000110704
-0.000163335
0.000186803
-0.000100255
0.000394373
9.44151e-05
-9.94314e-05
4.27242e-05
-0.000123738
0.000499157
0.00030877
0.000193808
-9.18354e-05
-0.000259707
-0.000248571
0.000934993
0.000982944
-0.000230503
-0.000192543
-0.000314315
0.000679108
5.3681e-05
-0.000351021
0.000245833
0.000210483
-6.28914e-05
-0.000247495
0.000207625
-0.000211433
0.000288853
2.74417e-05
-0.000220551
-0.000140021
0.000488011
0.000394673
-2.20982e-05
0.000324044
0.000290534
0.00011786
-1.49385e-05
1.05244e-05
-0.000284627
0.000271375
4.06986e-05
0.000198996
-0.000271127
-0.00011776
-4.94e-05
0.000757403
-0.000108272
5.60204e-05
0.000376829
9.67531e-06
-0.000372698
7.62403e-05
1.40684e-05
-0.000176655
0.000244591
7.36488e-05
3.42981e-05
-7.62683e-06
0.000788367
-0.000464061
4.08196e-05
-1.50857e-05
1.50306e-06
-0.000323147
0.000649776
2.16718e-05
0.000711321
8.71686e-05
0.000238244
0.0006125
-4.18695e-05
-0.000252882
-0.000131138
-0.000195652
-7.17826e-05
0.000226154
0.000160864
0.000522279
2.81542e-06
0.000267714
0.000118602
-3.03392e-05
-0.000127832
0.000157985
2.17147e-05
0.000305784
-6.62887e-06
-0.00013797
-0.000340111
-2.36528e-05
0.000855864
0.000200315
-6.63393e-05
-0.000136174
-0.000414354
-1.34274e-05
5.41635e-05
0.000447218
0.00145754
-0.000230406
-0.000353971
8.45554e-05
-7.19751e-05
0.00107234
0.00051246
0.000166025
0.000151392
2.88577e-05
-6.05953e-05
0.000277922
-0.000384586
-7.034e-05
0.000154143
-0.000184994
-0.000303518
-0.000149392
7.14368e-05
-8.60058e-05
-5.11273e-05
0.000297307
-0.000129923
-3.349e-05
0.000215747
1.52726e-05
0.000130331
6.67358e-05
-0.000524611
-0.000886905
0.000326082
0.000219295
6.94032e-05
-1.27913e-05
-8.99739e-06
0.00044157
8.21819e-05
-0.000434352
5.36392e-05
0.000371769
-0.000129786
0.000278044
-3.76344e-05
0.00045852
0.000344528
0.000509112
0.000281007
3.08861e-05
-0.000284149
5.20266e-05
0.000449281
0.000159926
-0.000259996
-0.000159965
-3.49258e-07
0.000502844
0.000248658
1.53726e-05
-4.40297e-05
-0.000444106
0.000289267
-0.000122197
-0.000313124
0.000131662
-0.000257612
-1.04467e-05
0.000491789
0.000821079
-0.000130863
-5.12519e-05
-1.55463e-06
-0.000114793
0.000345611
-9.61403e-05
0.00088685
-0.000533971
0.00174015
-0.000193783
0.00249421
9.29626e-05
9.0875e-05
-0.000117965
0.00113744
-0.000532712
-0.000454557
6.95536e-05
0.00032686
0.00031602
-9.54379e-05
0.000251042
0.000380297
-0.000206714
0.000549394
7.65696e-05
0.000416748
4.31975e-05
-0.000631978
-1.90593e-05
-6.04197e-05
0.000321844
-6.70764e-05
5.13186e-05
0.000364629
0.000357242
4.18309e-05
-0.000339368
-1.30977e-06
0.000546042
0.0014903
-0.00022247
-6.74583e-05
-2.08592e-05
-0.000115884
0.000394918
0.000462633
0.000380491
-0.000233973
-4.80352e-05
-0.000742664
0.000573528
0.000924682
0.000102913
0.000212897
-0.000208937
0.00170656
-8.13573e-05
-0.000135027
0.00127207
0.000568298
0.000199504
0.000162123
-0.000267613
0.000244931
-3.02758e-05
3.16298e-05
-0.000190481
-0.000548672
-0.000170676
-0.000491492
2.18943e-05
-0.000347538
-2.38048e-05
0.00095023
0.000807576
-3.08632e-05
8.61353e-05
0.000156557
0.000432518
-3.94978e-05
0.000433995
0.000537545
8.62248e-05
-0.00025097
0.00048481
-0.00106087
0.000303694
-0.000372406
-0.000429372
0.00151558
-0.000143441
0.000285191
-0.000118068
0.00127263
-0.000210845
0.000929114
-0.000724487
0.00139416
1.63676e-05
1.66952e-05
0.000837939
-0.000543147
-2.13049e-05
-0.000107966
2.75143e-05
0.00261594
0.000308961
-9.87902e-08
-5.7586e-05
-7.28828e-05
-0.000136816
0.000876064
0.00013092
-0.000104219
0.000168983
-0.000137016
-0.000398195
-7.88664e-05
0.000444442
5.55881e-05
6.1831e-05
-0.000679888
0.000957798
-0.00031105
0.000277901
-0.000315466
0.000383242
0.000191757
0.00180903
0.000319085
0.00089272
2.80748e-05
0.000643411
2.6206e-05
0.000137019
0.000703574
0.00106795
-0.000230772
0.000239555
0.000901562
0.00033648
0.000534356
0.00124049
-5.23209e-05
6.81489e-05
0.000532043
2.15309e-05
-8.02999e-05
0.00107231
-0.000276003
0.000309757
0.00267386
0.000225389
3.2385e-05
0.000784649
-0.000480674
0.000541612
-0.000228082
0.000134224
0.00014532
5.52629e-05
0.000151339
0.00124398
0.000208981
-0.000445376
0.000137103
-0.000592632
0.000234919
-2.51129e-05
-0.000125166
0.000454133
-9.19643e-06
-4.1919e-05
0.000750298
-0.000265398
0.000114502
-0.000262333
-7.66826e-05
0.000155041
1.93221e-05
-5.48388e-05
-0.000207559
-0.000177379
-0.000546456
0.000163975
-0.000625058
-8.2245e-05
0.000419131
0.000190643
-0.000267766
0.000210892
0.000461933
-5.50536e-05
0.000672579
-7.31709e-05
0.000209749
0.00022194
0.00021782
-0.000157571
-0.000132076
6.59011e-05
-2.25604e-05
-0.000361044
0.000283941
0.000139297
0.00062829
0.00292694
-3.139e-05
-0.000261424
-9.63814e-05
-0.00055756
-3.82201e-05
-0.000520036
-0.000412115
9.03932e-05
0.000421909
0.00205651
0.000236524
0.000593446
-2.54751e-05
-0.000148923
0.000423536
-0.000191986
-1.3725e-05
0.00122503
0.000577227
-0.000142295
0.000191709
0.000742684
1.11254e-05
-0.00146491
0.00127978
-0.00156063
0.000131806
-7.0187e-05
0.00029884
0.000149511
0.000385383
0.000490231
-0.000213606
-0.000206043
2.26916e-05
-0.000461337
0.000119711
0.000604389
0.000109039
-6.31248e-06
-3.50364e-05
-0.000962154
0.000246379
1.57874e-05
-0.00032208
-0.000385963
0.0015851
-5.81278e-05
-3.47074e-05
0.000187522
-0.000115522
-9.96982e-05
-0.000114632
0.00123077
1.86613e-05
-0.000877384
-0.000561144
-0.000349152
7.12746e-05
0.00019159
0.000324227
8.53627e-05
0.00113226
-0.000172975
0.000279202
0.000218232
0.00104246
-0.000125444
0.000420206
0.000197413
-0.000332873
-0.000252032
0.000868565
0.000185747
-3.60852e-05
0.000130242
0.000527539
7.07744e-05
-0.000343516
7.04159e-05
0.000182284
0.000597059
0.000473437
-0.000165168
0.000622192
3.57053e-05
-1.7487e-05
-0.000741748
0.00046803
0.000403697
0.000227628
1.65997e-05
-0.000206504
0.000201705
-1.51118e-05
-0.000262864
0.000298628
-0.000275553
0.000495438
0.000268041
-0.000167696
-0.000384147
-0.000277921
0.000155792
0.000148258
-7.09405e-05
8.85415e-05
-4.30614e-05
0.000123671
0.000119018
0.000896117
-0.000178743
0.000219229
0.000262091
0.000430319
0.000221525
4.06158e-05
-0.00016071
0.000195369
0.00119629
-0.000642875
0.000118365
0.000966744
0.000590236
1.36412e-05
-0.000104668
-0.000238213
0.000187429
-3.99703e-05
0.000317023
0.00083045
4.92887e-05
-3.96559e-05
0.000785881
6.0851e-05
0.000539674
-0.000164522
0.000253156
0.000189965
0.00141294
0.000556783
7.02074e-05
-0.000138068
-7.85819e-05
-0.000241541
6.77204e-05
-4.83557e-05
-0.000395351
0.000549931
0.000106948
-4.21668e-05
-0.000156578
0.000534493
-5.15808e-05
0.000844251
0.000235307
-8.09683e-05
0.0012159
-0.000405325
0.00017695
-0.000207732
-7.60609e-05
-0.00098257
1.19479e-05
-9.3019e-05
-0.000704237
-3.44178e-05
9.4797e-05
-0.000104044
0.000409671
-0.000220623
-0.000369242
-0.000331902
0.000224706
0.00019457
0.000490874
-0.000919168
-0.000448542
-0.000157181
2.60503e-06
0.000175853
-6.12124e-05
0.000532574
9.68211e-05
2.3932e-05
-0.000711089
0.000162165
0.000599974
-0.000599765
4.89113e-05
-0.000202909
8.87158e-05
-0.000463031
-4.68602e-05
-5.94451e-05
-0.000244232
-7.44427e-05
0.000309844
-5.72191e-05
5.06881e-05
-0.000246681
-4.41916e-05
-0.00037435
-0.000127533
-9.3086e-05
0.000118906
-6.52689e-05
1.84743e-05
0.00041613
0.00024622
-4.97614e-05
-0.00051921
-0.000345935
0.000355644
-8.7786e-05
-0.00045181
3.81004e-05
0.000190363
0.00021394
-0.00013941
0.000550756
0.000407826
0.000278468
-0.000227594
-2.82675e-05
-0.000303097
0.000229692
-4.00797e-05
-0.000308692
0.000248767
0.000115784
4.78102e-05
-0.000447552
0.000462041
0.000119391
5.33354e-05
-0.000337357
-0.00049798
-0.000484307
-3.89373e-05
-0.000360635
0.000198724
-0.0004311
0.000225771
-0.000484506
-0.000247577
0.000188261
-0.000314474
0.00075855
-0.000449461
-4.10412e-05
0.000373589
0.0004453
5.15078e-05
-3.14412e-05
-0.00072235
8.20746e-05
-0.000250439
-4.59315e-05
0.000276367
-3.30325e-06
-0.000331982
-0.000376788
-5.93976e-05
0.000501699
-0.00017635
-9.99489e-05
9.28826e-05
0.000313299
-0.000254813
4.87921e-05
-0.00026456
0.000109807
8.146e-05
0.00153185
-0.000106327
-2.39804e-05
-0.000411317
0.000286365
0.000351253
0.000222533
-0.00046357
7.93343e-05
0.000106631
5.44422e-05
0.000487105
-0.000162254
0.000369817
-9.16034e-06
-5.055e-05
-0.000138062
-0.000137717
-1.90876e-05
-0.000474007
0.000109091
0.000243934
0.000234867
0.000980677
-0.000158342
-0.000211015
-7.89346e-05
-0.000581897
0.000479452
-0.000158833
-5.1111e-05
-0.000254331
4.71921e-05
0.000723592
0.000548375
0.000666805
9.69231e-05
1.11083e-05
-0.00043809
-0.000211257
0.000726825
-2.86349e-05
-2.62338e-05
7.40739e-05
-0.000743426
1.95926e-05
-2.50789e-05
4.1449e-05
0.000721067
-5.22752e-05
0.000169098
4.33894e-05
-2.32917e-05
0.000878315
0.000210542
-0.000263134
0.000245497
0.000381684
0.000632337
-1.87631e-05
3.12911e-05
8.23227e-05
7.09963e-05
-8.14315e-06
-0.000127074
-0.000254298
1.06228e-05
-0.000480732
0.000100517
3.38767e-05
-2.04773e-05
0.000221568
-7.89326e-05
-0.000234303
0.000363285
9.85297e-05
-0.00045244
-3.83364e-05
-0.000147225
0.000787965
-0.000203903
-0.000421162
0.000509697
0.000390415
-2.13127e-05
-0.000110239
0.000191682
-0.000425367
-0.000454363
0.000111457
-0.000438886
2.20106e-05
0.00056998
0.000357866
-0.000117049
3.32475e-06
-0.000377033
-0.000205214
-0.000122973
-8.08897e-05
-2.91229e-05
-6.16087e-05
-0.000192615
-6.15917e-05
0.000465073
-9.54017e-05
-0.000321291
-0.000666033
-0.000393048
0.000377873
-6.90348e-05
0.000568592
0.000544153
-0.000118598
8.37391e-05
-0.000111628
0.000118307
-0.000136068
-5.4871e-05
0.000282641
-0.000313601
0.000901883
0.000646939
4.45843e-05
-0.000150898
0.000167819
0.000128287
-0.000369387
-0.000254875
7.18534e-05
0.00032744
0.00132814
-0.000203654
0.000198317
-0.000211199
-8.29646e-05
-4.1374e-05
0.000228412
-6.26925e-05
-7.84907e-05
-5.76433e-05
0.000616076
0.00033002
-0.000394853
3.23385e-05
-0.000103736
-0.000132443
-0.000205732
-0.000208845
-0.000259879
-0.000198609
0.000194653
-0.000960494
-0.000127038
-0.000174125
0.000482505
-0.000179524
-5.07705e-05
-1.23717e-05
7.7928e-06
-1.62161e-06
0.000528383
0.000264442
3.46428e-05
0.000413339
0.000234232
-0.000593353
-0.000126269
0.000222704
-0.000180141
0.000193495
-0.000221279
-0.000296635
0.00010247
-1.18651e-05
-0.000464296
4.60965e-05
3.35788e-05
6.90477e-05
-0.000226349
5.29597e-05
0.00058025
-0.000484914
0.00121136
0.000402649
0.000316889
-2.03462e-05
-0.00011487
0.000345722
-6.8224e-05
-7.38406e-05
-7.44887e-06
-5.52724e-06
-7.23841e-05
-0.00110999
-0.000375378
-0.000256434
0.000318944
0.000301613
0.000174519
0.00111654
-0.000105844
-0.00030558
0.00115112
0.000478638
0.000261951
0.000910508
0.000815919
2.54068e-05
-0.000499533
-0.000265937
0.000321545
-0.000206258
-0.000109406
-1.31846e-05
2.70961e-05
-0.000327432
0.000321242
7.25081e-05
0.000496745
-0.000215629
-1.32337e-05
-7.8738e-05
0.000239755
3.48717e-05
0.000559419
0.000103415
-0.000736588
0.000388741
-0.000280347
0.00020537
-0.000273243
-0.000147446
0.000227159
5.36537e-05
0.000454059
0.000177754
1.45875e-05
0.000121455
-5.68305e-05
1.68132e-05
-0.000195062
-0.000105085
-0.000159123
9.02233e-05
8.55031e-05
-0.000213586
-8.92974e-05
3.0494e-05
8.28144e-05
-8.53929e-05
5.07906e-05
-7.40103e-05
-0.000150483
0.00029333
0.000229463
-0.000311473
-0.000285398
0.000175273
0.000505007
-0.000181024
0.000582854
-0.000150147
-0.000344963
-0.00032925
-7.5049e-05
-0.000246514
0.000228299
0.00040036
0.000410893
-0.000103212
4.0028e-05
0.0001204
6.11642e-05
-0.000336675
0.000223859
1.9998e-05
2.08794e-05
3.65317e-05
0.000295585
0.000437999
-0.000131685
0.000440001
-0.000648074
0.00020736
-0.000292477
-0.000383069
-0.00012881
0.000582206
2.47844e-05
0.000439993
-4.04121e-05
0.000169029
0.00119042
-5.96928e-05
-0.000123779
0.000128208
0.000130674
0.000431076
-0.000472298
-0.000482586
0.000713714
0.00017062
3.5678e-05
-0.000149638
-0.000346551
0.000186392
-3.02486e-05
1.26449e-05
1.8488e-05
-5.03966e-05
-7.55954e-05
-0.000880265
-0.00028612
6.74736e-05
0.000226707
0.000647577
3.49425e-06
-3.21583e-05
-5.35521e-05
-0.000688112
-4.16528e-05
-0.00024088
-2.79163e-05
0.000236068
0.000326687
-0.000391025
2.01291e-05
-0.000325558
-0.000559265
0.000419635
-0.000357436
9.24106e-05
-0.000129189
-0.000194343
2.1164e-05
-0.000327978
0.000417219
8.03408e-05
-3.88063e-05
8.97247e-05
-0.000181021
-0.000239255
-0.000221851
0.000306655
0.000356892
0.000357821
0.000425964
-0.000700368
0.000324796
0.000247013
0.000155061
0.000174911
0.000208148
3.66645e-05
-0.000880654
0.0001108
-0.000354033
-0.000577273
0.000135195
-2.50986e-06
1.69027e-05
-2.40839e-06
-0.000201772
-2.18271e-05
-2.52482e-05
0.000189359
-0.000287237
-0.00100913
0.00010701
-6.70815e-05
0.000184978
9.24578e-05
0.000453497
-5.94845e-05
4.6243e-05
-0.00109508
-5.09309e-05
0.000254239
0.000512688
-0.000288248
-0.000178558
-0.000397499
-4.47311e-05
0.000319595
0.000243521
7.42091e-08
-0.000139127
-0.000626133
-5.75591e-05
-8.68705e-05
0.000210978
0.00122683
0.000278904
-0.000112782
0.000416265
-0.000107688
0.000799694
0.000642439
-0.000308474
-0.000184021
-0.000673839
0.00013851
-0.00013069
0.0011585
0.000103622
-0.000596698
2.12005e-05
-0.000100855
0.000216468
-0.000360575
-1.43034e-05
-8.46957e-05
0.000220316
0.000134258
1.4144e-05
