0.000577194
-3.19142e-07
0.000337253
-0.000125241
0.000348471
7.26357e-05
0.000317968
0.000563838
-0.000302118
0.000247886
0.000160311
-0.00089677
-0.000250984
-0.000281262
-5.61259e-05
0.000192529
0.00110524
5.80783e-05
0.000582115
0.000603957
0.000145687
-0.000419958
0.000281154
-0.00123523
-0.000273593
1.36174e-05
0.000163607
-0.000332755
-0.000147654
0.000330073
-1.94317e-05
0.000523813
-0.000129592
-8.54148e-05
-0.000359837
0.000586183
0.00017305
-0.000812837
0.00076069
-0.00101627
-0.000209213
-0.00015313
0.000470886
0.00065359
0.000112775
-7.88175e-05
-9.40142e-05
-4.26017e-05
0.000196012
-0.000491646
-0.000113317
0.000178604
0.000896407
-0.000325493
-4.778e-05
0.000618636
2.61659e-05
6.49188e-05
-0.000699925
-0.000338621
-0.000157483
-0.00010187
-0.000516708
-0.000504439
0.000399429
0.000134156
0.000194689
0.000682672
-0.000457382
-0.000124306
0.000130836
0.0017351
0.000356574
-0.000319473
-0.000832489
-0.0013811
1.45922e-05
-0.000708327
-5.44269e-05
-0.000138366
-0.00108629
-0.00011398
0.000308463
0.000565613
0.000392613
-8.37248e-05
0.00112913
-0.000705047
-0.000713436
-0.000199598
0.000567318
0.000119632
0.0013251
0.000258612
0.000969901
-0.000535835
-0.000470615
-0.000375507
-4.52795e-05
-0.000264881
0.000271074
0.000109393
-4.36714e-05
-0.000731715
-0.000168203
-0.000300517
-0.000327581
-0.0011444
0.000170841
0.000709901
-0.000528078
0.000222877
-0.000224749
-0.000643236
0.000241413
-0.000280547
9.98289e-05
0.000789575
-0.000349764
-0.00116985
0.000118344
-0.000173129
-0.000215838
-0.000720786
-4.8735e-06
0.000219816
-0.000299711
0.000739684
-0.000340579
0.00128193
9.8528e-06
0.000239895
-0.000106249
-0.000117483
-0.000155854
0.000286069
-0.00100624
-0.000894685
0.00125371
-0.000662419
-0.000371242
-0.000954011
0.000357256
-2.18647e-05
0.00148792
0.000740091
9.72162e-05
0.00038196
0.000140229
0.00039219
5.92835e-05
-0.000282436
0.000121457
-0.000326995
0.000107717
-0.000744834
-0.000406981
-0.000524836
0.0012757
-0.000833661
-0.000563836
-0.000367974
0.000240073
1.00973e-05
0.000643422
0.000366081
3.14337e-05
-0.00140956
-0.000100501
-0.00123714
0.000202597
-0.000325869
-0.00163825
0.00071024
-0.00025478
8.33517e-05
0.000822541
-4.93881e-06
6.7606e-05
-0.000187658
-9.81296e-05
-2.38607e-05
0.000366347
-0.000778477
0.000100585
-0.000612206
0.000197688
0.00092976
0.000208109
-0.000129666
0.000488351
-3.21132e-05
-0.000457143
-9.22028e-05
0.000499779
-0.000534083
-0.000262529
-0.000130129
-4.89864e-06
0.000389362
-0.00041822
0.000746338
-0.000940956
0.000104201
-0.000507082
-0.000208995
-7.61054e-05
-1.99678e-05
0.000266715
-4.47459e-05
0.000474699
0.000203879
0.000130992
-0.000288626
0.00045781
-2.44537e-05
-0.00052097
-0.000777548
0.000591552
0.000186715
0.000320057
0.000106512
-3.17611e-05
0.000583695
-0.000361778
0.0003411
-0.00017775
-0.000306647
-0.000200305
0.00014922
0.000474453
2.67009e-05
0.000666284
0.000298187
-0.000320638
-0.000756808
-0.000339243
-0.000642627
-0.000104231
4.58357e-05
-0.0004341
-0.000224402
0.00016246
-0.000505774
0.000311931
0.000491856
6.05773e-05
0.000605023
-0.000772781
-0.000342963
0.000470075
-0.000159313
0.000172648
1.06979e-05
-0.000418817
3.75901e-05
-5.84076e-05
-6.83052e-05
0.000682797
-0.00116647
-0.000102491
-0.000412522
-0.000215119
-0.000213997
-0.000284301
0.00103015
0.000126046
1.86583e-05
-0.000252713
-1.57e-05
0.000142619
-0.000246917
0.000429945
-0.000162217
0.00013606
-0.000265461
-0.000133795
0.00019983
-0.000122293
-0.000516143
1.00566e-05
-0.000245818
-0.000249704
-0.000297965
-0.000306569
0.000210929
-4.80757e-05
-0.000259788
-0.000422611
-0.000333675
0.000371416
0.000373128
0.000397897
0.000324509
3.2605e-05
-0.000178045
0.000169456
-1.78283e-05
-0.000414097
0.000438393
-0.000101966
0.000318163
0.000136954
0.000550003
-0.00051457
-0.000233205
0.0012231
8.95961e-05
-0.000971954
-0.000335215
8.074e-05
-0.000351591
-0.000579422
0.000229955
0.000102608
-0.000328208
-7.9415e-05
-0.000122135
-0.000291492
-5.16103e-05
2.86495e-05
-1.16719e-06
-3.43152e-05
-0.000503171
-0.000147603
-9.57169e-05
-0.000569172
-0.00077363
-0.000422664
0.000379858
-0.000870847
0.00102727
-2.25514e-05
-0.000757258
-0.000288215
0.000432748
-0.000580548
0.000170463
-0.000191618
-0.000522426
0.00109545
0.000490935
0.000157295
0.000513862
0.000159777
0.000486635
0.000142318
0.00102523
-0.000411699
-6.17693e-05
-0.000548722
7.16113e-05
0.000402647
0.000139793
-0.000131979
9.67812e-05
-1.18933e-05
0.00020451
-0.000399663
4.33421e-05
0.000172976
0.000345876
5.08309e-05
-0.000591878
-0.000312968
-0.000157835
-0.000452509
-0.000260366
-0.000175941
-0.000117556
5.07459e-05
0.000837771
0.000314939
-0.000391513
-4.46031e-06
-0.00021814
-0.00089707
-0.000164827
4.86578e-05
-0.00025442
4.11117e-05
-9.90047e-05
-2.54803e-05
4.1497e-05
9.2226e-05
-0.00153785
0.000301711
-0.000525979
-0.000147271
-0.000307778
0.00111829
-8.51561e-05
-2.19648e-05
-0.00022488
-0.000689771
-0.000724237
-0.00012665
-0.000219292
0.000593839
0.00112303
-0.000194391
-0.000315955
-0.000289583
0.000182209
-8.44077e-05
-0.000275827
6.74471e-05
-9.10014e-05
-0.000490829
-0.000280999
0.000906038
-7.31822e-05
-0.000195287
0.000341074
0.000655929
-0.000327914
0.000742577
0.000351319
0.000534339
-0.000542709
0.000125114
9.18188e-05
-0.000160323
6.44005e-05
0.000610743
0.000634789
-3.0376e-05
0.000102635
9.76428e-05
-0.000229621
0.000140425
-0.000314557
0.000242219
0.000182993
0.000228656
-0.000290621
-2.20729e-05
0.000243301
0.000394692
-0.000460687
-3.13749e-05
-0.000343925
-0.000600394
2.36652e-05
3.07914e-05
0.00081113
0.000581111
0.000160248
0.000530803
-9.09364e-05
-0.000134488
1.89224e-05
-0.000100913
-0.000116676
-0.000415294
0.000319366
0.000329935
-7.92906e-05
0.000200551
0.000486229
0.000378621
-0.000294957
-0.000321267
-0.000186361
0.000210688
-0.000122049
5.77988e-06
0.000135228
-7.9979e-05
0.000191143
-0.000360501
0.000866889
0.000136583
0.000492126
0.000307515
9.78436e-05
0.000599576
8.24377e-05
6.51881e-05
0.000472822
0.00014737
0.000276291
-0.00021026
0.000323187
-0.000153299
5.67962e-05
-0.000301332
0.000194462
-0.000129203
-0.000155655
0.000101472
0.000191142
-8.20972e-05
0.000292347
-0.000411091
-0.000372861
-0.000191432
0.00114079
-7.31533e-05
-0.000348648
-0.000505419
7.03539e-05
0.000122693
-3.90294e-05
-0.000594856
0.00028048
0.000287517
9.16674e-05
-0.000314289
-5.14791e-05
0.000305673
-0.000349952
-0.000345765
-0.000233214
-0.000214119
-0.000769714
-0.000708968
-0.000175465
-0.000297049
0.000374456
-7.34529e-05
-0.000484194
0.000319583
-0.000119336
-0.000343408
-1.50462e-05
0.000408448
-0.000362677
-0.000353715
0.000353918
7.8372e-05
-3.51024e-05
-0.000226382
0.000797901
-0.000237371
0.000294385
-0.000287633
0.000264235
7.19624e-05
-0.00157222
-0.000206661
-0.0015556
-0.000129805
0.000701812
-8.56353e-05
-0.000595085
-0.000188114
-0.000369471
7.24105e-06
-0.000185245
-0.000195501
0.00103474
-0.000115596
-9.69008e-05
0.000304073
-9.86743e-05
0.0002489
0.000317181
-0.000149177
0.000323728
-0.00077793
-0.000166655
9.39159e-05
-0.000260638
-0.000179353
-0.000364057
-0.000456782
0.000641173
0.000553797
0.000255906
0.00140007
0.000194767
0.000377248
-0.000322763
-0.00077143
0.000714376
-7.27369e-05
-0.00130471
0.000391453
0.000115067
-0.000235496
-0.000348624
-0.000348072
-0.000244328
0.000216684
-0.000416487
-0.00037458
-9.25115e-05
0.000452393
-8.34352e-05
0.000215198
-5.35552e-06
-0.000214749
2.28312e-05
-5.17715e-05
-3.93168e-05
0.000530406
-1.52308e-05
-0.000358692
0.000113995
-0.000320035
0.000659776
0.000311287
2.40584e-05
-0.000164831
-0.000258291
-0.000315384
-0.000437725
0.00118071
-0.000246669
-7.59205e-05
-2.04676e-05
-0.00017685
8.37605e-05
-0.000181481
-0.000100417
-6.83317e-05
0.000238322
0.000420277
-0.00127072
-0.000424041
0.000558587
-0.000148092
0.000181609
0.000488663
0.000192541
-7.01953e-05
0.000440026
0.000757087
-0.000321869
-6.78497e-05
-0.000396827
-0.000234629
0.000641001
4.97768e-05
-0.000565472
-0.000140787
0.000531424
-0.000574081
-0.000405269
-4.71413e-05
-4.40444e-05
0.000568623
0.000409476
-0.000288152
-8.73714e-06
0.000113227
-8.24943e-05
-3.84512e-05
-0.000358344
-0.000311197
-0.000341106
5.13361e-05
0.000259819
0.000222191
-7.06496e-06
-1.7281e-05
-0.000256022
-0.000586766
-0.000377896
-0.000453382
0.000520503
-0.000448257
-7.22251e-05
-0.000877529
-0.000143644
9.62261e-05
-0.000425296
0.000427553
9.64778e-05
0.00054089
-6.59039e-05
0.00017837
-0.000163269
0.000487883
9.26873e-05
0.000278824
-0.000424882
0.000153865
-0.000249574
8.38596e-05
-0.000129641
3.72469e-05
-8.63004e-05
6.32446e-05
-0.000210728
-0.000747163
8.91722e-05
-0.00022951
-0.000490803
-0.000121618
-0.000622357
-8.16841e-06
0.00027288
-1.75362e-05
8.78254e-05
0.000113394
0.000432439
8.79508e-05
-0.000186236
-0.000519649
0.00117397
0.000534156
-1.68985e-05
-0.000269289
9.64375e-07
-0.000367194
-0.000464202
-0.000839932
-0.000362543
0.000420336
8.91294e-06
-0.00031507
-0.000355309
-0.000884987
-3.41727e-05
-0.00151979
0.000170526
-0.000171224
-0.000327553
4.40934e-05
8.52513e-05
-2.34744e-05
0.000122484
0.000579747
8.14375e-05
-0.000306568
0.000298362
-0.000826841
-0.000711746
-0.000273673
0.000107642
-0.000537284
0.000263059
-0.000107297
-9.99596e-05
-0.000805064
0.00107768
1.74112e-05
-0.000521177
0.000229902
-0.000127212
-0.000361865
-0.000511687
-0.000605634
0.000208826
-0.000384475
0.00172303
-0.000324954
-0.000210044
-6.72772e-05
0.000168838
7.97038e-05
-0.000438931
0.000475398
0.00032207
1.69592e-05
-0.000664031
-0.00022566
0.000211783
0.000243244
0.000290976
-1.50972e-05
-0.000114599
0.000482901
0.000518297
-4.09193e-05
0.00015053
-0.000377887
-0.000323347
0.00019369
0.000564947
-5.69614e-05
-0.000351765
-1.49018e-05
0.000778989
-0.000574395
0.000151877
0.000164911
8.41965e-06
-0.000535126
-0.000385709
-0.000248348
0.000261983
0.000325714
-0.000286536
-8.89786e-05
-0.000150905
-0.000174411
6.47243e-05
-0.000237045
3.60806e-05
-0.00114711
0.000638565
-0.00129462
0.000257904
-0.000711482
-0.00154199
-0.000445375
-0.000210762
0.000831677
0.000135059
-0.000112762
-0.000293246
-8.17351e-05
-0.000346758
-0.00085988
-8.75393e-05
-0.000591883
-0.000145362
-0.000408795
0.000580986
-0.000265243
-8.01656e-05
-6.09277e-06
3.01023e-05
0.000142485
-0.000348457
-0.000148369
-0.000431067
-2.3557e-05
-0.000563376
-0.000361482
-0.00040354
0.000319409
-0.000212055
-0.000100778
0.000169378
-9.14333e-05
0.000384154
-4.50399e-06
4.3793e-05
-0.00107617
-7.17851e-05
-0.000641668
0.000700789
0.00140136
0.000139218
-0.00048606
-0.000342782
0.00119114
8.49499e-05
2.97107e-05
-0.000299086
-2.49201e-05
-9.03767e-06
-0.000292945
0.00017295
0.000221699
-0.000762798
-0.000465033
8.68076e-05
-0.000595446
0.000166489
0.000113831
0.000244446
-5.23216e-05
0.000276136
-6.52721e-05
-0.000579381
-0.000354162
-0.000476276
-0.00114451
8.2891e-05
-0.00025256
0.00034862
-0.000298939
0.000152577
8.3911e-05
0.000500688
0.000524349
0.00060376
-0.000216055
-0.000500216
-0.000110836
-5.2283e-05
0.000259922
0.000680834
-0.0002565
0.00063554
0.000220112
0.000476116
-0.000432126
-0.000736501
0.000137868
-0.000106798
0.000172308
0.000429154
-0.000379023
-0.000129057
0.000659601
0.000731277
0.000572695
0.000348457
0.000768679
-0.000478768
0.000152743
-9.58038e-05
-0.000400516
0.000119022
-0.000205552
0.000552158
-0.000426715
0.000485512
-0.000544993
-0.000220281
-2.84316e-05
0.000389537
4.91959e-05
-0.000274303
0.000100167
0.00154032
0.000169157
0.000507265
-0.00061684
-0.000190292
-0.000333533
-0.000379851
0.000173461
0.000231532
-0.000648062
-0.000148447
0.00101848
-0.000129982
5.22674e-05
0.000241584
-0.00036704
-0.000385218
0.000192641
0.00112804
-4.75172e-05
0.000332259
-0.000509202
-0.00149181
0.000676795
0.000709686
0.00118985
-0.000162174
-2.80898e-05
-0.000198632
-5.77804e-05
0.000748092
-5.54191e-05
0.000817278
-0.000320916
-2.11951e-05
-0.000105119
-0.000299216
0.00126253
0.000441302
-6.50345e-05
-2.34259e-05
-0.000353414
0.000416948
-0.000661949
-8.31527e-05
0.00035528
-9.29101e-05
-0.000314165
0.000259246
-0.000491171
-2.92979e-05
0.000490486
-7.67041e-05
-0.000125646
9.15519e-05
-0.000560408
0.000512078
0.00142325
-1.43928e-06
0.000102048
0.000876428
0.000156407
0.00024412
0.000224163
0.000906037
6.52186e-05
0.000196167
-0.000172286
0.000358525
1.44472e-05
4.5701e-05
-2.0636e-05
0.000329292
-0.000299732
-0.000913745
-7.7285e-06
4.93185e-05
-0.000215998
-7.50414e-05
1.7614e-05
-0.000239284
0.000103315
0.000474412
-8.4611e-05
0.000842207
9.34953e-05
0.00112009
0.000541973
0.000162254
-0.000182084
0.000521235
-9.84025e-05
0.000274238
0.000257269
-0.000356645
0.000632008
-0.000643747
0.00060218
0.0003251
-0.000716565
-0.000614124
0.00015842
-8.05654e-05
0.000190983
-0.000496439
0.000366731
0.000335858
0.000146865
0.000735739
0.000434531
0.000268501
-0.000110737
0.00011995
0.000343601
1.88987e-06
0.000230644
0.000389857
-4.47977e-05
-0.000640891
-0.000242003
-0.000205686
0.000157797
-0.000182327
-0.000123293
0.00043877
-0.000678668
-0.000487425
0.000666282
0.000624685
-0.000253547
-0.000240432
-5.62656e-05
-0.000168901
0.00106248
0.000285572
-0.000588351
-0.000140203
0.000363386
0.000467312
0.000337364
0.00089254
0.000201701
6.63946e-05
-5.88682e-05
-0.000278136
-0.000309622
0.000874492
-0.000111969
0.000984487
0.00037665
0.0011167
0.000624071
-0.00012289
-0.000661624
-0.000269199
0.000690808
0.000512733
0.000330933
-0.000274509
0.000311621
-0.000523867
0.000338851
-0.000183104
0.000190992
-0.000238103
0.000510462
-0.000443374
-0.000126662
-5.04501e-05
0.000160262
-7.88424e-05
0.00153776
-0.000695341
-0.000147788
-0.00144535
-0.000141156
0.000806765
-0.000646242
2.04115e-05
-0.00038606
-8.24288e-05
0.000320349
0.00130245
0.000734222
-0.000184901
0.00019543
-0.000156345
0.000405606
-3.76689e-05
0.0011166
-0.000840826
7.71589e-06
0.000267973
0.000142266
-0.00039152
0.000171436
0.000230871
-0.000298658
-0.00103492
-0.000326809
0.000467567
-0.000242398
4.02168e-05
-0.000134704
9.75199e-05
-4.08704e-05
0.00134141
0.000105786
0.00133963
0.000255722
-0.000840999
-9.55466e-06
0.000125181
-0.000155909
0.000703015
-0.000333768
-0.000242979
0.000721418
-0.000187417
0.000223535
-0.000144332
0.000172371
0.00040625
0.000102164
0.000322579
0.00337434
-0.000708144
-0.000147366
0.000282172
1.38093e-05
0.000656423
-4.39562e-05
-0.000537918
2.39924e-05
0.000488587
0.000310484
-0.000441548
-5.22204e-05
0.00141613
0.000561689
0.000635672
-1.0546e-05
-0.000191443
-0.00039552
0.000664851
0.000166562
-0.000395997
0.000555649
0.000737597
0.000378531
0.000433706
0.000373807
-0.00067011
2.29455e-05
-0.000104997
-0.00026228
4.67188e-05
0.000452192
-9.24686e-05
0.00080034
0.00050024
-0.000419757
-4.32482e-05
-0.000164718
0.000223443
-0.000388578
0.000154988
0.000891332
0.000421471
0.00125924
-1.49182e-05
-0.000729008
0.000225414
-0.000484199
-2.51352e-05
0.00026714
0.000955044
0.00061005
-2.1091e-05
-0.000207191
-0.000399841
-0.000427117
-0.000503229
0.000806661
-0.000124224
-0.000718621
-7.7399e-05
-4.49872e-05
-9.04942e-05
-0.000326429
0.000345334
0.000110649
-6.55784e-05
-0.0010796
0.000511126
6.57719e-05
-0.000149432
0.000982651
-3.24336e-05
5.03054e-05
0.000487722
0.000423548
0.000384579
0.000875352
0.000129501
0.000293446
-0.000177234
-3.18627e-05
0.000124278
0.000373926
-0.000303197
-0.000245347
0.000808587
0.00026665
-0.000220693
0.000338498
0.000186095
-0.000172816
0.000194871
-0.000186913
0.000538096
-0.000214077
-0.000362983
0.00116369
0.000246515
9.67236e-05
-0.000310616
-0.000374156
-0.00050523
0.000131828
8.1919e-05
-0.000380384
-1.79738e-05
0.000655276
-0.000342986
0.000578214
0.000798448
-0.000344917
-0.000142698
-3.54791e-05
0.000250375
0.000461475
0.000273809
0.000298735
-0.000456333
0.000502032
-4.15414e-05
-0.00018153
-0.000375083
-5.12277e-05
0.000163802
5.43462e-05
-0.000480762
-0.000470974
0.000746681
0.000255081
-7.24222e-06
-0.000209879
0.000309277
-0.000396195
0.000167907
7.55596e-06
-7.86769e-05
-0.000420096
-0.000178759
-6.11526e-05
-0.000115137
0.000674404
0.000362457
4.48523e-05
0.000803576
-1.22215e-05
-8.0291e-05
-0.000988547
-0.000395455
-5.01265e-05
-2.10501e-05
-5.1133e-05
-0.000209526
-0.000492293
0.00109778
0.000763449
0.000402928
0.000109357
0.000118518
0.000579766
-0.00048984
6.67505e-05
-6.05157e-05
0.000676748
-0.000341674
0.000216596
-0.000191216
-0.000930957
9.59568e-05
-0.00101351
3.1889e-05
-0.000266437
3.18713e-06
-0.000312612
-0.000385238
0.000126307
8.24081e-05
0.000244384
-0.000219196
0.00158052
-0.000293513
-0.000939013
-0.00101575
0.00131184
-0.000641415
-0.00097679
-0.000704864
-0.00037393
-0.000175863
0.000260593
0.00103418
0.000135452
6.86654e-05
8.25296e-05
0.000487893
-0.00107633
-0.000164113
0.000443705
0.00042466
-0.00125257
0.000902517
-0.000208822
-0.000461605
0.000473187
0.00105137
0.000232304
-0.000267621
-7.06334e-05
-0.00015181
3.73346e-05
0.000567675
-0.000402842
0.000416743
4.40375e-05
0.000129279
-0.000496355
-0.000595781
0.000674474
-0.00023513
-0.000139123
-1.0103e-05
-0.000183456
0.000484506
-0.000543083
-2.60531e-06
0.000133624
0.000762331
-8.59991e-05
0.00032529
0.000209821
0.000141487
0.000272891
0.000227091
-0.000470328
-0.000300383
-0.000523435
-0.0012644
4.94413e-05
3.8043e-05
-0.000505098
-0.000349287
0.00074602
0.00147356
0.000739233
0.00036436
-0.000264532
0.0010482
3.07523e-05
-0.000417752
0.000261495
0.000996493
0.000421153
0.00130808
0.000154833
0.000395394
-0.000404924
-0.000100774
-6.37538e-05
-0.00107719
-0.000840848
-0.000276913
0.000281316
0.000529129
-0.000505913
-5.04462e-05
0.000748205
0.000707412
-0.000100209
0.000935493
-0.000593094
-0.000796112
0.000258327
9.23881e-05
0.00215834
0.000276091
0.00103235
-0.000289387
-0.000334447
-7.66637e-05
-0.00054197
-0.00041648
-0.00094531
0.000328717
0.000109323
0.000144894
0.000773891
-0.000207753
0.000546912
0.000743835
-0.000236172
0.000430462
0.000389738
0.000170248
0.00047358
0.000287562
-0.000439089
0.000412029
0.000447597
0.000362866
5.82768e-05
0.000336937
0.000985477
-0.000182379
-0.000476625
-0.000295183
0.000132721
0.000485517
-0.00095245
-5.55271e-05
-0.000334912
-0.000380806
0.000238789
-0.000216944
-0.000341335
-0.000594101
-6.50727e-05
0.000439402
-0.000158813
0.00169284
-7.15072e-05
0.000518481
-0.00101225
0.000693777
-0.000255967
-0.000406479
-0.00022912
-0.000442201
6.52901e-05
-0.000427791
-0.000796516
-0.000309259
0.000530485
-0.000642715
-2.61222e-05
-0.000513841
0.000528699
-0.000128685
-0.000271903
-0.00051407
2.34877e-05
0.000457057
0.00140371
-0.000394368
0.00031455
9.08415e-05
-0.000384068
7.54164e-05
-0.000216365
-8.50889e-05
-0.000146273
-0.00203737
-0.000621484
5.3258e-05
-0.00063608
-0.000139434
-0.000108436
-0.000392765
-0.000717161
0.00042134
-0.00015537
-0.000240609
0.000359182
-0.000848058
-6.42367e-06
-0.00121053
-0.000610262
0.000537095
-3.75716e-05
-0.00043187
0.000927443
-0.000648041
-0.000564763
0.000197321
-0.000118641
0.000353686
-6.08857e-05
-0.00105962
-0.000379494
-0.000906223
0.000840305
0.00041242
-4.30621e-05
-0.000257675
-0.000988389
0.000673512
0.000147911
-0.000242456
-0.000122526
0.00034387
-0.000508862
7.9068e-05
0.000434091
0.000433302
-9.65735e-05
-0.000204707
0.00128053
7.33871e-05
0.000515088
-0.00177102
0.000193308
0.00239244
5.65326e-05
0.000620371
-0.000239123
-0.000233919
-0.000150921
-0.000671799
0.000172963
0.0011801
-0.000548603
0.00147417
0.000490266
-0.00010516
0.000496844
0.00011151
7.86939e-05
-0.000252449
-0.00106165
0.000162551
1.34011e-05
0.000713246
0.000153108
0.000770475
-0.000715939
0.00136356
0.000657161
-0.000460698
0.000451752
0.0013219
0.000163541
0.00130657
-0.000190518
-0.000312438
0.000333867
-0.000127547
-7.71897e-06
4.07779e-05
0.000264748
2.8007e-05
0.00016614
0.000135911
0.000824465
-0.0003473
-0.000226988
5.20236e-05
3.1473e-05
4.35594e-05
0.000359718
-0.000888455
-5.47399e-06
0.000125247
8.06393e-05
1.35275e-05
-2.17118e-06
0.000244299
-0.000345794
0.000569923
0.000956554
0.000713024
0.000716726
-9.41859e-06
-0.00040029
0.000345823
-0.000115409
0.000227825
-7.20423e-06
0.0005003
-0.000257675
0.00115131
-0.000698946
0.000135042
-9.78574e-05
0.000179403
-0.000503625
0.0007067
-0.000185141
-6.08981e-05
0.000379285
-7.70052e-05
-0.000771304
0.000707734
-0.000235447
0.000352247
-0.000687879
-0.000130257
0.000192878
-0.000216159
-0.000582456
-0.00113888
0.000752759
-0.000653786
0.000323189
-9.5365e-05
-0.000337511
-4.49879e-05
2.33877e-05
0.00160394
-0.000472042
5.03777e-05
-4.52174e-05
-6.69496e-05
0.000300588
0.000142798
-2.33461e-05
0.000203738
-0.000312308
-0.000638601
0.00107077
-0.000194344
7.96739e-05
0.000807949
-6.68296e-05
0.000242331
-0.000601531
-0.000108286
0.000822855
0.000545284
0.00125431
0.000243684
0.000302766
0.00055407
-5.67616e-05
0.0012548
0.00108041
6.54579e-05
-0.000896236
-8.20123e-06
-3.94135e-05
-0.000174666
-8.51356e-05
-6.81118e-05
0.000282565
2.47179e-06
-4.81794e-05
0.000373843
-0.000111631
0.00114793
0.00102501
-4.09205e-06
1.7725e-05
0.000321762
0.000345067
0.000154013
5.31377e-05
0.000834128
0.000274377
-4.32714e-05
0.000650706
5.72785e-05
-0.000312677
-0.000182699
0.000243111
0.000718414
-0.000443282
-0.000633732
0.000507099
0.000177838
0.000160785
-0.0004885
0.000291968
-0.000518582
-0.000281043
0.00022524
0.000247803
-0.000726592
0.000934279
0.000339287
-0.000203578
0.000462361
0.000306385
0.000165253
-0.000236513
0.000123391
-7.88014e-05
0.000183587
0.000374813
-1.65209e-05
0.000134145
-6.17652e-05
-0.000364617
3.53374e-06
0.00043618
2.11251e-05
5.6266e-05
0.000305802
0.000461703
0.000850496
-0.000851673
0.000682056
0.00113123
-0.0002026
-0.000771381
-0.000194125
-0.000177653
-0.000196778
0.000642728
0.00032362
-0.000456555
-0.000225134
0.000254462
-0.00120369
0.00117272
0.00130103
-0.000165114
-0.000463464
-0.000256252
0.000367639
0.000224934
0.000349424
8.74546e-05
-0.000339738
-0.000131986
-7.19059e-05
3.2556e-05
0.000124089
4.31822e-05
0.000565652
0.000119399
-0.000155619
0.000879798
0.000523194
-0.000434905
0.000812711
0.00027802
0.000312457
-0.00039092
-0.000145139
0.000335408
0.00024033
0.00065214
0.000678708
0.00116802
0.000589093
-0.000661795
0.000997426
-0.000257619
0.00184598
0.000681105
0.00034652
0.000513914
0.000616943
-0.000334495
-0.000195764
0.000611644
0.000402241
8.6794e-05
0.000572525
-0.00019051
0.0010139
8.11254e-05
-0.000189183
-0.00091051
-0.000278207
-0.000118928
8.36378e-05
0.000709984
0.000403837
4.47857e-05
-9.90024e-05
6.86432e-05
-0.000421359
-0.000353903
-0.000153897
7.29636e-05
-7.4419e-05
-0.000339352
7.85459e-05
-0.000306205
2.26681e-05
0.000825516
-0.000336633
-0.000386116
0.000483884
0.000141568
-0.000111468
7.19529e-05
0.000259993
-0.000214554
0.000364568
-0.000548846
-0.00127414
-0.00142745
-0.000166986
0.000117325
-5.94894e-05
9.14613e-05
0.00109539
-0.0003207
0.000577535
0.00407717
0.000892065
0.000485604
-0.000572689
-0.000680515
0.000797718
-0.000124514
9.57164e-05
4.9362e-05
0.000338888
-4.66126e-05
-0.000350908
-0.000281402
-5.05952e-05
-0.000313396
-0.000129122
-0.000381826
0.000496674
-6.42589e-05
-0.000227486
0.000322289
0.00075606
5.38483e-05
-0.00119256
0.000337692
0.000487217
-0.000624022
0.00105205
0.000608421
0.000400742
0.000686597
0.000946597
0.000632206
5.90883e-05
-0.000328501
-0.000187215
-0.00016072
0.00130722
0.000279412
-0.000320767
0.00019224
0.00138146
0.000592752
-0.000789177
-0.000163291
0.00031805
0.00234195
-0.000469894
0.00127075
-6.18881e-05
0.000575562
0.0011164
0.000806877
-4.47955e-05
0.000279594
-8.38083e-05
0.000671315
0.000319113
0.000825916
-0.000146977
-4.20547e-05
-0.00010503
5.15849e-05
-0.000404449
1.62464e-05
0.000250867
-0.000289141
3.89364e-06
0.000348102
-0.00119963
0.000691081
0.000100042
0.000347072
0.000161135
-0.000711727
0.000247592
0.000549046
-0.000849858
0.000628542
-1.39124e-06
0.00025426
0.000855233
-0.000158258
0.000193768
-0.000442852
0.000436005
-0.000789046
-8.35008e-05
1.6667e-06
0.000635663
-4.5928e-05
-0.000162137
-0.000161407
-0.000281869
0.000119233
-0.000598869
0.000506774
0.000936304
-0.000953636
-0.00115718
0.000315229
0.00031971
5.95074e-05
-0.000148653
-0.000448182
-0.00133927
-0.000117759
-0.000150624
-0.000189358
5.82245e-06
-0.000121591
-0.000174956
0.00200348
-0.000128146
0.000645141
0.000311583
0.000488394
3.25024e-05
-0.000142984
-0.000108366
-7.23279e-05
-0.000231713
0.000804784
0.0014084
0.000295606
-9.09174e-05
8.04878e-05
-7.53065e-05
-3.7012e-05
-0.000285104
-0.000201065
0.000346105
-0.000190456
-0.000231193
0.000485093
0.000224459
-8.50003e-05
0.000499845
4.48649e-05
-0.000226774
0.000281437
0.00021007
-8.40886e-05
-0.000364208
-0.00019112
-8.10812e-05
0.000360269
-0.000454349
-0.000672407
-0.00030713
-0.000385554
-0.000719463
-0.000269883
-1.44074e-05
-0.000439108
-0.000110406
-0.000390656
-0.000827512
-0.000232656
6.89778e-05
-0.000794411
0.000431381
-0.000322342
6.26669e-05
0.00063951
0.000307076
-8.97877e-05
-0.000891481
0.000887795
-7.82894e-06
-0.000115793
0.00029932
0.000271776
-0.000492995
0.00128568
-6.7207e-05
0.000278308
-0.000492019
0.00038136
0.00080777
0.000248989
-0.000178818
-4.37236e-05
-0.000171628
0.000530441
4.06339e-05
3.64102e-06
0.000275942
0.000235844
-0.000371043
0.000246915
0.000461565
-1.34736e-05
4.31134e-05
-8.648e-05
0.000623641
-0.000366891
-7.36222e-05
-0.000626028
-0.000351087
0.000582112
0.000668677
-3.78154e-06
-3.08237e-05
-0.000242723
0.00037664
-5.12273e-05
0.00127657
-3.70365e-05
9.94657e-05
0.000953278
0.000144421
-0.000976129
0.00120393
-7.83959e-05
4.08005e-05
-0.000400492
-0.00014201
-0.000135775
-0.000439702
8.39228e-05
-0.000147528
-0.000439514
-0.00101751
-0.000803098
8.88966e-05
0.000404449
-6.43923e-06
0.000452437
-0.000538666
-0.00020496
0.000288171
5.166e-05
-6.60672e-06
0.0013984
-8.92847e-05
0.000335144
-0.0023902
-0.000539509
0.000905358
-1.51662e-05
-0.000187568
-0.000110592
0.000320869
-0.000456448
-0.000609157
0.00033799
-0.000528061
-0.000316783
0.000275107
-1.43249e-05
-0.000130625
0.000892501
0.000153893
-1.66374e-05
0.000942168
-0.000511241
0.000533569
0.00167619
0.000874788
-0.000101375
-0.000903574
-0.000660524
0.000526684
0.000840609
-0.000212132
-6.0026e-05
-0.000385802
8.30753e-05
-0.000179895
0.000109076
0.00126522
-0.000364523
0.000213578
0.000466982
0.000247494
0.000105266
7.96363e-05
0.000555179
-0.000551969
-0.000826096
-0.000401627
-0.000776055
0.000378388
0.000991959
-0.000211579
-0.000178604
0.000465683
0.000283094
0.000341424
0.00106223
0.00030342
-0.000345215
-0.00011904
-9.09362e-05
0.000551755
3.11194e-05
0.000223887
-0.000319418
3.09294e-05
0.000866956
7.24237e-05
0.000785916
0.00011679
0.000107404
0.000447263
-0.000173215
-1.87283e-05
-3.5201e-05
-0.000474207
-4.32583e-05
0.000161171
-0.000185219
0.000104062
-0.00032511
-0.000785221
0.000650767
3.22446e-05
0.000185323
0.000186488
-5.56887e-05
-0.000393746
-0.000385998
0.000726188
-0.000534604
7.22395e-05
-0.00199816
-8.83475e-06
-0.000214196
0.000498454
7.177e-05
-0.000106072
-0.000175966
-2.74092e-05
-0.00154473
-0.000136524
0.00226179
0.000311726
-0.000417755
-0.00072479
0.000163104
0.000158579
-0.000406827
-0.000421941
-0.00015547
-0.000161282
-0.000555247
0.000657462
-9.18525e-05
1.83252e-05
0.00116137
-0.00107587
-7.00688e-05
6.0482e-05
0.000605883
-0.000319554
0.000115533
-5.03727e-05
-7.10804e-06
-0.000202965
-0.00055856
0.000179367
-0.00127053
0.000568777
2.96582e-05
-0.000525457
-0.000169541
0.00020174
-0.000181136
0.000110745
-0.000798644
-0.000434082
0.000207741
-0.00125239
0.000388042
-4.91522e-05
0.000473276
0.00126377
0.000373363
2.66353e-05
-0.0002525
0.000116001
0.000643599
0.000289758
9.71309e-05
-0.000412737
-0.000528972
-0.000588138
0.000545158
8.0155e-05
0.000855033
0.000408563
-4.38926e-05
-0.000446522
0.000763726
0.000680714
0.000864467
-0.000152022
-0.000146539
0.00185084
-0.00109431
0.000403824
-0.00038364
0.00057708
-0.000391791
0.0020712
-9.41791e-05
0.00113627
0.000676027
0.000491504
-0.00109729
0.000301942
0.000132753
0.000959589
-0.000297975
5.62724e-05
-0.000172702
1.13575e-05
5.77044e-05
0.000423177
-0.000395628
-0.000185193
0.0001064
0.000825482
-0.000206984
0.000434654
-7.51907e-05
-0.000270827
0.00233927
0.000803362
0.000116
0.00155944
0.000212548
0.000367332
-7.66784e-05
8.8948e-05
-0.000152509
-0.000270928
1.50658e-05
3.51415e-05
-0.000200962
-0.00049896
0.00102125
-0.000178253
0.000104066
0.000183241
0.000484326
-8.39595e-05
-0.000450303
0.000363484
-0.00106975
1.60373e-05
-0.000304298
-0.000398904
-0.000330155
-5.39835e-05
0.000903686
-0.000240115
-1.85045e-05
-5.73855e-05
-0.000420699
-0.000268849
-0.000679889
-7.65443e-05
-8.50405e-05
-0.000303935
0.000434978
-0.000220466
-0.000384841
-0.000538746
0.000823594
-0.000167357
-0.000155356
-0.000579767
0.00117089
-0.000166253
0.00032528
-0.000385533
0.000777634
-4.69911e-05
0.000768478
-0.000149146
0.000436228
0.00148067
7.14287e-05
-0.000543751
3.56225e-05
-0.000106843
9.26907e-05
-0.000437448
0.000124089
4.63705e-05
0.000146343
0.000202604
-0.000253004
-1.78523e-05
-0.000115925
-0.000259888
0.000623235
-2.7418e-05
0.000169795
0.000507439
0.000837441
-0.000124084
0.000425143
0.000296282
-5.74486e-05
-0.00035702
0.00102129
8.9878e-06
-0.000697576
-0.000431593
0.000384129
-0.000103087
0.00117404
-0.000309267
-0.00031814
-0.000342732
0.000542797
0.000939713
-0.000246644
0.000587117
-0.000263031
-0.000270818
0.000273168
-0.000620526
-0.00152565
1.96293e-05
4.129e-06
8.68572e-05
0.00023741
-8.93013e-05
1.41786e-05
0.000760787
-6.59411e-05
-0.000187018
-6.77924e-05
0.000773217
0.000156133
-0.0010382
-0.00040936
-0.000503416
-0.000143034
0.000481259
-0.000360439
0.000248185
0.000461881
0.000671394
-0.00017462
-3.82951e-05
0.000369012
0.000387103
0.000403765
-0.000154751
-0.000513016
-0.000308816
0.000518775
0.000302262
0.000342678
-0.000279161
0.000287626
-0.00071894
-0.00014842
0.00017056
-5.29739e-05
7.93597e-06
-0.000117328
-0.000390425
0.000556284
-0.000169095
-2.49251e-05
-0.000910813
-0.000182421
0.000302519
0.000231203
0.000165257
4.01276e-05
0.000528839
0.000143744
-0.00017422
0.000632767
8.73297e-05
0.000319154
9.48541e-05
-0.000501847
-0.000611378
0.000580173
-0.000308928
7.49719e-05
0.000738593
-0.000468333
4.06658e-05
0.000170014
-1.09082e-05
0.000133063
-0.000238475
-0.00016755
0.000371743
0.00024834
0.000475886
7.59767e-05
-0.000348255
0.000436845
0.00173203
-0.000291767
0.000317563
0.00058235
0.000222167
-0.000104534
8.42335e-05
0.000788697
0.000813064
0.000822163
0.000508115
0.000597046
0.000283238
-1.90913e-05
0.0010559
0.000966509
0.000687794
0.000157354
1.48119e-05
0.0010004
-5.28045e-05
0.000664285
-0.000854393
-0.000109715
0.000209036
-0.000296237
1.10876e-05
-5.3077e-05
-0.000154206
0.000148824
-0.000300454
-6.85748e-05
0.000709581
-0.000553834
-0.000175572
-2.81096e-05
0.000232013
0.000193151
-0.000143617
-0.000296972
0.000220049
-0.000306184
0.000122607
-0.000747507
0.000738386
0.000220047
-0.000243809
0.000214772
-0.000205103
9.34024e-06
4.09824e-05
9.74405e-05
0.000121505
-0.00110492
0.000731494
0.000100507
1.58754e-05
0.000608416
-0.000320787
-0.000317609
-0.00109991
0.000335579
-8.37928e-06
0.00086211
-0.000292632
0.000401504
-0.000603836
0.000279323
-0.000887289
-0.000592058
-1.58033e-05
0.000151085
0.000560429
-0.00133415
0.000228255
-0.000106712
-0.000179125
-0.000148989
0.000644326
-0.000531313
0.00031099
-9.48589e-05
4.73962e-05
-0.000433227
0.000155181
-0.000284108
0.00047126
-0.0012484
-0.000129374
0.000874408
0.000836367
3.27342e-06
-0.00116241
-0.000961677
-0.000458968
-0.000483706
9.14151e-05
0.000496168
0.00077433
0.00140122
9.55276e-05
9.68914e-05
0.00118637
-0.000594771
-0.000316003
-0.000184424
0.00063874
0.000297052
4.76285e-06
0.000191561
0.000794301
-0.000159819
-0.000201217
-0.000450912
-0.000100728
0.000824671
0.000253897
8.31568e-05
-0.000801377
0.000181051
2.83049e-05
0.000108632
0.000119023
0.000291076
-1.21236e-05
-0.000647174
-4.50815e-05
0.000813292
-0.000174676
0.000833571
0.000146478
1.56178e-05
-0.000179684
0.000474284
0.00158947
-0.000120941
-0.000429825
2.00998e-05
0.000417114
-0.00026838
0.000320152
-0.000101116
-6.27192e-05
-0.000596681
-0.000131559
0.000857163
-3.84359e-05
0.000125446
8.95783e-05
0.00059813
-0.000420701
-0.000514388
-1.0379e-05
0.000276873
-0.000124363
0.00037307
0.0003747
-0.00015211
0.000140087
-8.82026e-06
0.000437167
-9.47495e-05
0.00106409
-0.000308841
-0.000542629
0.000167325
0.000745906
-0.000327061
0.000214595
-0.000137094
0.00024272
0.000198475
3.5324e-05
-0.000236658
-0.000132984
0.000129262
0.000637905
-0.000516171
0.000559241
0.000100408
0.000450069
0.00033235
6.51458e-05
-0.000126262
-0.00015531
-0.000170512
3.64612e-05
0.000526831
0.000926357
0.00117757
0.000450528
0.000395874
0.000118246
-0.000140938
4.01947e-05
0.000591695
-0.00034173
-1.16198e-06
-0.00011532
0.000530352
-5.18267e-05
-7.87144e-05
0.000223231
-0.000756029
3.02446e-05
-0.000183979
0.000294647
0.000342428
0.000122423
-0.000355997
-0.000441406
-0.000196845
0.000980804
-0.000381828
0.000348602
-1.23512e-05
-0.000498448
0.000792552
0.000208995
4.42556e-05
0.00028249
0.000579873
-0.000840042
0.000407867
0.000390897
0.000235885
-0.000166913
0.000560253
-0.000333728
-0.000162027
0.000847963
-0.000658108
0.000344558
-7.42975e-05
0.000958856
-0.000246017
3.22736e-05
0.000241687
-0.000693922
0.000154428
2.63698e-05
2.06664e-05
0.000315063
-0.0004069
9.17661e-05
0.000141573
-0.00010755
0.000888854
-1.18544e-05
0.000241337
0.000176595
-0.000411464
-0.000581624
-0.000185714
0.000375305
-8.67638e-06
0.000157661
-0.000719201
-6.05076e-05
0.000990137
-0.000491886
0.000131802
5.83039e-05
-0.000537327
-0.000461548
-6.28634e-05
0.00097857
0.00195546
-0.000348582
0.000142707
-0.000383904
0.000485039
-0.00020227
0.000999783
0.000700783
-0.000163426
-3.78724e-05
-8.08732e-05
0.000467576
0.000532636
-0.000697567
0.00100764
-0.000736917
0.000195381
0.000682057
0.000183675
0.000960361
-0.00020853
0.000728196
-0.000381356
-4.79648e-05
-0.000126328
4.90109e-05
-5.84928e-05
0.00022593
-0.000940354
0.000363035
0.000640881
0.00126753
0.000327591
-0.00035443
-1.40235e-05
-0.000148317
-0.000140666
0.000214825
-0.000437837
0.000971428
-0.00070514
-0.000617391
-0.000402632
-7.98567e-05
0.00029182
-0.000398237
-0.000259286
-4.52853e-05
0.000169613
0.000348263
0.000844619
-0.000161088
0.000954916
3.71309e-05
0.000106994
-0.000399611
0.000351186
0.000319682
0.000572413
0.000171154
-0.000749812
-0.000125946
-9.49655e-05
-0.000319791
-0.000347955
-0.000432063
-0.000411818
-5.26154e-05
-0.000223373
0.000736401
-0.000192621
0.00053914
-0.000105031
-0.000211595
-0.000266929
-0.000381747
-0.00133833
-4.94726e-05
-0.000140658
0.000353678
-0.000310746
0.0010839
-0.000557113
0.000134717
0.000550895
0.00109465
7.45036e-08
-0.000150476
-0.000242325
-0.0005643
0.000181345
-0.000364489
0.000624854
-0.000205794
0.00085388
0.0028999
-0.000187995
1.87488e-06
0.000147635
0.000463965
-0.00132869
-0.00104146
4.02785e-05
0.00035369
-0.00012842
-0.000195074
0.000221178
0.000680684
-0.000420358
-5.25344e-05
-1.42724e-05
0.000198622
0.000650096
2.55628e-05
0.000488022
-0.000459179
0.000380823
-0.000116788
0.000159427
-8.00155e-05
-0.000121732
0.00138581
0.000145169
-0.000183974
0.000360382
-0.00031925
-0.000398534
-0.000184004
0.000349653
0.000764027
-0.000193042
-0.000257126
-0.000469885
-8.83318e-05
-0.000312998
-0.000207652
-5.6925e-05
0.000275154
-0.000243885
-0.00030702
0.000938375
-0.000503429
0.000595824
-0.000348627
-0.000954244
8.05336e-06
0.000235363
0.000539944
-0.00120019
-0.000400857
-0.000537218
-0.000880352
-0.000119293
-0.0010831
0.00022012
-7.15342e-06
0.000411393
0.000973961
-0.000500022
-0.000484228
0.000247453
-0.000254309
-0.000122994
-0.00017252
-0.000190571
0.000340957
-0.000172333
0.000145133
0.000592291
-0.000329774
-0.000187261
-0.000200234
8.58173e-07
-0.000175915
0.000454915
-0.000180726
0.000141709
-4.18726e-05
0.000298231
0.000392382
0.000739642
0.00251295
6.18272e-05
0.000296752
-0.000687792
0.000195957
0.000127767
-0.000539112
5.36164e-05
0.000969722
-3.30178e-05
-0.000174544
-6.65187e-05
-0.000476917
-9.23083e-06
0.000124647
2.68116e-05
-0.000124808
0.000714285
-0.000235327
9.83291e-05
-0.00087605
0.000648164
-0.000123973
3.4796e-05
0.000310691
-0.000324501
-0.000376114
0.000491323
0.000245175
-0.000639393
-0.000122475
0.000755321
-0.000579391
-0.001286
-0.000540118
-0.000295844
-0.000787365
0.000612398
-0.00119213
-0.00035123
-0.00122245
-0.000485197
0.000748044
-6.71669e-05
-0.000200218
-0.000158352
-0.000562403
0.000190164
-0.000187345
-1.37654e-05
0.000528952
0.000999288
-0.000373046
0.000661256
0.000201316
0.00124507
0.000217409
-0.000231267
-0.000613683
-1.55592e-05
0.000542046
0.000492361
-2.80844e-05
-0.000363354
0.000262917
0.000183542
-0.00021538
-0.000705605
-4.33502e-05
0.000466134
0.000536984
2.666e-05
0.000244222
0.000468043
0.000291761
-0.000786716
-0.000480605
2.36612e-05
-0.000203492
8.52888e-06
0.00213949
-0.000339929
0.000449269
-0.000196209
-0.000177677
0.00043813
0.000451875
-0.000588607
-0.00140218
-0.000313549
0.000153696
-9.65662e-05
0.000126648
0.000333068
-0.000131205
-6.50975e-06
2.09707e-06
-6.08626e-05
0.000760538
0.00124948
0.00114769
1.19911e-05
0.00136512
-0.000264785
0.00087508
0.000146815
-0.000362813
-0.000543112
-0.000396525
-0.000821052
-0.000245473
0.000261053
2.62591e-05
-0.000365769
-0.000785113
-0.000105616
2.33874e-05
-0.000216305
-0.000311024
-0.000600955
0.00104345
-0.000125623
0.000523001
