0.000662873
2.94659e-05
0.000940418
0.000251222
-5.47465e-05
-0.000361702
9.6703e-05
-4.35664e-05
-5.27652e-05
-0.000235974
0.000542415
-0.000279376
0.000274605
-0.000290122
0.000450484
0.000216513
0.000811117
2.9108e-05
-0.00022737
0.000175168
0.000414506
-0.000403273
-0.000214622
-0.00114117
7.19748e-05
0.00053591
-0.000445733
-0.000269618
-0.000148782
0.000566845
-0.000290503
1.86943e-05
0.000626991
0.000504831
5.82239e-06
-9.99741e-06
-0.000302769
-0.000298172
-1.85608e-05
-0.000863741
-0.000185513
-0.000942453
0.000226954
0.000340466
-0.000325013
-4.96698e-05
-0.000247024
0.000101839
0.000422636
-0.000151306
2.91344e-05
0.000229434
0.000286768
4.2248e-05
-0.000175998
0.000332525
-0.000324032
0.000198793
0.00010378
0.000354861
-0.000135538
0.000179681
0.000347583
0.000800116
0.000381056
0.00018887
9.47539e-05
0.00011027
-0.000313666
0.000177336
2.13967e-05
0.000508668
-0.000103535
4.10475e-06
-5.88756e-05
7.97878e-05
8.37507e-05
0.00101068
-0.000266463
0.000826295
-0.00107768
0.000112874
0.000240339
0.000801261
-3.94165e-05
0.000697172
-9.29762e-06
0.000536262
0.000707955
-0.000159929
0.000396066
-0.000242544
-0.000156581
-0.000107521
0.000342553
0.000237576
-0.000897017
0.00067007
1.15118e-05
-0.000652476
-0.000963206
3.78115e-05
-0.000113397
0.000631897
-0.000161184
-2.28722e-05
8.13782e-05
-0.000722983
0.000261164
7.44178e-05
-0.000255043
-0.000125801
-0.000519196
-6.56338e-05
0.000735442
0.000602834
0.000235925
0.000101364
-7.57439e-05
-0.000313328
-0.00025415
-0.000115207
-7.77547e-05
-2.1633e-06
-0.000348493
0.000318389
-4.22136e-05
0.00100841
4.31979e-05
0.000621908
-0.000170922
-0.000133444
0.000434164
-0.000717064
-3.34852e-06
-0.000472536
-0.000671628
0.000224066
0.00064558
-0.000482662
-2.43607e-05
0.000509236
0.000410891
-0.000494118
0.000582347
0.00033112
0.000398832
-0.000103635
0.000162781
0.000779536
-7.78442e-05
-0.000543092
0.000211562
-0.000309847
-6.03143e-05
0.000663752
-0.000453345
-0.000334372
0.00134313
-0.000599851
-0.000158867
-0.00011158
-0.000460002
-0.000329828
0.000269113
6.66184e-05
0.00156221
-6.99167e-05
0.000351759
-0.000216812
0.000751159
-0.00014931
0.00128458
0.00127334
-1.51377e-05
-8.62613e-05
0.000284342
-0.000218841
0.000685292
-3.40481e-06
1.14626e-05
0.000284358
0.000742794
-0.000562404
0.000209325
0.000260742
0.000130047
9.93282e-05
-0.000103751
-0.00019553
0.000705259
-0.000105748
0.000321455
7.79814e-05
-3.60081e-05
9.86743e-05
-0.000240967
-7.55058e-05
0.000243199
-0.000203526
-0.000165441
0.000981144
-0.000285628
-0.000329655
-5.6411e-05
-0.000504108
6.56291e-05
8.5202e-05
8.24006e-05
-9.36325e-05
0.000253765
0.000299138
-0.000149512
-7.74981e-05
-8.61229e-05
-0.000112431
-0.000118552
0.000229805
0.000801476
0.00034684
-0.000233732
0.000283173
-0.000113312
0.000214557
1.85679e-05
9.92928e-05
-0.000101848
0.000123816
0.00101822
-0.000340022
-0.000361038
-0.000138219
0.000191274
2.39225e-05
-7.50597e-05
-0.000243813
0.00010592
0.000106238
-8.44496e-05
-0.000233808
3.64867e-05
0.000184149
-0.000576756
8.15093e-05
-0.000233138
7.38699e-05
2.45446e-05
-0.00060527
0.000340099
0.000595604
7.2553e-05
0.00088567
0.000266875
-0.000635177
-0.000482012
0.000283683
9.42906e-05
-9.07237e-05
0.000174066
-0.000489305
6.11475e-05
-6.38007e-06
-0.000104132
-0.000340341
0.000329388
0.000119959
-0.000650757
6.92694e-05
2.37768e-05
-0.000156015
-0.000315298
-8.29156e-05
0.000300912
-6.09483e-05
-6.73842e-05
2.00913e-05
8.6827e-05
-0.000564353
-0.000539318
0.000381126
0.000834655
0.000776319
-8.36855e-05
-0.000133639
-7.85812e-05
-0.000135328
-0.000717196
-0.000246331
-7.48672e-05
0.000355981
-3.59848e-05
-2.0833e-05
-4.22471e-05
0.000272081
0.000320975
-0.000182508
-0.000236917
0.000150661
-3.94833e-05
0.000357683
-1.24023e-06
-0.00028273
-0.000381897
0.000218564
-0.000102224
0.000419939
0.000479849
8.02448e-06
-0.000165381
-0.00052748
-0.00110338
0.000446803
9.4172e-05
-0.000520788
-0.00113683
-0.000133727
-0.000397849
-0.0001141
-0.000149887
0.00025669
0.000522229
0.000296897
0.000670724
-0.000339085
-0.000142101
6.35275e-05
-0.00023451
1.42585e-05
-8.49802e-06
0.000179761
-0.000333987
0.000211217
-5.73923e-05
-0.000599092
-0.00017875
0.000142123
0.00137172
0.000120592
6.93899e-05
-2.40854e-05
0.000202997
0.000251549
-0.000412241
-0.000244806
-7.0788e-05
0.000388348
0.000979376
0.000496545
8.06671e-05
-2.59927e-05
1.66914e-05
0.000689615
0.00110278
0.000229836
6.71586e-05
0.000451225
0.000395772
0.000679965
0.00011126
0.000128802
-9.90981e-05
-0.000165113
-0.00018562
-0.00043696
0.000774847
3.96383e-05
-0.000218331
0.00142474
0.000572084
0.00059975
-4.80535e-05
-0.000327365
0.000562752
-0.000302046
-0.00100687
0.0002114
-0.000565701
-0.00051232
0.000401107
0.000151442
0.000334116
-0.000477495
-0.000404388
-0.000125909
4.74944e-05
0.000421406
-0.000163912
8.04009e-05
-0.000179472
0.000620128
0.00114487
0.000949132
-0.000397538
-0.00026696
0.000182394
0.000205612
8.48518e-06
-0.000166574
0.000146033
0.000440068
-0.000129423
-0.00012289
0.000401231
-2.8274e-06
0.000651689
-0.000184545
0.00149302
-0.000305537
-0.000862529
0.000106806
0.00102913
0.000107995
-0.000134612
-0.000116835
-0.000172429
-0.000356841
0.0015965
0.000452446
0.000404692
0.000544304
6.75546e-05
0.000876811
0.000277623
-0.000207541
0.000418017
0.000217653
-0.000128342
-0.00012948
-0.000534128
0.000133656
-0.000428707
-0.000451772
-0.000198275
-6.36551e-05
2.16672e-05
0.00076454
-0.000282825
0.000199554
0.000618511
-0.000138405
5.94093e-05
0.00104899
-0.00087659
-3.59172e-05
-0.000345982
0.000187576
-0.000289574
1.53595e-05
0.00028305
0.00123832
0.000214336
-0.00010369
-2.8694e-05
-0.000309488
0.00105415
4.85507e-05
0.000321758
-1.95348e-06
0.000101007
0.000777513
-0.000360017
0.00156853
-0.000537987
-0.000310301
0.000436955
-0.000362193
4.58091e-05
0.000173965
-0.000248998
-0.000263199
-9.3613e-05
0.000340309
-0.00010656
0.000399714
3.9311e-05
0.000328077
0.000817756
-1.74779e-05
-0.00010069
-8.10453e-05
0.000406764
1.77717e-05
0.000113087
-0.000459313
0.00013989
0.000491803
-1.1306e-05
-0.00030323
-0.000528856
0.00186215
0.000253632
9.42968e-05
-0.000231337
-0.000996079
-0.000356214
-0.000471264
-0.000278848
-0.000104091
-0.000127164
3.8161e-05
0.000107571
0.00036561
-0.000141746
0.000222254
0.000467735
0.000119807
0.000932515
0.00014331
0.0006349
-0.000571158
-0.00025057
0.0010389
-0.000186177
-0.000279585
0.000400629
-0.000479766
0.000423983
0.00027642
-0.000320753
0.000218112
-1.20629e-05
0.0004448
0.000358249
0.000308436
0.000708537
-0.000313878
-0.000224808
0.000107384
-0.000439008
0.00019119
-0.000239049
-8.80349e-05
-0.000140397
-0.000361895
-3.53192e-05
-8.09403e-05
6.37025e-05
-6.89349e-05
0.000539337
0.000450353
0.000268994
-0.000531291
-0.000416812
0.000258182
0.000164335
-0.0012561
-0.00012907
-0.000263116
-0.000114382
1.76854e-05
-4.90125e-05
0.000199001
0.000491601
-7.85913e-05
-0.000565419
-3.84971e-05
0.000407497
-0.000373653
3.21584e-05
0.000749973
-0.00065828
0.000484815
0.000529753
0.000131047
-0.000299708
0.000338772
1.22036e-05
0.000469284
0.00052056
-5.41872e-05
-3.52451e-05
-0.000358202
-2.00086e-05
0.000248011
-3.74146e-06
6.89183e-05
-0.000187258
0.000134322
-9.15087e-05
-8.31271e-05
-0.000322673
0.000228737
0.000854767
-0.000180281
-6.04367e-05
0.0014486
0.000221195
0.00147594
0.000204152
6.97679e-05
0.00026284
-9.8042e-05
0.000205348
6.07574e-05
6.32442e-06
-0.00013676
0.00174258
0.000184925
3.41056e-05
0.000147206
0.000493401
0.000377718
-0.000506964
-0.000391719
-0.000325587
-0.000279177
0.000808433
6.58564e-05
0.000219892
-5.67576e-05
-0.000303206
0.000240345
-0.000189652
-0.000573277
-2.53884e-05
-6.67567e-06
-0.000185263
-0.000854965
0.00073447
-0.000502948
-0.000489607
0.000332226
0.000370414
-7.41162e-05
0.000952033
-0.000452093
-5.46683e-05
-0.00147354
0.000617984
-0.000461007
0.00050576
-0.000253922
8.53795e-06
0.000502668
-0.000222862
7.36135e-05
1.9782e-05
0.000553071
0.0012816
-7.77755e-05
9.4067e-05
0.00109353
-0.000277401
-0.00038378
-0.000428014
0.000348282
0.000179361
-9.92128e-05
0.000329246
7.70897e-05
-0.000137567
-0.000523054
-0.000421045
0.00038593
-3.57174e-05
-0.000129992
-0.000158746
-3.18285e-05
6.50557e-05
0.000104823
-0.000276929
-0.000124417
-0.000404072
0.000134354
-0.00010819
0.000355477
0.000171526
0.000244882
0.000315966
-0.000371382
0.000733947
-0.000116569
-3.27981e-05
1.20556e-05
0.000444131
0.00091321
6.88764e-05
-1.63449e-06
-0.000295544
-0.000303821
8.91028e-05
-0.000113738
-0.00023819
-5.56843e-05
0.000220824
-0.000150409
0.000104935
8.15196e-05
2.02343e-05
0.000405708
-0.000328073
0.000395301
-0.000326041
-3.22614e-06
0.000218484
2.33339e-05
-0.000528708
-0.000497815
-0.000220399
-1.53998e-05
1.42643e-05
0.000491437
0.000177317
-0.000416835
0.000220753
5.79921e-05
-0.00109052
-0.000550733
-0.000246781
0.000108855
0.00029415
8.47663e-05
-7.21947e-05
-0.000147023
-0.000404759
-5.5434e-05
-0.000643668
6.91691e-05
0.000825381
-9.07838e-06
0.000173454
-2.23147e-05
0.000179842
-2.24558e-05
0.000462339
-0.000188897
-0.000539172
0.000306647
0.000227132
0.000107772
-0.000422165
-0.000148229
-0.000353201
-2.8774e-05
-0.000289915
-0.000439794
0.000221694
-0.000947033
-0.000289042
0.000420347
-0.000351888
-0.000118841
0.000557407
0.000126736
7.59794e-05
0.000507843
-5.31981e-05
0.000663989
-0.000405536
9.46735e-05
6.82304e-05
0.000159593
0.000203861
0.000760559
-0.000279081
4.26405e-05
0.000171292
-0.000675597
-4.42516e-05
0.000934845
-0.000175515
-0.000141701
-0.000177128
-0.000132842
0.000392066
-9.92998e-05
-5.73281e-05
0.000958452
-0.000417176
0.000506762
0.000194722
0.00042395
0.00135308
-0.000326949
0.00344258
0.000138903
-7.23441e-06
0.000127919
-2.29588e-05
-0.000127896
0.000302486
0.000205381
0.00014619
0.000441357
0.0024864
-0.000223965
-6.99563e-05
0.00022064
4.93603e-05
-0.000139499
-0.000394707
4.29682e-05
5.28125e-05
0.000728097
-5.06948e-05
0.00166471
-8.88806e-05
0.000219439
-0.00012067
-3.91701e-05
0.000457979
0.000120771
0.000346999
-0.000121419
-5.80134e-05
-0.000499607
-8.76755e-05
3.41139e-05
-0.000569534
-0.000309124
-6.51721e-05
-1.36058e-05
0.000370739
-0.00106159
3.42646e-05
-0.00034197
0.000807993
0.00297232
-0.000178133
5.82743e-05
5.05847e-05
-3.84855e-05
-0.000381442
-0.000304451
-0.000130904
2.28269e-05
-0.000146241
0.00110111
0.00119395
0.000276302
0.000660454
0.000170698
0.00026387
6.78229e-05
0.00118747
0.0011358
5.05427e-06
-0.000413396
8.99903e-06
-0.000507625
0.000696807
-0.000303047
0.000115723
0.000177928
-0.000252561
6.37988e-05
0.000181102
0.000574022
0.000252082
-0.000125559
-0.00017621
0.000376418
-0.000370358
-0.0005807
0.000476443
0.000189319
-2.81387e-05
-5.85016e-05
-3.64202e-05
-0.000467972
-1.14137e-05
-0.000193364
-0.000109591
-6.49467e-05
-0.000168582
-0.000281594
-0.000240454
-3.489e-05
-0.000192978
0.000158831
-6.59726e-06
0.000442104
0.000547876
-0.000350553
-3.63965e-05
-0.000118861
0.000268961
-0.000322997
-0.000159957
0.000271759
3.59012e-05
0.000365505
-0.000176507
6.73375e-05
-0.000116037
-0.000214964
-5.73827e-05
-0.000274653
7.45436e-05
-0.000248607
-0.000297689
0.000212111
0.000293578
0.000143869
0.000961769
5.21042e-05
-7.17475e-05
-0.000736432
0.000371747
3.28448e-05
-0.000369772
0.000332306
-0.000530062
0.000440239
0.000313445
0.000161937
2.13115e-05
-0.000328363
6.24076e-05
0.000343976
-0.000217707
0.000322223
0.000225552
0.00052587
-0.000410114
0.000109614
-0.000138598
-0.000122423
8.96836e-05
3.16838e-05
-0.000155815
0.000370042
7.22376e-05
0.000241766
-5.74051e-05
0.000451943
-0.000112105
-0.000206365
0.000176575
0.00161789
0.000471421
0.00135101
0.000483955
-0.000960258
0.000257754
-0.000259171
8.20683e-05
0.000138203
-0.000350572
-0.000288321
-0.000571975
-0.000733371
0.000102541
0.000217434
8.14511e-05
1.13236e-06
-0.000572312
-0.000263763
0.00131306
0.00038627
-4.6179e-05
-0.00106825
-0.000531618
0.000524323
-0.00101051
-9.14728e-05
-0.000268938
0.000122477
0.000144138
9.66734e-05
-0.000437251
0.000257592
-4.59052e-05
0.00114525
-0.000178193
-4.05624e-05
-0.0018831
6.34453e-05
0.00039708
-0.000762551
-0.000291038
0.000375412
-5.79453e-05
0.000227105
0.00021762
-0.000345277
-0.000386669
-0.000236218
0.000236179
-0.000100203
0.000572469
2.19878e-05
-5.09878e-05
6.47188e-05
-0.000370901
0.000282039
-2.59985e-05
-0.00016558
0.000395815
-0.000487552
0.00052226
0.000539298
0.000345967
0.000192488
-0.000239049
0.000464634
2.27205e-05
0.000700076
-0.000559257
0.000315039
0.000235797
0.000131565
0.000209203
2.03077e-05
0.000193728
0.000205766
0.000213157
0.000134197
0.000446856
-0.000469054
-0.00020838
-0.000168787
-5.1806e-05
-0.000232713
3.66432e-05
-0.00017627
-0.000453295
0.000551836
0.000602594
0.000118302
0.000307687
0.00120765
-0.00011608
-7.19694e-05
0.00105224
6.90178e-05
0.000668776
-2.19216e-05
-4.23492e-06
3.44807e-05
0.000255226
0.000427313
0.00113268
-0.000321205
-0.00011639
0.000276159
0.000510808
0.000572798
-0.000127946
-0.00113577
5.87027e-05
-0.000456151
0.000574462
0.000121527
-2.32464e-05
7.60198e-05
0.000355573
0.00028228
0.00103209
-0.000301911
-0.000346389
0.000926156
0.000244061
0.000778971
0.000263069
-0.000239634
-0.000487146
0.000468764
-0.000609577
-0.00029172
-0.000264592
-6.53746e-05
0.000935494
-0.000325782
-2.43944e-05
3.13044e-05
-0.000140206
-0.000423476
-4.76649e-05
-0.000488977
0.000145352
0.000412861
6.53996e-05
-0.000264586
0.000550027
-0.000384925
0.000562659
9.9689e-05
-6.45199e-05
0.000234104
9.49469e-05
3.76753e-05
0.000801963
9.52154e-05
-0.000231857
0.00083161
-0.000351199
6.6314e-05
0.000293634
-0.00100843
-0.000216125
8.81731e-05
0.000535211
0.000975926
0.000210566
1.97477e-05
-0.000321387
4.59491e-05
-0.000315939
8.74723e-06
0.000611056
0.000123715
0.000334948
6.96589e-05
0.000151702
-0.000387179
0.000271494
0.00103322
0.000364739
-0.000567521
0.000779825
-0.000210692
0.000538289
0.00145712
-3.63388e-05
0.000250375
-0.000307793
0.00067509
0.000157964
0.000118462
0.000729143
-0.000606268
0.000134118
0.000109821
-0.000149731
0.000578123
-8.13692e-05
-0.000241282
0.000225853
0.000233175
-0.000429726
0.000457805
-0.000714699
0.000220706
0.00116527
1.47031e-05
0.00165197
0.000163645
-0.000335588
0.000434839
0.000401566
0.00030865
-1.39656e-05
-0.00035607
-0.000690854
0.000308014
-0.000542247
0.000923507
5.54934e-05
0.000193645
4.6315e-05
0.00016906
4.66487e-05
-0.000144235
-0.00072623
0.000901331
0.000276902
-0.000565661
0.000641033
5.94655e-05
-3.5776e-05
0.000403201
-7.27212e-06
-0.000153915
0.000506666
0.000804258
-0.000316477
-6.44442e-05
-6.3878e-05
-0.000194404
0.000150103
-0.000599261
-0.000579639
-4.91091e-05
-0.00071716
2.78701e-05
-0.00106104
0.000300288
0.000691373
-0.0001721
7.50157e-05
0.000102661
-0.000217314
0.000306273
-0.000626466
0.000357767
-3.94537e-05
8.66292e-05
8.17229e-06
4.39861e-05
3.58804e-05
-0.000681685
5.87255e-05
-0.000136681
0.00026381
-0.000122138
-0.000344743
-0.000440446
-0.000735737
-2.17978e-05
-0.00112741
0.000138799
-0.000279629
-6.5715e-06
-0.000877817
-0.000618604
4.40571e-05
-3.52897e-05
0.000872997
0.000475812
0.000257591
-0.000527773
-6.34359e-05
0.000760876
0.000201624
0.000199989
9.39513e-05
-0.000717261
-0.000378017
-0.000418082
-6.32807e-05
-2.13465e-05
-0.000794873
0.000311676
0.000255375
0.000150828
0.000448041
0.00085218
-0.000484167
0.000620297
9.48236e-05
0.00154473
0.000172086
-0.000186649
0.00218937
0.000512421
0.00030173
-0.000413391
0.00028542
-9.61511e-06
-0.000168372
-0.000334872
-6.96738e-05
-0.000959875
-0.000114228
-0.000179163
0.000407988
-0.000843757
0.000257455
-5.37943e-05
0.000553095
6.46773e-05
-8.56923e-05
0.000320433
-0.00059096
-0.000283748
0.000277275
-0.000321777
0.000185231
-0.000255488
0.000636672
0.000139084
-4.34431e-05
-0.000169147
-0.000279479
0.000508447
0.000368981
0.000316004
0.000824608
-0.000109041
0.0012649
0.000248206
0.00010025
-4.32107e-05
-5.46995e-05
-0.000221907
3.28969e-05
0.000223887
-0.000218073
-0.000322972
0.000518685
-0.000423952
-0.000347071
2.64379e-05
-0.000105801
-7.70983e-06
-0.000194009
-0.000502939
-0.000165435
-0.000822553
0.000222456
0.000558645
-0.000575446
-5.66181e-05
-0.000707126
0.000163881
-0.000439839
0.000141273
-6.53131e-05
0.000426216
0.000214962
-0.000146974
-6.7155e-05
-0.00024947
0.000198363
0.000937181
-0.00121673
-0.000121666
0.000287841
0.000145364
-0.00022628
-0.00049322
-0.000404578
-4.80743e-05
-0.000913781
-0.00013364
0.000291589
-0.000504258
0.000167908
-0.000133303
0.000322388
-0.000131735
-0.00112588
2.52188e-05
0.00136032
-0.000696263
0.000531135
0.000944143
7.36554e-05
8.5556e-05
-6.02475e-05
-9.46631e-05
-0.000235488
-4.01713e-05
2.80655e-05
6.62689e-05
-6.55855e-05
4.03136e-05
2.12882e-05
-0.000623831
0.000535085
0.000259525
0.00139347
-0.00126082
0.000129926
-2.02814e-05
0.000692554
0.000206429
-0.00044992
0.000275123
-0.000256059
-0.000147165
0.000104013
-0.000281434
0.000152453
-0.000746889
0.00112256
0.000654676
-0.000751762
-0.000802569
0.000206108
0.000357272
0.000466935
0.000280903
0.00105174
0.000316289
0.000309554
0.000237459
0.000157148
-3.53218e-05
-0.000182629
0.000271058
-0.000385558
-0.000322157
-0.000737354
-1.52758e-05
0.000468614
-0.000237127
0.000550668
-0.00034168
-0.000553597
0.00042627
-0.00087146
0.000887828
1.2827e-05
6.16747e-05
0.00046652
0.000406987
0.000566549
0.00301624
0.00110476
0.000448201
0.000107009
-5.60447e-05
-0.00012339
-2.76627e-05
1.4805e-05
-0.0003214
-0.00062963
0.000450622
0.000211767
0.000379119
-0.000200857
5.09524e-05
0.000192714
7.16306e-05
0.000411244
-0.000378043
-8.99139e-05
0.000739734
0.00217327
-0.000363213
0.000166275
0.0001789
-0.000571771
-0.000268406
-8.14913e-05
-0.000406703
-0.000689864
9.48408e-05
0.00100317
-0.000159339
-0.000417334
0.000260455
0.000763935
0.000952785
-0.000473422
-5.67087e-05
-0.000651427
0.00063965
0.000260091
9.50384e-05
-0.000678878
-1.08915e-05
0.000488239
0.00017109
-0.000332486
-0.000662289
0.000820055
-0.000281339
-0.000414933
0.000983865
-0.000152951
0.000384876
3.7635e-05
-0.000398914
0.000179719
0.000226272
2.73287e-05
-0.000874513
-0.000537991
-3.25686e-05
-0.000212227
0.000248638
4.48964e-05
0.000364808
-0.000105864
0.000422271
-0.000255641
0.000332476
0.000648173
-0.000128878
0.00090062
-5.53124e-05
0.000553434
4.82414e-05
-0.00075569
0.000529059
0.000108973
-0.000593023
-0.000144752
0.000845706
-0.000355212
0.000404293
9.87276e-05
0.000950342
0.000899756
3.85142e-06
0.000945021
-0.000822063
0.000505859
-0.000589535
0.000647796
0.000342305
-0.000490816
0.000181202
-0.00101239
0.00117323
7.18823e-05
0.000161568
-0.000484548
-0.000301314
-0.00074594
-9.46752e-05
-0.000234274
7.65068e-05
0.000483515
5.60457e-06
0.000813086
-0.000592191
-0.000107261
0.000213001
-0.000173273
0.000565403
-0.000132978
0.000296975
0.00221221
0.000729622
-3.90154e-05
0.000529581
5.89299e-05
-3.78844e-05
-0.000607354
0.000386468
-4.92029e-05
-0.000244615
0.000838255
0.000888007
0.000194701
-0.000374839
0.000129779
0.000756139
9.94304e-05
0.000208942
-0.000196365
7.3116e-05
-0.000454515
-0.000269872
-0.000480929
0.000201121
0.000271902
-0.000132122
0.000752188
0.00014508
-0.000542007
-0.000404107
0.000327164
0.000928548
0.000496766
0.000456814
0.000111324
-8.50871e-05
0.000472138
-0.00032201
0.00054577
-9.73679e-05
-3.64705e-05
0.000661153
-0.000202162
-4.02915e-05
6.9042e-05
0.000693797
-0.000817157
-5.75267e-05
-0.000583368
0.000134624
0.000117795
-0.000135872
-0.000277573
-0.000500801
0.000424247
-0.000179831
0.000353968
0.000201647
0.00214959
0.00086909
0.000928781
5.88312e-07
-1.68832e-05
0.000334581
-6.40574e-05
0.000163444
0.000198414
4.36995e-05
0.00043562
-0.000143902
-1.79285e-05
-0.000106362
-0.00034253
-0.000699021
0.000330869
0.000633881
-0.000139971
0.000461032
0.000416495
-0.00053886
-0.00011975
1.73312e-05
1.80046e-05
-4.48912e-05
0.000256173
-4.73412e-05
-0.000242141
0.000469823
-0.000523033
0.000598744
0.000316409
-0.000101355
-9.98089e-05
0.000471561
-0.000156584
0.00117812
-6.12894e-05
0.000359678
0.000566692
0.000402268
-0.00107456
0.000363419
-0.000187096
0.00025669
-0.00117187
0.000273769
7.70453e-05
-0.000156344
0.000379368
-0.000433536
-0.000229288
-0.000404919
9.33002e-06
0.000125012
-0.0002826
0.000151025
0.000214955
-0.000430207
0.000752272
-0.000514952
0.00030739
8.11362e-05
-0.00033961
-0.000440058
0.000424244
0.000215206
4.83287e-05
0.000898484
-7.27772e-06
1.16469e-05
8.46143e-05
-0.000175936
2.65778e-05
6.08534e-05
-0.000177634
0.000107319
0.000227307
5.66823e-05
-0.000363392
2.57469e-05
9.44145e-05
0.0008859
0.000281782
-0.00042271
0.000305191
0.000384792
0.000581933
0.000214711
0.00102016
1.28488e-06
-0.000158563
0.000797508
-0.000153389
0.00033354
0.00158333
0.00025509
-0.00181283
0.00060858
-0.000154086
-0.000237765
-1.32147e-05
0.000150547
-0.000308926
0.00037832
0.000305939
0.000257028
-4.39898e-05
0.000256719
0.00061157
-0.000258149
1.08434e-05
-0.000329824
-0.000433197
-2.60889e-05
-0.000257302
0.000596356
0.0004522
-0.000122211
-0.000449205
0.00015471
-0.000548097
0.000251364
-0.000278175
0.000637518
-0.000210562
-0.000293203
7.79934e-05
-0.000178183
0.00107206
-0.000352649
-0.000315835
-0.000104877
-0.000111312
1.64849e-05
-6.12509e-05
-0.000279812
-0.000655259
-0.000330992
5.72579e-05
0.000179283
-0.00049659
0.000201358
-7.9755e-05
0.000445582
0.000572569
-0.000295353
8.1115e-05
-0.000113739
-7.94652e-05
-5.67506e-05
-8.9029e-05
0.000486127
-4.78961e-05
4.43877e-06
0.000124762
-1.05691e-05
-0.000476396
0.000314908
-0.00023354
2.54879e-05
0.000729616
0.000171205
9.60209e-05
-0.000136032
-0.00056199
0.000403575
0.00101443
0.000966093
-0.000346031
-0.000211432
6.22292e-05
0.000716783
0.000102576
0.000822127
0.00207976
0.000156437
0.000678397
-0.000192407
0.0005541
-0.000815571
-0.000848075
-0.000413716
0.000332397
7.10057e-05
0.00010621
-0.000560979
0.000130961
0.000260753
-8.23411e-05
1.18673e-05
-0.000173128
0.000594338
-5.52593e-05
0.00028255
0.000425726
-0.000265199
-0.000277907
0.00026433
-0.000366951
-5.22219e-05
-0.000178131
0.000473073
0.000577607
4.91628e-06
0.000283127
-0.00101852
-0.000200757
0.000620319
0.00043313
0.000364949
0.000257684
0.00056463
-0.000355424
0.000438337
0.000321834
0.000392966
8.05173e-05
-0.000390515
9.21828e-06
0.000346164
-0.000457477
-0.000119448
0.000188927
-0.000152635
8.58946e-05
5.37188e-05
0.000513293
0.000395457
0.000374551
-0.000271006
0.000131954
4.22851e-05
-0.000133267
0.000207456
-0.00011875
-0.000128659
-0.000527184
0.000185563
0.000549868
0.00130505
-8.24771e-05
0.000428959
-3.9956e-05
0.00176508
-1.42036e-05
-0.000329181
0.000180369
0.00074056
8.88893e-05
-0.000168555
0.000442892
-0.000388461
-0.00116922
0.000386624
0.000512732
3.08558e-05
0.00132231
0.000937584
0.000628018
-0.00011905
0.00127495
0.000383335
5.87786e-05
-0.000168225
-0.000243593
0.000406205
-0.000751656
-0.000300176
-0.000382352
0.000467586
0.000540828
-0.000279574
7.05565e-05
-0.000426227
0.000140719
-6.36432e-05
0.000302407
0.000269724
-7.01775e-05
1.46679e-05
0.000298534
8.80351e-05
-0.000277157
-0.00034763
-0.000297103
0.00126148
-0.00038787
0.000408647
0.000747849
-7.33747e-05
0.000288534
0.00120641
0.000374972
0.000897882
0.000395963
0.000623469
6.38773e-05
-0.000771374
4.77625e-06
9.62954e-05
0.000213837
0.000669692
0.000131363
9.18232e-05
-0.000167831
0.00039897
-4.45147e-05
-0.00043708
0.00150137
0.000252873
-0.000114398
-0.000306893
-1.52343e-05
8.72209e-05
0.000697757
-0.000287962
0.000239787
-0.000289894
-0.000139947
-2.93861e-05
-2.76542e-05
-0.000467863
0.000233743
-0.000195275
-0.000488649
-0.000391483
0.00122237
0.000285451
1.09811e-05
0.000572479
0.000581365
-6.58113e-05
0.000190985
0.000205444
-0.000159458
5.85642e-05
-0.000390518
0.000392667
-0.000147924
-0.000126886
0.000443428
9.27053e-05
-0.000215069
-0.00107962
-0.000220545
-0.000117034
-0.000447216
-0.000144529
-0.000239524
-5.21559e-05
5.74637e-05
-0.000336532
0.000341833
-3.26807e-05
0.000513155
0.000174197
0.000142419
0.00152341
0.000491691
0.000752881
0.000543088
-0.000816587
0.00125904
-6.94688e-05
0.000579117
0.000200603
7.13562e-06
-3.5297e-05
-0.000115123
0.000165268
-0.000242496
-0.000368996
0.000701242
-0.000481377
0.000177931
-0.000255721
0.000753417
0.000130122
0.000362979
0.000216514
8.50488e-05
-0.000248812
0.00123159
0.00145834
0.000972861
-5.14272e-05
-6.40461e-05
0.000821196
0.000447773
-0.000106971
-0.000104653
-0.000390453
-0.000104019
-0.000149908
0.000266179
0.000745132
0.00119434
-0.000761835
0.000454886
-0.000588812
0.000810194
-0.000257278
1.15873e-05
0.000227886
-6.30076e-05
0.000188353
0.000170491
-0.000506458
-0.000479874
8.59732e-05
-0.000254109
-0.000282367
-0.000317928
-0.00016112
0.000135417
0.000125527
6.68668e-05
0.000873183
-0.000352859
0.000899034
0.000267534
4.72913e-05
6.66492e-05
-0.000160521
-0.000156504
-0.000151226
9.07577e-05
4.17653e-05
0.000251196
-0.000233438
-0.000298722
-0.000420674
5.34555e-05
-0.000115362
0.000151986
0.00033639
0.00102272
-0.00106292
-0.000295433
0.00163791
-0.000416502
-0.00024222
-0.000165966
-0.000285826
-0.000115616
0.000194376
0.000480221
0.000476888
-8.14071e-05
-0.000804043
0.000138301
-0.000125918
8.59114e-06
-0.000172811
0.000768939
-1.40465e-05
-0.000610271
0.000806558
-0.000259352
-0.000533423
0.000475084
0.000203582
-0.000336695
5.52417e-05
-5.47637e-05
0.000297556
3.63397e-05
0.00034705
0.000566528
-0.000118589
0.000236597
-5.80818e-05
-0.000190912
0.000993636
-0.000403726
0.000145531
8.31096e-05
0.000140383
0.00011811
-0.000173321
-0.000350972
-6.33826e-05
0.000714538
-0.00116842
3.15476e-05
-0.000177667
-0.000125486
-0.00038774
0.00042134
0.000167623
-1.63794e-05
0.00020673
0.000126587
-0.000281428
0.000738224
0.000137381
-0.000565691
0.000177365
-9.06402e-05
0.000357605
6.96111e-05
0.00153093
8.34069e-05
-0.000135985
-0.00090591
0.000138644
0.000146796
-0.000398739
-2.28706e-05
3.95977e-05
5.43985e-05
-0.000228118
0.00128935
-0.000219373
0.000442291
0.000170984
0.000222509
0.000260571
0.000237648
-7.86098e-05
0.000348965
0.000589681
0.000460602
-0.000257398
0.000100419
-7.12264e-05
-0.000515403
-0.000164514
0.00157008
9.85493e-05
-0.000273378
0.00118631
-0.000122067
0.000270631
0.00104115
0.000405012
-0.000107185
0.000192392
0.000211048
-0.000795081
-2.51497e-05
-7.35193e-06
1.83876e-05
0.000364698
0.000905961
0.000230424
-0.000135364
0.00058807
6.23688e-05
0.00026417
0.000237534
0.000703561
0.000259441
-0.000287434
7.55078e-05
0.00040148
0.000298459
6.0622e-06
-1.82304e-07
9.79515e-06
2.16205e-05
0.000115351
0.000153505
0.00024458
-0.00024785
-2.36341e-06
0.00099544
0.000313346
-1.80529e-06
-0.000241176
0.000582799
8.44235e-05
0.00168073
0.000361775
-0.00025303
0.00120142
0.000670332
6.08706e-05
0.000347348
-0.000391793
4.46995e-05
-4.85133e-05
0.000641948
0.000552107
0.000685499
-0.000243234
-0.000213474
5.98982e-05
6.4652e-05
-0.000128204
-1.06886e-05
6.88966e-05
-1.43897e-05
-0.000223932
0.000118437
0.000243194
-0.000113805
0.000807186
-7.67749e-05
-0.000421199
-0.00041174
-0.000113958
7.58601e-05
-0.000464174
0.000205816
-0.000325608
-0.000124547
0.000123594
0.000294922
-1.89076e-05
0.00144427
5.03539e-05
-0.000152676
2.3266e-05
-0.000704162
-0.000298696
-0.000136481
0.000120348
0.000550293
0.00125529
-0.000420607
-0.000251091
-0.000479365
0.00112961
0.000210539
-0.000471017
0.000214569
6.40714e-05
-8.49965e-05
-0.000284006
-0.000212383
-0.000151977
0.000111522
-0.000462807
0.000462018
-0.000306077
0.0010438
0.000268991
0.000856554
6.63453e-05
-0.000378336
0.000286071
0.000529699
-0.000590186
7.95099e-06
0.000151653
-9.40782e-05
-0.00106043
0.000555395
-0.000197773
0.000115698
0.000418154
-0.000471876
-0.000134804
0.000613594
0.000466836
0.000118009
0.000149818
-0.00070577
-0.000534913
0.000258203
-2.59229e-05
-0.000627816
0.000182982
-7.54569e-05
0.00102217
0.000192341
0.00044129
0.000956715
-3.50037e-06
0.000449218
-0.000355095
0.00042744
0.00101014
9.71513e-05
-0.0001102
-4.7991e-05
7.74387e-05
0.000274722
-0.000383378
-0.000257528
-0.000226312
0.000363339
2.52356e-05
-0.000747717
0.000134805
-0.000115451
4.83375e-05
0.0020521
-5.06531e-06
0.000133628
0.000163284
0.000111286
-0.000351046
-0.000142759
0.000815991
0.000725821
0.000370355
-0.00015852
0.000986345
0.000247039
-0.000158911
0.000645008
0.000171877
-6.49071e-05
-1.86778e-05
-0.000616085
-0.000309635
-0.000557438
-0.000168202
-0.000280843
-0.000607846
7.80229e-05
-7.81525e-05
0.000310126
0.000420701
0.000353087
-8.61364e-05
-0.0010943
2.93885e-05
-0.000130639
-0.000236043
-0.000241845
0.0002768
-3.0092e-05
0.000588311
0.000402192
-0.000505933
0.000318342
4.00707e-05
0.000158025
-4.6134e-05
1.73246e-05
-0.000334183
0.000618972
2.85008e-05
-0.00019244
-0.000355204
-0.000514578
9.2226e-05
0.000298085
0.000280909
0.000817609
0.000292638
-0.000276745
0.0010127
-1.90751e-05
-0.000365635
0.000113668
4.29114e-05
-0.000200028
3.85034e-05
0.000331275
0.000270626
7.8677e-05
1.38367e-06
2.66698e-05
-0.000468066
0.000253533
-0.000120044
0.00121886
0.000761584
0.000809358
-4.23767e-05
-4.2096e-05
0.000250542
6.33834e-05
-0.000373602
-0.000563694
-0.000397232
-0.000218866
0.000111362
-0.000321275
-8.32848e-05
0.000628643
-0.000186217
-0.00052688
-6.92296e-06
0.000423867
-4.56755e-05
7.30255e-05
0.000178867
-0.000358504
-0.000531479
-0.000133093
-0.000766235
-0.000679771
-5.46541e-05
-0.000163586
2.06995e-05
0.000395568
0.000369866
9.58792e-05
-0.000272622
-0.000310292
-0.000132789
-5.03124e-05
0.00152864
-2.76559e-06
-0.000538648
-0.00016405
-0.000556836
0.000380343
0.000248626
-2.165e-05
0.000124867
0.000795677
0.000465036
0.000308056
-0.000353759
-4.22581e-05
0.000300935
0.000596698
0.000523273
-0.000368255
-0.000152064
0.000529535
0.000596935
-0.000283343
0.000318055
0.000715413
0.000634511
-3.48421e-05
0.000723259
-0.000341623
3.68845e-05
-0.000104422
-7.62654e-05
-9.35416e-05
1.68085e-05
-0.000166879
-0.000227868
0.000483333
0.000130011
-0.000346944
6.15756e-05
-1.03168e-05
0.000525737
0.00111207
-0.000451801
6.87188e-05
-0.000245955
8.77498e-05
6.43695e-05
-0.000161234
-0.000362231
0.000282261
-0.000127055
-0.000605222
-0.000371622
-0.000104042
0.000283217
0.000218875
-9.23361e-05
0.000383975
-0.000226611
-4.6772e-05
0.000877604
-1.69509e-06
3.36268e-05
4.68217e-05
-0.00025224
0.000148462
0.000586289
-6.91611e-05
6.78089e-05
-0.000184645
0.000295171
0.000263822
-0.000209103
0.000432401
-0.000431951
0.000399029
0.000214978
0.00092366
-0.000678466
-5.17731e-05
0.000444501
-0.000177412
0.000787002
-2.90948e-05
7.06166e-06
6.53299e-05
0.00131667
0.000808316
0.000405079
0.000112541
-3.01289e-05
0.000199812
0.000143745
4.72384e-06
-0.00031059
0.000396789
0.00016807
0.000144829
0.000148218
-0.0013051
1.62443e-05
3.22626e-05
-1.46256e-06
7.80524e-05
0.000679879
-0.00076503
-6.17034e-06
-0.000447058
3.50187e-05
-0.000393284
-0.000909813
-0.000147025
1.94568e-05
-6.44429e-06
0.000182014
-1.74716e-05
0.00155104
0.000444588
0.000874949
-0.000664398
0.000675561
0.000316575
-0.000375769
0.000390805
0.000201131
-4.93381e-05
-8.44227e-05
8.76597e-05
-0.000355833
0.000100395
-0.00028464
0.000230388
-0.000174292
7.54402e-05
-0.000993181
-0.000525494
0.000323495
3.5147e-05
4.99391e-05
-0.000252849
-3.49915e-05
-0.000309835
-0.000111135
-0.000118135
0.000823085
-0.000281535
0.00035687
0.000211839
-5.82894e-05
-0.000491916
-0.00017936
5.78651e-05
5.94776e-05
-0.000157231
-0.000589721
0.000786483
-0.000267458
-0.000260727
-0.000536022
-5.53277e-05
0.000263852
-0.000250826
6.99481e-05
-0.000186578
0.000253466
0.00172337
0.000271001
0.000434174
0.00107394
0.000606974
-0.000470643
-0.000544162
-0.00025373
-0.00103347
-0.000170865
-0.000142813
0.00093324
0.00038173
-0.000310078
0.000520948
0.000912994
2.34889e-05
-2.07047e-05
0.000685666
-0.000268255
0.00032614
-0.000149754
-0.000272451
0.000151295
-9.88512e-05
-0.000139975
-0.000507593
-8.68931e-05
0.000582965
-8.15219e-05
0.00085796
0.00049767
-0.000407538
-0.000392857
0.000605186
-4.11173e-05
6.37381e-05
-6.36692e-05
-0.000203137
4.12256e-05
-1.86406e-05
-0.000521203
-4.58415e-05
-0.000147578
0.000163413
0.000214041
0.000404005
-0.000264282
0.000212251
-0.000694195
0.000411045
-0.000605164
-9.60303e-06
6.60418e-07
0.000309337
-0.000331206
0.000344825
0.000131749
-0.000171619
-1.98579e-05
-0.000257115
0.000193029
0.000147624
0.000211315
-0.000358276
0.000553518
-0.000525211
0.000493506
-0.00030475
0.000487856
-0.00025708
-2.24044e-05
0.000144097
-0.000163735
-0.000536675
0.000110519
5.9736e-05
0.000353976
0.000476969
-5.16098e-06
-3.71024e-05
5.52067e-05
-0.000127767
-4.13781e-05
2.45702e-05
-0.000190733
0.00039503
-0.000101971
0.00034946
0.000838903
0.000644737
5.62149e-05
0.000195707
-0.000324572
-8.51401e-05
0.000442211
0.000600652
-0.000161762
2.64869e-05
-0.000114345
0.0013417
-0.000117197
1.93994e-07
0.000119494
0.000195783
0.000125212
0.000707289
-0.000256399
-0.000222533
0.00100957
-0.000811335
3.60503e-05
0.00023689
0.000145347
0.00031455
0.000174721
-0.00012076
-1.81818e-05
-0.000277653
-0.000181266
-6.26124e-05
-0.000321811
-0.000291492
-0.00029097
0.000134816
0.000314866
-3.7967e-05
6.3984e-05
0.000222067
-0.000121626
-0.000198547
0.000513767
-6.75721e-05
-0.000185631
0.000195081
-0.000468762
-0.00014149
-2.90988e-05
3.24303e-05
-5.49468e-05
0.000234432
-0.000122396
0.000162254
-0.000376403
-0.000150989
0.000594202
-0.000380549
-0.000158185
0.000243264
0.000667007
-0.000312921
-0.000733538
-0.000351795
-0.000110422
-0.000148662
0.000190924
-4.3406e-05
4.47052e-05
-0.00109295
0.000684706
0.000508974
-0.000468899
6.62279e-05
-0.000490176
-0.000964287
-0.00017908
1.37884e-05
1.36529e-05
0.000893538
0.000385699
-7.73035e-05
-0.000277118
0.000311864
0.000223806
0.0007701
-0.00032302
0.000543911
5.57796e-05
-9.75868e-05
0.000856949
8.07808e-06
-0.000111676
-3.40197e-05
0.0001407
-0.000880233
0.00127515
0.000500258
0.0024307
0.000608835
0.000992934
-8.08247e-05
0.00128603
0.000979907
-0.000318177
-6.26136e-05
0.000638337
-0.000552334
-0.00108295
0.000998719
0.000172925
-0.000205706
-0.000716552
-0.000760117
8.32434e-05
-0.000798735
-0.00038574
0.000252717
0.00136146
0.000530347
-0.00073823
0.000858254
0.00122812
0.000772354
-0.000367241
-0.000843891
0.000303456
0.000588575
0.000252173
0.000144522
-0.000516526
0.000746942
2.20179e-05
0.00031846
0.000424921
0.000358372
6.45447e-05
0.000453476
-0.000477343
-0.000894606
0.000226373
-0.00054781
1.06996e-05
-0.000113122
-0.000743396
0.000302529
0.000156452
-0.000708014
0.000681071
-0.000320276
0.00339282
0.000282918
0.000105328
9.83386e-05
-0.00058997
-0.00122652
2.98314e-05
5.03375e-05
-0.000323834
0.000291812
-0.000145799
7.80444e-05
0.000266735
-0.000869428
0.00088967
0.00137549
-0.00018746
3.42199e-05
0.00114672
-0.000607924
0.00227512
0.00184442
-9.65804e-05
-0.000795565
0.00196469
4.25322e-05
-0.00129556
0.000447607
0.00128528
0.000403649
-0.000600989
0.000222332
0.000569051
-0.000838091
0.00149833
0.00226256
-0.0001649
0.000393014
-0.000106321
0.000513026
0.00104941
0.000119248
-2.69086e-06
-0.000230647
0.000650917
-8.16437e-05
-0.00073473
0.000823468
-0.000318394
-2.25573e-05
0.000575827
0.000395671
0.00160785
-0.000856448
-0.000637953
0.00115437
5.36155e-05
-7.7801e-05
0.000300387
-0.000339804
-0.0009697
0.00148211
-0.000577525
-3.5964e-06
0.00010509
0.000210049
0.000177819
-6.33037e-05
-0.000184437
1.84712e-05
0.000178786
0.000188082
0.000451283
-0.00133806
0.000117793
0.00125698
4.63925e-05
-0.00120042
0.00096011
-0.00132644
-0.000244655
-0.000262143
0.000435535
-0.000108716
6.05533e-05
-0.000420164
0.000277711
7.66078e-05
-0.000458552
-0.000200983
0.000452672
8.40717e-06
3.16413e-05
-0.000363938
0.000271871
-0.000892784
-0.000675534
0.000869543
0.000327077
-0.000650588
-1.40853e-05
-0.00115348
0.000300508
-0.000155376
-0.000584221
-6.98979e-05
-0.000289613
0.000434961
0.000833324
0.000408038
0.00296714
-0.000509821
0.000526167
-2.14836e-05
-4.03275e-05
2.68808e-05
7.74411e-05
0.000860303
0.000867845
0.000190648
-0.00016722
0.000184193
-0.000575818
0.00144484
-0.000344912
-0.000335494
-0.000291012
-0.000756361
-0.000515753
2.05014e-05
0.00132231
0.000958782
-0.000303707
0.00012546
0.00162357
-0.000206615
-6.01589e-06
-2.9252e-06
-0.000837502
0.00145802
-0.000632885
0.000529669
0.000732269
-0.000238676
-0.000168926
-0.00104076
-2.06843e-05
-0.000142471
-0.000585834
-0.00055029
-0.00178346
-0.00022563
0.000501921
0.000700485
0.000486477
0.000284171
0.000968944
0.000347943
-0.000474494
0.000860467
-2.22316e-05
0.00234389
2.7777e-05
-8.08358e-05
8.71087e-05
0.000521667
0.00330988
0.000240714
-0.000906007
0.000315929
0.000785389
7.74362e-05
2.73379e-05
-0.000959912
-0.00067219
-0.000278449
-0.000292007
0.000708071
0.000642219
-0.000375765
0.000443418
-0.000115696
0.000646495
0.000550753
-0.000794721
-0.00140539
0.00199156
-0.000207395
-0.000812189
0.000121964
0.00172396
-0.000204761
0.00070174
0.000788926
0.000286821
0.000728486
0.000436253
-0.00100265
-0.00113841
8.41931e-05
0.00082821
0.000619135
0.00202705
0.000289319
-0.000529594
0.000150905
-7.74282e-05
0.000105418
1.22239e-05
0.000193721
0.000749762
0.000417953
0.000406735
-0.00078108
0.000450984
-0.000229503
6.13983e-05
0.000495083
-0.000402616
-0.000127572
0.00013298
0.00112382
0.000252181
-0.00162923
0.00053729
-0.000407289
-4.69656e-05
-5.28826e-05
-0.00130198
-0.000596027
0.000398994
-0.000581376
0.000224137
