-0.0214743
0.00367643
-0.000325377
0.00382388
0.000791351
-0.016688
-0.00201623
0.00379973
0.0137014
0.000280393
-0.0053141
-0.00902828
-0.00171136
0.000124637
-0.00960037
0.000956038
0.00996379
-0.00630742
0.00186501
-0.00184618
0.0198469
0.0231495
-0.000698767
0.00147846
-0.00598242
-0.000790951
-0.00399442
0.000580777
-0.00437642
-0.00324049
-0.0158028
0.00272076
1.23616e-06
-0.0101505
-0.000804016
0.00132132
0.00337641
0.00312101
-0.00183935
-0.0128247
0.000329342
0.00626738
0.0042724
0.00240835
0.00994339
-0.00134603
0.0119377
0.00372222
0.000139096
-0.000765162
0.00486837
0.00272137
0.00865488
0.00574472
-0.0104458
0.000389338
-0.00352707
-0.00220005
0.00450836
-0.00590723
-0.000217623
-0.00159929
0.0137553
0.0179358
-0.00119289
0.00877052
0.0132295
0.00268992
-0.00590923
-0.00319435
-0.00376013
-0.00296593
0.00628611
0.00837873
0.00766511
8.16367e-05
0.00946809
-0.0211609
-0.0024953
0.00204168
0.00179295
0.00299221
-0.000154669
0.00172791
-0.00701338
0.00462328
0.00204488
-0.000450083
0.00145347
-0.0137817
0.00745246
0.00393424
0.00220113
0.00349189
0.00364423
0.000333623
-0.00534262
-0.00137429
-5.30443e-05
0.00222941
-0.0109831
0.0161347
0.000165482
-0.000503384
0.00519882
-0.00896846
-0.00731054
0.00450234
-0.000216009
-0.0145927
0.00160707
-0.017685
-0.000993307
-0.00428472
-0.00418751
-0.00238448
0.0062728
0.0173405
0.00332955
0.00185364
0.00764947
0.00275721
0.00163616
-0.0022066
0.00677117
0.00208396
-0.00149276
0.00733438
-0.00412838
-0.000329454
0.00178571
0.00077697
-2.29463e-06
0.0093047
-0.00306057
-0.0121025
-0.00288953
-0.00164303
0.00241293
-0.00513304
-0.0143027
0.00886656
0.0166156
-0.0015908
0.00342432
-6.1151e-05
-0.00242747
-0.00214803
-0.000547864
0.00238031
-0.00807575
-0.0364584
0.00232286
-0.00701401
-0.00352486
-0.00668852
-1.01488e-05
0.000697793
0.00740366
-0.0108367
0.000927495
-0.00220655
-0.0104693
0.0103329
0.000167607
0.00226695
-0.00314185
-0.00943775
0.0040999
-0.0127029
-0.0122825
0.00445219
-0.00623938
-0.00840084
0.00554149
-0.00141677
-0.000178055
0.0202634
0.00311873
0.00283768
0.00891594
0.000976175
-0.00243103
-0.00214807
-0.0288609
0.00987621
-0.00192696
0.0015175
0.00825918
-0.000743474
-0.0136423
-0.000746362
0.000783846
0.0087595
-0.00398407
0.00779455
0.00449661
0.00129417
0.00279396
0.0012386
-0.0090711
0.00138745
0.00336424
0.00384381
-0.00192421
-0.00323948
-0.000296223
0.0159057
-0.013487
-0.0122025
0.00608551
-0.000663598
-0.000487906
0.00130651
0.0044837
-0.00983473
-0.00366372
-0.00275653
-0.00105777
0.0188799
-0.00225183
-0.00244342
-0.000740197
-0.000124652
0.00166662
0.000325818
0.00208746
-0.00678264
0.000674222
0.0171492
-0.00694945
-0.00309735
0.000389632
0.000588927
0.00144836
0.00175106
-0.00872583
-0.00518965
-0.00627423
0.00626745
-0.000141905
-0.00236157
-0.000636458
-0.00493395
0.00521494
0.00505782
-0.0019854
0.0012951
-0.0014859
-0.00613748
0.000520757
0.002153
-0.00643948
-0.0158347
0.000352492
0.0020334
-0.000976326
-0.0108494
0.00503499
0.00762895
-0.00244633
0.00717023
0.00712436
0.0016642
0.00351005
0.00331667
-0.00176404
0.00179979
-0.00104852
0.00398362
-0.00300069
0.00243462
-0.00379849
-0.000177301
-0.00316946
-0.000232148
0.00499226
-0.00339644
-0.0131713
0.00140912
0.00700924
0.00495475
-0.000963827
-0.00899117
0.000976835
0.00283845
-0.00629602
-0.00971963
-0.00120163
0.00102477
-0.010234
0.00750779
-0.00379767
0.000998553
0.00782297
0.00179587
-0.000135664
0.00399019
0.000830542
-0.00700279
0.000585454
0.0146898
0.0102315
0.00121284
-0.0040754
-0.0031234
0.0106131
0.00285979
0.00120743
0.00641674
0.00305341
0.00276917
0.0110252
0.00110693
0.00523689
-0.00048386
0.00592612
2.6053e-05
-0.000554919
0.00671725
0.00182682
-0.00372957
-0.00148847
-5.79844e-05
0.0120836
-0.00076769
0.00464121
0.00419698
0.00191751
0.00294301
0.0153526
0.00302939
-0.00232255
0.00010658
-0.00746108
-0.00534719
0.000793836
-0.00334616
0.00289696
0.000755937
-0.00206284
-0.00487782
0.0146567
-0.00292412
0.00662641
0.0127483
6.14378e-05
0.00657916
-0.00199529
-0.000422643
0.00253752
1.46357e-05
-0.00174648
0.0013378
0.00108031
-0.00227906
-0.00184411
0.00125493
0.0024058
0.00108949
0.000289663
-0.00235235
-0.00255262
0.00913302
-0.00318839
-0.00228584
-0.0017449
-0.010352
0.00258195
-0.000430959
-0.0060957
0.0095017
-0.00225028
-0.00252595
-0.000123431
0.0042321
-0.00814001
-0.00598647
0.00239495
-0.00452455
0.0104372
-0.00488119
0.00412652
-0.00505771
0.00235761
-0.00584692
-0.00325585
-0.00986793
0.00370573
0.00498629
-0.00130454
-0.00109584
-0.00165006
-0.000614054
-0.000490609
2.85322e-05
0.00627376
0.00168624
0.00596367
-0.00323346
0.00390498
0.000969118
0.00423392
-0.00104279
0.00649279
-0.00473374
0.0011139
0.00930525
0.00700565
0.00614522
-0.0030002
-0.00305433
-0.00722494
0.000907785
0.00158125
0.00223099
-0.00512134
0.00949361
-0.000164241
-0.0015799
-0.000218881
0.00724246
-0.00734609
0.0119877
3.9713e-05
-0.00269604
-0.00417538
0.00288649
-0.000184392
-0.00219162
0.000444773
0.0114669
0.00942448
-0.0344267
-0.00237039
-0.000476043
-0.00752086
0.00192108
-0.0120165
-0.00166616
-0.0138763
0.000191037
-0.00179417
0.00864718
0.00226947
-0.00396417
-0.000541581
0.000886058
-0.00872077
-0.00738561
0.00509326
0.000314731
0.00367066
-0.00118833
0.00575895
0.000691827
0.00591182
0.000576594
-0.00108219
-0.00535108
-0.00146089
-0.000452493
-0.00149014
0.00962028
-0.0290246
0.00059614
-0.0021777
0.00283753
0.00180158
-0.00924737
-0.00306756
0.00992215
-0.00110232
0.0103923
-0.00208673
0.00574444
0.00250341
0.00102803
-0.00143422
-0.0185892
0.00140915
-0.00054328
0.00320964
-0.00543959
0.00731441
0.00348343
0.00600267
0.00436869
-0.00227091
-0.0047627
-0.00266785
-0.00793569
0.00161734
-0.0105909
-0.00324483
0.00425793
-0.0145469
-0.00952479
0.00651662
0.000914956
-0.0022001
-0.00112644
0.0164053
0.000388565
-0.00653469
-0.000198084
0.00577791
-0.000594923
-0.00529348
-0.00374392
1.39502e-05
-0.00181018
0.0029742
-0.0063884
-0.000701689
-0.00878404
0.0016085
0.000373514
-0.00353184
0.00873747
0.00540068
-0.00801219
-0.000567002
0.00421608
0.00226785
0.00129255
0.0197992
0.0191165
-0.00166721
0.01484
-0.00443867
0.00159083
-0.00972484
0.00475406
0.00376945
-0.00011571
0.00764825
0.00811895
-0.00395046
0.00456962
0.00678217
0.00330673
-0.00177203
0.0173537
0.00438489
0.00801965
-0.00151105
-0.000660603
-0.00039549
-0.00652418
0.00424874
0.00769062
0.00158652
0.000555743
0.00460071
0.00148375
-2.9868e-06
2.94973e-05
-0.019758
0.000245161
0.002423
0.00465868
0.00749077
0.0015259
5.11777e-05
-0.00244287
0.00144098
0.000572595
0.0172975
0.00299614
0.00479454
2.9947e-05
0.0148358
-0.00115213
0.00200919
0.00213392
-0.00503092
0.00694129
-0.00423253
0.00053774
0.00397813
-0.00572395
-0.00365128
0.00452826
-0.00514078
0.0099026
0.00167625
0.00426774
-0.00234207
-0.000335882
0.0142267
0.00315891
-0.0129566
-0.00288681
-0.0260621
-0.00407158
0.0127268
-0.0281242
-0.00469788
-0.00203342
0.00414153
-0.00128496
0.000165878
-0.00241578
0.0110049
-0.000731215
-0.0133734
-0.00844077
-0.0010358
0.0130314
0.00194954
-0.00202476
-0.00780322
-0.007573
0.00283091
0.00394916
0.00769374
-4.14421e-05
0.00974351
0.00892261
-0.0253826
0.00360263
0.00157728
0.00302223
-0.000752499
-0.00035668
-0.00246377
-0.000531787
-0.00194142
-0.0087308
0.00453423
-0.0155963
0.0113613
0.016177
0.000598366
-0.00532413
0.00727599
-0.00299688
0.000249929
-0.00963683
-0.00131025
0.00720031
0.00924453
0.00266083
-0.00199275
0.000789437
0.00519844
0.00544721
0.00873673
0.00765191
0.0195396
0.00666644
0.00602902
-0.00114832
0.00287491
-0.00109679
-0.00289856
0.00262474
-0.00434878
-0.0210548
-0.00562568
0.00866045
0.00119354
0.000533557
-0.00300738
-0.00946806
0.00177226
0.00485912
0.00700477
0.00185392
-0.000229179
-0.00544266
-0.000226223
-0.00751678
-0.00040172
0.000704779
-0.00114149
0.000197852
-0.00280679
0.00350757
0.0167724
0.00103272
0.000788891
-0.0147347
0.00311856
-0.000872574
0.00127358
-0.00297641
-0.00509455
0.00278809
0.00743488
0.00464127
0.00858562
0.00208115
-0.00015302
0.0191306
-0.00499832
-0.0143105
-0.00558228
-0.02423
-0.00224709
0.00903003
-0.00872172
-0.00479653
-0.00611616
0.00482004
0.00041393
0.00924633
-0.00216968
-0.0067705
7.51051e-05
-0.000908706
-0.00146273
-0.00893012
-0.0183801
0.00305573
0.00605381
-0.000493721
-0.00452172
0.00603833
-0.00293009
-0.0117138
0.00280173
0.00432358
-0.0097284
0.0287875
-0.0112053
-0.00084114
0.00408063
0.00141851
-0.0014723
-0.00473788
0.00605925
-0.000829077
-0.00409112
0.00357757
0.00303586
0.00612977
0.00372048
0.00950159
-0.0170841
-0.0127058
-0.00215855
-0.0039854
-0.00800427
-0.000820107
0.000710405
0.00931617
-0.00175701
-0.00784244
0.00126179
0.00237894
0.00178097
-0.000952693
0.00626037
0.00871761
0.00561635
0.00349947
-0.00237939
-0.00311713
-0.00158056
-0.00316023
8.41495e-05
0.0196588
0.00132393
0.00326151
-0.000206009
0.00503767
0.002035
0.00312088
0.00362469
0.00819935
0.000284333
0.00186088
-0.0094266
0.00467082
0.00292901
-0.0141569
-0.00305641
-0.00636829
0.000881775
0.0100106
0.00310005
-0.000373368
-0.00250829
-0.0162764
-0.00930979
-0.009075
-0.0037919
0.00703383
0.000976747
0.00303009
-0.00615938
0.00409312
0.00868517
-0.0026094
-0.000781947
-0.00865904
0.00285344
-0.00351585
-0.00275581
0.00146306
0.0201067
-0.000653608
0.00356631
0.00462998
0.000619371
-0.0107835
-0.00203027
0.000642489
0.00565142
-0.0107102
-0.00368745
-0.0063553
0.00109347
-0.000809065
-0.000249164
-0.00477943
0.00270539
-0.01713
0.00252233
-0.00030592
0.00200074
-0.000408638
0.00966518
-0.000522948
0.00700432
-0.00102088
0.0126231
0.00236318
-0.00469403
0.00142978
0.00179523
0.00347115
0.00693914
0.0115501
0.00179734
0.00515185
0.00402686
-0.035426
0.00641975
-0.00132484
0.00838511
-0.00879525
-0.000251434
0.000746294
-0.0129839
0.00581463
0.00492897
-2.28194e-05
0.00341263
0.000760027
0.00286477
0.0077405
0.000591046
-0.00248913
0.00701543
0.00578775
0.00428303
-0.000697715
0.0010079
-0.00845789
-0.0152644
0.000211915
0.00230794
0.000715054
-0.00107553
0.00308949
-2.63378e-05
0.0082725
0.00150108
-0.0201968
0.00668077
0.00133109
0.00177832
0.00837643
0.000198671
0.00839049
-0.00300792
0.00593289
0.0103972
0.000765749
-0.00176985
0.00865506
0.00128096
-0.00134181
0.00831305
-0.00288798
-0.00710358
-0.00260853
0.00813395
-0.00275011
-0.00265188
0.00123389
-0.00152339
-0.00733089
5.18135e-06
-0.00325863
-0.0026053
-0.0014337
-0.00201757
0.000762973
0.000150377
0.00131996
0.000840753
0.00190938
0.000721117
-0.000202679
0.00756406
0.0192713
-0.0108742
0.00134873
0.000360049
-0.000367616
-0.000686641
0.0097157
0.0180969
0.0036067
0.00233944
0.0055078
0.000961804
0.00146351
0.00538945
0.00336073
0.00251733
0.00309394
-0.00325505
-0.0012425
0.0108579
0.00326551
0.00186349
0.00191063
0.00430567
0.0130129
0.00302761
-0.00344233
0.00100647
-0.00664185
0.00274041
0.0123004
0.000829426
-0.00342262
0.00912623
0.00506225
-0.00231078
-0.0041851
0.0112933
-0.00583463
-0.000310075
-0.000274263
0.0050647
0.00168406
-0.00340064
0.00163743
0.00147818
-0.00223764
0.0016228
0.00509436
-0.0166589
0.000674084
-0.00384977
-0.00251514
-0.0122541
0.00145112
-0.000962171
0.00454036
0.00232197
0.00837453
-0.00852603
-0.0104938
-0.00552333
0.00554158
0.00895827
0.00125917
-0.00881494
0.00309846
0.00771872
-0.00635211
-0.013577
0.0136536
0.00183015
-0.00176417
-0.00173649
0.00395296
-0.00131561
-0.000833791
-0.00347275
-0.00466041
0.00656552
-0.00132215
0.00499016
0.0058728
-0.00948571
-0.00396746
-0.00247771
-0.00626572
0.0205959
-0.00434761
0.0037152
0.0168275
0.000371812
-0.00936808
0.00286904
-0.000306916
0.00415492
-0.00627848
-0.0132692
-0.00827078
-0.00798709
-0.00079712
-0.000480029
-0.000270492
0.00324554
-0.0108801
0.00581377
0.00198126
0.0044953
0.00148328
-0.00506188
-0.00557417
0.00148655
0.00981918
0.0118435
0.00126478
0.00354369
-0.0145426
-0.00171188
0.00126315
0.00163986
-0.00362427
0.00390723
-0.00140653
-0.00631722
7.29228e-06
-0.00186571
-0.00800798
-0.00119253
0.000638333
0.00679723
0.0102593
-0.00230442
-0.0103707
1.8643e-05
-0.000133037
0.0196452
-0.00152292
-0.000936373
0.000334941
-0.0106829
0.00599009
0.0024185
0.00195281
-0.000486283
0.000182613
-0.000300014
-0.0117885
0.00137003
-0.00149635
0.000429617
-0.0148954
-0.00690873
6.62535e-05
-0.0015228
-0.00416112
-0.00922254
0.00288872
-0.000123082
-0.00070898
-0.0047788
-0.00347761
-0.00536866
0.00672086
-0.0208207
-0.00845269
0.00519395
-0.00100622
-0.000732594
0.00511461
0.00326636
0.00148448
0.00206436
0.011339
0.00331191
-0.00179389
0.000193337
0.00938354
-0.000196283
-0.00204513
0.00121458
-0.0160542
-0.00665754
-0.00371986
0.00281657
-0.0021202
0.0118877
-0.000908982
-0.0107613
-0.00267183
0.0204679
0.000257275
-0.000598998
0.00890282
-7.1707e-05
-0.00171186
0.00346662
-0.00844365
-0.0151835
-0.00134608
0.00313396
-0.00138027
-0.00133595
0.00296218
-0.00733372
0.00184678
0.00531574
-0.0100253
0.000555146
-0.0153574
-0.00504826
0.00705974
-0.00337609
-0.00337116
-0.00319242
-0.00261726
0.00207171
0.000691016
-0.00414117
0.012053
-0.00787302
-0.0135212
0.00191839
0.0178787
0.000143044
-0.00658002
-0.000466441
-0.00103794
0.00932081
-0.00363784
0.00300311
-0.00499812
-0.00309711
-0.000752114
0.00337922
0.00038734
-0.00103997
0.00429157
-0.0022806
0.00344954
0.00537771
0.0146283
-0.00127773
0.00671657
0.0134349
-0.000573341
0.0067928
0.00347002
-0.00144046
-0.00530016
-0.0011625
0.00502945
-0.000115844
-0.000878627
0.00351213
6.76538e-05
0.0155552
-0.000324489
-0.00291327
0.000215349
0.0103347
-0.00152459
-0.00259867
0.00710891
-5.77728e-05
-0.00187052
0.000918436
-0.00267093
-8.66711e-05
0.0035069
0.000283557
0.000806971
-0.00686834
-0.000421198
-0.0120192
0.00156459
-0.00014505
-0.00574297
-0.00401233
0.00118192
-0.00274342
-0.00534596
0.000849796
-0.000340269
-0.0113196
-0.00312877
0.0043754
0.00455689
-0.0062362
0.00187676
-0.00198604
-0.0212688
-0.01145
-0.00622913
-0.0199746
0.000237404
-2.55979e-05
0.00403257
0.00168918
-0.0010122
-0.00790825
0.00174783
0.00185959
-0.0116017
-0.0148151
0.00240537
-0.00469004
0.0258872
0.00122503
0.00152986
0.00268325
-0.00039182
-0.00012361
-0.00346371
0.00210346
0.00474542
0.0124781
-0.000678436
-0.00834068
-0.00103929
-0.00456019
-0.0134753
0.00302964
-0.00123556
0.00781684
0.00223321
0.0101652
-0.00149192
0.00630398
0.00189118
0.00736178
-0.000501797
0.00210052
0.0111373
0.0039829
-0.000403853
-0.00376056
-0.00248551
0.000783142
0.00563529
-0.00889854
-0.0141011
-0.00280494
-0.000971619
0.000855108
0.00483029
0.000786178
0.00844408
-0.000438771
-0.00427819
-0.0103944
-0.00277128
-0.00796291
-0.00507102
-0.00557357
0.0172834
0.00225891
0.00167492
0.00969999
0.0027644
0.00938654
0.0067965
-0.00080616
0.0137578
-0.00440105
-0.00372161
-0.000182507
-0.0085838
-0.00371648
0.00366472
-0.000494314
0.0146505
0.00125909
0.00835724
-0.00409795
-0.00222149
0.000698661
0.0033739
0.00107139
0.00374439
0.0110365
0.00330774
0.0129537
0.00251912
-0.00344697
0.0203389
-0.00334209
0.0148236
0.0182001
0.014043
-0.0146876
0.0113594
-0.00733985
-0.00509302
-0.0192025
0.000674384
-0.00198852
0.00586037
-0.00312546
-0.0004411
0.0148518
-0.0199087
0.00628152
-0.00339549
-0.00829148
0.00434177
0.00174522
-0.00354545
-0.00912881
-0.00122324
0.00326647
-0.00559149
0.0157657
-0.0166864
-0.0113795
-0.00351516
-0.00704038
-0.0163538
-0.00249677
-6.08085e-05
0.00410675
0.0169244
0.00973305
0.00638753
5.80879e-06
-0.00322665
-0.00323631
0.0102711
0.000135175
0.00719161
0.000776848
0.00154309
-0.00139405
-0.0163375
-0.00010208
0.00189588
0.000137354
0.000736282
0.00473202
0.00206055
0.00647922
0.00416239
-0.00128743
-0.00216235
0.00313244
0.00126485
0.000680442
0.00224008
-0.0104804
-0.00156677
-0.00932107
0.00352308
-0.00482866
0.000520535
0.0104916
0.00227564
-0.0152328
-0.00499656
-0.00325259
-0.00104834
0.00728176
0.00345892
-0.00203697
0.000506941
6.99219e-05
0.00676417
-0.0226157
0.0105603
0.00207681
-0.000733878
0.0185451
-0.00652276
-0.00518702
-0.000645848
0.00167671
-0.00132927
-0.00711372
0.00228317
-0.00644071
-0.0116694
-0.00132635
-0.00204839
0.0022815
0.00219127
0.00980397
-0.00394351
0.00176932
0.00910949
5.98586e-05
-0.00254928
0.000485872
0.00594564
0.00528342
-0.000843745
-0.00122508
-0.00986211
-0.000844728
0.00232571
-0.00158028
0.00408416
-0.00954945
-0.000362417
-0.00484132
-0.00243942
-0.00368061
-0.00379116
0.00139462
0.00378186
0.00225024
-0.0161972
0.0151882
0.00437121
0.0091559
-0.0062993
0.00136232
0.00286648
-0.00555708
-0.00114645
-0.0174669
-9.12197e-06
0.00721883
-0.000375516
-0.00572188
-0.00706897
0.00046894
-0.00608044
0.0018331
0.00397959
0.018177
0.000233888
0.00276857
0.000960836
0.0103148
-0.00229218
-0.000961318
-0.000694945
-0.0258626
0.00278113
0.0010243
-0.00923638
-0.00438947
0.000620573
-0.000505941
0.00846805
-0.00611594
0.00491711
-5.60395e-05
0.0060609
0.000288943
0.00353906
0.00576007
0.0154727
0.00972558
-0.0322957
0.0172855
0.014191
0.00160155
0.00323732
0.0106616
-0.00144076
-0.000618261
-0.00188098
0.00292892
-0.00149249
0.00410006
-0.00948968
-0.000632523
-0.000327233
0.00594604
-0.00389929
0.00037624
0.00449535
0.00764965
0.0263758
0.00806223
0.00583922
-0.00161519
0.000666044
-0.00121906
-0.00323961
0.00204204
0.00244398
-0.001121
-0.0019052
0.00120048
0.000322179
-0.000140957
-0.00244207
0.000989181
-9.22629e-05
0.00692278
-0.000470887
0.00138374
0.00889358
-0.00952138
-0.000618256
-0.0004027
0.00385853
0.000200978
-0.00490999
-0.00164795
-0.000477221
0.000766138
-0.0038843
0.00543946
-0.00186801
0.00207976
0.00568638
0.0129088
-0.00578492
-0.00249036
0.00353385
-0.00512018
1.35661e-05
0.00605879
0.00804965
0.0196193
0.00117641
0.000359351
-0.00306053
-0.0047266
-0.000684516
0.00220121
-0.00064244
0.00219343
-0.00472367
0.0119714
0.000378124
0.0105768
0.00177113
0.00549343
-0.00287844
0.00779847
0.0035567
0.0010765
-0.0231426
0.0115495
-0.000639816
-0.000135014
-0.00200032
0.00563973
-0.0023654
0.0120406
-0.00190158
-0.0142404
-0.0110729
0.00535995
-7.36709e-06
-0.00337692
0.000576778
-0.00140261
-0.00278014
0.00379842
0.00331217
-0.0129396
0.00645042
-0.000646578
0.00251937
-0.000432757
0.00388838
-0.012087
-0.00494425
-0.00430442
-0.00315171
-0.00220721
-0.000568251
-0.000507753
0.0059036
0.00351066
-0.000722679
0.00416667
-0.00362422
-0.00074384
0.00632497
-0.001688
0.00660083
0.0214034
-6.25068e-05
0.00962428
-0.00594256
-0.00379812
0.00724463
-0.00144089
-0.00729172
-0.00327969
0.00309498
0.000637351
0.000814968
0.0132155
-0.00526432
-0.0036844
0.00383664
0.00161582
0.00262989
0.00167058
0.00738514
0.00747859
0.00217265
0.00282718
-0.00373965
-0.000232412
-0.00409151
-0.00374011
0.00233442
-0.000146719
0.00911138
-7.42728e-05
-0.0053923
-0.00527741
0.00895172
0.000491042
-0.00844115
0.00541645
-0.00163085
-0.0224141
-0.000234303
-0.000564587
-0.00014763
0.000311196
-0.00252739
0.00146078
-0.00100161
0.00212146
-0.00174098
0.0107801
-0.000370408
-0.00236285
-0.0011543
0.00432389
-0.00629378
-0.00732449
-0.021047
-0.00526948
0.008191
0.00029368
-0.000899174
-0.00824023
0.00193219
0.00349656
0.000520936
-0.00392552
-0.00101716
-0.00727998
0.00133917
-0.00731188
0.0020349
0.0107846
-0.00238432
0.000924514
0.00583856
-0.00123157
-0.00222282
0.00629907
-9.58489e-05
-0.000962489
-0.00488189
-0.00524407
0.00304235
-0.000780932
-3.94665e-05
-0.000744394
-0.00223397
-0.00541185
0.00218658
0.000232907
-0.0146136
-0.0158681
-0.00126009
0.000532512
0.000860413
-0.00389562
-0.00271088
-0.0103148
0.00492607
-0.002657
-0.00251112
0.001643
0.00181522
0.00111476
-0.00199212
-0.000329043
0.00752791
-0.00174978
-0.00157409
-0.00766556
0.0124928
-0.000941438
-0.0209743
-0.0016777
-0.00736116
-0.00271896
0.00126529
-0.000180843
0.00155098
0.00518645
0.00874252
-0.0042958
-0.00268098
-0.00269011
0.00025472
0.00265131
0.0017373
0.000735929
0.00965898
4.39616e-05
-0.0116436
-0.00125855
-0.0234178
0.00408696
0.00639765
0.000134014
-0.00396619
-0.00697855
0.0034995
-0.00206801
0.00660674
-0.000924168
0.0106147
-0.00269424
-0.00107564
-0.00393216
-0.000230548
-0.00116637
-0.00433472
0.00809799
-0.0192771
0.00224053
-0.00613283
-0.000764995
0.000185621
-0.00151103
-0.00200839
0.00034623
-0.00022047
0.00124006
0.0137707
0.00472977
0.0113783
-0.00300384
0.000563293
-0.00689979
0.0067313
-0.00303377
-0.00386502
0.000891976
0.00266248
-0.0128309
0.00498398
-0.0346449
-0.00512289
-0.00153881
-0.00458113
-0.011987
0.0117461
-0.000653985
0.0109949
-0.000811768
-0.00325111
0.0123706
0.00442523
0.00220509
0.00881038
-0.000515246
0.00773566
0.00362634
-0.00274815
-0.0101896
0.00296377
0.0109103
0.011455
0.000732208
0.00264256
0.00330006
0.0128617
0.000725945
-0.000803569
0.0200608
0.00149644
0.00894983
0.00234401
4.58294e-06
0.00350984
0.00259388
0.00503384
-0.00987736
0.00377293
0.0093029
0.00182753
0.0124731
-0.00102417
0.00418702
-0.00211649
-0.000978208
0.018438
0.00168333
-0.00104005
0.0093852
-0.00102448
-0.00236176
0.000332907
0.00100245
0.00826419
0.00893022
-0.00248202
0.00693245
0.00109255
0.00764235
-0.00747128
-0.00189127
0.011443
-0.0127341
0.00382606
0.00341533
0.0178615
-0.00224968
0.0109676
0.00299571
0.0041151
0.012143
0.0107229
0.00315286
-0.00903032
0.00212529
-0.00679706
-0.00372438
0.00338784
-0.00265031
0.00331386
-0.00325516
0.00574878
-0.000479634
0.00370316
0.000966161
0.00161888
-0.000699467
0.00413008
0.000145157
0.00138185
0.0116353
0.00575856
-0.0133425
-0.00159736
-0.00218444
-0.00430111
-0.0323487
0.00937743
-0.00119825
-0.00169364
0.000950993
-0.000279049
-0.00205987
-0.00720258
-0.00237543
-0.0124236
0.00475972
0.00682349
0.00249158
-0.00165826
-0.00504277
0.000978258
0.00392333
0.00144359
-0.00529164
-0.00238409
0.00203321
0.00110301
-0.000940362
-0.0119981
-0.0147464
0.00589455
-0.0132625
-0.00214804
-0.0136769
-0.00507988
-0.000999615
-0.0078592
-0.0085425
-0.00118593
-0.00280347
-0.00150484
-0.0159864
0.000972286
-0.00343823
-0.00419996
-0.0105766
-0.00486258
-0.0139658
-2.25141e-05
-0.00365695
-0.00234725
-0.0129067
0.00458571
-0.00131601
-0.0110903
0.0023145
-0.00859782
0.0123583
-0.00370112
-0.00302375
0.000749517
-0.0036098
-0.000120038
-0.00357834
0.000505747
-0.00206514
-0.00686195
-0.0017468
-0.0178152
0.00161139
-0.0285251
-0.0140876
-0.000722907
0.00790786
-0.000552088
-0.0149445
0.0071291
0.000150433
-0.00168899
0.00481111
-0.00125106
-0.00151026
-0.00155943
0.0138997
0.00524867
0.000530507
-0.00109615
-0.00479714
0.00297931
-0.00877051
0.00323879
0.00811058
0.00809644
-0.00342224
0.00746516
-0.000893355
-0.00460722
-0.00247211
0.00103879
-0.0173643
0.00382745
-0.00314919
0.001172
-0.00592972
-0.0105821
0.00700476
0.00345951
0.00917551
0.0101593
-0.00188744
6.4349e-05
0.00785521
0.000859248
0.000118101
0.00178274
-0.013518
0.00221695
0.00396351
0.0154465
-0.00585733
0.00932994
0.00424414
0.00121999
0.00033111
-0.00589189
0.000181067
-0.00550978
0.00129959
0.000114728
0.00148513
0.0197218
-0.00300152
0.00288205
0.00615065
-0.00513136
-0.0116345
0.0045993
-0.00933297
-0.00757981
-0.0115464
-0.000120087
-0.0165568
0.00120154
-0.000848895
0.00738909
-0.0104409
0.0117868
0.0164337
-0.000282772
0.00234078
-0.000851199
-0.00896462
0.00361079
-0.00605699
8.77872e-05
-0.00368642
0.00123457
-0.00392701
-0.00236889
0.0024475
0.0153762
0.00178678
0.00786261
-0.00341633
0.0016979
0.00566168
-0.00037041
0.00400032
-0.000483444
-0.00174281
0.00935623
0.022834
-0.0194789
-0.0245781
-0.000531701
-0.000989127
0.000222808
0.00267005
-0.00633378
-0.00263271
0.00251718
0.00317763
0.00728372
0.00312235
0.00116528
-0.00742082
-0.00256593
0.00177373
0.00866688
0.00084972
-0.0015944
0.000515787
0.0154394
-0.00494586
0.00151065
-0.00643005
0.000931431
-2.88003e-05
-0.0030766
-0.00701342
0.00179036
0.00307104
-0.00115979
-0.0106865
-0.00310599
-0.000857911
0.0074271
0.00225903
-0.00140845
0.00063259
-0.00418553
-0.00662267
0.0107676
-0.0152886
-0.00202485
-0.000653675
0.00242374
-0.00180727
0.00449649
0.000614606
0.000721584
-0.00993518
0.0086152
-0.0108261
0.00191602
0.00387504
0.0036195
-0.00154532
-8.67197e-06
-0.0107281
0.00216407
0.00394857
0.00123309
-0.00366325
0.00157581
9.13761e-05
0.018797
-0.00426703
0.00558325
0.000612171
-0.00990365
0.00529321
0.00055803
0.0201361
-0.00946842
0.00112289
0.00193121
-0.0151074
0.0051539
-0.0410134
-0.0140381
-0.00158848
0.011309
-0.00210522
0.000508501
-0.0125827
-0.00162056
0.0233007
0.00384033
-0.00157002
6.15375e-05
0.0243895
0.00983843
-0.00126218
0.00649912
-0.000247728
-0.00589783
0.0151282
-0.00337883
-0.00186113
0.00363241
0.0016699
0.00383164
-0.00324204
-0.0111308
0.00450899
-0.00164761
0.00990296
-0.000390055
0.0178063
-0.000137587
0.00609902
0.00877472
-0.00156818
-0.00111254
-0.00838093
0.000554682
-0.0054258
0.00148245
-0.000760614
0.00192639
-0.00187357
0.0150564
0.00698206
-0.00833927
0.00430539
0.00236434
0.00442045
0.000511184
-0.00486
-0.0037722
-0.0060167
-0.00320721
-0.0030652
0.00334428
-0.00107817
0.00132824
1.05781e-05
0.014961
0.0166612
0.00252992
-0.000248874
-0.000883422
0.00296757
0.00190017
0.010671
0.000387383
0.00700474
0.00149409
-0.00705322
-0.000270541
0.00766534
0.003494
-0.0243205
0.0156243
-0.010247
0.00365192
0.0122143
-0.0129593
-0.00195776
0.00301418
-0.00439999
-0.00816255
0.00844046
-0.0041937
0.00614167
-0.00102232
0.00259381
-0.00392321
0.00517132
-0.0132596
0.00237839
0.00563321
0.00530023
0.00776896
0.0159508
-0.000203934
0.0154514
0.00190597
0.00300437
0.00624773
0.00185313
0.000268366
0.00294028
-0.000763475
-0.00177988
-0.00266152
0.000267388
-0.0105413
-0.00195858
-0.0161235
0.000918228
-0.00679843
0.00155925
0.00350763
-0.00995256
-0.00132022
0.00774742
0.00327449
0.000529841
-0.00260278
0.00196306
0.00945342
0.00118009
0.00288182
0.00701826
-0.00541727
0.0108514
0.00289999
-0.00273485
-0.00921707
-0.00197288
-0.000377445
-0.0208274
-0.000116568
-0.0155157
0.00829793
0.00135414
0.00318656
-0.00539073
-0.00460132
0.00345753
0.00137084
-9.47584e-05
0.00207847
0.00839273
0.0150541
0.00306316
0.00279183
0.00443797
0.00777185
0.00139185
-0.00148975
0.000300658
0.0121734
0.00258927
0.00688614
0.012612
0.00480427
-0.00287581
0.000430761
0.000877516
0.0021281
0.00050828
-0.0128863
-0.00102724
0.0267585
0.00249852
-0.00199483
0.00415337
0.00186917
0.000400824
-0.0169514
-0.00769019
0.010036
0.00394815
0.00109499
0.00913807
0.000871825
0.00305006
0.00482207
0.0121732
0.00635084
0.000903431
0.00200573
0.00067435
-0.00974815
0.00118122
-0.0048855
0.00551225
0.0154328
0.00667428
-0.00729538
-0.0075281
0.00907911
-0.00134113
-0.000420477
-0.005442
0.00901226
-0.00276208
0.0057884
0.0132572
0.000745104
0.00102156
-0.00918328
-0.00557741
0.0108195
0.00891774
-0.00190217
-0.00232492
-0.00195189
-0.00076942
0.000426903
0.0187121
0.00390768
0.0159516
0.00324265
-0.00446785
-0.00193973
0.00713723
0.00192005
-0.00641434
0.0103689
-0.0018494
0.00187793
0.00350246
0.00303644
0.00294213
-0.00232374
0.00395972
-0.00118832
0.00326728
0.01202
-0.00815157
-0.000197949
0.00246351
0.00330591
0.00431213
0.000651096
0.00369238
0.000387069
-0.0115125
0.00288414
-0.00580584
0.00347238
0.00308807
0.00463236
-0.000534549
-0.0123755
0.00487159
-0.0135208
0.00313578
-0.00183775
-0.00140122
0.00800908
0.00194122
0.0043339
0.000297688
0.0030169
0.000190678
0.00568975
-0.00121415
-0.00110369
0.000309465
-0.00297098
-0.0015447
0.00113166
-0.0016602
0.00656895
0.00137198
-0.00451189
6.24504e-05
-0.00591983
-0.00413448
-9.03234e-05
-0.00106381
0.000163305
0.00933251
0.0039746
0.00158239
0.00115976
-0.00156042
-4.01955e-05
-0.0227946
0.00824963
0.00245205
-0.00949379
0.000554135
-0.000867558
-0.0236903
-0.00537659
0.000350142
0.00088471
0.000830411
0.00226683
-0.00344485
-0.00065719
0.00220116
-0.0103608
0.0020907
-0.0132233
0.0151905
0.00663928
0.00516638
-0.000752832
-0.00747887
0.00196434
-0.000961879
-0.000850156
-0.00461459
0.0202552
-0.00205659
-0.0023501
0.00180423
0.00341325
-0.00238993
0.00220653
0.00406738
0.00975685
0.00117499
0.0129441
-0.00327975
0.00477156
-0.00133728
0.000390589
0.00508872
0.00178153
-0.00150882
0.00033478
0.00831829
-0.000811426
-0.00683593
-0.00119656
0.0079291
0.00958863
-0.00198381
-0.00607742
-0.00678553
-0.00502709
-0.00303264
0.0044221
0.0029981
0.000568667
0.00829129
0.00810576
-0.00318447
-0.00803995
0.00299798
-0.000159338
-0.00456724
0.0054407
0.000343222
0.000501875
0.00297884
0.00758962
-0.00276542
0.00174167
0.000191884
-0.000165948
0.00136101
-0.000342079
-5.91923e-05
-8.66766e-05
-0.00237662
-0.00118183
0.00195226
0.00634466
0.00412987
-0.00924364
-0.000920845
0.0110082
-4.89296e-05
-0.00128498
-0.00445988
0.00777977
-0.00101177
-0.0188571
0.0262847
-0.00195433
-0.0144163
-0.0017944
-0.0011208
0.0084988
0.00428969
-0.00302904
-0.00174548
-0.000397981
0.000114451
-0.00211754
-0.00017416
-0.000640917
-0.0016721
0.00548697
0.00339693
-0.000271568
0.00737846
-0.000185496
0.00304879
0.00405008
-0.00019856
-0.000243579
0.00189632
0.00699482
-0.000687989
-0.00119577
0.00126781
-0.0020187
0.00414074
0.00300791
0.00532096
-0.0134058
-0.00193064
-0.00148692
0.00768126
-0.000741755
-0.0177316
-0.000589411
0.00408605
-0.00115911
0.00344929
0.00427694
0.00183468
-0.000940473
-0.00499982
0.00113181
-0.00671672
-0.020833
0.00322226
-0.00642029
0.00187238
0.00119965
-0.000375768
-0.00549872
0.00467808
0.00210845
-0.0107662
-0.0059816
0.00363822
0.000710438
0.0147378
-0.000514022
0.000866484
-0.000532078
0.00111186
0.00256906
-0.0121955
0.00187479
0.00346592
0.00235878
-0.000939125
-0.00141712
-0.00828992
-0.00503587
-0.000292961
2.05289e-05
-0.00357618
0.000159198
0.000632512
-0.00474233
0.000408104
-0.00238265
0.00407547
-0.0131509
0.000506211
-0.00125722
-0.00512286
-0.00423344
0.00337789
0.00483075
-0.00758945
-0.00133866
0.00116441
0.000628336
-0.00979715
-0.00517274
0.0104583
0.00817712
0.00289108
0.00443715
-0.0035209
-0.0132793
-0.00320322
-0.00227635
-0.000982566
0.00596069
0.0155245
0.00129176
-0.00132966
0.0047429
0.00583625
0.00101603
0.00118841
5.92372e-05
-0.00352021
-0.00796925
-0.00684538
0.0226655
0.00597431
0.00175391
0.00181836
0.00221565
0.00158733
0.00414899
0.00830231
-0.000103625
0.000667684
-0.021225
-0.002117
0.00108813
0.00218415
6.19805e-05
-0.00501783
-0.00214575
0.00060985
0.00365927
-0.000476222
0.0204208
0.00350022
-0.00821371
-0.0152298
5.1984e-05
0.0166424
-0.00104094
-0.00320021
-0.0202379
-0.00557549
0.00344033
-0.000977552
-0.000593576
-0.00376737
0.000709527
-0.00682785
-0.0058876
0.00394246
0.000149996
-0.00106544
0.00134087
0.0053575
0.00143235
0.00167769
-0.00555917
-0.000577505
0.000899726
0.00399171
-0.00466057
-0.00164822
-0.00197873
-0.00186395
0.0196494
-0.00419394
0.00341382
-0.00133946
-3.9434e-05
0.00621989
0.000936115
0.00365742
-0.00225706
0.00589109
-0.0215475
-0.0206274
-0.00330605
-0.00219073
0.000311182
-0.00993855
-0.0102114
0.00272591
-0.00662923
-0.0156231
-0.000682366
0.0122227
-0.0168084
0.0133757
0.00341284
-0.000535478
0.00452567
-0.000433884
0.00127853
0.000368424
-0.0202371
-0.00436449
0.00387004
0.00230401
-0.00225589
-0.00141328
-0.00717795
-0.017678
-0.000935968
0.0168466
-0.00229022
0.00303853
-0.00934633
-0.0293874
-0.00419227
0.00232666
0.000811385
-0.00109486
-0.00149812
0.00415131
0.00481916
0.00222373
-0.0252081
0.00526
0.012865
-0.00161821
0.00208141
0.00131189
0.000379602
-0.00683896
-0.0083751
-0.00142183
-0.00261578
-0.00331846
-0.00235052
-0.00515156
-7.36591e-05
0.00130627
0.00242035
0.00105781
0.000108614
0.00192515
-0.000588738
0.000243779
-0.009091
-0.0196982
0.00207034
-0.00180325
-0.00226284
-0.0119325
0.00640862
-0.00419189
0.00589319
-0.000837058
0.00169001
0.000230736
0.00605511
0.0014217
-0.000497939
-0.00154737
-0.0132152
-0.00299546
0.0102182
0.000286756
-9.56147e-05
0.00840207
-0.00427158
-0.000559583
-0.000578304
-0.00237816
-0.00453313
0.0135031
-0.00113506
0.00367235
-0.00372021
0.00170153
0.00476824
-0.00119362
-0.000517419
0.00172867
0.00284607
-0.000927239
0.00514953
0.00314584
-0.0177486
-0.00282715
-0.000912981
0.00569718
-0.0263769
0.00546612
-0.0036957
0.0150206
0.000358341
0.000616888
4.45213e-05
0.000242168
-0.000761771
0.0103569
0.00557368
0.0065822
-0.00326955
-0.000724518
-0.000453004
0.0104016
-0.0176221
-0.00859601
0.00380274
0.00494408
0.00426463
0.00303456
-0.00766611
0.00226441
-0.00191922
0.00330223
-0.00119343
-0.000423083
-0.0052259
0.00972817
-0.00150734
-0.00528946
0.00734582
-0.0245067
-0.00271316
0.00180677
-0.0061378
-0.00567414
0.0126586
-0.0109083
-0.00726385
-0.0178814
0.00160168
-0.00141401
-0.000602005
-0.00183408
-0.00863833
0.00121284
0.0103197
0.00204059
-0.00247979
0.0078998
-0.00761027
-0.00480629
0.00103209
-0.00129172
-0.0268656
-0.00323462
-0.00884285
-0.00875239
-0.00190603
-0.00817571
0.00313249
-0.00144229
0.00317085
0.000375134
0.00301119
0.000807548
-0.011286
-0.00723727
0.0079553
-0.00732508
0.00113804
-0.0105789
0.011875
-0.0013553
0.00498408
0.00150921
0.00220741
0.0135344
0.00824535
0.00633133
-0.00328474
0.00417765
0.000461193
0.00624838
0.00879187
0.0017738
0.00378917
-0.00872473
0.000173154
-0.000739888
-0.00182451
0.00180789
-0.000521433
0.0048219
-0.00280442
0.00443197
0.00437952
0.00205901
0.000140113
0.00597838
-0.000882593
-0.00253001
0.00103329
0.00553032
0.0057296
0.016696
0.00733609
-0.00242776
-0.000778666
-0.000800378
0.00480122
-0.00325131
-0.00399743
0.010425
0.0113686
-0.013375
5.59168e-05
-0.00505622
0.0177276
-2.18165e-05
0.00302047
-0.00395165
0.00486453
0.00780678
-0.0030061
-0.00678111
0.00033344
-0.00348119
0.00445576
0.00360809
-0.00625181
0.00692777
-0.00249135
-0.000645497
0.00563643
-0.00635851
0.00365606
-0.0153506
-0.0036752
-0.00091197
-0.00140157
0.00258468
0.00446103
-0.00844918
0.000974547
-0.00234087
-0.00405333
0.00097716
-0.000163453
0.00299264
0.00617138
0.0076684
0.0169236
-0.00270681
-0.0051766
0.00454208
0.00119734
0.029152
0.00780501
0.006485
0.000370516
0.00299708
0.00196302
-0.0112396
0.0135613
0.0014027
0.00176595
0.00148418
0.00156537
-0.00187821
0.0116618
0.00684587
0.00648298
-0.006522
0.00694208
0.00493191
0.00193559
-0.00149399
-0.00159598
0.00975673
-0.0148318
-0.0114861
-0.000824411
-0.0127279
0.00161632
0.000429667
-0.00338981
0.0130574
0.00234642
0.0143743
-0.0209216
-0.00187596
-0.0050733
-0.00327082
0.000491396
0.0010817
7.44818e-05
0.00348384
-0.00155107
0.00946994
-0.00901112
0.00757382
0.00501296
-0.00293074
0.00069504
-0.00668145
0.000535666
-0.00171812
0.000208115
-0.00497406
0.00306387
0.0110183
0.00196523
0.00396382
0.00255662
0.00416216
0.000313375
0.0119011
0.000993454
-0.00189732
0.00905518
0.00152792
0.00151877
-0.0036615
0.00890922
-0.00146093
-4.80097e-05
-0.000398263
-0.00135491
-0.0035386
-0.000901487
-0.00327462
0.0137531
0.0010521
0.000802431
