-0.00581492
0.00145074
-0.000520329
0.00158897
0.000422726
-0.00388477
-8.30388e-05
0.00231459
0.00450559
0.00049679
-0.00145582
0.000164043
-0.00143921
-6.13897e-05
-0.00467116
0.000126248
0.000805925
-0.00481486
0.000285558
-0.000654452
0.0037169
0.00713843
-0.0007559
0.000561963
-0.00142138
0.000145198
-0.000835823
0.00228465
-0.000490511
-0.000720459
-0.00113112
-0.00189823
0.000508686
-0.00112599
0.000200407
-0.000903837
0.00040173
-0.000756621
0.000163819
-0.00326826
0.000156507
0.00143261
0.00159927
-0.000688193
0.00395018
-0.00105653
0.00309061
0.000105802
-0.00142565
-9.31688e-05
0.00121882
0.00110983
0.00253315
-0.000282182
-0.00273833
9.49405e-05
-0.00107376
0.000869811
0.00270544
-0.00191116
-4.95857e-05
-0.000636764
0.00329953
0.000411513
-0.00265237
0.00173411
0.00353535
0.000836412
-0.000342954
-0.000559632
-0.000729206
0.000190779
0.00219148
0.00189258
0.00246446
0.000111316
0.00202641
-0.00301438
-0.0007662
0.000575949
0.00110026
0.00132568
-0.00107751
-0.00338215
-0.00137745
0.00194951
0.000424566
6.77587e-05
0.000732717
-0.00490927
0.00233818
0.00112819
0.00129141
0.000756168
0.000899937
0.000502065
-0.00144427
-0.000301681
0.000143055
0.00123085
-0.00231732
0.00398553
0.00111967
0.0015008
0.00172978
-0.000668005
0.000235621
0.00252654
0.000905383
-0.00394363
0.0011333
-0.00443128
-0.000147113
-0.000918448
1.98323e-05
-0.000247344
0.00198612
0.0036691
0.00160566
0.000479096
0.000810242
0.000136919
0.000440594
-0.00020313
0.00232429
-0.000167754
-0.00144106
0.00138855
-0.000631736
-5.22524e-05
0.000369078
0.000173812
0.000140224
0.00240936
-0.0019242
-0.00375358
0.000236713
0.000867546
-6.99851e-05
-0.00300683
-0.00527654
0.00335348
0.00457656
-0.000648817
0.00230674
0.000107627
-0.000414805
-0.000114314
-0.00116375
0.00193206
-0.00211025
-0.00741685
0.000986726
9.82968e-05
-0.000621965
-0.00127308
0.00112257
0.000390816
0.000318494
-0.00154244
0.000316681
-0.000637092
-0.000827717
-0.00143466
0.000696261
0.00119873
-0.000405465
-0.00123885
0.00188701
-0.00237067
-0.00596287
0.000104937
-0.00414655
-0.00119087
0.00297191
0.00163854
0.000310225
0.0049041
0.00153411
0.000984901
0.00366198
0.00158177
0.000899782
-0.00104519
-0.00698129
0.00117338
-0.000288524
0.00101943
0.00288918
0.000254545
-0.00308198
0.00121749
0.00119076
0.000614243
-0.000236065
0.0023669
0.00253421
-0.000149329
0.00158583
0.000841875
-0.00143257
-0.00111876
0.000799861
-5.92201e-05
-0.00115929
0.000830427
2.78076e-05
0.00373093
-0.00198839
-0.00170658
0.00250963
-0.00170048
0.000345198
0.000774587
0.00231819
-0.00360607
-0.00145124
-0.000259324
-0.00118032
0.00447609
-0.000907181
-0.000585012
-0.000512225
-6.4589e-05
0.00191771
-0.00147645
0.00108578
-0.00230665
0.00042901
-0.000998239
-0.000918319
-0.00296364
0.000636665
0.000419591
0.000538635
0.000119217
-0.00250425
-0.00139812
-0.00142391
0.00239792
-0.00191401
0.000153714
0.000298234
-0.00139868
0.00280195
0.00354004
-0.00179335
0.00120007
-3.04959e-05
-0.000615016
0.000979723
0.00217681
-0.00388063
-0.00407594
-0.000631189
0.00185287
0.000677674
-0.00445208
0.00350314
0.00253537
-0.000539738
0.00205196
0.00253721
0.000565342
0.00080396
0.00243738
0.00052472
0.000338499
0.0009097
0.000869656
-0.00214766
0.000984204
-6.18379e-05
0.00141003
0.000645491
0.00019509
-0.000930234
-1.68622e-05
-0.00315814
0.000630308
0.00194495
0.00290217
0.00113446
-0.00227961
0.000109459
0.000458217
-0.00357338
-0.00321627
-0.000327368
-2.1805e-06
-0.00180471
0.00228942
-0.00116665
0.000948883
0.00154085
0.00137539
-0.00023392
0.001658
-0.000240857
-0.00137437
0.000780053
0.00219584
0.00405941
-0.000652853
-0.0033737
-0.000476674
0.00424681
0.00124472
0.00016689
0.00320694
0.00130247
0.0024398
0.00196203
0.000796854
0.00321945
-0.00178308
0.00138785
0.000170789
-0.000281804
0.00198002
0.000786223
-0.00289874
0.000700292
0.000159785
0.00323103
-0.00136896
0.0026823
-1.02446e-05
0.0005414
0.00220696
0.00615342
4.06769e-05
0.000820225
0.000387664
-0.000319842
-0.000939915
-0.000939816
-0.000937547
0.00162373
0.000996306
-0.00200226
-0.000545204
0.00399487
-0.00116741
0.00234871
0.00409224
-0.00099161
0.000609068
-0.000840602
-0.000188227
0.00199447
0.000122214
-0.000443044
0.000159151
0.00131361
0.000301786
-0.000101554
-0.000577319
-0.000344801
-0.00108038
0.000557274
4.97486e-05
-0.000747059
0.00323419
0.000313827
-0.00265761
0.000984738
-0.00208528
0.000486728
-0.00379904
-0.00131332
0.00254758
0.00135425
0.000600707
-4.18932e-05
0.000501623
-0.0025745
-0.00194818
0.00138925
-0.000559509
0.0025119
-0.002915
0.00205159
-0.00151489
-0.000694904
-0.00366332
-0.0005161
-0.00472395
0.00106593
0.0034767
-0.000144992
0.000319763
-0.00053062
0.00071673
-0.000252894
0.000548524
0.0037824
-0.000343689
0.00210871
3.98033e-05
0.000689649
4.11623e-05
0.00135997
0.000301111
0.00162875
-0.00241182
-0.000991363
0.000935028
0.0020039
0.00171933
-0.00148865
-0.00123377
-0.0022513
0.000282527
0.000211435
0.000863105
-0.000317259
0.0010055
1.63628e-05
-5.05989e-05
0.000116211
0.0024974
-0.003503
0.00288281
-0.00173293
2.10676e-05
-0.000749464
0.000548163
-9.16837e-06
-0.000223811
-0.000357642
0.0032498
0.00136661
-0.0060061
-0.00101886
0.00106135
-0.00301506
0.000566128
-0.00350596
0.00157988
-0.00194629
-0.000282861
-0.00144575
0.00158655
0.0007918
-0.000315276
0.000221266
-0.00148843
-0.00189467
-0.00219184
0.000213525
-8.06474e-05
-0.00120214
-0.00163518
0.00247967
-0.00334974
0.00239031
-0.00098681
3.82392e-05
-0.00231591
-0.000670494
-0.000243538
-0.000586507
0.00361996
-0.00954883
0.000166186
-0.000936651
-0.000983703
0.000188811
-0.00358297
-0.00169247
0.0033042
-0.000303373
0.00175506
0.00217165
0.000837145
0.000497446
0.00133766
-0.00255262
-0.00312375
0.00102034
5.45722e-05
0.000766468
-0.000655398
0.00297464
0.00276596
0.0022593
0.00183092
-0.000610779
-3.80756e-05
0.000350945
-0.000617129
0.000447523
-0.00176376
-0.00144059
0.00177913
-0.00525084
-0.00206158
0.00361158
0.000663751
-0.000997968
-0.000546331
0.00328743
0.000709197
-0.00374881
-0.000511369
0.000225468
0.000982834
-0.000965064
-0.000907723
0.000520145
0.000157905
0.000728605
-0.00176596
0.000973051
-0.00201471
0.000765243
0.000927352
0.000280199
0.001446
0.00355391
-0.00114437
-0.00264564
0.00217655
-0.00043962
0.00268207
0.00463224
0.00404601
-0.00116538
0.00503055
-0.000862349
0.000358696
-0.00297816
-0.00297175
0.000749848
0.00104528
0.00045582
0.00300319
-0.00132451
0.00243912
0.001486
0.000655074
0.000811325
-0.000222037
0.00147072
-1.21161e-05
-0.000111337
-9.32039e-05
0.000971389
-0.000641076
0.00225899
0.0017324
0.00177176
-4.92542e-06
0.00108517
0.00174265
0.000368062
0.000107407
-0.00514897
0.000901223
-6.1611e-05
0.00252923
0.000866252
-0.0038637
0.00138805
-0.00476573
0.00056452
0.00103749
0.00594629
0.000819477
0.00118853
-0.00030754
0.00579886
-0.00055996
0.000361001
-0.000484159
-0.00145814
0.00322252
-0.00286978
-0.000823369
0.002483
-0.00151171
-0.00143255
0.00123608
-0.00274369
0.00255292
0.000744796
0.00192121
-0.000766645
0.00108746
0.00423012
0.00157657
-0.00246217
-0.00206734
-0.00541011
-0.000560717
0.00437876
-0.0055774
-0.00213996
0.000248018
0.00212348
0.000142258
0.000611624
-0.000575301
0.00330144
-0.0002787
-0.0042374
-0.00237484
-0.000539348
0.00255803
0.00229673
-0.000380885
-0.00248741
-0.00326807
0.00137869
0.00284097
0.0035639
0.000797808
0.00392044
0.00388199
-0.00517345
0.00222741
0.00107586
0.00266818
-0.000835446
0.000449296
-0.000879184
-0.00023154
-0.000466579
-0.00200745
0.000208566
-0.00416731
0.00225692
0.00614699
0.000118929
-0.000896506
-0.00060257
0.000319671
0.000184785
-0.00319079
-0.00057808
-7.82858e-05
0.00148456
0.00109535
-0.00115995
0.000649711
-0.00141896
0.00234798
0.00193249
-0.00190512
0.00196845
0.00286248
0.000423303
-0.00233835
0.00140566
-0.000156793
-0.00255643
0.000762551
-0.00330161
-0.00208715
-0.00456099
0.00401568
0.000608425
-0.00128062
-0.000286004
-0.00185756
0.000469139
0.000679913
0.00307184
0.00173491
0.000144874
-0.00221717
-0.000445834
-0.0027167
0.00038564
-0.00108621
-0.000629878
0.000487684
-0.00218701
0.00318964
0.00495958
-0.000703706
0.00108906
-0.00299613
-0.000857261
0.000119977
0.000217921
0.000331359
-0.00402783
0.00129566
-0.000612891
0.00149633
0.00336404
0.00191557
-0.000820581
0.00500362
-0.000457339
-0.00520643
-0.00127717
-0.00521454
-0.000517407
0.004298
-0.00219111
-0.000662674
-0.00351102
0.000210638
0.000785297
0.00367261
0.00011641
-0.0026605
-0.00163124
-0.000157074
-0.000258939
-0.00424671
-0.00467224
-0.000698726
0.001462
6.30413e-05
-0.00109677
0.00226652
-0.00127494
-0.00149338
2.43661e-05
-0.00113511
-0.00509826
0.00317996
-0.00316949
0.000161201
0.00253842
0.000912886
-7.3767e-05
-0.000129887
0.00149837
3.61156e-05
-0.00069227
0.00119502
0.00114446
0.00321213
-0.00137288
0.00338487
-0.00483781
-0.00617859
0.000497848
-0.00205147
-0.00317121
0.000893092
0.000194449
0.00354517
0.000968454
-0.000895636
-0.000962383
0.00115945
0.00245149
-0.000526211
0.000940119
-0.00112801
0.000591104
0.00347657
-0.000770652
-0.00367402
0.000413593
-0.00041957
1.58023e-05
0.00459316
0.00135423
0.000658724
-0.00146475
0.00173488
-0.00105422
9.1027e-05
-0.000513189
0.000313777
-0.000578024
0.000190212
-0.00306656
-4.59599e-05
0.00127967
-0.00323748
0.00105802
-0.00280518
0.000544261
0.0021243
0.00256781
0.00248014
-0.00132571
-0.00373129
-0.00213099
-0.00351915
-0.000349481
0.0016869
-0.000241432
-0.000147986
-0.000318448
0.000842632
0.0019132
0.000247075
0.000401134
-0.00336685
0.000914501
-0.00133251
-0.00102936
-0.000106616
0.00746338
0.000114128
-0.000361058
0.00154331
0.00238451
-0.00272658
-0.000320979
0.000245031
0.00166528
-0.00544027
0.000580026
-0.000445028
7.7082e-05
-0.000182678
-0.000624422
-0.000200635
0.000902416
-0.00402277
0.00148476
-0.000961555
-0.000392558
0.00011576
0.00297897
0.000506257
0.000348839
0.000184339
0.0041269
0.00299618
-0.00098069
0.000236102
0.00267076
-0.00053088
0.0036744
0.00434188
0.00209689
0.00307174
0.000933102
-0.00667312
0.000828064
-0.000216424
0.00150877
-0.00174076
0.000849636
0.00158869
-0.00232449
0.000720194
0.00368505
0.000590918
0.0027891
0.000252463
0.000931108
0.00291913
-0.00129772
-0.000128641
0.00342706
0.00132738
0.00134019
0.000748325
0.000521096
-0.000882189
-0.00529062
0.000326933
0.00121545
0.00246035
0.000321946
0.00135638
0.000379487
0.000751709
0.000597951
-0.00360457
0.000253726
0.0005204
0.000552656
0.00345224
-0.000290254
0.00208295
-0.00196446
0.00142274
0.00319618
0.00135173
0.000380962
0.00124944
0.000145627
-4.40111e-05
0.000284067
-0.0011664
-0.00161509
0.00258433
0.00254261
4.37345e-05
-0.00186039
0.000619202
-0.000614698
-0.000553349
0.00100689
-0.000484832
-0.00141712
0.000163164
-0.000269723
0.00203073
8.36829e-05
0.000769035
-8.89577e-05
0.000514896
-0.000578027
-0.000614932
0.00227119
0.00239874
-0.00379255
0.00044609
-3.09744e-05
0.00103441
-0.000410997
0.00331627
0.00382327
0.00176484
-0.0001819
-0.000625987
0.000521457
0.00101435
0.00253253
0.000818975
0.000551516
0.000115737
-0.00039361
0.000820017
0.00152604
0.000568074
0.000516791
0.000676987
0.00114532
0.00356682
0.000714454
-0.00167844
0.000241314
-0.00288662
0.000554308
0.00154571
-0.000369276
-0.00100849
0.00322255
0.00126046
-0.000502185
-0.000589006
0.00435407
-0.00130256
0.00064435
0.00050123
0.00269077
-0.000601443
-0.0037562
0.00176126
0.00132397
0.000133418
0.000442493
0.00195606
-0.00490967
0.000520264
0.000440168
-0.00170676
-0.00233782
0.000118209
-0.000897842
0.000112089
1.64967e-06
0.00114443
-0.00220904
-0.00281342
-0.00105477
0.00130169
0.00241183
0.00141665
-0.00290847
0.00354404
0.00106058
-0.00386057
-0.00283581
0.00246484
-0.000289948
0.00145362
0.000258557
0.000647871
0.00037043
-0.000474048
0.000272911
-0.00250163
0.00204627
-7.23482e-05
6.49734e-05
0.00263985
-0.00262165
0.000629862
-0.00102778
-0.00212315
0.00258862
0.000896182
0.0022433
0.0038973
0.000669681
-0.00119781
0.000721812
-0.000177647
-0.0017675
-0.0051543
-0.00705574
-0.00211165
-0.00256645
0.00080336
0.000241815
-0.000871478
0.000349579
-0.00243813
0.00219776
0.000382813
0.00142765
0.00143903
-0.0010541
-0.000353892
0.00117113
0.00349584
0.00459786
0.000498964
0.00137875
-0.00228601
-0.000135086
-0.00052259
0.00134264
-0.00059559
0.00216949
-0.0012848
-0.000877407
0.000360649
-5.81933e-05
-0.00274748
-0.00195908
-0.000850451
0.00143019
0.0021796
-0.000291013
-0.00544476
0.00367189
8.05635e-05
0.0058362
-0.000542208
-0.0011202
-1.0967e-05
-0.00225484
0.00203121
0.00127984
0.00206525
-0.000891998
0.000116287
0.000715897
-0.0056704
0.000632141
-0.00120958
-0.000239679
-0.00192014
-0.000679684
0.000228359
-0.00049544
-0.000420846
-0.00355431
-0.00132333
-0.000713169
-0.00119847
0.000500878
0.000160584
-0.000329186
0.00134988
-0.00457718
-0.00179238
0.000213936
0.000398676
-0.00032456
0.00275475
0.00029186
0.00242882
0.00202475
0.00504974
-0.000557733
-0.00106493
0.000450952
0.00357376
-0.000375769
-0.00229812
0.000570767
-0.000985314
0.000263755
0.000853875
-2.02199e-05
0.00116498
0.0031105
6.8938e-05
-0.00288139
-0.000789348
0.00514729
0.000535117
0.00176427
0.00145951
0.000101722
0.000351794
0.00129616
-0.00382236
-0.0035632
-0.00190991
-0.000395774
-0.00323885
-0.000105833
0.000314314
-0.0046483
7.95353e-05
0.00167687
-0.00351494
2.24933e-05
-0.00423008
-0.00134976
0.00406452
-0.00127081
0.000254209
-0.00117671
-0.00338252
0.000107036
0.000395385
-0.00102246
0.00337839
-0.00129277
-0.0018196
0.000670616
0.00345882
0.000405206
-0.00205179
0.000188632
0.000296084
0.00269609
7.38274e-05
0.000285526
-0.00124948
-0.00284345
-0.00327278
0.000678501
2.55028e-05
-0.000550184
0.000486344
-0.00135565
0.00111248
0.00106376
0.00297294
6.90545e-05
0.00178677
0.00299556
-0.000151844
0.00197691
0.00148301
-0.000183811
0.00074331
-0.000400109
0.00226617
-0.000217253
0.000211205
0.000367135
-0.000128644
0.00355478
-0.000693033
-0.00175749
0.00171188
0.000895798
-0.000611781
1.97919e-05
0.00145059
-0.000595987
-0.00136889
-0.00167183
-8.04969e-05
-2.25361e-05
0.000110361
0.00100906
0.00028352
-0.00118812
-0.000352174
-0.00244797
0.000295965
-7.72493e-05
-0.00396792
0.000273221
0.00191625
-0.00109577
-0.000473483
0.0019404
-0.000155447
-0.00361928
-0.000689156
0.00176911
0.000593747
-0.00242378
0.000375948
-0.000569482
-0.00457573
-0.000664892
-0.00269257
-0.0068003
-0.000962415
-0.00125567
0.000186177
0.000128243
0.000664199
-0.00259234
8.08371e-05
3.59878e-05
-0.0013016
-0.00257117
0.000839889
-0.0015928
0.00357608
-0.000367795
-1.29708e-05
0.00165601
0.000343548
2.01482e-05
0.000141233
6.41421e-05
0.00273953
0.00424815
-0.00108895
0.00101071
0.000431522
0.000888373
-0.00164114
0.000432075
0.000395669
0.00300521
0.000391321
0.0029525
0.000441486
0.00174124
9.62781e-05
0.00118329
-0.000123004
0.000507365
0.000531021
0.00235427
3.3943e-05
-0.00065251
-0.000770378
0.000306865
0.00179435
-0.00267716
-0.00432193
-0.000890897
-0.000799141
0.000805052
0.00225407
0.000257152
0.00347215
-0.000107036
-0.00118915
-0.00249794
-0.000655672
-0.00307375
-0.00240979
-5.18572e-05
0.00283969
0.00105489
0.00261111
0.00100466
0.00174636
0.000405595
0.00309085
-0.00169951
0.00187277
-0.000735703
-0.00107614
-0.000484626
-0.00213339
-0.000496583
0.00165553
-0.000578086
0.00198916
0.0022963
0.00177268
-0.00133064
0.0011434
0.00209304
0.000999314
0.0030054
0.00272393
0.00292808
0.00132688
0.00369781
0.000771715
-0.000999012
0.00422419
-0.000713037
0.00385798
0.00480802
0.00183551
-0.00382369
0.00283425
-0.00113903
-0.00162828
-0.00612595
0.000306675
-0.00320775
0.0016996
-0.000291373
-6.67597e-05
0.00465146
-0.00366726
0.0012007
-0.000294384
-0.00254506
0.00296694
-0.000491987
0.000341249
-0.0029455
-0.000531891
0.00108618
-0.00206632
0.00325517
-0.00332523
-0.00430802
-8.25503e-05
-0.000633863
-0.00432108
0.000269395
-6.46863e-05
0.00131539
0.00439601
0.00452413
0.00273672
-7.33806e-05
0.00246938
0.00057423
0.00414572
0.00138675
0.00225408
0.000681237
-0.000258427
-0.000207862
-0.00449592
0.000320825
0.00128778
0.000426275
0.00258397
-0.000614626
-0.000776365
0.00150155
0.00121752
-0.000142154
-0.000242339
0.0010177
0.00075411
-0.00053592
0.000729061
-0.00254282
-0.00110637
-0.00189466
0.00203967
-0.00343616
0.00149349
0.00279217
0.00028255
-0.0021406
-0.00117783
0.000530354
-1.87787e-05
0.0027624
0.00192915
-0.000292101
0.000541833
-0.00423443
0.00213161
-0.00465242
0.00467602
0.000703249
0.000734343
0.00450391
0.000807231
-0.00138543
-0.00121046
0.00100859
-0.000495109
-0.000946998
2.92779e-05
-0.00125529
-0.002287
-0.000774743
-0.000925263
0.000305857
-0.00124583
0.00378961
-0.000820565
-0.000304413
0.00386353
0.000141759
0.000206368
-0.000895502
0.00140394
0.0020237
-0.000934436
-0.000326788
-0.00380679
0.00134504
9.33249e-05
-0.000573506
0.00132151
-6.64893e-05
7.06331e-07
0.00174249
-0.000537012
-0.000896933
-0.000581081
0.000253323
0.00165404
-0.000222314
-0.00177627
0.00330581
0.00110468
-0.000459156
-0.000874232
0.000628134
0.000536123
-0.00222996
0.000266083
-0.00351518
-0.00014806
0.00161533
-0.00152422
-0.000587931
-0.0027125
0.000491249
-0.00102833
0.00160878
0.00153559
0.00766798
-0.00204028
-0.000512865
-0.00140852
0.00164104
-0.000301698
0.000230216
-0.00038131
-0.00704538
2.83346e-05
0.000953865
-0.00179129
-0.00108019
-0.000717824
0.000425405
0.000662037
-0.00121647
0.00142872
-2.40354e-05
0.0020683
5.26022e-05
-0.00093587
0.00267786
0.00325757
0.00245204
-0.00816921
0.00509235
0.00392559
0.000480423
0.00190501
0.00322079
-0.000190144
-0.000653226
-0.000723198
0.00113806
-0.00116406
0.00343703
-0.00270235
-0.000207089
-3.39108e-05
0.00214318
-0.000546231
0.000440099
0.00045722
0.00321628
0.0052407
0.00308516
-0.000315891
-3.18331e-05
0.000596847
-0.000619458
-0.000760907
0.00102081
-0.000889263
-0.000385417
0.00115401
0.000820784
0.000873965
0.000380121
-8.41455e-05
0.00115504
-0.00108666
0.00249887
0.000237447
0.000480424
0.00128611
-0.000672269
0.000135033
-0.000173679
0.00174397
5.84174e-05
1.76969e-05
-0.000899586
0.000263221
0.000238571
-0.000628583
0.000981844
0.00104822
0.00043611
0.00212337
0.00209752
-0.000643083
-0.00107337
0.00169926
-0.0021809
2.43205e-05
0.00145087
0.000425134
0.0012931
-0.000401759
0.000465861
0.00105663
0.000156426
-7.63051e-05
0.00256537
-0.000454599
0.00100295
0.000278262
0.00117129
0.000943604
0.00423017
0.000285999
0.00348965
-0.00105023
0.00325158
0.00115227
0.00069892
-0.004264
0.00454715
0.00108837
0.0013581
0.00114486
0.00291317
-0.00268853
0.00520785
-0.000538999
-0.00385467
-0.00165933
0.00207311
0.00149484
0.000403476
0.000157021
0.000226073
-9.26447e-07
2.50202e-05
0.00186233
-0.00461381
0.00274473
2.34316e-05
-0.00126916
0.00123592
-0.000154484
-0.00141612
-0.00177702
-0.00278335
-0.00106035
0.000365638
0.000456647
-0.000231863
0.00151911
0.00177347
-0.000264531
0.00117185
-0.00107016
-0.000153998
0.000574034
-0.000736314
0.00251558
0.00468765
0.000383642
0.00342393
-0.00170474
-0.000948621
0.00231134
0.000174534
-0.00206432
-0.000369978
0.00104681
0.000832172
0.000558352
0.00390127
-0.000587615
-0.000802092
0.00169415
0.000371294
0.000306942
-0.000795045
0.00381292
0.00461583
0.00118317
0.00107052
-0.00024229
0.000875801
-0.000853025
-0.00231969
0.000877298
0.00030208
0.00385357
0.000861229
-0.00233393
-0.00140092
0.00225444
-0.000202449
-0.000195476
0.00291797
-0.000222479
-0.00306679
-0.00108025
-0.000270202
0.000534389
0.00039832
0.000147976
0.00198501
-0.00018535
0.000988671
0.000102591
0.0032109
-5.79173e-05
-0.000800441
-0.000137511
0.00198282
-0.00330288
-0.00246955
-0.00383302
-0.000783189
0.00268976
0.000322724
-0.000377745
-0.00280935
-0.000218093
0.00181325
0.00133211
-0.00123301
3.18301e-05
-0.00239015
0.00113797
-0.00258005
0.000937816
0.00336325
-0.000437283
0.00205295
0.00171865
0.00175502
0.00107932
0.00179979
0.000490917
7.05192e-07
-0.00249528
-0.000190578
0.000113465
9.7025e-05
0.00321076
-7.82217e-05
-0.00061169
-0.00103313
0.00135367
0.0004854
-0.00323149
-0.00222207
-0.000312846
-0.000989877
0.000257982
-0.00288657
-0.00100345
-0.00326083
-0.000349392
-0.000426852
-0.0010774
0.000636684
0.000125075
0.00192484
0.000462697
-5.23191e-07
0.00157649
-0.000108194
0.000121169
-0.00157839
0.00434359
0.000817907
-0.00615027
-0.000873843
-0.00116528
-0.000285615
0.00173897
0.00061111
0.000449956
-0.00157592
0.0018631
-0.00282603
-0.000478196
-0.000183646
-0.0036915
0.00146219
-0.00136329
-0.000754577
0.0022485
-0.00133161
-0.0038877
-0.000206061
-0.00403129
0.0008046
0.00191518
0.0011148
0.000359219
-0.00100612
0.00346102
-0.000351367
0.00298176
0.000513205
0.00251879
-0.000823928
-0.000475694
-0.0010419
0.000108559
0.000922284
-0.000637065
0.00175794
-0.00471931
0.000942151
-0.00166505
-0.00205833
-8.39024e-05
-0.000752856
-0.00120486
0.00187246
-0.00049868
-0.000576496
0.00424631
0.00244335
0.0034977
0.00108851
-0.00243274
0.000312519
0.00285566
3.84081e-05
-0.00397801
0.00278241
-0.00015
-0.00277004
0.00303615
-0.00587784
-0.000957425
-0.000749152
-0.00270429
-0.00121727
0.00383693
-0.00110669
0.000280053
0.00128594
-0.00207796
0.00425631
0.000814074
3.79264e-05
0.00211348
9.24157e-05
0.00215154
0.00209751
-2.36934e-05
-0.00287962
0.000597014
0.00129249
0.00304336
0.000351347
0.000514071
0.0025605
0.00423096
0.000481519
-0.00179156
0.00535568
0.00177808
0.00239599
0.0014905
-0.00167735
0.00181699
0.00360385
0.00165803
-0.00353512
0.00246266
0.000720636
0.000614496
0.00250519
-0.000512597
0.00202186
0.000197923
-0.000793772
0.00555078
0.000126502
-0.000236361
0.00420007
0.000304756
-0.000907017
0.000408649
0.00126565
0.000603154
0.00235602
0.00125751
0.000438003
0.000439865
0.00293391
-0.00149197
-0.000279623
0.00392959
-0.00341528
0.0012224
0.00275128
0.00552167
-4.04429e-05
0.00406094
0.000589727
0.00263632
0.00469926
0.00255697
0.001914
-0.00125243
-1.72719e-06
-0.000664827
-0.00137474
0.000173469
-0.000320197
0.00170762
-0.000110264
0.00166688
0.00145416
0.00122783
-0.000292451
0.000192964
0.00198431
0.000531034
-0.00269835
0.000302408
0.00468009
0.00178145
-0.0041634
-0.00102494
-0.00334752
-0.000456131
-0.00573655
0.000958606
0.00232737
-0.000138588
0.00063714
-0.00315126
-0.00215366
-0.00203543
-0.000791205
-0.00295487
4.27835e-05
0.000417188
0.00130598
-0.00139258
-0.00291126
0.00176351
0.000826108
1.35459e-05
-0.000866023
-0.00107976
-0.000225469
0.000192252
0.000277101
-0.00397784
-0.00334519
0.00112807
-0.0018931
0.00017028
-0.00535182
-0.000489393
0.000400866
-0.00303812
-0.00321067
-0.000427452
6.37619e-05
0.00031067
-0.00394494
0.00103775
-0.00173516
-0.00118914
-0.00359646
-0.00143894
-0.00300141
-0.000442297
-0.000495825
-0.000693822
-0.00187005
0.00258693
-0.000503755
-0.0016051
0.000770967
-0.00341055
0.00359248
-0.00165388
-0.00138834
0.000642799
-0.0014479
0.000493779
-0.000784868
0.000160048
0.0003883
-0.00241688
-0.000502153
-0.00658043
0.000660802
-0.0067695
-0.00191788
0.000173372
0.00297067
-0.00134631
-0.00566488
0.00146953
0.000355238
-0.000204034
0.00255755
-0.000318302
0.000570984
-0.000222984
0.00229706
0.00283861
0.000155742
0.000448043
-0.00347612
-0.000955255
-0.0033033
0.00109585
0.00142868
0.00310706
-0.00224348
0.00125682
-0.000209297
-0.00217445
8.34126e-06
0.00198729
-0.00312929
-0.000201778
-0.000308501
0.000733602
-0.00242011
-0.00241304
0.00253371
1.47568e-05
0.000827178
0.00135667
0.000458474
0.000439439
0.00168574
0.000384809
0.000440534
0.00295685
-0.00249213
-0.000147262
0.00189453
0.00471186
-0.00211775
0.00380114
0.0021982
0.000297295
-0.00123384
-0.00182542
0.000619035
-0.00329126
-0.00097787
-0.00049581
0.000773266
0.00594301
-4.97414e-05
0.000498471
0.00301224
-0.00266047
-0.00452938
0.00281249
-0.00236026
-0.00515974
-0.00235289
0.00153401
-0.00420808
0.000651279
-0.000113652
0.00426453
-0.00151812
0.0033312
0.00308052
0.000336915
0.00216363
0.0001597
-0.000718988
-1.21709e-05
-0.00135565
0.00184374
-0.00154283
2.1856e-05
0.000113288
-0.000504705
0.00150759
0.00502357
-0.000338661
-0.00185653
0.000800797
0.00169
0.00147008
3.45112e-05
-0.000844487
-0.000806424
0.000365897
0.00461979
0.0030022
-0.00501495
-0.00457817
-0.000647673
1.79322e-05
-0.000842421
0.000433686
0.000385245
-7.14049e-06
-0.00229569
0.00143407
-0.000514665
0.00128401
-0.00308483
-0.00131194
0.000108173
2.16766e-05
0.00209618
-0.000190375
-2.16723e-05
0.0016333
0.00432447
-0.00228902
0.000443268
-0.000894184
0.00125606
0.000395105
0.000129132
-0.000622361
0.00138271
0.00165252
-0.000113167
-0.00292474
-0.00109941
0.00189724
0.000245368
0.00101862
0.000330746
0.000105089
-0.000740478
-0.00091409
0.00306782
-0.00531663
0.00116309
-0.000568429
0.000321807
-0.000466139
0.00167476
-0.000249075
0.000943499
-0.00294528
0.00201548
-0.0048201
0.00127716
0.00146303
0.000669841
-0.00278839
0.000733976
-0.00356015
7.99554e-05
0.00143539
0.000636543
-0.00120376
0.000414246
0.000293864
0.00436577
-0.00119619
0.0019027
3.62379e-06
-0.00221453
0.00384328
-0.000331307
0.00492832
-0.00382394
0.000313588
0.00046386
-0.00424258
0.00128928
-0.00504812
-0.00324529
0.000527068
0.00319531
-0.000318465
-0.00260899
-0.00459883
-0.000999172
0.00752729
-0.000609932
-0.00300313
0.000586066
0.00655911
0.0026324
-0.00055632
0.00318339
-8.84716e-05
-0.000455957
0.00596911
-0.000346842
0.000235239
0.001067
0.00197215
0.00224013
-0.00158421
-0.00336069
0.000121883
0.000519491
0.00204915
-5.48301e-05
0.00341264
-0.000830566
0.00268178
0.0028234
-0.000631517
7.87067e-05
-0.00340661
0.000367798
-0.00132257
0.00145618
0.000764865
0.00170326
-0.000140324
0.0039279
0.00278747
-0.00288459
0.000940723
0.00117981
0.0017779
0.000342687
0.000625378
-0.000156197
-0.000904788
-0.000896478
-0.00110683
9.40397e-05
-0.000264557
0.000807981
-8.68087e-05
0.00528508
0.00613834
0.0019843
-0.000388807
0.000353971
0.000833021
-0.000262545
0.00330474
-0.00116826
0.000995582
0.000962325
-0.00181642
0.000223631
0.00178592
0.00112071
-0.00613271
0.00427212
-0.00467381
0.000775677
0.00264289
-0.00220964
-0.0012794
0.00223097
-0.000339297
-0.000436074
0.00272299
-0.00078783
0.00220262
9.09894e-05
-0.000291899
-0.00132581
0.00220067
-0.00500395
-0.000416872
0.00212953
0.00222025
0.00168303
0.00231228
-0.000133048
0.000694656
0.000620111
0.00144845
0.000564055
-0.000538265
0.000832284
0.00175982
0.000385344
0.000769549
-0.000949079
-0.000171959
-0.0022102
-0.00120887
-0.00148173
0.00210638
-0.00180953
0.000544716
0.00346657
-0.00347322
0.00168672
0.0036066
0.00116312
-7.67348e-06
-0.00320974
0.000696219
0.00312915
0.00123891
0.00139472
-0.000183117
-0.00221224
0.00230285
-0.000523315
-0.000473846
-0.00102032
-0.000349843
0.00167027
-0.00309152
0.00054064
-0.0037456
0.00481778
0.000655233
0.00035009
-0.00103294
-0.000186617
0.00152446
0.00160765
0.00124271
0.00275916
0.00159064
0.00221737
0.000608445
0.000655573
0.000446038
0.000949224
-0.000660612
-0.00112077
0.000492766
0.00397077
0.00100579
0.00221558
0.00367056
0.00320408
-0.000474571
0.000447537
0.000182658
0.00134854
4.47555e-06
-0.0032665
0.000130041
0.00442973
0.00238841
0.000538586
0.00129495
0.000193159
0.000380657
-0.00354778
-0.00352061
0.000201639
-2.22022e-05
0.000476868
0.00182961
-0.000345519
0.00142182
0.0027191
0.00447008
0.00338014
0.000451795
0.000260865
0.0013071
-0.00417617
0.00111971
-0.0010262
0.00184345
0.00264202
0.00265289
-0.00171194
-0.00422917
0.00384693
-0.00118133
0.000612771
-0.00100838
0.00344992
-0.00177071
-0.000994561
0.00513876
-0.00153711
-0.000384052
-0.00193281
-0.00058182
0.00364456
0.00029523
-0.00085045
6.72722e-05
-0.000579917
-0.000286732
0.000338584
0.00204031
0.000308024
0.00587829
0.00199344
-0.00225781
-3.43562e-05
0.00148251
0.000853785
-0.00361978
0.000836121
0.000235294
-0.000300544
0.00213175
0.00164153
0.00175502
-0.00157915
0.000695315
-0.00184293
0.00336831
0.00211247
-0.00176355
0.00011172
0.000664257
0.000267879
0.000747207
-9.68813e-05
0.000790847
-0.00055298
-0.00137776
0.000724036
-0.00171392
0.00209144
0.00235497
0.00120494
0.0010692
-0.0040575
0.00298953
-0.00661202
0.00152671
-0.0010569
-0.000666768
-0.000167498
0.000389787
0.00120122
0.000226074
-0.000598841
0.00104155
0.0019158
-0.000256513
-0.00135543
-0.000749162
0.00035309
-0.000270115
0.00108464
-0.000956317
0.00346728
3.52594e-06
-0.000435008
-0.00109883
-0.00140977
-0.00172623
-0.000424263
-0.000517788
4.19142e-05
0.000893582
0.00213137
0.000332033
0.00249821
-0.000490259
0.00111236
-0.00355446
0.00148927
0.00023337
-0.00318557
0.000243538
0.000710631
-0.00576718
-0.000713544
0.00047346
-0.00144721
0.000264553
0.00125162
-0.000757439
-3.00208e-05
0.00086368
-0.00242055
0.00123357
-0.00360782
0.00326845
-0.00209375
0.00212616
0.00167299
-0.00302416
0.000375522
-0.000453527
-0.00310237
-0.00229672
0.00673108
8.53517e-05
-0.00156378
0.00134186
-0.000639434
0.000819379
0.00143802
0.000462923
0.00348234
-0.00077478
0.00302921
-0.00115123
0.00251706
0.000476693
0.000452271
0.00214135
-6.02327e-06
0.000583058
0.00107957
0.00258286
0.000373471
-0.00108767
-0.000526243
0.00506906
0.00243885
-0.000346121
-0.00190953
-0.0026763
-0.00130675
-0.00127035
0.00261507
0.00244683
0.000254647
0.00353281
0.000258919
-0.00061813
-0.00339775
0.00113442
0.000197368
-5.13901e-05
0.0016008
-0.000681607
0.000612547
0.000763324
0.00122366
-0.000669981
0.000287954
-0.00120391
-9.36551e-07
0.00223041
-0.000222672
0.00105958
-0.000142364
-0.000477497
0.000506013
0.00122693
0.00158729
0.00204318
-0.000180119
0.00114048
0.00247278
0.00186315
-0.00022399
0.000168967
0.00376481
-0.000985385
-0.00370063
0.00391123
-0.00232497
-0.00520331
-0.000105919
-0.000522083
0.00236514
-0.000571455
-0.000190359
-8.54761e-05
-0.000944322
-5.34557e-06
9.89524e-05
0.00129228
-0.000676191
4.94602e-05
0.00119537
0.00240608
-0.000545159
0.000385816
0.000324142
0.000423599
0.000899323
0.00136615
0.000593289
-0.00115609
0.00155117
0.000162658
-0.000115626
0.000209387
-0.00312908
0.00302848
-0.00104223
0.00227519
-0.00141167
-0.00102774
-0.000742999
0.00211894
-0.00273991
-0.00260774
-0.000963584
0.00125401
-0.000237713
0.00257737
0.000850928
0.00188566
-0.00145405
-0.00226109
0.000567153
-0.000357433
-0.00736374
0.000493251
-0.000169261
0.000183456
0.000828545
0.000382651
-0.00141505
0.000988367
-2.37329e-05
-0.002607
-0.00165849
-0.000124306
0.00105938
0.00431417
0.00132124
0.000296163
-0.000329057
0.000951904
0.000863334
-0.00401317
0.00119926
0.00102021
0.000574499
-0.00212677
-0.00348408
-0.000977868
-0.000300761
0.000894764
-0.00066649
0.000109268
0.000223457
0.00122282
-0.000594524
-0.000831299
0.000568234
0.000915498
-0.0046022
-8.14337e-05
-0.00103447
-0.000473757
-0.000998294
0.00169301
0.0037757
-0.000856379
-0.000630553
0.00110677
1.583e-05
-0.00145952
-0.00273649
0.00298379
0.00134007
0.00140708
0.00202341
-0.00104122
-0.00395685
-0.0011154
-0.000289551
-0.000218904
0.00125188
0.000700704
0.00029604
-0.000579597
0.00310729
0.00210391
-0.000372068
0.000412733
0.000297367
-0.00178121
-0.00219099
-0.00157577
0.00570152
0.00129068
-0.00126352
-0.00144511
0.00161633
0.00109867
0.000515313
0.00144266
0.00084285
0.00163073
-0.00297046
0.000145669
-0.000213003
0.000363039
-2.03895e-05
-0.000310096
-0.00148931
0.00122603
-0.00173616
-2.95878e-05
0.0052991
0.00221372
-0.0018341
-0.00211346
0.000145645
0.00358535
-0.00028454
-6.12659e-05
-0.00498237
-0.001274
0.000831407
-0.002349
-0.00100733
-0.00190071
-0.000526569
-0.00456574
-8.95523e-05
0.00158535
0.000592265
0.000265104
0.00198928
0.0028282
0.000696024
0.00231339
-0.00149008
0.000610361
-8.8345e-05
0.00231216
-0.00111337
-4.91722e-05
0.000241916
-0.000459128
0.00628425
-0.000821227
0.000800462
0.00114379
0.000208509
0.00233944
-0.00148334
-0.00151582
-0.000166549
-0.000352661
-0.00471455
-0.00208837
-0.000236121
-0.00189599
0.000100387
-0.00342174
-0.00281784
0.00121191
-0.00135558
-0.00409764
-0.00104386
0.00483984
-0.00329049
0.00489715
0.00289234
0.000201232
0.00114399
0.000159609
0.000263716
0.000314837
-0.00373296
-0.000787597
0.000246407
0.00290512
-0.000644032
-0.00101221
-0.00172887
-0.00315241
0.000438951
0.00437862
-0.000172512
-0.00061502
-0.0016951
-0.00832825
-0.0013465
0.000571635
0.000234318
0.00154097
-0.000356091
0.00111477
0.00183311
0.00138776
-0.00697098
0.00185854
0.00349317
0.000386185
-9.00092e-06
0.000547645
0.000749531
-0.00309037
-0.00293603
0.000595863
-0.000517236
-0.00110642
-0.00192802
-0.000377353
-0.000193012
-1.49189e-05
-4.04097e-05
0.000103214
0.000552008
0.000217146
-0.000368262
0.000756808
-0.00419476
-0.00779733
0.00162764
-0.000281075
-0.000315141
-0.00328436
0.00304016
0.00042138
0.00412292
-0.00204237
0.000363225
-0.00184346
-0.000367556
0.000449664
-8.02907e-05
-0.000810375
-0.00267617
-0.000171749
0.00349932
0.00119819
-0.000456357
0.00218687
-0.00141121
0.00143811
0.00253311
-0.00197924
-0.00238017
0.00624096
0.000966956
0.000730562
-0.00107589
-0.000323953
-0.000815432
-0.00131764
0.000443699
0.00123285
0.000698583
4.94357e-05
0.00235584
0.00166851
-0.00367865
-4.37762e-05
-0.000125906
0.00136745
-0.00444452
0.00151484
-0.00313049
0.00353888
-0.000624712
-0.000647304
-0.000115039
-0.00126392
-0.000301605
0.00336269
-0.00110983
0.00203254
-0.000869389
-0.000925987
0.000187003
0.0029244
-0.0032711
-0.00209864
0.00228761
-0.000903712
0.000166173
0.000795423
-0.000460455
0.000432515
-0.000940851
-0.001369
-0.00340005
-0.000625207
-0.00195475
0.00188451
0.000696595
-0.000933619
0.00021088
-0.0058879
-0.000934738
0.000953706
-0.000402692
-0.00275328
0.00462441
-0.00366249
-0.000787744
-0.00417305
0.000547176
-0.000265905
0.000320466
-0.000436436
0.000226553
0.00212494
0.00240003
0.00189741
0.000866509
0.000996491
-0.00338442
-0.000542499
-0.00139269
-8.34465e-05
-0.00919127
-0.0009314
-0.00281663
-0.00126943
-0.000615269
0.000124148
-0.000709283
-0.000141078
0.00253071
0.000495303
1.65312e-05
0.000115712
-0.00421525
-0.00052468
0.00331001
-0.00413596
0.000124865
-0.00314294
0.00539875
-0.00125125
0.00308682
0.00048181
0.00252061
0.00448091
0.00211356
0.00197689
3.22006e-05
0.00148166
0.000354201
0.000479172
0.00327742
-0.00114629
0.000481144
-0.00191878
0.000252502
0.000306159
-0.000346027
-0.000193939
-0.00132169
0.00161239
0.000185672
0.00190312
0.00358668
0.000646467
-0.0036759
0.001117
-3.21169e-05
-0.001302
0.000648914
0.00466157
0.000337955
0.00452284
0.00116467
0.000271152
-0.000180652
0.000287137
0.00142828
0.00101617
-3.15389e-05
0.0017626
0.00342734
-0.00505592
0.00324481
0.000162501
0.00394824
-0.000188696
0.00135734
0.000922475
0.00241981
0.00309438
-0.00066543
-0.0011466
0.000310054
-0.000576382
0.00152346
0.00318947
-0.00113167
0.00329807
-0.000847261
0.00113405
0.000548936
-0.000639545
-5.98813e-05
-0.00376
-0.00108668
-0.0011187
-0.000610212
0.00143999
0.00169075
-0.00268316
0.00133234
0.00187744
-0.00399371
0.000383561
-0.000602491
0.00204151
0.00232194
0.000793076
0.00321733
0.000520277
-0.00142128
0.00321051
0.000906201
0.00663064
0.00168913
0.00308642
0.00119056
0.00097141
0.000338999
-0.00358939
0.00194209
-0.000458536
-0.000310284
0.00052582
0.000954532
-0.00198115
0.00252473
0.00161695
0.00140182
-0.00172913
0.00147155
0.00103229
0.00127485
-0.000567805
-0.000696432
0.000775176
-0.00300015
-0.00186864
0.000327096
-0.00242856
0.00112166
0.000189378
-0.000532112
0.00407862
0.00133993
0.00164659
-0.0056799
-0.000394806
-0.00287387
-0.00348793
-0.000506875
0.00101283
0.000399211
0.00212288
0.00132944
0.00224721
-0.00339665
0.00150712
0.00207114
-0.00238918
0.00133939
-0.00174188
0.000449483
-0.00118027
0.0001886
-0.000358849
0.00166145
0.0045411
0.0022257
0.00212241
0.00136358
-0.00123286
0.000649144
0.00336759
-0.000347
-0.000554129
0.000990377
0.000276372
5.546e-05
-0.00043183
0.00403633
0.000249143
0.00107125
0.000836184
0.000276186
-0.00188318
0.000437817
-0.00170179
0.00333322
0.00112733
-0.000330596
