-0.00111068
-0.00013093
0.0163854
0.000784692
-0.0089425
-0.000252044
0.0172391
0.0164469
0.00178005
0.0115468
0.00352674
-0.00423722
0.011951
0.0050238
-0.0024782
-0.00159612
-0.00184513
-0.00555201
0.00626258
-0.00414478
0.0135984
0.00798853
0.000513368
-0.000534908
-0.000795471
0.000311965
-0.00309855
0.00393615
-0.00568816
-0.00547489
-0.000463483
-0.00134741
0.00142382
-0.0043379
0.00565096
0.000286925
0.00121238
-0.0116906
0.00359396
-0.00127963
0.000505306
0.00221824
-0.00524754
0.00970624
0.00472214
0.00321595
-0.0072591
0.000458901
-0.0129308
-0.00047028
0.00845499
0.00498972
0.00377943
0.00814782
2.27064e-05
-0.0104339
-0.0096505
0.00596769
-0.00773727
0.00118812
-0.0213206
0.00514705
-0.00692526
-0.00258275
-0.00164843
0.00126883
0.00147119
0.00126925
-0.0143293
0.000434489
-0.00845876
0.0146134
-0.00255911
-0.00393988
0.00230544
-0.00493781
0.0112882
-0.00730208
-0.000756795
0.0149273
-0.00350113
0.0112543
0.00506931
0.00379657
0.0116899
0.00764509
0.00549566
0.00329012
-0.00697324
0.00119601
9.64983e-05
0.00410181
0.00288668
-0.00572793
-0.000533198
-0.00117641
-0.000121614
-0.00288457
0.00197209
0.00157841
0.00346136
0.00213697
-0.00456225
0.0119626
0.00386675
-0.00919638
-0.00754489
-0.000563753
-0.00641326
-0.00405169
0.0014373
-0.00200422
0.00115052
-0.00109482
-0.00297673
0.0025132
-0.0119356
-0.00236016
0.00351831
0.006175
0.0161652
-0.00207066
-0.000144505
0.0037902
-0.00737417
0.00345957
-0.00887285
0.000390325
-0.00167515
-0.00210521
-0.00558507
-0.000127651
0.00785468
-0.00190779
0.00447489
-0.00404036
-0.000821354
0.00093314
0.00710845
-0.00354897
-0.000765516
0.0100413
0.00464401
-0.00295935
-0.0108716
-0.00291524
-0.00250437
-0.00765353
-0.00168324
0.00819194
-0.00219805
0.000599211
0.00114303
0.00629739
-0.00254025
0.00319312
0.00336689
-0.00220705
0.000296336
-0.00308467
-0.0060352
0.00399771
-0.000729996
-0.011012
-0.00332099
0.000661635
0.00276209
-0.00137783
0.00420037
-0.0176026
0.00265285
-0.00222689
0.00331796
0.00088115
0.000716082
0.00208993
0.00185948
-0.00505062
0.000393013
-0.000511935
-0.00125108
-0.00360576
-0.0132159
0.00217255
-0.00121675
-0.00435361
-0.00205851
5.63299e-05
-0.00226448
0.00280911
0.00576617
-0.0141849
-0.00642842
0.00687508
-0.0015796
-0.0158658
0.00823372
0.00410235
0.00351543
-0.00111227
0.000455732
-0.000835656
-0.00392893
0.00160501
-0.0158296
0.00125666
-0.00172382
-0.00677699
-0.00809614
0.00396506
0.00168845
-0.00989762
0.00689933
-0.000399386
0.00434677
0.000119641
0.00472268
-0.00339899
-0.0119964
0.00050908
-0.00736507
-0.00198505
0.00747776
-0.0048876
-0.000650643
0.00025631
0.00153676
0.00297379
-0.0057226
0.000500539
-0.00419913
0.00751019
0.000419282
0.0017877
0.00129813
0.00439613
0.00725904
0.00100656
0.00763269
0.00583032
-0.000203383
-0.00222925
-0.00434369
0.00892642
-0.00150248
-0.00272542
-0.00043995
-0.00409219
-0.00342407
0.00625083
-0.00327961
0.000459249
-0.000821923
-0.000253068
-0.00100375
0.00193729
0.00231445
-0.000512173
0.00420155
-0.00155755
0.0090268
0.00582655
-0.002371
0.000917418
-0.0027409
0.00445096
-0.0106753
0.00908529
-0.00162847
0.000954449
-0.00710234
-0.000785679
0.00247458
-0.0112932
-0.00168318
0.00134106
0.000484573
0.00604664
0.00684583
-0.00175841
0.000144675
-0.00578355
-0.00452995
0.000334481
-0.000213384
-0.00337113
-0.00194047
-0.00290199
0.001174
0.00429797
0.0102941
-0.00405844
0.0116101
0.00100954
-0.00188431
-0.0002435
0.00521187
0.00796305
-0.00111574
0.00822349
0.0041841
0.000765593
-0.00174379
-0.000772801
-0.0119882
-0.0023989
0.00694172
0.00210382
-0.0104415
0.0100312
-0.00359884
-0.00160578
-0.0101383
0.00834571
-0.00225863
-0.00665243
-0.0173758
-0.00709706
0.00226518
-0.00484864
0.00194491
0.00198138
-0.000631853
0.000264465
0.00534348
0.00680463
-0.00221802
-0.0083203
-0.00448172
-0.00243637
0.00109476
-0.00273821
0.00026089
0.00288084
0.00121626
0.0018164
-0.0176657
-0.0093219
-0.0018593
-0.0177135
0.00475758
0.00309318
-0.0126639
-0.000390793
-0.00324842
0.00756195
0.00370184
-0.00723045
0.00261356
-0.00980202
-0.00222527
0.0144719
0.0050133
-0.00818757
-0.00247961
-0.0127057
-0.00136918
-0.00107846
-0.00268651
-0.000807353
-0.0160289
-0.0109068
-0.0101927
0.0075712
-0.00649453
-0.00339562
0.00290303
0.00176792
0.00450275
-0.0074083
0.00207149
-0.00754624
0.00400666
-0.00521808
0.00294268
0.00959011
-0.00565915
-0.00335729
-0.012822
-0.00760343
0.0122755
0.00546406
0.0120542
0.0112207
0.00360204
-0.0305345
-0.0032508
-0.00657544
0.0128345
0.00063529
0.00429021
0.00560398
-0.00217675
0.00232259
0.0044672
-0.000132601
0.00525134
-0.0044718
0.00866735
-0.0096254
-0.00419631
-0.000325299
0.0127227
0.00741691
0.00246474
0.00219179
0.0151014
0.00269274
-0.00383094
0.0184115
0.0098351
2.44289e-05
-0.00195888
0.000973962
-0.00878263
-0.00119966
0.0143757
0.00210382
-0.00339316
0.00132891
0.0039235
0.00278881
-0.00329117
-0.015138
0.00442942
0.00450571
-0.00108684
-0.00108127
-0.00127192
0.00229782
-0.00188851
-0.0136366
-0.001782
0.00378723
4.08608e-06
0.00609392
0.00160615
0.00484939
0.00658993
0.000420275
-0.00981678
0.00573492
-0.00567407
0.00448315
-0.00221833
-0.00237248
0.00811501
-0.00085332
0.00690904
0.00785498
0.00227224
0.00668917
0.00398654
0.000539287
0.00185979
0.00104454
0.00567712
0.00322204
0.0102593
0.0100018
0.00473244
-0.00641345
-0.0161823
0.00381333
0.000528259
-0.00410723
0.00339708
-0.003497
0.00391273
-0.0118738
-0.00133286
0.00990545
-0.0025726
-0.0015535
0.00980876
-0.00114638
0.00477399
-0.0059716
-0.0135959
-0.00167359
-0.00177074
0.00170229
-0.00748087
-0.00132782
0.00052005
-0.00416327
-0.0027321
-0.000366868
-0.00218567
0.0176013
0.0151683
0.00350897
0.00223777
0.00269079
0.00237244
0.00221481
0.00361958
0.0103181
-0.0144451
-0.00260064
0.00868839
0.000213836
0.000735833
0.0129006
0.00886347
0.00590406
0.00945861
0.00859827
0.00130769
0.00568655
-0.00293544
-0.0018339
-0.00251414
-0.00111643
-0.00430588
-0.00304703
-0.00288364
-0.00177654
0.00149406
-0.000452266
-0.00729606
-0.00185454
0.00891553
-0.0106357
0.0072623
0.00765397
0.00347623
0.0002085
0.00321558
-0.00285194
-0.00541726
-0.0170281
-0.000903814
0.00925621
0.00381256
-0.00410134
-0.00429061
-0.00067538
-0.00151472
0.00148424
0.00168615
-0.00630796
-0.01082
0.00713757
0.00179043
-0.00728463
-0.00357688
0.00683658
0.00537689
0.00301414
-0.00708319
-0.00177639
-0.00259473
0.00561112
-0.0019114
0.00624713
-0.00113781
-0.0116636
-0.00941359
0.00686093
0.00610582
0.00155839
0.00198131
-0.00463571
0.00163219
0.00392422
0.00456745
0.0167459
-0.00519781
-0.000481673
-0.000581332
-0.00195931
0.00485265
0.00125109
0.0036406
0.00447795
0.00414449
-0.0036218
0.00119691
-0.00734473
0.00322133
0.0115287
-0.00012576
0.00722032
-0.00131739
0.00992677
7.28156e-05
0.0108677
-0.00124494
0.00107686
0.00196814
-0.00379037
-0.0107628
-0.0110896
0.0039607
0.0049985
0.0022998
0.00301223
-0.000904961
0.00726343
-0.00260665
0.00411737
0.00345214
0.00195149
0.00463437
0.00414828
0.00505542
0.00577795
0.00632054
0.00478638
-0.00126949
0.000900233
0.0173569
-0.000933021
-0.0127989
0.00365425
-0.00465119
-0.00272121
0.00190915
-0.00456311
0.00425212
0.00649659
-0.00212837
-0.00299716
0.00561982
-0.00804363
0.00052145
-0.000921662
0.00223774
-0.00489564
0.0138271
-0.00348262
0.00382241
0.00355756
-0.00372167
0.00128826
-0.00428318
-0.00146948
-0.0116329
0.00338635
-0.00393926
-0.00600325
0.00467431
-0.00235679
-0.0033824
0.0061637
0.002057
0.00309787
0.00643421
0.0164255
0.00919406
-0.000241271
-0.00629241
-0.00334058
-0.0186041
0.00633734
0.000744377
0.00104425
-0.00633398
0.00610937
0.00604964
0.00702491
-0.00225265
0.00493671
0.00549198
-0.00031075
0.00122307
0.00159414
-0.015258
-0.00709772
0.0044923
-0.00319394
0.000726807
-0.00874339
-0.00646661
0.00948506
-0.00252665
-0.0105739
0.00443868
-0.0018372
-0.00181784
0.00686925
0.00938113
0.00742442
-0.00172804
-0.00478695
0.000260592
0.014264
0.0100492
-0.00780036
0.00368492
-0.0102234
-0.00394949
0.00158614
0.00724906
0.00121113
-0.0040275
0.000166979
-0.00871989
-0.0071527
0.00552612
0.0124103
-0.00308076
0.00550872
0.00246138
-0.00185924
0.00279161
-0.0106234
0.0021676
0.0143227
0.00952098
-0.00200063
0.000966941
-0.0175023
-0.00967024
0.000849582
0.0034071
-0.00299458
0.00650736
0.0059932
-0.00416654
0.000809549
0.00363546
-0.00623092
-4.16463e-05
-0.0103709
-0.0116775
0.00992907
0.0054335
-0.000708875
-0.00478347
-0.00221031
0.00781765
0.00397405
-0.000107645
0.00139183
0.0212318
-0.00477941
0.0149593
-0.00229203
-0.00293902
-0.00287227
0.000313798
0.0107147
0.00553141
0.00047267
-0.00799052
0.00124017
0.00573999
-0.000799577
0.0045191
-0.00569917
-0.0169458
0.00427338
0.00342524
-0.00563642
0.00405256
-0.00648491
-0.000522193
0.00386088
-0.00581127
-0.00145942
-0.0064165
-0.000797115
0.000572392
0.00420221
0.00325631
0.00578541
-0.00533498
0.00794816
-0.00332878
0.00276226
-0.000372582
-0.00144708
0.00155231
-0.00121339
0.00314664
0.0153329
-0.00311067
-0.000559144
-0.00331175
0.00109072
0.000297053
-0.0084081
0.0154533
-0.000640814
-0.00571893
-0.0087045
0.0111886
-0.00090857
-0.00745102
-0.000103436
-0.0030464
-0.00117699
0.00589621
0.0103879
-0.0139128
0.00997273
-0.000520211
-0.00722578
1.41706e-05
0.00251353
0.00538797
-0.000737484
0.0124077
-0.00145159
-0.00683077
-0.00642209
0.00250088
0.000839626
0.00831729
-0.0023077
0.0048022
-0.00253889
0.000201395
0.00154134
-0.00435175
0.00586658
-0.00113143
-0.00417129
-0.00101788
-0.00161263
0.00174548
0.00220916
-0.00120887
-0.00181215
0.00975219
-0.00456791
-4.02417e-05
0.00462048
0.00925744
0.0012672
0.000906031
-0.000533926
-0.00619831
0.00214289
0.00698121
-0.00460792
0.00603262
-0.00146967
0.00220436
0.00559827
-0.0058032
-0.00856063
0.00457967
0.00479796
0.000543301
-0.00315761
-0.00234587
-0.0133443
0.00101276
0.00175714
0.0111862
0.0115761
0.0117505
-0.0174746
-0.00973693
-0.00742695
-0.0154905
1.71957e-05
0.0122192
-0.00746814
-0.00519505
0.00268909
0.00170227
-0.0087641
-0.00281363
-0.0101013
-0.00930546
-0.00276095
-4.52644e-05
0.0023618
0.003672
-0.00117039
-0.00809328
-0.00511797
0.00212078
-0.000330557
-0.00664009
0.00325756
0.00459787
0.00391993
-0.00986787
0.00151206
0.00373691
-0.00323243
-0.00193855
0.00320207
0.000489866
0.0052478
-0.000598261
-0.000288379
0.011373
0.00371943
-0.0059617
-0.00605203
-0.000382086
-0.00508276
0.0108333
-0.0151074
-0.00694666
-0.00199515
0.00880216
0.00054909
-0.00966595
-0.00266566
-0.00837557
-0.000194697
-0.00531031
-0.00391462
-0.00173458
0.0013996
0.00222445
0.00298548
-0.000951995
0.00783912
-0.00854857
0.00726319
0.000252994
0.00477564
0.00195249
-0.00549167
0.00243995
0.00239252
0.00793495
0.00303161
0.00622369
0.00334239
0.00293387
0.0213282
0.0013677
0.0140668
0.00261747
-0.000424583
0.0145759
-0.0159071
-0.00367908
0.00034363
-0.00883019
-0.000711269
-0.00222216
-0.00400216
0.00903009
-0.00661091
0.00171783
0.00336401
-0.0104181
-0.0072947
0.00285436
-0.00407097
0.00530102
0.017346
0.00429908
-0.00305259
-0.00611685
-2.74379e-05
0.00235004
-0.00114055
0.00348308
-0.00254444
-0.00297943
-0.000828284
-0.00930732
-0.0199751
-0.00222632
-0.00369392
0.00550885
-0.00579698
0.00265387
0.0161296
-0.00205158
-0.000107517
-0.00470085
0.000197219
-0.00281941
0.000705556
-0.000463609
-6.91151e-05
0.00465338
-0.0175713
0.00389568
-0.00782052
-0.00216338
0.000253806
0.00198569
0.000945922
-0.0037936
0.000490131
-0.00665468
0.00347707
-0.00454247
0.00166322
-0.0102619
3.50863e-05
0.00865887
0.00459967
0.00102942
-0.00178535
-0.00127242
0.0039162
0.00594464
0.00137217
-3.38993e-05
-0.00256375
-0.0011223
0.00406342
0.000557258
-0.00643355
-0.00423477
-0.000615015
0.00186155
0.000489952
-0.00749734
0.00898844
-0.00527816
-0.000426586
-0.00438365
0.00327591
0.00772808
0.00436888
0.00168669
0.00573008
0.0005031
-0.00630944
0.00332663
-0.00264954
0.0113946
-0.000594038
0.0057533
-0.00435204
8.05655e-05
-0.00623811
-0.000443654
-0.00161397
0.00361965
5.61719e-05
-0.00011339
-0.010447
-0.00597672
0.00600748
-0.00151897
-0.00892748
0.000148007
-0.00233561
-0.00103847
-0.00164462
0.00327301
0.00478529
0.00202766
-0.004935
-0.00804099
-0.0013558
-0.00367274
-0.0029327
-0.00361335
-0.00104107
-0.000474593
0.00725776
0.0142535
-0.00490542
-0.000712881
0.00278746
0.002572
0.000528961
0.000795166
-0.00428312
-0.0071431
-0.00255786
0.00156089
-0.00275691
-0.0148388
0.0015768
-0.00821197
0.0037157
0.00179018
-0.00104834
0.000356269
0.00190778
0.000105697
0.00933653
-0.00471604
-0.00179334
0.00119141
-0.00410171
0.0112371
-0.0155168
-0.000349225
-0.00288857
-0.00598589
-0.00863659
-0.000793775
-0.00156751
0.00426402
-0.00376903
0.00352434
-0.00589721
-0.00305955
0.0137044
-0.00240236
-0.00524666
-0.00289722
0.0075273
0.0015857
0.00309545
-0.00220717
-0.0131469
0.00655836
0.000446058
-0.00415828
-0.00742946
-0.000799006
-0.00905443
0.00155224
0.00807321
-0.00185312
-0.00492841
0.00148968
0.00581429
0.00177453
0.00742612
0.00690403
0.00110111
0.0050479
0.00150603
0.000430209
-0.00123299
-0.00167725
-0.00159828
-0.00390708
0.00270197
-0.000318223
-0.00163504
0.00217962
-0.00269438
0.00560318
0.00525937
-0.00243364
-0.00446629
0.00334549
-6.9001e-05
0.00171867
-0.00514065
0.00652148
-0.00247157
-0.00305246
0.000996226
-0.00547028
0.0036304
0.00501578
0.0064724
0.00368732
0.00389285
-0.0056787
-0.000596449
-0.00717619
0.00306025
-0.0116179
-0.00343197
0.00257493
-0.00077621
-0.00072042
0.00537705
-0.000424053
0.00269607
0.00449553
0.000978185
0.0158088
0.00482145
0.0100686
-0.00586638
0.00238729
-0.00488777
-0.00210093
0.000638274
0.00287512
0.00842153
-0.00308104
0.00143298
0.00691652
0.000310419
0.00194771
0.0108581
0.00271728
0.00583068
0.00232695
-0.000828409
0.00021908
0.00465784
-0.0042311
0.000331366
0.00450847
-0.00872963
-0.00477808
0.0117174
0.00153749
-3.31437e-05
-0.0132616
0.0025373
0.000695766
0.00145102
0.00491579
-0.00488687
0.00302537
0.00751932
-9.79074e-05
-1.66477e-05
-0.00510984
0.00524368
0.000536506
0.000102168
-0.0040252
-0.00851031
0.00458963
0.00329416
-0.00375679
0.000934973
-0.00445955
0.00127723
0.000881027
-0.00773513
0.00484459
0.00475717
-0.000966981
0.00667648
-0.00793344
0.00493813
0.0010797
0.00121981
0.00124322
0.00369489
-0.00617586
0.00729712
6.40718e-05
-0.0100694
0.00683565
-0.00222465
0.00133964
0.00292473
0.00523522
0.00946735
-0.00140176
0.000870379
0.00254993
0.00074025
-0.00289726
0.000665479
-0.000975184
-0.00237591
0.00249964
0.00193239
0.0045328
0.00836837
-0.00290516
0.00639695
-0.00284633
0.00479539
-0.000443138
-0.00663723
-0.000774836
0.00887715
-0.00410233
0.000496991
-0.000444381
-0.000957715
-0.00147233
-0.0010964
0.00638214
-0.00133371
-0.000181839
0.000486397
-0.00663124
0.00877409
-0.0065333
0.000917031
0.00070543
-0.0086468
-0.00160757
0.00207607
-0.00148574
-0.00117683
-0.000835091
-0.0016581
-0.00512403
-0.00274123
-0.00481635
-0.00117547
0.00100589
0.000914607
-0.00128639
-0.00160489
-0.0037385
0.00416737
-0.00197316
-0.00703386
-0.000481623
-0.00263811
-0.00522645
-0.00246309
0.00198237
-0.000929543
0.00155739
0.0025184
-0.00535314
-0.00278585
-0.00114805
0.000652198
0.00356593
0.00780402
-0.00822005
0.000415486
0.00105003
-0.00943913
0.00146859
0.0158748
-0.000509009
-0.00245739
-0.00466965
-0.00474303
-0.00468404
0.00214507
-0.00264941
-0.000386724
-0.00630939
0.0079976
0.00657501
0.00239566
-0.0031231
0.00501173
-0.00354388
-0.0030006
0.000326306
-0.00488757
-0.0077153
-0.00487234
-0.00261037
-0.00358902
0.00650767
0.000995667
-0.000777916
-0.00185915
0.00311684
-0.00279632
0.00594072
0.00127581
-0.00719547
0.000929936
-0.00197852
-0.00212574
0.000272575
-0.0038825
0.0053161
-0.0037731
0.00218084
-0.00635176
0.00255897
0.00303873
0.00195965
-0.00350065
0.00213674
-0.00155937
-0.00257185
-0.000906311
-0.00566352
-0.00335413
-0.0233093
0.00525768
-0.00285254
-0.000905563
-0.00790619
-0.00400896
0.00127166
-0.00695586
0.00355999
-0.00197106
-0.00018391
0.00206582
0.000222145
-0.00301897
0.00398774
0.0078334
-0.00318564
0.000733169
-1.25846e-06
-0.00527305
0.00124398
-0.00402858
-0.000754656
-0.00109455
0.000147366
-0.00385589
0.00389977
-0.00501877
0.00621716
-0.00150443
0.000534543
0.000757148
0.0113304
0.00354968
0.00546858
-0.00403671
0.00231248
-0.00748885
-0.00598797
-0.00416621
-0.00114884
0.00191928
-0.00952029
-0.00142911
-0.00288883
-0.00742078
0.00553629
-0.00311078
-0.00982273
0.00189509
-0.00242243
-0.00420418
-0.00499345
-0.00110181
0.00104454
0.00824369
-0.00179698
-0.00137125
-0.0156039
-0.000637268
-0.00265819
0.000714909
-0.00454369
-0.00423695
0.000949262
0.00381311
-0.000599537
0.00376301
-0.00276428
-0.00265678
-0.00152167
-0.00209161
-0.00111096
0.000218723
0.00131208
-0.000452469
-0.00768947
0.00377484
0.000703658
-9.13922e-05
-0.00542311
-0.00734337
-0.0173062
-0.00675834
0.00519734
-0.00134934
0.00445122
-0.00177254
-2.56475e-06
0.00110279
-0.00108794
-0.00232161
-0.00039927
-0.00516724
0.00138507
0.0047259
0.00708629
0.00320044
0.00502545
0.000347145
-0.00283911
0.00765565
-0.0022693
0.000297058
0.00380319
-0.0042147
-0.00414678
0.00042981
-0.00177965
0.00153296
0.0172616
0.00304572
0.00377148
-0.0029037
0.00338358
-0.00508396
0.00318612
0.00201048
-0.0021742
-0.00116025
-0.00482247
-0.00144727
-0.00504636
0.00153685
-0.00203602
-0.00305527
-0.0061369
0.00263764
-0.00166152
-0.00141318
-0.00997028
-0.00125896
0.00403301
-0.00604906
-0.0040163
-0.00220019
0.00194068
-0.000797337
0.000497968
0.0137595
0.00121416
0.000528557
0.00558927
-0.00366803
0.0017919
0.00447671
0.00161339
-0.000903345
0.000118653
0.00074789
0.000535369
-0.00247067
0.002122
-0.00159323
-0.00179489
0.0286338
-0.0106034
5.90702e-06
0.000981727
-0.00588906
0.00602705
0.00726455
-0.000209299
-0.000405197
0.00218801
-0.00423629
0.0104576
-0.00258127
0.00795135
-0.000287911
-0.0151461
0.00479276
0.00631151
-0.000568229
0.00254955
0.00364127
-0.000120896
-0.000582456
-0.00156476
-0.00953316
-0.0019031
0.00596614
0.00263298
0.0112761
-0.0118754
-0.0099857
-0.00165074
-0.00101238
-0.00189434
-0.000516694
-0.0100588
-0.0025673
-0.0125846
-0.000787766
0.003671
-0.00786
0.00393091
-0.0063515
0.00770761
0.000220591
0.000376425
0.00256107
0.000434371
-0.00329627
-0.00066804
-0.00128368
-0.00219626
-0.000498762
-0.000331273
-0.0101738
-0.00225728
0.00438173
0.00288708
-0.00159331
0.0110819
0.00697876
-0.00775266
-0.00266419
0.00502193
0.00444219
0.00545548
-0.00149129
-0.00135344
0.00279618
0.000202834
0.00259448
-0.0044034
0.00289136
-0.00149297
0.00431406
-0.0164292
-0.000873716
-0.000624897
-0.00396084
-0.00070056
0.00204634
0.00205468
0.00199861
0.0010882
-0.00535213
-0.00294331
0.00114718
-0.00250874
0.00111363
0.00157399
-0.00124819
0.0027353
0.00584693
-0.00129151
-0.00725153
0.00228356
0.000631638
-7.68972e-05
0.00325158
0.00802172
0.00194382
0.00290797
-0.00302059
-0.00237703
-0.000114504
0.00381701
-0.00781599
0.00961703
-0.00160108
-0.00691093
0.00410173
-0.00234204
-0.00592938
-0.000508741
0.0238446
-0.00542454
-0.00122538
0.00495941
3.25961e-05
-0.00461577
-0.00070086
-0.000759607
-0.00564925
0.0030964
-0.000178173
0.00348562
-0.00146076
-0.000384374
0.0200446
0.00191292
0.00675377
0.00274482
0.00340818
-0.00213494
-0.00387242
-0.00158324
0.00466352
0.00288815
0.001987
-0.00157949
-0.00762884
-0.00187323
0.010875
-0.00624621
0.00576794
-0.00440862
-0.00290905
0.000615718
0.00465902
-0.00434395
0.00347217
-0.00232592
-0.00052278
0.00319654
-0.00289777
-0.00924362
-0.0069592
0.000218367
-0.00166291
0.00544435
-0.00397413
0.00398068
0.00382141
0.00269061
0.000822665
-0.00840129
-0.00126863
-0.00436395
0.00148372
0.00246223
0.00156327
-0.00802151
-0.00532548
0.00511207
0.00418798
-0.00398101
-0.00182812
-0.00302811
-0.00539128
0.00129165
-0.00124388
-0.00186986
0.0201461
-0.00888639
0.00111782
0.000110913
-0.000129135
0.00571805
0.0138043
-0.000443435
0.0095651
0.00846779
0.00152795
0.00691059
0.00157286
0.00475887
0.00178548
-0.00910124
-0.0104579
-0.00511448
0.00128826
0.000805009
0.00218044
-0.00607065
-0.0146138
-0.00712661
-0.000682842
-0.000662994
0.00418747
-0.00499725
-0.00208922
5.4102e-05
-0.00495074
0.00360034
-0.000785537
-0.000113214
-0.00480402
-0.000291793
7.91972e-07
0.0137879
-0.00190353
0.00837489
-0.00299904
0.00558443
0.00354365
-0.00363087
-0.00200368
-0.00628352
-0.000325613
0.00354581
-0.000717688
0.00201562
-0.00697992
-0.000142187
-0.000685027
-0.00286501
0.000857411
0.00106011
0.00531424
-0.00281073
0.00495526
3.11594e-05
0.00452958
-0.019617
0.00088463
0.000876057
-0.0023689
-0.00580244
-0.00371884
0.0044164
-0.00463162
0.00111007
-0.00860545
-0.000722716
0.00690865
-0.00349161
0.00345869
0.00100613
-0.00309247
-0.00546945
0.0116785
-0.0021525
0.00480483
-0.000818541
-0.00164153
-0.000886248
-0.000653033
-0.000506745
0.00406445
0.000740663
0.000182896
0.00160521
-0.00278078
-0.00785368
0.00206469
0.00697683
-0.00223342
-0.00364331
-0.00661734
0.00281991
-0.00269705
-0.00128751
-0.000356305
0.00524492
-0.00350226
0.00573073
0.001429
0.0055493
-0.00598746
-0.00719839
0.00111145
-0.00484803
-0.00506969
-0.00181897
0.00542407
0.000634955
0.00337448
-0.00288994
0.0025899
-0.00312675
-0.00246062
0.00086353
0.000942272
-0.00286331
-0.000102791
-0.0022954
0.00787705
0.000549821
-1.25866e-05
0.00217814
-0.00802745
-0.00331198
0.0123389
0.000459934
-0.00229812
0.00195731
3.14175e-05
0.00715802
-0.00243787
0.00091137
-0.000815542
-0.00568032
0.00196788
-0.00126446
0.000674041
0.000835862
0.000969327
-8.94956e-05
-0.00179948
-0.00297509
0.00249673
-0.00148726
0.00437372
0.00450495
0.00366437
0.0044451
0.00454509
-0.00180909
0.00323732
0.00240263
0.00297392
0.0103193
0.000170538
-0.00349671
-0.00172698
-0.00559255
0.00233585
0.000437318
-0.00290432
-0.0179306
0.00252446
-0.00391196
0.000735863
-0.000451195
-0.000469868
0.000512671
0.00750656
0.00230522
-0.000766653
-0.00341123
-0.00176818
-0.0113434
0.00083547
-0.0161615
-0.00173305
0.00162572
0.00829413
0.00157138
0.00547482
0.00918297
-0.00130607
-0.0011348
0.000252658
-0.00260182
0.000240076
-0.00548155
-0.000690844
0.000339534
0.00916067
0.000688582
0.00273581
-0.00360782
0.00448392
-0.0023523
-0.00804158
0.00108562
-0.00751137
-0.00121229
0.00761097
-0.00164543
-0.000731391
-0.000643445
0.00900893
-0.00249842
-0.00386497
-0.00108044
-0.00467332
0.00278621
0.00346621
0.00155516
0.00203168
-0.000929498
0.00124126
0.00847822
0.0079636
-0.00768503
-0.00269157
-0.00253536
0.000966631
-0.00463395
0.000496226
0.00357811
-0.000387873
0.007472
0.000512705
-0.00251755
0.000331071
-0.000430237
-0.00238913
-0.00254048
-0.000575906
-0.00179495
0.00263563
0.00803088
0.00126386
0.00356244
-0.00221397
0.00103377
-0.00254324
-0.000101427
0.0133265
0.00827117
-0.00272562
-0.00126186
0.00155866
-0.000240895
-0.00407883
-0.00243707
-0.00333974
0.000215392
-0.00266868
-0.00297634
-0.0107982
0.00334802
0.00128813
-0.00914359
-0.0034095
0.00306427
0.00390964
-0.000478218
-0.00112427
0.00114899
-0.00288724
0.00445274
-0.0060956
0.00441702
0.00062578
0.00235386
-0.00207011
-1.51447e-05
-0.00546425
-0.00519325
-0.00693277
0.00812015
-0.000899541
0.00640537
0.00377462
0.00140497
-0.0065936
-0.00147039
0.00627947
0.00357014
-0.00226648
-0.0118207
-0.00106793
0.00556863
0.00222041
-0.0024056
0.00802185
-0.00324996
-0.00553355
0.0150614
0.00229318
0.0162332
-0.00237695
0.00118974
-0.00682569
-0.00575219
-0.00543875
-0.0050854
-0.000393321
-0.00115653
-0.00771004
-0.00941094
-0.00155788
-0.00865416
-0.00911131
-0.00051227
0.0021241
-0.0037124
-5.63122e-05
-0.00284529
0.0122097
-0.00160783
-0.00163215
-0.00202799
-0.00471848
0.00358274
-0.00732382
0.00019853
-0.00198101
-0.00121087
0.00240112
0.00624747
-0.00342246
0.0106736
-0.00638105
0.00686475
-0.00363343
-0.00464773
-0.00415583
-0.000849523
-0.000539922
0.00370535
-0.00236104
0.00128433
0.00379481
-0.00449776
-0.00260427
-0.0104363
-0.00434191
-0.00734723
-0.00432474
-0.000990328
-0.00298611
0.000656499
-0.00613859
0.00244246
-0.00743247
-0.00754928
-0.00870256
-0.00425875
-0.003453
-0.0105755
-0.00439344
0.00160714
-0.000230457
-0.00327537
0.00250901
0.000251263
-0.00276817
-0.00474358
0.000924623
-0.00295652
-0.00898822
-0.00112557
0.00363233
-0.00361338
-0.00847739
-0.00125883
-0.000956782
0.00637193
0.000422914
-0.000273957
0.000704708
-0.00103498
-0.000806212
-0.00334471
0.00838641
-0.00616833
-0.000744162
-0.000227698
-0.00354799
0.00138142
0.00325467
0.00375914
0.00836956
-0.00227657
0.00625636
-0.00338553
0.00225355
-0.000423031
0.00250205
-0.0193167
0.00153671
0.000362008
-0.00412177
4.62418e-05
-0.00102885
-0.00348095
-0.000770905
0.00841964
0.000479209
0.00676348
0.00286885
-0.00107539
-0.00511896
-0.00476556
-0.0103643
-0.00463984
-0.00147592
-0.00214312
-0.00376003
-0.00726276
1.70111e-05
0.025143
-0.00248238
0.00747842
0.00501297
-0.00221693
-0.00599361
-0.00264744
-0.00170659
0.017291
0.00267812
-0.000943867
0.0157156
0.00242247
0.000818711
0.0078419
-0.00659336
0.0045419
-0.00667301
0.00629046
-0.00784469
0.00164244
0.00874544
0.00715297
-0.00343577
0.000611568
0.00282695
-0.00490972
0.00596482
-0.000182805
-0.00482918
0.00131102
-0.00379909
-0.0034701
-0.00621433
0.0202704
-0.00455558
-0.00457221
0.0169519
-0.00205277
0.00515281
-0.00307756
-0.00698067
0.00796759
0.0016006
-0.00753107
0.00778868
-0.00247702
-0.00710773
0.00145626
-0.00386796
0.00732729
-0.00739693
0.0184548
0.00352769
-0.00511062
-0.000856327
0.00828449
0.00389731
-0.00297203
0.00287343
0.00938667
0.00143445
0.00382032
-0.00421938
-0.00314628
-0.00226601
0.00675775
0.00147877
0.00279982
0.00145406
0.0014415
-0.00184969
-0.00669957
1.88921e-05
0.0078569
-0.00518922
0.00345318
-0.00064657
-1.12108e-05
0.00100999
0.00683857
-0.0110571
-0.00140886
-0.00137625
-0.00434914
-0.00707417
-0.000765702
0.00183873
-0.000461725
-0.00229316
0.0127998
0.00294604
-0.00103699
0.00378469
-0.00620169
-0.000303678
-0.00937711
0.00164303
0.00339186
-0.000841664
0.00124978
0.00394963
0.000940478
0.00521862
-0.00514507
-0.00355773
-0.0034594
-0.00158669
0.00055176
-0.0024842
0.00486838
0.00248107
-0.00214927
-0.00150924
0.00611887
0.00352492
-0.00114159
-0.00664664
-0.00455316
-0.000707175
-9.88123e-05
0.0212642
-0.00381969
-0.00415658
0.00261984
-0.0137527
0.00506581
0.00424531
-0.000266852
0.00513274
-0.00103078
0.00392898
0.0163897
0.00594155
-0.0165827
0.000653181
0.00042468
-0.00226775
0.00592702
-0.000942609
-0.00199634
-0.00729419
-0.00847936
-0.00340553
0.00524924
-0.00148857
-0.00022099
-0.000606356
0.00773619
0.00277841
0.00181426
0.00148011
-0.00142306
-0.00650894
-0.00598372
-0.00441405
-0.0171626
-0.00150955
0.000302644
0.0039961
-0.00516635
-0.00358845
-0.00478946
-0.00446933
-0.0208065
0.0113799
-0.000886574
0.00509329
0.000614915
0.00345597
-0.00230127
-0.00187896
0.00881842
0.00703709
0.000104615
-0.0178637
-0.00481943
-0.0046444
0.00331629
0.00216899
-0.00199807
0.0100694
0.000963969
-1.17045e-05
-0.00461431
0.0167152
0.0045954
-0.0068575
-0.0139619
-0.00221338
-0.00949281
-0.00339996
-0.00339645
-0.00298498
-0.0039803
0.00511966
0.00521852
0.00173595
0.000628113
-0.00233619
0.00795124
-0.00625275
0.00400327
0.00313925
0.00198326
0.001062
-0.002326
0.00234394
-0.00540731
-0.00306097
0.0109967
-0.0235612
0.00135565
-0.00153408
0.0052266
0.0144319
0.00376716
0.00677076
-0.00226912
-0.000407737
0.00287258
0.00962927
0.00301308
-0.00103516
0.00478963
-0.00311144
-0.0174233
-0.00528379
-0.0045943
-0.00543342
-0.0211265
-0.00621955
0.00944226
-0.00130413
-0.000606257
0.00528413
-0.000818752
0.00483425
-0.00691247
0.00629666
-0.00128292
-0.000834799
-0.00755963
-0.00691296
-0.00674478
-0.000937922
0.00519139
-0.00385122
0.00660065
-0.00522892
-0.00247425
-0.00452264
-0.00775042
0.00252079
0.0104463
0.00854544
-0.00441372
-0.0128684
0.00901771
0.00850919
0.00139876
0.0119581
-0.00364135
-1.41495e-05
-0.00168848
0.000290573
0.00146065
-0.0056783
-0.00116655
-0.00743026
0.00432717
-0.00279996
0.00221272
-0.00380086
0.000940256
-0.00031386
0.00182542
-0.00728603
-0.00173076
-0.00895305
0.00367377
0.007171
0.00485105
-0.00309082
0.00523594
0.00448718
0.000352683
0.00162705
-0.00045738
-0.00756671
9.94796e-06
0.00607469
-0.00482454
0.0016069
0.000679922
-0.00290687
0.00820458
-0.00438116
-0.000188672
0.00640368
-0.00459328
0.00356989
-0.00281408
-0.000932701
0.00303907
0.0168599
-0.00348813
-0.00225336
0.000735794
0.0047387
0.00154166
-0.0184173
-0.00550145
-0.000817972
-0.00360496
-0.00564853
0.00186222
-0.00219151
0.000792069
0.00655455
0.0043717
-0.00594688
-0.00954412
0.00348536
0.00960828
0.00223331
0.00332054
-0.00150276
0.00217363
0.00283849
-0.00639745
0.00166219
-0.00396258
0.00574193
-0.00621526
0.00320847
0.00610129
0.00390795
-0.00983533
0.000386456
0.00566384
-0.000356014
-0.00053695
0.00384246
0.00259451
-0.00531611
-0.00338452
0.000118479
-0.00903832
-0.00464141
0.000148688
-0.000155809
0.00105726
-0.000244701
-0.000969913
-7.70725e-05
0.00396812
-0.00182781
-0.00311473
0.00693127
-0.00155997
0.00396615
0.0041083
0.00413419
0.00111448
-0.000142442
0.00380157
-0.00658964
-0.00244907
-0.00349516
0.0064667
-0.0156761
0.00714817
-0.00350039
-0.00288305
-0.00133153
-0.000390454
0.0016653
-0.00515931
0.000759618
-0.00267963
-0.00596787
-0.00216308
0.00506691
0.00205718
0.0032071
-0.00487032
-0.00786721
0.00674665
0.003585
-0.000550433
0.0102571
0.00285793
-0.00630645
0.00164
0.00966989
0.00141572
-0.00661737
-0.00428209
-0.00280161
-0.00523623
0.00123177
-0.00509391
-0.00104978
0.00572987
-0.00389328
-0.0075696
-0.0045755
0.0083672
-0.00610236
0.00348155
0.00305922
0.00783408
-0.0100899
0.00161074
-0.00266177
0.00149666
-0.00132868
0.0113871
0.00698732
0.000377213
-0.00323383
0.0038926
0.00134052
0.00316405
-0.000200862
-0.00810547
-0.000987774
-0.000145256
0.00421813
-0.00321312
-0.0043314
0.00210314
-0.00199207
-0.00631319
-0.0152638
-0.0184553
-0.000893022
0.000261125
-0.00259448
0.0030591
-0.0143139
-0.00105391
-0.00945907
0.000627391
-0.00332601
0.00253261
-0.0108608
-0.00639604
0.00377729
0.00370833
0.0126267
0.00661395
0.00482254
0.000847872
-0.00712017
0.000465102
-0.00554464
0.000551044
-0.00187103
9.41467e-05
0.00473475
-0.00137068
-4.1476e-05
-0.00534675
-0.00293849
0.0034082
0.00271468
0.00159742
-0.00680475
0.000186404
-0.000379777
0.00318066
-0.00173807
-0.00544273
0.000252405
0.00199141
-0.000602776
-0.000747748
-0.00226118
-0.00328139
0.00606811
-0.00482624
0.00417549
-0.00224994
0.00421849
-0.00152939
0.0051057
-0.0021855
-0.00437579
0.00401801
-0.00574824
5.56762e-05
0.00693271
0.00720524
-0.00142187
0.00285692
-0.00116109
-0.0078009
0.00350027
0.0117121
-0.00219782
0.00133734
0.00175979
0.000321694
0.00282775
0.000514512
-0.00120204
-0.00493796
-0.00740339
0.00300537
-0.000178405
0.00507782
0.0151843
-0.0101255
-0.0010252
-0.0029639
0.0023404
-0.00703655
-0.00151795
0.00287989
0.00691391
0.00793418
-9.91267e-05
-0.000736096
-0.0126435
0.00812606
-0.00610238
-0.00800034
-0.00456541
-0.00122721
0.0141038
-0.00458993
-0.000181139
-0.0109598
-0.000475172
0.003662
-0.00822793
-0.00901166
0.000894767
-0.00353743
-0.00703386
0.00311529
-0.00626906
-0.000241698
0.0017489
-0.00106784
-0.000298007
0.000564968
0.00163789
0.00435236
-0.00694927
0.00478674
0.000255025
0.00734819
-0.00243124
-0.0014905
-0.00634908
-0.00452489
0.00454104
0.000695074
0.000665211
0.00361637
0.00160041
-0.000876937
0.00186125
-0.00715599
-0.0113232
-0.0040547
-0.00591863
-0.00147591
-0.00208998
0.00123012
-0.00375487
-0.00209303
-0.00207365
-0.000262987
0.00231147
-0.000434577
-0.00879566
-0.0128972
-0.0126947
0.00337981
0.0104729
-0.00430933
0.00335805
0.00482314
-0.00830327
-0.0062447
-0.00521236
-0.00185888
-0.0116143
-0.00195521
-0.00111674
0.00121028
0.00429937
0.0122582
-0.00339921
0.00158296
-0.00622859
-0.00889801
0.00204659
0.00286025
-0.00593569
-0.00172154
-0.00368703
-0.00146454
0.000739988
-0.00228508
-0.00432603
0.00847523
-0.000435185
-0.0131222
0.00115458
-0.0093017
0.000774295
-0.00908851
0.00110852
-0.00136807
0.000280418
-0.001798
0.0115376
-0.000289616
-0.0012849
0.00309765
-0.000238104
0.00231787
-0.00703861
0.00111105
0.00155196
-0.000198963
0.000329581
0.00566746
-0.00292951
0.00114581
0.000430583
-0.00195394
-0.000583882
-0.0062065
0.00113877
0.00219386
-0.000826589
-0.00558283
0.00811451
0.00136584
0.00262375
-0.00153671
-0.00371646
-0.000796559
0.00175897
0.000352184
0.000829662
-0.00170436
0.00630444
-0.00846674
-0.00033285
-0.00393293
0.00239523
-7.01705e-05
-0.00153398
0.0119513
-0.00559141
-0.000281521
0.00855676
0.0117979
0.000929592
0.00292408
0.00851603
0.00557964
-0.00428194
0.000132544
0.00178673
-0.0104744
-0.00156225
-0.00579288
-0.0208313
-0.0105033
-0.0048846
0.00379793
-0.00588085
-0.000683163
-0.00210284
-0.000276644
0.00227609
0.00425911
0.00397171
0.00273479
-0.000505597
0.000780901
0.00487364
0.0054179
0.00560759
9.01735e-05
0.000302695
0.00235111
0.0103713
0.00429277
0.000647542
0.00958447
0.00168017
-0.00382261
-0.00349499
0.00400367
-0.00458948
-0.000579028
0.00216189
-0.00252138
-0.00887252
0.00152085
0.00434005
0.00236413
0.00131371
0.00437548
-0.00159702
0.000104505
-0.000851264
0.00126713
0.0013982
-0.000164818
0.00895231
-0.0138938
-0.00427112
-0.00560859
-0.00576446
0.000581141
0.00150798
-0.00267429
0.00092366
0.0071133
0.00723697
-0.0061809
0.000524246
-0.00127524
-0.00180131
-0.00305852
-0.00535662
0.00120244
-0.00109914
-0.000806887
0.000713623
-0.0104039
-0.000241331
-0.00415231
0.000329931
-0.00327949
0.00127359
-0.00988152
-0.00323489
-0.00253375
-0.00185781
0.00253044
0.00145039
-0.00240217
0.000571002
0.00169964
-0.000881874
-0.00340995
0.00469973
0.00359408
-0.00589818
-0.00198044
0.00930753
0.000325744
-0.00395495
0.00131558
-0.000497251
-0.00239427
-0.00294676
-0.00103131
0.00227414
-0.00331824
-0.00310804
0.00306482
0.00474366
0.000163849
-0.00128838
0.00325428
0.00101255
-8.6438e-05
-0.00259447
0.0128108
-0.00188577
0.00134791
-0.000436996
-0.00089363
-0.0013457
0.000958717
-0.00269581
-0.00234118
0.0013362
-0.000375093
-0.000639658
-0.00563526
-0.0104408
-0.00376074
0.00233405
-0.00236215
-0.00103669
0.00708637
-0.00938756
0.0032617
0.00221029
-0.0019688
-0.00403152
0.0150786
0.00976766
0.00448823
-0.00529578
-0.0058919
0.0155924
0.00273708
0.00557876
0.00487983
-0.00694744
0.0010253
-0.00659839
-0.00782131
0.000636171
-0.00352417
-0.0064123
-0.00957152
0.00114881
0.00280257
-0.00908219
-0.0019006
0.00058892
0.00517083
-0.00171531
-0.00853261
0.00599424
-0.00152142
-0.00881169
-0.00480184
0.00119857
-0.000732633
-0.000998208
-0.00546443
-0.0050098
0.00198771
-0.00247486
-0.00526406
-0.00635961
-0.00338097
6.72884e-05
0.00506283
0.00636505
0.00118638
-0.000183565
0.00398167
0.000927232
0.00106862
-0.000671759
0.000800716
-0.00100043
-0.00166593
-0.000480654
-0.00433929
0.0192042
-0.0139748
0.00328962
0.00362942
0.00122102
-0.00448657
-0.0031391
0.0030297
0.00675255
0.00731379
-0.00854826
-0.00416406
-8.01818e-06
-0.00181708
-0.00148895
-0.00925543
-0.00841426
-0.00489629
0.00651811
