0.00929899
-0.00208491
-0.000758389
-0.00171873
0.00736238
-0.00312293
0.00619761
0.00144162
-0.0065977
-0.000543525
-0.00207482
-0.000162007
-0.00440012
-0.00141727
-0.00557996
0.00113167
0.00382393
0.00161758
0.00906666
-0.0023829
0.0150925
-0.000123377
-0.00225865
0.000185147
-0.00496236
0.0046775
-0.00107915
-0.00274793
0.00388846
-0.00474746
-0.00129942
-0.00535014
0.00159456
-0.00498661
0.000210626
0.000797484
-0.00113652
-0.00577857
0.0135099
0.00104774
0.00217088
-0.00557474
-0.00246738
0.00572742
-0.00578035
0.000494084
-0.00192456
0.0024425
-0.00266134
0.00324302
-0.000770718
0.00190849
0.00621146
0.00489476
0.000160787
-0.00672212
-0.00922841
0.00228793
-0.00612685
0.00169971
0.00276616
-0.00105667
-0.000177147
-0.0067613
-0.00291937
0.000326113
0.00191055
0.00379085
-0.0116836
-0.00960666
-0.00471455
0.00492413
-0.00514982
-0.00512449
0.00595065
-0.0120136
0.00456242
-0.00339764
-0.000877116
0.00313242
0.000490755
0.00158407
-0.00308155
0.00259424
0.000383074
0.000826068
-0.003433
0.00621708
0.00538147
0.00067032
0.00113383
-0.00152633
0.000336996
-0.00496209
6.85131e-05
-0.0104015
-0.00588743
-0.00036196
0.000476159
-0.000521463
-0.00706638
0.000563434
-0.00623433
0.00221457
-0.00299949
-0.00214387
0.00361101
-0.00644312
0.00695247
-0.00239629
-0.00947064
-0.00582135
-0.00553075
0.00105193
0.000944116
0.00306031
0.00241335
-0.00177788
-0.000472081
-0.00300544
-0.00229943
0.0017235
-0.00234069
0.00197614
0.00411558
0.000165346
-0.00225343
0.000591905
0.00286408
0.0013128
-0.0115813
0.00275913
-0.00326257
0.000476833
-1.41434e-05
0.00213937
-0.00424765
-0.00388133
-0.0030401
-0.0020273
0.00200124
-0.00221669
0.00202896
-0.00385575
0.00157565
-0.00107644
0.00121254
-0.00985109
0.000855677
0.0022856
-0.00735526
0.00922703
0.00129383
-0.00410541
-0.0100788
0.00643209
-0.0020714
0.000709419
0.00240025
-0.00471998
-0.00269478
-0.00335755
0.00117578
-0.00787286
0.00367386
-0.00314032
0.00530981
-0.0163905
-0.000778711
-0.0127549
-0.00246542
-0.000187516
-0.00232908
0.000900838
-0.00492737
0.00129296
-0.00499924
0.000225687
0.00271408
0.000475752
-0.00193441
-0.000190232
0.00201923
-0.00840368
-0.000875495
-0.000786068
-0.00287256
0.00356492
-0.00653251
-0.00100788
0.00220126
-0.000138811
0.00116139
0.00128357
-0.00582469
-0.0149708
-0.00928759
-0.00686879
0.000772738
-0.00187327
0.00376452
0.0077984
0.00486307
0.00130139
-0.00774493
0.0100023
-0.00315716
-0.000970612
-0.00384675
-0.00268723
-0.00094785
-0.00183327
-0.00177387
-0.000481948
-0.00401569
0.00115766
0.00518192
-0.00743198
0.0012514
0.00179215
-0.00784387
-0.00125
0.00108942
0.00494683
-0.0038406
0.0107463
0.00402576
0.000554709
-0.00446305
-0.0088322
-0.000788663
0.00333109
0.00312681
-0.000580111
-0.00421288
0.00475239
0.00230237
-0.00144038
-0.000726723
0.000926199
0.00288782
0.00316547
0.00134152
0.0020918
0.0053914
0.00189302
-0.00309452
0.00465919
0.000670674
0.000579602
0.00218559
0.00486751
0.00152459
0.00114196
-4.37814e-05
-0.00234031
-0.000900921
0.000503344
0.00128428
-0.00054676
0.00566276
-0.00145619
-0.00303764
-0.00117797
-0.00405928
0.00908528
-0.00649204
-0.00388226
-0.00070725
0.00258711
-0.00281557
0.00458549
0.00317236
-0.00584198
-0.00274259
-0.000369504
0.00220338
0.00147496
-0.00053046
-0.00211579
0.00322839
0.00325074
-0.0014527
-0.0015479
-0.00329869
-0.00828156
-0.00776325
-0.0018892
-0.00126567
0.00692902
0.0080444
-0.00417308
0.00231276
-0.00312812
0.0033042
0.0014795
-0.0060609
-0.00188757
-0.0042924
0.00108257
0.00230529
0.00619634
-0.00235892
0.00544546
-0.00216627
-0.000505987
0.00909688
-0.00152596
-0.00512142
0.00661071
-0.00355351
0.00237222
-0.0105523
-0.00613491
-0.0088479
0.0038654
-0.0105472
-0.0149759
-0.00565276
-0.0044691
0.0019047
-0.000623174
0.00370643
0.00222206
-0.00396524
-0.00383399
-0.00411218
-0.00820727
-0.0012182
0.00426721
0.00930444
-0.00737349
-0.00161602
-0.00348493
-0.00590689
0.00765593
0.000357316
-0.00333983
-0.00537327
-0.00578982
-0.00353538
-0.00249892
-0.00787211
-0.00283284
-0.00563892
0.00485086
-0.00644777
-0.00517652
0.000437217
0.00458865
-0.00217972
0.00661004
-0.000612735
-0.0023777
-0.00351336
0.0122895
-0.00377158
-0.00330452
-0.003133
-0.00176056
-0.00828083
-0.00921857
-0.000610121
-0.00345487
0.010742
-0.00599843
-0.00429615
-0.00393294
0.00121025
-0.00827852
0.000878039
-0.00200379
-0.00146677
-0.00408706
-0.00793455
-0.00133131
-0.0159662
-0.0108459
-0.00115492
-0.00880818
-0.00440913
-0.000141194
-0.000280326
0.00561618
-0.00517478
-0.00385618
-0.0031631
-0.00359656
0.0077581
-0.000838442
-0.00202412
-0.00119572
0.00224072
0.000770073
0.0025137
0.000567865
-0.0008443
-0.00452006
0.000895017
0.00502764
-0.006707
-0.00237431
-0.0013495
0.00437494
0.00197709
-0.00321442
0.00897854
-0.00124905
-0.00391148
-0.00613895
0.0023488
5.45907e-05
0.00641456
0.00563258
-0.0067924
-0.00594905
-0.000950274
-0.000846515
0.00248394
0.00263723
-0.0049974
-0.00566256
-0.00249608
-0.00864069
-0.000267029
0.00724493
-0.00396348
0.00608679
-0.0128502
-0.00397163
0.00425112
-0.00078974
0.001265
-0.00304662
-0.00705333
0.00437643
-0.00209187
0.00536165
0.00376489
-0.00567024
-0.00670623
-0.00606888
0.00738827
-0.0032473
0.000828155
0.00533355
-0.00198689
-0.00208386
0.00629466
0.00705606
-0.000810395
0.00147799
-0.00505458
-0.000712629
-0.0047261
-0.00508668
-0.00241334
-0.00290672
0.00927885
0.00883377
0.00589839
0.0029298
-0.0130702
0.00642831
0.00118841
-0.00517256
0.00236742
-0.00233121
0.00137879
0.00140237
0.00107042
-0.000111378
-0.0079273
-0.00665887
0.00331361
0.00717444
0.00433292
-0.00112932
-0.00364917
0.000135323
0.0116634
-0.00735218
0.00161361
-0.00272639
-0.00420841
-0.000969168
0.000339517
0.003015
0.00691844
0.00705893
0.00418656
-0.00398152
-0.000910506
-0.00439004
-0.00090749
-0.00219043
-0.00167856
0.00205332
-0.00211047
0.00418137
-0.000326464
0.00656211
0.00516728
-0.00225118
-0.00147563
0.00976052
0.00364242
0.00167843
-0.000124989
0.000433289
-0.00195365
-0.000112902
-0.00766205
0.000217284
-0.00454769
-0.00290904
-0.00722562
-0.00586045
-1.85296e-05
-0.00539875
-0.00291269
-0.00329482
-0.00133424
-0.00675969
0.0104792
0.00149794
0.00013463
-0.000772807
-0.00340026
-0.0135705
0.00686688
0.000898364
-0.00124455
0.00894173
-0.00200169
-0.00488383
-0.0101586
0.000537483
-0.010193
-0.000467614
-0.00483865
-0.00514146
-0.00699955
0.00218565
-0.00058715
-0.00254557
0.00192532
-0.000485114
-0.000755581
0.0110906
-0.0052138
-0.000837204
-0.00366407
0.00157027
-0.00232253
0.00123524
0.000235953
-0.00108315
-0.0124456
6.23552e-05
0.00435754
-0.00261219
-0.00102731
0.0097827
-0.000839665
0.00496593
-0.00885636
0.00390029
-0.00333494
0.000243623
0.00439115
-0.00225544
-0.00286663
-0.00889212
-0.00578941
0.00334502
-0.00503744
-0.00691543
0.00356982
0.00211662
0.00181579
0.00625126
-0.00424681
0.000891062
0.00135441
-0.00697209
0.00481653
0.00926999
-0.00645937
-0.00577464
-0.00524787
-7.89859e-05
-0.00187236
0.00227861
0.00161236
-0.00414216
-0.00064771
-0.00225352
0.0107096
-0.00436562
0.00401113
-0.0031963
0.00444512
-0.00302957
-0.00385901
-0.00159431
0.001275
0.00609114
-0.00295649
-0.000100441
-0.00102105
-0.00753263
0.00620929
-0.000942329
-0.00177264
5.86599e-05
0.00289724
0.0089082
0.00351644
-0.00888311
-0.0156113
0.00610467
-0.00962472
-0.00383489
0.000990978
0.00905698
-0.00238829
0.00292992
0.00586249
-0.00291821
0.000505202
-0.00564763
0.00188627
0.000475821
-0.000593689
-0.00238675
-0.00728959
-0.00365506
-0.00425162
0.00387431
-0.0119883
0.00222561
0.000569764
-0.00447605
0.00491098
0.00334811
0.0117856
0.00464481
0.00995209
0.00153679
0.00346049
-0.00271149
0.000292623
0.00359501
-0.0104112
0.00137876
-0.00569909
-0.00380153
0.00259334
0.00622424
-0.000926027
0.00221815
0.00097826
0.000599174
-0.00374847
-0.0037146
0.00189293
-0.00428875
-0.0101601
0.00482293
0.00212762
0.00177292
-0.000936907
0.00922808
0.002753
0.00495163
0.000900373
-0.00634541
0.00199983
-0.000456298
-0.00287552
0.00190743
-0.000124896
-0.00120766
0.00472123
-0.00295289
1.8782e-05
0.00676473
-0.00236519
0.0041198
0.00326595
-0.0069063
0.000738106
0.000774876
-0.00351796
-0.00300149
-0.00310236
-0.00166634
-0.00162831
-0.00610068
-0.000622524
0.00232706
-0.00602904
0.00404939
-0.00325498
-0.00672638
0.00345219
-0.0114053
-0.00216844
-0.00447834
0.0120251
0.0014465
0.00892059
-0.00648159
-0.00767662
0.00197097
-0.00970082
-0.000675717
0.00333221
0.0100159
0.0047014
-0.00331456
-0.00365006
-0.00285325
0.0027813
-0.00606542
-0.0038609
0.00529173
-0.00502106
-0.00889828
-0.00821893
-0.0132108
0.00199705
0.00366375
0.00325207
-0.00148459
0.0157134
-0.00762351
-0.00448627
-0.00252468
-0.00183806
-0.00190076
0.00280871
0.00372307
-0.00201633
-0.000999109
0.00449231
0.00132927
-0.00302209
-0.00311964
0.00652458
0.00572502
-0.00503551
-0.0103502
-0.00367503
-0.00255659
0.000164459
-0.00762424
0.00165524
0.0101069
0.00449864
-0.00365995
0.0013484
0.00180103
-0.00481076
-0.00254039
-0.000700788
0.0046711
-0.000408342
0.000709153
0.00191717
-0.000458263
-0.000552424
-0.00417695
0.00649396
0.00620077
-0.00055427
0.00128061
0.00447702
0.000893117
-0.00219191
0.000931999
-0.00792401
-0.00157359
0.0099598
-0.0019183
-0.00151257
0.00559069
0.0058092
0.000268465
-0.00657216
-0.0021493
-0.00998656
-0.00374105
0.0154191
0.00768339
0.0132796
-0.00303252
-0.00589631
-0.00432838
0.00202345
0.00433431
0.00447726
0.015319
-0.00768792
-0.00501746
-0.00717535
-0.00452964
0.00590341
-0.000245274
-0.00474192
0.00202461
-0.00190619
0.00273647
0.00462254
-0.000501806
0.00326256
0.0046278
-0.00297482
-0.00561955
0.00110591
0.00902121
0.00334652
0.0017266
-0.00010009
-0.00339213
5.39145e-05
0.00774831
0.01054
0.0151511
0.0134235
0.00139044
-2.60047e-05
0.00274147
0.00527958
0.000683724
0.00443304
-0.000896037
-0.0178756
-0.000501371
0.00407964
-0.0042955
-0.00352634
0.00900056
0.00398099
0.00456553
-0.00252458
-0.00950009
0.0040356
-0.0153759
-0.00016432
0.00267671
-0.00530259
0.00215359
0.0028413
-0.00614939
0.00191248
-0.0128406
-0.00864308
-0.00264421
-0.0029223
-0.00304207
0.00292733
0.00203286
0.00203698
-0.00168587
-0.000980479
-0.00333708
0.00251762
-0.00875161
-0.00488822
0.0182082
-0.00208418
-0.00292603
-0.0136521
-0.0042655
-0.00463219
-0.00055014
-0.00612948
0.00496674
0.00260205
-0.00015895
-0.00457914
0.00866062
-0.00293538
-0.00237749
0.000100188
-0.0035025
0.00199789
0.000304546
0.0104271
0.00712594
0.00500159
0.00358268
0.0106497
9.76243e-05
-0.00145456
0.00860525
0.0130986
-0.00337727
-0.00498621
0.00166556
0.013359
-0.000190086
0.000334128
-0.00504886
-0.00342327
0.00012275
0.00393781
-0.00170809
-0.00255969
0.0133268
-0.00108888
0.00703802
-0.00251268
-6.81502e-05
-0.00678809
0.00396789
-0.000294799
-0.00238998
-0.00455805
0.00123347
0.00113681
-0.00168504
8.91075e-05
0.00253981
0.000433335
0.00100192
-0.00251345
0.0121158
-0.00928659
0.0101569
0.0025747
-0.011244
0.00257142
-0.00843392
-0.00276249
0.00887444
-0.00521899
0.00306164
-0.00500857
-0.00132684
-9.30687e-05
-0.00373536
-0.00187784
0.000663357
-0.00376098
-0.001859
-0.00164901
-0.00140493
0.00183425
0.0117296
-0.0045447
-0.00477419
-0.00496393
-0.00536091
0.00458093
-0.00119142
0.00181403
-0.00238858
-0.00110781
-0.00297746
0.00586593
-0.010318
-0.000263194
0.00598069
9.11946e-05
-0.00660152
0.00401467
0.00468762
-0.000214267
0.00125458
-0.00271104
0.00205346
0.000852393
0.0121582
-0.000302599
-0.000377432
0.00148252
-0.00747494
0.00046691
-0.00201891
-0.00019703
0.00439372
0.00346066
0.00247728
-0.000501399
0.00892839
0.00204408
-0.000116683
0.000480592
-0.000620716
-0.000915033
-0.00269254
0.00500762
-0.00128124
-0.00197335
0.00513746
0.0020819
0.00638439
-0.00195214
0.000968399
0.00342456
0.0044608
-0.000425444
-0.0023298
0.00136226
-0.00813854
-0.00602772
-0.00148373
-0.000614843
-0.00144178
-0.00239853
-0.00140954
0.00347479
0.00177039
-0.00454532
0.000531578
0.00534357
0.000547262
0.000646116
0.00304856
-0.00345488
3.44493e-05
0.00286974
0.00464328
0.0036001
0.000737701
0.012209
0.00621561
0.00118005
0.000259142
-0.00310165
0.00420484
-0.0059675
5.17676e-05
0.00493374
-0.00406253
0.00165397
0.0035705
-0.00372602
0.0107198
0.000869373
-0.00187423
0.00136258
0.00263228
-0.00220919
0.00377979
-0.000801191
-0.00189323
0.0027323
0.00698993
0.00166925
-0.00103766
-0.00554174
0.00332184
-0.00352993
0.00886602
-0.00419614
-0.00484476
0.00206831
-0.00360882
-0.00279347
0.00303766
-0.00426719
-0.00387965
-0.00850629
-0.00309834
0.00294093
-0.000662535
0.00529984
0.000189574
-0.00351786
0.00484503
0.00381334
-0.003165
0.000857243
-0.00161055
0.00254375
0.00128247
0.00161907
0.00512424
-0.00245602
-0.0020455
-0.00535231
-0.0168454
-0.000211748
-0.0108696
0.00227943
-0.00112007
0.000775647
0.00317735
-0.00226735
-0.000288138
0.00451502
-0.00307408
0.00151112
0.000366752
-0.00551336
-0.000235857
0.00652697
0.0114776
-0.00019185
-0.00559117
-0.00111261
-0.00868184
0.00780959
0.000889284
0.00202782
-0.00483075
-0.00385455
-0.000511393
0.00739061
-0.000322883
-0.00254765
-0.00234434
-0.00204776
-0.00300568
-0.00386017
0.00784329
-0.00233815
0.001224
-0.00611831
-0.00159294
-0.00796005
0.00251428
-6.79663e-05
0.000160674
0.00534533
-0.00110707
0.000398094
0.00830684
0.00307824
-0.00334363
0.00172189
0.000679453
0.0012106
-0.0084923
0.00157681
0.00120303
0.000865902
-0.00113999
-0.00232425
0.00504205
-0.000724998
-0.00121742
-0.00491114
0.000745761
-0.00128979
0.0058883
0.00438402
-0.00367453
0.00129085
-0.000719232
0.00205896
-0.00345197
0.000303947
-0.00169991
0.00615097
0.00143631
0.00543099
0.00371988
0.00214308
0.000599388
0.000104483
-0.00230539
0.00446375
-0.0012406
-0.00107973
0.00536613
0.00565842
0.00607726
-0.00181083
-0.00048848
0.00784469
-0.00946872
-0.0053634
-0.00697436
-0.00623427
0.00448473
0.00412611
0.00849064
-0.00312937
-0.000617016
0.00295156
-0.00194828
0.00430266
0.0026257
-0.00521678
0.000953705
-0.0022219
-0.00590387
-0.0125526
0.0101091
5.17128e-05
0.000681666
-0.0139153
0.00528826
0.0012361
0.00804316
0.000507345
-0.00761063
-0.00205736
-0.000388687
-0.000213802
-0.000222772
-0.00240782
-0.000990335
-0.00163078
0.00281158
-0.00295824
-0.00385
0.00401786
0.00233187
-0.00166778
-0.00320259
0.00335236
0.0033394
-0.00173384
-0.000487275
0.00223842
0.00468828
-0.000523585
0.00345369
-0.0101563
-0.00393364
-0.00292798
0.00263293
-0.00154192
-0.00155513
-0.00032111
0.00572752
-0.00198987
-0.00503121
0.00129482
-0.00211267
-0.0028877
0.00507179
0.00136304
-0.00467732
-0.00296722
0.00018449
-0.000158639
0.000404754
0.00286892
0.00240294
0.00178451
0.00361676
0.00737416
0.000613102
-0.00458374
-0.00260835
0.000354205
-0.00432411
-0.00266013
0.000116588
0.00110531
-0.00264956
-0.00115442
-0.00307793
-0.00098178
-0.00373946
-0.000239412
-0.00617584
-0.0010689
-0.00449862
0.00752475
-0.00181415
-0.0039821
-0.00103105
0.00375137
0.00188527
-9.71594e-05
-0.000145829
-0.00295027
-0.00690483
-0.00071437
-0.00853081
-0.0030236
0.0001325
-0.000775575
-0.0011497
0.00117586
-0.000585835
-0.0089743
0.00337504
-0.000893266
0.0019155
0.00102395
0.0010644
0.00514707
-0.00329137
-0.00379294
-0.00884105
-0.0015801
0.00215623
0.00190625
-0.00157358
0.00209315
-0.0062865
0.00294891
0.00176031
0.00306088
-0.00111969
-0.00367517
0.00893197
-0.00249206
0.00306115
0.00175551
-0.00679261
0.00110488
-0.00257254
0.00153034
0.00781731
-0.00540558
-0.00246041
-0.00309048
-0.0044256
-0.00400856
-0.00163126
0.000207873
-0.00143388
-0.00405691
-0.00405643
0.0111794
-0.0057037
-0.00223628
-0.00109542
-0.00334218
0.00537596
-0.00117011
0.00134803
-0.00173356
-0.00100513
0.00181069
-0.00413569
-0.00184872
0.00329676
0.00322664
-0.00688779
0.00406538
0.00223695
0.000258459
0.00123758
0.0011317
-0.0037424
0.00332282
0.000560549
-0.00542189
-0.00176817
0.00387705
-0.00352763
-0.00653378
-0.00242888
-0.000163922
0.00503435
-0.00221713
-0.00297906
-0.00516919
0.0066583
-0.00407164
0.00365523
0.00186262
0.00405322
-0.011322
0.0016775
0.00431601
0.00266729
0.00157639
-0.000409004
-0.00168795
-0.0056003
-0.000674192
-0.0077764
0.000976952
0.000272901
-0.000844242
0.000696196
0.00604652
0.000835842
2.45994e-05
0.00161879
-0.00216105
0.00369503
0.000169507
-0.000324583
0.00462907
0.00720938
-0.00768658
-0.00062792
0.00138548
-0.000724149
-0.00341586
0.000286609
-0.00626623
-0.00929078
0.00213275
0.00106852
-0.00674427
-0.000636545
-0.00419146
-0.00541473
-0.000631296
0.000226138
-0.00361334
0.00117045
-0.00221408
0.000324588
-0.0045132
0.00269784
-0.00427221
-7.28042e-05
0.00164233
0.00179377
-0.00382961
-0.00150805
-0.000718967
-0.00270232
-0.00667471
-0.00459754
-0.00215812
-0.00334337
-0.00292455
-0.00204417
-0.00176451
0.00119401
-0.00155531
-0.00161346
-0.00324421
0.000323745
-0.00194435
-0.00379843
-0.0010269
0.0015505
0.00368149
-0.00229211
0.00734915
0.00406705
0.00423852
0.00417251
7.58794e-05
0.00200208
-0.00574808
0.00258381
-0.00193406
0.000494075
0.00310553
-0.00602109
-0.00152897
0.0024568
-0.00300413
-0.00391995
-0.0024452
-0.00557086
0.000666544
-0.00331621
0.000849961
-0.000998972
0.00182502
0.00704841
0.00138869
-0.00542657
0.000970643
-0.000808791
-0.00608847
0.0021436
-4.94402e-05
-0.000527568
0.0134385
-0.000365389
-0.00845766
-0.00980995
0.00365328
-0.0045321
0.00337925
0.00600793
0.00491583
0.000248347
-0.00376874
0.0031426
0.000562639
0.00292547
-0.0011623
-0.00115501
-0.000778952
-0.00364912
-0.0027051
-0.0037677
-0.00466417
-0.00271432
-0.000410633
-0.00245466
0.000854565
-0.00082992
0.00220663
0.0015033
0.00640627
-0.00402608
0.00341421
-0.00152227
-0.00553819
-0.00417856
-0.00118604
-0.000533734
-0.00376491
-0.000306677
0.0069968
-0.00297458
0.00256316
0.00448781
3.87322e-06
-0.00351523
0.00221329
-2.55685e-05
-0.00345582
-0.00291662
-0.00222171
-0.00212815
-0.00148388
0.00354988
-0.00381748
-0.00170846
-0.000707478
-0.00385117
0.00110605
-0.00179796
-0.000122423
0.00211149
-0.00479658
-0.00242606
-0.000427539
-0.000731884
0.0028275
-0.00298937
-0.00510479
-0.00330758
0.00191864
-0.00688411
-0.00469594
0.00735029
0.0013036
-0.000228429
-0.00186203
-0.00294554
-0.00350075
0.0033935
-0.000770463
0.00796479
0.00270977
-0.0080229
-0.00229138
-0.00939261
-0.000153941
-0.00251841
-0.00702594
0.00680353
-0.00736054
0.00148326
0.000267218
0.000746531
-0.003126
0.00189646
0.00699407
-0.000795378
0.000184878
0.00438586
1.54009e-06
-0.00106998
-0.000233241
-0.00068189
0.00381198
-0.00209298
-0.000939959
0.00181677
0.00153523
-0.000810065
-0.00171382
0.00540929
0.00355252
-0.00033691
0.000149006
-0.00684171
0.00705796
0.00444253
0.00436347
-0.000927215
-0.000757856
0.00116634
0.000289254
0.00354316
-0.00721685
0.000320501
-0.00161585
0.00613908
-0.0150701
0.0134179
0.00428716
-0.0130825
-0.00081391
0.00011305
0.000804751
0.00295849
-0.000244359
-0.00371368
-0.000574237
0.00121604
-0.00198802
0.00244872
-0.000433816
0.00159186
0.00384224
-0.0011466
-0.000303275
-0.00200184
-0.00219128
0.00218222
-0.00440504
0.00183613
0.0013376
0.00484688
-0.0041533
-0.00196642
-0.0063349
-0.0029226
-8.14254e-05
-0.0096365
-0.00272768
-0.000383075
0.00555401
0.00268529
-0.00259047
-0.000897913
-0.00507606
0.0114237
-0.00153181
0.0063322
-0.0021494
3.62126e-05
-0.000463004
0.00530556
0.00403353
0.000348117
-0.00392455
-0.000248689
0.0042551
0.00030644
-1.14989e-06
0.00638551
-0.00540267
-0.00271941
0.00158895
0.00277943
0.00580452
-0.00281481
-0.000918795
-0.00314531
-0.00203816
-0.00044149
0.00729466
0.00272178
0.000734164
-0.00248247
-0.00578318
-0.00236442
-0.00351492
0.00129324
-0.00195335
0.00317722
0.00432887
-0.00216919
0.00543364
0.00295215
-0.000321583
-0.00252148
-0.00582123
-0.00493738
-4.32048e-05
-0.00207418
-0.000353327
-0.00460032
-0.00303892
0.00395974
0.000399274
0.000600538
-0.00309456
-0.00505234
-0.00459674
-0.00159668
-0.000306288
-0.000283751
-0.000654075
-0.0121611
-0.000262246
-0.00663965
0.00184468
-0.00271997
-0.00166379
-0.000393344
0.00403071
0.00601758
-0.00662289
-0.0027319
-0.00689977
0.00190476
-0.00319941
0.00734188
0.00239582
0.00269335
0.00269918
0.00138217
0.00285151
-0.000658175
-0.00103893
0.00325886
-0.000880414
0.00123427
-0.00621736
0.00780504
-0.0054786
0.00381255
-0.00363349
0.00241209
-0.00293394
-9.86825e-05
-0.00537397
0.000807354
-0.00151664
0.00258587
-0.00108158
0.0036487
-0.00179489
-0.00731117
0.000148087
-0.000111581
-0.00507807
-0.0032296
-0.00230628
-0.00496304
0.00602883
0.00232596
0.000100593
-0.000765206
-0.0057253
0.00500124
0.00599332
0.00245772
-0.00390742
0.000793531
-0.00661347
0.00182309
0.00318425
-0.00233826
0.00291636
0.00302907
-0.00155773
0.000598411
-0.00730648
-0.00241023
-0.000216242
0.000686054
-0.000334375
0.00400195
-0.00941882
0.00274091
0.00197834
0.00191682
0.0027945
0.000759696
0.00396435
0.00142394
0.000576387
-0.00212272
-0.000703808
0.00273013
0.00505084
0.000985982
0.0026368
-0.00314466
-0.000228975
0.0045994
-0.0041781
0.00178593
0.00159921
0.0139873
-0.00371815
0.00136527
-0.00111779
0.00151687
-0.00542803
-0.00658595
0.0022905
0.00390751
0.000499115
0.000227142
0.00746168
-0.00414525
0.0017213
-0.00202902
-0.00105298
-8.99323e-05
-6.51524e-05
-0.00110402
0.00551122
-0.0028903
0.00426928
-0.00165812
0.000150736
-0.00275243
-0.0115422
0.000374758
0.0101748
-0.00296791
-0.00321618
0.000502463
0.000422756
0.00120309
0.000225132
0.0019061
-0.0122985
-0.0025567
0.000638778
0.000760914
-0.00441789
0.00200705
-0.0055311
-0.000788464
-0.00256342
0.00183084
-0.00586483
0.00175273
-0.00224778
-0.00425562
-0.00210467
0.00191758
0.00103918
8.24818e-05
0.00802815
0.00261284
-0.00239978
-0.00381025
-0.00389087
0.00291804
0.00870661
-0.00141703
0.000761276
-0.00158163
0.00386461
0.000469452
-0.00142512
-0.00398673
-0.00183345
-0.000607066
-0.00907015
0.00389027
0.00379082
-0.00622677
0.00187378
-0.00384707
0.0036037
0.00100866
-0.00417476
-0.00387042
-0.00344458
0.000547975
-0.0079597
0.00376527
-0.00407559
-0.00259339
0.00108299
-0.00144523
0.00399563
0.00152504
-0.00128898
-0.000977794
0.00392017
-0.00236738
0.00128863
0.000145885
-0.000798114
-0.0033454
-0.0074837
-4.75439e-05
-0.00259576
-0.000309255
0.00297094
0.0058398
0.00873143
-0.00563283
0.00241145
0.000193391
0.00150841
-0.00219619
-0.00321949
-0.00417196
-0.000293858
0.00130283
-0.00264143
-0.000374188
-0.00243817
-0.00354372
-0.00785818
0.00388907
-0.00928829
-0.00188638
0.0016561
-0.00483215
0.00121126
0.0045517
-0.0146255
-0.0022517
-0.00353348
0.0015557
-0.000752371
-0.00252874
-0.00564032
0.00185914
-0.00396717
-0.00531779
-0.0137812
-0.000928629
-0.00879666
-0.00420336
0.00223564
0.00557258
-0.00315354
0.00141506
-0.00855793
-0.00504823
0.0068886
0.00323555
0.00079628
-0.0116885
-0.00354374
-0.00114089
-0.000321948
0.000541658
0.00167166
-0.00440694
-0.00206818
-0.00261285
9.67187e-05
-0.000172518
0.00345343
0.00142838
-0.00486683
0.00170238
0.00315952
-0.00433605
0.00659989
0.0169513
0.00431998
-0.00158352
-0.00658374
-0.00069152
0.00217653
-0.00340342
0.00399824
0.00436953
-0.000303229
-0.000546106
0.000233281
-0.00146317
0.000987239
2.05725e-05
-0.000361877
-0.00799238
-0.00118212
-0.00293205
-0.0043796
-0.00272688
0.000372475
0.00514898
0.0027274
0.00174843
-0.00771647
-0.00333319
-0.00356424
-6.43891e-05
-0.000486005
-0.00612632
-0.00674981
0.00599327
0.00103571
0.00119828
-0.00353851
-0.000905518
-0.00981359
-0.00151108
0.00166365
0.00447996
0.00131832
0.00229981
-0.00592948
-0.00164084
0.00375426
0.0125712
-0.00434298
0.00186046
0.00360734
-0.000118856
0.0151864
0.00178112
0.00391401
-0.00856004
-0.00696751
-0.000987358
-0.00241589
-0.00738466
-0.00436435
-0.000122
-0.0016626
-0.00896636
0.00534935
-0.00222111
0.000731211
-0.00555033
-0.00374365
-0.0094302
-0.00337352
-0.00557431
0.00413094
0.0132599
-0.00370822
-0.000360726
-0.00163633
0.00108695
-0.000748694
-0.00628142
0.00275773
0.000320925
-0.00476816
-0.00174956
0.000351162
-0.00294777
0.0140716
-0.00621234
-0.000459738
0.00483476
-0.00133788
-0.00318731
-0.00113233
0.000364513
0.00542233
-0.00361734
-0.00212467
0.00406694
-0.00596183
-0.00798498
-0.00602298
-0.0071944
-0.00805649
0.00267465
-0.00248002
-0.0054849
0.00202063
-0.000532887
0.00248684
-0.00481881
0.000152271
-0.000806933
0.000998583
0.000120414
-0.00310034
-0.0146268
0.00889633
0.000743292
-0.000538347
-0.00193695
-0.000538872
0.00129293
-0.000308979
-0.00481042
0.00158047
-0.00620631
-0.000319385
-0.00207513
0.00390452
-0.00099403
-0.00278394
0.00497601
0.00101713
0.00667666
-0.000767884
0.00226908
0.00673452
-0.00610018
0.00174697
-0.00104806
-0.00387874
-0.00232899
0.00557495
0.00127765
-0.00287219
-0.00251349
-0.00114998
0.00010106
-0.00345975
0.00371399
0.0003076
-0.000433912
0.00700722
0.00145306
-0.00340503
-0.00344317
0.00268696
0.00038131
-0.00272615
0.0024871
0.00149723
0.00120305
0.00536019
-0.000148953
0.00505848
0.00406131
0.00133628
0.00427877
0.00390764
-0.00763378
-0.00262498
-0.00602303
-0.00541969
-0.00580083
-0.00268383
-0.00535245
-0.00152446
-0.00553031
0.00176717
-0.00196094
0.00273312
-0.00565039
0.000700483
-0.0058677
0.00686011
0.00540825
-0.00150358
0.000226355
0.00277074
0.00190018
0.00377793
-0.00495545
-0.000444445
-0.00190843
0.00266815
-0.00977799
-0.00614094
0.00760288
0.0047714
0.00123055
0.000719777
-0.00111355
0.00116062
-0.00235655
-0.00673762
0.00242207
0.00583764
-0.00319326
-0.00407323
-0.00657114
0.0071027
8.02468e-05
0.00022399
0.0173469
-0.000356473
0.00514271
-0.00222212
-0.00551926
0.00144501
-0.00263725
-0.00283361
-0.00145836
-0.00319198
-0.00305838
-0.00735521
-0.00328139
0.00342384
-0.00165509
0.0046585
0.00231249
-0.00364883
0.0038236
0.00886928
-0.0076175
-0.00233074
0.00184016
0.00297901
-0.00198247
-0.00248631
-0.00277292
-0.0111191
0.00906336
0.00631445
-0.00489761
0.00593174
-0.0030175
0.0034095
-0.00341672
-0.00718371
-0.00787311
0.00876239
-0.0062756
-0.00456684
-0.00253618
-0.00300547
-0.00483027
-0.0034574
-0.00260889
-0.00333568
0.00102298
-0.00237687
0.0015771
-0.00553689
0.01085
0.000515297
0.001553
0.00429455
-0.00417292
0.000135451
-0.00231409
-0.000136974
-0.00150979
0.000556609
0.0031984
-0.000322616
-0.00717817
-0.00268422
0.00242497
-0.0109144
0.00841689
-0.00580661
-0.000882859
0.000171519
0.00613818
0.0053045
-0.0048187
0.00132482
-0.00187975
-0.00320801
-0.00548742
-0.00730672
0.00790709
0.000120803
-7.6506e-05
-0.00333487
0.00544294
0.0046761
0.0107366
-0.00263882
-0.00215866
0.000382936
-0.00521979
-0.000297609
-0.00275018
-0.00231522
-0.00574741
-0.00061121
0.00521433
0.00583708
0.00304575
-0.0162708
-0.00285106
0.000970716
0.00275813
-0.000140307
0.00254801
0.00167911
-0.00301946
0.00236922
-0.000196906
-0.0069032
-0.00639203
0.00091413
-0.00521919
0.00916612
-0.011538
-0.00367989
0.00387988
-0.00706457
-0.00578627
-0.000859873
-0.0025121
-0.00807096
-0.0018347
-0.00384273
0.00756342
-0.00218952
-0.00868958
0.000634237
-0.008102
-0.0172314
0.00223584
0.000498841
0.00120477
-0.000852177
0.000173361
-0.00319092
0.00234076
0.0003135
0.00232185
0.000801511
-0.00963924
0.00246215
-0.000355358
-0.00110279
-0.00509303
0.00263603
0.000761882
-0.00155355
-0.00108333
0.000501027
0.0150452
-0.00417709
0.00227778
-0.0111586
-0.000953904
0.000476641
-0.00421161
-0.00179551
0.00192126
-0.0131391
0.00637823
-0.00201379
-0.0094111
-0.00161781
-0.00196312
0.00878355
-0.00258691
0.00260504
-0.00536783
0.00255382
-0.00047112
0.00291722
0.0024738
-0.00191304
-0.00810227
0.0259855
-0.0218223
0.00494181
0.0025314
0.00674583
0.000358002
0.0042193
0.000243458
-0.00207453
-0.00127911
0.000450936
0.00286223
0.00423057
-0.00669481
0.00755436
-0.000330079
0.000441244
-0.00289687
0.00627793
-0.00389181
-0.00762268
-0.000735887
-0.000145198
-0.0035958
-0.00786236
-0.00425273
-0.00135964
-0.00149193
-0.00397365
0.00121737
-0.00455973
-0.00753959
-0.00291068
0.00264298
-0.00874101
0.00119618
0.00288687
-0.00258271
0.00701406
-0.00350798
-0.000630146
0.00673615
-0.00562002
0.000272008
0.00176826
0.00264586
-0.00195424
-0.00534094
0.000172536
0.00881459
-0.00970631
-0.00466669
0.00908774
-0.00399631
-0.00316139
0.000515625
0.00367056
-0.00188547
-0.000267653
0.00281019
0.000391273
-0.00203727
-0.00193682
0.00161472
0.00540044
0.0028505
-0.00553416
-0.00122579
-0.00201424
0.00343417
-0.00343167
-0.00184074
-0.000610092
-0.00417134
-0.00509469
0.000903383
0.00330325
-0.00226434
-0.000122229
-9.21814e-05
0.00319082
0.00181551
0.00309082
0.000345126
-0.001103
0.000278514
-0.00559752
0.00282321
-0.00117492
-0.00554809
0.00438629
-0.000237693
-0.000850619
-0.00134277
0.00122907
0.00990114
0.00593721
-0.000409128
0.00128356
0.00220165
0.00323228
-0.000243632
-0.00653797
0.00128217
-0.00676148
0.00358835
-0.00202751
0.00215997
-0.000520618
2.89495e-05
0.00270731
0.00694225
-0.00250174
-0.00219386
-0.00492427
-0.00494836
0.00570621
-0.00436001
-0.005782
0.000855895
-0.00858225
-0.00701888
-0.000303102
-0.00311575
-0.00178049
-0.000712921
0.00169947
0.00191677
-0.00770982
-0.00602869
-0.00657679
-0.0107491
-0.00113882
0.00140738
-0.000827289
-0.00361844
-0.00686785
0.00217235
-0.00792712
-0.00184396
-0.00843822
0.00341946
-0.000653145
-0.00526524
-0.000139194
0.00863171
-0.00102587
-0.00155409
-0.000220698
0.00251538
0.00379094
-5.44273e-05
-0.00234681
-0.00566309
0.0040142
-0.00607653
-0.0061575
-0.00409113
0.00557042
-0.00453543
-0.00104075
-0.0224047
-0.00259135
-0.0101562
-0.000100209
-0.00077486
-0.00136004
0.00105269
-0.00609287
0.0012343
-0.00585674
-0.00319909
0.00252739
0.00505007
0.00203833
-0.00289486
-0.00112731
-0.000422581
0.000854288
-0.00838495
-0.00348398
-0.00275969
0.00431254
-0.00404666
0.00296579
0.00147621
-0.00439773
-0.00932845
-0.00321504
0.00577195
-0.00511678
0.000281939
-0.00242383
-0.000197761
-0.00303694
0.00029248
-0.0055417
-0.00310501
0.00543425
0.00291693
-0.00199767
-0.000962799
0.000116959
-0.00322847
-0.00242984
0.000176598
0.00363008
-0.000981768
0.00617897
-0.00193826
0.00300816
0.00248151
-0.00232195
0.000242185
0.00513628
-0.000391894
-0.00204208
-0.00147562
-0.000111922
0.00308516
0.00242487
-0.00662836
0.0040881
-0.00221245
-0.00412138
-0.00271853
-0.0131028
0.00261827
-0.00123083
-0.00328361
4.46127e-05
-0.00459498
-0.0019596
-0.00154045
-0.000885736
0.00470665
0.000481181
-0.0121785
-0.00226446
-0.00159728
0.00276141
-0.00751287
-0.0055422
-0.00339781
-0.000899768
-0.00178572
-0.00364845
-0.00768729
-0.00152202
0.0124477
0.00637123
0.00681535
-0.00372506
-0.00110776
-0.00176673
-0.00658679
0.000321165
-0.00291321
0.000628712
-0.00131382
-0.00074743
0.000864146
-0.00303569
-0.0058122
-0.00507659
-0.00620545
0.00228381
-0.00159151
-0.00033662
-0.00112954
0.00220942
0.00282466
0.00766156
0.0106352
-0.00194289
0.00240646
-0.00440544
-0.0020099
0.00237983
-0.00689171
0.00631276
0.00108779
-0.00194398
0.0118752
0.0060248
0.00112594
0.0028689
0.00527219
-0.00350001
-0.00104415
0.0102611
0.00609631
-0.00331871
-0.00129751
0.00250764
0.00355657
0.00101968
-0.00179875
-0.00236572
-0.000678383
0.00628596
0.000562773
-0.00313669
0.00620784
-0.00984681
-0.00553317
0.00118139
-0.00290291
-0.00747228
-0.00199513
-0.0105689
-0.000659679
0.00235585
0.00282395
-0.00168423
-0.00325931
1.07941e-05
-0.00293612
0.00612105
-0.00578697
-0.00104563
-0.0043212
-0.00474021
-0.00383546
-0.00253463
-0.00147854
0.00845282
-0.00125899
-0.0127442
-0.00237992
-0.000251917
-0.00327098
-0.000173936
0.00186156
-0.000907304
-0.00169801
-0.000439053
-0.00744571
-0.00877063
0.00105908
-0.00332143
-0.00195856
-0.00189583
0.0134503
-0.000977542
0.0081622
-0.00923525
0.00350477
-0.00036262
0.00168003
0.00163288
7.26386e-05
-0.00322854
-0.00142048
0.00328544
-0.00772779
0.00215724
-0.00539671
0.000605462
-0.000278984
-0.000396552
-0.00478363
-0.00435461
0.00659781
-0.00806065
-0.00257685
-0.000211497
0.00432581
-0.000290728
-0.000782464
0.00306736
-0.0061838
-0.00554443
-0.00440772
0.00511378
-0.000715251
0.0086364
-0.000447733
-0.00247074
-0.00269584
-0.00329009
0.000458609
-0.00141973
-0.000258015
0.00157937
0.00578069
-0.000842696
-0.00231847
-0.00349118
-0.00206256
-0.000286309
0.00281733
-0.0018418
-0.0041641
-0.00248846
0.00230291
-0.00225139
0.00119577
-0.000493865
-0.000950574
0.001489
-0.00140243
-0.0175694
0.000564977
-0.00294192
-0.00146916
-0.00318351
0.00433542
-0.00286877
0.00379293
0.00311083
0.002066
-0.000572165
0.00064118
0.000300997
-0.000716263
-0.00423468
-0.00453002
0.0019598
0.00176882
-0.00451157
0.00112349
-0.00330895
0.00108482
0.00461509
-0.00356802
0.000185932
-0.00631502
-0.00137872
-0.00595122
-0.000215001
0.00246087
-0.00468957
-0.00334426
0.00123864
-0.000499385
-0.00146704
-0.000855854
-0.00296836
8.27756e-05
0.0015587
0.00472755
0.000733699
0.00322486
-0.0111198
-1.71994e-05
-0.00476964
-0.00441739
-0.00313059
-0.0034229
0.0067947
-0.00130495
0.000948961
-0.000447609
-0.00296953
-0.000946763
0.0137976
0.0152482
-0.00396584
-0.00550455
-0.00414335
0.0026011
-0.00292668
0.0015658
-0.00577756
-0.00567813
-0.00226182
0.00491001
0.00377645
-0.00364827
-0.00272591
-0.00447317
-0.00283654
-0.00226736
0.00163493
-0.00092654
0.00347704
-0.00736368
-0.0021846
-0.000272668
-0.00193804
0.000329705
-0.000515336
0.00863868
0.000370552
-0.00432499
0.00354491
0.000610149
0.00222831
-0.00180558
-0.00204189
0.00322231
0.00202664
-0.00232129
0.00621872
0.00776618
0.000760507
-0.00266242
0.00143828
-0.000838555
-0.000975857
-0.00317999
0.000284284
9.7562e-05
-0.00334122
0.0044409
-0.00963772
-0.00448133
-0.000180143
0.00419614
-0.00748956
0.000329976
0.000304993
-0.00838033
0.00321422
0.00257223
-0.00386278
-0.00269961
-0.000197527
-9.5725e-05
-0.00526079
0.00110484
0.00264637
-0.00267072
-0.00525501
-0.00175913
0.00528953
0.0036464
2.38516e-05
0.000256815
-0.00413213
-0.00504428
-0.00778733
-0.0066553
-0.00514995
-0.000476232
-0.00251247
0.0047843
-0.00147797
0.000805006
-0.00266303
0.00515996
0.00443597
-0.00554118
0.0031893
-0.00452352
-0.00313665
-0.00387582
-0.00535586
-0.00531145
0.000767569
0.00246073
0.00143756
-0.00256867
-0.0005431
-0.00145931
0.00642769
-0.000251196
0.00448427
-6.70736e-05
-0.00235732
-0.00240178
-0.00853915
-0.00314373
0.00154813
0.000393057
-0.00373908
0.000286233
0.00216505
-0.00464048
-0.00164733
-0.00295251
-0.00204234
-0.00269106
-0.000113871
-0.00195426
-0.0139355
-0.00142257
-0.000484355
-0.000850533
0.00203294
-0.0112826
-0.00344829
-0.00982584
0.00185603
-0.000946701
0.00816514
-0.000249039
0.0027753
0.00129464
-0.00332645
-0.00107329
-0.00869142
-0.0128147
0.0151372
-0.0051524
0.00310866
0.00274546
-0.00250597
0.0026595
-0.00827093
-0.0029492
-0.00590622
0.00792799
-0.00189135
-0.00318288
-0.00246981
-0.00305541
-0.00621279
-0.00925854
-0.00577905
-0.00112547
0.00165911
-0.000993863
-0.00281612
0.00316416
-0.00280785
0.00363934
-0.00704619
0.00487731
-0.00256746
-0.0002516
0.00300394
-0.00421375
-0.0044957
0.00305066
-0.0033761
0.00673379
0.00782587
-0.00588828
-0.00244121
-0.00457738
-0.000645503
0.00595069
0.000894293
-0.000293456
0.00649418
-0.00159315
0.000200485
-0.000373702
0.00822839
0.00538792
0.00143903
0.00332101
-0.00472315
0.000769651
-0.00429105
0.000944497
-0.010049
-0.00113445
0.0017982
-0.00240262
-0.00154869
-0.00469939
0.0095112
-0.00108075
-0.00280151
0.000680564
0.00310703
-0.000136522
0.00179938
-0.000804293
-0.0043926
-0.00196704
-0.00156486
0.00136194
