-0.000874594
-0.00012399
-6.75979e-06
-0.00035766
0.000264528
-0.000556253
-0.000167423
-0.00237044
0.000690333
-0.000648402
-0.000263594
-0.0013028
0.000921097
-0.00126659
0.000567643
-0.000462237
0.000812801
0.000277843
0.00115175
0.000124846
-0.00182687
-0.000662607
-0.000174054
-0.00635392
-0.000801091
0.000244073
0.000145881
-0.00173672
0.000989399
0.000402521
-0.000360348
-0.000187275
-0.000242762
0.000858829
-0.000176955
0.00101313
-0.0003976
1.03203e-05
0.000331764
0.000532154
0.000279816
1.09651e-05
-0.0004639
-0.000406906
-0.000165346
0.000778597
-0.000212539
-6.64243e-05
0.00102536
-0.000253879
-0.000286235
0.000961742
0.00123675
8.16785e-05
0.000384206
0.000210379
-0.00120932
-0.000189236
-0.00142442
0.000556425
-0.000300276
-4.10383e-05
9.67976e-06
-0.000768799
-0.000933927
-0.000268773
0.000418663
-0.00069972
-0.000769006
-0.00042969
-0.000135151
0.0015385
0.000745717
0.000323158
-0.00136593
-0.000530487
0.000414261
-0.000624334
-0.000413839
-0.00115106
-0.000630932
0.000291571
-0.00069081
0.00134153
0.000826533
-0.000382256
-0.00035068
-0.000833294
-0.000530182
-0.000361175
-0.000332665
0.000164564
-0.000843873
-0.000668095
0.000619058
-0.000928478
0.00229791
0.000117307
0.00119563
-0.000123924
0.000114924
0.000252556
0.000325151
0.00138313
-0.00122596
-0.000244018
0.00290667
-0.000821669
-0.000302298
0.000921126
-0.00188567
-0.000904558
-0.000877142
0.000933777
-0.000865887
0.00125431
0.000907826
0.000199708
0.000794105
-0.00305006
-2.69597e-06
0.000380242
-0.00119666
-0.000772295
-0.000776873
0.00117712
-0.000247806
-0.000245838
0.000246928
0.00102002
-0.000695489
0.000242609
0.000127087
0.000344502
-0.000280771
-0.000499027
-0.000222842
0.000568107
0.000965405
-0.00103352
-0.00010738
0.000601818
0.000580225
-0.000189228
0.000452728
-0.000139784
6.60707e-05
-0.00339215
0.000398473
0.000710006
-0.00159325
-0.00179725
0.000619048
0.000776685
-0.000603336
0.00247657
-0.0012635
-0.00100559
-0.000209089
-0.00157698
0.000239774
-0.000327028
-0.000632174
-0.000151978
0.00107898
4.74812e-05
0.000669335
-0.00171336
0.000729683
-0.000814012
-2.80839e-05
-0.000207259
-0.000566754
0.00138747
-0.000435054
-0.000223
0.00142839
-3.91793e-05
-0.000364859
-2.45523e-05
-0.00046084
0.00105141
0.00106193
0.000857832
-0.000221007
0.0008725
-0.000707914
0.000340233
-0.00144553
6.78687e-05
6.94921e-05
-2.51435e-05
-0.00203589
0.000371927
-0.000368601
-0.000631616
-0.00127035
-0.000925062
0.000210008
0.000457599
-0.000400858
-0.000142914
-0.000899104
-0.00067681
-0.00169862
-5.60733e-06
-0.000382137
3.61267e-05
0.000359879
0.00051049
-0.000917625
-4.58149e-05
4.43708e-05
-0.00129864
-0.000387782
0.000616884
0.00182827
-6.72133e-05
0.000446938
-0.000260002
-0.000230461
-0.000102236
-0.000179397
0.00201089
-0.000454848
0.000427397
-3.1308e-05
-0.000296241
0.000277176
8.43404e-05
0.000585803
0.000663304
0.00107981
-0.0005221
-0.00024276
8.00825e-05
-0.000584054
-0.000409911
-0.000720517
0.000700498
0.00031366
0.00066611
0.000401009
0.00036639
-0.000442411
0.000808768
-0.000772866
-0.000155057
-0.000160625
-0.0006886
0.000257027
8.21383e-05
0.00125583
7.57467e-05
-0.00127033
0.000719297
-0.000197064
0.000187993
0.00042088
0.0013834
0.000286687
-0.000121282
-0.000811554
-0.000356828
1.54661e-05
0.000296793
-0.00110717
-0.00120634
0.00109173
-0.000251879
-6.13897e-05
-0.000602284
0.000593546
0.00012217
-0.000649261
0.00127152
0.000242372
0.000748787
-2.55885e-05
-0.0010674
-0.000724841
-0.000667806
0.000345157
-0.000739112
1.69571e-05
2.74926e-05
0.000792959
-3.72192e-05
0.000222909
0.000129396
0.00273771
-0.00137448
0.00141997
-0.000909832
0.00182534
-0.000432218
-0.000443011
-0.000833929
-0.00166529
-7.22056e-05
-0.000388375
-0.000272871
-0.00246692
0.000940199
-0.000449451
-0.00285941
-0.000438335
-0.000580033
-0.00102406
-0.00158961
0.000342574
-0.000211
-0.00108309
-0.000191717
0.00106565
0.000624575
-0.00059044
-0.000331581
-0.000337647
-0.00127217
0.00122839
0.000149408
0.00160213
-0.000671551
0.000212269
-0.000664176
0.000284352
-0.00117555
5.41979e-05
0.00138804
-0.00126908
-0.000262856
-0.000165992
0.000466178
-0.000485498
0.00031601
0.000114397
-0.000876216
-0.000497557
-0.000525712
-0.00206861
-0.00153833
-0.000607719
0.000992698
-0.000717374
-7.92543e-05
0.00112854
0.000385467
-0.00230209
-0.000544607
-0.000536673
-0.000368503
8.79575e-05
-0.00128524
0.000556548
0.000227606
0.000373073
-0.000364634
9.17809e-05
-7.78166e-06
-0.00209936
-0.000386215
-0.000801408
-0.000242275
-0.00158219
0.000605744
0.00319487
0.00040384
-0.000453136
-1.18776e-05
-0.000905586
-0.000575153
0.000687777
-0.00127609
0.00193869
-0.000336537
-0.00053956
-0.00097137
-0.00018488
-0.000529198
0.00297729
-0.000623679
-0.00051821
-0.000560678
0.00055345
-0.00174234
-2.1506e-05
-0.000121838
0.000303144
-0.00246854
0.000239902
0.0027473
-0.000188033
-0.0016072
-0.000904008
-0.000607229
-0.000604632
-0.000587014
0.000989821
-0.000335285
0.000844696
-0.000827312
-0.000328493
0.000142578
-9.90871e-05
-0.000348056
0.000824009
0.000286841
0.00045277
0.00100632
0.00085722
-0.00073962
-0.00111934
0.000109401
-0.0012803
0.000657099
0.00183229
-0.00013601
-0.000444774
-0.000345182
0.000109058
0.00134659
-0.000526817
-0.000806335
0.000964901
0.000427286
-0.000173044
-0.000315769
-0.000615525
0.000429188
-0.000409143
-0.00248017
0.000423005
-0.000525219
-0.000485114
0.000543706
-0.00012913
-8.76222e-05
1.3634e-05
0.000379279
0.000358686
0.000148852
0.00421678
0.000235239
0.000323477
-0.00122132
-0.000375647
-0.00155124
0.00151839
4.81605e-05
0.000849528
0.000179719
-0.000470982
-0.000264439
0.00394156
-0.00086796
-0.000128708
-0.000182957
-0.00111021
0.00165243
0.00150622
0.000313344
-0.00117037
-0.000667836
-0.000736978
0.000266176
-0.000500446
-0.000309591
-0.000566732
0.000231592
0.000488849
0.00146059
-0.000279944
0.00187569
0.0001157
-0.000797368
0.000519346
-0.000494064
-0.000753013
-0.000210866
0.000382544
0.000573355
0.000276193
0.000746326
-0.000232917
0.000317191
-3.54319e-05
-0.000414089
0.000190921
0.000406908
0.000254133
0.000698564
0.00141057
0.00346483
3.84387e-05
-0.000636386
-0.000428244
0.000580397
-0.00038987
-0.000905741
0.00110796
-0.000722115
9.28267e-05
-0.00071743
-0.000833363
-0.000121488
0.00102777
0.0011155
-5.34157e-05
-0.00223003
-0.000528048
0.000103732
-0.000538954
8.65031e-05
-0.000734337
0.000501637
0.000374785
0.000172119
-0.000584613
-0.000926117
-0.00115308
0.00187242
-0.000786957
6.41238e-05
0.000205132
-0.00104381
-0.000154126
-0.000392392
-0.000559789
-0.00135084
-0.000748774
-0.000141073
-0.000480205
-0.00339161
-0.000115493
-0.000806589
-0.00147322
-0.00038865
-0.00118035
-0.00102588
-0.00136147
0.00152595
-0.000580812
-0.000810455
0.00138523
-0.00048419
8.44393e-06
0.000669475
0.00224746
-0.00062227
-5.5994e-05
0.000313557
5.80254e-05
0.000687511
0.000148049
-0.000612343
0.000433473
-2.41967e-05
-0.000262229
0.00161518
-0.000159914
-2.62488e-05
0.00250294
0.000419924
0.000278064
-0.000241631
-0.00113136
0.00136923
-0.000353438
-0.000512302
-0.00017271
-0.000692565
-0.000102384
-7.79907e-05
0.000377631
0.000760871
-0.000340636
-0.000756072
6.88751e-05
0.000349766
-0.000840934
0.000994669
-0.000880324
-0.00125624
0.00245186
0.000586391
-0.000613482
-0.000327241
-0.0012376
-0.000118817
-0.000221817
-0.000461356
-0.00119414
-0.000636992
-0.000690153
-0.000187763
0.000168178
-0.000355268
-0.000891963
0.000336242
7.81624e-05
0.00258412
0.000453726
0.000407543
-1.50974e-05
0.000440578
0.000375857
-0.00144574
-4.11967e-05
-0.000109551
3.73934e-05
-0.000588204
-0.000781616
-0.000165327
-0.000275727
-0.000839537
-0.000535055
-0.000161212
-0.00014466
-0.00178809
0.000374378
-0.000690895
0.000649865
-0.00109201
0.000272337
-0.000596664
-0.000216177
-0.000834856
-0.000312747
-0.000213128
0.00091751
0.00243278
0.0020296
0.000932113
-0.000897689
-9.81482e-05
0.00101966
-0.0002416
0.000923106
-0.000470069
-0.000653223
-0.00108316
-0.00056315
0.000451816
0.000529044
-0.00166668
0.000106841
-0.00159115
0.000601683
0.00025399
0.00110927
-0.00093235
-0.000470749
-0.000825917
-0.00289941
-0.000453707
0.000445577
-0.00107412
-0.000893761
-0.00160239
-0.00017968
-0.00215673
7.93788e-05
0.000228291
-0.000343935
-0.000570101
0.000141512
8.56713e-05
-0.000582743
0.000747319
0.00259785
-0.000171486
-0.000249634
-0.000350782
0.00111772
0.000254682
-0.000558197
-0.000672719
-0.00072469
-0.000121586
-0.000457397
0.00227978
-0.000827816
-0.000162566
-0.000406842
-0.00106816
-0.000630804
0.000509161
-0.00013122
-0.00015543
1.17743e-05
0.00143204
-5.7896e-05
-0.000313201
-0.0011149
-0.000207578
0.000464238
-0.00104807
-9.99235e-05
-0.000197023
-0.0024819
0.00241342
-0.00166766
-0.00106305
0.000456244
-0.00029399
2.01334e-05
-0.00152695
-0.00109524
-0.000240196
-0.000839091
0.000591314
-0.00151411
-0.000131395
0.000209462
-0.000111236
-0.0014841
-0.00125702
0.00122802
-0.000640549
-0.00158369
-0.000399601
-0.000250953
3.82832e-05
0.000992962
8.6991e-05
-0.00154471
0.000618444
0.000419246
-0.00230186
-0.000989381
-0.000973432
-0.000140172
0.000306461
-0.000680168
-0.000601094
-0.00315792
-0.00131969
-0.000722662
-0.00165625
-0.000666733
-0.000587679
0.000609119
0.00125718
-0.00013151
0.00051986
0.00212538
0.00098479
-0.000370996
-0.000161338
-0.000152268
-0.000292589
-0.000409427
-1.78524e-05
-0.000362693
-0.000883034
-0.000445808
-9.81874e-05
-0.000223294
0.000168845
-0.000950022
-0.000657782
-0.000783447
-6.48162e-05
0.00108827
0.000554629
-0.000728146
0.000330867
0.00112493
-3.68508e-05
0.000940913
0.000267975
0.00135244
-0.000768561
0.000301163
-0.000709891
-3.33801e-05
-0.00073152
-0.000228834
-0.000314733
-0.000418475
0.00137568
-0.000900826
-0.000947708
-0.000569473
-0.000955603
0.000239718
0.00048912
0.00116962
0.000217819
-0.00118948
-0.00066831
-0.000619623
0.000186405
0.00025198
0.000309211
0.000119333
-0.000270045
0.000668221
-0.000675936
0.000207701
0.00081556
0.000783015
-0.000288486
3.69809e-05
-0.0021252
0.000466056
-0.000283386
-0.000199736
0.000696846
-0.000227008
-0.00116885
-0.000252811
0.000194171
-0.000780358
0.000356259
0.00174615
0.000157534
-0.000228823
-0.000633683
-0.000456345
-0.00104461
0.000271943
-0.000415611
-0.000269054
0.000445812
-0.000526235
0.00241098
0.000610639
0.00065366
0.00377892
5.90466e-05
-2.20068e-05
-6.88236e-05
-0.000622984
-8.03397e-05
0.0028656
0.00029456
-0.00127117
-0.000307922
0.0014917
0.000181065
0.000174517
-0.00101688
0.00190963
0.00021392
-0.00125644
-0.00131505
0.000430041
-0.00184899
0.000292318
0.000534304
-0.000107106
0.000127559
0.00129829
-0.000582597
0.00187771
-0.00141871
-0.00230637
-0.000875554
-0.00042994
-0.00135068
9.02942e-05
0.000662904
-0.000929366
-0.00108243
-0.000611132
0.000347781
-0.000249438
-0.000345409
-0.000218922
0.000834819
0.000364308
-0.000154397
0.00058064
0.000319424
-0.0007012
0.00168864
-0.00127445
0.000416232
-0.000649601
-0.000547647
0.00118022
0.00271828
-0.000161796
-0.00101392
0.000117609
-0.000313801
-0.000824089
-0.000217331
-8.03641e-05
0.000621037
0.000861489
0.000143208
0.000254971
0.000351345
0.00235927
0.0014049
-0.00163206
-0.000775257
0.000226111
-0.000437826
0.000359055
-0.000471693
-0.000203401
-0.00180148
0.000330771
6.82711e-05
0.000123227
-0.000445451
-0.00139267
-0.000676959
-0.00141935
0.000815734
0.000186941
-0.000383137
0.00392712
-0.000735732
-0.000761313
0.00159596
-0.000415744
0.00156468
0.00241159
0.00243299
-0.000411617
0.000354769
0.000842575
0.000253078
0.000133666
0.00131798
0.000401868
2.8794e-05
0.00140119
0.00131996
-0.000238652
0.0030458
0.00176836
-0.000293795
0.00182963
0.00115503
-0.00012001
9.0001e-05
-0.000124571
0.00129737
-0.00148431
-0.000556261
-0.000889543
0.00291488
0.000522247
-0.00363943
-0.000117191
-0.00408396
-0.000703251
0.00244769
5.68252e-05
-0.000668631
0.00111604
0.00188569
-0.000443816
0.000228546
-0.00146078
-0.00216777
-0.000525813
-0.000335729
-0.000289945
3.64081e-05
0.000542263
0.000512865
0.00211429
0.000828601
-0.000465767
-0.000167976
9.97368e-06
0.00335172
0.000886774
-1.47627e-05
-0.00242326
-8.67712e-05
-0.000328863
5.09209e-05
0.00103648
0.000913133
-0.000883012
0.00314575
0.00182101
-0.000514757
-3.29384e-05
0.000703413
0.00312687
0.000910666
0.000533777
6.53712e-05
-0.00234904
-9.30325e-05
0.000545212
-8.32764e-05
-0.000905752
-0.00105821
0.00214984
9.41331e-05
-0.000812493
-0.000927026
-0.00106799
0.000868861
-0.000831979
0.000702403
-0.000708547
-0.000632261
0.001234
-0.00231639
0.000231172
-0.00122324
-0.000265462
0.000427601
0.00192939
0.00111124
-0.000736332
0.000779661
0.00139626
0.000297797
0.00169911
0.00106394
0.00038276
-0.000132213
0.000908362
0.000739911
0.00157895
0.0011857
0.000716551
0.00151352
0.00111639
-0.00284293
0.00600946
0.000328828
-0.00151125
0.00179561
0.00144145
0.00108596
0.00158457
-0.000362874
-0.000607137
-0.000335283
0.00227301
-0.000945482
0.000654756
-0.000313002
-0.000767693
0.00101849
0.00245764
0.000217758
-0.000629222
0.00275811
-5.85095e-05
0.000605136
0.000967038
0.000950316
-0.0012187
0.00230985
0.00151368
0.000156387
0.00138093
0.000763606
0.00101585
-0.00101975
-0.00122411
-0.000946137
-0.002074
-0.00089859
0.000809333
-0.000140428
-0.00145457
-0.00123127
0.00209493
-0.0014316
0.000831472
-0.000554337
-0.000473722
-0.000977133
0.000523554
0.00188879
0.000877692
0.00159862
0.000385356
-0.0019376
0.000893696
0.00140373
0.000370331
-0.000835599
1.00295e-05
8.06881e-05
-0.000118463
0.00178226
0.0010717
0.000695574
0.000317835
-0.000102228
0.000324289
0.000614378
-0.00368773
-0.00129688
0.000355855
-0.000878189
0.000324822
0.00140995
0.00270976
-0.000785376
0.00192042
0.00102407
0.00296903
-0.00581986
-0.00147265
0.00143144
0.000909641
0.0016555
0.000634165
-0.000127699
-0.00190569
0.00143591
-0.000227464
0.000564338
-0.000905362
-0.00152614
0.000207883
-0.000595859
-0.00168296
0.0025216
-0.000206284
0.00128868
0.000515795
0.00261029
0.000743729
0.00224139
0.000247752
0.00232165
0.0021461
-0.000380487
0.00146948
0.000892081
-0.00114918
0.00070194
0.000241594
0.000282768
6.46659e-05
-0.00160952
-0.000410594
0.00052719
2.80461e-06
0.00119215
-0.000136408
0.00460746
0.000642829
0.000851022
-0.000529391
0.000826559
-0.00383693
0.00185746
-0.000261911
-0.00208697
0.000898603
-0.000509412
0.000393102
0.000959741
-0.00131676
-0.00028849
0.0010273
0.0013571
-0.000352314
0.00174063
-0.00119751
0.00119524
0.0021662
0.004461
0.000556489
-0.000562777
0.000678324
-0.00127038
-0.00087001
0.00104132
0.000284266
0.00171483
-0.000123011
0.00133956
0.0024076
0.000200549
0.000325928
0.000868074
-0.00077398
0.00133066
-0.00161231
-0.000341969
-0.000565337
-0.000627711
-0.00202016
-0.00229658
0.00125973
-0.000542313
-0.0008399
-0.000589229
0.000157385
-1.14667e-05
-0.000982599
0.0012824
-0.000876194
0.00182617
-0.000311434
0.00121214
-0.000255991
-0.000438504
0.00259791
0.000352426
0.00057533
-0.00155206
0.00060627
-0.000390692
6.79605e-05
0.000377453
0.000318847
4.48364e-05
-0.00116159
0.000715946
0.00038644
-0.000341299
-0.000258577
-0.000903448
-0.00153298
0.000123778
0.00096846
0.000177795
-0.000895671
-0.00046282
9.18633e-05
0.00066045
-0.00265026
0.000153034
-0.000110135
0.000815426
-0.000169338
0.000636353
0.000373613
-0.00048116
-0.00051799
-0.000312612
-0.000625329
0.000218744
0.000133281
0.00202977
-0.000709657
0.000315886
-0.000160631
0.000169146
0.00120525
-0.000808593
0.00163393
0.000962049
-0.000941434
-0.00154065
0.000405749
-0.000996445
-0.000184151
0.000446486
-0.000715103
8.45856e-05
0.000277987
-0.000164298
-3.83799e-05
0.00138152
0.000820039
1.89467e-05
0.000252144
0.00134612
-0.000330448
-0.000193662
-0.000267947
0.000139659
-0.000755411
0.00186609
-0.00136055
-0.000441455
0.0016514
-0.00103112
0.00120293
0.00148278
-0.000333949
0.000871864
-0.00107992
0.000769816
-0.00128519
8.00502e-05
-5.14729e-05
0.00047453
-0.000275296
0.00050491
0.000884539
-0.000111431
-0.000220916
-0.000902678
0.000294988
-0.000322182
0.00119669
0.000800306
0.00119441
1.5326e-05
0.000936566
-4.24292e-05
0.000960043
0.00226035
-0.00289237
0.000426685
0.00182279
-0.000754219
-0.00046229
0.000979138
0.000133033
-0.00149362
-0.000837001
-0.000769186
0.00150123
-0.00133822
0.000411836
-0.000763223
0.000160022
-0.000753496
0.00173118
0.00115589
0.0032924
0.000384031
0.00125423
0.00346375
0.000113894
0.000253373
0.000212212
0.000610765
0.000159705
0.00118331
-0.000321883
0.000371418
0.00247013
0.00192406
-0.000572113
0.00131843
0.00247309
0.00185031
0.00226495
0.000658152
0.000210978
0.000434394
-0.000840914
0.000513235
0.00179487
-0.000367
0.000134354
0.000338861
-0.00124334
-0.00165506
-0.000996454
0.000314181
0.00201242
-0.000262396
-0.000356944
0.00122937
0.000552271
0.000132936
0.000122945
0.00188549
-0.000396494
0.000353858
0.000415087
0.000560887
-0.000736043
0.000443682
-0.000592066
-0.000585486
-0.000483298
0.000443836
-0.000911987
5.90778e-05
0.000302613
-0.000777094
0.00120164
0.000650581
-0.000583725
-0.00107994
-0.00287328
0.00308677
0.000110768
-0.00118895
0.00337098
-1.20574e-05
-0.000466055
0.00143796
0.000861622
-0.000985794
-0.000141067
-0.00122168
-0.00222664
-6.33454e-05
0.000477376
0.000161035
-0.000362201
5.0843e-05
5.44227e-06
-0.000402459
0.000989911
-0.00124257
-0.000887613
0.000752338
-0.000958066
-0.000813137
-9.93655e-05
0.000378333
0.00203574
-0.000972229
0.00545767
-0.000107821
-0.000485308
0.0002857
-0.000129229
0.00032559
-0.00135509
0.000114595
0.000266837
0.00024288
0.000630977
0.000115599
0.00123308
0.000843803
-0.00138455
-8.55441e-05
-0.000361019
0.00096365
0.000416574
-0.000275101
-0.000465939
5.09218e-05
0.000816793
-0.000966637
0.000305831
0.00167814
0.00199858
-0.00146926
5.82562e-05
0.00018593
-0.000129751
0.00259491
-0.000131651
-0.000310927
-0.000659429
0.00121035
0.0012961
-0.000206037
-0.000590904
0.000758875
-0.000541784
1.28835e-05
0.000970754
3.31821e-05
5.05968e-05
-0.000160582
0.000162818
0.00192405
-0.000799125
0.000312801
0.000419478
-0.000385437
0.000832754
-0.000206653
0.000416061
0.000934512
0.000616903
-0.000268679
-7.66017e-05
-0.00154178
0.000788588
0.000426566
0.000163615
0.00220459
-0.000359061
0.000498106
0.00117564
0.0010965
0.00222009
0.000311632
-0.000563939
0.000708193
-0.000756245
-0.00049952
-0.000616941
0.00174217
-0.000900902
0.000397219
-0.00105885
-0.00159735
-0.000538732
-0.000647923
0.000663333
-0.00120457
0.000186745
-0.000478047
0.000436891
-0.00353065
-0.00088045
-0.000814752
0.000320531
0.000834905
0.000243594
-0.000979197
0.00234999
-4.0345e-05
-0.000396442
-0.000155025
0.00141382
-0.000629871
-8.89521e-06
0.0013469
0.000245054
0.000157056
0.00178365
0.000362071
0.000300529
-0.000432475
0.00148508
0.000244888
-0.000561509
0.00051387
-0.000374892
0.00151681
-0.000525988
-7.45484e-06
0.000253887
0.00119014
0.000696326
-0.000141892
0.00251531
0.000541097
-0.00231619
-0.000492189
0.00187115
0.00124681
0.00139002
0.00200389
0.00278284
0.000620472
0.00053037
-0.00172749
-0.000725593
0.00229448
-0.000131297
0.00213885
0.000396968
-0.000179242
0.000485892
0.000114554
-0.000768997
-0.000674955
-0.00264802
0.00197283
0.00130646
0.000413625
-0.000161345
0.000984965
0.000408772
0.00176103
0.00216945
0.00092819
0.00158177
0.00223056
0.00313739
-0.000171939
-0.000858916
-0.000139616
-2.84345e-05
-0.000648917
-0.00059046
0.00139904
0.000248351
-0.000271074
-0.000520707
0.000856529
0.00175244
-0.00034002
-6.51993e-05
0.000354194
-0.000245621
0.00145832
0.00211237
-0.000787408
-0.000253357
0.000660707
0.000461194
0.000220003
-0.00035556
-8.69591e-06
-0.000867005
0.00624413
-0.00103115
-0.000118873
0.00244764
-0.00381766
-0.000522316
0.000788711
1.10009e-05
0.00118376
-0.00104137
-0.000180284
0.00017347
0.00254745
-0.00112233
-0.00135805
-9.94925e-05
-0.00276637
0.000629474
0.000741441
-0.000365222
-0.000498261
0.000268227
0.00231459
0.00154829
0.00117681
0.000277791
-0.000739794
0.000289106
-4.16577e-05
-0.00071235
0.000133978
0.000761297
-0.00367816
0.000276833
0.000252028
-0.00100767
-0.000742949
-0.000980668
-0.000257955
0.000128903
0.00515583
-0.00180753
-0.00190914
2.64649e-06
-0.000233728
0.000375504
0.0015449
0.000621299
-0.00250359
0.000277565
0.0012643
0.00293141
-0.000246293
0.00204869
0.000692658
-0.000981837
-0.000180797
0.00114337
0.00010558
-0.00064166
-0.00122052
0.00084604
0.00208989
-0.00356807
0.000679096
0.0015668
0.00105541
0.00118964
-0.000348431
0.000773971
0.00172375
0.00105523
-2.64832e-06
-0.000584051
0.0021749
-0.00016254
0.000115822
-2.85066e-05
0.000271629
5.83481e-05
4.05167e-05
-0.000431035
-0.000603111
-0.000243735
-0.000273557
-0.000133054
-0.000166284
-0.000233072
0.00158916
0.00163453
-0.000250806
-0.00110875
-0.000537104
-0.00204698
-0.000720366
0.00220412
-0.000717079
-0.000214552
-0.00101072
-0.000333877
0.00176087
-1.62262e-05
0.00114554
0.000830013
0.00121443
-0.000431244
0.00278143
0.00030018
-0.00193593
0.0101391
-0.000168166
0.000464152
0.00117867
0.00194894
0.00183536
0.000519795
0.00150418
0.000200468
0.00049137
0.000278859
-0.00012988
-0.00188279
0.00141313
0.001137
0.00562756
-0.000106866
-3.52949e-05
-0.000616381
0.000242153
-0.000226036
-0.00277796
-0.00242884
0.00109985
0.00196712
0.000552054
0.00229597
-0.00210853
-1.4731e-05
-0.000331189
0.00129519
0.00050514
-0.00325629
-0.00121289
-0.000923423
-0.00327098
0.00137536
0.00128742
-0.000297591
-0.00101852
0.00196631
-0.000595262
-0.000468068
0.000931281
-0.00175402
0.000153969
0.000127173
-0.000249304
0.00116081
-0.000561475
0.000171979
0.00209551
-0.000641754
0.00163029
-0.000245202
0.00196576
-0.00066223
8.11919e-05
0.00139688
-0.000620726
-0.00125269
0.0013528
-0.000614216
0.00211911
-0.000170062
0.00153515
0.00257202
-0.00263143
0.00221132
-0.00407364
-0.000151385
0.00406397
0.000933756
0.00161607
0.000240346
0.000355139
-0.000125551
0.000321287
0.00106158
0.00120383
-0.000430198
0.000253302
2.03313e-06
0.0013738
0.000200295
0.000674743
-0.0025813
0.00141238
-0.000946698
0.000929975
-0.000262667
0.000190405
0.000164756
-0.000604397
-0.000587542
0.00098757
0.000383068
0.000942983
-0.000494994
2.78277e-05
-0.00131539
7.90385e-05
0.000512235
0.00157773
0.000856553
0.000272607
-0.000554527
0.000163952
-0.000729174
-0.000366118
0.00133487
0.000414855
0.000112017
4.83357e-05
0.00321878
-0.00249608
0.00224276
0.000822775
-0.000337081
4.75651e-05
0.00125773
0.000447048
0.00119797
-0.000605425
0.00238722
0.000607535
-0.000131073
-0.00113538
-0.000633715
0.00102476
-0.000329656
0.000176153
-0.000413766
0.000913944
0.00126931
-0.00045873
-0.000158468
-0.000717963
0.000115268
-0.000308339
-0.000336104
0.000435908
0.000681598
-0.00161928
0.00110806
-0.000461766
0.000110813
-0.0003176
0.000852151
0.000149032
-0.00117496
0.00210981
-0.000661763
-0.00013264
0.000788233
0.00192009
0.000520501
-0.000410761
-3.30924e-05
0.000715179
-0.000104009
0.001595
-0.000491293
0.00135336
0.000157498
0.000407216
0.000617234
-0.000525866
0.000850794
0.00184162
0.00345505
-0.000463823
0.00183974
-0.000315972
0.00010633
0.000386418
0.00119801
-6.28105e-05
-0.000737799
-0.00032173
-0.000167501
-0.00155808
0.000299685
0.00031393
-0.000888266
-0.000768545
0.000196915
-0.000781105
-0.000167257
-0.000690474
0.00070563
0.00106973
0.000584139
0.000216058
0.00118382
0.000282826
-2.97613e-05
0.000339313
-0.000326945
-0.000849721
-0.000530557
-0.000241555
-0.000140129
-0.000451579
-0.000952016
0.000933877
-0.00187891
0.000901813
4.1176e-05
-3.96328e-06
-0.000735145
-0.000512235
9.2497e-05
0.00129834
-0.000343253
-0.00034068
0.00248986
-0.00202724
0.000684088
-0.00176836
0.000221646
0.00225416
-0.00303348
0.00091492
-3.67848e-05
0.000329055
0.000145508
-0.00231662
-0.000238357
-0.00103733
-0.000137675
0.000537086
-6.57983e-05
0.00104035
-0.000543702
-5.11155e-05
-0.00129316
0.000160469
0.00154543
0.00180929
-6.16698e-05
-3.12193e-05
-0.000173691
8.5759e-05
-0.000319481
-0.000213041
-0.000127166
0.0109459
0.00190053
-0.000364174
-0.000174213
0.00101502
-0.00100255
-0.000712616
0.00079165
0.00135056
0.000149521
-0.000183495
-0.00106879
0.00297626
-0.000360921
-0.000189617
0.000336007
-0.00041445
-0.000628507
0.00146672
-0.000162476
-0.00125237
0.00216733
0.000716771
0.00189701
1.41319e-05
-0.000606658
-0.000590863
0.000122897
-0.000416096
-0.000362808
-0.000676959
0.000700196
0.000917881
-0.000409701
-0.00111547
0.00077317
-7.59043e-05
0.000139685
0.000151869
-0.000406381
-7.20427e-05
-0.000689208
-0.000644837
0.000277652
-0.000751479
0.00115657
0.00129706
-0.00114273
0.000699304
0.000769425
0.000679237
0.00304806
0.00173656
-0.00119607
0.00112587
-0.000264969
0.0014056
-9.63571e-05
0.00046484
0.000121818
-0.00116624
0.00146218
0.000636697
0.000427021
0.000493619
-0.000465987
-0.00140468
4.8037e-05
-8.45552e-05
0.00100312
0.000253305
0.00097835
0.00408612
-0.000573761
0.00029605
9.61116e-07
0.0002253
7.36834e-05
-0.00101474
-0.000190085
0.000198102
-0.00101065
0.000613938
-6.88003e-05
0.00107171
-0.00218659
0.000614046
-0.000252858
0.000910212
-0.00288273
0.00181086
0.000279358
-0.00125663
6.17847e-05
-1.71583e-05
-0.000178361
-0.000274053
0.00119003
-0.000506937
-6.326e-05
-0.00108712
0.000237778
-0.00052405
-0.000510184
-0.000142596
0.000846255
-0.000204945
-0.000385614
-0.00039247
0.000507734
-0.000640046
0.00207178
-0.000263339
0.00162315
-0.00433495
0.000633421
-0.000437422
-0.000171723
8.6698e-05
-0.000181787
-0.000782111
4.85502e-05
0.000785721
-0.000379229
-0.00106178
-0.000605116
0.00133188
-0.000483045
-0.000494947
0.00083549
2.6528e-06
0.00116495
0.000808456
0.000447564
0.000601117
0.00267549
0.000147351
-0.00048887
-0.000655881
0.00173977
0.000494447
0.0014223
0.00124738
-0.000334856
0.000737772
4.08193e-05
-0.000298451
-0.000655701
0.00244967
-0.00088023
-0.000331138
0.00104308
-0.00117394
-0.00108433
0.000262871
0.00132941
0.000164728
-0.00090393
0.000886157
0.000256974
0.000252137
0.00170176
-0.000265409
0.0014672
0.00168675
-0.00258065
-5.60148e-05
-0.00175102
-0.00113457
-0.000238157
-0.000892477
0.000559288
5.4579e-05
0.000521892
-0.00285958
-0.00169651
-0.000833294
0.000260838
0.000970192
0.00282689
-0.000187282
0.000674088
-0.000807997
0.00164704
-0.0004947
-0.000414481
-0.000878042
0.000553298
0.000275232
0.000456313
-0.00144288
0.000172051
0.000183341
0.00237277
5.10641e-05
0.00127648
0.000491201
-0.000154878
-0.000214283
3.97369e-05
0.000210964
-0.00109514
-0.000155542
-0.00145729
-7.42812e-05
-0.000455467
-0.00141979
2.5394e-05
-0.00102065
0.00171023
0.000682948
-0.00120331
0.0010128
0.000904956
1.75586e-05
-0.000651774
3.48894e-05
0.000416747
-0.000235738
0.000231273
0.000940961
-0.0004332
-0.000164436
-0.00127903
-0.000125383
0.000988065
3.49275e-06
0.00209651
0.000900049
-0.000459261
0.00111321
-0.000981622
0.000429837
-7.47571e-05
0.0012294
-0.000567089
0.000251461
0.00072437
-0.000701306
0.000180045
0.00138711
-0.000611209
0.000102768
0.00163635
0.00060704
0.00167862
-0.000604762
-0.000139265
-0.000716958
0.000340362
-0.00307295
0.000170248
0.000656808
-0.000603279
-0.000214244
0.000851694
0.000508628
-0.000229174
-1.0149e-05
-0.00217842
0.000894057
0.000196535
0.000599959
-4.185e-05
0.00114788
-0.000425392
-0.000582937
6.78111e-05
0.000205704
0.000117807
-0.00412074
0.000752696
0.000529331
0.00162557
-0.000143685
-0.000579197
0.000801421
-0.00126389
7.82269e-05
-7.50887e-05
0.000409922
-4.84822e-05
0.00208724
0.000102297
0.000346183
0.00122716
-0.00105628
0.000109178
0.000577306
-0.000131914
0.00163318
-0.000802945
0.000297984
-0.00074289
-0.000134765
0.00155037
0.00144078
-0.00066262
8.44058e-05
-0.000698185
-0.000120328
0.000555297
-0.00125714
-0.00211493
0.000488352
0.00339638
0.00065858
-0.000375086
0.000162017
-0.000213217
-1.75952e-05
-0.000280128
0.0004814
0.000625521
0.00125026
-0.000101288
-0.000646792
-0.000486091
-0.000765837
-0.00059674
0.00179418
-0.00175061
-0.000806979
0.00158115
0.000216513
-0.000184915
0.00131567
0.000519828
0.000173388
0.000336926
7.81097e-05
-0.000526104
0.000808694
-6.19042e-06
0.000997566
6.04389e-05
-0.00175994
-0.000121711
0.000535027
0.000305051
0.000714286
0.000461024
0.000680259
0.000367092
-0.000619231
0.000614812
-0.00184023
0.00102301
-0.000226403
-0.000927413
-0.000285369
0.000993082
0.00102833
-0.00048068
-0.00036922
-0.000659666
0.000344903
-0.000756373
0.000554105
-0.000368233
0.000902348
0.000254465
0.000157395
-8.48724e-05
-0.00103409
2.50975e-05
-0.000128532
-0.000249447
-0.000702102
0.000800433
0.00127188
-0.000372384
-0.000606709
0.000328828
0.00010834
0.00105371
-0.000176867
0.00177136
0.000292743
-0.000248739
0.000127926
0.000737159
0.000590366
6.88523e-05
-0.000896143
0.0108238
-0.000181477
-0.000433914
-0.000840809
0.000559285
-0.000215377
-0.000725614
0.000117443
-0.00049433
-0.000177698
0.000355757
0.00179872
-0.0002457
0.00079809
0.000257769
-0.000316798
-0.00023807
-0.00238056
0.000774789
-0.000187235
-6.77422e-05
-0.000807449
0.000342652
-4.375e-05
-0.000713853
8.85233e-05
0.00057032
-0.00146994
-0.000231608
0.00344045
-0.00172274
0.000717792
-0.00108057
0.000312726
0.000788125
-9.54709e-05
-0.000345035
-0.000195291
0.00278289
-2.91513e-05
-0.000195868
0.000566466
0.000652319
-0.00121826
-0.000562347
0.000130995
-6.35826e-05
-0.00129536
-0.000212923
0.000895777
-0.000745221
-0.000745712
0.00183247
0.00248106
-0.000468666
0.00328151
-8.67778e-05
-0.000188425
0.00118616
7.76483e-05
0.00131705
-0.000456804
-0.000159808
0.000128463
0.000841696
0.00114989
0.000921119
7.62161e-05
-0.000308007
0.00123296
0.000488198
-0.000457138
0.00232524
0.000869825
-0.000688129
0.00178831
-0.000205576
-0.00050758
0.00139922
-0.000601302
0.000282934
0.000983184
-0.000407694
0.00127071
0.00183263
-0.000704404
0.00249338
-0.000481995
-0.000558054
0.000252822
-0.000206183
-0.00055671
0.000433839
0.000212646
-0.00012646
0.0030702
-0.00099595
-0.00075076
-0.00052922
0.000692073
-6.49514e-05
0.00101472
-0.00090924
0.000370105
-0.000774983
0.00070554
0.00151627
-0.000509318
-0.000718711
0.000154586
0.000767606
0.00241245
-0.000642621
0.00103003
-0.000167031
-0.000168578
0.000406394
-0.000737885
-0.000155539
-0.000646145
0.000277299
-8.63664e-05
-0.000256113
-0.00104072
0.000965875
-0.000779771
0.000834042
-0.000115069
-7.79494e-05
-0.000384066
0.00128717
5.5392e-05
0.000236125
0.00137258
-0.000246213
-0.000152206
-0.00195227
-4.51111e-05
-5.1672e-05
-0.000911729
-0.00026991
0.00567822
0.000166573
0.000201567
-4.5143e-05
-6.9443e-06
0.000111986
0.000954704
-1.3804e-05
0.000268785
0.00096459
0.000777311
-3.53652e-05
-0.000140599
-0.000165352
-0.000227427
4.29446e-05
1.73554e-05
0.00103042
-0.000246935
0.000379976
-0.000550071
-0.00157969
0.000167364
-0.00198128
0.00086304
-0.00104144
-0.0010995
-0.00180745
-0.000359083
-0.000849083
3.32026e-05
-0.00034765
0.00113101
-0.000744998
0.0023245
0.000532732
-0.000525446
-0.00124678
0.000162687
-0.000441369
-0.000129702
0.000377979
0.000963392
0.0011709
-0.00232207
-0.000305823
-0.00144425
0.000297632
-0.000878531
0.000184758
0.000695108
2.59974e-05
-0.000104329
0.000828191
0.00103762
-0.000132566
0.000112329
-6.75142e-05
-2.65775e-05
0.000181817
-0.00135885
-2.15321e-05
-0.000172124
0.00139655
8.02601e-05
0.00070187
0.00122905
0.000441233
-0.00101756
0.00124484
0.000203156
-0.000643371
0.000992598
0.000615509
-0.000220445
-0.000451786
0.000686457
-0.000597789
0.00123528
0.000264648
3.95546e-06
0.00117415
-0.000273512
0.00139843
-0.000906594
0.000180772
0.000386414
0.00065976
0.00058078
0.000705062
-0.00129811
0.000102463
0.000696742
-6.83426e-05
0.000424778
-0.000128373
-0.000848308
-0.000214397
-0.000592276
0.00036235
-0.000113758
-0.00107983
-0.00288533
0.000180064
0.000195858
-0.00124156
-0.00088709
0.00023126
-0.000569851
-0.000565697
0.00151209
-0.00048975
-0.00064067
-0.000770593
0.000521069
-0.000153628
0.000675749
0.000572669
0.00031333
0.000554346
0.00073799
-5.71616e-05
4.90215e-05
-0.000417758
-0.00154054
0.000253607
-0.00102312
-0.000607658
0.00133333
-0.000200109
0.0010479
0.000597988
0.000125119
-0.000126708
1.48891e-05
-3.63376e-05
-0.00140906
0.00102543
-0.000224727
-0.000306665
-0.000823581
2.0823e-05
0.00285315
0.00038765
-0.00118596
-0.0012055
-6.47333e-05
-0.000264043
0.000665162
0.00228183
8.0911e-05
-0.00071164
0.000268791
0.00155858
-0.000128055
-0.000486717
-0.000156053
0.000541705
0.000906719
-0.000424586
-0.000332263
0.0016424
0.000441965
0.000513445
0.000223706
-6.95128e-05
-0.000169342
0.00110091
0.00124797
9.40459e-05
-0.000464588
0.000183909
0.00106038
-0.000375036
-0.000591618
0.000451363
-0.0010431
0.000298421
-0.00174905
-0.00015647
-0.00057014
-0.000132009
-0.000234679
0.00242144
0.000939237
0.000510036
0.000221912
0.000131756
0.00164463
-0.000699382
-0.00085078
6.50328e-05
0.000328597
0.000135607
2.18946e-05
0.00125893
-0.00124911
-0.00128138
-0.000171563
-0.000380889
-0.000226323
0.000179625
0.000490103
-0.000356837
0.000758133
0.00190218
0.00030201
-0.000415578
0.000124452
-0.000319571
-3.94339e-05
-0.00135799
0.00165335
0.000946723
-0.000499291
-0.000800963
-0.0013517
0.000156839
0.00118906
4.47592e-05
-0.000784741
-0.000476043
-0.00153458
0.000169649
-5.77643e-05
0.00206514
-0.000308716
0.000894765
0.000416249
0.00010459
-0.00129458
-0.000559841
0.000922753
-1.40918e-05
0.000709906
0.000628591
-0.000196295
-0.000235148
0.00193837
0.000553266
0.00051607
0.000445518
-0.000437394
0.000158333
-0.00026024
0.000926439
0.0011376
-0.000121014
0.000426998
0.00287048
-0.000752954
0.000758833
-0.000106417
0.000393963
-0.000541907
-0.000236166
-0.000236343
-0.000112334
-0.000260717
0.000593486
0.00102981
0.00434677
-0.000595518
-0.000730801
0.000935751
0.003971
0.000215028
-0.000771365
-0.000249571
0.000370034
-8.58474e-05
-0.00136735
-0.00057329
-0.000402417
0.00042766
0.000671296
-0.000474371
0.000747857
-0.000537507
0.000524125
0.00116503
-0.00061506
0.00215746
0.000824912
0.0013147
-0.00165829
-0.000906231
0.000845513
-7.03961e-05
-0.000123113
0.00237839
0.000557849
0.0011321
-0.000435213
0.000650553
-0.00012646
0.00176445
-0.00105239
0.00141265
-1.05304e-05
0.000248182
0.000127533
0.00140838
0.000743347
0.000866291
0.000369548
0.000724698
-0.000867675
8.03152e-05
-0.000758967
0.00359027
0.000481794
0.00116852
0.000399884
-7.50216e-05
0.000398708
0.00396975
0.000307014
0.000378661
-6.54324e-05
-0.000452738
-0.000252134
-0.000534568
0.00033812
3.62406e-05
0.00042995
0.00154667
0.000365216
0.00150435
0.000333598
-0.00058363
-0.000189619
0.00127582
0.000160851
-0.00173879
-0.000222046
0.000905787
0.00133395
0.00211623
0.000582382
-0.000310323
-0.000872223
0.000341812
-0.000466691
0.000932722
0.000328523
-3.3845e-05
-1.7631e-05
0.000749022
0.000327504
0.000104013
-8.19739e-05
-0.00167493
0.00187331
0.000485069
-0.000524974
0.00013075
0.00172444
0.000760428
0.00029844
-0.00130305
0.00111075
-8.20751e-05
0.000566455
-0.00142474
0.000743495
-5.0805e-05
0.000259933
8.71868e-05
-0.00143169
0.000196062
-0.00160958
0.000693792
-0.000312223
0.000174189
-0.000125063
-0.000402818
-0.000490245
0.000648985
-5.84368e-05
-2.3629e-05
0.000227659
0.00118536
-7.00006e-05
-0.000861555
0.000564662
-7.72679e-05
0.0004984
-4.15477e-05
5.52514e-05
-0.000997168
-0.000189349
-0.00225099
6.11394e-05
-0.00023393
-0.000233929
-0.000267794
-0.000492388
0.000409435
-0.000271295
-3.76249e-05
0.000549482
0.0014291
-0.000272997
0.000349185
0.000276785
0.000588323
-0.000119199
0.00034318
-0.00022966
0.00106726
0.000768988
-4.94596e-05
-0.00023843
-0.000966049
0.00107331
0.000412169
0.000451756
2.11737e-05
0.0027875
8.55816e-05
0.000411768
-0.000385867
0.0010338
0.00084777
0.00116596
0.000348328
-0.000341495
0.000124651
-0.000428575
-0.000206984
0.000613546
0.000425503
0.00038872
0.00249185
-0.00129435
0.000472162
-0.00173621
0.000159767
-0.000918682
-8.51802e-05
-0.0009627
0.000644146
-0.000490703
-0.000624325
0.000118242
-0.000567956
0.000784214
0.000272301
-0.000179708
0.000481731
-0.000978468
-0.00047124
0.00309206
0.000661578
0.000165206
0.000181342
0.000833754
0.000484738
1.24035e-07
0.000691091
0.000801387
0.00278914
0.000979599
0.000216761
0.000437225
0.0012272
0.00101599
-0.000186267
0.000180185
0.000851408
-0.000143406
1.40367e-06
-0.000516696
0.00123035
0.00146338
-0.000745762
-0.00106291
0.000362921
-0.0008178
0.00115317
8.1474e-06
-0.000273805
-0.000562035
0.000599844
0.000620951
0.00100732
0.00141145
0.000890021
-0.00189892
0.000643586
-0.000188912
0.000492862
-0.000353102
0.0022525
0.000688305
9.0587e-05
-0.000192438
-2.45717e-05
-9.42532e-05
0.000997767
0.000567976
0.00169775
2.08102e-05
0.000203314
-8.28162e-05
0.000982359
-0.000881113
0.000712925
-0.000281879
-0.000320512
0.00161121
-0.000275491
-0.000631259
-1.78098e-05
-0.00095151
-0.000433509
-0.000458485
0.000371591
-0.000722997
-0.000389077
-0.00124286
-0.000126449
-0.000481762
0.000232204
