0.00182737
0.00253985
0.00439714
-0.00107187
-0.0038381
0.00617926
-0.00241711
0.000416895
-0.00734248
-0.000754885
0.00316891
-0.000178417
-0.00831307
0.00998243
-0.00472391
0.00573791
0.0021124
-0.0040223
-0.00503489
0.00246905
0.00799014
0.0021315
0.000157624
-0.0127378
-0.00424221
0.00428563
-0.00303653
0.00514063
0.00513146
0.00335724
-0.00761211
0.0041238
-0.00459633
-0.00156843
0.00149156
-0.000728664
-0.00214564
-0.00801893
0.00725604
0.00898524
-0.000518687
0.00292313
-0.00564058
-0.00286979
-0.00724466
0.00119721
0.000449025
-0.00207734
0.00107976
-0.00381285
-0.00557222
0.0120696
0.000602446
0.00251021
0.000675532
0.00632708
-0.00584244
0.000908997
-0.0126865
0.00463389
0.000750674
-0.0038934
0.00143544
-0.00139692
-0.0031839
-0.00277066
-0.00684497
0.00120814
-0.00144959
-0.000430214
0.00569793
0.011878
-0.00403131
0.00201319
0.00533993
-0.00215707
-0.000592713
0.00107516
-0.00512598
0.00403184
-0.00147838
0.012597
-0.00599655
0.00207643
-4.29842e-05
0.00163806
0.0104967
-0.000207996
0.00374372
0.0138624
-0.000106665
0.00848112
-0.000412512
-0.00273946
0.00187045
0.00554681
-0.00139451
0.00293733
-4.53717e-05
0.000619511
-0.0108909
0.00498316
-0.00162863
0.0048061
-0.000524084
-0.000623185
0.0093514
-0.000532828
0.00206941
0.00900634
0.000448886
0.00490895
-0.00202469
0.00511573
-0.00502909
-0.00572486
-0.00220854
0.000891566
-0.00525466
0.0102663
-0.00289672
0.00148109
-0.0054811
0.00169455
0.000187772
0.00495547
0.000150164
-0.00345256
-0.000530125
0.00855278
-0.0108005
-0.00246773
0.00190578
0.00831887
-0.00100904
-0.00933048
-0.00288683
0.00888369
-0.000236122
-0.00547883
-0.000194655
-0.00355508
-0.0114951
-0.00437333
0.00123242
-0.00390146
0.00594797
-0.00249054
-0.000227671
-0.00124475
-0.00738398
0.00517151
0.0029217
0.00780483
0.00161782
0.00579295
0.0020563
0.00312253
0.00291212
-0.0028976
0.00189915
0.00395609
-0.00180408
-0.00214713
-0.00644242
-0.00597562
-0.00250317
-0.0166226
0.00236714
0.00030185
0.00686118
-0.00313845
-0.00993249
0.00236095
-0.000707129
0.00209772
0.000861203
-0.0028097
-0.00212813
-0.00160905
0.00237842
0.00368184
0.00950802
-0.00851093
0.00776516
0.0068732
-0.00384898
0.00336623
0.00046743
-0.000194276
0.00609701
0.00124337
0.0105025
-0.00547601
-0.00520388
0.000585831
-0.00822266
0.00588063
0.00103143
-0.00850714
-0.00381625
0.00762006
-0.00598185
-0.00823506
-0.00427086
0.00479108
-0.00278636
0.00949407
0.000451021
0.00472463
0.00854311
0.00320612
0.0138993
-0.00391422
0.00341601
-0.000347114
-0.00147884
-0.00521547
0.00320923
-0.00141983
-0.00451562
0.012145
-0.00407842
0.00291451
-0.000684088
0.0116184
-0.00127634
-0.000687044
0.0115229
-0.00106102
0.00136567
0.00274782
-0.00622181
-0.00154391
-0.00839846
0.00302743
0.00173281
-0.00156202
-0.00446644
0.0070092
0.00470364
-0.00207138
-0.00178831
-0.00545806
-0.00370636
0.00181528
-0.00255457
-0.00166553
0.00279324
0.00178783
-0.00544949
0.00554515
-0.000248453
-0.00162322
-0.00853324
0.00875752
-0.00355916
0.000116741
0.0107759
-0.0144733
0.00220597
0.000192435
-0.00165148
0.000168034
0.00384786
-0.00600859
-0.00201918
-0.00283179
0.00314765
0.00485611
-0.000925871
-2.44224e-05
-0.00343388
-0.00174945
-0.00710848
-0.00240867
-0.000735483
-0.000214413
0.00235115
-0.00102942
-0.000187156
0.00831045
-0.00231908
-0.00394793
-0.00165545
-0.00208955
-0.00569193
-0.00422329
-0.00356469
0.0146423
-0.00377769
-0.00911517
-0.00629556
1.2194e-05
0.0105751
-0.00350843
0.00298352
0.00659596
-0.00705951
-0.00573277
-0.00629801
-0.000310225
0.00735309
0.00143301
-0.00348756
0.0139099
0.0051825
-0.000506362
-0.00410577
0.00315353
-0.00127794
-0.00175422
0.000182253
-0.00665372
-0.00389232
-0.00650219
-0.00719158
-0.00523206
-0.00296825
-0.00574612
0.00450671
-0.00833383
-0.00487802
2.56253e-05
0.00185008
-0.00133615
-0.00730317
-0.00440493
-0.00334606
0.00149769
-0.00489961
0.00831593
-0.00694776
-0.00534564
-0.000776251
-0.00316002
-0.000302785
-0.0122381
-0.00442721
0.00589579
0.00645631
0.00533315
-0.00856416
0.00117512
-0.00490314
0.00748879
-0.00257512
0.00573268
-0.00129389
-0.0085615
0.00218564
0.00165665
0.0015047
-0.00785056
-0.00342363
-0.00551086
-0.00700916
0.00337137
-0.00295442
0.00120093
-0.00773438
-0.00693251
-0.00595419
-0.00118589
0.0181649
0.0015282
0.00513188
0.00238712
0.00491587
-0.000100373
0.00513005
-0.000967602
-0.00080782
0.000355022
0.00344488
0.00250903
-0.00317003
-0.00499211
-0.00537608
0.00799865
0.0018649
-0.00118201
-0.00427634
0.00415906
-0.00474691
-0.00218747
-0.00652502
-0.00774454
0.00587034
0.00305619
-0.00406958
0.000228319
0.000574343
0.000280648
0.00479556
-0.00296253
-0.00420014
-0.0029592
0.00306973
0.00723634
0.0019497
0.00251274
0.00240967
-0.00578016
-0.000910902
-0.000868881
0.00172524
0.0022264
0.00645244
-0.00214603
0.000242062
-0.00487882
-0.00093634
0.00972829
0.00704403
-0.0121249
-0.000762885
-0.01006
0.000980806
0.00413775
0.00306518
-0.00503262
-0.00353419
-0.0056049
-0.00348821
-0.00568693
-0.0105622
-0.000452618
-0.00581348
0.00387812
-0.0035406
-0.00633405
0.00599223
-0.00187448
-0.00515047
0.00877458
0.00829034
-0.00188991
0.00226882
-0.0083723
-0.00318661
-0.00290234
-0.00356792
-0.00175641
0.000474644
0.00674922
0.000797843
-0.00227062
0.00612968
0.0103018
-0.00457099
-0.00190934
-0.0122765
0.00111182
0.002346
-0.00388582
0.00669673
0.00110187
0.00575534
0.00798553
5.46844e-05
0.000853175
-0.0112951
-0.00181875
0.0043512
0.000303664
-0.00053617
-0.000967315
-0.00184863
0.0076937
-0.00577704
0.00799762
-0.0015422
-0.00340529
0.00106678
0.00229692
-0.00100927
0.000385936
-0.00812262
0.000717552
0.00863753
-0.0046359
0.00610902
-0.00540147
1.76497e-06
-0.00190657
0.0019371
0.00064038
0.00159897
0.00324854
-8.52206e-05
0.00452061
0.0103831
-0.000132497
-0.00649499
0.00203442
0.000602268
0.0151856
-0.00325186
-0.00511931
-0.00526953
0.0061835
-0.00443052
-0.0033657
-0.00320111
-0.00379528
-0.00801356
0.000741493
0.0022048
0.00129293
-0.000668643
-0.00586827
-0.00436583
-0.000261558
-0.00453845
-0.0101966
0.000299893
-0.000357017
0.0124515
-0.0127523
-0.000216391
0.00393269
-0.000352587
-0.00573809
-9.38877e-05
-0.00299556
-0.00433295
-0.00856579
-0.0043178
0.00135141
-0.00260306
0.00070357
-0.00497572
0.00708319
0.00137822
0.00107175
9.33493e-05
-0.00472142
-0.0055953
0.00074868
-0.0112707
0.00841427
-0.00737794
-0.00127157
-0.00113741
0.000437669
-0.000738758
-0.00340973
0.00352087
-0.00107814
-0.00434627
0.00362314
-0.00363122
-0.00588392
-0.00272101
-0.0104738
-0.00373572
-0.000566546
-0.00491826
8.97823e-05
-0.00293117
0.001522
-0.014342
-0.00404677
0.00116092
0.00480634
0.00323001
0.00565756
-0.00159541
-0.00155216
0.00532307
-0.00440055
0.00432786
-0.00326751
-0.0089853
-0.00907942
-0.00469717
-0.009029
-0.000787417
-0.00843562
0.0029663
-0.00460678
-0.0151405
0.00788917
-0.00378043
0.0066179
-0.00184473
-0.000394288
0.00197788
0.00423731
0.00042246
0.00156521
-0.0030213
0.000285364
-0.00397971
-0.000122452
0.0136105
0.00627749
-0.00266519
-0.00147968
0.00238412
-0.00186664
0.0022382
-0.00912375
-0.00324066
-0.00639865
-0.00553112
-0.00464178
0.00389909
-0.00347461
0.000890432
-0.0103245
-0.00697003
-0.00218687
-0.0045384
0.00254267
-0.00333699
0.00181416
-0.00134196
-0.0147258
-0.00127248
-0.00232368
-0.00649238
-0.00303691
-0.0065999
-0.00124356
-0.00102141
-0.00308581
-0.000287718
0.00609624
0.00344598
-0.00976615
0.00178155
0.00285902
0.00553121
-0.00509117
-0.00201165
0.00141777
-0.00304186
-0.00146002
0.00069011
-0.0149879
-0.000164414
-0.000246891
0.00156281
-0.00520423
-0.0127577
0.00047876
0.00205139
0.00651215
-0.0048951
0.00307187
0.0031531
-0.00362134
-0.0104494
-0.0033868
-0.0129329
-0.000581233
0.000286448
-0.00700657
0.000833925
0.00271318
-0.00154666
0.00756497
-0.00508916
-0.00363809
0.0126592
0.0055739
-0.0119038
-0.00358841
-0.00428028
0.00118224
0.000881153
0.00296192
-0.00238063
-0.000380654
-0.00368839
0.000249374
-0.00497045
-0.000871359
-0.00270851
0.00102943
-0.000904109
-0.00415326
-0.000197797
-0.0032164
-0.00483067
-0.00317648
-0.00719161
-0.00361777
0.0064345
0.00252764
-0.00145491
-0.000861735
-0.000287235
-0.00159414
0.00142868
0.0093007
-0.00123797
-0.0101751
-0.00202773
0.0152177
-0.0106681
0.00168116
0.00233512
-0.00887331
-0.00178797
-0.00622365
-0.00329913
-0.000868597
-0.000614666
0.00134617
0.00110751
-0.00653514
0.00349148
0.00946987
-0.0109271
0.00239319
-0.00283878
0.00683848
0.00465844
-0.00380041
0.00108984
-0.00208262
0.000875856
0.0001491
-0.00787528
-0.00691084
-0.00213087
-0.010992
-0.00687799
-0.00185793
0.00204435
0.00110235
-0.00317173
-0.00260548
-0.0074499
0.0028059
-0.00435329
0.00955475
-0.00700303
-0.00814072
-0.000400754
-0.00201179
-0.00327822
-0.00114662
0.00329167
0.0166693
-0.00624939
-0.000905862
0.00272443
-0.00474968
-0.0034055
-0.00223465
0.00565998
-0.00788222
0.00289536
-0.000343889
-4.78375e-05
-0.00504205
-0.0035182
-0.00112618
-0.0076438
0.0016371
-0.000833545
0.00779486
-0.00417192
0.00742491
-0.00633285
-0.00126067
0.000428698
0.000810281
0.00307486
-0.00751403
-0.00254967
-0.00232303
0.00496785
-0.00376796
-0.00458896
-0.0024641
-0.00225738
0.00212033
-0.00321771
-0.00745225
0.00771018
-0.00970436
1.19738e-05
-0.0024121
-0.00428245
-0.00177738
-0.00963016
-0.00072409
-0.00624389
0.0014542
0.000667528
0.00287205
-0.00571441
0.00347378
0.00274161
0.00143823
0.00137232
0.00166952
0.00370638
0.00945117
-0.000969832
-0.00500121
-0.00738893
0.00149682
-0.00182051
0.00657896
0.00180486
0.0047096
0.00707443
-0.00051661
-0.00350226
0.00217748
-0.00594399
-0.00385965
0.0010662
-0.0049411
0.000645382
8.68187e-05
0.00106206
-0.00313037
0.000609667
-0.000499224
0.0120587
-0.00645697
0.00240328
-0.00274491
0.00762563
-0.00133716
-0.0114618
-0.00189278
-0.0052113
0.00612907
0.000446841
-0.0024558
-0.015206
-0.00533867
0.0103559
0.000688912
-0.00369234
0.00619886
-0.00217666
-0.00101541
-0.00543626
0.00182051
0.00380207
0.00690654
-0.00109587
0.000500155
0.000371014
-0.00558257
-0.00420947
-0.00678164
-0.00473159
-0.000992917
-0.0080124
0.00762061
-0.00524797
-0.00588957
0.00100379
-0.000610317
-0.00583421
-0.00705893
-0.00275653
-0.00613612
-0.00569597
-0.0103949
-0.00808155
-0.00410075
-0.00336159
0.000524902
0.000926998
-0.00190823
-0.000712814
-0.00531298
0.00353229
0.00569463
-0.000759168
-0.00179362
-0.00267962
-0.00217547
0.000416296
-0.00576481
-0.000990483
-0.00152362
-0.00779444
-0.00111619
0.00076286
0.000485189
0.0078365
0.00199925
-0.000502568
0.00952336
0.00254339
0.00320504
-0.000656591
-0.00438576
0.00402258
-0.00288823
0.0120551
0.000142257
-0.00772638
0.00163608
-0.00203454
-0.00337908
0.000996362
-0.00565589
-0.00456103
0.00744123
0.00255821
0.00640977
-0.00240326
0.000611091
0.00131768
-0.00602363
6.58864e-05
-0.00250448
-0.000982117
-0.00142713
0.00119938
0.000453275
-0.00122164
-0.00153256
-0.00341275
0.0045331
-0.00291804
0.00465859
0.00144233
0.0117942
0.00615181
-0.00561015
0.00567775
-0.00599106
0.00180874
0.00462367
0.000173115
0.00506976
-4.63099e-06
-0.00486696
0.0124796
0.00369644
-0.00504973
-0.00207255
-0.00168017
-0.00924324
0.00641529
0.000794999
-0.00245056
0.0286698
0.00559445
-0.00130139
0.0041852
-0.00307011
0.00392052
-0.000603522
0.00715361
-0.00374695
0.00366651
0.00194746
0.0103091
-0.000928851
-0.00803388
-0.00370138
0.00289371
0.00296947
0.000205998
-0.00503556
0.0028222
-0.00377856
-0.00064961
0.0010668
0.00258929
-0.00814053
0.0049744
0.000453435
0.000524705
-0.00379397
0.000865226
0.00140336
-0.00520985
0.00115662
-0.0050002
-0.0120995
-0.00203219
0.00537767
-0.000948361
3.80764e-05
-0.00523488
0.000743012
-0.0140503
0.000217848
0.000719715
0.00155174
-0.00433872
-0.00148721
-0.00233615
0.0016433
-0.00311922
0.00198589
0.00270579
0.00293563
0.00167287
-0.00257765
0.00302991
-0.00321865
0.00311833
-0.00123608
0.0023625
-0.00135383
-0.0021703
0.00219019
0.004101
-0.00471067
0.00143123
0.000700156
0.0127064
-0.000889061
0.000894079
0.00127319
-7.56422e-05
-0.00146557
0.00429408
-0.00430915
0.0180605
-0.00139329
0.00121998
0.00272187
0.00143468
-0.00509881
0.00186699
0.00170066
-0.00106347
-0.000783189
-0.00422506
-0.00747161
0.00435448
0.0053653
-0.00290274
-0.00393395
-0.000958879
0.000812055
-0.0024717
-0.0017621
-0.00769876
0.000875807
0.000429517
0.00438229
-0.00968802
0.00260928
0.00357398
0.00297166
-0.00585596
-0.00312071
0.00153198
0.00794132
-0.000377556
-0.000265282
8.4297e-05
0.00430834
0.00555337
-0.00293369
-0.00384858
-0.00578496
-0.00770456
-0.00658788
-0.00526112
0.00307472
-0.000659604
0.00880008
0.00147824
-0.00573809
-0.000717289
-0.000703469
0.00445952
0.000111475
-0.00359395
-0.00315348
0.00843105
-0.00537612
-0.0046632
-0.00912733
-0.00420582
0.00311079
0.00109929
-0.00642632
-0.00496688
0.0119619
-0.00236694
0.00782418
-0.000615557
-0.0116294
-0.000434838
-0.00264441
-0.0126869
0.00388569
0.010173
-0.00532583
0.00669653
0.00291607
-0.00107314
-0.000951935
0.00439972
-0.0111334
-0.00390828
0.00397966
0.00824159
-0.0099683
-0.00114323
0.00541214
-0.00101536
0.00494949
-0.000605063
0.00266995
0.00265144
0.00229068
-0.000496186
-0.00137287
0.00585284
-0.00506929
-0.00761433
0.000582343
-0.00847268
-0.00345317
-0.000405121
-0.00296199
-0.000239602
0.00390642
-0.00199691
0.00672153
-0.00952218
0.000660479
0.00663197
-0.00312533
-2.26037e-05
-0.00884108
0.00457917
0.00293891
0.00442207
0.00136588
-0.00076287
-0.00410785
-0.000868754
-0.0033807
-0.00608504
0.0150758
-0.000254934
0.016482
-0.00860107
-0.00629729
-0.00241788
-0.00159594
0.0130538
0.00399274
0.00591066
-0.00640036
0.00171984
-0.00520314
0.00105533
-0.000985859
-0.00307344
0.00482982
0.00593923
-0.00067066
-0.00701474
-0.00487218
-0.0038786
0.0080724
0.00075209
0.00475649
0.00114204
-0.00314182
0.00607834
0.00472063
-0.000890172
-0.000353218
0.00612196
0.00552367
0.00946647
0.00111954
-0.00882736
-0.000495881
-0.00201443
-0.00412547
-0.00257925
0.00411195
-0.00425525
-0.00124854
-0.000677912
-0.0199625
-0.00721646
-0.00221955
0.00493492
0.00514958
-0.00707826
-0.00575296
-0.00281626
0.00638121
0.00209867
-0.00687018
-0.00791296
-0.00360133
-0.00338331
-0.00554776
-0.00403181
0.00197511
-0.00268401
-0.00196976
-0.000217058
0.00193294
0.00724256
0.00933135
-0.00487665
-0.00175585
8.12828e-05
0.000406372
0.000128696
0.00153738
-0.00360431
-0.000420026
0.00103224
-0.00177117
-0.0127915
0.00101843
-0.00829352
-0.00257882
0.0044935
0.00302842
-0.00617998
0.00248845
0.00105388
-0.00214246
0.00379393
0.00338181
-0.00271747
0.0104294
0.00140873
0.000416984
-0.00383291
-0.00161531
0.000481871
-0.00621042
0.00229811
-0.00412206
0.00351624
-0.00256732
0.00582155
-0.00457544
-0.0034641
-0.0102541
0.00568004
-0.00727919
-0.00494204
0.0121478
0.00132488
-0.0015095
-0.00572948
-0.00889122
-0.00253492
-0.0038857
-0.00100767
0.00463752
-0.00269603
-0.00867613
-0.00767506
-0.00274563
0.00521991
-0.000621901
0.00754988
-0.000220041
-0.00226345
0.000697165
-0.000154156
-0.000857701
-0.00275197
-0.00621779
-0.00645856
-0.00788592
-0.00260828
-7.38197e-05
0.000775508
0.00385309
0.0037406
0.00133572
-0.00412649
0.000159136
0.000710395
-0.00507399
-0.00817591
0.00280307
0.00283549
0.000222463
-0.000302397
0.00043548
0.00908916
-0.00066951
-0.000353985
0.00723583
0.00183036
0.00569642
-0.00470338
0.00673117
-0.0114774
-0.00322102
0.0113954
-0.000808819
-3.29992e-05
0.000355267
-0.000948944
-0.00617823
-0.00440545
0.00933644
-0.00175938
-0.00334699
-0.000849797
-0.0043303
-0.00576883
0.00311621
-0.00921957
-0.00374986
-0.00769542
-0.000843451
0.00595788
-0.00336478
0.00339823
0.00496932
-0.00721131
-0.00359251
8.24186e-05
-0.00364418
-0.00532834
-0.000462568
0.000693613
-0.00382028
-0.000192096
0.00564035
-0.00197277
-0.00238041
0.00299729
0.00476734
0.00714238
-0.000660394
0.00296976
-0.00882835
0.000278389
-0.0012606
0.00231413
-0.00428556
-0.00217485
-0.000163597
-0.00273724
-0.012682
-0.00223295
-0.000484588
-0.00564712
-0.00233633
0.00174442
0.0061234
0.00144311
0.000201229
-0.00037311
0.00765122
-0.00447789
-0.00409368
0.00411245
-0.00138993
-0.00135686
-0.000318611
-0.00191517
-0.0110743
-0.0134663
-0.00805401
-0.0132751
0.000692729
-0.0020211
-0.00203803
0.00378443
-0.00534748
-0.0056368
-0.000677295
-0.00599559
0.0135747
0.00788841
-0.00264001
-0.00162793
-0.0034881
0.0117983
0.00187308
0.00722257
0.000627276
-0.0090887
0.00195028
-0.0139074
-0.00343912
-0.00165092
0.00865656
-0.0033937
0.00141191
-0.00313645
0.000619096
-0.00297097
-0.00258826
-0.00241573
-0.00310585
-0.000675519
0.00154552
0.00491104
0.00589349
-0.000411253
-0.00257166
0.00904989
0.00455101
-0.00500408
-0.010551
-0.0038142
-0.0117554
-0.00649596
0.00518277
-0.00385631
0.0089819
-0.00744904
-0.00369833
0.00084897
0.000702838
-0.010543
-0.00181235
-0.00402385
-0.00378136
0.00104978
-0.00134742
-0.00400209
-0.00706511
0.00259077
0.00278824
0.00140943
0.0125103
0.00249899
-0.00396673
0.00213736
0.00441564
0.0025103
0.000155518
-0.00160757
-0.0109299
-0.00269539
0.00438169
-0.00483945
-0.00542073
0.000105934
0.00421219
0.00433853
0.00421069
0.000184005
-0.0133972
0.00406187
-0.00291729
0.000176489
0.00375661
9.19108e-06
-0.00127168
0.00653058
-0.00118153
0.0130267
-0.000778825
0.00489428
-0.000743955
-0.0045504
0.00112621
-0.0072021
-0.00630071
-0.00237846
-0.00610268
-0.0108884
0.00786901
-0.00457881
-0.00122104
0.0072937
0.00252892
0.00279022
0.00139946
-0.00192847
-0.000175657
-0.0046539
-0.00561962
-0.000253851
0.00893612
0.00356054
0.00909546
-0.00531716
0.00129772
-0.0036529
-0.00378555
-0.00434777
0.000126536
-0.00128306
-0.00212175
-0.000985732
0.00227146
-0.00196869
-0.00256782
-0.0030165
0.00608678
-0.00442039
-0.00407796
0.00847338
0.00100271
-0.000372629
0.000110199
-0.00015349
0.00468329
-0.00147467
-0.00512999
-0.00116087
-0.00237885
-0.00948059
0.000605886
-0.00285616
-0.00141806
0.00328074
0.00219484
-0.00385491
-0.00238433
-0.00117451
-0.00244564
-0.00688091
-0.000242113
0.00334956
-0.000770355
0.00128579
2.94826e-05
0.00396576
-0.00402599
0.0056697
-0.0142028
0.00139288
0.00789159
-0.00216871
-0.000210996
0.00501885
0.000763685
-0.000132283
-0.000941518
-0.002591
0.000701752
-0.00239914
-0.00531579
0.00294604
0.000600013
-0.00108088
0.00638466
-0.00830604
-0.00137031
-0.00285108
-0.00232211
-0.00724819
0.00113823
0.00167612
-0.00431974
0.00439338
0.00941415
0.000322501
-0.00444155
0.00916404
0.00230693
-0.00659081
-0.000185768
-0.00187476
0.00477848
0.00944622
0.000144937
0.000965353
0.00922179
-0.00364042
0.00226255
-0.00600797
0.00119322
0.00554388
0.00113929
0.000884193
-0.00524541
-0.000393824
-0.00236411
0.0044875
-0.00191708
0.00061311
0.0016835
0.00109598
-0.00471614
-0.0104972
0.00771466
0.00155745
0.0114272
0.00178295
0.0136171
0.00680836
0.00151856
0.00264281
0.00140276
0.00122561
-0.0034096
0.00344952
-0.00417815
-0.0025322
0.00304231
-0.0144198
-0.000990641
0.00236354
-0.00153608
-0.0127955
0.00186169
-0.00183322
-0.00231756
0.00476856
0.000968463
8.18553e-05
-0.0017983
0.00632439
0.00019322
-0.0138835
-0.000605623
-0.00319004
-0.00198938
-0.00294624
-0.0105025
-0.00126448
0.0013056
-0.00314837
0.0017485
-0.00265421
-0.00174243
0.00495867
0.00748507
-0.0024797
-0.0117377
-0.00192743
-0.000809993
-0.00101944
0.0111141
-0.000600871
-0.00425331
0.00442329
0.00048072
0.00604294
-0.00333674
0.00824797
0.0017774
-0.011679
1.7814e-05
-0.00884909
-0.00320254
-0.00223652
-0.00723985
-0.00607758
0.00563945
0.0060548
0.00389008
0.000706523
-0.0037054
0.00603273
0.000287611
-0.000433465
-0.00223467
0.00679209
-0.000874614
-0.00339198
7.18665e-05
-0.00428751
-0.00428171
-0.00654109
-0.00195207
0.00249884
-0.00103693
0.00451508
-0.0020436
0.000175
0.00443716
0.00142971
-0.00183742
-0.00586419
0.00308869
0.00117822
0.0026289
-0.00803545
0.0021301
-0.00196819
-0.00554789
-0.00207915
-0.0099057
-0.00182044
-0.0106174
0.00440058
6.72922e-05
0.00898318
-0.000219536
-0.00262163
0.00247726
-0.00335412
0.00123103
-0.00563986
0.0103686
-0.000169607
0.00197365
0.00132233
0.000249491
-0.00619634
-0.0118301
-0.00128171
0.00230967
0.00326884
0.00266764
0.0030648
-0.000360467
-0.00105907
9.46927e-05
-0.00968901
0.0121776
0.000731608
0.00311232
-0.00077761
0.00772169
-0.00753252
0.00517065
-0.00042625
-0.00059361
0.00202491
-0.000275115
-0.00557713
9.60073e-05
-0.00424985
-0.00320583
0.00189555
-0.00231377
-0.00473605
-0.00231061
-0.0039544
-0.00673021
0.00152951
0.0112676
0.00124641
-0.00058389
0.00187906
-0.00147255
-0.00482427
0.00369491
-0.00108372
-0.00175465
-0.00650448
-0.001284
0.00191711
0.000483078
-0.00485998
0.00226913
-0.00291892
-0.002621
0.00638326
0.00153123
-0.00323076
-0.00670866
-0.00373104
0.000278061
-0.00320012
0.00110001
-0.00667769
0.000637892
0.00372991
0.000146037
-0.000849755
0.00386833
-0.00494542
-0.00297133
-0.00311878
0.00114497
0.000729307
-0.00286069
0.00374699
-0.00484012
0.0057309
0.00459498
-0.00161221
-0.00331573
0.000931339
-0.00295365
0.00189347
0.000349875
-0.00180949
0.00182486
-0.00612387
0.00495281
0.00136209
0.00811904
0.00200644
-0.00363615
0.000209688
-0.00230356
-0.00211271
0.0075136
0.00417358
0.00187611
0.00225689
-0.00029893
-0.00956386
0.000453134
-0.00337828
0.00422237
0.00109148
-0.0036765
-0.00630183
0.00966486
-0.0103177
-0.0041117
-0.00508347
0.0114455
0.00447669
-0.00690351
-0.000713985
0.000759772
0.000484241
-0.00260158
0.00105832
0.00321963
0.0121085
0.00311296
-0.00115464
-0.00828447
-0.00618114
0.00171553
0.00117177
-0.00573126
-0.00506699
0.00542381
-0.00384819
0.0010376
0.00558384
-0.00499322
0.00607619
0.00213988
0.00275438
0.00534836
0.00327988
-0.00396744
-0.00159922
0.00427435
-0.00152182
-0.00243022
-0.00188212
-0.000970814
-0.00272128
-0.00686927
-0.0090524
0.00170999
0.000702049
-0.00579774
-0.00243909
-0.00261527
0.0165711
0.00300402
0.000249136
0.00474142
-0.00512317
-0.00296311
-0.00359341
-0.002241
0.000986911
-0.00150902
-0.00685416
-0.00468041
-0.000608092
0.00302271
0.00365132
-0.00197064
-0.000813644
-0.00774808
0.011922
-0.00162406
0.00182453
-0.00682779
-0.00652555
0.000738488
-0.00575361
0.00272542
0.00564063
-0.00841154
0.00187587
-0.00173903
-0.00226599
0.000253622
0.000367234
7.3422e-05
0.000581864
-0.00213948
-0.00414295
0.00456101
-0.00383119
0.000198834
0.000139182
-0.00145887
0.00295607
0.00149893
-0.00375013
-0.000900227
0.00103443
-0.00762736
0.00129537
0.000294069
-0.00169822
0.00458016
-0.00576321
0.00150201
0.00271345
0.00587419
-0.00278844
-0.00789245
0.00647809
0.00224913
0.00425166
-0.00379811
-0.00656363
-0.00145814
0.000359097
-0.0019583
-0.000966348
-5.81066e-05
-0.00792615
-0.00912601
-0.00365367
0.00233362
0.00219621
-0.000444015
-0.00133618
-0.0114621
0.00128368
-0.00236473
-0.00255514
0.00157441
0.000130401
0.00315046
-0.00195937
-0.000544615
-0.00162239
-0.00746886
0.00782827
-0.000181432
0.00166851
-0.0024708
-0.00775797
-0.00715721
0.00978801
0.0225466
-0.00415455
-0.00485118
-0.00646024
0.00475658
-0.00242128
-0.00552902
0.00591085
-0.00372655
-0.000780052
-0.00409919
0.00218041
-0.0018282
0.00191277
0.00486126
0.000331714
-0.00116483
0.0109314
-0.00162769
-9.50622e-05
0.0082193
0.00713106
-0.00929935
-0.00223912
-0.000638028
-0.0104258
0.00203646
-0.00296211
0.000318227
-0.00691214
-0.00696365
-0.00197391
0.00898651
-1.76163e-05
-0.00250163
0.000270252
0.00112779
-0.00980977
-0.000528919
0.00520837
-0.00298491
0.000753423
-0.00326095
-0.00349297
-0.00352603
0.0170667
-0.00790497
-0.00225388
-0.00329636
-0.00132649
-0.00422969
0.0142472
0.00236514
0.00337635
0.00375394
0.00670061
0.00331348
-0.00838581
-0.00392414
-0.00231494
-0.000804356
-0.00119938
0.00218102
0.000276967
-0.00641376
-0.00248258
0.0057227
0.00181933
0.00359047
-0.00539025
-0.000981619
-0.00748577
0.00542365
0.0004387
-0.00285179
-0.00548663
-0.000562562
0.00516907
-0.00243972
0.000879654
-0.00260851
-0.00396086
-0.0042105
-0.000822564
0.00478597
0.0139794
-0.00558912
-0.0116818
0.00387896
0.000821831
0.00112654
0.00503454
-0.00602905
0.00254424
0.000395877
-0.000800121
0.00561563
-0.00778685
-0.00402163
0.0104635
-0.00575452
0.00200266
-0.0050099
0.00204996
-0.00389711
0.00128378
0.00211172
-0.000873657
0.00359174
0.00761837
0.00163158
0.00101455
0.000347967
-0.00892244
-0.020051
0.00832393
0.00631549
0.000176678
-0.0021919
0.000227817
0.00671965
0.000603679
-0.00871024
-0.00202778
-0.00261905
-0.00193636
0.00500677
-0.000670097
0.00456078
3.57285e-05
0.00333102
-0.00782001
-0.0018058
-0.00300397
0.002726
0.00302073
0.000212221
-0.00349084
-0.00302236
-0.00736538
0.00216665
0.00399418
-0.000762676
-0.00256198
-0.0127452
-0.00262761
-0.00234514
-0.00795924
0.00228531
-0.00566575
-0.00219404
0.00491467
-0.00200918
-0.00446136
-0.00118281
-0.00102475
0.000340932
-0.00459611
-0.00142219
0.00103258
-0.0145472
0.0041528
-0.000942968
0.0184203
-0.00699178
-0.0035824
-0.00224515
0.0112479
-0.0111067
-0.0032483
0.00343455
0.00282919
-0.00119023
-0.00447012
0.00319885
0.0135735
-0.00785563
0.00469597
-0.00294108
0.0026908
-0.000678538
-0.0117262
-0.00669234
0.000516276
0.00292671
0.000297205
0.00584679
0.00010586
0.00558789
-0.0030389
-0.0117749
-0.00196807
0.0014857
0.0131955
-0.0124556
-0.00292738
-0.0013992
-6.55303e-05
0.00260659
0.00775152
0.00187555
-0.00240267
-0.000970688
-0.00867782
0.00309828
0.0111634
-0.000440196
0.00196938
-0.00606658
0.0183707
-0.00217593
0.00578885
0.00503564
-8.40802e-05
-0.00161562
-0.00286692
-0.00260395
1.91416e-05
-0.000174514
-0.00178947
0.000673913
-0.00988033
-0.00431535
-0.00407628
-0.000437306
-0.0077098
0.00157468
0.0183792
0.00657954
-0.00292725
-0.00175824
0.000763359
0.00257224
-0.00154287
0.00661904
0.00660417
-0.00239679
-0.00199118
0.00497725
-0.0162188
0.00336465
-0.0050523
-0.00253143
0.0200038
-0.00774716
-0.00232046
9.85729e-05
0.010226
-0.00211562
0.0115337
-0.0153501
0.00702373
-7.59869e-05
-0.00127411
0.015731
-0.00757937
-0.00431454
-0.000566243
-0.000584034
0.0181018
0.000863901
-0.00349139
0.00230268
-0.00908237
-0.000785659
0.00407345
0.000563153
-0.00466091
0.00457905
0.00141998
-0.00456832
-0.00267904
0.00738375
-0.00830225
-0.00145685
-0.0125499
0.00531104
-0.00971532
0.0132653
-0.00727682
0.00691672
0.0067073
0.0108456
-0.000689878
0.0022586
-0.00290938
0.00355185
-0.000995971
-0.00554612
0.00191622
0.0175933
-0.00605135
0.00190745
0.00821609
0.00520074
0.00576764
0.0134757
0.00123541
-0.00405264
0.0114404
0.0020722
-0.001861
0.0052926
-0.00774533
-0.000963737
0.0232014
0.00508219
0.00268792
0.00803854
-0.00579908
-0.00186398
-0.00407839
0.0026746
-0.00741517
-0.000211435
0.00562762
0.0121436
0.00226491
-0.00474114
0.00361592
-0.00794
-0.00297619
-0.000267984
-0.00215324
0.00713786
0.00425015
-0.00539719
0.0014608
-0.00861169
-0.00600365
-0.0064074
0.000840904
-0.00121482
0.00240826
-0.00252293
-0.00233027
-0.00620777
-0.00818135
0.00245733
0.000623667
-0.00129123
0.00432618
0.00835162
-0.00649453
0.00155706
0.00146778
-0.00249352
0.00285392
-0.000994256
-0.00138544
0.00208006
0.00154053
-0.00147192
-0.00358057
0.00349066
0.00350304
-0.00242289
-0.00345983
0.000968389
0.00223307
0.0299145
-0.00442012
-0.00634729
-0.00783327
-0.0117338
-0.0033163
-0.00913775
-0.00965667
0.0011593
0.00265812
0.0182729
-0.000218035
-0.00197651
-0.000134193
-0.00224227
0.00812237
-0.00284078
-0.0015885
0.00557497
0.00774102
-0.00111153
0.00103261
0.00683449
-0.00142716
-0.023416
0.0258573
-0.0277427
0.0036173
-0.0057638
0.00553304
-0.000206533
0.00415178
0.00645653
-0.00287819
-0.00332919
-0.00238684
-0.00695321
0.00210593
-0.00488924
0.0034965
-0.00170026
-0.00278288
-0.0119831
-0.006126
0.00279327
-0.00792038
-0.0068574
0.0163807
-0.00162243
-0.0040209
-0.00595627
-0.000735001
-0.00645482
-0.00149297
0.0185568
-0.00192733
-0.00506336
-0.00772187
-0.00595592
-0.00541584
0.00367676
0.00531335
-0.00288668
0.0139437
-0.007439
0.000675139
0.00571641
0.00834102
-0.00467971
-0.00528639
0.00149704
-0.00520621
-0.00626572
0.0106501
0.0002079
-0.00572277
0.0026274
0.00186019
-0.00560998
-0.00475328
0.000217488
0.00297553
0.00382949
0.00475455
-0.000792514
0.00649457
-0.000614273
-0.00276176
-0.0103069
0.00331683
0.00118955
-0.0104568
0.000465911
-0.00136147
-0.00421325
0.00282572
-0.00236854
0.00788637
-0.00208707
0.0079174
0.00254472
-0.00186016
-0.00372443
-0.00244481
0.00307722
0.00276344
0.00425612
0.00458241
-0.000691952
-0.00187901
-0.0036299
0.0112944
0.00181378
0.00409634
-0.00718714
0.00490575
0.00632727
0.00108636
-0.00611659
0.00244499
0.0133677
-0.00463345
0.000195219
0.0117786
0.0079601
0.000809637
-0.00182071
-0.00470019
-0.00573794
-0.0081731
-0.000498509
0.00172163
-0.00252721
0.000361786
0.000782131
0.00134465
0.0109997
-3.82032e-05
-0.00402445
0.00767759
0.00630042
0.00650804
-0.00358012
-0.00155275
-0.00217273
-0.00699405
0.000824277
-0.00105747
-0.000917341
0.00379939
0.00103224
-0.00013363
-0.00344598
-0.00180753
-0.00347561
0.00920934
0.00188422
-0.00215746
0.013537
-0.00637817
-0.00297032
-0.00184786
-0.000803406
-0.00832969
-0.00531889
-0.00897115
-0.00852617
-0.00234607
0.00305219
-0.000998663
-0.00014722
-0.00795461
-0.0101403
-0.00287741
0.00508666
0.0064634
0.0130093
-0.00914604
-0.00894589
0.000196156
-0.00196622
-0.00364009
0.00174383
0.00157184
0.00229436
-0.00138592
-0.00981768
7.02777e-05
0.00574579
-0.00746708
-0.00504409
-0.00581432
-0.00128595
-0.010997
-0.00238074
-0.00419868
-0.00705056
0.000232023
0.00998365
-0.00158168
0.000740826
-0.00466859
-0.00247993
-0.00726849
-0.00661901
-0.00242205
0.000988297
-0.00157919
0.00746339
0.00321234
0.00861002
-0.00121168
-0.00711331
-0.00929989
0.00479916
-0.00317115
-0.00272677
0.000188169
-0.00209356
-0.00306768
0.00491326
0.00304816
-0.000853901
-0.000711414
-0.000152153
-0.00263398
-0.0021731
-0.000449501
0.00138325
-0.0113193
0.000782139
-0.00133411
-0.00500066
-0.00371956
0.0107646
0.0023645
0.000117664
0.00499247
-0.00343477
-0.00575987
-0.0012452
-0.00630868
-0.000169905
-0.00587674
0.00514096
-0.00474511
-0.00563015
0.00592592
-0.00751444
0.0070329
-0.0132321
0.00119859
0.0040687
-0.00172244
0.00409993
0.00195771
-0.00554953
0.00198309
-0.00525255
-0.00245749
0.00374983
0.000256055
-0.00250489
-0.00388861
-0.000328223
0.00736985
-0.00487623
-0.00326728
0.00463871
0.0044563
-0.00322214
-0.00142481
-0.00378934
0.00117629
0.00580392
0.0180601
-0.00113267
-0.0025721
-0.00756937
0.00305743
-0.00228684
0.00415395
-0.00621597
-0.00176289
0.00328982
-1.979e-05
0.0030271
-0.00334726
0.000571651
0.000397541
-0.00493841
-0.00452872
-0.00150929
-0.00189943
-0.0010042
0.00279872
-0.000783047
0.00331606
0.0117503
-0.0121696
-0.00599358
0.00119845
-0.00561758
0.00323911
-0.00520679
-0.000208153
-0.00356285
0.000630026
-0.000751961
0.000676961
0.00143673
0.00107211
0.000398417
-0.00597109
-0.00297759
0.0104753
-0.000923927
-0.00195746
0.00528094
-0.0179566
0.00345875
-0.00113083
-0.00412551
-0.0055614
-0.00374507
0.00236975
0.000177236
-0.00499552
-0.0035298
-0.00309094
-0.000954674
0.00982283
0.00273604
0.00784624
-0.000103785
0.000364819
-6.50287e-05
0.000261959
-0.00141372
-0.00187651
-0.00385624
-0.00185606
-0.0094674
-0.00182098
0.00531021
-0.000811712
0.00316759
-0.0045619
-0.00252456
0.00371308
-0.000850959
-0.0017249
-0.00428906
-0.00527549
-0.000598232
-0.00237732
-0.00888976
0.00639908
0.00310954
-0.00231486
-0.0033975
0.000680828
-0.0136209
-0.00772534
-0.00190097
-0.00806196
7.67986e-05
0.00624835
0.00599435
-0.00683123
0.000364986
-0.00159669
-0.00630001
-0.00314801
-0.00458535
-0.00108742
-0.00147046
-0.00502099
-0.00194015
0.00513251
-0.00371736
-0.00334233
-0.00973237
-0.00409899
0.00433668
-0.00168128
0.00714716
0.00508117
0.000576937
0.000813068
0.000339489
-0.000979338
-0.00345426
-0.00315919
0.00163379
-0.00738432
0.00635585
0.00297664
-0.00521412
0.00181946
0.0041745
-0.000874956
-0.00258637
-0.00406085
0.000162838
0.00282321
0.0169077
-0.00331316
0.00514779
0.000546515
-0.00691128
-0.00235256
0.00458224
-0.00208441
-0.00741303
-0.00297271
0.00422795
0.00564715
-0.00220635
0.00503921
-0.00275309
-0.0034138
-0.00746729
-0.00270012
-0.00349272
0.00104808
0.00527731
-0.00516143
-0.000924788
-0.00734236
0.00943434
-0.00274279
-0.0044883
-0.00104065
-0.000545865
0.000108095
0.0012007
0.000263876
0.00197212
0.0108687
0.00411077
-0.0119949
0.000745583
0.00337906
-0.00547506
0.000402755
-0.00444155
-0.00979813
0.00382013
-0.0015867
-0.00373325
0.000882571
0.000583108
-0.000299044
-0.00496788
0.00272406
0.00440506
-0.0033459
0.00290108
0.00278394
0.00411919
-0.000378692
-0.00508528
-0.000500291
-0.00173094
-0.000614489
-0.00650979
-0.00336159
0.00405157
-0.00195144
-0.00452714
-0.00716097
6.06005e-05
0.00238662
-0.000935836
0.0156629
-0.00931034
-0.00438796
0.00751319
0.0027521
0.00358519
0.0155802
0.0114642
0.000949252
-0.00902015
-0.00387224
0.0045902
0.00273348
-0.00183522
-0.000564378
0.0013155
0.000737813
0.00267393
-0.000563329
0.00788282
-0.00310164
-0.00224482
0.000240947
0.000779609
0.000677041
0.0132696
-5.87941e-05
0.00134442
0.00717377
-0.00608156
-0.00350076
-0.00475098
-0.00366407
0.00600456
0.0020901
0.00523893
-0.00686642
0.00311018
0.00716412
0.000121347
0.00114088
-0.00277275
-0.00321
-0.000530613
0.00225863
-0.000879449
-0.0066407
-0.00375854
0.00107727
0.000542226
0.00063601
-0.00229555
-0.000650231
-0.00139048
0.00159222
0.000346828
-0.0109651
-0.00889734
0.00381956
0.00376892
0.00343743
0.000363667
-0.00387613
-0.00642742
-0.00532674
-0.00035242
-0.00286907
-0.00124248
0.00164881
-0.000945338
-0.000706592
0.00173245
0.00170059
0.00342043
-0.00842862
4.72131e-06
0.00155993
-0.00159566
0.00296754
0.00429665
0.00510927
-0.000602274
0.000197647
-0.0069212
0.00406864
-0.00369449
-0.00739109
-0.000610278
-0.00105899
0.000675211
0.00128004
0.000610655
-0.00269073
0.00844797
-0.000721789
-0.00752281
-0.00215459
-0.00333512
0.00702618
-0.00597114
-0.00593047
0.00401089
0.00585272
0.00120736
-0.000585843
-0.00249626
0.00111071
0.00140278
-0.00517494
0.00498526
-0.00126201
-0.00174344
-0.0133271
-0.00336996
0.00421619
0.00201991
0.00437584
0.00282858
0.00173013
0.00016768
-0.0156754
0.000177401
-0.00401188
-0.000302897
-0.000466088
0.00302887
-0.0123107
-0.0023077
-0.0131157
-0.00579114
0.000870717
-0.00228521
0.00208638
-0.0033908
-0.00716131
0.0013375
-0.00418009
0.00745174
-2.61458e-05
0.00151546
0.00246788
-0.00340457
-0.00442534
-0.00878231
0.0114927
0.000452321
0.00329881
0.00714455
-0.0174139
0.00835986
0.00259069
-0.00192227
0.00248269
0.00386762
5.24278e-05
-0.00609285
-0.00156362
-0.00792592
-0.004086
0.00382446
0.00177826
-0.000391522
-0.00247183
-0.00103155
-0.00226206
0.000420493
-0.0057361
-0.0020159
-0.0150672
0.0019051
0.00106762
-0.000806158
0.00466488
-0.000383361
0.000172096
0.000652218
-0.0146081
0.00137317
0.00438782
-0.00212102
-0.00666824
0.00261385
-0.0074821
-0.00036037
0.00333056
-0.00122391
-0.000337396
-0.00503217
-0.0121865
-0.00466777
-0.00438045
0.00329264
0.0114318
-0.000221994
-0.00789091
0.00835403
-0.00221242
0.00325242
0.0050839
-0.00328734
-0.00538156
-0.00655601
0.00304296
-0.000853275
0.0172919
0.00386847
0.0017417
-0.00134577
-0.00232632
0.00327447
-0.00613941
0.000924919
-0.00123623
0.0022833
0.0072451
-0.00137909
