0.00148092
-0.000256066
-0.000843984
-0.000392566
0.000437053
0.000187573
-0.000106979
0.000601732
-0.00122145
-3.17069e-05
-0.000346405
-0.00144792
0.000246892
-0.000717633
-0.000997879
0.000588012
0.00202304
-0.000550353
0.000252968
0.00044661
0.000288229
-0.00248082
0.000864599
-0.00379097
-0.000254063
0.000740393
-0.000488194
-0.000185698
-0.0019044
0.000612407
-0.000658942
0.000232693
-0.0014291
-0.00200227
-0.00145185
0.000679996
0.000314254
-0.00171266
0.00107671
-0.000612973
-0.0010543
-0.00104397
-0.00159599
0.000626473
-0.000377199
-0.000261402
-0.00114347
-0.000302733
0.000884442
-0.000644664
-0.00198989
-0.000101894
0.00256359
-0.000856268
-0.000273946
0.00075259
-0.000960492
-0.000999579
-0.00356574
0.000142619
-0.00145131
-0.000399086
-0.00172165
-0.000696826
0.000365259
-0.000548831
-0.000337959
0.000983072
-0.000920843
-0.000383055
-0.000631841
0.00217911
-3.02134e-05
-0.00245532
-0.00101069
-0.00219011
0.000788353
-0.000995145
-0.000848013
-0.000429901
-0.00181698
-0.00138474
-0.000446088
0.000868961
0.00148726
0.000220004
0.00147684
-0.000497312
-0.00059532
-0.000838
0.000715986
0.000186865
0.00224302
0.000164277
0.00058551
-0.00159645
-0.00220634
0.000216517
-0.000161437
-0.000942806
0.000864952
-0.000299928
-0.00149295
-0.000497033
-7.36869e-05
-0.000472494
0.00109287
-0.00167408
-0.000625979
0.000805829
-0.00126508
0.000365198
-0.000906589
-0.00102118
-0.000185691
-0.000280371
-0.000186124
0.00110852
-0.00044762
-0.00352915
-0.00146906
-0.000711319
-0.000516009
-0.00203807
-0.00118351
0.000539842
-0.00103471
0.00208346
-0.000684532
0.00198468
-0.00209528
-1.98934e-05
0.000266925
4.63445e-05
-0.000722755
-0.000229893
-0.000941655
-0.00135068
0.00177025
-0.000907601
-0.000607311
-0.000868951
0.000514969
1.9459e-05
0.00234408
0.00122729
0.000343535
-0.00104064
0.000446162
-0.000391307
-0.000484477
-0.00202333
-0.000890969
-0.000206098
-0.000442946
-0.000348703
-0.0011014
-0.00248084
0.00229937
-0.00194501
-0.000531212
-0.000549461
0.00050236
-0.00148461
0.00245219
-0.00028965
0.000525449
-0.00266747
2.82149e-05
-0.00316953
0.000932391
-0.00011278
-0.00233726
0.00152533
-0.000463394
-0.000422225
0.00170728
0.000262663
-0.0014652
-0.000860316
-0.000137137
0.000238674
2.75186e-05
-0.00164022
-8.95995e-05
-0.000125848
-7.17384e-05
0.00180756
-0.000299883
-0.000342307
0.000997087
-0.000934705
-0.000833054
-0.000164969
0.000199891
-0.00260337
-0.000810162
-0.00114568
0.000417488
-0.000199645
-0.000430457
0.00175266
-0.00179613
-0.000321741
-0.00086923
-0.00153514
-0.000398277
-0.000699082
-0.000859844
8.68446e-05
9.13185e-05
-0.000728552
-0.00125175
-0.00135053
-0.000417943
-0.000173346
-0.00105283
-0.00270674
0.000731551
0.000435904
-0.000196081
0.000926815
-0.000359706
0.00137157
-0.000606369
0.00110347
-0.00058685
-0.00245214
-0.000321142
-0.000862777
-4.95873e-05
1.52156e-05
0.00108343
0.000637232
-0.00127214
-0.00035683
-0.00159462
-0.00118364
-0.000957797
-0.000504645
-0.000378011
-0.00176064
0.000548577
-0.00157837
-0.00116696
0.00061445
-0.000540007
4.59232e-05
-0.00109791
-0.000526039
2.82503e-05
3.71708e-05
0.000483548
0.000121452
-0.000619513
0.000392357
-0.000438656
0.00038522
0.000879811
-0.00210737
-0.000384716
-0.00128287
-0.000699558
-0.000446865
-0.00213226
0.00178082
0.000298453
0.000249582
-9.4955e-05
0.000745806
-0.00108508
-0.00068833
0.000595587
-0.000793234
-0.00100684
-0.00158562
-1.49797e-05
0.000451576
0.000208823
-0.00070649
8.42796e-05
-0.000642635
-0.00101541
-0.000297302
-0.000824737
-0.000682377
-0.0008651
-0.000949015
-0.000296891
-0.00133343
0.00131314
0.000320052
5.675e-05
0.000287326
-0.00107646
-0.00065721
-0.000911741
-0.000345213
-0.000819926
0.00111381
-0.000386788
0.00108305
-0.000643942
0.000765068
-0.00120248
-0.00255254
0.00238482
-0.000276886
-0.00139754
-0.00262517
-0.000310764
-0.0014637
-0.00170771
-0.000770732
-0.000792666
-0.00101619
-0.00223636
-0.00123079
-0.00134498
-0.00137094
0.00044114
-3.66098e-05
0.000402788
-0.000869604
-0.000413689
-0.0012466
-0.00187944
-0.00187584
-0.000524804
0.00107041
-0.00104481
0.00109403
-0.000835675
-0.00108994
-0.000638277
0.000891571
-0.00121081
-0.000504418
-0.000703292
-0.000531079
0.000871128
0.000926096
0.000340076
0.000977023
-0.00141557
0.000819564
-0.000453356
0.00164445
-0.000723975
-0.00141007
-0.00128013
-0.000662269
-0.000741911
-0.000396895
-0.000214713
-0.000630044
-0.00196365
-0.000335491
-0.000625224
0.000191412
-0.00102498
-0.00202916
-0.000954622
-0.00167852
0.000338929
-0.000898711
-0.000818535
-0.00196539
0.000579942
-0.00209098
-4.77933e-05
0.00105395
-0.000247946
-0.00102493
0.000197352
0.000841226
-0.00190295
-0.000827174
-0.000127283
-0.00146554
0.000106536
-0.00186925
-0.000522514
-0.000556524
-0.000549201
-0.00273034
-0.000851612
-0.00167674
-0.00182432
-0.000732937
0.00158789
-0.000729582
-0.000287479
-0.000983329
-0.00176066
-0.00109473
-0.000524179
-0.00132347
0.000989059
0.00198447
-0.000664896
-0.000790448
0.00032836
0.000147803
0.000109564
-0.0015232
0.000857739
-0.000654747
-0.000733374
-0.000228356
4.93609e-05
-0.0007924
-0.000752273
0.000223735
-0.000124776
-0.000764478
-0.00010499
0.00056035
-0.000270277
-0.00136739
5.78834e-05
-0.000331856
0.000279452
-0.00180531
0.000937459
-0.00121854
-0.00247151
-0.00270331
-0.000985827
-8.09827e-05
-0.00029806
-0.00154843
0.000259161
5.05694e-05
-0.00172674
-0.00184536
-0.00190515
-0.000528494
0.000581199
-0.00108335
-0.000262084
-0.000682691
-0.000287669
0.000152845
-0.000231767
0.00010056
-0.00129401
0.000112957
0.000557881
-0.00021251
-0.000431037
-6.97466e-05
-0.00107188
-0.00011778
5.59935e-05
0.000227718
-0.000128124
-0.000906441
-0.000680833
0.000505396
0.000792574
-0.000632773
-0.00248431
-0.00159787
0.000181873
-0.00153339
-0.000197937
-0.000743851
-0.00140459
1.45013e-05
-0.00054768
0.00137918
-0.00177639
-0.000202527
2.23093e-05
-0.000205249
-6.20928e-05
0.000257118
-0.00195073
-0.000675639
0.000307828
-0.000401115
-0.0018592
0.000181957
-0.00059614
0.000105666
-0.000469013
-0.00201081
-0.000532073
-0.000625373
0.000290378
-0.00088331
-0.00165523
0.000712151
-0.000260123
-0.00145286
-0.00073051
-0.00070489
-0.000809015
-0.00160387
-0.00160182
0.000247675
-0.000991358
-0.00171289
-0.00101789
-0.000301683
-0.00123623
-0.000554043
-0.000378448
-0.000263522
-0.000638493
-0.00163719
-0.000416183
-7.06095e-06
-0.000402996
-0.000771131
-0.00100205
-6.12568e-05
-0.000550675
-0.00163348
-0.000422631
-0.00167935
-0.00200325
-2.88946e-05
-0.00152606
1.24237e-05
-0.000862885
-0.00110265
-0.000699011
0.000281295
-0.00137963
-0.00109303
-4.9278e-05
-0.00118726
-0.00065549
-0.000686804
-0.000655081
-0.000870063
-0.000354733
-0.00269871
-0.00101199
-0.00381931
-0.000471193
0.00100097
-0.00021113
-0.00390056
-0.000417629
-0.000314232
0.000420475
-0.00134182
-0.000311645
0.00141877
-0.000136237
3.0221e-05
-8.57276e-05
-0.00238252
-0.00016422
-0.00158763
-0.00111106
0.000407139
-0.00152619
-0.000263092
-0.00132997
-0.000872354
-0.00114335
-0.00281264
-0.000899666
0.000511832
0.000973635
0.000659407
0.00227571
-4.91426e-05
-0.00109091
-0.00118754
-0.00148108
0.00122592
-0.00136219
-0.0026963
-0.00131493
-0.00157891
-0.00294748
-0.000818559
-0.000366613
-0.00055387
-0.00183902
-0.00153548
-0.00148707
-1.99016e-05
0.000969103
-0.000688767
-0.000800036
-0.000163359
-0.00235409
8.13441e-05
-0.00178761
-0.000179915
0.000267271
-0.00150424
-0.00124318
1.70862e-05
-0.000687487
0.00141227
0.0010785
-0.00150266
0.000205123
-0.00081602
-0.000421819
-0.000743263
0.0014523
-0.000262519
-1.55281e-06
-0.00182427
-0.00103397
-0.000417791
-0.0013498
-0.000601946
-0.00206733
0.000906587
0.000673838
-0.00144589
-0.00108686
0.00130074
-0.00182216
-0.000379772
0.00102633
-0.00142398
0.000220721
0.0011504
0.00178901
-0.000787968
-0.00040499
-0.000568446
-0.000288915
0.00130039
-0.000236091
-0.00128036
0.000456657
0.00132153
-0.00103203
-0.000709536
-0.000269484
0.000207978
4.86608e-05
0.000917585
-0.000597452
-0.000359501
-0.00116864
-0.00029242
-0.0007194
-0.000902112
-0.00091261
-0.000915925
-0.00153841
-9.47955e-06
-0.00209141
-0.000766131
-0.00162434
-0.00128974
-0.00240654
-0.00214552
-0.000677023
0.000712259
-0.00145497
0.000595783
-0.00179755
-0.000884122
-0.000682758
-0.000379362
-0.00227919
-0.00211932
0.00132128
-0.00093387
5.38854e-05
-0.000996952
0.000569253
0.000693539
9.03852e-05
-0.0013267
-0.00133292
-0.000128606
-0.000598979
-0.000766168
-0.00102213
-0.000765169
-0.00118616
-0.000777515
-0.000805088
-0.000155711
-0.00164294
-0.000966692
-0.000106305
-0.00290071
-0.000267166
0.000616112
-0.000884063
-1.88471e-05
-0.000306599
0.000333673
-0.00173808
-9.1706e-05
-0.0011344
0.00188809
-0.000913431
-0.00180622
-0.000381992
-0.000164489
-0.0003693
-0.00110219
-0.000638286
-0.000406881
0.000445463
0.000239541
-0.00102235
-0.00100429
-0.00273894
3.00833e-05
-0.00420439
-0.000141957
-0.00109448
-0.00126678
-0.000724737
-0.000985995
5.5384e-05
5.79234e-05
0.00048551
-0.000883106
-0.00311695
1.70679e-05
-0.00112488
-0.00121112
-0.000818887
-0.000578813
-0.000933873
0.000442355
-0.000854148
-0.000818495
-0.00206468
0.00123543
-0.00179441
-0.00207933
-0.0025595
-0.00161332
-0.000422588
-0.00110598
-0.00194654
-0.000659668
-0.000411446
0.00209404
-0.00115703
-0.000352722
-0.00120034
-0.00121962
-0.00149811
-0.000138591
-3.15154e-05
-0.00105767
-0.00032948
-0.000684349
-0.00180463
-0.000106188
-0.00073848
-0.00115462
0.00103668
-0.00054426
0.000641053
0.000363647
-0.00159459
0.000465339
-0.00209961
0.00036794
0.000521537
0.000754864
0.000197106
-0.00047169
-0.000236057
0.00109404
-0.0020351
-0.00128062
-0.000916562
-0.000371252
-0.00144337
-0.000918806
-0.000247256
-0.000681482
-0.000180127
-0.00078219
-0.000341819
-0.000644089
-0.00214491
0.00010191
-0.00115945
-0.00024496
-0.00127362
0.000749132
-0.00298611
0.00037107
-0.00212864
-0.00287868
-0.000854738
-0.000475859
-1.36603e-05
0.00027763
-0.000660767
0.000103578
-0.00158486
-0.000449015
-0.000922152
-0.00143389
-0.00140995
-0.000400293
-0.000971916
0.00074029
-0.00204369
-2.60397e-05
-0.000467364
0.000357061
-3.76617e-06
-0.000925548
-0.00063294
-0.0014143
-8.12072e-05
-0.00112104
-0.000232132
-0.00101151
0.000323169
-0.00030516
0.000191075
0.00106457
-2.10047e-05
7.54907e-06
0.00114588
-0.000112168
-0.00211718
-0.00077936
-0.000985599
0.00112707
0.0019449
-0.000553597
-0.000773164
-0.00172147
0.00139112
-0.00121985
0.00019275
-0.000242459
-0.00177368
-0.000461342
-0.000671482
-0.00114575
2.38077e-05
-0.00147168
-0.00057117
-6.01168e-06
-0.000583249
0.000464023
0.000135675
-0.00191303
-0.000668037
-0.00145067
-0.0019122
-0.00156734
-0.000671755
-0.00104778
-0.00190833
-0.000702296
-0.000886622
-4.86695e-05
-0.000272097
-0.000290508
0.000820331
0.000140657
-0.00061031
0.000640321
-0.0011105
-0.00103867
-0.000496227
-0.000769956
0.000209746
-2.09744e-05
-0.00104336
0.00087696
0.000396399
-0.000121941
-0.00115971
-0.0010173
-0.00108584
-6.75858e-05
-0.000214966
-0.000603507
-0.000420792
-0.00238582
0.00203289
0.0018246
0.000304462
0.000720218
0.00112233
-0.00067073
-0.000991419
0.000178185
-0.00199694
-0.00152359
-0.000619604
0.00118269
0.00157264
0.00114498
-0.00147633
0.000257342
0.000583443
0.000932399
-0.000476149
-0.00011384
-0.00116212
0.0026381
-0.000118155
0.000733154
-0.000628259
-0.000671385
0.000536877
-0.000548039
0.000587231
0.000574631
-0.00192748
0.000100651
0.00169466
0.000139596
-0.00037855
0.000179552
-0.000944319
-0.000689239
-5.34178e-05
0.00204293
-0.000648438
0.00165972
-0.000923931
-0.00200116
0.00245008
-0.000935287
0.00167564
-0.000912688
5.03352e-06
2.08336e-05
-0.000695174
0.0017698
0.000723514
0.00137249
-0.000536641
-0.000167138
-0.000774136
0.000841831
0.00143149
0.000148885
-0.000347305
-2.93287e-05
-0.000875292
0.000191816
-0.000546151
-0.00020686
-0.000292747
3.45631e-05
-0.000755608
0.000163622
-0.000584251
-0.000609347
4.45638e-05
9.4519e-05
-5.27137e-05
-0.000672809
-0.000211763
0.000994233
0.00259001
0.000263535
0.000577895
0.00047409
-8.16429e-05
0.00125165
0.000633088
0.00240643
-0.000372273
0.000381369
-0.000341395
0.00112887
0.000746443
-0.000119835
0.000264353
0.00098893
0.000403819
-0.000955521
-0.000888507
0.000322005
-5.84289e-05
-4.47812e-05
0.000315996
-0.000372084
-0.000676185
0.0010526
-1.19385e-05
0.00155006
0.000716782
0.00219064
0.000878735
0.000274648
-0.00312
0.000154248
0.000296695
0.000552211
0.000425013
0.000782543
0.000872448
-0.000942497
0.00122107
0.000339595
-0.000684711
-0.00167775
-0.000483427
0.000243644
0.000636465
-0.00066364
-0.000776529
0.000265504
0.000115187
0.00130675
0.000652461
0.000370956
-0.000796856
-6.77857e-05
0.00175758
0.000910086
0.000466799
0.000909603
0.000338036
-0.000704385
3.17827e-05
-0.00179769
0.0012908
-0.000382511
0.000106542
0.000782143
-0.000961407
-0.00161643
0.00158787
0.00150545
-0.000216879
-0.000833073
-1.61125e-05
-3.05464e-05
0.00155166
0.000287037
-0.00204616
0.000285419
0.000712924
0.000723843
0.00077641
0.00122963
-0.000693698
-0.000222597
0.000459672
0.00042589
-0.000522048
0.00204387
-0.000353299
0.00174954
0.000614827
0.00195679
0.00114286
7.83247e-05
-0.000462156
-0.00102519
-1.9245e-05
0.00165456
0.000353649
-0.00109916
-0.00192098
-0.00128926
0.000753796
-0.00101685
0.000373347
6.17129e-06
0.000896097
-0.000217145
-0.000234739
-0.000956531
0.000561073
-0.0002864
0.00322933
-0.000221552
-5.93865e-05
-0.00451941
-3.0707e-05
0.000689451
-0.00182937
-0.000916253
-0.0002511
-4.67018e-05
0.000256655
0.00265794
0.00139481
-0.000110957
-0.000994337
-0.000837829
-0.000916911
-0.000433292
0.00210706
-0.00290876
-3.7958e-05
0.000422466
-0.000464716
-0.00117229
0.00057503
0.000336691
-0.000831885
-0.00345594
-0.000526133
0.000940716
-0.000720508
0.000583974
-0.000305572
0.000101317
-0.000613334
0.00220758
-0.000228909
0.0022971
0.000251123
-0.000635003
-0.000205997
0.000418511
0.000624116
0.0011359
-0.000409224
-0.000135645
0.00077736
-0.000600429
0.000637263
-0.000401448
0.00030605
0.00100309
0.000460145
0.000160952
0.0049693
-0.00110516
-0.00103324
0.000617756
0.00013593
0.00122424
-0.00020251
-0.00118333
-0.000971533
0.000543034
0.000915813
-0.000973672
-0.000405932
0.00318499
0.000648603
0.000849318
-0.000503796
-0.000268976
-0.00016589
0.00134713
0.00052564
0.000201425
0.000891561
0.00139036
0.000556754
0.000705716
-0.000290299
-0.000875445
0.000232111
0.000225579
0.000308208
-0.00018914
0.000757623
9.36934e-05
0.00152075
0.00340329
-0.000314879
5.7576e-05
-0.000848403
-0.00105692
-0.000594581
-0.000468319
0.00127897
0.00113033
0.00195799
-0.000298125
0.000392668
-0.000375903
-0.00025038
-0.000101066
7.81006e-05
0.00159152
-0.000407699
-0.000155862
-0.000317982
-0.000708132
-0.000325912
-0.00106687
0.00126944
0.000119548
-0.00401465
-0.000884131
-0.000769597
-0.00049768
-0.0010689
0.000783436
-0.000790452
0.000256044
-0.00158799
0.00116317
-0.000709259
-1.18774e-05
0.00185995
-0.000194333
0.000376731
-0.00199381
0.000489395
6.83564e-05
0.00145239
-0.000574585
0.00010302
0.000622725
-0.000117448
-0.00115434
0.00042333
-0.000107907
-0.000182814
0.00126475
-0.000417313
-0.000565478
0.00034499
0.000212659
-0.00148614
-0.000451453
-0.000250677
0.000586821
-5.89964e-05
-0.00093503
0.00171084
0.00103713
-1.08107e-05
-4.10427e-05
-0.00145969
-0.000969283
0.00019598
0.000160622
-0.000492519
-0.000588324
0.00125405
-0.000486515
0.000802579
0.000136616
-0.00117296
-0.000597499
-0.000376602
0.000560325
0.000504642
0.000172881
0.000686854
-0.00128949
0.00083255
-0.000582049
-0.000728652
-0.000982485
0.000230563
-0.000458983
8.86532e-06
-0.00125934
-0.000356744
0.000468652
0.000267703
-0.00039417
-0.00045275
0.000440516
-6.49787e-05
-0.000536685
-0.000827835
-5.63137e-05
-0.000437464
-0.000148794
0.000435389
0.00023039
0.000416647
2.20284e-05
0.000502689
0.00122973
-0.00054011
0.000853602
-0.00118253
-0.00030113
-0.000794902
-0.00039094
0.000501986
-0.000618204
-0.00136767
0.0013926
0.00182636
-0.00025275
0.000246109
-0.000469106
0.000572693
-0.000646134
0.000957384
-0.000302787
0.00131221
-0.000678757
0.000795779
-0.000147101
-0.000368972
0.000341156
-0.00280028
0.000145184
-0.000222081
-0.00135926
-0.00122559
-0.00127266
-7.74448e-05
-0.000363467
0.000650755
-0.000509424
0.00267812
-0.00160127
-0.00202288
-0.00137026
0.00135308
-0.000390253
-0.00176208
-0.000943276
-0.00110199
-0.000284917
0.000446513
0.00185663
-0.0012094
0.000505611
0.000444603
0.000841109
-0.000727562
-0.000218004
0.000862049
-0.000264397
-0.00165138
0.000998886
-0.000910655
-0.000551149
0.000668094
0.00166062
0.0004837
-0.000349892
0.000389887
-0.00112332
0.000544416
0.00109607
-0.000585247
0.000337775
-0.000580341
-0.00053098
-0.000847809
-0.0032101
0.000789158
-0.000574773
-0.00114853
-0.00104199
-0.000496383
0.00121283
-0.000390199
-0.000356234
-0.000364601
0.0014274
-0.00056402
0.0003784
0.000736406
-0.000227124
0.000354682
0.000695464
-0.000623157
-0.00187198
-0.00087039
-0.00440725
-0.00126439
3.17313e-05
-1.80229e-05
-0.000426843
0.000498806
0.00220384
0.00137951
0.000539738
-0.00144695
0.00235681
0.000547396
-0.000690552
0.00116366
0.00202375
-0.00185988
0.00172134
-0.000630441
0.000469555
-0.00044156
-0.000997053
-0.0012823
-0.00228854
-0.000591629
5.6141e-05
0.000296143
0.000579321
-0.00115097
4.03329e-05
0.000902683
0.00121312
-0.000650635
0.00151876
-0.00129103
-0.000689938
-0.00110026
-0.000101079
0.0030916
3.09777e-05
0.00160185
-0.000681267
-4.90563e-05
-0.00143905
-0.000420012
-7.42214e-05
-0.00114588
-0.000991238
9.89278e-05
-0.000726336
0.00153681
-0.00122827
0.00150869
0.00128068
-9.35102e-05
-0.000757591
-0.000422753
0.00072932
0.000584741
0.000127652
-0.000862711
-0.000249907
0.000511426
-0.000350999
-0.000562435
-0.000558405
0.00145046
-0.00119927
-0.00108084
0.000367818
-0.000673316
0.000653825
-0.0012351
-0.00162584
-0.00095757
-0.000767722
0.000355559
-0.000809335
-0.000900574
-0.000270952
0.000262104
0.000293246
0.000247431
0.00178028
4.98681e-06
-6.00652e-05
-0.00142417
0.000737032
-0.000455015
-0.000771365
-2.18766e-06
-0.000470227
-0.000268803
-0.00146306
-0.00127558
-0.000600276
0.00104698
-0.000924141
-0.000648165
-0.00108142
0.000745265
7.52433e-05
-0.000783781
0.00021518
-0.000429149
0.000835627
0.0019244
-0.000613735
0.001068
-0.000250413
-0.000686827
0.000352688
-0.00187096
-0.000151994
-0.000593001
-0.00229703
-0.00126076
-0.00166684
-0.000838025
-0.000348461
-5.29354e-05
-0.000861163
-0.000781408
0.000761637
-0.000299075
-0.00148886
0.000397578
-0.00157633
-0.000458439
-0.00250179
-0.000614748
0.000583277
-0.000600867
-0.00012858
0.00135162
-0.00128692
-0.00116232
0.000438321
-1.24407e-05
8.37367e-05
-1.42556e-05
-0.00139184
-0.000525464
-0.000974138
0.00142077
0.000370534
-0.000126032
0.000633956
-0.000985928
0.000709032
-1.06124e-06
-0.000144489
-0.000216308
-0.00056228
-0.000269063
-0.000108119
0.000449272
0.000968375
0.000344305
-0.000585123
0.00230685
-0.000472963
-0.000682487
-0.00289313
0.00073153
0.00476229
0.000862714
0.00151531
-0.00102768
-1.4482e-05
-0.000247273
-0.0010509
0.000901194
0.00372967
-0.000669551
0.0032757
-0.00131121
-0.00121207
0.00121258
-0.000867662
0.000231324
-1.44735e-05
-0.00138039
0.000115485
0.00157812
0.00114199
0.000252281
0.00123709
-0.00113285
0.00218932
0.000205255
-0.000176173
0.000626952
0.00127014
0.000748779
0.00208011
-0.000539405
-0.000301346
0.000693872
-0.000194043
-0.000460789
0.000802846
0.00079977
-0.00051098
-0.00035434
0.000856852
0.00226111
0.000586641
-0.000343822
-0.000117642
-0.000847591
0.000495792
0.000773085
-0.00129241
-0.000126744
0.000182724
0.000557069
-0.000120196
-0.000484199
0.00052915
-0.00051652
0.00301622
-0.00170792
0.00166783
0.000853108
-0.00096756
-0.00127395
-2.73633e-05
-2.5217e-05
0.000460193
-0.000288106
0.000833723
0.000390298
0.00172875
-0.000495579
0.000241471
-0.000118297
-0.00018684
0.000712718
0.00112804
-0.000397724
-0.00179658
0.000710636
0.00049273
-0.00130299
0.0019071
-0.00171735
0.000340311
-0.000825922
-0.000279077
0.000472091
-0.00096407
-0.00126824
-0.00259136
0.000376157
-0.000256666
-0.000978172
0.000348956
-0.00111684
-0.000377567
-0.000237268
0.00480775
-0.00114961
5.24173e-05
-5.82383e-05
-0.000365052
-0.000294629
0.000189892
-7.96591e-05
0.000445292
-0.000797722
-0.0009374
0.00223013
-0.000254193
0.000353955
0.00139654
0.000449526
-0.000308569
-0.000800455
-0.000331042
0.00189837
0.000631953
0.00196901
0.000260039
0.000620322
0.00131256
4.29073e-05
0.0021465
0.00155661
0.000766418
-0.00167928
-0.000155379
-7.57068e-05
-0.00063791
-0.000151692
-0.000398654
-0.00105973
-0.00061744
-0.000693343
0.000600911
-0.00071145
0.00169603
0.000931273
-0.000619768
0.000128025
-2.61804e-05
-0.000566493
-4.26308e-05
-0.00024132
0.0017713
0.000604038
0.000339027
0.000748235
0.000187495
-0.000972814
0.000301844
0.00016698
-0.000242053
-0.000356406
-0.000227951
0.000905399
0.000618306
-0.000158596
-0.000319295
0.00063404
-0.00092893
-0.000554314
0.000652199
-0.000337209
-0.00177124
0.0039175
-0.000326638
-0.00020403
0.000664833
0.000834198
0.00071692
-0.000562249
0.000783401
0.000299261
0.000560254
0.00135721
-0.0005531
-4.68313e-07
-9.15e-05
-0.000522699
0.00144124
8.56894e-05
-0.000411633
0.000351033
0.000369871
0.000972396
-0.00065463
-0.00201078
0.00112826
0.0016842
-0.000313777
-0.0011029
-0.000290786
-0.00108972
-0.000188545
0.00108299
0.000129169
-0.000841401
-0.000445296
0.000321864
-0.00161968
0.00184965
0.00198226
0.0004883
-0.000618947
-1.45036e-05
-0.000263573
-0.000344197
0.00109162
0.000405985
-9.34356e-05
0.000348236
-0.000722502
0.000524207
0.000241471
-0.000683597
0.00126964
-0.000918976
5.859e-05
0.000250984
0.000814338
-0.000338266
0.00122134
0.000641928
0.000462619
-0.000121535
-0.000214196
9.31143e-05
0.000371224
0.000883606
0.000912193
0.00226867
0.000328444
-0.00011422
0.00227082
-0.000426089
0.00253239
0.000677848
0.000739505
0.000897861
0.000844787
-0.000467045
-9.88902e-05
0.00126334
0.000265153
-0.000339798
0.00225988
-0.000689031
0.00141451
0.000830512
-0.00013455
-0.000668313
-0.000435304
-0.000259654
-0.000167414
0.000860244
0.000781173
0.000167529
0.000108839
0.000217625
-0.000867717
-0.000653303
0.000632237
-7.35167e-05
-5.56687e-05
-0.00112738
2.21895e-05
-4.96014e-05
0.000188499
0.00131729
-0.000738569
-0.000980013
0.00108895
6.69738e-05
-0.00162046
-0.0010159
-0.000648384
-0.00018306
0.000811105
-0.000516777
-0.00192647
-0.00207607
-0.00086041
0.000410809
0.000126336
-7.84741e-05
0.00175616
7.02437e-05
0.00114157
0.00622155
0.00138122
0.000736357
-0.000791731
-0.00105556
0.00158084
0.000294672
-0.000295627
0.000326578
0.00142982
2.28063e-05
-0.000865195
-0.000814671
-0.00020603
-0.00168873
-0.000998736
-0.00120965
0.000491152
0.000560693
-0.000981241
0.00135099
0.00137177
-0.000847677
-0.00160132
-0.00158558
0.00116428
-0.000686334
0.00198397
0.000121133
0.000196906
0.00105976
0.00128102
0.000608383
4.50979e-05
-0.000489871
-0.000246099
-0.000123669
0.00228212
0.000236554
-0.00043162
0.000591988
0.00200519
0.000510713
-0.00168198
-0.000446318
0.000592978
0.00459601
-0.000846368
0.0026522
-0.000486821
0.001306
0.00138695
0.00178474
0.000395718
0.00177053
-7.92591e-05
0.000827448
-0.00174564
0.00128079
-0.000700327
-0.000857911
-0.000388886
6.50288e-05
-0.000289347
0.000125383
3.16848e-05
0.000220772
0.00032248
0.000157499
-0.00157707
0.00161471
0.000128321
0.000678249
5.32925e-05
-0.00148252
0.000529138
0.000744803
-0.00101058
0.000917567
-0.000185503
0.00140934
0.00175447
-0.000636596
-0.00014405
-0.00117133
0.000240493
-0.00130608
-0.0014145
1.17636e-05
0.000632854
-0.000299824
-0.00141117
-0.000170124
-0.00081043
0.00124247
-0.000761037
0.00119885
0.00162472
-0.00109296
-0.0011236
0.000491214
0.00080818
-0.000806977
-0.000344001
-0.00143716
-0.00196701
0.000155967
-0.000713906
-0.000350673
0.000732601
-7.35794e-05
-6.74813e-05
0.00283926
-1.08751e-06
0.000797357
0.000635393
0.00134784
-1.74613e-05
-0.00158567
-1.05185e-05
-0.001218
-0.00094075
0.00183047
0.00431917
0.00120459
-0.00123392
-0.00128763
0.000344693
9.29749e-07
-0.00133219
-2.02315e-05
0.000798644
-2.10329e-05
-0.000590465
0.000842808
0.0010457
0.000184993
0.000464848
-0.000355646
-0.000727778
0.000322593
0.000104103
-0.000158656
-0.00054962
0.000540264
-0.000692814
0.000419915
-0.000373448
-0.000601153
-5.4198e-05
-0.00128857
-0.00133792
0.000223004
-0.000649347
-0.00221148
-0.000362747
-0.000335154
-0.00104908
-0.000803216
0.000237671
-0.00181433
-2.85043e-05
-0.000776702
-0.000793705
0.000616516
0.000290906
-0.000425983
-0.00156942
0.00180502
-0.00037657
-0.000256709
0.000546215
0.000874686
-0.00107692
0.00259851
0.000423026
-0.000130122
-0.000753821
-0.000495615
0.00175914
-0.000238166
-0.0010008
-0.000917279
-0.00036916
0.000371098
0.000324388
-0.000242027
0.000805191
-0.000917572
-0.000609161
0.000267807
-0.00100452
0.000228675
-0.000367923
-0.000169649
0.00101071
-0.000872183
-0.000554894
-0.000780676
-0.000653526
0.000861983
0.000970341
-0.00107095
-0.000409606
-0.000832337
0.000573953
-0.000332265
0.000730872
0.000212495
-0.000866145
0.0018349
0.000207598
-0.0024098
0.00194816
1.40665e-05
-7.27324e-05
2.0645e-05
-0.000274679
-0.000620913
-0.000728864
0.000230219
-0.00153911
-0.000884362
-0.00128129
-0.0024271
-0.00141159
0.000680696
-0.000623035
0.000976103
-0.000687272
-0.00129234
9.05306e-05
-0.000283942
-0.000218067
0.00189268
0.000153167
-0.000302216
-0.00409735
-0.00175561
0.00104328
-0.00088614
-0.000543365
-0.000143789
-0.000117177
0.00051048
-0.000421813
0.000467659
-0.00217075
-0.00043897
0.000690723
-0.000386139
-0.00020998
0.00121373
0.000820345
0.000389526
0.00152841
2.07283e-05
0.000841103
0.00337414
0.0010608
-0.00104498
-0.000260817
-0.0023442
0.000595631
0.00144098
-0.0010833
0.000517364
-0.000285557
0.000616338
-0.000556574
-0.00123649
0.00289635
-0.000620751
-0.000325954
0.000180823
-0.000238756
-0.00162231
0.000378478
0.00111006
-0.000121166
-0.0018021
-0.000203459
-0.00240288
0.00084466
0.000996772
-0.00114687
-0.00126354
0.000873888
0.000398877
0.000721941
0.00152023
-0.00128277
-0.000877109
-0.000548137
-0.000519441
0.00185343
-0.000498465
-0.00130321
-0.000357835
-0.00115786
0.00115678
0.000576156
0.00125261
-0.000730155
-0.000292235
0.000294929
0.000244317
-0.000938475
-0.00017874
-0.00115641
-0.000211434
-0.000871974
0.00021304
-4.87089e-05
-0.000449402
-0.00273406
0.000766431
-0.00123312
-3.293e-05
1.91921e-05
-0.00122476
-0.000841921
-0.00159654
0.000300764
-0.00108001
0.00084406
-0.00297896
-0.00218283
-0.000859591
0.000583712
-0.000114032
-0.0011319
-7.2088e-06
-0.00103345
-0.00163919
-0.00164954
0.00424648
0.000580722
-0.00132839
-0.00214645
0.000782526
-0.0003841
-0.00138368
-4.32709e-06
-0.000439849
-0.00035781
-0.000650279
0.0010215
0.000285825
-0.000473399
0.00245348
-0.00251025
-0.00126418
-0.000162164
0.00131972
-0.000693573
-0.000132574
-0.000431645
-0.000929323
-0.00119352
-0.000258269
-0.000617456
-0.00230444
0.000676319
-0.000223516
-0.00130232
-5.10091e-05
-0.000221481
-0.000413112
-0.000594761
2.05608e-05
-0.00124541
0.000331536
-0.00237694
-0.000334811
4.84532e-05
0.000379875
0.00129824
0.000991564
4.74248e-06
-0.00060691
0.000171153
0.00132409
0.0010549
-0.000373172
-0.000468807
-0.000702733
-0.00122154
0.00110236
2.71157e-05
0.00101811
0.000880684
-0.00070894
-4.49334e-05
0.00140253
0.000951586
0.000971518
-0.000703368
-0.000913959
0.00373029
-0.00248056
-0.000193772
-0.0016113
0.00151506
-0.000537619
0.00261754
8.85741e-05
0.00157926
0.0011839
-0.00139474
-0.000941852
0.000464652
-3.22323e-05
0.000976119
-0.000726098
-0.000548472
4.12376e-05
-0.00192818
0.00013606
0.00156931
-6.34731e-05
-0.00114193
-8.98513e-06
-5.16562e-06
1.99954e-05
0.00114812
0.000226955
0.00022776
0.00129721
0.000182062
-0.00037267
0.00235606
-0.00193142
0.000508117
-0.00174004
0.000391186
-0.000504599
-0.000303529
-0.000583227
-0.000156519
-0.000626742
-0.00186985
0.0016878
-0.000957903
-0.0004909
-0.000797772
-0.000218301
-0.000517948
-0.000655697
-0.000275488
-0.00124727
-0.000471613
-0.0014184
-0.00117623
-0.00100467
0.000223923
0.00187111
-0.0007114
0.000422464
-0.000275765
-0.00124235
-9.51598e-05
-0.00119447
-0.000104
-9.40878e-05
-4.91938e-05
0.000969918
-0.000909758
-0.000196685
-0.000484693
0.00114809
-0.000561492
-0.00129199
-0.000217546
0.000978195
0.00028391
-0.000685851
-0.000369333
-0.000114113
-0.00109633
0.000715357
-0.000715584
-0.000627429
0.00190659
-0.00123146
-0.000318213
-0.00484458
0.000233497
0.000143637
-0.00141869
-0.00166906
-0.000736971
0.000664895
0.000212327
-0.000189414
-0.00116871
-0.000274401
-0.000655937
0.000861562
-0.000210066
0.000274075
0.00026734
0.00141931
-4.42532e-05
0.00122799
0.000295576
-0.00165453
-0.00159154
0.00476626
-0.00307838
-0.000971342
-0.000599865
0.000686426
-0.000753981
0.0022207
0.000239759
-0.000715149
-0.00103579
0.000792764
0.00171101
-0.000420877
0.00136981
-0.000183402
-0.000274415
-0.00161266
-0.00148204
-0.00305788
-0.000622811
0.00012878
-0.00105989
0.00186327
-0.00027889
-0.000881273
0.00210993
0.000211327
-0.000403714
-0.00147361
0.00218351
9.93655e-05
-0.00368795
-0.00194314
-0.000138834
0.000270259
0.000971316
-0.000980203
-0.0012189
0.000154104
0.00138666
-4.91808e-05
-8.1692e-05
0.000565996
0.000725955
0.000468853
0.000653561
-0.00180882
-0.000279381
0.000659764
0.000792057
-0.000172559
-0.00112436
0.00114099
-0.00234724
-0.000468463
0.000799905
-0.000666731
-0.000241566
-0.000404602
-0.000342624
0.000721931
-0.000591909
-0.00135187
-0.00112977
-0.000585265
-0.00170013
0.000629223
-8.76798e-05
-0.000445912
0.000838487
0.000376935
-0.000731466
0.00110247
-0.000897204
-0.000396347
-1.86888e-05
-0.000948041
-0.000490223
0.000666645
-0.000369258
0.000333506
0.00216472
-0.001072
0.000234941
-0.000579581
-0.000125799
0.000110799
-0.00158609
-0.000190729
-0.00116126
0.000164136
0.000988334
-0.000285362
-0.00076806
-0.000152019
0.00313505
-9.52283e-05
0.000322423
0.000389778
0.00052759
-0.000627659
0.00020284
0.00165926
0.0011913
0.0010473
0.00095452
0.00101737
-0.000523477
-7.73231e-05
0.00181182
0.000817562
0.00260898
-0.00110532
-0.000207691
0.000632056
-0.00026385
0.00130546
-0.00110324
-0.000252955
-0.000120438
-7.16816e-05
-0.000684755
-0.000192318
-0.00176729
-0.00017266
-0.000671537
-0.000114151
-0.00114901
-0.00218072
-1.77775e-05
0.000194803
-0.00198329
0.000328562
-0.0010436
-0.000119476
-0.000636069
-0.00142545
0.000138925
-0.0030646
-0.000100117
-0.00035119
0.0016415
-0.000278879
-0.000737446
-0.000664591
-0.00074646
0.000548526
-0.000489415
-0.00102605
0.00127708
0.000706477
0.000342591
0.00176785
-0.00157036
1.13666e-05
-0.00178002
0.000390761
-0.000337917
0.00160054
-0.000926372
-0.000560615
-0.0014673
8.67516e-05
-0.00123883
-0.00221158
-0.000499224
-0.000571406
0.00103099
-0.00261763
0.000560977
-0.00139359
-0.00192837
-4.71274e-05
0.00105566
-0.000660526
0.00084384
1.6238e-05
-0.000679734
-0.00184529
-0.00128182
-0.000372889
0.000175005
-0.00142956
-0.000552779
0.000962547
0.00179472
-0.000939035
-0.00200687
-0.00112604
-0.000354289
0.000698529
-0.000230848
0.000658988
0.00110103
0.00229659
0.000828004
-0.000773644
0.00168228
5.70571e-05
-0.00165626
-0.00119117
0.00154955
0.00133908
0.000198871
0.000914632
0.00110646
7.13677e-05
-0.000168622
-0.00144039
0.000244533
0.0015979
0.000617861
-6.19779e-05
-0.00152132
0.000510901
-0.000198248
-0.000259561
0.000216565
0.000442661
0.000703175
-0.00152817
-0.000437285
0.00110482
0.00103898
0.00174151
-0.00121517
-0.00155463
-0.000391872
0.00065346
0.00172417
-0.000703771
-0.00249215
5.72589e-05
0.00012382
-0.000425353
2.17782e-05
-1.46885e-05
-0.000666013
-0.00126278
-0.000740661
0.00157053
-0.000857123
0.000253504
-0.000283118
0.00133848
-0.000142997
-0.000737501
-0.00149037
0.000484195
-0.00100708
0.000916901
0.000539836
-0.00159384
-0.000318625
-0.000961245
8.62712e-06
-0.000467603
0.00195305
-0.00115611
-0.00125691
0.000261275
0.00113331
-0.00124552
0.00101584
-2.63745e-05
-0.00065935
0.000312453
-0.000348381
-0.000627883
-8.5861e-05
-0.00062249
0.00124817
-0.00128876
0.00227181
6.66305e-05
-0.000935808
-0.000112148
0.00100967
-0.000795588
-0.000793635
-0.000614163
-0.000339245
0.000666703
0.00223489
0.00227568
-0.000525298
0.000769367
-0.000541742
-0.000890174
0.000252115
0.00186538
-0.000917393
5.59926e-05
-5.10216e-05
0.000565245
-0.000560344
4.38026e-05
0.000483617
-0.00121595
0.000540024
-0.000831627
0.000545735
0.000175178
-0.000326372
-0.00068293
-0.000986776
-0.000801396
0.00105037
-0.000589451
0.000826789
-0.000503431
-0.00175184
0.00129057
0.00069286
-0.000680925
-0.00169861
0.00128687
-0.00111357
0.000411746
0.000373777
0.000442726
-0.00160595
0.00112002
-0.00071807
7.38692e-06
0.00124355
-0.00104642
-0.000312741
-0.00118333
0.00201711
9.48824e-05
-0.00130041
0.000190068
-0.00121685
0.000245647
-0.000518123
-0.000179647
-0.00125909
-0.000857096
-0.000191918
0.000290282
-0.00042924
0.0018875
0.000110524
-0.000187387
0.00065852
-0.00122079
-0.000266169
-0.000658225
0.000647
-0.000866467
0.000188621
-0.00246489
-6.53118e-05
0.000933102
-0.00356642
0.000433708
-0.00141709
-0.001911
-0.00228839
-0.000150281
0.0013398
0.00263508
-0.000797444
-0.000456645
-0.000803786
0.00116072
-0.00129311
0.00189039
0.00183759
-0.00139617
-0.000264061
-0.000755027
0.000649972
0.000404273
-0.00122765
0.00229576
-0.000569904
-0.00169802
0.00132143
0.000240942
0.000592438
-0.000579535
0.00117387
-9.57181e-05
-0.000252874
6.0953e-07
-0.00132703
-0.00085991
0.000273085
-0.000866999
0.000947341
0.00112065
0.00172753
-8.88621e-05
-0.00093709
-5.2633e-05
-0.000501617
-0.000822501
0.000346413
-0.000182157
0.000927578
-0.00199533
-0.00114512
-0.00161375
0.00022983
7.73973e-05
-0.000991369
0.000230059
-0.000380473
0.000726438
-1.21474e-05
0.000477891
-0.000224911
0.00196497
-3.43929e-05
-0.00111745
-0.000716794
-1.33552e-05
0.000171768
0.000687401
0.000412442
-0.000921609
-0.00024526
-0.00011762
-0.00021085
-0.000673282
-0.000452617
-0.000473656
-0.000717802
-5.46002e-05
0.00158512
-0.000147413
-0.00166048
-0.000546189
-0.000382523
-7.9417e-05
-0.000312239
-0.0018171
0.000370605
-0.000515661
5.409e-06
-0.000457948
0.00178973
-0.00514481
0.00049706
0.000959051
0.00261119
-3.36213e-05
-0.000363683
0.000365179
-0.00152717
0.000389896
5.74129e-05
0.000651917
-0.000471084
0.000922963
0.00653462
-0.000773418
0.000803979
-0.000635244
0.000801426
-0.00239044
-0.00157016
-0.000977811
0.000561076
-0.00114771
-0.000237007
0.000354455
-0.000526521
-0.000326962
-0.000723911
-0.00118854
0.000357738
0.00120674
-0.000474053
0.000261638
-0.00145091
0.00106977
-0.000893247
4.11545e-05
-0.000958684
-0.000466709
-0.000126991
0.000129517
7.55998e-05
0.000998585
-0.000133204
-0.00123439
-0.000158048
0.000758488
0.0017195
-0.00106415
-0.00167574
-0.000367056
-2.60027e-05
-0.000588683
-0.000546233
-0.000442786
0.000502771
-0.000103769
-0.000766922
0.000769744
-0.000324044
0.000915097
-0.00049517
-0.0010024
-0.0013275
0.000468057
-0.000220089
-0.00245569
-0.000375116
-0.00117052
-0.00141603
-0.000153858
-0.000945283
0.000399164
-0.000786898
-0.000117891
0.00177712
-0.000456704
-0.000361419
0.000570262
-8.19026e-06
-0.00128867
-0.000905903
-0.000589678
-0.000181479
-0.000349709
-0.00131027
0.00122685
-0.00030036
-8.36129e-05
0.000690595
-0.000486213
-9.08532e-05
-6.61337e-05
-0.000652764
0.000992424
0.000359333
-0.000210634
0.000288648
0.000484488
0.00456426
-7.8153e-05
-0.000420538
-0.00060209
-1.06089e-05
0.000392425
-0.00028461
-0.00119214
0.00149386
-7.30127e-05
-0.00122807
-0.000656806
-0.000874055
0.000172473
3.95595e-05
0.000603995
3.22021e-05
0.00035742
-0.000369082
0.0009455
-0.0022631
0.0016621
-0.000646681
-0.000298915
-9.92418e-05
-0.0004218
-0.000700322
0.000571982
-0.00049949
-0.000823276
-0.000347929
0.000543292
-0.000611436
-0.00211192
-0.000805102
-0.000607256
-0.000873287
0.000739314
-0.00311677
-0.000237684
-0.000534036
-0.000955389
0.00120588
-0.000182234
-0.000415373
-0.000756817
-0.00087088
-0.000793937
-0.000625635
0.000287647
-7.65875e-05
0.00343239
-0.000275171
0.000815512
-7.43899e-05
0.00215612
0.000754855
-0.00199805
-0.000678354
0.000138863
0.000372946
0.000815225
-0.00179364
-0.000530697
0.000395578
-0.000987431
-0.0010062
-0.00132679
8.29943e-05
8.68857e-05
0.000223106
-0.000574656
0.000675185
0.000612659
0.000691131
-0.0011104
-0.000394582
-0.000616725
-0.000950571
-0.000194065
0.00256329
-0.00108369
0.000961258
-0.000747895
-0.00111054
0.00109397
-0.000173086
-0.000692619
-0.00168628
-0.00123831
0.000560131
-8.47032e-05
0.000402255
0.000878961
-0.000513791
-0.000457323
-0.000425908
-0.000588752
0.00138633
0.00228749
0.00161805
-0.000932725
0.00178402
-0.000542243
0.0011369
-0.00142557
-0.00140471
-0.000935477
-0.00211082
-0.00125912
-0.000935932
0.000782916
-0.000428449
-0.00218665
-0.000846331
-0.000601277
3.09127e-06
-0.000679547
-0.000202524
-0.00124938
0.000493505
0.00029941
0.00109762
