0.00136725
-0.000126221
0.00288066
0.000173511
-0.000932808
-0.00121108
0.000704283
-6.30733e-06
-0.000352719
-0.000280082
-0.00151423
-0.00067527
0.00133302
-0.00023034
0.000878105
-0.00100364
0.00249635
-5.46326e-05
-0.00032169
-2.59411e-05
0.00204263
-0.00152006
-0.000255979
-0.00335903
0.000153872
0.00312284
-0.00118509
-0.00100343
-0.000448713
0.00133247
-0.000971892
-0.00137365
0.00136993
0.000440326
-0.00044109
-0.000174072
-0.000924828
-0.000323267
0.000410297
-0.000599529
-0.000685043
-0.00402762
0.000367725
0.00159025
-0.000628867
-0.000315766
-0.00245831
0.000383452
0.00140282
-0.00187336
0.000210149
-0.000482796
0.000987616
2.05071e-05
-0.00117809
0.000868025
-0.000852112
-0.000178439
-0.000113581
0.00122265
-0.000823052
-0.000885203
0.00115589
0.00129495
0.000808042
-0.000275723
-3.21772e-05
8.94948e-05
-0.000607423
0.000386641
-0.000477921
0.00116025
-0.000621306
-0.000730409
-0.000329391
3.62891e-05
0.000557413
0.00283445
-0.000847873
0.00184284
-0.00239601
7.8148e-05
0.000882819
0.0019702
-0.00019346
0.00224196
0.000185943
0.000816844
0.0030427
-0.000453352
-0.000992162
0.000140691
-0.000480482
-0.000248853
0.00102317
-0.00036087
-0.00200494
0.00180866
0.000267037
-0.00173921
-0.00276129
-0.000328742
-0.00138458
0.00175352
-0.000397843
-0.000115047
0.00162346
-0.00169322
-0.0012735
0.000427662
-0.000356195
-0.000538208
-0.00120673
0.000158179
0.00141187
0.00137036
0.0013446
-0.000628168
0.000505812
-0.000851715
-0.00103881
-0.000215879
-0.000466301
-0.000474462
-0.00049403
0.00142682
-0.000638439
0.00348773
-6.05577e-05
0.00162705
-0.00120778
-0.000318511
0.00188201
-0.00253913
-0.000122912
-0.00112391
-0.00186773
0.00109427
0.00115698
-0.00103937
5.39442e-05
0.00166165
0.00103008
-0.0010841
0.00139591
0.000597654
0.000556031
-0.000374802
0.00068577
-6.68103e-05
-0.000868195
-0.000932778
0.000489574
-0.00125422
0.000495407
0.00153358
-0.00158513
-0.000375257
0.00379681
-0.00137863
-0.00110064
-0.000657334
-0.000770437
-0.00140716
0.00121964
0.000140313
0.00253181
0.000192044
0.00106693
-0.000212983
0.00177855
-0.000944544
0.0047884
0.0041657
-8.24305e-05
-0.000427846
0.00172422
0.000389462
0.002234
-0.000292933
0.000244143
-7.37697e-06
0.00209685
-0.00246384
0.000270297
2.29172e-05
0.000326792
0.000350032
-0.000136676
-0.000673874
0.00185191
-0.000594294
0.000815229
0.000236075
-0.00156485
-0.00017849
-0.000759829
-0.000122476
0.000943892
-0.000920515
-0.000226243
0.00340147
0.00015593
-0.000813664
-0.000232905
-0.00130905
-0.000351386
-0.000479648
7.63378e-05
-8.71297e-05
0.000913932
0.000912153
-0.00101447
-0.00043952
-0.000445411
2.24284e-05
-0.000521568
0.000576494
0.00253511
0.000894523
-0.000649033
0.00222931
-0.000317299
0.00221147
5.53406e-05
0.00168861
-0.000209381
-0.00199706
0.00248547
-0.00136882
-0.00132562
-0.000655072
-0.000340605
0.000148815
-0.000382735
-0.000603137
0.000603473
0.000472449
-0.000100431
-0.000970009
-0.000275942
0.000954789
-0.003258
0.00101098
-0.00102142
0.000128975
8.00167e-05
-0.00247656
0.00165296
0.00136318
0.000175833
0.00284923
0.00120932
-0.00174283
-0.00146776
9.60607e-05
-0.000244858
-0.000367592
0.0015581
-0.00172657
2.3183e-05
-0.000272822
-0.000328117
-0.00113815
-0.0017262
3.02961e-05
-0.000612964
0.000268232
-0.000174928
-0.0015215
-0.000816805
-0.00129139
0.00133633
-0.000345744
-0.000197077
-0.000172778
-0.000280122
-0.000935444
-0.00115958
0.000801422
0.00302437
0.00242949
-0.000116207
-0.000327551
-0.00339924
-0.00107241
-0.00402754
-0.000953952
0.000121206
0.000888127
0.00221814
-0.000227686
-0.000829502
0.000539867
0.00118864
-0.000577693
-0.00120098
0.00069421
-0.000559975
0.000823785
-0.000322357
-0.000426319
-0.000633205
0.000800044
-0.000737055
0.0004402
0.00224655
1.05544e-05
-0.00050139
-0.00131269
-0.00367276
0.00155923
0.000287421
-0.0018786
-0.00271868
-0.000844396
-0.00146324
-0.000240522
-0.00121166
0.000698203
0.00129277
-0.00169008
0.00203292
-0.00252177
-0.000266395
0.000195377
-0.000964216
-0.000287863
-0.00091282
0.000743797
-0.00106244
0.000415768
-0.000624816
-0.00321312
-0.00108795
-8.74345e-05
0.00232898
0.000258954
0.000193732
-0.000820844
0.000801218
0.0015364
-0.00123389
-0.00151695
-0.000327555
0.000798692
0.00277464
0.000831047
-0.000508862
0.000441696
-0.000612418
0.00306946
0.00127632
0.000667677
-0.000492572
0.000918558
-0.0013354
0.000685141
2.27587e-05
0.000409819
-0.000713566
-0.0008676
-0.000339259
-0.00202726
0.00417798
-0.00098118
-0.00025847
0.00236846
0.0017674
0.000119993
-4.61359e-06
-0.000155617
0.00288862
-0.00109225
-0.00239876
0.000990437
-0.00164402
-0.00119339
0.00132688
-0.00209929
0.00255713
-0.00147764
-0.00137709
-0.000700981
-0.000379655
0.000566773
-0.000567976
0.000790344
-0.00117661
0.000846113
0.00258596
0.00149257
-0.00283629
-0.000663522
0.000435881
0.00152416
-3.39144e-05
-0.00120735
0.00062381
0.00199271
-0.000612168
-0.000465657
0.00160736
-0.000809483
0.000241668
-0.00213321
0.00511577
-0.00407315
-0.00259081
0.0002437
0.00223981
-0.000130504
-0.00029288
0.000394785
-0.000681076
-0.00147312
0.00195982
0.000323648
0.00093967
0.00171775
0.000154683
0.000157037
0.000964685
-0.000855459
0.00113753
-0.00164764
-0.00228538
-0.00088852
-0.00151612
-0.000202834
-0.000955808
-0.00249058
-0.000604495
-0.00140658
5.00409e-05
0.00055747
-0.001813
0.000946687
0.00186403
-0.00115667
-0.00135494
0.00265552
-0.00286771
-0.000119065
-0.000455866
0.000455385
-0.00076486
-0.000352034
0.000921636
0.00202813
0.00128083
-0.000148027
-0.000944762
-0.00116839
0.00454141
4.54898e-05
0.000720522
-0.0014889
0.0012565
0.000774071
-0.0007606
0.00279464
-0.00244457
-0.00185714
0.00168575
-0.00082852
-0.000746273
-1.61832e-05
-0.000312616
-0.00186318
-0.000314373
0.000681937
-0.000772876
0.00140895
0.000148515
0.0006251
0.00267038
-0.000236556
-0.000981312
-0.000384326
0.00108555
-0.000219456
-0.000705915
-0.00273081
3.24276e-05
0.000267727
-0.000596029
-0.000738537
-0.00197888
0.00443268
0.000144801
-8.04489e-05
-0.00116093
-0.00143864
-0.00135465
-0.00162488
-0.00087786
-0.000336429
-0.000889652
-0.00112023
-0.000472435
7.61707e-05
-0.000472317
0.000466967
0.00141633
-0.000948557
0.00142928
-0.00120736
0.00151173
-0.00120154
-0.000944866
0.00126011
-0.00031968
-0.00121354
0.000438504
-0.00212839
0.000344437
-0.000168917
-0.00106047
-0.00122377
-0.000183566
0.00101073
-0.000824561
0.00075852
0.00153487
-0.000723911
-0.00103087
-4.51333e-05
-0.000741345
-0.000302543
-0.00075349
-0.000296087
-0.000558162
-0.00134515
-0.0011565
-0.00102952
9.2887e-05
-9.46755e-05
0.00132454
0.000291876
0.0006042
-0.000483918
-0.00188229
0.00135242
-3.14378e-05
-0.00554421
-0.000557761
-0.000471164
0.000420731
-0.00039417
0.000384859
-0.000385547
0.00185101
-0.00198797
-0.0010822
-0.000241066
0.00181436
-0.0024424
1.61957e-05
0.0020795
-0.00132291
0.00166509
0.000680553
-0.000185601
-0.00201382
0.00159238
-2.95541e-05
0.000883174
0.00064244
0.000182357
-0.000313699
-0.00208771
-0.00311702
0.000367015
-0.000149708
-0.00112247
-0.000613909
-0.000222386
-0.000587538
0.000150133
-0.00130301
0.0009228
0.00314967
-0.000367806
-4.77961e-05
0.00309751
0.000444385
0.00470394
0.00119051
-0.00130379
0.00095242
-5.10637e-05
-0.000947052
0.000454641
-0.00039196
-0.000597049
0.00410329
-0.00312103
5.18036e-06
0.000580024
0.00170291
0.00121182
-0.00137806
-0.000596343
-0.000656998
-0.000500656
0.00163802
0.000256821
0.00199334
-0.000445345
-0.00128082
0.000640455
-0.000844306
-0.0014247
-0.0012711
-0.00131444
-0.00323581
-0.00165815
0.00199804
-0.00139477
-0.00191083
0.000866062
0.000623638
-0.00168658
0.000957845
-0.00154231
-0.000410518
-0.00431207
0.00168499
-0.000440823
0.00132305
-0.000839819
3.45958e-05
0.000695965
-0.0017057
4.62454e-05
-0.000112878
0.00175661
0.00286457
-0.000289355
0.000970134
0.00277642
-0.00230348
-0.00102148
-0.0016697
-0.00267246
-0.00078448
-0.000105475
0.0013805
-0.00274576
-0.00182702
-0.00137387
-0.000965569
0.00116246
-0.000948192
-0.00109515
-0.00810928
0.000559744
-0.00104929
-0.000646294
-0.0014513
9.31174e-05
-0.0016439
0.00133306
-0.000399503
-0.000900919
0.000565467
0.000908771
0.00138023
-0.00164684
0.00258506
-0.00019264
-0.000252314
3.4443e-05
0.00146775
0.00205971
0.000171249
-0.000268695
-0.00113235
-0.000837079
-0.0004494
0.000329037
-0.000885034
-0.000210523
-0.00137393
-0.000358349
0.00108817
0.000620787
-0.000930097
-0.00113131
-0.00118468
0.00128569
-0.00116899
-9.96738e-05
-0.00115588
3.45801e-05
-0.0018931
-0.00140945
-0.000900835
-0.000132523
-0.00115515
0.00166299
-0.000284814
-0.000758908
0.000752467
7.02927e-06
-0.000936261
-0.00154724
-6.4495e-05
-0.00068878
0.000475328
8.23308e-05
-0.000199719
0.000182589
-0.00309331
-5.21144e-05
-0.000631754
-0.00106169
0.00354586
-0.000390111
0.000308108
0.000113618
0.000153466
-0.000429631
-0.0010253
-0.00079283
-0.00279189
0.000907739
0.000435785
-1.99751e-05
-0.00100814
0.00025596
-0.00207443
-3.21938e-05
-0.00221697
-0.00270332
0.00182233
-0.00254316
0.000178218
-0.000711982
-0.00438136
-6.16987e-05
0.00163114
0.0001291
-0.00395514
0.000569847
-0.000317973
0.00224499
-0.00134206
9.09138e-05
-8.31552e-05
0.000245842
0.000407158
0.00167087
-0.00113397
0.000111615
0.000293546
-0.00160229
-0.000191692
0.00211684
-0.00155819
-0.000350821
-0.00030702
-0.000774823
0.000586746
-0.0024358
-0.00185855
0.00308987
-0.00134374
0.00149251
0.000600153
0.000870149
0.00313383
-0.00112317
0.00575972
0.00118522
-0.000371565
0.000112488
-0.000208696
-0.000137944
0.00116224
0.000542757
0.000197425
0.000311287
0.00553961
-0.00214054
6.02265e-05
0.000374611
-0.000953612
-0.00049916
-0.00156212
-0.000698617
0.00042239
0.00182256
-0.00157685
0.00444304
-0.00184178
0.000996968
-0.000541724
-0.00137151
0.00161442
0.000213468
0.000886783
-0.0012581
-0.00197301
-0.00167276
-0.00104286
6.65348e-05
-0.0018021
-0.00137055
6.11842e-05
0.000408827
-0.00104521
-0.00309309
-0.00126488
-0.000882796
0.00219279
0.00569519
-0.00198001
-0.00068791
0.000160624
-0.000909737
-0.00167998
-0.00131899
-0.000471622
6.38012e-05
-0.000286953
0.00382791
0.00157434
0.00132515
0.00338229
0.000376822
0.000941465
0.000253604
0.00181372
0.00163615
-0.000360771
-0.00228033
-0.000458249
-0.00200226
0.00271076
-0.00145678
-0.00094019
0.000622646
-0.00112337
0.000531004
0.000180438
0.00125067
-7.20199e-05
-0.000163509
-0.000896924
0.000252259
-0.000843341
-0.00267108
0.00108198
0.000667665
5.19579e-05
0.000138427
-0.000811854
-0.000497794
-7.77176e-05
-0.000677437
-0.000120494
-4.04544e-07
-0.000464319
-0.000897388
-0.000750486
-0.000767906
-0.000670255
0.000246351
0.000397293
0.0021328
0.00160084
-0.00115635
-0.000917457
-0.000601095
0.000677436
-0.000309498
-0.000312884
0.000566114
6.57183e-05
0.00146815
-0.000621402
0.000809633
-0.00146822
-0.00062474
-0.000121827
-0.00153552
-0.000542686
-0.00186635
-0.000472334
0.000984339
0.00119564
0.000774387
0.00161081
-1.27178e-05
-0.00169004
-0.0028471
0.00270008
5.00427e-05
-0.0024496
0.000556084
-0.00145066
0.00124804
0.00216079
0.000561812
0.000125107
-0.000684777
-0.000264984
0.00135478
-0.000512847
0.000892522
-0.00213234
0.00221651
-0.000582091
-0.000490877
-0.000368896
0.00100965
0.000224799
0.000303109
-0.000724039
0.00181402
9.03936e-05
0.000966686
-0.00045558
0.00181943
-0.000375797
-0.000252497
0.000797159
0.0054542
0.000502162
0.00545052
0.00125681
-0.00113882
0.00139767
-0.00336515
-6.39707e-05
1.48252e-05
-0.00181047
-8.97523e-06
-0.00237725
-0.00295869
0.000386713
0.000695412
0.000185863
0.00013061
-0.0026637
0.0012312
0.00307033
0.000767841
-4.91885e-06
-0.00270499
-0.000880536
0.000823082
-0.00272075
-0.000812689
-0.00100051
-0.000173954
0.000679795
-0.000965071
-0.00154941
0.00109352
-0.00045211
0.00438497
-0.000594686
-0.000508235
-0.00411355
-0.000345735
0.00240277
-0.00248207
-0.0014528
0.000943943
-0.000191229
-2.18574e-05
0.0010328
-0.000808683
-0.00103942
-0.00104115
0.00052795
0.000556877
0.00163321
0.000499246
-0.000395674
0.000422225
-0.00122144
0.000761242
7.00853e-05
-0.000379162
0.00166396
-0.00135897
0.00181881
0.000363594
0.00118524
-0.00285477
-0.000769925
0.00111422
0.000488449
0.00124584
-0.00256204
0.000747491
0.000747081
-5.63865e-06
-0.000767557
0.000380543
0.000782044
-0.000176297
0.000768593
0.000237661
0.00110924
-0.00172675
-0.00195665
-0.000828919
-0.000178877
-0.000907838
0.00176289
-0.00111921
-0.00229407
0.00181606
0.00125875
0.0001418
0.00113035
0.002341
-0.0013584
0.000396193
0.000915223
-0.000318256
0.00160452
-0.000554364
-0.000100745
-0.000494175
0.00130336
0.00137916
0.00360001
-0.00167554
-0.000505772
0.000433974
0.0027845
0.00232267
0.000448679
-0.00390302
-0.000159862
-0.001693
0.000696176
0.000184771
-0.000322808
0.000323242
0.00152404
0.000914095
0.00257262
-0.000176708
-0.000375786
0.00258195
0.000573319
0.00346435
0.000699116
-0.00105293
-0.00154233
0.00101796
-0.00137287
-0.00128691
-0.000129979
-2.93863e-05
0.00132164
-0.00082946
-0.000560059
0.000154906
-0.000296387
-0.00148533
-0.000192568
-0.0020139
0.00048603
-0.00107199
0.000529373
-0.000684243
0.00156383
-0.00103457
0.0010796
-1.15425e-05
-9.52046e-05
0.00102995
0.000189461
0.000684639
0.00219027
0.00037098
-0.000213867
0.000536248
-0.000518345
0.000174301
0.000987705
-0.00234305
-0.000779249
-0.000152808
0.00108996
0.00308848
0.000642517
-0.000960754
-0.00105955
-0.000565285
-0.00117526
-6.2463e-05
0.00321732
0.00154731
9.93338e-05
0.000574348
0.000569028
-0.00172942
0.000980026
0.0027667
0.000208522
-0.00752106
0.0024162
-0.000809719
0.000350699
0.00455652
-0.0001512
0.00088489
-0.000488531
0.00184659
0.000564441
0.000251271
0.0010268
-0.000870362
0.000186701
0.000360872
-0.000688724
0.00192525
-0.000352592
-0.000376599
0.000316267
0.000951237
-0.00108886
0.0019169
-0.00221756
0.000823852
0.00323781
-6.36119e-05
0.00458934
-0.000691567
-0.000701875
0.0010258
0.000703365
0.000625648
-0.000348659
-0.000235562
-0.00184034
0.000691198
-0.00184844
0.00273959
0.000200784
0.00163878
6.65947e-05
0.000499012
-0.000420912
-0.000124334
-0.00047729
0.00140024
0.001422
-0.0011007
0.00224763
0.00030019
-0.00013899
0.0012338
-6.11252e-06
-0.000522185
0.00246915
0.00201279
-0.000693811
-0.00012024
0.00010983
-0.000189786
0.000617401
-0.00017785
-0.00267571
-0.000176469
-0.00204254
-0.00125034
-0.00187958
0.000853959
0.000582677
0.00148028
0.000852402
0.00123091
0.00106237
0.0007934
-0.00254526
0.00121041
-0.000104769
-0.000782681
-0.000306592
0.00010166
0.00113668
-0.00259129
-0.000642195
0.000329973
0.000832497
-0.000107557
-0.00513218
-0.000674936
-0.0020263
-0.000439993
-0.00473761
-0.000474372
-0.0017298
0.000274525
-0.00414383
-0.00211505
-0.000419196
0.000466823
0.00215567
0.00119326
0.000967336
-0.00337985
-0.000487264
0.00234394
8.13113e-05
0.000907923
-0.000373035
-0.00181652
-0.00180262
-0.00137376
-1.90658e-05
9.67437e-05
-0.00213854
0.000465517
-0.000247246
0.000744659
0.00142842
0.00316643
-0.00150103
0.00141608
0.000413857
0.0019751
-0.000821799
-0.00192636
0.00542872
0.0019023
0.000579506
-0.00254207
7.38939e-05
-0.000237577
-0.000568816
-0.00112604
0.000748057
-0.00292674
-0.000746108
-0.000356764
0.00152027
-0.00148467
-0.00226976
0.00012905
-0.000100351
0.000119417
-0.000195834
0.000201162
-0.0018199
-0.00229788
-0.000245679
-0.00141784
-2.72104e-05
6.44689e-05
0.00139502
-0.00158351
-0.000197176
-0.000513979
-0.000431915
0.00244678
0.00113345
0.00121792
0.000896066
0.000283913
0.00367187
0.00218896
-0.00239798
-4.28983e-05
-0.000172968
-0.00128553
0.000118483
-0.000620882
-0.0012254
-0.000502685
0.00195895
0.000121526
-0.00222018
0.000413819
-0.000824301
-0.000305673
-0.000709609
-0.00161862
-0.000948163
-0.00210191
-0.00357315
0.00149156
-0.00145643
-0.000749667
-0.00187495
0.000719884
-0.00250525
-0.000400331
-0.000312629
0.00124565
0.000230787
-0.00173369
-1.0894e-05
-0.000219884
-0.000233385
0.00352054
-0.00133809
-0.000941289
0.000451242
-1.96757e-05
-0.000470927
-0.00115115
-0.000987138
-9.50528e-06
-0.00239599
-0.000756315
0.000979595
-0.00225772
0.000633708
-0.00133244
1.10805e-05
-6.79539e-05
-0.00389839
0.000286429
0.00400727
-0.00292692
0.00122786
0.00262742
-0.0005189
0.000186938
-0.00037519
-0.00089834
0.000727109
7.8714e-05
-0.00037227
0.000443585
0.000852182
-0.00024228
-0.00200402
-0.00190839
0.00218652
0.0005581
0.00244114
-0.00352191
0.00012088
-0.000852918
0.00173828
0.000448732
-0.00136189
0.00110811
-0.00163964
-0.000566682
0.000523174
-0.00118835
0.000205292
-0.00313617
0.00195066
0.00168456
-0.00309492
-0.00246565
0.000487229
0.000484127
0.00069834
0.000632482
0.00213886
0.000861139
0.000885981
0.0007623
5.23443e-05
0.000357819
-0.000559896
0.00038085
-0.00113614
0.000640486
-0.00294357
-5.30684e-05
0.00111633
-0.00110341
7.74012e-05
-0.00131512
-0.00139737
0.0015389
-0.00351523
0.00321254
0.000769414
0.000550304
0.00233694
0.00131577
0.00225131
0.00668434
0.00336207
0.000591644
0.000332243
-0.000868638
-0.000665522
0.000150958
-0.000354241
-0.00119991
-0.00218184
0.00123631
0.000813069
-0.000194914
-4.04106e-05
9.19789e-05
0.00105915
-4.24772e-05
-0.000348486
-0.00107969
-0.00187863
0.00192053
0.00465201
-0.00152439
0.00266729
-0.000730191
-0.000685951
-0.00222463
0.000518821
0.000203332
-0.00262676
-0.00120732
0.00254098
-0.00113029
-0.00076355
-0.00152984
0.00205652
0.00230089
-0.00104067
0.000414447
-0.00166395
0.00158483
0.000736461
0.000179087
-0.00334948
1.58206e-05
0.00134843
-0.000736071
-0.000812883
-0.00121791
0.00194266
-0.00173715
-0.00321456
0.00331336
-0.000469607
0.0012404
-0.000156451
-0.00140298
0.000666668
-0.00170835
0.000194482
-0.00261978
-0.00136438
-0.000530735
-0.000690508
0.000170154
0.000370372
0.000734069
-0.000406207
0.000723601
-0.000228423
0.000564478
0.00196522
0.000332707
0.00395218
-0.000330954
0.000292309
-0.00107993
-0.00262203
0.001167
0.000510686
-0.00146123
-0.000607197
0.00186348
-0.000905144
0.00106256
-0.00246069
0.0030353
0.00196238
-0.000301657
0.00231631
-0.00252003
0.00235948
-0.00255876
0.00180057
0.000904806
-0.00191464
0.00106387
-0.00405887
0.00395595
-0.0012057
0.000554869
-0.00208434
-0.00048307
-0.00270473
-0.00180279
-0.00188626
0.000382586
0.00046588
-0.00151257
0.000475811
-0.00201004
-0.00166045
0.000430176
-0.000530538
0.00192105
-0.001069
0.00111462
0.00643644
0.0010006
9.11392e-05
0.0013191
0.000343815
-0.0012552
-0.00195177
0.00133719
-0.000565164
-0.000511854
0.00166975
0.00138377
0.00104083
-0.00300484
-5.73543e-05
0.00264499
0.000518661
0.000863888
-0.000788033
-0.000479586
-0.00134369
-0.000613849
-0.00115545
0.000491747
0.000747599
0.000261725
0.00254965
0.000239377
-0.00250105
-0.00126365
0.00103595
0.000881733
0.00134494
0.00100177
-6.87796e-05
-0.000245331
0.00171687
-0.00160217
0.000187169
0.000859282
8.95504e-05
0.00306276
-0.00080996
-6.88188e-05
0.000825369
0.00248003
-0.00145552
-0.000230396
-0.00219927
0.000715546
-0.000524257
-0.000600645
-0.000857828
-0.000752026
0.000577461
0.000179518
0.00130734
0.000314988
0.00453978
0.00154715
0.00136372
-0.000116291
3.9496e-05
0.000905483
-0.000327631
0.000567741
-0.000627106
0.000497817
0.00176845
-0.00262406
-0.00119486
0.000202432
0.000183426
-0.00191585
0.00100204
0.000811162
-0.000590652
0.00155229
0.00106194
-0.00159708
-0.000425845
-0.000129184
5.28263e-05
-0.000249094
0.00077718
8.56629e-05
-0.00206599
0.00405227
-0.000802292
0.00266929
0.000451071
-0.000344555
-0.000762249
0.00128929
2.88051e-06
0.00185881
-0.00021147
0.000938225
0.00231264
0.00147501
-0.00222965
0.000859883
-0.000492411
0.00149707
-0.00294001
0.000132078
0.000468027
-0.00142877
0.000891274
-0.00138223
-0.000768499
-0.00230642
-0.00185434
0.000477247
-0.00243791
0.000560307
0.000518206
-0.00326017
0.00166602
-0.00204054
0.000465834
-0.000715884
-0.00174057
-0.00116982
0.000866411
-2.08423e-05
-7.27922e-05
0.00440573
-0.000358646
0.000419661
0.000552939
-0.000780194
0.000379888
-0.000426008
-0.00162686
0.000467634
-1.25254e-05
0.000817232
0.000609662
0.000156553
6.79501e-05
0.00222833
0.00120919
-0.00232538
0.000612432
0.000966591
0.00213521
0.00060904
0.00169518
-4.20288e-05
0.000391201
0.00229173
7.38091e-05
0.000588663
0.00347836
0.000240559
-0.00559697
0.00348544
3.49569e-05
-0.00132563
0.000196186
0.000761872
-0.000877998
0.00150351
-0.000881095
0.000678163
-0.000232992
0.000750577
0.00114874
-0.00111074
1.10229e-05
-0.00046329
-0.000404593
-0.000128862
-0.00209396
0.0031217
0.000267469
0.000176391
-0.00215239
0.000188218
-0.00176667
0.00105641
-0.0011006
0.000989531
-0.000359851
-0.000953789
0.000258438
-0.0014398
0.00217488
0.000885009
-0.0012278
-0.0001009
-0.000479845
0.00056655
0.000561191
-0.00114591
0.00109888
-0.00149051
-0.000614997
0.00039873
-0.000324377
-0.000776329
-0.000305536
0.000752789
0.00180548
-0.00150264
-5.93082e-06
-0.00106895
-0.000361652
-0.00154253
0.000281478
0.0016798
-0.000527623
-0.00121658
0.000759104
-0.00038675
-0.00147604
0.00151744
-0.000422914
-0.000111949
0.00168843
0.00127915
0.000104436
-0.00077527
-0.00278146
0.000914896
0.000885943
0.00060026
-0.00160497
-0.000608245
0.000216202
0.00172136
-0.000542699
0.0028295
0.00545675
0.000241233
0.0026736
-0.00097589
-0.00234378
-0.00178172
-0.00319469
-0.00148218
0.000875183
0.000291156
-6.31355e-05
-0.00129344
0.000435316
0.000937034
-0.00100891
0.000211339
-0.00126066
0.00161084
-5.40808e-05
0.00012557
0.00132001
-0.000883174
-0.000609816
0.00123432
-0.000168483
-0.000321488
-0.000100676
0.00120039
0.00258941
-0.000694265
0.0012946
-0.00206276
-0.000459226
0.00185484
0.000508385
0.0011491
0.000878232
0.00140997
-0.00091972
0.00155936
0.00211427
0.00101499
-0.002816
-0.00103563
-0.00133077
0.00083223
-0.00110121
-0.000205895
0.0011404
-5.74831e-06
0.000605316
0.000111596
0.00135929
0.00151572
0.00140455
-0.000860801
0.00046158
-0.00169893
-0.0010515
0.00137619
-0.000382994
-0.000589179
-0.00151509
0.000824277
0.00204772
0.00268403
-0.000406073
0.000476799
-0.000838795
0.00584721
0.000257513
-0.00216072
0.000670548
0.00229841
0.000935204
-0.000699461
0.00171069
-0.00316811
-0.00283426
-6.0327e-05
0.00137638
0.000132663
0.00422929
0.0034754
0.00352425
-0.000364554
0.00377591
0.000930163
1.58168e-05
-2.41774e-05
-0.00050948
0.000381883
-0.00218988
-0.000794417
-0.00199116
0.00197909
0.00237002
-0.000803612
-0.00138242
-0.00139244
-0.00280431
-0.00168364
-0.000677041
0.00130346
4.97445e-05
-0.00026221
0.0010598
0.00113701
-0.00279495
-0.000863959
-0.00225273
0.00352966
-0.000958685
0.00135139
0.000966745
-0.00144879
0.00161603
0.003138
0.00115975
0.00299514
0.000896412
0.00149489
0.000307272
-0.00213204
-0.000212743
0.000354865
0.000615199
0.00110081
0.000864223
-0.000211341
-0.000601022
0.00104379
0.000195486
-0.00142908
0.00471875
0.000514926
-0.00026275
-0.00166136
0.00042202
-0.000438571
0.000758214
-0.000438768
0.00114326
-0.00121697
-0.000781182
2.78863e-05
-0.000353419
-0.00194999
0.000444215
-0.000556632
-0.00181047
-0.00133139
0.0041144
0.000284489
0.000161225
0.00161228
0.0018018
-0.000247217
0.0010651
0.000898511
0.000249047
0.000196898
-0.00127485
0.00126189
-0.00074799
-0.000743337
0.00184984
0.000682931
-0.000783467
-0.00301726
-0.000760725
-0.000557859
-0.00218198
-0.00195104
-0.00099432
0.00050938
-0.000146022
-0.00149795
0.00130299
-4.45503e-05
0.00236818
0.00121522
8.17829e-05
0.00462031
0.00115951
0.00219134
0.001264
-0.00153366
0.00224592
-0.000311585
0.00147106
0.00114679
-0.000535745
-0.000171984
-0.000377246
0.000807006
-8.06685e-06
-0.00166072
0.00177919
-0.0012241
8.77531e-05
-0.000475063
0.00272635
0.000662787
-0.00114292
0.00081011
0.000288882
-0.000862059
0.00377053
0.00553853
0.00246256
0.000118068
0.000425872
0.00211652
0.000748746
-0.000218302
-0.000740301
-0.000847037
4.60972e-06
-0.000594914
0.000114491
0.00454509
0.00331103
-0.00217037
0.000503449
-0.001164
0.00101094
-0.00311328
4.9092e-05
0.000371347
0.000304091
0.000649514
0.00051573
-0.00127899
-0.00146968
0.000267102
-0.000158766
-0.000988546
3.06477e-05
-0.000748241
0.00157015
0.00116846
0.000532499
0.00177192
-0.00240048
0.0015605
0.000461908
-0.000630569
-0.0027298
-0.000273007
0.000527699
-0.00104938
-0.000142314
0.00044906
0.00115319
-0.000225693
-0.00138455
-0.000175318
0.00114663
0.00105496
0.00365631
0.0008326
0.00259916
-0.00270773
-0.00310297
0.0049664
-0.00235559
-0.00119728
-0.000209892
-0.00171973
-0.000334682
0.000239286
0.00146157
0.000520796
-0.000504439
-0.00322816
0.000289619
-0.00124099
-0.000163858
-0.00163171
0.000767857
-0.00057471
-0.000108285
0.00159485
-0.000413182
-0.00102235
0.000888161
0.00026962
-0.00173688
-0.000442917
-0.000497502
0.0010756
0.000172759
0.000995028
0.00213859
-0.000815004
0.00124413
0.000104289
-0.00138556
0.0025654
-0.00142371
0.00026794
0.000723329
0.000627519
0.000863482
-0.00132397
0.000250024
-0.000363163
0.00285303
-0.00307549
-0.00159201
-0.00192987
-0.000606233
-0.00336513
0.00104764
0.000356783
-0.000634092
0.000459451
-0.000129218
-0.00224725
0.00276676
0.000672041
-0.00134861
-1.98837e-05
-0.00161336
0.000482257
0.000297214
0.00351389
-9.41135e-05
6.51586e-05
-0.00288238
5.52672e-06
0.00049005
-0.000937136
-0.000356225
-0.000192282
0.000217094
-0.000360664
0.00380662
-0.000856886
0.000778803
0.000497445
0.000203008
0.000541608
0.000588287
-0.000529568
0.000415836
0.000754074
0.00166215
-0.00105584
6.85062e-05
0.000307852
-0.00194905
0.000572206
0.00149635
0.000416486
-0.00106708
0.00369269
-0.000713132
-0.00169817
0.00278879
0.00185758
-0.000925817
0.000672853
0.000922768
-0.00143379
-0.000163586
3.50551e-05
0.000964494
0.000911614
0.00217794
-0.000681443
-0.00112717
0.00136608
5.91869e-05
0.000229844
0.000519804
-0.000164558
-0.00108653
-0.00138708
-0.00121455
0.0015901
0.00117111
-0.000575982
0.00028564
5.46832e-05
-0.000132812
-0.000180314
0.000715694
-0.00204114
-0.000476791
-0.000251608
0.00380376
0.00110189
-0.000181094
-0.000471171
0.00265514
-0.00122208
0.00253491
0.000694342
-0.000898554
0.00255277
0.000735479
8.96502e-05
0.000268358
0.00119547
-0.00122575
-0.000390405
0.00109468
0.00188312
0.00132804
-0.000428043
-0.000702971
0.000351976
-0.000179387
2.89655e-05
-0.000317232
-0.00013486
-0.000281352
-5.56662e-05
0.000649113
0.000508083
-0.00084138
0.00203082
-4.05779e-05
-0.00178198
-0.000918554
-0.00027297
-0.000310385
-0.000485572
0.00106822
-0.00213721
-0.000110804
0.000288195
-0.00127635
-5.6577e-06
0.0049822
-0.000185563
2.37753e-05
-0.000226747
-0.00199057
-1.76765e-05
-0.00121723
0.000486523
0.00163898
0.00304277
-0.00360848
-0.00119149
-0.000746836
0.00212969
0.000363868
-0.000834738
0.000914435
0.000234891
4.89334e-05
-0.00157463
-0.00118296
-0.000508248
8.27822e-05
-0.00263196
0.000672942
-0.000836245
0.00218637
0.000292656
0.0010054
0.000327575
-0.000886422
0.00069555
0.00109707
-0.00236361
-0.00103647
0.000516664
-0.000106228
-0.0026012
0.00154125
-0.000734738
0.000226706
0.000338652
-0.00334014
0.000197786
0.00122258
0.00217683
0.000297575
0.000587799
-0.00176871
-0.00167696
-0.000408807
-0.00270919
-0.00256276
0.00178233
-0.000988722
0.00425315
0.00064858
0.00125003
0.00254187
-5.11062e-05
0.00156839
-0.0017731
0.0012364
0.00298665
-0.00277131
0.000393147
-9.06466e-05
0.000229058
0.0002961
-0.000232713
-0.00136848
-0.000705879
0.000296184
-0.00347604
-0.00157808
0.000520493
-0.00040015
-0.000357876
0.00513637
-0.000196919
0.00078865
0.000383727
0.000456799
-0.00243167
-0.000256161
0.00104385
0.00198692
0.00178505
-0.000558707
0.000828059
0.000250432
-0.00069442
0.00187017
0.00174688
-0.000242373
-0.000983941
-0.00128387
-0.00129664
-0.00116103
-0.000482918
-0.00232198
1.85935e-05
-7.19531e-05
-0.000450615
0.00121382
-0.00229093
0.00122561
-0.00139679
-0.00192482
0.000142555
-0.000164017
-0.000839
0.000339059
0.000362733
-0.00048122
0.00200609
0.00121227
-0.00146478
0.000428463
-0.000131447
-0.000118326
-0.000294863
0.00010331
0.000156497
0.0020638
-0.000655009
-0.00172406
-0.00151044
-0.00251181
-0.000645689
0.00102851
0.00170553
0.0028848
0.00159507
-0.00108295
0.00159759
-0.00674117
-0.0013298
1.29339e-05
-2.76456e-05
-0.00214177
0.000611934
-0.000551268
0.000427897
0.000218288
7.24915e-06
0.00012164
-0.000831957
0.0012519
0.000147285
0.00404302
0.00258921
0.00155763
-0.00028295
-0.000515134
0.000710784
-0.00349341
-0.00182134
0.00518946
-0.00174776
-0.000477605
-0.00066189
-0.000240727
-0.00095545
0.00269717
-3.20827e-05
-0.0014081
-0.000574832
0.0011857
-0.000165633
0.000393595
5.74788e-05
-0.00113498
-0.00180556
-0.000525291
-0.00288304
-0.000696881
-0.000234781
3.63041e-05
0.000115513
0.00145201
0.000897355
0.000271859
-0.00139301
-0.000681013
-0.000274474
-0.000790862
0.00406731
3.41102e-05
-0.00216765
-0.000416413
-0.00216833
0.000901411
0.000888717
-0.000536909
-0.0006407
0.00191807
0.0016599
0.000539798
-0.00113853
0.00026642
0.0011117
0.00138222
0.00107878
-0.00162966
-0.00012653
0.00151118
0.000886047
-0.00227038
0.00139463
0.00266751
0.00129987
-0.000543144
0.00311562
-0.0011153
-0.000132941
-0.000249956
7.16567e-05
-9.7985e-05
-0.000187308
-0.000825655
-0.00115361
0.000315175
3.39968e-05
-0.000913309
-9.1489e-05
-0.000203322
0.00137661
0.00289735
-0.00355467
0.000123858
-0.00266688
0.000215134
0.000376566
-0.000403692
-0.000384165
0.000916828
-0.000984813
-0.00171495
0.000302267
-0.000154584
0.00152296
0.00124131
-0.000629587
0.00213237
-0.00180045
-7.31419e-05
0.00200158
-0.00156046
0.000746514
0.000143369
-0.000841236
-0.000209404
0.00244903
-0.00114962
-5.95794e-06
-0.000644221
0.00142608
0.000401109
-0.000503333
0.000876482
-0.00168772
0.000763012
0.000964247
0.00208082
-0.00350892
-0.000229623
0.00139668
-0.000442974
0.0047531
-0.00102247
3.56811e-05
-0.000485378
0.00141457
0.00205108
0.000141014
0.000394734
5.56642e-05
0.000874883
5.97394e-05
3.73013e-05
-0.000679212
0.000431282
-0.00180576
0.000503187
-0.000822442
-0.00462947
0.000174039
0.000273516
2.54096e-05
0.000213721
0.0016553
-0.00209276
-0.000214479
-0.00144521
0.000167529
-0.0030768
-0.00329939
-0.00173828
0.00138688
2.3056e-05
0.000112367
-0.000118454
0.00346384
0.00115457
0.00151058
-0.00188854
0.00202087
0.00132842
-0.00263328
0.000474572
-0.000493813
0.000843458
-0.000121043
-0.000108682
-0.000409065
-9.68208e-05
-0.00148608
0.000397512
-8.66489e-05
0.000220523
-0.00247488
-0.00186418
0.00090808
0.000136809
0.000104394
-0.000598406
-0.00108522
-0.00109425
-0.000650511
-0.000659408
0.00209014
-0.00131889
0.00158462
0.000898247
-0.00241667
-0.00238111
-0.000743148
8.89803e-05
-0.000262716
-0.000176462
-0.00207313
0.00125321
-0.00077342
-0.00101217
-0.00205191
0.000747872
0.00132312
-0.00125071
-0.000346766
0.000384504
0.000922948
0.0050444
0.000230663
0.00255502
0.0025129
0.000982243
-0.00284772
-0.000926143
-0.000350048
-0.00124213
-0.000829791
-0.000594632
0.00277573
0.000917706
-0.000260933
0.00132194
0.00138001
-3.23507e-05
6.83645e-05
0.00143632
-0.000531177
0.00100011
-0.000894272
-0.000557739
0.000301131
-0.000300481
-0.000601572
-0.00270806
-0.000331839
0.00102212
-0.000434659
0.00176834
0.00153926
-0.00136528
-0.000973368
0.00230989
0.000586743
0.000215804
-0.00320761
-0.000487064
-0.000892291
-0.00013149
-0.000789035
-0.000176373
-0.000270178
0.000826158
0.000269158
0.00138935
-0.000840468
0.000636462
-0.00232781
0.00142509
-0.00251269
-0.000322127
-0.000953287
0.000603035
-0.00177192
0.000197343
0.000592014
-0.00111289
-0.00268215
-0.00119547
-0.000708296
0.000362235
0.000140408
-0.000989641
0.00184943
-0.00120786
0.000879142
-0.00133189
0.00168926
-0.00102125
-0.000130688
9.75056e-05
-0.000377759
-0.00171807
0.000679865
0.000347498
0.00118053
0.000820248
0.000666942
-0.000129446
0.000125611
-0.000248618
-4.72045e-05
0.000120011
-0.000714905
0.00160884
-0.000391152
0.00166915
0.00303266
0.00217137
0.000446046
0.000579902
-0.000833943
-0.000453493
0.00211839
0.00319628
-0.00109177
2.7444e-05
-8.99193e-05
0.00241955
-0.000244399
-0.000102915
0.000804918
-0.000136626
-0.000188126
0.000565573
-0.000790285
-0.000914395
0.00192643
-0.00461134
-1.53233e-05
-0.000996891
0.000302207
1.15283e-05
0.000269306
-0.000363256
-0.000691186
-0.000404905
-0.000758223
-0.000260159
-0.000757409
-0.000936255
-0.000436803
-0.000291728
0.000767773
1.3183e-05
0.000848886
0.000492648
-0.00261655
-0.000331022
0.00113536
-0.00078709
-0.000976666
0.00108279
-0.00116477
-0.000319698
-0.00169625
0.000115029
-0.000331091
0.000626807
-0.000567315
-0.00021933
-0.0017472
-0.000494152
0.000142757
-0.00228231
-0.000379647
0.00122662
0.00158737
-0.00107406
-0.00295887
-0.00129523
0.000317846
-0.000379882
0.000734644
0.000112003
0.000130741
-0.00296788
0.00162997
0.00217851
-0.00239991
0.000569554
-0.0021385
-0.00416575
-0.00104277
-2.26498e-05
0.000136879
0.00192243
0.000351356
-0.0026073
-0.0015196
0.00183374
-0.00224958
0.00138233
-0.00129812
0.00110966
0.000580202
-0.00188636
8.2406e-05
-0.000127589
-0.000833842
0.000245857
-0.00477759
-0.00230061
0.00225015
0.00160821
0.00466122
0.00185787
0.00209191
-0.000504834
0.00228904
0.00219995
-0.00148888
-0.000581397
0.00191048
-0.000684412
-0.00324975
0.00184346
0.000370301
-0.000400546
-0.0035308
-0.00191393
0.000834677
-0.0042413
-0.00131858
-0.000831583
0.00311378
0.000122405
-0.00185923
0.00399993
0.00294816
0.00403051
-0.000357131
-0.0031237
0.000882588
0.00199697
0.000744732
-0.000126353
-0.00112776
0.00228125
-2.62384e-05
0.00143244
0.000681728
0.000795372
-0.000678338
0.00229859
-0.000788776
-0.00199806
0.000676869
-0.0017206
0.000247752
-0.000354101
-0.00323536
-0.00200927
-0.00415594
-0.00192062
0.00104955
0.000119123
0.00741907
0.000442562
0.000268052
0.000766065
-0.000381603
-0.00191878
-8.86133e-05
0.00035887
-0.00164883
-0.000738363
0.000973126
-0.000709601
0.000732723
-0.00350437
0.00320696
0.00375552
-0.00114773
-2.02896e-05
0.00434932
-0.00269817
0.00594965
0.00260618
-0.000427375
-0.00143371
0.00682743
-0.000725377
-0.00294347
-0.00266837
0.00260834
0.000364159
-0.00215509
-0.000142155
-0.00172812
-0.0021311
0.00464758
0.00296654
-0.000947163
0.00169955
-0.00186127
-0.00333925
0.00370584
0.00162632
-0.000108756
-0.000190464
0.00279627
-0.000572735
-0.000421316
0.000980784
-0.00181491
-0.001635
0.00211159
0.00109979
0.00312948
-0.0064346
-0.00028323
0.00191397
-0.00136986
0.000348944
0.00197645
-0.00269282
-0.00589847
0.0067131
0.000156023
-0.00127972
-4.56048e-05
0.000564641
0.000987465
0.000228109
-0.00103116
0.000572719
0.0011177
0.000622978
-8.52078e-05
-0.0054132
-0.00332512
0.00234673
-0.00314921
-0.00619055
0.00194985
-0.00451876
-0.000100489
-0.001507
0.00144449
-0.00189996
-0.000536615
-0.0021824
0.000523702
0.000596068
-0.00165902
-0.000305295
0.0020727
-0.00108091
-0.00149941
-0.00260459
0.00018463
-0.00320923
-0.00339246
0.0024654
0.0019199
-0.00226152
0.000305389
-0.00349427
-0.000956709
-0.00115731
-0.00458647
0.000137692
-0.000707259
0.000111331
0.0024747
-0.000145978
0.00801374
-0.000636658
-0.00163626
-0.00028529
0.000710899
-0.00173745
0.00054002
0.00335799
0.00312679
-0.00183163
-0.00321528
0.000781407
-0.00389498
0.00471774
-0.00283905
-0.00127353
-0.000276792
-0.00313535
-0.00233749
0.00168971
0.00388361
0.0033791
-0.000969212
-0.00149713
0.00417509
-0.00289194
0.00113883
-3.96711e-05
-0.00165458
0.00373451
-0.000876914
0.00123547
0.00164035
-0.00062809
-2.38653e-05
-0.00311063
0.00017739
-0.000690361
-0.000105938
-0.00275276
-0.00430446
-0.00242403
0.00134567
0.000695337
0.00173862
0.00115336
0.00440663
-0.00433609
-0.00132643
0.00256875
-0.00129749
0.00708521
0.0012332
-0.00154334
0.000455045
0.00089935
0.00744862
-0.000465926
-0.00390273
0.000600311
0.00376592
-0.000878375
-0.00178224
-0.00295775
-0.00275428
-0.0014979
-0.00221173
0.00338853
0.00139587
-0.0020019
0.000576026
-0.00194843
0.00160563
0.000998771
-0.00271628
-0.00425186
0.0041058
-0.00279646
-0.00358551
-0.00161834
0.00350919
-0.00108578
0.00227102
0.000858977
-0.000557497
0.000698619
0.00111228
-0.00281145
-0.00191836
-4.10961e-05
0.00227537
0.00109346
0.00404657
0.0015959
-0.00172353
4.73668e-05
-0.00157662
-0.000461187
-0.000480825
0.000435349
0.00277717
-0.00222113
0.00061437
-0.00185098
0.00152722
-0.00236583
0.00107882
0.00119718
-0.00166543
0.00114937
0.000144103
0.00420435
0.00116493
-0.00312103
0.00126646
-0.00274008
0.000209993
-0.000820866
-0.00321461
-0.00104346
0.000749531
0.000351067
0.000676196
