-0.00475832
0.00156578
0.000345444
0.000707167
0.00109421
-0.00137603
0.000875248
0.00259324
0.00422709
0.00179537
-0.00138956
0.00245307
0.0010425
-0.000715218
-0.0036294
-0.000405935
-0.00275294
-0.0047242
-6.54611e-05
-0.00122497
0.00426643
0.0062902
0.000396016
0.00177549
-0.000918861
0.000706039
0.000750589
0.00170768
0.000719924
0.000503898
0.000529482
-0.00430467
0.00070045
-0.000357724
-0.00105561
-0.00194185
0.000699707
-0.00163325
0.000864907
-0.00102879
0.00043958
0.00117286
0.00204409
-0.00146509
0.00237152
-0.00131845
0.00316716
-0.000407257
-0.00432942
-0.000407091
0.000320552
0.0017917
0.00376518
-0.000879052
-0.00124535
0.000474158
-0.00187805
0.00267953
0.00274108
-0.00150258
0.00132021
0.000614297
0.00333027
-0.00277813
-0.00518675
0.00173521
0.00380564
0.00215421
0.00171088
-0.000481074
-0.00167933
0.00157178
0.00127393
0.00158577
0.00234335
0.000989553
0.00209612
-0.00284799
-0.00317678
-0.000206729
0.000468312
0.0022518
-0.00193675
-0.00409402
-0.000517307
0.001988
0.00109415
0.000681512
0.00127005
-0.00484244
0.00432072
0.002186
0.00151493
-6.17539e-05
-0.000441508
0.000639206
-0.000531475
-0.000946593
-7.50011e-05
0.00086955
-0.00123881
0.00351729
0.00158817
0.00198892
0.00196386
0.0014933
0.000402909
0.00226889
0.00115546
-0.00378594
0.00165781
-0.00522145
0.000638828
-0.000835757
0.000701142
0.0012859
0.00184455
0.00589327
0.00306025
0.00113934
-0.00158861
-0.000607871
0.00132588
0.000773005
0.00334479
-0.0016133
-0.00188067
-0.00100026
-0.000315992
0.00023765
-0.00106541
0.000332314
0.000202607
-0.000542705
-0.00220455
-0.00295152
0.000619631
0.00148435
0.000512522
-0.00199864
-0.0037023
0.00370245
0.00402697
0.00114325
0.00124329
0.000647855
1.67278e-06
-0.000253043
-0.00179873
0.00268804
0.0009769
-0.0038181
0.000301887
0.00104234
-0.000188955
-0.00127673
0.00226364
0.00122234
-0.00148768
-0.00143582
0.000769247
0.000423964
0.00104399
-0.00203019
0.00214251
0.00231263
-0.00085245
-0.00194977
0.00259968
-0.00297379
-0.00360804
-0.000229082
-0.003786
-0.000687204
0.00261377
0.00173754
0.000909665
-0.00053924
0.00171859
0.00138442
0.00345172
0.00171674
0.00101301
-0.00140241
-0.00476434
0.00146813
-0.000139365
0.00157151
0.00280706
0.00156862
-0.00273786
0.000615147
0.00221396
-0.000807729
0.000701251
0.00148073
0.00281188
-0.000434637
0.00317413
0.00124243
-0.000122314
0.000302325
0.00165536
-0.00101748
0.000553416
0.00186904
0.000927525
0.00368575
-0.00177143
-0.00229281
0.00293309
-0.00317684
0.00207604
-0.000157598
0.00130006
-0.00359603
-0.00227556
-0.000129224
-0.000781067
0.00422245
-0.000798931
0.000641009
0.000532039
0.000145699
0.00193441
-0.00148777
0.0013919
-0.00240229
-0.000434179
-0.00280203
-0.000583893
-0.00393597
0.00125064
0.000691862
2.58571e-05
0.00124785
-0.00249101
-0.0018882
0.000580636
0.00325278
-0.00168781
-0.000156369
0.000988232
0.000310226
0.00356087
0.0037921
-0.00192288
0.00166493
0.00020263
-0.00170804
0.000444477
0.00185739
-0.00383277
-0.00480957
0.000861129
0.00178189
0.0010716
-0.00437606
0.00306648
0.00284484
-0.000910442
0.00168045
0.00248204
0.00054297
0.00105113
0.00228821
0.000654472
-0.0013068
0.00202276
0.0011383
-0.00169857
0.00220335
0.000562969
0.00244232
0.00159879
0.000775348
-0.0020731
-0.000505802
-0.00323575
0.00111735
0.00106724
0.00276775
0.00209341
-0.00197701
-0.000717395
0.000982304
-0.00348228
-0.00297367
6.64118e-05
0.000642918
-0.000111407
0.00163414
-0.000580245
0.0015063
-0.000362563
0.00231473
0.000163577
0.00169543
-0.00123324
-0.00130923
0.00111309
-0.000682944
0.00481448
0.00042848
-0.00149444
-0.000860624
0.00480706
0.00204945
0.00061585
0.00334831
0.00134566
0.00196733
0.000930185
0.000621088
0.00235023
-0.0016396
0.000973478
0.000999498
0.00083576
0.00181043
0.00116284
-0.00322405
0.00135527
-4.32712e-06
0.00226238
-0.00227321
0.00208178
-0.00239064
0.00129651
0.00185449
0.00580508
0.00102196
0.00106644
0.000980019
-0.00129001
-0.0011688
-0.00178158
-0.00170844
0.00133061
0.00111004
-0.00201741
-0.00138722
0.00352439
-0.00108713
0.00303168
0.00423244
0.000297494
-0.000890475
0.000604807
0.000629344
0.0017481
0.000512194
0.00056868
-0.0014811
0.00176053
0.00197278
-0.000271045
-0.00105707
-0.000294355
-0.00252728
0.00159403
0.00115891
-0.00134594
0.00404987
0.00152259
-0.00278192
0.00123924
-0.000114635
0.000465801
-0.0027736
-0.00162016
0.00257242
0.00158486
0.000839283
-0.000649827
0.000906356
-0.00218523
-0.000270383
0.00205293
-0.00181707
0.00385292
-0.00182111
0.00216084
-0.00110706
-0.00199794
-0.00432282
-1.73281e-05
-0.00594462
0.00140823
0.00375676
0.000997333
0.00142827
-0.000583912
0.00227787
0.00046036
0.00172721
0.00264997
-0.000487036
0.00228639
-0.00132283
0.000251393
0.00103787
0.000973233
0.000520968
0.00168616
-0.00285767
-0.0012934
-0.000802119
0.0015252
-0.000579258
-0.00157157
-0.00105796
-0.00211246
0.00136006
-0.000766727
0.00115461
0.00122388
-0.00083911
6.92532e-05
0.00104381
5.77946e-05
0.00125296
-0.00185741
0.0024852
-0.00202973
0.000734497
-0.00169736
-0.000280433
6.64464e-05
-0.000391288
0.000342121
0.00295494
-0.00134159
-0.00375379
0.00069001
0.00195634
-0.00338424
0.00154795
-0.00135348
0.00239287
-0.00206921
-0.0012199
-0.00234059
-0.00110704
0.00184234
0.000468124
0.000710662
-0.00178224
-0.000195864
-0.00178015
-0.00190984
-0.000515165
-0.00169153
-0.00120306
0.00223224
-0.00379083
0.00225039
0.00057828
-0.00022779
-0.00154015
-0.000554281
-0.000392175
-0.00102507
0.00336027
-0.00747346
-0.000387299
-0.00127004
-0.000982365
-0.000841778
-0.00402182
-0.00187129
0.00254197
-0.000511405
0.00271334
0.00264754
-0.00157458
0.000589166
0.00154049
-0.00360248
-0.00218852
0.00290247
-7.18565e-05
-0.00132174
0.000374061
0.00383465
0.00231999
0.00216147
0.00192653
-0.0011924
-1.59356e-05
0.00197978
0.00146101
-0.000190582
-0.00172393
-0.00228385
0.00142404
-0.00501352
-0.00185878
0.00220008
0.000583488
-0.000953353
0.000361939
0.00204854
0.001681
-0.00328478
-0.000674734
-0.000559252
0.000987902
0.000584897
-0.00045147
-0.000326565
0.000713931
-0.00179934
-0.00198528
0.0018465
-0.00086719
0.00106442
0.00123515
0.0025518
-3.48037e-05
0.00398683
-0.00124409
-0.00276608
0.00213908
-0.00169397
0.00352559
0.0047536
0.00539627
-0.00161939
0.0030299
-0.00160937
0.000416249
-0.00178025
-0.00377667
-0.00180803
0.00102864
-0.00104117
0.00242328
-0.00189844
0.00101226
-0.000630992
0.00044737
0.00111508
-0.00177794
0.00181525
-0.00108699
0.00027655
0.000438364
0.00223839
0.000558193
0.00303642
0.0011092
0.00165182
0.000594366
-0.000169031
0.00235176
0.000924843
0.00108391
-0.00186767
0.00154368
-0.000931814
0.00217191
-0.00183257
-0.00396338
0.00149513
-0.00210468
-0.000429678
0.00134309
0.00477368
0.00226613
0.002124
0.000791523
0.00347175
-0.000898976
-0.000948407
-0.00113712
7.04376e-05
0.00258316
-0.00228643
-0.00150148
0.00255421
-0.00161648
-0.00116535
0.00240914
-0.00186648
0.0048363
-7.06289e-05
0.00383724
-0.00129669
0.00127639
0.00430182
0.00200463
-0.00188432
-0.00136364
-0.00138497
-0.000217405
0.0034066
-0.00451792
-0.00224478
0.0020577
0.00104612
-0.000821606
0.000674005
-0.000642254
0.00362779
0.00062265
-0.00460061
-0.00206848
-0.00104864
0.00237104
0.00160805
0.00024249
-0.00120981
-0.00269441
0.00138547
0.00198061
0.00449987
0.000121102
0.00345702
0.00296053
-0.00250335
-0.000390347
0.00158174
0.00275403
-0.00098528
0.00107096
0.000646187
8.12207e-05
-0.000244995
-0.0023788
-0.00277499
-0.00195309
0.00246118
0.0050587
0.000448308
-0.00334902
-0.00130578
0.00110546
0.000171103
-0.00286294
-0.000617357
-0.00128263
0.00107459
0.00266005
-0.00165751
0.00190201
-0.00140668
0.00244507
-9.7212e-05
-0.00476881
-0.00400259
0.00470829
-0.0011809
-0.00282734
0.00194635
0.000893695
-0.00220601
0.0015263
-0.00313511
8.27776e-05
-0.00666419
0.00314301
0.00105018
-0.00178583
-0.00101112
-0.00242923
-0.000429919
-0.000344641
0.0037799
0.000781004
0.000535427
-4.36137e-05
0.000379988
-0.00268888
0.00150314
-0.00187061
0.000529551
0.00140145
-0.00129854
0.00240263
0.00484441
-0.00118002
0.00179873
-0.00343199
-0.00205191
0.00144817
-0.00203452
0.00174663
-0.00349803
0.00169703
-0.00132424
-0.00123978
0.00355361
0.00292566
-0.00153454
0.00358451
-0.00135634
-0.00283653
0.000485712
-0.00234679
-0.000700089
0.00379195
-0.00225168
0.000187083
-0.00322563
-0.000620811
0.00116039
0.00374506
0.00017234
-0.00185354
-0.00192796
0.000712912
-0.000545734
-0.00473663
-0.0025021
-0.00190805
0.00139631
0.000208722
0.000355431
0.00214575
-0.00173606
0.000221899
0.000797225
-0.00207566
-0.00385061
-0.000850897
-0.00134881
0.00160904
0.00272245
0.00203943
0.00113048
-0.000412948
-0.00178608
0.000926211
-0.00130588
-0.000378232
0.0020679
0.00211155
-0.00158292
0.00349723
-0.00555343
-0.00846152
0.000755111
0.000260235
-0.00175011
0.00246193
-2.68517e-06
0.002633
0.0017117
0.00251299
-0.00174343
0.00140854
0.00207668
-0.000926852
-0.00257629
-0.00278777
-0.000504481
0.00246001
-0.00033365
-0.00388014
0.000737548
0.000871976
0.000785371
0.00436296
0.00230243
-0.000511777
-0.00132474
0.00203998
-0.00145208
-0.00121267
-0.00143554
-0.00147425
-0.0013429
-0.000500061
-0.0027021
-0.000773424
0.00179192
-0.00311808
0.00235998
-0.00161074
0.0011343
-0.000113625
0.00237002
0.00223464
0.000440841
-0.00218989
-1.71424e-05
-0.00396391
-0.000517105
0.00241598
0.000764845
-6.90443e-05
-0.000585859
0.000787803
0.00230964
0.00107819
-0.000362268
-0.00397734
0.00120878
-0.0014064
-0.00081047
-0.00146274
0.00595835
0.000615014
-0.00123448
0.00214794
0.00132875
-0.001385
0.00023139
0.000462593
-0.000243019
-0.00515614
0.00177328
0.000773614
-0.00114099
-0.000142748
0.000721686
0.00186573
0.000722622
-0.00328302
0.00168138
-0.00214216
-0.00023297
0.00125432
0.0058731
0.000888372
-0.00221747
0.00121007
0.00301676
0.000730755
-0.00132943
-0.000535509
0.00129652
-0.00113874
0.00370793
0.00333325
0.00290289
0.00272488
0.000444934
-0.00274721
-0.000632825
-0.0010597
0.00127916
-5.73039e-06
0.00137556
0.0019166
-0.0017996
0.00015079
0.00369806
0.00121155
0.00207411
0.000237771
0.00037344
0.00294886
-0.00162679
0.000910638
0.00242434
-0.00165319
0.00303259
0.00182966
0.000537798
0.000289409
-0.0046457
0.00104111
0.0014726
0.00196807
0.000734779
0.00109442
0.000929065
0.000718726
-0.000242036
-0.0025693
-0.00201769
0.000584018
0.00181337
0.00395229
0.00035355
0.00224575
-0.00201111
-0.000801081
0.00358703
0.00239087
0.00130842
-0.000162675
-0.000192707
3.94514e-05
-0.00229284
0.00110771
-0.000250591
0.00409448
0.00148284
0.000637026
-0.000983133
0.000788146
0.000538031
0.00051521
0.000942751
-0.000454761
-0.000617745
0.000719255
-0.000862578
0.00241296
0.000350063
0.000959921
0.000296086
0.00070384
0.00073639
-0.000181427
0.00306792
-0.00148887
-0.000416411
0.000617519
-2.13355e-05
0.00117611
0.000831456
0.0043386
0.00330659
0.00097344
-0.00122602
0.000624654
0.00174523
0.00128061
0.00172547
-0.000404284
0.00127253
-0.000649797
-0.000509731
0.000396551
-0.00143987
-0.000149934
0.000777378
0.000555616
-2.79737e-05
0.00371343
-0.000201692
-0.00135553
0.000400883
-0.00118642
0.000671214
0.00219561
-0.000335507
-0.0009184
0.00256826
0.00274355
-0.000512139
-0.000497454
0.00438726
-0.000634437
0.00130953
0.000852056
0.00268857
-0.00213137
-0.00424937
0.00210262
0.00169713
0.000628762
-0.00101736
0.00189946
-0.00471083
0.000774469
0.00215411
-0.00178531
-0.00194045
0.00123796
-0.000568851
-0.000115449
-0.0007674
-0.00146425
-0.00170288
-0.00236492
-0.00219736
-0.000322019
0.000871424
0.00321391
-0.00367215
0.00309601
-0.000342536
-0.00310255
-0.00256098
0.0019738
0.000333358
0.00295625
0.00056816
0.00141564
0.00147926
-0.00059406
-3.86217e-05
-0.00181343
0.00311646
-6.94315e-05
-0.00191146
0.0018242
-0.0020125
0.00104656
-9.72399e-05
-0.00178119
-0.00120413
0.0017875
0.00239158
-0.000695144
0.00162794
-0.00048529
0.000789487
-0.000759874
-0.00310902
-0.00542056
-0.00691785
-0.00112479
-0.00168822
0.00151922
-0.00140436
-0.0019419
-0.000377148
-0.00231687
0.00256312
-0.000673822
0.00288642
0.00173811
-0.00119748
0.000892981
0.00184828
0.00300107
0.00306401
-0.000161366
0.00145784
-0.0010791
0.00110252
-0.000159112
0.00311789
0.000898622
0.00225467
-0.00215459
-0.00169242
0.00098648
0.000811402
-0.0032906
-0.00130255
-0.00148966
-0.00249699
0.00230422
0.000347615
-0.00565111
0.00273079
0.000568279
0.00614288
-0.00058498
0.000424076
-0.000207006
-0.00235883
0.00275031
0.00211408
0.00402214
-0.000965335
0.000609791
0.000923695
-0.00623021
0.000780226
0.000374609
0.000886921
-0.00156377
-0.00107299
0.000835577
-0.00122699
0.000861931
-0.00271517
-0.00135353
-0.00257639
-0.00148003
0.00254809
0.000953205
0.000238845
-0.000827753
-0.00286457
-0.00123146
-0.00119276
0.00121195
0.000647025
0.000888226
7.12938e-06
0.00301432
0.00217297
0.0050383
-0.00136896
-0.00107468
0.000852572
0.00370487
-0.000578517
-0.00238677
0.00185781
-0.00270795
-0.00110914
0.00151789
-0.0025363
0.000185199
0.00214612
0.000557329
-0.0029651
-0.00165528
-0.00176188
0.00114872
0.00245559
-0.00101654
-9.03666e-05
0.000848539
0.00173462
-0.00366997
-0.00245956
-0.00433396
-0.00113219
-0.00225817
0.000767339
-0.000706438
-0.00457742
0.000688049
0.0013378
-0.00193334
0.000142151
-0.00376163
-0.00147464
0.00458543
-0.00133201
0.00086111
0.000616966
-0.00369872
-3.53424e-05
0.000618998
-0.00171127
0.00229229
-0.00079782
-2.73756e-05
0.000656112
0.00387586
0.000593172
-0.00237396
0.000849008
0.000911225
0.0025584
0.00128971
0.00121825
-0.00210422
-0.00462393
-0.00351509
0.00107442
0.000862536
0.00035572
-0.000467656
-0.00136081
0.00154456
0.00066426
0.000324452
0.00061679
-6.44073e-05
0.00292097
-0.000315079
0.00266471
0.000335509
0.000479612
0.00228084
0.000356306
0.00225301
-0.000232734
0.000591102
-0.000722993
0.000329543
0.00177624
0.000424072
-0.0031968
0.00102287
-0.000542137
0.000688532
0.000778875
-0.00074724
-0.000965728
-0.00189933
-0.00253347
-0.000760671
0.000222211
-0.000943802
0.00125856
-0.000661447
-0.00124587
-0.00107002
-0.00151662
0.00178525
0.000835356
-0.00282723
0.00166113
0.00250437
0.00020292
0.00219019
0.00328942
-0.000136834
-0.00322081
-0.001513
0.00162407
0.00050026
-0.00216499
0.000338293
-0.00149786
-0.00242335
0.00107981
-0.00143006
-0.00182658
-0.00117887
-0.000893044
-0.000535583
0.000522573
0.000737441
-0.00276241
0.00103932
0.000512533
-0.00157616
0.000113173
0.00133963
0.000993869
-0.000886526
-0.000933657
-0.000809255
0.00137167
-0.000942404
0.000450474
0.00063893
-0.00107238
0.00230288
0.00488664
0.000346535
0.00208094
0.000866545
0.00122626
-0.00109629
-0.000385031
0.00133304
0.00248806
0.000384736
-0.000942074
0.00140313
0.00120738
-0.0015941
0.000328786
-5.66582e-05
-0.000331871
-0.0004627
0.00132749
0.000753321
0.00132449
0.00138984
0.00036538
0.000712071
-0.00187212
-0.00265601
-0.00134593
-0.00143054
0.00143665
0.00204537
0.00109344
0.00360114
0.000857626
-0.000916121
-0.00247485
-0.000915837
-0.00189491
-0.00251161
-6.73657e-05
-0.00097978
0.000777111
0.00354598
0.000889632
0.00213835
0.000273935
0.00207616
-0.0013325
-0.000375812
-0.000991524
-0.00100098
0.000362698
-0.00208347
0.000125403
-0.000916366
-0.000554549
0.00348512
0.00301737
0.00193481
-0.00140642
-0.00233552
0.00212755
0.00283493
0.00374007
0.00177206
0.00399738
0.00107885
0.0039109
0.00124085
-0.000236126
0.00593252
-0.00123057
0.00297136
0.00459201
-0.00083395
-0.00208058
0.00258981
-0.00174873
-0.000919014
-0.00573331
0.00103363
-0.00349197
0.00181065
0.000604857
0.000101317
0.00465708
-0.00243588
0.00210128
-0.000982621
-0.00222714
0.00394272
-0.00106481
0.00145051
-0.00291548
0.000595251
0.00194573
-0.00188403
0.00391318
-0.00155757
-0.00329974
0.000584999
-0.000707746
-0.00411587
-0.0008308
0.000311662
0.000841989
0.00441617
0.00307686
0.00268407
0.00064807
0.00356837
0.000272507
0.00207899
0.00174843
0.00282029
4.27276e-05
0.000329004
-0.000182035
-0.00431635
-0.000312211
0.0020998
-0.000102548
0.000274819
-0.000989796
-0.00103382
0.000985297
0.00153733
-0.000141718
0.00133023
0.0011704
-0.00110775
0.000538176
0.00128142
-0.00171582
-0.00124295
-0.00224946
0.00132809
-0.00315373
0.00216206
0.00253058
0.000201436
-0.0010109
0.000638671
0.00193344
0.000634442
0.00142367
0.00146311
-0.000522562
0.000955849
-0.00267659
0.00209437
-0.000727918
0.00371985
0.00114257
0.00109342
-0.00104756
0.00177919
0.000437223
-0.00117473
-0.000489406
0.000388577
-0.00118497
-0.000910011
-0.000819049
-0.00107292
0.000361768
-0.00030922
0.00127366
-0.00143117
0.00345391
-0.000671343
-0.000732513
0.00346634
-1.72326e-05
0.00214902
-0.00181171
0.00205446
0.00434449
-0.00146858
0.000454155
-0.00380975
0.00242876
0.00050442
-0.00176641
0.00139782
0.00296536
0.000689854
0.004055
-0.000531368
0.000362189
-0.00045759
0.000427912
0.00262473
-0.000488357
-0.00102248
0.00535683
0.00119964
-0.00129432
-0.000731844
0.00120229
-0.00153077
-0.00156581
0.00222219
-0.000655192
-0.000748826
0.00250025
-0.00133128
8.38289e-05
-0.00249626
0.00106632
-0.00232454
0.00209471
0.00101539
0.00404917
-0.0026556
-0.00175634
-0.00203388
-0.000152813
-0.00116723
0.00178548
0.000315384
-0.00463324
-0.000289925
0.00108228
-0.0017083
-0.00253338
-0.000496125
0.000387902
0.00212287
-0.00149899
0.00113943
0.000468913
0.00268343
0.000486041
-0.00159485
0.00498424
0.00249712
0.00397644
-0.00586607
0.00457539
0.00243023
-0.00061722
0.00239996
0.00437665
-0.000512587
0.000273543
-0.000798107
0.00162766
-0.0010305
0.00184401
-0.00134048
0.000779081
-0.000667914
0.00216399
0.000492335
0.000916019
-0.000588304
0.00132035
0.004789
0.00264338
-0.00165451
0.00114072
0.000608548
-0.000849092
-0.000754305
0.00172236
-0.00179738
0.000609299
0.00179894
0.0014786
0.00281917
0.00121562
-3.35784e-05
0.00135453
-0.00101517
0.00172704
0.000267882
-0.000732788
-0.000261801
-0.00042617
0.000207735
0.000214916
0.00206637
0.000443461
0.000343165
0.00107223
0.000417347
-0.000139356
-0.00152561
0.000994226
0.00153787
0.000693065
0.00111547
-0.000109456
0.000515078
3.38373e-05
0.00166306
-0.00134774
-8.79529e-05
-0.00105868
-0.000862874
-0.000786073
-0.000319082
0.000966182
0.00041566
-0.000592637
-0.000791549
0.003309
-0.000863937
0.00125584
0.00154383
-0.00180635
0.00191023
0.0037993
0.00100441
0.00210576
-0.00159245
0.00145244
0.00147329
-0.000333061
-0.0040363
0.00431907
0.00179407
0.0013806
0.00210477
0.00385647
-0.00166912
0.00332226
0.000649914
-0.00182346
-0.00092568
0.00219933
0.00282166
0.00462949
0.000902343
0.00187796
0.00120625
0.000288387
0.00192167
-0.00458499
0.00167768
0.000662578
-0.00218736
0.00188437
-0.00065857
-0.00156845
-0.000802847
-0.00228591
-0.0018687
0.000987508
0.00142854
-0.000700616
0.00216993
0.00172157
0.00125081
0.00130383
-0.000736028
0.00103314
-0.00032473
-0.000235248
0.00259651
0.00344865
0.00186897
0.00208109
0.000963513
-0.000477034
0.00212127
0.000694448
-0.00191743
0.000702844
0.00115728
-0.000284509
0.00139914
0.00491832
0.00101048
-0.000295993
0.00303195
-0.000569229
0.00184244
-0.00138205
0.00343616
0.00273402
0.0011702
0.000872617
0.000365967
0.00125409
-0.00126647
-0.0042302
0.000937052
0.00158576
0.00286126
0.00256207
-0.00195481
-0.00140757
0.00363024
-0.000733157
-0.00156531
0.00392014
0.000788527
-0.00177881
-0.00160635
0.0033881
0.00153451
0.000489682
0.00108555
0.00197418
9.66627e-05
-0.000920848
0.000825594
-3.49263e-05
-8.05416e-05
-0.0017392
-0.000682773
0.00189773
-0.00110383
-0.00155407
-0.00310583
-0.00107893
0.00279673
-0.000940172
0.00109889
-0.00276241
-7.15297e-05
0.00160862
0.00131543
-0.000432243
0.0016572
-0.00260024
0.00198015
0.00104716
0.000904681
0.00278138
-0.000107146
0.0015701
0.00197231
-0.00213765
0.00133085
0.00225232
-0.00145909
0.000620328
-0.00241546
0.00021112
0.000268561
0.00183333
0.00591993
-8.56876e-05
0.000642171
-0.00138052
0.00179229
0.00129127
-0.00222756
-0.00240484
0.00113464
-0.00100269
-0.00112418
-0.00349142
-0.00179564
-0.00280085
-0.00214234
-0.000602518
0.00136777
0.00132143
-3.08516e-05
0.00154294
0.00121689
7.87121e-06
0.000876152
0.00124249
-0.000915995
-0.00240525
0.00387725
0.00128185
-0.00586435
0.000774297
0.00122511
-0.000352945
0.0019217
0.00124152
0.00159918
-0.00330348
-0.0012618
-0.00455135
0.000320186
0.0015579
-0.00223825
0.00145879
-0.00240318
0.00116765
0.00208171
-0.00081004
-0.00299006
0.000894507
-0.00150601
-0.000817724
-0.00044074
0.000747369
0.00146003
-0.0009196
0.00248113
-0.00052357
0.00250019
0.00072213
0.00210298
0.000454645
-0.000646453
-0.00255756
0.000238151
0.00105136
3.96162e-05
0.00248218
-0.00287985
0.00104778
0.000314106
-0.00190321
0.000455543
7.11174e-05
-0.000852509
0.00349313
0.00039662
0.000860733
0.00383896
0.0022367
0.00372406
0.00144281
-0.00356297
0.00201668
0.00184956
-5.78441e-05
-0.00484194
0.00410337
-0.000122836
-0.000355253
0.00363375
-0.00318163
-0.00183517
0.000402208
-0.00279406
-0.000484218
0.0033876
-0.00088927
-0.0022707
0.00165859
-0.00205664
0.00445178
-0.000283102
0.00060752
0.00276643
0.000553357
0.00214634
0.0020546
-0.00102872
-0.00245212
0.000771097
0.00160692
0.00263663
0.00179789
4.78129e-05
0.0025525
-0.000376419
0.00169669
-0.00199034
0.00490745
0.00118642
0.00274588
0.00175774
-0.00234045
0.00221854
0.0053494
0.0034112
-0.00354491
0.00272128
0.00142134
0.00103711
0.00702353
0.000480806
0.0023899
-0.00094124
-0.00121855
0.00586073
-0.000123418
0.000465567
0.00380044
0.0010328
-0.00102075
0.000947503
0.00291241
-0.000636181
0.00257746
0.00186314
-0.00114663
0.000835686
0.00247902
-9.51956e-05
0.000755764
0.00400212
-0.00178864
0.00157756
0.00198334
0.00513105
0.000852954
0.00541728
0.000531808
0.0028118
0.00494043
0.00427938
0.00150288
-0.00345897
0.000109079
-0.000160547
-1.26747e-05
0.00138465
0.00151965
0.00206663
0.000651456
0.00190527
0.00352961
-0.000678826
-0.000611718
0.00139415
-0.000985694
-0.000194299
-0.00303048
-4.36683e-05
0.00382227
0.0013504
-0.00324408
-0.00193083
-0.0033865
-0.00183147
-0.00426558
0.00021183
0.0031864
-0.00146136
0.00112895
-0.00485454
0.000350076
-0.00196033
-0.000770192
-0.0042259
-0.00124013
0.00111172
0.00151416
-7.32617e-06
-0.00349947
0.00200491
0.000938088
0.000259693
0.000210372
-0.00152137
-0.00093792
0.000654591
0.00131464
-0.00226144
-0.00369881
0.00201575
-0.00179934
0.00125626
-0.00205866
-0.00027723
0.000890012
-0.00137679
-0.00317623
-0.00151675
0.000870689
-0.0015984
-0.00278214
0.00221737
-0.000940897
0.000183877
-0.00230191
-0.00141677
-0.0010343
-0.000920976
0.000522276
-0.0013551
-0.0013012
0.00290354
-0.000851196
-0.000891951
0.000805139
-0.00329977
0.00464991
-0.00194613
-0.00123205
0.0020117
-0.0011677
0.00120715
0.00113688
0.000781284
0.00017512
-0.00231829
0.000324516
-0.00618608
0.000775016
-0.00395947
-0.00157972
0.000560115
0.00195665
0.000804017
-0.00330036
-0.000793386
0.000921041
-0.000545058
0.0027902
-0.000611253
0.00151732
0.00033322
-0.000425554
0.00388097
0.000332282
0.000891322
-0.00280268
-0.000978059
-0.00154813
0.00151108
0.00106577
0.00444198
-0.00217054
-0.00175473
-0.000264753
-0.00117791
-0.000175675
-0.0013867
-0.000197896
-0.00115637
0.000510376
0.00119762
-0.00201078
-0.00211493
0.00225902
0.000454303
-0.000267709
-0.000820185
0.000779212
0.00143744
0.00306015
-2.98023e-05
0.00159493
0.00306811
-0.00138088
0.000736158
0.00153543
0.0026944
-0.00133339
0.00404531
0.0014097
8.65962e-06
-0.00122811
-0.000719109
0.00103863
-0.00314043
0.000509125
0.000310677
0.00263375
0.00590915
0.000601674
-0.00201394
0.00314008
-0.00310374
-0.00432973
0.00353053
-0.000847672
-0.00477002
-0.00085151
0.00201064
-0.00341863
-0.000955525
0.000185058
0.00389695
-0.00165965
0.00399479
0.00431821
0.0013227
0.00213221
0.00114248
0.000883748
-0.000774744
-0.000656665
0.00334899
-0.0018699
0.000416562
0.000935256
-0.000444908
0.00146552
0.00203397
-0.00115425
-0.00318844
-0.00113094
0.0018022
0.00146596
0.00109569
-0.000927735
-0.0015004
-0.000252775
0.00468735
-0.001242
-0.00380609
-0.00409575
0.000801059
0.000320321
-0.00144196
0.000684168
0.00271157
0.00114041
-0.00157178
0.00284128
-0.00439153
0.00149596
-0.00392192
-0.00105042
0.000542222
0.000449458
0.00397695
-0.00030357
2.27582e-05
0.000526802
0.00426471
-0.000499075
0.00104366
-0.0019817
0.000610163
0.000746766
0.000293417
0.000273726
0.000741868
0.000973558
0.000923756
-0.00304223
-0.000919448
0.000587939
-0.00410877
0.00165147
0.000822672
-6.14733e-05
-0.000855571
-0.00191626
-0.000191081
-0.00510758
0.00235437
-0.000855348
-0.000156826
7.90962e-05
0.00237342
-0.000658067
0.000858753
-0.00271969
0.00180557
-0.00441385
0.00228283
0.00417107
-0.000726255
-0.00231175
0.000337041
-0.00343711
0.00103844
0.000947252
0.00108997
-0.00156522
-0.000223153
0.000184844
-0.000536479
-0.00122617
0.0016527
0.000655643
-0.00217147
0.00433056
-0.00115525
0.00402704
-0.00113745
0.000343495
-0.000918808
-0.00252349
-0.000691658
-0.00171252
-0.00280379
0.00100699
0.00319308
-0.000884031
-0.00446445
-0.0028484
-0.000692441
0.00643716
-0.000319887
-0.00423753
-0.000758701
0.0053713
0.00230115
-0.00204886
0.00251579
-0.000350011
0.000561231
0.00465279
0.000448524
0.000850086
0.00163618
0.00321269
0.00148221
-0.00266098
-0.00324588
-0.000802862
0.00156688
-0.000395727
-0.000895684
0.00386571
-0.00188377
0.00278939
0.0029432
-0.00232706
0.00114661
-0.00310525
0.000100529
-0.000532251
0.00177741
-0.00164302
0.00240424
0.000201103
0.00362834
0.00264478
-0.00281147
0.00137323
0.000843471
0.00117657
0.000445912
-0.00118841
0.000202132
-0.00164292
-0.000872038
-0.000640213
-0.000436834
-0.000872207
0.00104407
-0.000646824
0.00135746
0.00611063
0.00267565
-0.000101093
0.00114262
0.00314387
0.000132737
0.00221757
-0.00146078
-0.000369466
0.00193617
-0.00374417
0.0013707
0.000145524
0.00150471
-0.00442141
0.00435297
-0.00512423
0.000524291
0.00246999
-0.000318321
-0.0021711
0.00221455
0.0012242
-0.00262497
0.00333703
-0.00135971
0.0022913
0.000412312
-0.000247271
-0.000715548
0.00226831
-0.00527626
0.0005662
0.00185252
0.001756
0.000799354
0.00335698
-0.000610316
-0.00111977
0.00084088
0.00216714
-0.00135099
-0.000581675
0.00162423
0.00184533
-0.000453174
0.00191079
-0.00118062
0.000721174
-0.000719444
-0.00105104
-0.000725458
0.00259853
-0.00246502
0.000978763
0.00390157
-0.000265666
0.0022662
0.00302381
0.000349566
0.000499195
-0.00266597
-0.000336523
0.00234268
0.00155308
0.00101025
-0.00292972
-0.00270128
-0.00125769
-0.00182091
-0.000726439
-0.00135192
-0.000907
0.00268969
-0.000632831
0.00108303
-0.00366427
0.00267836
0.000892703
0.00140285
-8.10052e-05
0.00116136
0.0022022
0.00147349
0.00298701
0.00279235
0.00105014
0.00219351
-0.000601855
0.00153439
-0.000624716
0.000961993
-0.00133783
-0.000871667
0.00131492
0.00388631
0.00101351
0.00138412
0.00278116
0.00381516
-0.000319312
0.000246877
0.000252522
0.00160325
-0.000198612
-0.00288134
-0.000905444
-0.000504742
0.0023514
0.0015925
0.00145265
-0.00140508
0.00076703
-0.000239003
-0.00365368
-0.00144578
-0.00091724
0.000410061
0.00175196
-0.000869361
0.00172055
0.00153164
0.00342758
0.00291992
0.00175798
-0.000855603
0.00112918
-0.00237454
0.00112121
-0.000978623
0.00171829
0.0065154
0.00212778
-0.00422729
-0.0023903
0.00447578
-0.00228323
0.00165211
0.000397389
0.0028843
-0.00164096
-0.00147233
0.00537842
-0.0023235
-0.000444203
-0.000510629
8.65662e-05
0.00315233
-0.0018855
-0.00112758
0.00130306
-0.000432297
0.0012437
-0.000190814
-0.000944403
-7.40184e-05
0.00755303
0.00284375
-0.00182152
0.000759405
-0.000757797
0.00144916
-0.00410745
-0.00116763
0.000677824
-0.00214691
0.00278858
0.00141562
0.0018254
-0.00227961
-0.00163414
-0.00291452
0.00357008
0.00371849
0.000115229
0.0003938
0.0009076
-0.000501539
0.000411598
0.0012266
0.000458134
0.000371607
-0.00169876
-0.000278756
-0.000742237
0.00199299
0.00394717
-0.000166698
0.00206952
-0.00469384
0.0018829
-0.0066234
0.00100383
0.000300857
-0.000983008
-0.0013266
0.000665213
0.00170408
-0.000239409
-0.000411609
0.0019933
0.00171096
-0.00105631
-0.000940786
-0.00254585
0.00135447
-0.000192238
-0.000622995
0.000769059
0.00391572
-0.00112385
-0.00110877
-0.00208829
-0.00161657
-0.00274667
-0.000533996
0.000248225
5.25435e-05
-0.000869909
0.00222802
-0.000737747
0.0046907
-0.00181773
-0.0014683
-0.00164435
-0.000758536
0.00193658
-0.000213692
-6.38513e-05
0.00155315
-0.00400209
-0.000231485
0.0013387
-0.0011477
9.92861e-05
0.00235433
-0.00269312
-8.00962e-05
0.00114768
0.000337999
0.00249663
-0.00319212
-0.000996007
-0.0025508
0.00240901
0.00342947
-0.00155268
-4.99519e-05
-0.000109776
-0.00323847
-0.00301427
0.0055795
0.0011022
0.000791136
0.00129654
-0.0015589
0.000705771
0.000456777
-0.000348848
0.00554703
-3.26631e-05
0.00190024
-0.00125666
0.00198504
0.000898342
0.00064935
0.0011553
-0.000759758
0.000171672
0.00130872
0.00129813
0.00145598
-0.000729835
-0.0010806
0.00325468
0.00264803
0.000298844
-0.0016904
-0.00235801
-0.000666348
-0.00196918
0.00393678
0.00325803
-0.000279343
0.00329809
-0.000417005
0.00150165
-0.00310542
0.00259943
0.000765019
0.000824161
-0.000565214
-0.0018938
-5.96934e-05
0.00117907
0.000577106
-8.91631e-05
0.000768934
-0.00195901
0.000183807
0.0041393
-0.000491062
0.0020471
-0.000504892
0.000121935
0.000406485
-0.00122111
0.00141555
0.00212773
0.0014856
0.00196833
-0.000223192
0.00053095
-0.000503671
0.00101978
0.00212108
-0.000479944
-0.00362433
-0.00248421
-0.00234453
-0.00467346
0.00114324
0.000447091
-0.000922825
-0.00155796
-0.00131332
0.000791576
-0.00098589
0.000537754
0.00061739
0.00217537
-0.000840934
-7.29064e-05
-0.000584815
0.00244061
0.000429153
-0.000511288
0.00173343
0.00129083
-0.00038105
0.00206128
0.00138829
-0.00181426
0.00258062
0.0010125
0.000946829
0.00117196
-0.00458444
0.0029732
-0.00268942
0.00301027
0.000637912
-0.00105674
0.000827075
0.00257877
-0.00318843
-0.00105816
-0.00146203
0.00149298
0.000639327
0.00107931
0.00031069
0.00224547
-0.00122067
-0.00106569
0.000530077
0.000733104
-0.00622783
0.000691532
-0.00117505
-0.000238946
0.00273919
0.000841916
-0.00264799
-0.00100797
-0.000445833
-0.00181308
0.00133697
-0.00104326
0.0012633
0.00310105
0.00121001
-0.000437836
-0.000124104
0.00156851
0.00131042
-0.00351887
0.00215479
-0.000561018
0.00068292
-0.00168764
-0.00258459
-0.000682122
-0.000312337
0.00154342
0.00057362
0.000392981
0.00183218
0.00149578
-0.000287648
-0.0019807
0.000785811
0.0024452
-0.00395044
-0.000868
-0.00195766
0.00132497
0.00124799
0.00112705
0.00274269
-0.000503922
-0.000901079
0.00246401
0.000813083
-0.00132079
-0.00253197
-0.000506312
0.00143682
0.00172443
0.00206713
-0.00136824
-0.00264439
0.000761962
0.0012338
-0.000325503
-0.000738196
-0.00252399
0.000772233
0.000847496
0.00408231
0.00292504
0.00068753
0.00121233
-0.000231215
-0.00056776
0.000208284
-0.00177173
0.00487016
0.00233819
-0.0029395
-0.00266995
0.00245219
0.00099566
0.00072455
-0.000954958
0.00109286
0.00353887
-0.000816714
0.000584944
-0.000745512
0.000834141
0.000416275
-9.97413e-05
-0.00355053
0.00147409
-0.00189035
-5.04759e-05
0.00336035
0.00303167
-0.000859874
-0.00152215
-3.38637e-05
0.0039865
0.000889588
0.00110709
-0.003199
-0.00102378
0.000379889
-0.00228022
0.000939858
-0.000701178
0.000668908
-0.00508417
-0.000282788
0.00208655
0.00225272
0.000775123
0.00211482
0.00177034
0.000987667
0.00186908
-0.0014887
0.00168116
-0.00148879
0.00184258
-0.00131866
0.000738374
0.00172121
0.000629416
0.00559461
-0.000902108
0.000827918
0.00202418
0.000321341
0.00198415
-0.00175897
-0.00456436
0.000488599
-0.00163355
-0.002392
-0.00109855
-4.52402e-05
-0.00258375
-0.00234927
-0.00289728
-0.00224407
0.00120154
0.00132422
-0.00424901
0.000418558
0.00350575
-0.00206798
0.00437635
-0.000479679
-2.24673e-05
0.00130427
0.000865944
-9.4382e-05
0.000918066
-0.000588676
0.00072602
-0.00145718
0.00141491
-0.00124916
0.000547862
-0.00131591
-0.00164147
0.000929052
0.00381537
0.000666533
-0.0024305
-0.000305821
-0.00490473
-0.00276239
0.000548428
0.000208764
0.00236179
-0.0013171
0.00145275
0.00261382
0.00189088
-0.0054782
0.0029089
0.0031619
0.00152171
-0.000596083
0.00149883
0.00199265
-0.00298431
-0.00278737
0.00133118
-0.000190843
-0.00108666
-0.00155919
-0.00123062
-0.000667444
-0.000526618
-0.00139372
0.000189814
0.000461091
0.000787433
0.000975565
0.00115003
-0.00374965
-0.00196557
0.00232714
-0.000424833
0.00106776
-0.00313309
0.000273074
-0.000333564
0.00345089
1.21702e-05
0.00146905
-0.000802957
-0.00176318
0.00123959
0.00180386
0.000458343
-0.00199318
0.000349649
0.00323513
0.00242619
-0.000745356
0.00192673
-0.00163433
0.00251359
0.00253038
-0.00242689
-0.0024356
0.0033944
0.00315488
-2.44671e-05
-0.00126944
-0.00138663
-0.00166576
-0.00117393
0.00113985
0.00180881
-0.000570438
0.00140048
0.00233882
0.00201881
-0.00441948
0.000880467
0.00064817
0.00242058
-0.00292113
0.00162443
-0.00245226
0.00308859
-0.00182074
-0.000848483
-0.000694791
-0.00103619
-0.000509326
0.00300038
-0.00302312
0.00249048
-0.00110126
0.000500446
0.000758422
0.00273283
-0.00331092
-0.00391572
0.00263741
-0.000968943
-0.000662154
0.0014529
-0.000447017
0.0010416
0.00408401
-0.0013623
-0.00358683
0.000100491
-0.00114094
0.00180409
0.00164031
-0.00108121
-0.00179667
-0.0045918
-0.00133042
0.00251483
-0.00162753
-0.00358711
0.00425479
-0.00301576
-0.000818428
-0.00322264
-0.000331209
0.00139739
0.0012673
0.00134956
0.0028936
0.00175209
0.00338013
0.0024907
0.00110569
-0.00026743
-0.00232298
-0.000114968
-0.00118668
0.000804862
-0.00311959
0.000941603
-0.00363606
-0.000343768
-0.000803865
-0.000252662
0.000337063
0.000734819
0.00317769
0.000707186
-0.00129785
0.00108201
-0.00404222
-0.00205115
0.00304449
-0.00483208
0.000152634
-0.00155346
0.00437485
0.000735773
0.00309405
0.0012693
0.00225752
0.0071706
0.00155166
0.00159114
0.000916178
0.00171949
0.000113269
-0.00117314
0.000354967
-0.00256055
0.000182419
-0.00156617
0.00061319
0.00128088
0.000772832
0.000271973
-0.00229437
-0.000670313
0.00137273
0.00212634
0.00364006
-0.000154158
-0.00406288
0.00123361
-1.42805e-05
0.000301408
-0.00123916
0.00268309
-0.000427942
0.00484445
-0.00153784
-0.000670699
0.000213464
0.000145305
0.00299292
0.00107423
0.000261136
-0.00124522
0.00273477
-0.0031528
0.00435372
0.00164294
0.00336238
0.000573462
0.0014866
0.00222639
0.00460393
0.00321144
-0.000680522
-0.000928875
0.000944754
-0.00235177
0.00118145
0.00369736
-0.00182697
0.00183897
-0.00104442
0.00153332
-0.00313184
-0.00102842
0.000776188
-0.00235364
-0.00122688
-0.00214522
-0.000319125
0.00185351
0.0019452
-0.00249102
0.00178004
0.00192853
-0.00378732
0.000992861
0.000705163
0.00290686
0.00210794
-0.000185751
0.00112265
0.00061282
-0.00186821
0.00148392
0.00183568
-0.00247351
0.00196484
0.00310227
0.00294204
0.00180391
0.000885825
-0.00392116
-0.00177509
-0.00236116
-0.000910719
0.00167925
0.000973379
-0.00185256
0.0021179
0.00147022
-0.00118473
-0.00162225
0.000309587
-0.00105581
0.00292172
-7.48445e-05
-0.000243483
-0.000577822
-0.00292844
-0.00119831
-0.000566483
-0.00214024
0.0017891
0.000251392
-0.00150666
0.00404355
0.00016079
-0.000852761
-0.00489509
-0.000128357
-0.00299464
-0.0041835
-0.000661915
0.00122421
0.00124468
0.00249224
0.00155884
-0.000217812
-0.00348904
0.00154464
0.00139981
-0.00288189
0.0011947
-0.00112559
-4.92965e-05
0.000384976
0.000610185
-0.00036385
0.00358413
0.00345995
0.0022772
0.00133748
0.00441798
-0.00175558
0.000737105
0.00466909
-0.000400766
-0.000903836
-0.00039961
-4.10503e-05
0.000404113
0.000727781
0.00280209
0.000802928
0.00176976
0.00167882
0.000242661
-0.00256573
0.00203862
-0.00180239
0.002823
0.00197259
-0.00172665
